0.830944836139679, 0.286913782358170, -0.127217337489128, 0.835374712944031, 0.300887525081635, -0.367610245943069, -0.128266215324402, -0.212226301431656, -0.342066317796707, 0.462498605251312, 0.067366547882557, 0.961127161979675, 0.658858716487885, 0.169423535466194, 0.009143167175353, -0.152401760220528, 0.061835411936045, 0.207590639591217, -0.304358422756195, -0.410856783390045, -0.460928350687027, 0.186389133334160, 0.270698070526123, 0.241216063499451, -0.045458294451237, -0.243175819516182, 0.618257880210876, -0.134177282452583, 0.350913763046265, 0.022793438285589, 1.378673076629639, 0.066226720809937, 0.174047097563744, -0.390785366296768, 0.291589081287384, -0.020859057083726, 0.001937605091371, 0.237196877598763, -0.531494319438934, 0.133564889431000, 0.392423927783966, -0.766792774200439, 0.719665169715881, 1.239115118980408, 0.168337985873222, 0.020859921351075, -0.047982670366764, 1.000500440597534, 0.237463623285294, 0.042976260185242, -0.276029139757156, -0.262332111597061, 0.032960854470730, 0.367680132389069, -0.737056553363800, 0.025667227804661, -0.402474075555801, 0.196170344948769, 0.036716617643833, -0.749192059040070, 0.699448227882385, 0.305141866207123, 0.432469040155411, 0.200514391064644, -0.828303813934326, -0.506103873252869, -0.803608298301697, 0.429374426603317, 0.849025130271912, -0.361520767211914, -0.880870223045349, 0.758673846721649, 0.959773242473602, -0.488203048706055, -0.525449097156525, -0.350751608610153, 0.110187031328678, -0.411885321140289, 0.211507737636566, -0.082764588296413, -0.455422371625900, 0.255471348762512, 1.505032658576965, 0.345410197973251, -0.524518549442291, -0.230502113699913, 0.313102066516876, 0.011126899160445, -0.163170650601387, -0.235317051410675, -0.295672148466110, -0.674397826194763, 0.163866907358170, -0.974021255970001, -0.202954411506653, -0.446793675422668, 0.503965854644775, 0.104984313249588, 0.284112781286240, 0.234090968966484, -1.057216644287109, 0.504834771156311, -0.229101762175560, 0.053509786725044, -0.014722764492035, -0.779569447040558, 0.783828735351562, -0.298900067806244, -0.644262671470642, -0.450470745563507, -0.025957183912396, -0.365283489227295, -0.370863586664200, 0.105598099529743, -0.194548428058624, 0.125624567270279, -0.064775526523590, -0.254885286092758, 0.070805102586746, 0.408936023712158, -0.454114526510239, -0.917629957199097, 0.597479045391083, -0.372741520404816, -0.786887347698212, -0.101487740874290, 0.312556922435760, 0.108919866383076, -0.320529252290726, -0.769967854022980, -0.341253608465195, -0.456471502780914, 0.200090929865837, 0.121121093630791, 0.235577046871185, 0.287258177995682, -0.183726951479912, 0.515640139579773, -0.140475854277611, 0.248017862439156, 0.092457361519337, 0.535388171672821, -0.026939468458295, 0.370153874158859, -0.994874596595764, 0.224396467208862, -0.558676719665527, -0.265190303325653, -0.679196357727051, -0.349914014339447, -0.839413702487946, -0.353025585412979, -0.146183490753174, 0.059095785021782, -0.170849919319153, -0.086302146315575, 0.565782964229584, -0.064543500542641, -0.468168586492538, -0.355914890766144, 0.479642093181610, 0.821437716484070, 0.083392441272736, -0.352947950363159, 0.300394892692566, -0.017322605475783, -0.720961332321167, 0.169672995805740, -0.299066632986069, 0.549398839473724, -0.338007748126984, -0.002284154528752, -0.690777719020844, -0.001791805028915, -0.043997488915920, -0.332668900489807, 0.176647856831551, 0.119740612804890, -0.070468194782734, -0.132773220539093, 0.521984577178955, -0.324518650770187, -0.641582012176514, -0.231528416275978, 0.610420465469360, -0.383690506219864, 0.232327044010162, -0.543112397193909, -0.422240942716599, 0.088853046298027, 0.166589021682739, -0.166097328066826, 0.841210603713989, -0.108914136886597, 0.258367598056793, 0.397684842348099, -0.317436188459396, 0.083204351365566, 0.256152749061584, 0.129753276705742, 0.291601926088333, 0.250179201364517, 0.313908666372299, -0.138771772384644, 0.323722273111343, 0.182352438569069, -0.051185660064220, 0.137575238943100, -0.171326816082001, -0.271000921726227, 0.041206032037735, -0.626954078674316, 0.160885468125343, 0.441933870315552, 0.084349043667316, -0.073991060256958, -0.263355374336243, 0.697466015815735, 0.307479351758957, -0.175161406397820, 0.055559884756804, 0.241723433136940, -0.572071850299835, 0.040947921574116, 0.295320779085159, 0.037519183009863, -0.182781115174294, 0.252138167619705, 0.387002199888229, -0.001679602311924, 0.014828528277576, 0.258898019790649, 0.021582767367363, -0.044390097260475, 0.454526007175446, 0.210425153374672, 0.615739583969116, 0.279624164104462, -0.423777937889099, 0.183327198028564, 0.021086253225803, 0.277879327535629, -0.117353200912476, 0.748093247413635, 0.168706446886063, 0.027288591489196, 0.204125657677650, -0.010351774282753, 0.086566090583801, 0.141880333423615, -0.129075527191162, 0.909179031848907, 0.730954408645630, -0.189512491226196, 0.289133071899414, 0.105383187532425, -0.535059630870819, -0.189644545316696, -0.202633112668991, 0.131636798381805, -0.304440855979919, 0.590426981449127, -1.108570337295532, -0.585940361022949, -0.853745818138123, -0.451601207256317, 0.186800807714462, 0.093244433403015, 0.039184007793665, 0.166211158037186, -0.576997518539429, -0.365049213171005, 0.077217742800713, -0.282470583915710, 0.252292871475220, 0.748719990253448, 0.114605233073235, -0.440579056739807, 0.261688649654388, -0.027951024472713, -0.613777041435242, -0.139138266444206, -0.209404170513153, -0.060845334082842, 0.061473757028580, -0.572965621948242, -0.703014552593231, 0.138865828514099, 0.045426722615957, -0.710210382938385, -0.737024486064911, -0.484297454357147, -0.036094442009926, -0.578352689743042, -0.081675425171852, -0.407205492258072, 0.184425532817841, -0.466729998588562, -0.321298360824585, 0.168637439608574, -0.106629803776741, -0.424122214317322, 0.159572571516037, -0.628937065601349, 0.215317279100418, -0.483896791934967, -0.326385647058487, -0.754937887191772, -0.369875043630600, -0.148872748017311, -1.088232278823853, 0.619728386402130, -0.586248040199280, -0.251807153224945, -0.029659675434232, -1.001009583473206, 0.131928756833076, -0.189028739929199, -0.300850629806519, -0.813901424407959, -0.669832944869995, 0.086732916533947, -0.362754791975021, -0.000963470607530, -0.233594819903374, 0.045663416385651, 0.202197387814522, -0.025953283533454, -0.217143788933754, -0.661576807498932, -0.179066926240921, -0.081750236451626, -0.388199836015701, -0.068058907985687, 0.422153264284134, -0.230859234929085, 0.141360267996788, 0.136349558830261, 0.175520494580269, 0.310730993747711, -0.265799850225449, -0.265637546777725, 0.095021575689316, -0.391895681619644, 0.343196630477905, 0.087624847888947, -0.048043407499790, -0.168566390872002, 0.613618552684784, -0.318683803081512, -0.628954350948334, 0.058647204190493, 0.135645762085915, -0.017154518514872, -0.404593378305435, -0.172400176525116, -0.104529701173306, -0.116548202931881, -0.497988075017929, -0.338284552097321, 0.460890471935272, 0.112497247755527, 0.272633224725723, -0.054857537150383, -0.346585363149643, 0.222576603293419, -0.356328874826431, 0.215559184551239, -0.265989273786545, 0.398054242134094, 0.033053271472454, 0.038447529077530, 0.604409933090210, 0.525552868843079, -0.727698445320129, -0.072233058512211, 0.126581043004990, -0.274556905031204, 0.142190381884575, -0.128025561571121, -0.279115140438080, 0.311509996652603, -0.135431304574013, 0.111916899681091, -0.080538295209408, -0.196468904614449, -0.284528553485870, 0.046379704028368, 0.457500964403152, 0.032953999936581, 0.165768951177597, 0.273256063461304, 0.117745861411095, 0.271816492080688, -0.002505433978513, -0.098125100135803, 0.168220713734627, 0.515492558479309, 0.108773753046989, 0.222974404692650, -0.146424457430840, 0.433196783065796, 0.041983574628830, -0.144692435860634, 0.085237644612789, 0.281733661890030, -0.168045684695244, -0.050076052546501, -0.321795135736465, 0.295505017042160, 0.162357240915298, 0.435798376798630, 0.011608080938458, 0.028422936797142, 0.121169336140156, -0.186877325177193, 0.176547884941101, -0.297495305538177, 0.268665105104446, -0.029176644980907, 0.059950195252895, -0.232199102640152, 0.177856326103210, 0.232721656560898, 0.060518246144056, 0.335594683885574, 0.880274295806885, 0.019844494760036, 0.124646410346031, 0.337633758783340, -0.026054097339511, -0.141586303710938, 0.280946224927902, 0.164522439241409, -0.054131392389536, 0.398637890815735, -0.016937581822276, 0.066977143287659, -0.097402788698673, -0.015113135799766, 0.007136571221054, 0.383014440536499, 0.439549118280411, 0.013213494792581, 0.039258562028408, 0.183070063591003, 0.440795660018921, 0.001406970433891, 0.277263134717941, -0.545371055603027, -0.868855237960815, -0.082038544118404, -0.242582514882088, -0.156146585941315, -0.644343912601471, -1.264815211296082, 0.344474017620087, -0.597551286220551, -0.597955405712128, 0.275224655866623, 0.550472378730774, 0.062119014561176, -0.328119397163391, 0.017264744266868, -0.028227988630533, 0.172960877418518, -0.315941751003265, 0.116465941071510, -0.308973610401154, -0.514904201030731, -0.018836906179786, -0.456147700548172, 0.019882911816239, -0.266346722841263, -0.026617499068379, 0.041845988482237, -0.120739102363586, -0.550920069217682, -0.625324249267578, -0.301174670457840, 0.025703256949782, -0.118859432637691, -0.143054544925690, -0.761237144470215, -0.583797812461853, 0.142421588301659, -0.397490471601486, -0.690615892410278, -0.548808038234711, -0.432661950588226, -1.146355628967285, -0.389898806810379, -0.022680468857288, -0.406332910060883, 0.273003518581390, -0.216632634401321, -0.535345315933228, 0.126951307058334, -0.090922124683857, 0.065172195434570, 0.100811406970024, -0.305462688207626, -0.587528467178345, -0.084706410765648, 0.058319393545389, -0.077291123569012, -0.527330636978149, -0.720968425273895, -0.520078599452972, -0.138480693101883, -0.659451067447662, 0.584803581237793, 0.148770004510880, 0.027224959805608, -0.067332670092583, -0.225675299763680, -0.112805522978306, 0.119776427745819, 0.151717409491539, -0.044361576437950, -0.339310437440872, 0.050270974636078, 0.141685232520103, -0.178602933883667, -0.016556207090616, -0.252333104610443, 0.035408310592175, -0.221213668584824, -0.242427095770836, -0.017762022092938, -0.016090134158731, 0.205072924494743, -0.162486180663109, -0.132615447044373, -0.552542865276337, -0.004541200585663, -0.266429543495178, 0.269378691911697, 0.032724723219872, -0.064484186470509, 0.305170536041260, 0.250209003686905, 0.021535975858569, -0.183475002646446, 0.142327859997749, 0.095570757985115, -0.131673783063889, 0.265240430831909, -0.071088299155235, 0.106757819652557, -0.059115976095200, -0.186563268303871, 0.182346388697624, 0.105706356465816, 0.180768057703972, -0.146843776106834, -0.107085555791855, 0.209494009613991, -0.252109885215759, 0.294652074575424, 0.087958671152592, 0.117740064859390, 0.006204417441040, -0.115935578942299, 0.243251606822014, 0.244572669267654, -0.054031033068895, -0.145999535918236, 0.374337077140808, -0.361147880554199, -0.184107303619385, -0.031067518517375, -0.110251061618328, 0.069482982158661, -0.552268922328949, -0.194599568843842, 0.183084487915039, 0.374893277883530, 0.420025020837784, 0.034772463142872, 0.332665920257568, 0.102125488221645, -0.251775681972504, 0.308415293693542, -0.126678347587585, -0.296233654022217, 0.082676105201244, 0.252535492181778, -0.063085012137890, 0.484570384025574, 0.601906597614288, -0.320878237485886, -0.141693159937859, 0.032178889960051, 0.519316673278809, 0.765506505966187, 0.432529509067535, 0.399551153182983, 0.633873403072357, 0.511528313159943, -0.159769773483276, -0.272797077894211, 0.733259797096252, -0.009919206611812, -0.326754629611969, 0.023946702480316, 0.392339050769806, -0.161655992269516, -0.063669398427010, 0.136300399899483, -0.404430180788040, -0.241431385278702, 0.659800291061401, 0.101126849651337, 0.023541083559394, 0.159535959362984, -0.423056632280350, 0.513069272041321, 1.144210934638977, -0.181768387556076, -0.145219340920448, -0.326631277799606, 0.189385578036308, 0.693015873432159, -0.601007997989655, -0.214846968650818, 0.255913734436035, -0.276760399341583, -0.083087682723999, 0.700935721397400, -0.335098385810852, -0.277778893709183, 0.318398356437683, 0.516284286975861, -0.070044584572315, 0.103262886404991, 0.529800415039062, 0.229575172066689, -0.012049724347889, 0.139543026685715, 0.260813117027283, 0.087272517383099, -0.110414788126945, -0.778322517871857, -0.649621129035950, -0.534973442554474, -0.277446687221527, -0.396400809288025, -0.707149803638458, -0.335251837968826, -0.303074926137924, -0.092201597988605, 0.072135105729103, 0.309941262006760, -0.044027347117662, -0.122572109103203, -0.038971334695816, 0.110248081386089, -0.435266971588135, 0.141300886869431, -0.497142493724823, -0.125099316239357, 0.596959233283997, -0.214110150933266, 0.516227364540100, -0.696827709674835, -0.803738951683044, -0.697248280048370, -0.360552906990051, 0.599562108516693, 0.326936334371567, 0.400455951690674, 0.123991943895817, -0.000953762617428, -0.108834728598595, 1.044500231742859, -0.170132815837860, -0.694763660430908, 0.457072615623474, -0.418764054775238, -0.777464568614960, -0.446512222290039, -1.351093769073486, -1.045404911041260, -0.436000376939774, 0.537392377853394, -0.820144593715668, -1.158806443214417, -0.882698893547058, -0.161609426140785, -0.840004384517670, 0.484937548637390, 0.124669693410397, 0.245963022112846, 0.674713015556335, 0.120523646473885, 0.039914641529322, -0.298245042562485, -1.076736807823181, 0.302288025617599, 0.141550227999687, -1.169797778129578, 0.513003945350647, -0.150492981076241, -0.732034564018250, 0.102634422481060, 0.097845524549484, 0.024556461721659, -0.023389261215925, 0.575084745883942, -0.504950404167175, -0.527325630187988, 0.955097794532776, 0.539394080638885, -0.127536565065384, -0.048678789287806, 0.421660035848618, 0.291405230760574, -0.027776950970292, -0.439069271087646, 0.669393837451935, 0.055223233997822, -0.418126434087753, -0.499390363693237, 0.443177789449692, -0.178396835923195, 0.240559637546539, -0.281103551387787, 0.171945706009865, -0.060307137668133, -0.087881088256836, 0.063388235867023, -0.420620739459991, 0.039901196956635, -0.621841192245483, 0.319934040307999, 0.438836097717285, -0.587879300117493, 0.862692177295685, 0.062056846916676, -0.103581979870796, 1.020661950111389, 0.103262796998024, -0.421545147895813, 0.387316524982452, -0.709676206111908, 0.153650104999542, -0.310181289911270, 0.545918285846710, 0.174018874764442, -0.141250893473625, -0.329917967319489, 0.566299080848694, 0.152117177844048, -0.280903279781342, 0.132200747728348, -0.404228657484055, 0.222029998898506, -0.073894836008549, 0.000612105941400, -0.115329541265965, -0.261211156845093, 0.656857788562775, 0.201811462640762, -0.768983006477356, -0.511750221252441, 0.581030726432800, 0.205785855650902, 0.242779463529587, 0.518456995487213, 0.275781422853470, 0.380405157804489, -0.431512147188187, -0.128068670630455, 0.195943817496300, 0.390679121017456, 0.024058848619461, 0.092280119657516, 0.111352816224098, -0.097735472023487, -0.102992586791515, -0.207311645150185, -0.002989009954035, 0.349852293729782, -0.023679714649916, -0.281052321195602, -0.592630922794342, -0.052905879914761, -0.055400826036930, 0.293839991092682, -0.384646534919739, 0.353709071874619, -0.073500506579876, 0.137401238083839, -0.420960158109665, 0.460326045751572, -0.050206273794174, 0.358372509479523, 0.008274772204459, -0.549788832664490, -0.262861520051956, 0.145355060696602, 0.436582416296005, 0.057838052511215, -0.283991605043411, 0.225813299417496, 0.118305929005146, 0.248937979340553, -0.064899399876595, -0.298400461673737, 0.841276228427887, 0.320785909891129, 0.264748245477676, -0.000204162948648, 0.571170330047607, 0.094261638820171, 0.236444041132927, -0.161119773983955, -0.154218748211861, -0.167947396636009, 0.252045750617981, 0.538545906543732, 0.253758281469345, 0.459590405225754, 0.084432750940323, 0.400121599435806, -0.125502422451973, -0.216448962688446, -0.122669950127602, -0.005864012055099, 0.128345623612404, 0.172201335430145, -0.827595829963684, -0.669878900051117, -0.119158208370209, -0.313857525587082, -0.367515861988068, 0.105789832770824, 0.030887614935637, -0.991013884544373, -0.326533138751984, 0.347396939992905, -0.162424609065056, -1.337034702301025, -0.200588136911392, 0.326495260000229, 0.304858714342117, 0.193018242716789, 0.420671701431274, -0.651215434074402, -1.132975101470947, 0.210905238986015, -0.198288172483444, -0.523463070392609, -0.243733674287796, -0.483528286218643, 0.135874778032303, 0.011019291356206, -0.113370835781097, 0.071962438523769, 0.341762304306030, -0.760076105594635, -0.466484546661377, 0.757388234138489, -0.093607313930988, -0.159166425466537, -0.380332171916962, 0.277183592319489, -0.312423408031464, -0.683036863803864, -0.414424717426300, -0.695693314075470, 0.215565726161003, -0.634491443634033, -0.552364945411682, -0.425445467233658, -0.392529398202896, -0.086042866110802, -0.113536559045315, -0.039925079792738, -0.518031895160675, 0.151954457163811, 0.586246788501740, 0.077284052968025, -0.567507207393646, -0.279782861471176, 0.431945651769638, 0.081033788621426, -0.352256059646606, -0.652888119220734, 0.890344858169556, -0.563247203826904, 0.077307283878326, -0.174591705203056, -0.381543189287186, -0.592030048370361, -0.177531212568283, -0.501908123493195, 0.291128516197205, 0.007562278769910, -0.213544279336929, -0.519682526588440, 0.059099253267050, 0.022625088691711, 0.320668578147888, 0.184643059968948, -0.132725521922112, -0.115240581333637, -0.356411486864090, -0.078888721764088, 0.207955852150917, 0.025845751166344, -0.058977082371712, -0.363146156072617, -0.307818382978439, -0.131412729620934, -0.301392823457718, 0.050399985164404, -0.191968902945518, -0.148212179541588, 0.188423767685890, -0.183429464697838, -0.172971546649933, -0.291742831468582, 0.126381486654282, -0.240573480725288, -0.093418568372726, 0.058712232857943, -0.166798084974289, 0.119231030344963, -0.041652392596006, 0.025169113650918, -0.114188082516193, 0.593458771705627, 0.193215802311897, 0.085060551762581, -0.123641692101955, 0.001505096210167, -0.018996741622686, -0.146826177835464, 0.173136636614799, 0.194542810320854, -0.087004281580448, -0.404798716306686, 0.270463764667511, 0.214684501290321, 0.074279479682446, -0.058769460767508, 0.405527889728546, -0.078213140368462, -0.073699742555618, -0.034244850277901, -0.188037514686584, -0.381802827119827, -0.063386373221874, 0.479649633169174, -0.063362725079060, -0.187594145536423, 0.142636373639107, -0.245249629020691, 0.368649303913116, 0.874856293201447, 0.144663706421852, -0.058309935033321, 0.270750433206558, -0.141423970460892, 0.331613600254059, 0.133624359965324, 0.342148154973984, 0.262621819972992, 0.262442559003830, -0.083918996155262, -0.181200176477432, 0.326479583978653, 0.238689348101616, 0.396425008773804, 0.111427657306194, 0.210268601775169, 0.220417752861977, -0.350764334201813, 0.272951781749725, 0.058841116726398, -0.158276036381721, 0.013149381615222, 0.552279531955719, 0.336260974407196, 0.121548235416412, -0.444818615913391, 0.399027824401855, 0.563052237033844, -0.208124428987503, 0.065821081399918, 0.201163798570633, 0.430449724197388, 0.042429808527231, -0.199203968048096, 0.169217362999916, -0.019710233435035, -0.479694157838821, 0.086798265576363, 0.025891173630953, -0.185925453901291, 0.271567970514297, -0.300081372261047, -0.123777389526367, 0.145625770092010, -0.170872882008553, -0.061961427330971, 0.394416272640228, 0.226283207535744, 0.036114208400249, 0.448884367942810, -0.362340897321701, 0.518996715545654, 0.359493196010590, -0.095642276108265, -0.278828769922256, 0.211323872208595, 0.568655967712402, 0.027746621519327, 0.186195120215416, -0.047239884734154, -0.125003516674042, -0.115403629839420, 0.185448631644249, -0.173304289579391, 0.113703809678555, -0.061785046011209, -0.353221595287323, -0.358751237392426, -0.399795413017273, -0.770491480827332, -0.586270809173584, 0.137254104018211, -0.512179791927338, -0.501906752586365, -0.147801950573921, -0.298852264881134, -0.385981857776642, -0.247653648257256, 0.270455121994019, -0.560644626617432, -0.409131944179535, -0.096600994467735, 0.184712812304497, -0.131145626306534, -0.213334664702415, 0.570467889308929, -0.074836164712906, -0.319841474294662, -0.360349446535110, -0.135544180870056, -0.401714086532593, -0.348358690738678, 0.377018779516220, -0.148044154047966, -0.008878576569259, -0.388845980167389, -0.440429359674454, 0.098288103938103, -0.217795088887215, 0.032437305897474, -0.167329326272011, -0.439928591251373, -0.499324977397919, -0.366284132003784, -1.072629690170288, -0.092268705368042, 0.313311815261841, -0.082865960896015, -0.389775067567825, 0.027331208810210, -0.143778100609779, -1.461830615997314, 0.365069836378098, -0.469401091337204, -0.224591657519341, -0.255840003490448, -0.409270852804184, -0.002705951221287, 0.069329828023911, -0.530666589736938, 0.041411824524403, -0.743863761425018, 0.426012963056564, -0.159385755658150, 0.116087265312672, -0.856357932090759, 0.000204980911803, -0.150704830884933, -0.101453237235546, -0.098008759319782, 0.101907648146152, 0.090028725564480, 0.235141992568970, -0.060622565448284, 0.243015155196190, -0.340569466352463, 0.113485246896744, -0.178459510207176, -0.070688575506210, -0.440842539072037, -0.129475027322769, 0.170825675129890, 0.051331743597984, 0.046630442142487, -0.098101913928986, -0.251377075910568, 0.140405640006065, 0.191309764981270, -0.096261478960514, -0.196404084563255, 0.017870521172881, 0.142471030354500, -0.113395757973194, -0.011967639438808, -0.019340801984072, -0.062990806996822, -0.274333983659744, -0.063758715987206, 0.071671523153782, 0.194406136870384, -0.148611918091774, -0.042813703417778, 0.085560098290443, -0.018101669847965, 0.195103064179420, 0.140319347381592, -0.201967760920525, 0.296761095523834, -0.037233106791973, -0.148612648248672, -0.146154239773750, -0.190168470144272, -0.102253943681717, 0.179262235760689, -0.006590636912733, -0.299100041389465, -0.075556084513664, -0.095034293830395, 0.155699312686920, 0.082066819071770, -0.050183173269033, -0.113007649779320, 0.081633500754833, -0.058484748005867, 0.171558797359467, -0.015637343749404, -0.097106456756592, 0.125098377466202, 0.266210556030273, -0.070549160242081, 0.097817920148373, -0.442261815071106, -0.207705631852150, 0.129336386919022, -0.093775466084480, 0.716525912284851, -0.141052067279816, 0.296440988779068, 0.508122444152832, 0.483067005872726, 0.044001404196024, 0.788831293582916, 0.259460836648941, -0.186738252639771, 0.473477929830551, 0.355345219373703, -0.213280424475670, -0.378746479749680, -0.401940077543259, -0.051277667284012, 0.823526263237000, 0.864029288291931, 0.184155955910683, -0.070367053151131, -0.730659544467926, 0.390804231166840, 0.896453201770782, 0.247373446822166, 0.777417302131653, -0.356822311878204, -0.772302448749542, -0.356429696083069, 0.185816764831543, 0.334125608205795, -0.373209118843079, 0.061356663703918, 0.104941852390766, 0.343593358993530, 0.481442153453827, -0.355225801467896, 0.445728421211243, 0.139680385589600, -0.045005612075329, 0.375562548637390, 0.675908386707306, -0.367188572883606, 0.011295333504677, 0.736340343952179, 0.500479161739349, 0.090129107236862, 0.593212842941284, 0.214056298136711, -0.248226523399353, 0.120564177632332, 0.480809211730957, -0.319759875535965, 0.211763948202133, 0.180729851126671, -0.489715397357941, -0.269000351428986, 0.881444036960602, -0.338194608688354, -0.039842277765274, 0.062615826725960, 0.001321159186773, -0.317430734634399, -0.356185078620911, -0.639369547367096, -1.134176015853882, 0.290600538253784, 0.363042563199997, -0.475170075893402, -0.957134664058685, 0.011776533909142, -0.106312379240990, -0.300512701272964, -0.105022914707661, 0.477626949548721, 0.625366926193237, -0.964550316333771, -0.163655459880829, 0.153687655925751, -0.414033949375153, 0.527131319046021, 0.091895475983620, -1.068579077720642, -1.072007060050964, 0.864773154258728, 0.529949009418488, -0.635605633258820, 0.389065593481064, -0.822054862976074, 0.171413943171501, -0.094323299825191, -0.666160702705383, -0.608150422573090, -0.638515770435333, -0.704626679420471, 0.548689663410187, -0.799566805362701, -0.046066757291555, -0.437071591615677, -0.141484528779984, -0.132499083876610, -0.996849179267883, -0.758405625820160, 0.324804604053497, -0.004503925330937, -0.625701129436493, -0.574359774589539, -0.627989709377289, -0.435684651136398, -0.489680349826813, 0.215573117136955, -0.144088655710220, 0.112014494836330, -0.352153629064560, -0.291805565357208, -1.672578215599060, 0.074186310172081, 0.005237596575171, -1.037041187286377, -0.274535268545151, 0.637720763683319, -0.560625851154327, -1.016727328300476, 0.528897762298584, -1.283393740653992, -0.530775308609009, 0.334820955991745, -0.353864103555679, 0.076509073376656, -0.121608346700668, 0.254053950309753, 0.323941409587860, -0.052769526839256, 0.817796051502228, 0.242900758981705, -0.083200708031654, 0.616641879081726, -0.485817104578018, 0.206510469317436, 0.060548692941666, 0.223035275936127, -0.896885991096497, -0.389418751001358, 0.649102032184601, -0.014690975658596, 0.089130587875843, -0.044537123292685, -0.013854919932783, 0.329892009496689, 0.070599988102913, 0.218813583254814, -0.352209836244583, 0.219574809074402, 0.248245865106583, -0.144404232501984, -0.676729500293732, -0.244453787803650, 0.419838786125183, 0.225509643554688, -0.224092975258827, 0.192714408040047, 0.143651068210602, 0.159260228276253, -0.277669936418533, 0.768829703330994, 0.102024406194687, -0.031145585700870, 0.025365428999066, -0.515214145183563, 0.155246004462242, 0.128344789147377, 0.497805118560791, 0.558121025562286, 0.435026973485947, -0.377800047397614, -0.479073911905289, -0.350399464368820, -0.258643597364426, -0.306151747703552, -0.478990912437439, 0.420630902051926, -0.130351811647415, 0.470988482236862, -0.217500433325768, -0.112967371940613, -0.496437788009644, -0.401854842901230, 0.649906396865845, -0.202646955847740, 0.406472980976105, 0.015527120791376, -0.123067513108253, 0.150504365563393, 0.103374168276787, -0.014545383863151, -0.037406105548143, 0.618304073810577, 0.126642093062401, -0.143780708312988, 0.125026807188988, 0.297954648733139, 0.194857001304626, -0.353792637586594, 0.109622068703175, 0.593654036521912, 0.239157781004906, 0.188714221119881, 0.406631171703339, -0.347917467355728, 0.185021445155144, -0.269978940486908, -0.100057594478130, 0.691139698028564, -0.023794820532203, 0.176579892635345, 0.088233165442944, 0.091573469340801, -0.080602936446667, -0.012655059807003, 0.566811919212341, 0.588751792907715, 0.249404922127724, -0.194093465805054, 0.241318926215172, 0.167177245020866, 0.057864803820848, 0.549824178218842, 0.096045717597008, 0.051153328269720, 0.103479392826557, 0.249306127429008, 0.103224053978920, -0.184867605566978, -0.027694523334503, -0.091640040278435, 0.709439396858215, 0.239810407161713, -0.291079849004745, -0.148527115583420, -0.150696247816086, -0.130239695310593, 0.081236176192760, -0.293884575366974, 0.328503549098969, 0.308915972709656, 0.138573601841927, 0.366817325353622, -0.157022550702095, 0.038360685110092, 1.433779716491699, 0.039728216826916, 0.572270691394806, -0.156702414155006, 0.073164001107216, -0.216873303055763, 0.176156297326088, -0.674607992172241, -0.853303551673889, 0.296935349702835, -0.453000545501709, -0.727014601230621, -1.557860732078552, -0.174616619944572, -0.676184713840485, -0.767734587192535, 0.226380690932274, 0.032757081091404, -0.719901084899902, -0.935772836208344, -0.558206140995026, -0.632738351821899, -0.404276490211487, -0.364926189184189, 0.017891693860292, -0.266354858875275, -0.116874083876610, -0.027031248435378, 0.299638748168945, -0.053182944655418, -0.024918707087636, -0.932411313056946, -0.207059890031815, -1.504756450653076, -0.554566383361816, -0.308849751949310, -0.535799503326416, -0.141196340322495, 0.142524525523186, -0.515312075614929, 0.171991378068924, -0.458852410316467, -0.722855389118195, -0.803240120410919, -0.214423686265945, 0.353610605001450, -0.251616001129150, 0.001646936405450, -0.241270497441292, -0.695467233657837, -0.383676469326019, 0.197850152850151, -0.271527945995331, -0.178357228636742, -0.208390131592751, -0.320877939462662, -0.623262047767639, -0.103229060769081, -0.823463618755341, -0.119147449731827, 0.124449394643307, -0.545846343040466, -0.879362344741821, -0.227498352527618, 0.410071849822998, -1.134625077247620, 0.301065921783447, -1.484245300292969, 0.071360021829605, -0.359817177057266, -0.326961636543274, 0.385525941848755, 0.082571968436241, -0.492464333772659, 0.177173674106598, 0.276364177465439, 0.464359253644943, 0.068069562315941, 0.059467185288668, 0.112834103405476, -0.044096309691668, 0.715426504611969, -0.094919703900814, -0.162861421704292, 0.025928864255548, 0.118645228445530, 0.309549540281296, -0.281123965978622, 0.159065127372742, 0.027491150423884, -0.088683433830738, 0.209896132349968, 0.067307032644749, -0.233202829957008, -0.069212920963764, 0.185022190213203, -0.275215834379196, -0.614386200904846, -0.307946860790253, 0.108975805342197, 0.162766143679619, 0.044490586966276, 0.252990186214447, -0.108337074518204, 0.183581084012985, -0.102247528731823, 0.205372869968414, 0.246361061930656, -0.071303762495518, -0.334133535623550, 0.253789931535721, -0.564218997955322, 0.114096485078335, -0.550396323204041, 0.030571427196264, 0.296767324209213, -0.168176695704460, 0.053997110575438, -0.284178763628006, 0.139483332633972, -0.371175497770309, 0.074560612440109, 0.017970496788621, 0.567419350147247, 0.151565104722977, 0.032895632088184, -0.067925482988358, 0.084773518145084, -0.310141384601593, 0.054644986987114, 0.391517907381058, -1.048344254493713, -0.076165758073330, 0.261394023895264, 0.464629769325256, -0.135209679603577, 0.331803083419800, -0.062528163194656, 0.383359104394913, -0.006160011980683, 0.011069356463850, -0.096286840736866, 0.195684671401978, -0.138226836919785, 0.273316115140915, -0.033627536147833, 0.023060465231538, 0.232356414198875, -0.057214431464672, 0.178889065980911, -0.251410156488419, -0.001710866927169, 0.200279816985130, 0.360871613025665, 0.191311165690422, 0.067461974918842, 0.174217730760574, -0.226563096046448, 0.420634210109711, 0.026984861120582, 0.464262902736664, -0.076053537428379, -0.245101794600487, -0.166945353150368, -0.312421113252640, 0.200078830122948, 0.631334245204926, 0.194257140159607, -0.083340816199780, 0.227213799953461, 0.154949188232422, 0.400134772062302, 0.078781448304653, -0.062623307108879, -0.035781193524599, 0.379976153373718, 0.222849696874619, 0.235534414649010, -0.249027818441391, 0.210506081581116, 0.285593688488007, 0.094170257449150, -0.154047608375549, 0.055492971092463, 0.081161968410015, 0.251325279474258, -0.063522554934025, -0.087269358336926, 0.075379081070423, 0.024612868204713, -0.284627199172974, 0.009470431134105, 0.501356542110443, 0.413228243589401, -0.024069184437394, 0.401293843984604, -0.680540859699249, -0.106918960809708, -0.543063044548035, -0.033487010747194, 0.034305248409510, -0.417486310005188, -0.109813123941422, -0.520086526870728, -0.367155879735947, 0.268751889467239, -0.401411205530167, 0.106128245592117, 0.350362598896027, -0.060402672737837, -0.351191222667694, -1.227086186408997, -0.185976415872574, 0.370468527078629, -0.721208930015564, -0.476546883583069, -0.299351334571838, -1.111949682235718, -0.386224865913391, -0.352234393358231, -0.613096237182617, -0.384225159883499, 0.019421614706516, -0.389990597963333, -0.291009724140167, -0.412151247262955, -0.488991409540176, -0.455548703670502, -1.080548048019409, 0.087483383715153, -0.402145475149155, -1.451277613639832, 0.149519965052605, 0.634870946407318, -0.359602898359299, -0.071991182863712, -0.172314554452896, -0.386629968881607, -0.001856819842942, -0.853155493736267, -0.607050061225891, -0.745141983032227, -0.437870860099792, 0.112829267978668, 0.224354118108749, -1.505180120468140, -0.641090929508209, -0.058690194040537, -0.415524631738663, 0.100377969443798, -0.660955607891083, 0.030356070026755, -0.167981803417206, -0.182559520006180, -0.746016919612885, 0.343174010515213, -0.187920853495598, 0.123387724161148, -0.130812302231789, 0.255748063325882, 0.098227746784687, 0.254476279020309, -0.002662542741746, -0.255112588405609, -0.059103738516569, -0.072138316929340, 0.076648384332657, 0.009194196201861, 0.073726624250412, -0.054377079010010, -0.244035840034485, 0.278172165155411, -0.065087176859379, -0.016796873882413, -0.116859674453735, -0.168663263320923, -0.000321401428664, -0.218211352825165, 0.061689287424088, 0.063881076872349, 0.117527090013027, -0.039650663733482, 0.044482737779617, -0.229675158858299, -0.109913125634193, 0.117326281964779, 0.077838942408562, -0.215195775032043, -0.116237573325634, 0.027273949235678, 0.109457954764366, 0.158591896295547, -0.226189211010933, -0.075796358287334, -0.000949191802647, 0.057720366865396, -0.025654757395387, 0.044012311846018, 0.107226558029652, -0.120084732770920, -0.146861910820007, 0.157968938350677, 0.085354380309582, 0.078499838709831, 0.076217837631702, -0.141643360257149, -0.131435558199883, -0.156726449728012, 0.146442502737045, -0.157600879669189, 0.031215349212289, -0.374963343143463, 0.224010810256004, -0.011160328984261, 0.060976330190897, 0.057846322655678, 0.019555002450943, 0.316592067480087, -0.168722748756409, 0.213072434067726, 0.337131410837173, 0.003195548895746, 0.070308178663254, 0.067449547350407, 0.679685175418854, -0.750473558902740, 0.368909507989883, 0.013940154574811, 0.149067595601082, -0.360302388668060, 0.345243304967880, -0.220691412687302, -0.003507162211463, 0.192587226629257, 0.492904722690582, 0.110070258378983, 0.421018987894058, 0.133756548166275, -0.091784574091434, -0.096040062606335, 0.350959062576294, 0.483830571174622, 0.497999250888824, -0.363351404666901, 0.408108592033386, 0.502944827079773, 0.275610566139221, -0.119214303791523, 0.665064334869385, 0.154540956020355, -0.290407121181488, 0.745985865592957, 0.434221804141998, -0.456774711608887, 0.891802906990051, 0.368378162384033, 0.750954508781433, 0.172359734773636, -0.033401675522327, 0.156977012753487, -0.180862024426460, -0.308962196111679, -0.385440468788147, 0.666621685028076, 0.019826252013445, 0.076487995684147, -0.343521237373352, -0.236037984490395, 0.871238291263580, -0.238532230257988, 0.098856039345264, -0.614180922508240, 0.490787923336029, -0.338205456733704, 0.723093509674072, -0.019277006387711, 0.272363156080246, 0.522692143917084, -0.389464467763901, -0.032540354877710, 0.054107870906591, -0.114369086921215, 0.459328651428223, 0.662889182567596, -0.426299810409546, -0.211724236607552, 0.038146916776896, -0.797965943813324, -0.365665227174759, -0.023336254060268, -0.054133802652359, -0.094265118241310, -1.055344700813293, -0.288420945405960, -0.232606410980225, -0.495518118143082, -0.872757494449615, -1.246615290641785, -0.448773682117462, -0.575961053371429, -0.253126978874207, -0.110952943563461, -0.279327273368835, -0.490738719701767, -0.686139583587646, -0.245548680424690, -0.066146612167358, 0.242456197738647, 0.152624517679214, -0.471283346414566, 0.090922988951206, -0.327260732650757, -1.386110424995422, -0.407777369022369, 0.309141814708710, -0.545649528503418, -0.462701201438904, 0.061825186014175, 0.140586540102959, 0.024419197812676, -0.764058709144592, 0.160468190908432, -0.331723958253860, -0.333249896764755, -0.128945931792259, -0.523441314697266, -0.431841105222702, -0.146391376852989, -0.262646675109863, -0.275132864713669, 0.840262174606323, -1.141453027725220, -0.283792048692703, -0.624036192893982, -0.413047939538956, 0.099932268261909, -0.211021259427071, 0.939794003963470, 0.858888983726501, -0.286919444799423, -0.289628207683563, -0.013405454345047, -0.338915616273880, 0.137695506215096, -0.293381303548813, -0.819685280323029, -0.191915020346642, -0.390167117118835, 0.115250319242477, -0.028515169396996, -0.641643285751343, -0.606935441493988, -0.074506677687168, -0.153234481811523, -0.212666422128677, 0.036028120666742, -0.148437708616257, 0.137962386012077, -0.054870605468750, -0.229417517781258, 0.277780622243881, 0.014018877409399, -0.189115673303604, 0.009590946137905, 0.179880917072296, -0.286213815212250, -0.232342794537544, 0.056600086390972, -0.219200178980827, 0.154187709093094, 0.214530453085899, 0.259967267513275, -0.203095689415932, 0.189162924885750, 0.438097447156906, 0.040082301944494, 0.034113232046366, 0.360586851835251, -0.213102564215660, -0.585472822189331, 0.349713861942291, 0.014003409072757, 0.100362412631512, 0.223610982298851, 0.346604883670807, -0.055636383593082, -0.078332670032978, -0.048113778233528, -0.065694309771061, 0.309945821762085, 0.258417010307312, 0.147250220179558, 0.240522757172585, 0.207000076770782, -0.208637639880180, -0.489129185676575, 0.255085021257401, 0.067077644169331, -0.086813353002071, 0.121867351233959, 0.465853303670883, -0.429510176181793, 0.083971500396729, -0.379317730665207, 0.376690685749054, -0.111218750476837, -0.165267378091812, 0.173547789454460, 0.122769415378571, 0.186906293034554, -0.181704252958298, -0.101014509797096, -0.023451896384358, -0.113198935985565, 0.393014580011368, 0.041602894663811, -0.459450542926788, -0.392356842756271, -0.289404541254044, 0.128800511360168, -0.497146040201187, -0.378342151641846, 0.035874143242836, 0.079188846051693, 0.261668473482132, -0.228913113474846, 0.194711878895760, -0.227509140968323, 0.139627128839493, 0.028157345950603, -0.239479288458824, 0.054628636687994, 0.331138044595718, 0.250357210636139, 0.633294701576233, 0.011725576594472, 0.056456543505192, 0.426643341779709, -0.109616629779339, 0.021742232143879, 0.445581287145615, 0.656726837158203, 0.536565184593201, 0.706456065177917, 0.406534194946289, 0.821631669998169, -0.243221536278725, 0.384470403194427, -0.027464676648378, -0.269698381423950, 0.079003877937794, 1.243220806121826, 0.322766512632370, 0.157601147890091, 0.007862689904869, -0.513941466808319, -0.171672090888023, 0.302700102329254, 0.532665252685547, -0.043540138751268, 0.224938407540321, 0.403220325708389, -0.625608980655670, -0.101497553288937, 0.308935105800629, -0.343127250671387, -0.072157002985477, -0.166791111230850, 0.264828294515610, 0.056170769035816, 0.113745108246803, 0.111388310790062, -0.521688401699066, 0.162048041820526, 0.126133620738983, 0.202502638101578, 0.998375415802002, -0.197843343019485, -0.294132828712463, 0.015031657181680, -0.718659520149231, -0.373340010643005, -0.225136786699295, -0.403119146823883, -1.394138813018799, -0.040783260017633, 0.146479904651642, -0.216916054487228, -0.286466807126999, -0.195312663912773, -0.421433627605438, -0.811200261116028, -0.096994929015636, -0.510280907154083, -0.434374868869781, -0.598136365413666, 0.089889824390411, -0.406572490930557, -0.355315595865250, -0.626461148262024, -0.299700111150742, -0.303738325834274, -0.444446384906769, -0.216802954673767, -0.941752374172211, 0.601395547389984, -0.437237560749054, -0.441484123468399, -0.132699072360992, -0.856409907341003, -1.422433495521545, -0.763796985149384, 0.050124701112509, -0.049209125339985, -0.753112256526947, -0.345902949571609, -0.392795950174332, -0.711345851421356, 0.153103753924370, 0.229975491762161, -0.790923118591309, -1.214623928070068, -1.776540279388428, 0.424379140138626, -0.528254389762878, 0.252209961414337, -0.084133915603161, -0.718440830707550, -0.695732355117798, -0.331142723560333, -0.300277501344681, -0.066228933632374, -0.627779841423035, -0.583355009555817, -0.188089653849602, -0.639917671680450, 0.178311407566071, 0.627254545688629, 0.105709396302700, -0.536456942558289, 0.152355983853340, 0.191847860813141, -0.849275827407837, -0.564554035663605, 0.295914977788925, -0.647546231746674, 0.250124245882034, -0.401462823152542, 0.026668081060052, -0.391791999340057, 0.194181874394417, 0.472814261913300, -0.163120731711388, 0.120887652039528, 0.099823080003262, 0.162986695766449, -0.035481069236994, 0.370641082525253, 0.025112139061093, -0.362057417631149, 0.449870139360428, 0.620791316032410, 0.118149459362030, 0.120265834033489, -0.117339514195919, 0.267273783683777, -0.072756826877594, -0.289675652980804, 0.245725125074387, 0.046941276639700, 0.221103325486183, 0.027119310572743, 0.338669389486313, 0.336667507886887, -0.408524334430695, -0.688923656940460, 0.104410029947758, -0.055063486099243, 0.459967553615570, 0.032400242984295, 0.265737622976303, 0.424493432044983, 0.403720647096634, 0.144242048263550, -0.119216889142990, 0.365471452474594, 0.904670715332031, -0.161805689334869, -0.074403800070286, 0.032019134610891, 0.075293183326721, -0.145728364586830, 0.095303334295750, -0.909980416297913, -0.535972237586975, -0.858471035957336, -0.019133327528834, -0.105645805597305, -0.081351011991501, 0.101474963128567, -0.247535496950150, 0.026701753959060, -0.098961487412453, 0.101175390183926, -0.547113597393036, -0.417318850755692, 0.511791706085205, 0.654471576213837, -0.740354835987091, -0.449766606092453, 0.158866137266159, 0.105279050767422, 0.018786238506436, -0.299958676099777, -0.304278910160065, 0.380524426698685, 0.066642835736275, 0.100453101098537, 0.338506251573563, -0.203395456075668, 0.915467560291290, 0.402523279190063, 0.714201569557190, 0.346111148595810, 1.070273399353027, 0.434850960969925, 0.133753567934036, -0.312540888786316, 0.166323080658913, -0.090838715434074, 0.211520284414291, 0.679027080535889, 0.407714486122131, -0.356346517801285, 0.687678694725037, 0.267764389514923, 0.467296451330185, -0.094481594860554, -0.199911445379257, -0.221940353512764, 0.493939697742462, -0.273930549621582, 0.344366103410721, 0.264526396989822, 0.575469791889191, 0.224953427910805, 0.293783485889435, -0.093835316598415, 0.322697639465332, 0.201726928353310, 0.247557356953621, 0.158725470304489, 0.703145563602448, 0.275484979152679, 0.160676658153534, -0.200822800397873, -0.011418034322560, 0.683404922485352, -0.241294860839844, 0.350497603416443, 0.311362415552139, 0.199673950672150, 0.595161378383636, 0.052809454500675, 0.790129780769348, 0.095784910023212, 0.188881397247314, 0.358911693096161, 0.185507953166962, 0.012069590389729, 0.248775377869606, -0.249798506498337, 0.186453178524971, -0.039010114967823, -0.859151363372803, -0.330527514219284, 0.204696848988533, -0.742135047912598, -0.706133842468262, -0.652622044086456, 0.058142714202404, 0.004475848749280, -0.592833161354065, 1.356509923934937, -0.645028352737427, 0.369054526090622, 0.060988571494818, -0.335626870393753, -1.282492399215698, -0.425281882286072, 0.056694477796555, -0.762952089309692, -0.179735675454140, -0.263313204050064, 0.091383397579193, 0.125369697809219, 0.852047681808472, -0.047449074685574, -0.417603969573975, -0.546714603900909, 0.149258300662041, -0.413577198982239, -0.654233634471893, -0.135790988802910, 0.423180162906647, -0.191424936056137, 0.129865884780884, 0.154917582869530, -0.912893354892731, 0.654678165912628, -0.524813294410706, -0.095124304294586, -0.530603289604187, -0.447974920272827, -0.229710683226585, -0.745586395263672, 0.226052016019821, -0.675757288932800, 0.045584216713905, 0.402173668146133, 0.028979152441025, -0.142035588622093, 0.802804350852966, -0.969818055629730, 0.038790471851826, -0.499946355819702, -0.209960803389549, -1.203164696693420, -0.489147812128067, -0.281670570373535, -1.192684292793274, -0.860270380973816, -0.183990061283112, -1.091774463653564, -0.048151057213545, 0.204903393983841, -0.003912938758731, -0.397149413824081, -0.337138831615448, -0.331174015998840, 0.577703416347504, -0.330790340900421, 0.580943584442139, 0.783843100070953, -0.333805203437805, 0.011978073045611, 0.208563894033432, 0.108629025518894, 0.060468278825283, -0.177114486694336, -0.041141584515572, -0.155323669314384, 0.268946290016174, -0.588483870029449, -0.078819766640663, 0.402103185653687, -0.253753304481506, 0.133274078369141, -0.854572951793671, -0.346155941486359, -0.817837774753571, 0.070874139666557, -0.424575686454773, 0.262960046529770, 0.134149014949799, -0.193601474165916, -0.387650638818741, -0.697067022323608, 0.129155099391937, 0.404564559459686, -0.247123941779137, 0.324078857898712, 0.194717064499855, -0.263153403997421, 0.395237088203430, 0.089409291744232, -0.223147183656693, 0.218786433339119, -0.063179112970829, 0.119740925729275, -0.430337816476822, 0.068810671567917, -0.041576109826565, 0.681285023689270, -0.049281906336546, -0.505271911621094, 0.194098174571991, -0.602803826332092, 0.620417058467865, -0.123752050101757, -0.208761498332024, -0.210442200303078, -0.265039086341858, 0.250430792570114, -0.144802555441856, 0.130978181958199, -0.036789935082197, -0.184358775615692, -0.205363094806671, -0.588227093219757, 0.233930036425591, -0.400458067655563, 0.134792432188988, -0.267928004264832, 0.373615801334381, 0.583468794822693, -0.949582457542419, -0.022905092686415, -0.681592762470245, 0.118193127214909, 0.579591631889343, -0.715024292469025, -0.062908478081226, -0.155833184719086, 0.277037024497986, 0.104620106518269, 1.611238479614258, -0.970888078212738, -0.111447826027870, -0.126331105828285, 0.125409156084061, 0.073358178138733, -0.212485089898109, 0.506328999996185, 0.172725051641464, 0.702000081539154, 0.415771126747131, -0.508042752742767, -0.182530224323273, 0.093751281499863, -0.767898082733154, 0.659218430519104, 0.272945404052734, 0.088384717702866, 0.880939483642578, 0.121246680617332, 0.128579899668694, 0.304467052221298, 1.291014432907104, -0.467613309621811, 0.348617285490036, 1.032528877258301, 0.023566005751491, -0.001953020226210, -0.006167040672153, -0.197710931301117, 0.310930162668228, 0.807975172996521, 0.143064945936203, 0.476374417543411, 0.022873716428876, 0.543376088142395, 1.042372584342957, 0.231350421905518, -1.421845674514771, 0.763940215110779, 0.353787809610367, 0.612526059150696, 0.204297184944153, -0.603086292743683, -0.210990563035011, -0.736422419548035, 0.252801179885864, 0.047333385795355, -0.142327576875687, 0.009528473950922, -0.056610696017742, -0.740190684795380, -1.150468349456787, 0.460100114345551, -1.100544691085815, -0.119615584611893, -0.615403652191162, -0.544530570507050, -0.886415600776672, 1.005771994590759, -0.047956947237253, -0.761742711067200, -0.275928646326065, -0.347715586423874, -0.741684794425964, 1.600652217864990, -0.450042009353638, -0.185027047991753, -0.935524880886078, -0.434603750705719, -0.099693387746811, -0.535505652427673, -0.500728130340576, -0.514425218105316, -0.604401469230652, 0.529317498207092, -0.990722239017487, 0.614581942558289, 1.352626323699951, -0.373435944318771, -0.704289138317108, -0.670745551586151, -0.833348095417023, 0.016177862882614, 0.303517639636993, -0.008189442567527, 0.119378998875618, -1.004864692687988, -0.419183820486069, 0.311561077833176, -0.451883226633072, -0.659682214260101, -0.711423635482788, -0.601890146732330, -0.839899063110352, -0.362560927867889, -0.148052215576172, 0.282919913530350, -1.072011828422546, -0.820813536643982, 0.138370037078857, -0.722896873950958, 0.326006442308426, -0.437179446220398, -0.889056801795959, 0.212966322898865, -0.549881756305695, 0.245258733630180, 0.615662217140198, 0.688394665718079, -0.142133474349976, -0.183157891035080, -0.306701719760895, 0.610513329505920, 0.199758410453796, 0.039054863154888, -0.066160537302494, 0.430106580257416, -0.383283078670502, -0.504902482032776, 0.272111117839813, -0.269246667623520, -0.301958143711090, -0.907424747943878, 0.353168815374374, -0.001730284653604, 0.142477810382843, 0.192378029227257, -0.381299734115601, 0.743868231773376, -0.733198404312134, 0.333198070526123, 0.334609299898148, 0.751368641853333, 0.053420204669237, 0.159322381019592, 0.329337686300278, 0.501204490661621, 0.315397441387177, 0.448843836784363, 0.020904453471303, 0.061513822525740, 0.212028831243515, 0.155519366264343, -0.179521307349205, 0.514316141605377, -0.191903427243233, -0.415399789810181, 0.052992321550846, -0.386001616716385, -0.615390837192535, -0.479515135288239, 0.437005877494812, -0.316984474658966, 0.223215788602829, -0.427965432405472, -0.055919177830219, 0.259953856468201, 0.103784695267677, -0.038845792412758, 0.322106599807739, 0.035918716341257, -0.141168758273125, 0.912467896938324, -0.362484902143478, 0.076444856822491, 0.571347296237946, 0.529638051986694, 0.531722664833069, 0.424935281276703, -0.537816226482391, -0.198999449610710, 0.914987683296204, -0.037212319672108, -0.565039932727814, 0.480996459722519, 1.147755742073059, 0.546965718269348, 0.730897545814514, 0.140061706304550, 0.831063747406006, 0.061509240418673, 0.974037170410156, 0.333124101161957, 0.550043046474457, 0.979182243347168, -0.925369262695312, -0.629477381706238, 0.424400180578232, -0.197809159755707, -0.298350721597672, 0.943070709705353, 0.474063128232956, 1.244359612464905, -0.486542940139771, 0.318940997123718, -0.629762709140778, -0.485737383365631, 0.017148813232780, 0.446164578199387, -0.067851185798645, -0.025518286973238, 0.749508261680603, 0.103287480771542, -0.021986836567521, 0.462893515825272, 1.008372783660889, 0.013273088261485, -0.173074588179588, 1.182207584381104, 0.153570398688316, 0.465844601392746, 0.497924178838730, -0.242887005209923, -1.282309174537659, 1.308853864669800, -0.108377985656261, 0.377530425786972, -0.311847239732742, 0.003164560068399, -0.564666628837585, 0.024549748748541, 0.700635373592377, -0.046867340803146, -1.524651885032654, 0.948674619197845, -0.018495034426451, -0.290597230195999, -0.730149149894714, -0.459420561790466, 1.558352351188660, 0.208675697445869, 0.342588037252426, -0.041288685053587, -0.718417346477509, -0.583794355392456, -0.610324501991272, -0.020569371059537, 0.528463065624237, 0.154420480132103, 0.264170765876770, -0.368517398834229, -0.297827184200287, 0.009538619779050, -0.786983847618103, -0.859285593032837, 1.441077232360840, -1.274731159210205, 1.210989832878113, -0.602921605110168, 0.092058695852757, -1.080096840858459, 0.047663401812315, -0.114022396504879, -0.010881135240197, 0.250643670558929, -1.098537802696228, -0.479588449001312, -0.055995963513851, 0.292018830776215, -0.089787699282169, -0.884366095066071, 0.138959586620331, -0.074446164071560, 0.559974431991577, -0.161500722169876, -0.832883477210999, -0.536651372909546, -0.520160019397736, 0.255582809448242, 0.332828581333160, -0.028882831335068, -0.532633483409882, -0.044099416583776, -0.368709385395050, 0.198461726307869, -0.266345649957657, 0.042205397039652, 0.161583200097084, 0.406220614910126, -0.943562090396881, -0.176982477307320, 0.346268117427826, -0.658793628215790, -0.364172607660294, -0.861298561096191, -0.334685593843460, -0.179262340068817, -0.493440270423889, -1.327859520912170, -0.323851615190506, 0.316331177949905, 0.619928359985352, -0.342840433120728, 0.550073206424713, -0.459555536508560, 0.144735112786293, -0.425564497709274, -0.313471615314484, -1.011891603469849, -0.801759243011475, -0.267781585454941, -0.485432714223862, -1.475434780120850, -0.352018922567368, -0.325842022895813, -0.006169523112476, 0.349612623453140, 0.191541373729706, -0.313813239336014, -0.093623481690884, -0.077160157263279, -0.021253662183881, -0.051551103591919, 0.335916996002197, -0.186714515089989, 0.449328988790512, 0.808343708515167, -0.615456759929657, 0.795850694179535, -0.270727425813675, -0.068008221685886, -0.179506331682205, 0.503914713859558, 0.280723690986633, -0.263415098190308, -0.789847671985626, 0.134722486138344, 0.268619596958160, 0.052638448774815, -0.458221822977066, -0.072575427591801, -0.092152200639248, 0.078384250402451, -0.030373642221093, 0.071158036589622, -0.310582339763641, 0.133678928017616, 0.013034017756581, -0.296315103769302, -0.178930088877678, 0.024333994835615, 0.602874517440796, -0.022718733176589, 0.317611575126648, 0.558885872364044, 0.162642717361450, 0.609186410903931, -0.343653798103333, -0.143527776002884, 0.205918818712234, -0.525216758251190, 0.887332499027252, -0.154262498021126, 0.393347293138504, 0.205658525228500, -0.123250544071198, 0.131465852260590, 0.388961374759674, 0.324906557798386, -0.985160648822784, -0.106714457273483, -0.449376344680786, -0.211168199777603, 0.428676068782806, 0.342543244361877, -0.265657365322113, 0.206290006637573, -0.744732201099396, 0.080003365874290, 0.364512890577316, 0.400407314300537, 0.188214510679245, -0.235859736800194, 0.478441715240479, 0.675583004951477, 0.306729227304459, -0.145722344517708, -0.137094587087631, -0.194865137338638, 0.569687962532043, 0.131325155496597, -0.060559991747141, 0.203761026263237, -0.078284934163094, 0.152133941650391, -0.322236895561218, -0.008514046669006, 0.588739335536957, -0.235695466399193, 0.092741146683693, -0.135754451155663, 0.998967826366425, -0.271451324224472, 0.256158381700516, 0.041650936007500, 0.292027294635773, -0.000993391382508, 0.041443075984716, 0.145196959376335, 0.171721577644348, 0.127730309963226, 0.125029176473618, 0.272527217864990, 0.207327201962471, 0.168742090463638, 0.329691022634506, 0.077343568205833, -0.397242426872253, -0.131295606493950, 0.467521309852600, 0.837051391601562, 0.064762167632580, -0.020537478849292, -0.038253068923950, 0.583654403686523, -0.067665591835976, 0.263710409402847, 0.141695678234100, 0.098338842391968, 0.536111950874329, 0.095748864114285, -0.559520125389099, 0.366367429494858, 0.502374947071075, 0.247131332755089, 0.409165322780609, -0.073737449944019, -0.311620682477951, 0.527348041534424, 0.186365649104118, -0.061324380338192, -0.492570787668228, -0.113048285245895, 0.322235047817230, -0.178355395793915, -0.143976911902428, -1.137793540954590, -1.477745890617371, -1.249660491943359, -0.646237313747406, -0.171394214034081, -0.184908315539360, -0.475043296813965, -0.654454588890076, -0.286835879087448, -0.623520314693451, -1.535356402397156, 0.067251726984978, -0.687658429145813, -0.747951328754425, 0.500637531280518, -0.390005171298981, 0.051336430013180, -0.512417316436768, -0.060160256922245, 0.466048419475555, -0.851782262325287, 0.128531932830811, -0.087235160171986, -0.643970489501953, -0.293865412473679, 0.613103270530701, -0.720167577266693, -0.320837020874023, -0.598815917968750, -0.058181174099445, -0.932059407234192, -0.088320918381214, 0.231657385826111, 0.308487504720688, -0.716196775436401, -0.808042228221893, -1.460775613784790, -1.216356754302979, 0.298839986324310, -0.068832635879517, -0.150600627064705, -0.616304695606232, -0.317567318677902, 0.797690689563751, 0.120603390038013, -0.206025585532188, -0.771829247474670, -0.218936204910278, -0.076201006770134, -0.157512813806534, 0.330697089433670, -0.470272660255432, -0.334958106279373, -0.409389138221741, -0.627119362354279, -0.488346993923187, -0.043320447206497, 0.574917376041412, -0.960658073425293, 0.410468697547913, -0.060352113097906, -0.136841922998428, -0.388056874275208, -0.208264276385307, -0.816621840000153, -0.181907966732979, 0.066788606345654, 0.456746697425842, -0.015898181125522, 0.375512987375259, 0.539778172969818, 0.285339832305908, 0.168614789843559, -0.092886514961720, -0.003535366849974, -0.322006732225418, 0.234610229730606, -0.048545792698860, -0.194050490856171, 0.092665702104568, -0.125245377421379, 0.104723319411278, 0.430344492197037, -0.188992768526077, 0.071311175823212, 0.376840144395828, 0.263932645320892, 0.076146684587002, -0.370599091053009, -0.218362957239151, 0.349160254001617, 0.183730676770210, -0.029719101265073, -0.294511467218399, -0.013881627470255, -0.156187161803246, -0.176077440381050, -0.007642056327313, 0.353647559881210, -0.134496062994003, 0.122088782489300, -0.068553321063519, 0.117370523512363, -0.059345077723265, -0.237406119704247, 0.149701654911041, -0.214377596974373, 0.067176327109337, -0.278631001710892, -0.205998539924622, -0.082432888448238, -0.085041947662830, 0.461454927921295, 0.077982641756535, 0.163972720503807, -0.157202094793320, -0.124591767787933, -0.120711386203766, 0.248811870813370, 0.381884276866913, -0.006128334440291, 0.159053787589073, 0.109035588800907, -0.306966245174408, 0.011871160008013, -0.586375057697296, 0.695484101772308, 0.178092435002327, 0.308582425117493, 0.520205080509186, 0.604891598224640, -0.828267872333527, 0.132900357246399, 0.152762830257416, -0.265294820070267, 0.321373373270035, -0.017290309071541, -0.145503506064415, 0.439318358898163, 0.264723837375641, 0.285618841648102, -0.388848870992661, -0.111850731074810, 0.196092769503593, 0.593016684055328, 0.209958627820015, 0.278983026742935, 0.294310510158539, 0.011255964636803, -0.113077998161316, 0.298852980136871, -0.337925225496292, 0.051838219165802, 0.711268067359924, 0.122608408331871, 0.192513018846512, 0.159403577446938, 0.495937317609787, 0.273737221956253, 0.249109461903572, -0.244895979762077, -0.405931770801544, 0.147093832492828, 0.359716862440109, -0.290225446224213, 0.398332864046097, -0.022850302979350, 0.392806649208069, -0.257334768772125, 0.626966416835785, -0.080663539469242, -0.108813613653183, -0.435011327266693, 0.103960528969765, 0.126843512058258, 0.428205788135529, 0.234588041901588, 0.426272779703140, 0.326717048883438, -0.495155930519104, -0.195029601454735, -0.475888043642044, 0.155929267406464, 0.047221813350916, 0.506780803203583, 0.216738462448120, -0.435597330331802, -0.501736044883728, -0.327784419059753, 0.369213759899139, -0.469320565462112, -0.285070776939392, -0.488237857818604, 0.326855719089508, -0.958061039447784, -0.907243847846985, -0.372707128524780, -0.274598330259323, 0.268037825822830, -0.349792212247849, -0.608804464340210, -0.391300886869431, -1.434952020645142, -1.301539659500122, -0.692115783691406, -0.706255376338959, -0.399500548839569, 0.297931849956512, -0.202070936560631, -0.144100651144981, 0.013097481802106, -0.104946471750736, -0.453307211399078, 0.130547210574150, -0.343115419149399, -0.390945523977280, -0.286986112594604, -1.168256282806396, -0.122697100043297, 0.216628506779671, -0.513113439083099, -0.481526702642441, -0.861512601375580, -0.452166974544525, 0.693959414958954, -0.468288809061050, -0.748567640781403, -0.877948820590973, -1.225097537040710, -1.220227241516113, -0.012944735586643, -0.118934459984303, -0.630130708217621, -0.435070365667343, 0.473683059215546, -0.305350452661514, -0.043465189635754, -0.158236622810364, -0.926884889602661, -0.518446803092957, -0.415526837110519, -0.336368829011917, 0.026310179382563, -0.279666960239410, -0.633505165576935, 0.824098408222198, -0.577882349491119, -0.106800056993961, -0.334225714206696, 0.275264382362366, 0.349161654710770, -0.278376311063766, -0.329367607831955, -0.305629730224609, -0.188996940851212, -0.213581651449203, 0.372813433408737, 0.297776222229004, -0.291676163673401, 0.055904358625412, -0.065342903137207, -0.203490585088730, 0.093502447009087, 0.190945699810982, -0.182848632335663, 0.149456530809402, -0.335655391216278, 0.162055402994156, 0.220953807234764, 0.159324780106544, 0.048664528876543, -0.197497785091400, 0.440422058105469, 0.715183854103088, -0.189057648181915, -0.021838456392288, 0.339590251445770, 0.106683626770973, 0.038210783153772, 0.090614520013332, -0.183905273675919, -0.452739387750626, 0.021611802279949, -0.356842666864395, -0.258786767721176, 0.102126419544220, 0.294699490070343, -0.022333173081279, 0.326926380395889, -0.072205826640129, 0.935830712318420, -0.515256404876709, 0.295432329177856, 0.021008912473917, 0.020206799730659, 0.053137313574553, -0.508240401744843, -0.088047079741955, -0.186910495162010, -0.151114225387573, 0.037154689431190, -0.182486310601234, 0.057526137679815, -0.315216928720474, 0.270482093095779, -0.094024926424026, 0.228461027145386, -0.068116821348667, -0.190424352884293, 0.031722418963909, -0.198541581630707, -0.021552678197622, 0.297806590795517, -0.333435267210007, 0.246307402849197, -0.113206893205643, 0.426994889974594, 0.621894896030426, -0.208747640252113, 1.048963189125061, -0.739650309085846, -0.151181772351265, 0.399096369743347, 0.038083989173174, -0.085049740970135, 0.623748302459717, 0.125213518738747, -0.018815964460373, 0.741661608219147, 0.939944565296173, 0.350073516368866, -0.633124589920044, 0.505285799503326, 0.237955376505852, 0.795490324497223, 0.428642243146896, 0.158842414617538, -0.194077953696251, 0.291880965232849, -1.139043688774109, -0.060223843902349, 0.019961036741734, -0.201545208692551, 0.154003977775574, -0.071678534150124, 0.607842504978180, 0.215511098504066, 0.221539810299873, 0.306740105152130, 0.430183708667755, -0.065820731222630, 0.172171667218208, 0.447909444570541, 0.216899409890175, -0.165769889950752, 0.308405071496964, 0.256287872791290, 0.468511551618576, 0.320283293724060, 1.026813507080078, 0.257797449827194, 0.351381033658981, 0.087163969874382, -0.096907682716846, -0.223957702517509, 0.667429447174072, -0.029925407841802, 0.178866252303123, 0.981671988964081, -0.057916268706322, -0.022563895210624, 0.084531687200069, 0.151916205883026, 0.987014770507812, -0.923974514007568, -0.307696014642715, -0.027643628418446, -0.536636233329773, 0.104220114648342, 0.042828079313040, -0.353586703538895, 0.774652123451233, -0.312392592430115, -1.164217829704285, 0.017528474330902, 0.241550534963608, -1.706936359405518, 0.092611975967884, 0.203168496489525, -0.523997247219086, -0.174194872379303, -0.458582997322083, -0.334837108850479, -0.781778693199158, 0.028589667752385, -0.153191238641739, -1.431056499481201, -0.579083144664764, -0.763920485973358, -0.691089391708374, -0.247392639517784, -0.310943365097046, -0.475385516881943, 0.980028450489044, -0.187462925910950, -0.917983055114746, -0.437923640012741, -0.657085299491882, 0.467873692512512, 0.138488993048668, 0.716405570507050, 0.806000828742981, -0.684668123722076, 0.087597064673901, 1.106581807136536, 0.358137577772141, -0.214945554733276, -0.219314098358154, -0.269936710596085, -0.601993262767792, -0.033539760857821, -1.523565173149109, -0.786276578903198, -0.133891314268112, -0.370543986558914, 0.341977715492249, 0.735606193542480, -1.108115196228027, -0.057576026767492, -0.229112207889557, -0.506420254707336, -0.448974132537842, -0.392778158187866, 0.773377776145935, -0.525319337844849, -0.895078718662262, -0.166991591453552, 0.225262597203255, -0.089927650988102, -0.050306815654039, -0.360647022724152, 0.210450142621994, 0.379875004291534, -0.374069154262543, -0.696511685848236, 0.626127421855927, 0.007188635878265, -0.341544449329376, 0.406621307134628, 0.142897307872772, -0.090530291199684, 0.005938186775893, -0.010660093277693, 0.206007242202759, -0.525011420249939, 0.033581402152777, 0.337826162576675, -0.130236059427261, 0.306224137544632, 0.046142131090164, 0.133538842201233, -0.353259861469269, -0.576306223869324, -0.091989770531654, -0.055213026702404, -0.275401145219803, 0.072382830083370, 0.088360011577606, 0.052949424833059, 0.286234349012375, -0.223189547657967, -0.273967087268829, 0.076539792120457, 0.206311717629433, -0.907251954078674, 0.069431260228157, 0.513391792774200, 0.378473877906799, -0.404555737972260, -0.502227425575256, -0.430692881345749, -0.418746709823608, -0.288598477840424, 0.231858551502228, -0.284650593996048, 0.158699885010719, 0.244676843285561, 0.094411000609398, 0.265339940786362, 0.135522186756134, -0.133471459150314, 0.041908562183380, 0.447607547044754, -0.153367459774017, 0.447046101093292, -0.200419023633003, 0.007788056973368, 0.123111695051193, -0.325870633125305, -0.191415965557098, -0.155587866902351, 0.475072056055069, 0.019909603521228, 0.191679954528809, 0.159974351525307, 0.085557952523232, -0.702047049999237, 0.626254796981812, 0.031908951699734, 0.772384107112885, 0.010575387626886, -0.293992638587952, 0.278035104274750, -0.099729709327221, -0.282328873872757, -0.006183716468513, -0.476873129606247, -0.157817780971527, 0.509862661361694, 0.048106901347637, -0.022971032187343, -0.124210648238659, 0.524793565273285, 0.284296751022339, 0.103041909635067, 0.561987996101379, 0.173155084252357, -0.151175498962402, -0.095491029322147, -0.137892544269562, 0.165997728705406, 0.717289447784424, -0.096874073147774, 0.474158585071564, 0.270055949687958, 0.071420885622501, 0.179796278476715, 0.191903918981552, 0.183192119002342, 0.469423353672028, -0.018024900928140, 0.380219012498856, -0.361435711383820, 0.233439698815346, 0.507163166999817, 0.271089822053909, 0.151915639638901, 0.521239817142487, -0.061507441103458, 0.140873879194260, 0.420535743236542, -0.225729137659073, -0.010851727798581, 0.404424726963043, 0.183619648218155, 0.396342486143112, 0.044560220092535, -0.409438282251358, 0.064246602356434, 0.149136528372765, 0.631663560867310, -0.396877229213715, 0.319781064987183, 0.150512963533401, -0.290642023086548, -0.016081990674138, -0.599622726440430, 0.391165345907211, 0.032048478722572, 0.617412209510803, 0.696837246417999, 0.226407289505005, -0.686001300811768, 0.061082962900400, 0.084683731198311, 0.426872402429581, -0.848201870918274, -0.403954088687897, 0.116000890731812, -0.557380139827728, -0.206409394741058, 0.134830340743065, -0.162849828600883, -0.455608218908310, -0.358261287212372, -0.087505511939526, -0.992550671100616, 0.283279597759247, -0.123164787888527, 0.055454567074776, -0.833373844623566, -0.369607150554657, -0.463493973016739, 0.113582924008369, -0.316675961017609, 0.131592780351639, 0.126429274678230, -0.156511917710304, -0.220325678586960, 0.119724616408348, -0.570334315299988, -0.625968456268311, -0.456382185220718, -0.164620697498322, -0.161049440503120, 0.336663395166397, -0.393269866704941, 0.120656982064247, -0.288530051708221, -0.517131090164185, -0.192500978708267, -0.365881651639938, 0.500144720077515, 0.287719845771790, 0.294725835323334, 0.125083029270172, -0.144406408071518, -0.046358656138182, -0.477004081010818, -0.000053067524277, -0.728008627891541, -0.298133164644241, -0.267211079597473, -0.301841020584106, -0.106768704950809, -0.157147958874702, -0.740306675434113, -0.543258726596832, -0.172383308410645, 0.258025646209717, 0.498269200325012, -0.554967522621155, -1.572744011878967, 0.420031249523163, 0.122019924223423, -0.240901008248329, 0.083216860890388, -0.160171151161194, -0.159246101975441, 0.263374060392380, -0.024356663227081, 0.242611125111580, -0.360239923000336, 0.149734452366829, 0.255079984664917, -0.300770282745361, 0.069129183888435, 0.054093480110168, 0.145271226763725, 0.259667932987213, -0.303238391876221, -0.002781011397019, 0.009658008813858, -0.451362937688828, 0.000557681662031, -0.280634850263596, 0.197740480303764, 0.072183206677437, -0.080832496285439, 0.202769130468369, 0.581012547016144, 0.101059220731258, -0.113978661596775, 0.194043114781380, -0.100000075995922, -0.216585010290146, 0.169085964560509, 0.086693197488785, -0.114215262234211, -0.324379831552505, 0.354352682828903, -0.287387639284134, -0.091218218207359, 0.606502950191498, 0.016246117651463, 0.029892280697823, -0.035105410963297, -0.105958446860313, -0.104051209986210, -0.325746059417725, 0.462027490139008, -0.192324563860893, -0.354039549827576, -0.144681409001350, 0.058546185493469, 0.589605152606964, -0.253865659236908, 0.020089516416192, 0.077362827956676, 0.195872396230698, 0.043327812105417, 0.246522858738899, 0.016384914517403, 0.393492877483368, -0.274356156587601, 0.286381721496582, -0.162885561585426, 0.232123136520386, -0.143466681241989, 0.376978993415833, 0.193870887160301, 0.090995438396931, -0.058165021240711, 0.287823975086212, -0.209616348147392, -0.155872508883476, 0.420649379491806, -0.004670110065490, 0.653296709060669, -0.073892161250114, -0.178091898560524, 0.019102413207293, -0.178494423627853, -0.049504227936268, 0.013979829847813, 0.166242450475693, 0.135491549968719, -0.366349905729294, 0.453003495931625, 0.030926976352930, -0.342878937721252, 0.138055369257927, 0.198333323001862, 0.433539479970932, -0.024856476113200, 0.397908091545105, 0.185933247208595, 0.172647893428802, -0.038934621959925, 0.164700165390968, 0.307229429483414, -0.106873914599419, 0.998323738574982, 0.052623230963945, 0.118021257221699, -0.148523330688477, -0.234680667519569, -0.233040094375610, 0.433570653200150, 0.169157207012177, 0.180575355887413, 0.339643925428391, 0.270389914512634, 0.009470011107624, 0.867444694042206, 0.017547206953168, -0.099952541291714, 0.258066028356552, 0.148790881037712, -0.057830329984426, -0.029854472726583, 0.026095001026988, 0.497161567211151, 0.467782557010651, 0.230284571647644, -0.005434856284410, 0.259567320346832, -0.117436721920967, 0.574316203594208, 0.100361347198486, -0.334259808063507, 0.037370122969151, -0.032731376588345, 0.241604328155518, -0.171209678053856, -0.012389673851430, -0.115428380668163, 0.210991472005844, -0.456447571516037, -0.471255809068680, -0.247265502810478, 0.629662275314331, -0.332070052623749, -0.344297945499420, -0.069182030856609, 0.160882458090782, -0.148446753621101, -0.273966342210770, -0.120281875133514, -0.243529811501503, -0.057457081973553, -0.502148449420929, -0.460137009620667, -0.254831433296204, -0.471086710691452, 0.506300210952759, -0.595077812671661, -0.291577905416489, -0.785954892635345, -0.197186574339867, 0.060536932200193, -0.248229265213013, -0.174425587058067, 0.339584320783615, -0.253350228071213, -0.648374557495117, 0.312745928764343, 0.096670873463154, 0.018424812704325, -0.100420542061329, -0.256601959466934, 0.305271595716476, -0.717267751693726, -0.037246137857437, -0.368848145008087, 0.245572954416275, 0.192619681358337, -0.170810610055923, -0.293451935052872, -0.226825043559074, -0.390487343072891, -0.614850640296936, -0.895501017570496, -0.540463566780090, -0.788826227188110, -0.064706407487392, -0.287183314561844, -0.563779175281525, -0.177805483341217, 0.072201296687126, 0.035380434244871, -0.725485205650330, -1.055894255638123, -0.267754346132278, -0.214539930224419, 0.259024232625961, -0.432759135961533, -0.270049184560776, 0.282697975635529, -0.124103866517544, -0.007463771849871, -0.164464756846428, -0.103710114955902, -0.010911351069808, -0.148850098252296, 0.180302143096924, 0.089939877390862, -0.002100170589983, -0.174555674195290, -0.093247286975384, -0.424911230802536, 0.018455136567354, 0.052158676087856, -0.200081720948219, -0.074579544365406, -0.017555657774210, 0.084789447486401, -0.318357467651367, 0.064781136810780, 0.063552312552929, -0.274148315191269, -0.093889601528645, 0.519000291824341, -0.296159237623215, -0.199039056897163, 0.009825428947806, -0.415684998035431, -0.069834277033806, 0.266500771045685, -0.206191718578339, -0.422676026821136, 0.017405098304152, 0.188321456313133, -0.125065088272095, 0.038509573787451, -0.212213367223740, 0.051347773522139, -0.076102398335934, 0.056503619998693, 0.018187304958701, 0.064951069653034, -0.317853540182114, 0.016844160854816, -0.431161522865295, 0.287891268730164, 0.104727640748024, 0.284460812807083, 0.104584515094757, 0.016291035339236, 0.265512824058533, 0.196408659219742, 0.185393244028091, 0.163467034697533, 0.038829844444990, 0.080511704087257, -0.008677925914526, 0.178766772150993, -0.603223741054535, -0.137015745043755, 0.220904394984245, 0.036351405084133, 0.832496523857117, 0.106960617005825, 0.037788815796375, -0.226599186658859, 0.374969065189362, 0.800521790981293, 0.567439079284668, -0.039705634117126, 0.359557986259460, 0.053746856749058, 0.551227509975433, 0.605655848979950, 0.005384321324527, -0.515556693077087, 0.068846799433231, -0.071047320961952, -0.346616506576538, 0.541844129562378, 0.601863503456116, -0.262469381093979, -0.308404922485352, -0.405171483755112, -0.040682110935450, -0.164800062775612, -0.349405527114868, -0.007077234331518, 1.117318987846375, 0.682782053947449, 0.008143298327923, -0.078125849366188, -0.598262608051300, -0.373066812753677, -0.134222522377968, 0.068216353654861, 0.530388295650482, 0.132735356688499, -0.428035259246826, 0.317876249551773, 0.463698238134384, -0.042249038815498, 0.251171171665192, 0.447383970022202, 0.941171109676361, 0.251697927713394, 0.968061447143555, 0.017623608931899, 0.378294140100479, -0.479931712150574, 0.669929087162018, -0.425723999738693, 0.478577524423599, -0.267888009548187, 0.324041992425919, 0.499246031045914, 0.701898157596588, 0.951161921024323, -0.404447823762894, 0.003118844935670, -0.113381206989288, 0.111343786120415, 0.845345079898834, 0.292193621397018, 0.461719959974289, -0.109282203018665, -0.611642420291901, -0.142520412802696, -0.656021118164062, 0.335848331451416, -0.934057414531708, -1.016878724098206, 0.430856525897980, -0.523464441299438, -0.369419842958450, 0.198765575885773, -0.482923239469528, -0.371029406785965, 0.062391795217991, 0.300024271011353, -0.222320005297661, -0.480049580335617, -0.015276965685189, -1.106399536132812, -1.518582820892334, -0.267962157726288, -0.255214571952820, -1.278528451919556, -0.823777854442596, -0.288172662258148, -0.787315130233765, -0.834482729434967, -0.900516748428345, -0.103278763592243, -0.020237980410457, -0.336375772953033, -0.030602578073740, 0.015861943364143, -0.373843699693680, -0.520283699035645, -0.158752754330635, 0.538148939609528, 0.221974134445190, -0.317043691873550, -0.240511849522591, -0.377272576093674, -0.571314573287964, 0.126234322786331, -0.619913756847382, 0.050175238400698, 0.506971597671509, -0.661349415779114, 0.224961176514626, -0.113602958619595, -0.027430478483438, 0.219854757189751, -0.165446177124977, -0.438663303852081, -0.472815692424774, -0.545991182327271, 0.010159316472709, -0.401810318231583, -1.141005158424377, -0.994886457920074, -0.076970994472504, -0.303799122571945, -0.361784458160400, -0.425928562879562, -0.306728243827820, -0.261669725179672, -0.108588546514511, -0.203728348016739, 0.093088537454605, 0.296739161014557, 0.148544192314148, 0.135996714234352, -0.177638739347458, 0.065367415547371, -0.329393208026886, -0.070851176977158, -0.074122115969658, -0.312854081392288, 0.309397786855698, -0.019574303179979, 0.055237829685211, -0.147893637418747, -0.188375085592270, -0.304009497165680, -0.358002603054047, -0.159811586141586, 0.078119508922100, -0.255936264991760, 0.057546198368073, 0.308215975761414, 0.246680811047554, -0.501754045486450, -0.025837566703558, 0.131230637431145, 0.010029379278421, -0.008999329991639, 0.342842906713486, -0.106499247252941, 0.135173887014389, 0.109481915831566, -0.328130483627319, -0.197535246610641, -0.174739405512810, -0.315499603748322, 0.321608841419220, 0.363145172595978, -0.219199135899544, -0.012315756641328, -0.058829452842474, 0.278681814670563, -0.032735340297222, 0.139930680394173, -0.114644423127174, -0.506766319274902, -0.027284482493997, 0.107592418789864, -0.006173901259899, -0.228451818227768, -0.436436444520950, 0.055333171039820, -0.014209062792361, 0.456154823303223, 0.190951168537140, 0.093389488756657, -0.145322486758232, -0.275095492601395, -0.122653737664223, 0.399063140153885, 0.030367746949196, -0.839099287986755, -0.026565486565232, -0.115131258964539, -0.195415452122688, -0.427507966756821, -0.194100126624107, 0.895033657550812, 0.363028973340988, 0.727582931518555, 0.439339011907578, 0.101205132901669, 0.068478018045425, 0.123284049332142, 0.853177070617676, 0.411063283681870, -0.033420845866203, 0.695601701736450, 0.060511216521263, -0.489631354808807, 0.194421723484993, 0.487604558467865, -0.481858938932419, 0.270734757184982, -0.001398805063218, 0.219087317585945, 0.156240761280060, 0.195486217737198, 1.089725136756897, -0.512621641159058, 0.557894051074982, 0.325098723173141, 0.749917387962341, -0.068776801228523, 0.017956502735615, -0.123751923441887, 0.362162709236145, -0.073768272995949, -0.044122949242592, 0.615875542163849, -0.382297039031982, 0.034237675368786, -0.022654850035906, -0.353152841329575, 0.538405776023865, -0.256774038076401, 0.665448069572449, 0.498911887407303, 0.495123207569122, 0.029958711937070, 0.213946238160133, 0.392269253730774, 1.345667004585266, 0.168132945895195, -0.174804925918579, 0.162277624011040, 0.726457893848419, -0.111608557403088, -0.675722718238831, -0.045551065355539, -0.068180479109287, 0.835785090923309, -0.000826938659884, -0.468683481216431, 0.199043259024620, 0.542178511619568, 0.041550315916538, -0.413562953472137, -1.009063839912415, -0.409906089305878, 0.310751527547836, -0.595545470714569, 0.058889448642731, -1.335582852363586, -1.142874002456665, 0.255235463380814, 0.066651798784733, -0.226734086871147, 0.080868124961853, 0.307109862565994, -0.501408100128174, -0.592398703098297, -0.633935332298279, -1.051244378089905, -0.236653596162796, -0.153887107968330, -0.026606006547809, -0.390744775533676, 0.500500500202179, -0.584090471267700, 0.152322217822075, -0.179067954421043, -0.185972556471825, -0.074828103184700, -0.574703335762024, -1.137260794639587, -1.178076028823853, -0.907523036003113, -0.495455414056778, -0.057841625064611, -0.464106410741806, 0.241278871893883, 0.253814697265625, -0.829602718353271, 0.221694469451904, -0.156047418713570, -0.525647282600403, -1.070997476577759, -0.820269465446472, 0.104059956967831, -0.207590863108635, -0.404047697782516, 0.323681473731995, 0.147935777902603, 0.920173525810242, 0.062517300248146, 0.356469780206680, -0.341697067022324, -0.627123177051544, -0.103248663246632, -0.742499768733978, -0.645476162433624, -0.389030486345291, 0.278726220130920, -0.533806324005127, -0.327466279268265, -0.203743308782578, -0.565795063972473, -0.621870160102844, 0.191167697310448, 0.068818449974060, -0.251582711935043, -0.491011559963226, -0.008396796882153, -0.156782165169716, 0.444479763507843, -0.189900666475296, 0.062293604016304, 0.692438125610352, -0.132769837975502, -0.314905017614365, 0.463117957115173, -0.242892548441887, -0.173116341233253, -0.179255694150925, -0.511398732662201, 0.022504765540361, 0.153914153575897, 0.394073784351349, 0.381383836269379, 0.198700264096260, -0.333914756774902, 0.224975034594536, 0.098185986280441, 0.337824195623398, -0.343373179435730, -0.015125828795135, 0.078582219779491, 0.313358008861542, 0.176334664225578, 0.341900974512100, -0.204095214605331, -0.149334892630577, 0.346439093351364, -0.330816805362701, -0.102920301258564, 0.055345900356770, 0.314732760190964, -0.430614531040192, 0.116726256906986, 0.013386828824878, 0.171064466238022, 0.112692877650261, 0.127415448427200, -0.344279915094376, -0.042580861598253, -0.684482991695404, 0.119792118668556, 0.205773800611496, -0.303546786308289, 0.122302561998367, -0.307610392570496, 0.671893835067749, 0.159284248948097, -0.218061417341232, 0.390969634056091, 0.623103976249695, 0.047307357192039, -0.204391434788704, 0.194500312209129, -0.182610884308815, -0.179630264639854, -0.093569993972778, -0.119284257292747, 0.326337009668350, 0.508378207683563, 0.152731895446777, 0.321430981159210, 0.408797740936279, -0.363278329372406, 0.314073741436005, 0.212703108787537, -0.366177201271057, 0.205223888158798, 0.205956146121025, 0.218231111764908, 0.051131661981344, 0.224807903170586, -0.004114890005440, -0.041608098894358, -0.314304888248444, -0.278578132390976, 0.056084398180246, 0.119942173361778, -0.172616004943848, -0.170768439769745, -0.137414351105690, 0.211831584572792, 0.207016319036484, 0.166767314076424, 0.348647385835648, 0.256643980741501, 0.175614237785339, 0.298574179410934, 0.360250920057297, 0.367831200361252, 0.279608786106110, 0.446418553590775, 0.210774108767509, 0.563863992691040, 0.041906382888556, -0.100094564259052, -0.507367074489594, 0.128117486834526, 0.042181663215160, 0.115049213171005, 0.150328144431114, 0.085245437920094, -0.082175761461258, 1.069498300552368, -0.109253704547882, -0.034730378538370, 0.501442909240723, -0.535828351974487, 0.153167456388474, 0.477169126272202, 0.115162298083305, 0.770966172218323, 0.326527684926987, 0.302533745765686, -0.317703872919083, -0.317778408527374, 0.415440320968628, -0.375091969966888, 0.312731176614761, 0.120059840381145, 0.250275552272797, 0.102722674608231, 0.222239762544632, -0.913497269153595, -1.029829740524292, -0.733447670936584, -0.047305982559919, -0.400702983140945, 0.034971706569195, -1.029601454734802, -0.250387459993362, -0.461506038904190, -0.124103605747223, -0.889567494392395, 0.128745481371880, -0.077931247651577, 0.197693765163422, -0.257044166326523, -0.082518540322781, -0.113910004496574, 0.151215344667435, -0.872159481048584, -0.382274031639099, -0.212397515773773, 0.214174479246140, -0.141290068626404, -0.979133784770966, -0.354323655366898, 0.033512741327286, 0.525157630443573, -0.036559462547302, -0.428956240415573, -0.686425805091858, 0.783781588077545, 0.498963773250580, -0.023505959659815, -0.363091409206390, 0.370905786752701, -0.344213873147964, -0.460632294416428, -0.512783229351044, -0.884898185729980, 0.364269375801086, 0.299414187669754, -0.915080130100250, 0.263867110013962, -0.076145552098751, -0.174631565809250, 0.099812321364880, -0.065361268818378, -0.464768379926682, -0.390380948781967, 0.091972097754478, -0.095752790570259, -0.226965188980103, -0.328941971063614, 0.091065570712090, 0.066415406763554, -0.035683546215296, -0.141220062971115, 0.960702657699585, -0.572032153606415, -0.458498537540436, 0.092318549752235, 0.105809278786182, 0.509750187397003, -0.085415534675121, -0.132567226886749, -0.448512792587280, 0.150444418191910, 0.154767960309982, -0.022718282416463, 0.167343139648438, -0.234333023428917, -0.208654910326004, 0.252440929412842, -0.194460541009903, -0.037641748785973, 0.081237204372883, 0.155994310975075, 0.076470978558064, 0.186803326010704, -0.083980225026608, 0.404922455549240, 0.181624948978424, -0.205629095435143, -0.181171178817749, 0.208709701895714, -0.300982534885406, -0.085372857749462, 0.356592476367950, -0.142356321215630, -0.277026057243347, -0.047193489968777, -0.166588649153709, -0.400570720434189, 0.227833837270737, -0.075069911777973, 0.128547191619873, 0.168651506304741, 0.038587275892496, -0.299207448959351, -0.033754695206881, -0.134788379073143, 0.007004150189459, -0.026749683544040, -0.331680685281754, -0.231129541993141, -0.077352911233902, 0.263786673545837, -0.290324479341507, 0.070397764444351, -0.077425494790077, 0.251284718513489, -0.098907135426998, 0.298330157995224, -0.099424362182617, 0.076893419027328, 0.062653817236423, -0.013499151915312, -0.341343551874161, 0.105968438088894, -0.084847256541252, -0.066175654530525, 0.143230497837067, 0.037436578422785, 0.475774258375168, -0.039243482053280, -0.058760955929756, 0.274502813816071, 0.050912227481604, -0.325640648603439, -0.055395588278770, -0.108006559312344, -1.275543093681335, -0.479973137378693, 0.330434232950211, 0.286802709102631, -0.769210696220398, 0.324654728174210, -0.726525247097015, -0.018633812665939, -0.634635031223297, 0.791229903697968, -0.265478312969208, 0.329394459724426, 0.404751807451248, -0.743597030639648, 0.082442387938499, -0.161681056022644, 0.636404752731323, -0.066069871187210, -0.171547576785088, 1.179147601127625, 0.318229109048843, -0.047385919839144, 0.378194123506546, 0.857020556926727, 0.225034713745117, 0.861171007156372, 0.216204568743706, 0.128753393888474, 0.476859837770462, -0.019457042217255, 0.640129089355469, 0.712467193603516, 0.451607644557953, -0.193666517734528, 0.515458285808563, 0.350379168987274, -0.617367386817932, 0.489877730607986, -0.552652418613434, -0.021886521950364, 0.400504708290100, -0.061573803424835, 0.119199879467487, 0.690395057201385, 0.425948977470398, -0.243111670017242, 0.392238616943359, 0.068753302097321, 0.396067053079605, 0.956045508384705, 0.138184115290642, -1.192806363105774, 0.295051962137222, -0.161355420947075, -0.014182477258146, -0.129466846585274, -0.288201630115509, -0.340148359537125, 0.573696970939636, -0.558487892150879, -0.291675478219986, -0.310899585485458, 0.236403778195381, -0.506946384906769, -0.075752310454845, 0.350622713565826, 0.388470381498337, -0.555872559547424, 0.283402591943741, -1.101448535919189, 0.058356411755085, 0.060449365526438, 0.324645131826401, -0.121241234242916, -0.602427423000336, -0.662882387638092, 0.950871407985687, 0.726488590240479, -0.035919059067965, -0.585004687309265, -0.362726718187332, -0.821337699890137, -0.307808399200439, 0.963517606258392, -0.494655311107635, 0.351711869239807, -0.643669724464417, -0.877928674221039, -0.669056415557861, -0.443907052278519, 0.137783467769623, -0.242281585931778, -0.550992250442505, -0.113672330975533, -0.899557352066040, 0.009771655313671, 0.232995912432671, -0.165222510695457, -0.122515313327312, -0.852160096168518, 0.367021292448044, 1.763069391250610, -0.582631826400757, -0.521459817886353, -0.336862802505493, -0.991459071636200, -0.398793876171112, -0.085755303502083, -0.240632221102715, 0.785089313983917, -0.346000999212265, -0.528396725654602, -0.780920803546906, -0.679623067378998, 0.233731731772423, 0.817812502384186, -0.222511678934097, 0.004858291707933, -0.304380595684052, -0.708410561084747, -0.376935929059982, -1.068829178810120, 0.299651503562927, 1.396255135536194, -0.522117614746094, 0.428234696388245, -0.807599246501923, 0.303880274295807, 0.187820941209793, 0.058181524276733, 0.110925309360027, 0.231308296322823, 0.386661738157272, 0.128620535135269, 0.139818325638771, -0.175898686051369, -0.954889714717865, -0.158842056989670, 0.299131274223328, 0.053666807711124, -1.235755205154419, 0.967356860637665, -0.300617784261703, -0.120606377720833, -0.131593406200409, -1.100034832954407, 0.569807767868042, -0.368705511093140, 1.138672709465027, -1.232800602912903, -0.070159830152988, 0.094910077750683, 0.048735562711954, 0.202701881527901, -0.148945420980453, 1.074815154075623, -0.335260480642319, -0.598238050937653, -0.038599204272032, 0.250427335500717, 0.071164719760418, -0.311457872390747, 0.042715508490801, -0.247272491455078, -0.359577745199203, -0.366214305162430, -1.026915788650513, 0.400109410285950, 0.159427493810654, -0.487725198268890, 0.347160488367081, -0.467080205678940, -0.002867362229154, 0.179792672395706, -1.134680390357971, 0.859135448932648, 0.076989285647869, 0.311349064111710, -0.626797974109650, 0.047782354056835, -0.412668585777283, -0.144955605268478, -0.017666919156909, -0.033213585615158, -0.780894577503204, -0.570451557636261, 0.121122360229492, 0.079139560461044, 0.299418956041336, 0.297361820936203, 0.005013163201511, 0.041000969707966, 0.454960137605667, -0.436839699745178, 0.149749204516411, 0.075383357703686, -0.443891555070877, 0.293021678924561, 0.320361882448196, 0.620043337345123, 0.367653638124466, -0.347462564706802, -0.410052776336670, -0.302878677845001, -0.854812383651733, -0.162792444229126, 0.430318087339401, -0.403139442205429, 0.049461718648672, -0.241718396544456, -0.606683909893036, 0.231777533888817, 0.404030859470367, 0.496838748455048, 0.360962569713593, 0.032029721885920, 0.127960339188576, 1.087743401527405, -0.099415868520737, 0.043109867721796, 0.117373548448086, -0.053076904267073, 0.093965955078602, 0.142756789922714, 0.350937783718109, -0.216428354382515, 0.133906498551369, 0.391149371862411, 0.021013353019953, -0.064067728817463, 1.515568733215332, 0.447699278593063, 0.174552693963051, 0.427230507135391, 0.146332502365112, 0.271921038627625, 0.231346353888512, -0.192345589399338, 0.430621355772018, 0.774680197238922, 0.345914900302887, 0.234107926487923, 0.023600079119205, 0.603974282741547, 0.058567177504301, -0.286964625120163, -0.494375199079514, 0.713676273822784, 0.299920529127121, 0.322925031185150, 0.264534890651703, -0.468376010656357, -0.477984696626663, -0.504891157150269, -0.156581744551659, 0.203506156802177, -1.308433651924133, -0.351850211620331, -0.177210450172424, -1.400938034057617, -0.406375527381897, -0.606411814689636, -0.118039049208164, 0.246663063764572, -0.501796126365662, -0.179520145058632, -0.338158816099167, -0.215353980660439, 0.504130423069000, 0.395585864782333, 0.527147710323334, 0.050944842398167, -0.661191523075104, -0.427945047616959, -1.110145092010498, -0.019022064283490, -0.300017893314362, 0.242705747485161, -0.341367125511169, -0.816972196102142, 0.208467915654182, 0.002518048277125, -0.317109525203705, -0.557565152645111, -0.276533663272858, -0.427133768796921, -0.755773961544037, 0.269737035036087, -0.125765204429626, 0.581472873687744, -0.059544336050749, -0.994938790798187, -0.352711826562881, 0.435659587383270, -0.546182632446289, -1.131824731826782, 0.071332842111588, -0.789685666561127, -0.249264389276505, -0.592377245426178, 0.103853903710842, -0.082208000123501, -0.332462906837463, -0.005379825830460, -0.337565183639526, -0.236501350998878, -0.510448455810547, 0.437771826982498, -0.115074142813683, -0.389225691556931, -0.504297316074371, -0.265064686536789, 0.681578755378723, -0.447688698768616, 0.023513931781054, -0.277265161275864, -0.180374413728714, -0.598638713359833, 0.584133207798004, 0.311805427074432, -0.136696815490723, 0.168841987848282, -0.346549183130264, -0.041361767798662, 0.166992709040642, -0.246387228369713, 0.586320757865906, 0.344427645206451, 0.065927438437939, 0.471633315086365, -0.454062163829803, -0.052478954195976, -0.049414850771427, 0.148687049746513, -0.003560053883120, -0.321452856063843, 0.667814493179321, -0.336332321166992, 0.142214030027390, 0.085675962269306, 0.394897311925888, -0.564576983451843, 0.053409211337566, -0.338234007358551, 0.024872051551938, 0.455581516027451, 0.084600895643234, 0.313757687807083, -0.713197708129883, 0.320548444986343, 0.484004855155945, 0.074454627931118, -0.101247996091843, -0.707406461238861, -0.071100533008575, -1.000710129737854, -0.187907978892326, -0.587203085422516, -0.030424084514380, 0.715701818466187, 0.278442800045013, -0.031049586832523, 0.339600592851639, -0.568060934543610, -0.031961787492037, -0.061775770038366, -0.212418094277382, -0.251443296670914, -0.409541368484497, -0.367339432239532, 0.166979253292084, -0.412585407495499, 0.042240008711815, -0.450211405754089, -0.276256978511810, 0.248621866106987, -0.588330209255219, -0.072025209665298, 0.063672937452793, -0.178636327385902, 0.291935831308365, -0.155113667249680, 0.046367652714252, 0.236402153968811, 0.115654759109020, 0.258756458759308, 0.425164759159088, 0.428627997636795, 0.178352713584900, 0.451157093048096, -0.046084262430668, 0.114052109420300, 0.268999248743057, 0.144872561097145, 0.339277565479279, 0.210308879613876, 0.292270064353943, -0.033156298100948, 0.120747417211533, -0.255247443914413, 0.188907995820045, -0.088829651474953, -0.171669363975525, 0.485098063945770, -0.255386352539062, 0.180862933397293, -0.081831716001034, 0.198154285550117, 0.033670864999294, 0.145890131592751, 0.211187586188316, -0.149372786283493, -0.021600391715765, -0.004439222160727, 0.008033223450184, -0.120267607271671, -0.088928811252117, -0.126354858279228, 0.305139064788818, 0.245930850505829, -0.399566382169724, 0.211285799741745, 0.105208694934845, 0.065517134964466, -0.041516881436110, 0.137559056282043, 0.097169369459152, 0.416572302579880, 0.441205769777298, -0.001934499363415, 0.387086331844330, 0.053274273872375, 0.037221893668175, 0.297385901212692, 0.547550261020660, -0.272722065448761, 0.223320350050926, -0.162080481648445, -0.142925351858139, -0.079145736992359, 0.268769145011902, -0.073943078517914, 0.164177164435387, 0.556421518325806, -0.347373872995377, -0.562764406204224, -0.560896337032318, -0.394221931695938, -0.900960326194763, -0.759007871150970, -0.514374732971191, -1.426457047462463, -0.015098314732313, 0.623266458511353, -0.433019906282425, 0.984157800674438, 0.599829316139221, -0.234252184629440, -0.530713677406311, -0.451203078031540, 0.956564962863922, 0.183317095041275, -0.793148517608643, -0.123036973178387, -0.445200324058533, -0.331545561552048, -0.397082328796387, 0.265129029750824, -0.100585572421551, -0.196709930896759, 0.192151606082916, 0.118613846600056, 0.094894498586655, -0.548595607280731, -0.054120529443026, -0.196540921926498, -0.966134727001190, -0.022975353524089, -0.711569905281067, -0.077371269464493, -0.229075089097023, -0.774028062820435, -0.652285575866699, -0.282015323638916, -0.731641829013824, 0.133507266640663, 0.126101374626160, -0.388591349124908, 0.141875579953194, -0.666881442070007, -0.240205556154251, 0.100326135754585, -0.184111997485161, -0.150162428617477, -0.132694244384766, -0.317872196435928, -0.505640268325806, -0.289607524871826, -0.049604922533035, -0.288116693496704, -0.128331646323204, -0.422627061605453, -0.527695655822754, -0.479424536228180, -0.469314903020859, 0.143840149044991, -0.043702557682991, 0.578596711158752, -0.018764141947031, 0.119198597967625, -0.275779426097870, -0.208729460835457, 0.050822742283344, 0.187979504466057, 0.000583070504945, 0.147161468863487, 0.090675704181194, -0.001578560215421, 0.103684283792973, 0.223171144723892, 0.116898290812969, 0.120820969343185, -0.060554035007954, -0.163341969251633, 0.194336339831352, 0.048700172454119, 0.056490883231163, 0.049519266933203, 0.051764041185379, 0.085651874542236, 0.146179392933846, -0.058689758181572, 0.190278679132462, -0.048372622579336, 0.182354182004929, -0.107266180217266, 0.213776201009750, -0.147733569145203, 0.127307683229446, 0.051506582647562, 0.047414772212505, 0.116260834038258, -0.059666883200407, 0.299449622631073, 0.048338867723942, 0.104831553995609, -0.359701305627823, -0.030555022880435, -0.109766945242882, 0.076003029942513, -0.134459644556046, -0.331190973520279, 0.102833949029446, 0.008174083195627, 0.091548815369606, 0.025880210101604, -0.182931289076805, 0.111646898090839, -0.221881553530693, -0.174694836139679, -0.223856881260872, 0.203227996826172, 0.355643212795258, -0.160208791494370, 0.054512228816748, -0.084459953010082, -0.200220242142677, 0.173121467232704, 0.148200929164886, 0.133058667182922, 0.052889745682478, 0.056925565004349, 0.353323221206665, -0.048043221235275, -0.336469888687134, -0.514324665069580, 0.119389452040195, 0.297665446996689, 0.311421066522598, 0.749134957790375, 0.035839911550283, 0.484709531068802, 0.173072382807732, -0.027788825333118, -0.283716022968292, 0.076173529028893, 0.920150637626648, 0.198119759559631, 0.086737215518951, -0.216124892234802, 0.116812795400620, -0.081991046667099, 0.064766027033329, 0.597638368606567, 0.682542204856873, -0.046674501150846, 0.275637358427048, -0.089321717619896, -0.017394496127963, 0.681185364723206, -0.075353488326073, 0.773965835571289, -0.002047391142696, 0.599580287933350, 0.110982611775398, 0.410450339317322, 0.495251029729843, -0.109563849866390, -0.521811842918396, 0.106887295842171, 0.175294250249863, 0.063291348516941, 0.606885969638824, 0.126809194684029, 0.562198400497437, -0.083844788372517, 0.286237567663193, 0.017674189060926, 0.482343584299088, 1.400628805160522, 0.057144209742546, 0.064807929098606, -0.070745676755905, 0.029666993767023, 0.304554134607315, 0.156180202960968, 0.314118862152100, 0.415475606918335, 0.078139685094357, 0.129565387964249, 0.489816844463348, -0.170674785971642, 0.132810994982719, 0.080202050507069, 0.374442070722580, 0.568087935447693, -0.385487020015717, -0.791200995445251, 0.055156417191029, -0.471309751272202, -0.817908048629761, 0.328590065240860, -0.136951044201851, -0.384046763181686, -0.919103384017944, -1.352849721908569, 0.121440649032593, -0.305732458829880, -0.078960925340652, 0.187916219234467, -0.172644689679146, 0.163906946778297, -0.138291522860527, -0.721950352191925, 0.377547472715378, -0.736952960491180, -0.436228990554810, -0.348070472478867, -0.026968082413077, 0.134350031614304, -0.268665194511414, -0.522744238376617, -0.958781421184540, -0.593294620513916, -0.454161137342453, 0.206698238849640, 0.636130034923553, 0.068763732910156, -0.074546515941620, -0.360052436590195, -0.673109769821167, -0.664516091346741, -0.966050744056702, -0.106133118271828, -0.131179675459862, -0.058014187961817, -0.420812636613846, -0.315445870161057, 0.159377694129944, 0.182085826992989, -0.585706591606140, -0.370195448398590, -0.705953001976013, 0.268885105848312, -0.150261685252190, 0.574474692344666, 0.024844186380506, -0.437448859214783, -0.258793562650681, -0.263209223747253, -1.054488658905029, -0.747003257274628, -0.090607210993767, -0.349704861640930, -0.518016755580902, -0.197465091943741, -0.072805233299732, 0.893415749073029, -0.028942294418812, -0.768672645092010, -0.002124224090949, -0.203182950615883, 0.652762413024902, 0.262136638164520, -0.266034245491028, 0.214586347341537, -0.371941775083542, -0.193769410252571, -0.298051625490189, -0.061680980026722, -0.107902877032757, -0.072248533368111, -0.536948025226593, 0.043357294052839, -0.083914600312710, 0.103415869176388, -0.072830393910408, 0.095360152423382, -0.479150354862213, -0.387347280979156, 0.498527884483337, 0.449480324983597, -0.288123458623886, 0.054839573800564, 0.264609783887863, -0.513487339019775, 0.377424925565720, 0.315725833177567, -0.444299429655075, 0.674528300762177, -0.287349641323090, 0.030079493299127, -0.048899497836828, -0.118228331208229, 0.235237807035446, -0.025229884311557, -0.029491523280740, -0.453801542520523, 0.210627198219299, -0.159604609012604, 0.211688309907913, -0.313928335905075, 0.004179609939456, 0.666518509387970, 0.217983111739159, -0.352957665920258, 0.365117549896240, -0.103609129786491, -0.010536520741880, -0.104033879935741, 0.042912907898426, 0.584405899047852, 0.072315424680710, 0.338751941919327, 0.101644478738308, 0.350399434566498, 0.392412930727005, 0.049237534403801, 0.156508386135101, 0.447514116764069, 0.458620458841324, -0.395259559154510, 0.177944421768188, 0.452754586935043, -0.080661237239838, 0.661999702453613, 0.747383356094360, -0.150834366679192, 0.039816867560148, 0.000857239821926, 0.278058975934982, -0.088906839489937, 0.017086800187826, 0.012640114873648, -0.160431206226349, 0.595796227455139, -0.223644286394119, 0.145358234643936, -0.143171966075897, 0.479261100292206, 0.163378939032555, -0.106259189546108, 0.364197552204132, -0.231377661228180, 0.143135219812393, 0.215207114815712, -0.046124015003443, -0.058688756078482, -0.016385171562433, 0.059288203716278, 0.826390743255615, -0.032631881535053, 0.456141799688339, 0.555836498737335, 0.067765869200230, -0.379476517438889, -0.007186544127762, 0.330600976943970, -0.182579606771469, 0.320268273353577, -0.358320385217667, 0.214007243514061, 0.510227680206299, 0.321581989526749, 0.115635007619858, -0.197628855705261, 0.082480669021606, 0.208347067236900, 0.284809708595276, 0.272559255361557, 0.735846042633057, -0.172505393624306, -0.311263114213943, 0.624894797801971, 0.298760682344437, 0.301937162876129, -0.014295285567641, 0.536450624465942, 0.039610523730516, 0.818266987800598, -0.019860934466124, -0.173948183655739, 0.495746582746506, -0.197289630770683, -0.358644306659698, -0.436772316694260, 0.751541078090668, -0.407959192991257, -0.309731096029282, -1.164910078048706, -0.598032832145691, -0.345608770847321, -0.992667376995087, -0.444441467523575, -0.469144433736801, -0.749501109123230, 0.294936805963516, 0.231967508792877, -0.709249794483185, -0.809308469295502, 0.103851906955242, 0.262408077716827, -0.601289689540863, -1.335853338241577, 0.406166851520538, -0.114805333316326, -0.740639090538025, -0.460284620523453, -0.428675562143326, -0.936465919017792, 0.221289604902267, -0.451024532318115, -0.622312605381012, -0.687180697917938, -0.591762304306030, -0.830678880214691, -0.293139010667801, -0.505044281482697, -0.089294686913490, -0.879223108291626, -0.320886850357056, -0.429630488157272, -0.883306980133057, -0.509865999221802, -0.388847291469574, 0.122010767459869, 0.168705731630325, -0.614951670169830, 0.275879800319672, 0.032690305262804, -0.188375666737556, -0.628819108009338, -0.372386544942856, -0.263377428054810, -0.036830086261034, 0.440870672464371, -0.050298135727644, -0.824950575828552, -0.382006198167801, 0.818656980991364, -0.753344774246216, -0.131727203726768, -0.111187651753426, 0.657430946826935, -0.864039838314056, -0.268561512231827, -0.634736895561218, -0.416536420583725, -0.751812636852264, -0.213728249073029, -0.425710707902908, -0.248572841286659, 0.312065333127975, -0.135415837168694,