0.1048684120, 0.1396784782, -0.0613210686, 0.0229268521, -0.0327389091, 0.1033629775, 0.1248364747, -0.0407015048, 0.0534987636, 0.0342335664, 0.1032724828, -0.0135957422, 0.0880396962, -0.0144325104, -0.1616810560, 0.0303762667, 0.0962462872, -0.0026097135, -0.0087164771, -0.0092570130, 0.0221255440, 0.1325695217, -0.0723944306, -0.1030175015, -0.1144517437, 0.0386965647, 0.0876324773, 0.0322455615, 0.0819817334, -0.0794117972, -0.0203716829, -0.0404739045, 0.0593170039, -0.0250414200, -0.0378634855, 0.0636578277, -0.0781341717, -0.0540476069, 0.0214903038, 0.0985988304, 0.0150894914, 0.1088870913, -0.0011645398, 0.0912852511, 0.0804733410, 0.0417874195, 0.0508315973, 0.0627701655, -0.0624145865, 0.0789247975, 0.0818368793, -0.0220504645, -0.0462381467, -0.0481995642, -0.0124596972, -0.1327063292, -0.0323693752, 0.0744512081, 0.0066709472, 0.0168596134, -0.0651157349, 0.0019535564, 0.1096351370, -0.0700872168, 0.0213371627, 0.0737770274, -0.0275008753, 0.0499378927, 0.0217806306, 0.0064239991, 0.0440227874, 0.0704184771, 0.0672408417, -0.0309226848, -0.0393318795, 0.0130987624, -0.0865974277, -0.0114200050, -0.0840037465, -0.0149592934, -0.0518195257, -0.1129792929, 0.1650410593, -0.0701980591, 0.0944030210, 0.0403664149, -0.0549515188, 0.0330581442, -0.0297300108, -0.0250098854, 0.0562333465, 0.0788619816, -0.0609962940, -0.2031783164, -0.0445246771, -0.1353069097, 0.0592868775, 0.0947165340, -0.0185090303, -0.0243516397, 0.0452665314, -0.0037173985, -0.1496984363, -0.0348848738, 0.0522070043, -0.2017792165, 0.0020369685, -0.1612070203, -0.0961726904, -0.0149556203, 0.1126217544, -0.0568741038, -0.0235760193, 0.1238494590, -0.0427003391, 0.0047873054, -0.0463148654, 0.0021146003, 0.0716209710, 0.0078187473, -0.1022832468, 0.0823215172, -0.0180624295, -0.0638326555, 0.1382123679, 0.0795200244, -0.0616267249, 0.0454447567, 0.0398107395, -0.0696283355, -0.0933347419, -0.0111515615, -0.0532127246, 0.0810661390, 0.0814580470, -0.0597354770, 0.0351537988, 0.0220645089, 0.0690475926, 0.0419744365, -0.0209629685, 0.0604590736, -0.1377418786, -0.0754398629, -0.1607933491, 0.0418476649, 0.0620687790, 0.0135723408, -0.1259809881, -0.0208745562, 0.0100092413, 0.0019600384, 0.0638236478, 0.0375810079, -0.0004145103, 0.0529830083, -0.0173924901, -0.0018069014, -0.0655224249, 0.0661284104, 0.0156932622, 0.0808916241, 0.1059720367, -0.0366311297, -0.0076995390, -0.0608690493, 0.0412388779, 0.1251750290, 0.0053624511, -0.0720250681, -0.0090423934, 0.0122892465, -0.0135421148, 0.1421236098, 0.0723432302, -0.0554980226, 0.0401196852, -0.1101717278, 0.1055679545, 0.0242160577, -0.0350710489, 0.0091258632, -0.0426186398, -0.0354306549, -0.0674209669, 0.0417922325, -0.0683162957, 0.0375995710, -0.1010849848, 0.1202635020, -0.0673310533, 0.0236557387, 0.0670729876, 0.0151950121, -0.0239819624, -0.0019150490, 0.0625202432, 0.1076875702, 0.0947948396, 0.0977055356, 0.0217810962, 0.0170976780, -0.0295442641, 0.0345805325, -0.0209600870, 0.0929906443, -0.0171783753, 0.0326891951, 0.0537630282, 0.0213079490, -0.0039377175, 0.0329699032, -0.0251760595, 0.1006453112, -0.0773985311, -0.0518765897, 0.0297963992, 0.1232292205, 0.0472742058, -0.0572412983, -0.0167256612, -0.0035212156, 0.0265917201, -0.0512761660, -0.0113199521, -0.0537553988, -0.0447612442, 0.0966970548, 0.0146268811, -0.0355783589, -0.2080089897, -0.1153560057, -0.1360178143, 0.0020821788, 0.0050861761, -0.0004672259, -0.1247868314, -0.0695372745, -0.0091817640, 0.0853997022, -0.0457443297, 0.0328403190, -0.0706633925, 0.0346780792, -0.2056704611, 0.0454021506, 0.0021032037, -0.0360907614, 0.1674753278, 0.0616599023, -0.0993737206, 0.0250519570, 0.0474529639, -0.0616049506, -0.0112775415, -0.1306504756, 0.0679560974, 0.0259722620, -0.0311193168, -0.0921075195, -0.1510891914, 0.0683314800, 0.0679345131, -0.0066580046, 0.0102061136, 0.0082689151, -0.0008462099, -0.0532031804, -0.0080823768, 0.0677239820, 0.0015219608, 0.0620560795, -0.1017544121, 0.1673001051, -0.0062189437, 0.0490117632, -0.0213156361, 0.0997928828, 0.0193889793, -0.0365559012, 0.0263152868, -0.0384082012, 0.0204719342, 0.0711112246, -0.0199024267, 0.0710205883, -0.0967047587, -0.0885870010, -0.0977521613, -0.0430435911, 0.1228397042, 0.1660283506, 0.0106704943, 0.0637571961, -0.0201756991, 0.0368016139, 0.0293756537, -0.0759786740, 0.0386109464, 0.1541319191, 0.0794292390, -0.0134728625, 0.0097588068, 0.1753446162, 0.1046257019, -0.0584836081, -0.0179089848, -0.1066982746, 0.0368375182, 0.0408685841, -0.1446702182, 0.0741647929, 0.0640436262, 0.1175634637, 0.1056463122, -0.0307749268, 0.0345538147, 0.0185766965, -0.0674976408, -0.0066288495, 0.0898406729, -0.0287899487, -0.0349074826, -0.0432208292, -0.0654793754, -0.0642956868, 0.0131314406, 0.0368674472, -0.0147792399, -0.0084898602, 0.0435049497, -0.0750247166, -0.1339631975, -0.0686818883, 0.0374653712, -0.1187275648, 0.0338909253, -0.0425187200, 0.0017135995, 0.1292171776, 0.0516250990, -0.0336143859, -0.1267403215, -0.1995307952, -0.0015826367, -0.0017051336, 0.0032584637, 0.0266011134, 0.0359713696, -0.1131136566, -0.0012829716, -0.0478809439, -0.0086097969, 0.0756923929, -0.0595486909, -0.0153528620, -0.0030602368, -0.0133864153, -0.1074785963, 0.0785871372, 0.0507261604, 0.0324565321, 0.0382959619, 0.1119294837, 0.0363866203, -0.0883542448, 0.1779146641, -0.0106619541, 0.0589165352, -0.0107818823, -0.0287130084, -0.0696963966, -0.0031006467, -0.0555444025, -0.0010031710, 0.0085695051, 0.0779917985, 0.0643578544, 0.0753231943, 0.0240914132, -0.1233458221, -0.0041277572, 0.0429687761, -0.0021076552, 0.0302092731, -0.0644084141, 0.0144745111, -0.0776490271, -0.1022553518, 0.0453091264, -0.0200925898, -0.0781770647, -0.0342154391, 0.0053776135, 0.1118746549, 0.0987218097, 0.0020022169, 0.0094034821, -0.0430061445, 0.0471258275, -0.0151700601, 0.0847554952, 0.0112963831, 0.1441130042, 0.0228845794, 0.0492447577, 0.0801985115, -0.0068297191, 0.0060446793, -0.0719751269, 0.1088138968, 0.0051296386, 0.0018226523, 0.1190936565, 0.0816212296, -0.0277396720, 0.0686013773, -0.0248974040, -0.0983829275, 0.0373542234, 0.0245643798, -0.0788218603, 0.0292921793, 0.1355679482, -0.0242725201, -0.1450379640, 0.0960262269, 0.0307317283, -0.0694738179, 0.1518415064, 0.0288982131, 0.0366222747, 0.0096270600, 0.0046190945, 0.0126020629, 0.0376387984, 0.0424165875, 0.0885125473, 0.0426206961, -0.0271726176, 0.1162925437, -0.0115671698, -0.0316237919, -0.0394720994, 0.0485345498, 0.1170173362, -0.0046894080, 0.1063798368, 0.0452355146, 0.0164250396, -0.1312789321, 0.0710869804, -0.1018085703, -0.2319914252, -0.1181818396, -0.0522479303, 0.1432075948, 0.1185336336, 0.0469440147, -0.0135324784, 0.1210381165, 0.0414156020, 0.0677646324, 0.0034862137, -0.0227179751, 0.0554243959, 0.0083668428, 0.0719782114, -0.0111808386, 0.0564024411, -0.0448683091, -0.0497062728, -0.1180575788, -0.0795162544, -0.0248835180, -0.0472684652, -0.0120730167, -0.0520628169, -0.1465276033, 0.0495682135, -0.0010708123, -0.0061539859, -0.1775064468, -0.0172214545, -0.0278708059, -0.0490562208, -0.0291527323, -0.0367379487, -0.0304164086, 0.0557967126, 0.1054509506, 0.0316258520, 0.0560702309, 0.0622034818, -0.0505245142, -0.0993678272, -0.0712569803, 0.0253811423, -0.1505115032, -0.0869102627, -0.0221327804, -0.0016645597, 0.0039114654, 0.0112626078, -0.0660228655, -0.0349388793, -0.0145282447, 0.0222275443, -0.0522856079, -0.1320478022, -0.1432136744, 0.0610155873, 0.1023524553, -0.0378199480, -0.0470025875, 0.0286262184, 0.0023760577, 0.0129312044, -0.0588248931, -0.0305774137, -0.0378343947, 0.1295446604, -0.0863478184, 0.0778969675, 0.0256815366, -0.0796394423, 0.0209321640, -0.0180286076, -0.0600518510, 0.1054043174, 0.0705713704, 0.0228633806, -0.0053103990, 0.0641923174, -0.0599316135, 0.0774161741, -0.0393980816, 0.0044548716, -0.1129848808, -0.0171315931, -0.1032200456, 0.0858253092, -0.0156132095, 0.0131706018, -0.0457954407, 0.1385374218, -0.0041461699, -0.0996115431, 0.0311269462, -0.0308468193, -0.0157159232, 0.1275717467, -0.1397952288, 0.0410732180, 0.0243666880, -0.0052461759, 0.0823646337, 0.0043915589, 0.0255285949, -0.0282934979, -0.0708582178, 0.1028340831, -0.1536542773, -0.0938644260, 0.0547816940, 0.0457339436, -0.0281215254, -0.0361860469, 0.1614231616, 0.0716768429, 0.0346085802, 0.1014030203, -0.0236936286, 0.0027089210, 0.0427152514, -0.0879816115, -0.0514354967, -0.0394879952, 0.0218440257, 0.0303947926, 0.0458379090, -0.0347299054, -0.0696866959, 0.0249243043, 0.1823102385, -0.0465438664, 0.0851002410, 0.0554114133, 0.0376259387, -0.0347320996, -0.0680508167, -0.0139089925, -0.0646571666, -0.1267853379, 0.1131221205, 0.0173099991, -0.1392263919, -0.0485033542, -0.1007542536, 0.0214464348, 0.0556853041, 0.1096936986, -0.0058999816, 0.0098585133, 0.0199961811, -0.0987575799, 0.0433804393, -0.0571714975, -0.0543525554, 0.0973135307, 0.0039171148, 0.0651018545, 0.1245201677, 0.0632197559, 0.0570298955, -0.0437325612, 0.0220980160, 0.0012126784, 0.0535790324, -0.0511892699, -0.0286460314, 0.1108511761, 0.0428292044, -0.0858356953, 0.0185511895, -0.0404250175, -0.0382007509, 0.0899078548, -0.0228452254, 0.0081963334, -0.1833079010, 0.0273669288, 0.0001526908, -0.0884244666, 0.0691721663, -0.0103773419, -0.0135511560, -0.0153316846, -0.0354525559, -0.0288933292, 0.1347480118, -0.0002538851, 0.1095005795, -0.1179665774, 0.0912972540, 0.0416067503, 0.0099704601, -0.0374619551, -0.1149625257, 0.1556618512, -0.0234078858, -0.0313372314, 0.0001130095, 0.0774977729, -0.0305714328, -0.1133633032, -0.1113751456, -0.0361991040, -0.0465150401, 0.0065944931, 0.1347755641, 0.0130239595, -0.0976584628, 0.0238531698, -0.1231671572, -0.0418542251, -0.0000489515, -0.0357825682, 0.0579363406, 0.0065367697, 0.0110427979, -0.0104339421, 0.1087035984, -0.0251293704, -0.1093613356, -0.0477343462, 0.0294239707, -0.0205177143, 0.0601269044, -0.0841007531, 0.0372775905, -0.1369162947, -0.0307653155, 0.0432777964, 0.0098587945, -0.0957685336, -0.0489540808, -0.0174209271, -0.1134185791, 0.1414985359, -0.0309686996, -0.0995026007, 0.0701391548, 0.1052345261, 0.1297233254, 0.0146496082, -0.0103626782, -0.0269783046, 0.1552155167, -0.0243949648, 0.0791942999, -0.1882876307, -0.0022970473, 0.0328379460, 0.0662411079, 0.0275329575, -0.0310133640, 0.0096027320, -0.0804718211, -0.1092546135, -0.2101675719, 0.0372908711, 0.0114463251, 0.0262892786, -0.0559488609, -0.0276997332, 0.0179170258, 0.1415171772, 0.0952738076, -0.0466825925, -0.0228859447, -0.1302755177, 0.0746462867, 0.0764360204, -0.0035208929, -0.0632407814, 0.1236705706, -0.1930521280, -0.0194026586, -0.0653043240, -0.0003529603, -0.0257561952, -0.1106960028, 0.1384311467, -0.0816790015, -0.0196419209, -0.0407955982, -0.0217113849, -0.0165671390, -0.0429524109, -0.0753263235, 0.0125215184, -0.0810401365, 0.0330613665, -0.0011611087, -0.0099849459, -0.0971845239, 0.0306289904, 0.0526025556, 0.0258237217, 0.0146112535, 0.0487481467, -0.0019332841, 0.0428777151, 0.0592552051, 0.0382042043, -0.0268835071, -0.0508374274, -0.0410331190, 0.0704701766, -0.1088387519, 0.0441107526, 0.0349982232, 0.0285921674, 0.0185995288, -0.0124783861, -0.0379650891, -0.0316826142, -0.1283055991, -0.0459395275, -0.0234878995, 0.1792095006, -0.0847971439, -0.1067106053, -0.0417958573, -0.0935549662, -0.1168652475, 0.0046871053, -0.0760920495, -0.0657083616, -0.0045077652, -0.0686702430, 0.0633898601, 0.0555696525, -0.0491774529, 0.1253117919, -0.0573017597, 0.0363352373, 0.0653109998, 0.1118630841, 0.0693396851, -0.0702058226, 0.0437199920, 0.0483545065, -0.0206357557, -0.0498999357, 0.0881269351, 0.0928575769, 0.0800108016, 0.0354574956, -0.0162180774, -0.0404701531, -0.0815148875, 0.0597077981, -0.1609117836, -0.0165207405, -0.0849727094, 0.0347194150, -0.0847490355, 0.0959395543, -0.1514874697, 0.0471743606, 0.0102870902, -0.0561945289, -0.0294658579, -0.0184754040, -0.1666078866, 0.0364627093, -0.0554945506, -0.1360302567, 0.0608421192, -0.0522024930, 0.0358019359, 0.0552184805, -0.0068997866, -0.0673049465, 0.0901714563, -0.0736884773, 0.0844132155, 0.0993223190, -0.0097090080, 0.0181047395, 0.0062704161, 0.0101117296, -0.0178116001, 0.0036677737, 0.0751395673, 0.0503413267, -0.0462025255, -0.0014863629, 0.0333013833, 0.0083769858, 0.0339659415, -0.0488005877, 0.0333636217, -0.0649082810, -0.1088266298, -0.0036794562, 0.0030941069, -0.1337692738, -0.0720133707, 0.0102483602, -0.0078347856, 0.0905159041, 0.0075370502, 0.0280606411, -0.0273018982, -0.0623768941, -0.0747140050, 0.1551252455, -0.0028427001, 0.0179161541, -0.0033913376, 0.0689522102, 0.0019205566, 0.0143226963, 0.0735380799, 0.1521772146, -0.0471805334, 0.0260256063, 0.0592560768, -0.0517300069, -0.0929168910, 0.0741171092, 0.0225773323, 0.0981818289, -0.0317388512, -0.1300852150, -0.0733516440, 0.0494928733, -0.0749201030, 0.0413945280, 0.1120369509, 0.0719814897, 0.0453751907, -0.0920088962, 0.0131390020, 0.0127628259, -0.0546379536, 0.0156592168, -0.1128843427, -0.0283172559, 0.1012824178, 0.0454694815, -0.0038773334, -0.0978757143, 0.0632306933, -0.0506480932, 0.0124860890, 0.0548693202, 0.0102191251, -0.1636417806, 0.0080918185, 0.0499688387, 0.0869681463, 0.0972360149, -0.0309765097, -0.0144244544, -0.0730311722, 0.0539628975, 0.0369763561, -0.0668973327, -0.0786823034, -0.0438152701, 0.1194728911, -0.0368637443, -0.1249750108, -0.0171430279, 0.0344738699, -0.0807256103, -0.0593639389, 0.0378476083, -0.1064261273, -0.0777310058, -0.0236852951, 0.0815313011, -0.0035903603, -0.1874795556, 0.0439913385, -0.0135055156, 0.0374667607, -0.1012343839, 0.0364439450, -0.1715014726, -0.0291114077, 0.0521605387, -0.0017839088, 0.0400738716, -0.1931713372, 0.0437507741, 0.1044180393, 0.0629365519, -0.0025202427, 0.0780598372, 0.1123040915, -0.0134270899, 0.0722822398, -0.0265903380, -0.0374734700, -0.0192933530, 0.0032253056, 0.0069249002, 0.0041893646, -0.0874229446, 0.0647474304, 0.0721571743, 0.1008847430, 0.0387203544, 0.0121490676, -0.0646485314, 0.0086196661, 0.0863078982, 0.0083236685, -0.0249656495, 0.0605873838, -0.0394755602, 0.0019359784, -0.0863393024, -0.0513057597, 0.0409202240, -0.0432924964, -0.0130924340, 0.0162938591, -0.0856198743, 0.0100088380, -0.0134671181, 0.0714141354, 0.0330658592, 0.1128827855, 0.0836405531, -0.1362942904, 0.0185031258, -0.0055225380, 0.0018169489, 0.0736392066, -0.1339679658, 0.0657241046, 0.0971498862, -0.0200587362, -0.0115266647, -0.0044419877, 0.0143345734, 0.0526156910, -0.0192880575, -0.0783604085, 0.0534738712, -0.1803134233, -0.0685307831, 0.0008923812, 0.1122823209, 0.0057722698, 0.0315389931, 0.0313576609, -0.0754585341, 0.0989919379, -0.0040130462, -0.0185479745, -0.0532463938, 0.0715694502, 0.0159019474, 0.0320634134, 0.0315555371, -0.1213457286, 0.1035836861, -0.0192565229, 0.1114099845, 0.1536532938, -0.0823237300, 0.1696696281, 0.0360387117, 0.0770840272, 0.0596646927, -0.0321443006, -0.0291203298, -0.0506224707, -0.0268531628, 0.0316591784, -0.0247285143, -0.0938941687, -0.0918675363, -0.0710876063, 0.0019974145, 0.0445374101, 0.0396825559, 0.1232818365, 0.0327499919, -0.1114459410, 0.0791758597, 0.0273417719, -0.1290120184, 0.0078271041, -0.0342086218, 0.0200640969, -0.1281726807, -0.0102962330, 0.0582210794, 0.1568806916, 0.0758488178, 0.1171408966, -0.0377929024, 0.0331628174, 0.0308704730, 0.0721395016, 0.0344669968, -0.0297793783, -0.0072427918, -0.0371772349, 0.0682994574, -0.0058893240, -0.1013381183, -0.0443636775, -0.0289164744, 0.1061925814, 0.2745033503, -0.0811511278, -0.0215822998, -0.0991416350, 0.0325966850, 0.0740364790, -0.1087681428, 0.1367517859, 0.0223667268, -0.0024403362, 0.0572413355, -0.0677647591, 0.0528495908, 0.0123518826, -0.0473174751, 0.0641469732, 0.0778895617, 0.0199538469, -0.0245597884, 0.0694921911, 0.0786675215, -0.1104430482, -0.1122829542, 0.0658939406, 0.0442316346, 0.0178274922, -0.0035230347, 0.0649261102, 0.1249590814, -0.0747955739, 0.0507184789, 0.0312887318, 0.0474654585, 0.0810996965, 0.0049840142, -0.0798752829, 0.0075937095, -0.0870675072, -0.0875819772, -0.0359238498, -0.0641952679, -0.0400408693, 0.0640467256, 0.0348172411, 0.0132677406, 0.1120099053, -0.0682706535, -0.0580862127, 0.0313649401, 0.0126844328, 0.0495384857, -0.0075987261, -0.0573329031, -0.0208784752, -0.0545966551, -0.0159995984, -0.0114714615, -0.0643523708, -0.0298288129, 0.0082616461, 0.0132153165, -0.0254846215, 0.0437291563, -0.1332754493, -0.0357925370, 0.0647310540, -0.1585492343, -0.0924900398, 0.0515441485, -0.0859877467, -0.0473834574, 0.0905097649, 0.0611485802, -0.0380394422, -0.2119256407, -0.0381462276, 0.0748365596, 0.0248328000, 0.0664081350, -0.0084318342, 0.1237494797, -0.0939943418, -0.0889756680, -0.0148991309, -0.0003868721, 0.0321214795, 0.0922308937, -0.0268080179, 0.0450809039, 0.0525249466, 0.0577526353, 0.0016490319, -0.1064598188, -0.0203392208, -0.1142369285, 0.0266931057, -0.0501561910, -0.0265428852, 0.0004714765, 0.1187603623, 0.0143447183, -0.0450632721, -0.0736898556, 0.0005682471, 0.0418673679, 0.0221025459, 0.0691840500, -0.0650231466, 0.0026628776, -0.0085922917, -0.0137052517, 0.0718415454, -0.0608621463, 0.0320453718, 0.0223077908, 0.0790026411, -0.0031271540, 0.0293559153, 0.0905695632, -0.0546336733, -0.0614670478, -0.0586199313, -0.1436554343, 0.0366376862, 0.1453957260, 0.0773802251, -0.0295424946, -0.1097519845, 0.0830059350, -0.0169412829, 0.0194269344, -0.1869931370, 0.1811097711, 0.0296908394, 0.0631256998, -0.0425483920, -0.0366546623, 0.0757058263, -0.0872163624, 0.0649073869, -0.0745899826, -0.0690392703, -0.0353727341, -0.0576808006, 0.0633773953, -0.0533904843, 0.0007585986, 0.1048351303, 0.0547174737, -0.0976590812, -0.0966560543, 0.2139608562, -0.0106098540, 0.0202439465, 0.1150796339, 0.0700855404, 0.0611763448, 0.0450691208, 0.0716940165, 0.0861568972, -0.0952395797, 0.0352661386, 0.0405090228, 0.0667128190, -0.1703868210, -0.0271815266, -0.0050025843, 0.1161124781, 0.0081375698, -0.1090937108, -0.0461678132, -0.0517378114, 0.0756004825, -0.0902439058, 0.0481728092, 0.0129513824, -0.0783699304, 0.0192606114, 0.0302490685, 0.0311852619, -0.1293024421, -0.0228161458, 0.1456480324, -0.0051476760, -0.0312262252, -0.1501094550, -0.0569955856, -0.0575294867, -0.1061452255, 0.0960126892, 0.0986266956, -0.0928768218, 0.0586349331, -0.0873584151, -0.0351535939, 0.0164261572, -0.1399728507, 0.0545313209, -0.0120181963, 0.0521978661, 0.0586974397, -0.0399933942, 0.0024405392, -0.0131676272, 0.0595595315, 0.0150678903, -0.1168531626, 0.1496199220, -0.0763401985, 0.0668359697, -0.0521969125, -0.1484976709, -0.0245912522, -0.0410576724, -0.1303260922, -0.1693015248, 0.0231466498, 0.0405815132, -0.0226930138, 0.0443613604, 0.1125744209, -0.0546960123, -0.0433318913, 0.0087680705, 0.0203383826, -0.0007445244, -0.1804927289, 0.0067432793, -0.0023980848, -0.0256833974, -0.0167574789, 0.0710221231, 0.0028321948, 0.1296475083, -0.0480652303, -0.0425084531, 0.0186965689, -0.0178760178, 0.0085645765, 0.0203630552, -0.0867772475, 0.0123665165, -0.0413622856, 0.0273584649, 0.0331428908, 0.0577095896, 0.0071227644, 0.0445002466, -0.1005004495, 0.0557523184, -0.0248696767, 0.0534376055, 0.0408741347, 0.0080178855, -0.0413883664, 0.0530904643, 0.1004306301, -0.0358561538, 0.0485759191, 0.0968983322, 0.0055073323, -0.0705432743, -0.0285292119, -0.0497875959, -0.0333170258, -0.0250907689, 0.0994523317, -0.0042051929, 0.1522807628, -0.0212332029, -0.0378579609, -0.0878225490, 0.0973105207, -0.0109019633, 0.0736906603, 0.0295863226, 0.0025427463, 0.0643094778, 0.0183205362, 0.0402345695, 0.0130024636, -0.0442067385, -0.0587842464, -0.1039937958, -0.0285578184, 0.0466847792, 0.0339183211, 0.0571181141, -0.0236008167, 0.0918416008, 0.0786118284, 0.0983939469, -0.0936469436, -0.0044959821, -0.1018883735, 0.0035137087, -0.0157586150, -0.0082311686, 0.0203980282, 0.0518784598, -0.0885315537, 0.1272265166, -0.0740224645, 0.0120344209, 0.0342154615, -0.0181284845, -0.0368386246, -0.0487943292, -0.0724395588, 0.0217490923, -0.0548427999, -0.1116843224, 0.0527262539, 0.0064306064, -0.0270182993, -0.0480178483, 0.0687172785, 0.0723533034, -0.0325385816, 0.0492413267, 0.1242480054, -0.0204561800, 0.1042098030, -0.0912838057, 0.0292213187, -0.0561047643, -0.0497393981, -0.0663698614, -0.1128808185, -0.0129675698, -0.0009428244, -0.0563406982, 0.0249610841, 0.0359558240, 0.0482475907, -0.0479066297, 0.0579127371, 0.0054994747, 0.0659006685, 0.0019378113, 0.0423846021, 0.0398900807, -0.0589375496, -0.1209499240, 0.0665823594, 0.0151164075, -0.0861027092, 0.0392034352, 0.1037428379, -0.0020735748, 0.0103412792, 0.1055903435, -0.0363117419, 0.0829081833, -0.1488018781, -0.1598989964, 0.0365538597, -0.1182297021, 0.1268028915, 0.0680982843, 0.1319138408, -0.0056983987, -0.0727349594, -0.0578764454, 0.0050518224, 0.0475211367, 0.0642507151, 0.0359016582, -0.0097551588, -0.0531220436, 0.1107236743, 0.0702258497, -0.1321767569, -0.1671724617, -0.0032660440, -0.0756055117, 0.0124581577, 0.0471037701, 0.0270646978, -0.0187902227, 0.1756191254, -0.0667219386, -0.0918679163, -0.0095862914, -0.0365970135, -0.1470623314, 0.0194348916, 0.0757628083, 0.0763860345, -0.0586237088, 0.0458925180, 0.0007389768, -0.0731693283, -0.0906699374, 0.0043915752, 0.0066746408, -0.0281538460, -0.0128866378, 0.0188780483, -0.1297822148, 0.0870754868, 0.0974292755, 0.0335273705, -0.0391175598, 0.0574730448, -0.0491619036, -0.1303069592, 0.0354971290, -0.0357590653, 0.0784380734, -0.0155721726, 0.1033674181, -0.0257690419, -0.0530588590, 0.0490523204, -0.0287381001, -0.0687625259, 0.1083669886, 0.0029233843, -0.0282799713, -0.0905878320, -0.0350517891, 0.0847354382, -0.0818285048, -0.0362928286, -0.0308535583, 0.0378838778, -0.0328933448, 0.0735198408, -0.0851725265, -0.1383585632, -0.0720552728, 0.0133499689, 0.0786779076, 0.1127102897, -0.0576992705, 0.0452203266, -0.1365166605, 0.0172885321, 0.0934133157, 0.0416304916, -0.0701178834, 0.0442890562, -0.1737901717, -0.1599178016, 0.0400083214, 0.0478204861, 0.0256318692, 0.0487563908, -0.0225045346, 0.0602997392, -0.0520098433, -0.0488053709, -0.0747798532, 0.0457328372, 0.0457750484, 0.0104177184, -0.0250636246, -0.0412122682, 0.0407861099, 0.1221486479, 0.0476394519, 0.0315461010, 0.1000279784, 0.0918218568, -0.0520501994, 0.0982695147, 0.0348587483, -0.1383193582, 0.0527671576, -0.0857902020, 0.1255778223, 0.1034574285, -0.0048071332, -0.0242206920, 0.0302253440, -0.0252102725, -0.0188027024, 0.0935239121, 0.0759184435, -0.0204383172, -0.0396091938, 0.0124589503, 0.0029643988, 0.1005915031, -0.0787842125, -0.1213808656, 0.0283828974, 0.1493701041, -0.0815820768, -0.0964454636, -0.0467952229, -0.0329575166, -0.0049209259, -0.0225767139, 0.0551038161, -0.0540761799, 0.0593203753, 0.0765785128, -0.0185549222, -0.0686749443, -0.0285866354, -0.0796836838, -0.0534603447, 0.1224389449, 0.0360320061, -0.0131787164, -0.0255452655, 0.0425059237, -0.0405085795, -0.0427450463, 0.0814281851, 0.0124176927, -0.0057587237, -0.0055326037, -0.0068648756, 0.0883568898, 0.0141726797, 0.0092464443, -0.0370069109, -0.0270774681, 0.0836741477, 0.0095190667, -0.0496449247, -0.0272931866, 0.0115155308, -0.0050122426, 0.0069704922, -0.0915763304, 0.0590508133, 0.0259262137, 0.0548556484, -0.0622830093, -0.0695892572, 0.0848423243, -0.0244257841, 0.1604985893, -0.1110056788, -0.2739413381, 0.0431664921, -0.0510186478, -0.0823585987, 0.0409223028, -0.0479848906, -0.0112484200, -0.0479765832, 0.1769892424, -0.0117736477, -0.0956053436, -0.2187131792, -0.0991816595, 0.1166610718, 0.0074292477, -0.0852101892, -0.0326157883, 0.0379953757, -0.0250758938, -0.0684201643, 0.0339233167, -0.0517667644, -0.0122223347, -0.0418963954, 0.1271063089, 0.0367421359, 0.0443726555, 0.0467658602, 0.0299388282, -0.0727639198, -0.0779684559, 0.0629973710, 0.0091122724, -0.1743085682, 0.0649419129, 0.1303383112, -0.0260674767, -0.0307434350, 0.0282380451, -0.0886579752, 0.0979951397, -0.0409593768, 0.0418288969, -0.0330857188, -0.0254466608, -0.0897763893, 0.0849037841, 0.1016504467, 0.1137813032, -0.0851201266, 0.0449666828, 0.0168294962, 0.0288728196, -0.0644816235, -0.0153034162, -0.0210568402, 0.0445157066, 0.0936012864, -0.0554935224, -0.0031415061, -0.0150692845, -0.0124274120, -0.0591729544, -0.0102366973, -0.0497481786, -0.0964481831, -0.1002828926, -0.0301671922, 0.0625968575, 0.0521735214, 0.0528028719, -0.0165865794, 0.0046145255, 0.1357753128, 0.0251574367, 0.0097173117, 0.0062125418, -0.0254492089, -0.0667553842, -0.0333577767, -0.0388318524, -0.2414035499, 0.0064576590, 0.0409918651, 0.0370224006, -0.0614097938, -0.0022189352, -0.0836712569, -0.0668177083, -0.0043695229, 0.0090639293, 0.0061867898, -0.0007270919, 0.0245529711, 0.0300016906, 0.1183403432, -0.0214965101, 0.0957984179, -0.0622791946, 0.1058441624, 0.0205022618, 0.1149873957, -0.0067585129, -0.0225669965, 0.0300871804, -0.0829705745, 0.0251888260, 0.1044457853, -0.1465146244, -0.0216149539, -0.0490934886, 0.0809621066, -0.0892335400, -0.0445026308, -0.0003185165, 0.0062934449, -0.0629928336, -0.0397999212, -0.0346633904, -0.0825480670, -0.0290271118, -0.0143531095, -0.0724048391, 0.1233507916, -0.0258992072, -0.2163144052, -0.1063985676, 0.0311553776, -0.0115341507, -0.1271100938, 0.0042343205, -0.0549749509, -0.0026077125, 0.0258268062, 0.1104832888, 0.0768518373, 0.1370038986, 0.0472456366, 0.0967542082, 0.1145495623, 0.0176126212, 0.0981963575, -0.0364918970, -0.0098229572, 0.0902909338, -0.0379126742, -0.0090998504, 0.1083223894, 0.0156305190, 0.0903310105, 0.1499056518, 0.0895937905, 0.0315980166, -0.0320785567, -0.0224812608, -0.1119556203, -0.0252524577, 0.1212718561, -0.0048858686, -0.0770641416, 0.1059959680, 0.0288184956, -0.0269475207, 0.0373031087, -0.0030893497, -0.0032695169, -0.0850869343, -0.1206866801, -0.0030619539, -0.0327455066, 0.0750239789, -0.0186579749, -0.0970019773, -0.0585158169, 0.0760542154, -0.0622029379, -0.0254772678, -0.0636683851, -0.0499419868, 0.0637906566, 0.0514511317, -0.1530213654, 0.1544196755, 0.0690917820, -0.0510332584, 0.0702747703, 0.0058027394, -0.0687251985, 0.1150032952, -0.0143012386, -0.0049849469, 0.0863872916, 0.0043335147, -0.0845957622, -0.0469333865, -0.0622231141, 0.0293550547, -0.1723548174, 0.1072357073, -0.0067377165, 0.0697000176, -0.0128339240, 0.0150696039, 0.0530741364, -0.0061889216, -0.0342081003, 0.1050221473, 0.0338097885, 0.0558640771, 0.0912000611, 0.0290026180, -0.0109607344, -0.0268961247, -0.0932428241, 0.0925410464, -0.0092924256, 0.0051589664, -0.0043587177, -0.0402709134, -0.0376522020, -0.0638093054, 0.0344457105, -0.0783321485, -0.0888988301, 0.0183442347, 0.0411328524, 0.0032485463, 0.1053085849, -0.0444998220, 0.0166573655, 0.0100711724, -0.0485343784, -0.0187334307, 0.0632013679, -0.1004669443, 0.0677388534, 0.1189142689, 0.1032838970, 0.0687101856, 0.0693862587, -0.0068388949, 0.0037770215, -0.1223013252, 0.0428450741, 0.0242754668, 0.1637664586, -0.0016744565, -0.0013236357, -0.0134278862, -0.0597418770, 0.0053376695, -0.0089309532, -0.0210890472, -0.1455676109, 0.1236326098, -0.0024582949, -0.0031533414, 0.1444036514, 0.0049913842, -0.0323688686, -0.0192422941, 0.1083094999, -0.0228141360, -0.0247578584, 0.0815045089, 0.0510189570, -0.0615508705, -0.0355050452, -0.0754297748, -0.0693806186, 0.0582004040, -0.0394046679, -0.0834534690, -0.0251042116, -0.1147707626, -0.0917653069, 0.0318127312, -0.0529462434, -0.0356164686, -0.0606777743, -0.1289331764, 0.0888257623, 0.0128757795, -0.0181016661, 0.0921812207, -0.0288474225, 0.1102337688, -0.1226633489, 0.0513951853, 0.0093682762, -0.0169960652, 0.0726839527, -0.0402189195, -0.0500164777, -0.0271707531, 0.0309093967, 0.0958382413, -0.0503219366, -0.0079087866, -0.0141103491, -0.0414001867, 0.0201705396, -0.0360943265, -0.0786366910, 0.0002509980, 0.0784754306, 0.0654505193, 0.0770404637, 0.0939793065, 0.1866693646, 0.0502903238, -0.1498941183, -0.1702294052, -0.0217428897, -0.0316393077, 0.0957417265, 0.0879341066, -0.1236190945, 0.1045777276, -0.0560693964, 0.0525865629, 0.1177761182, 0.0039019557, 0.1908590496, -0.0200346336, -0.0160265453, -0.0007684976, -0.0113159362, -0.1012771204, -0.0229495764, 0.0474309772, -0.1022536382, 0.0083881048, -0.0285778269, -0.0157809947, -0.0122023039, -0.1550122201, -0.0152122993, 0.0056165373, 0.0911994129, -0.1338856667, -0.0470894985, -0.0229424015, 0.0738510489, -0.0892348066, -0.0885116383, -0.0376180410, -0.1367499232, -0.0066401539, -0.0517560840, -0.0743257552, -0.0689863265, -0.0286277607, 0.0608030781, -0.0091406517, 0.0776080415, -0.0706205592, 0.0785410628, 0.0287620761, -0.0493104905, 0.0236717500, 0.0674548000, 0.1138274968, -0.0210263617, 0.0494285151, -0.0554222092, 0.0254604742, 0.0549439713, -0.0435281396, 0.0073077921, -0.0191424601, -0.0461259335, 0.0506966375, 0.0124969995, 0.0453804620, 0.1364295781, 0.1182608679, 0.1136301011, -0.0134899952, -0.0320460051, 0.0359570757, 0.0225697458, 0.0278750993, 0.0178731456, -0.0467090905, 0.0303647574, -0.0716812462, -0.0052680895, -0.0344173089, 0.1206557378, -0.0670074150, 0.0941463411, -0.0378156751, 0.0636273921, 0.0240423642, -0.0252259448, 0.0254455209, -0.0105101652, 0.0663454458, 0.2000314593, 0.0102980565, -0.0970254317, 0.0509037375, -0.0459550545, 0.0369571000, -0.0096829385, 0.0170244239, -0.1215590090, -0.0399111174, -0.0145191941, -0.0371049792, 0.0853008255, -0.0186372250, 0.0436480939, -0.1247740239, -0.0953015909, -0.0181977786, -0.0218177959, 0.1862304062, 0.0849916339, -0.0064556254, -0.0383571386, -0.0046098717, -0.0435150266, -0.0158464331, -0.0910746306, 0.0244412720, 0.0446601100, -0.0163633786, 0.0130476058, 0.0342780910, 0.0669072121, 0.0362352729, -0.0413707644, -0.0355813690, 0.0520907529, -0.1404305547, 0.1277241558, 0.0513344370, -0.0028342586, 0.1663905382, -0.1325116158, 0.0624834821, -0.0020779837, 0.1032028794, 0.0106891338, -0.0837265849, 0.0174254403, -0.0995775238, -0.0603396259, 0.0726258829, -0.0713122413, 0.0759969577, 0.0271017533, -0.0557899177, -0.0459958725, -0.0176261328, -0.2106222212, 0.0464389250, 0.0346265621, 0.1045013517, -0.0138950646, 0.0346061550, -0.0617529973, 0.0657822341, 0.1102418900, -0.0662026256, -0.0042077787, 0.0941030160, -0.0046057086, -0.0206853356, -0.0284206849, 0.0326473862, 0.1325090826, -0.0482545197, -0.0842872784, -0.0234797839, -0.1832841784, 0.0154713653, 0.0079805739, 0.0784854367, 0.0012309831, 0.0338034108, -0.1288084835, -0.1491787285, 0.0867061764, -0.1745861769, 0.0129101463, 0.0235819668, 0.0418232344, -0.0712281913, 0.0717296228, 0.1064871997, 0.0938760787, 0.0751222968, -0.0105789360, -0.0452623144, 0.0476301461, 0.0083349198, -0.0326096825, -0.0367861837, 0.0937829465, -0.1028672680, -0.0417218693, -0.0079395026, 0.0532311983, 0.0724862218, -0.0431682765, -0.0445518196, 0.0286282226, -0.0926126763, -0.0548675135, 0.0899125561, -0.0681324452, -0.0417391434, -0.0947218835, -0.1372568458, -0.0775437653, -0.0290134288, 0.1369498521, -0.1254850030, 0.0453103632, 0.0065325499, 0.0693527833, 0.1080796570, 0.1082466319, 0.0290640779, 0.0310879536, -0.0597687885, -0.0466892943, -0.2023501098, 0.0248829275, 0.0020173322, 0.0634865984, -0.0520640314, 0.1861300766, -0.1084720269, 0.0233995244, 0.0149207506, -0.1140931249, -0.0301912725, 0.0698050931, 0.0615377277, -0.0371483639, -0.0724223778, -0.0534497648, -0.1460905522, 0.0040650554, 0.0130107924, 0.0149869286, -0.0184818003, -0.1148390770, 0.0120266313, 0.1012894362, -0.0344802774, -0.0277771149, 0.0219765287, 0.0351807214, 0.0557491817, -0.1077192351, -0.0816384032, 0.0008037717, -0.0853389949, 0.0595944747, -0.0026074185, 0.0598283783, -0.0487922281, -0.0067761717, 0.1113407984, -0.0017338870, 0.1571649015, -0.0957348719, 0.0875203907, -0.0077192923, -0.0049364120, -0.0306603592, -0.1242268384, 0.0825715438, -0.0426985100, 0.0330776982, 0.0038566398, 0.0100466404, -0.0543431975, 0.2169920355, 0.0422496274, -0.0430165902, -0.0558312088, 0.0138675254, -0.0998249725, -0.0688886642, 0.0047272276, -0.1514606029, 0.0149644334, -0.0876929164, -0.0932283849, -0.1484762430, 0.0319800228, 0.0399244092, -0.0107007427, -0.0741462111, 0.0338594615, 0.0319182165, -0.0766257346, 0.0611925647, -0.0506389476, 0.0425208360, 0.0997520685, 0.0774823874, -0.0186077170, -0.0120302662, -0.0212662071, -0.0677862465, -0.0497871190, -0.1381125897, -0.0082425550, -0.1050468683, -0.0246183034, -0.0122119570, 0.0165465586, -0.0353530571, 0.0453661941, 0.0701009855, 0.0291025452, -0.0745612234, 0.0514644943, 0.0089377407, -0.0568658486, -0.0898660049, 0.0220376719, -0.0055412613, 0.0116752302, -0.0327600539, -0.0812696591, 0.0475224927, 0.0607950762, 0.0283205956, 0.0929481909, 0.0775610879, 0.0374150947, 0.0318440720, 0.0343970507, -0.1305312067, -0.1457850784, 0.0019751154, 0.0145421159, -0.0471461155, -0.0759216398, 0.0115794297, 0.0323895924, -0.0670488030, -0.0206857771, 0.0096403267, -0.0867467076, 0.0272997096, 0.0705954060, -0.0113191344, -0.1184077710, 0.0199314710, -0.0268205237, 0.0105815735, 0.1185974032, -0.1095955893, -0.1259195805, 0.0617308095, -0.0065340921, -0.0627036393, -0.0885769427, -0.0252123922, -0.0690713078, -0.0457247421, -0.0452048816, 0.0251737684, -0.0338079035, -0.0126698017, 0.0765576959, -0.0214841999, -0.0580768809, -0.1128516048, 0.0928264707, 0.0582893863, -0.1195847765, 0.0222481657, 0.0303274505, -0.1106315777, -0.0232933275, 0.0072382689, -0.0775444061, 0.0949339941, -0.0364775620, 0.0333750099, 0.1271379292, -0.0251028277, 0.1091436148, -0.0875144079, 0.0910152793, 0.0939990878, 0.0018711321, 0.0915793851, -0.0770129189, -0.0385581106, 0.0539911315, 0.0237588622, 0.0402818471, -0.1734939814, 0.0792566985, -0.0013308646, -0.0426276177, 0.0734782666, -0.0876929015, 0.0272261687, -0.0117659094, -0.0936050713, -0.0201548450, 0.0064502172, -0.0051365634, -0.0695813894, -0.0161426906, 0.1383990943, 0.0227678493, 0.0490935408, -0.0144815482, -0.0297540352, -0.0140334377, 0.1214897707, 0.0422492996, 0.0004016096, 0.0417451784, -0.0291245207, 0.0777288005, -0.0423886441, 0.0173559561, -0.1037952900, -0.0415449366, -0.0099526113, -0.0319017880, -0.0490021482, -0.1270692348, -0.0834047198, 0.1005032957, 0.0424617715, -0.0241970140, -0.0146368863, 0.0453123525, -0.0124771055, 0.1271358132, 0.0855573788, -0.1470914632, 0.0860177800, 0.0628048331, -0.0814110637, -0.0448047817, -0.0809056833, -0.0538450181, 0.0281739514, -0.0380420201, -0.0612192973, -0.1096171588, -0.1116673946, -0.0706159920, 0.0029529072, 0.0318120793, -0.0004735367, 0.0444647819, -0.1066835597, 0.0375306979, 0.0450571142, 0.1034842655, 0.0546558835, 0.0508447997, -0.1648506671, 0.0811617225, 0.0318481885, -0.0074680075, -0.0789319351, 0.0045569148, 0.0606410950, -0.0453873500, -0.0988245755, 0.0134914396, 0.0534927323, 0.0268606320, -0.0172188021, 0.0674754456, -0.0066184606, 0.0310685504, 0.0022539608, -0.1208159924, 0.0905691981, 0.0530333742, -0.1136231795, 0.1172148213, -0.1324690729, -0.0596214123, -0.0524515659, 0.0104741780, 0.0618910454, 0.0928052366, -0.0426769108, 0.0480104312, 0.0837171823, -0.0920916721, 0.0589494035, 0.0028244536, 0.0834047720, 0.0694438741, -0.0330924764, 0.0172638334, 0.0428679176, 0.0564694777, -0.0364098139, -0.0656823516, 0.0936403945, 0.0230099410, 0.0465224236, -0.0977303386, 0.1112167537, -0.0696393624, -0.0495353900, -0.1832077354, 0.0996804610, -0.0219309106, -0.0911725909, 0.1085891053, 0.0861397386, -0.0402801074, 0.0826623663, 0.0030703535, -0.0078763776, -0.0174186826, 0.0412078984, -0.0897243917, 0.0263531040, 0.0571576171, 0.0650388151, 0.0630112067, -0.0175378900, -0.0015208751, -0.0596943498, 0.0303615630, -0.0514142588, 0.0591568127, -0.0079665612, 0.0200091116, 0.0139302518, -0.1653868109, 0.0848428011, -0.1663668305, -0.0548782237, -0.0633270144, -0.0838781297, -0.0304718651, 0.0400510579, -0.1441129893, 0.0190559719, 0.0277251899, -0.1151898652, 0.0988704264, 0.0108677158, 0.0360404998, 0.1035138667, 0.0375995561, -0.0100346599, 0.0525774918, 0.1462913007, 0.0216714758, 0.0957031325, 0.0554168597, 0.0224117152, 0.0635062903, 0.0197837427, -0.0209276173, -0.0276339687, -0.0898179337, 0.0224091988, 0.0892849267, -0.0589167513, 0.1392077506, -0.1912102401, -0.0502445213, -0.1041372716, -0.0736764371, 0.0648108348, -0.0659247339, -0.1290334016, 0.0290651117, 0.0281073116, 0.0404937714, -0.0470952094, 0.0954907015, -0.0623291656, 0.0132881477, 0.0277935453, 0.0015758108, 0.0386879295, -0.0840250999, 0.0832219049, -0.0725916699, -0.0561520122, 0.0619352199, -0.0039695092, -0.1023542881, 0.1038805470, -0.0072930381, -0.0860376805, -0.0767036080, 0.0124920430, 0.0603453815, 0.0291247964, -0.0392035246, -0.0393948033, -0.0049577523, 0.0446742065, 0.0318734273, -0.0551444963, -0.0618284531, 0.0012296196, 0.0510715097, 0.0317128524, -0.0885398164, 0.1272190064, -0.0976579338, -0.0213263594, -0.0584821813, -0.1490591019, -0.0198873617, -0.0312075038, 0.0040456369, 0.1123265475, 0.0361988470, -0.1182344854, -0.1049155667, 0.0444174111, 0.0187349953, 0.0177356321, -0.0385494195, 0.0882623494, 0.0618537068, 0.0104032326, 0.0545169413, -0.0811617970, -0.0682443529, -0.0006300202, -0.0743134841, 0.0658130571, 0.0238385405, -0.0225015320, 0.0703500211, 0.0815050602, 0.0652348474, 0.0293412656, -0.0273396224, 0.0239902362, -0.0768468305, 0.1167408675, -0.0556484424, 0.0214464106, -0.0227815919, 0.0374657363, -0.0130097969, -0.1487921178, 0.0665102601, 0.0353795364, -0.1371686757, 0.0005151853, 0.0668946132, -0.0331984647, 0.1098949313, 0.0353011414, -0.0904029757, 0.0209611952, 0.0508785956, -0.0091529302, -0.0080060242, 0.0161087941, 0.0270943046, -0.0454137772, 0.0202517919, -0.1197830662, -0.0683731511, 0.2180575430, 0.0420310497, 0.0057944297, 0.0315359496, 0.0663716942, 0.0261840932, -0.0393166170, 0.0207340904, 0.1329629123, 0.0124230087, 0.0008588694, -0.0911925733, 0.0201658364, -0.0411781780, -0.0039818250, 0.0729131103, 0.0501169637, 0.0200440716, -0.0553562269, -0.0070428252, 0.1592200398, -0.0347078331, 0.0329844505, -0.0420936085, 0.0480890162, 0.2068174034, -0.0999837667, -0.0965762809, 0.0652451143, 0.0312358961, -0.0995820388, 0.0775794685, -0.1397701353, 0.0090642786, -0.1225106716, -0.1392173022, 0.1260747164, 0.0472785756, 0.0639556870, -0.0560217686, 0.0341548398, -0.1866074502, 0.0114430748, 0.0461146608, 0.0113675427, -0.0349060036, 0.0356132984, 0.0417564586, -0.0705446005, -0.1629406214, 0.1026057601, 0.0166570209, -0.0915737450, -0.0112923458, 0.1183164194, -0.0166627876, 0.0383603126, -0.0403314605, 0.1626406908, 0.0362942331, -0.0023588901, 0.0452621840, 0.0610095561, -0.0552961491, 0.0746711865, -0.0248403531, 0.1134527624, 0.0413129702, 0.0396597758, 0.0542613156, 0.0430521630, -0.1151390001, -0.0212210678, 0.0497491024, -0.0681489706, -0.0363075808, 0.0136887385, 0.1396797746, 0.0099667702, -0.0150013994, 0.0313984528, -0.0454791263, 0.0848516822, -0.0064284317, 0.0761840791, -0.0183809623, -0.0140198004, -0.0958346948, -0.0307490937, 0.0600980669, 0.0101151755, -0.0282486640, 0.1019002348, -0.0105954632, 0.0502429605, -0.0001968928, 0.0715523064, 0.0484663323, -0.0012385137, 0.0763433501, 0.0699966177, 0.0823739916, 0.1330085695, -0.0275528654, 0.0562848821, 0.1889410317, 0.0808572695, 0.0125463931, 0.0256479084, -0.0101572527, 0.0398811400, -0.0095721986, -0.0131054427, -0.0497353822, -0.0382914580, -0.0189964212, 0.0105104595, -0.0270521622, 0.1061029732, 0.0206656773, 0.0621271655, -0.0003270892, 0.0916799307, 0.0954559222, -0.0782772899, 0.0549008995, -0.0642284453, -0.0386498682, -0.0364708193, 0.0441158377, 0.0403984077, 0.0558515899, 0.0081192283, -0.0164668877, 0.0895746201, -0.0081765037, -0.0356493071, -0.0021889820, 0.0632384419, -0.0034031393, -0.0400191098, 0.0578445271, -0.0036268858, 0.0888831839, -0.0036929529, -0.0312085953, 0.0230654255, 0.0289037973, -0.0358246006, 0.1303442568, 0.0750413314, -0.0027532903, -0.1232015118, 0.0043023862, 0.0182519387, -0.0064816494, -0.1587468684, -0.0187820643, 0.0672290102, 0.0807304531, 0.0249960460, -0.0855699852, -0.0136131393, -0.0783592016, -0.0551916286, 0.0834054947, 0.0351589844, -0.1533922851, 0.0306373350, -0.1689754874, -0.1161225438, 0.0539254434, 0.0495411195, 0.0176345743, 0.0246554371, -0.1338865757, -0.0062825726, 0.0177160166, -0.1597930938, -0.0527518950, 0.0005760449, 0.0406125374, 0.0674731657, -0.0167769305, 0.0264022183, 0.0701133534, 0.0234320741, 0.0770588219, -0.2056318671, -0.0095866555, -0.0216894522, 0.0343517028, -0.1265295446, -0.0636020079, 0.0462056100, 0.0056905947, 0.0714638084, -0.0560371354, -0.0169801973, -0.0326504372, 0.0606437065, 0.0212395899, 0.0422398075, -0.0454242826, -0.0634236783, -0.1285745203, -0.0118556060, 0.0531008281, -0.0556115285, 0.0365941077, -0.0694609955, 0.0305423699, 0.0232632607, -0.0151511477, 0.0150015857, 0.0662922785, -0.0276831500, -0.0263497848, -0.0426079519, -0.1064860448, 0.1485510319, -0.0209540222, -0.0083077298, 0.1303356290, -0.0264306404, 0.0760157034, 0.0835380331, 0.0931610912, 0.0428376421, -0.1196362823, -0.0868503079, 0.0279051214, -0.0170826614, -0.0560292304, -0.0218272209, -0.0377982929, 0.1393946260, 0.1854808927, -0.0429939181, -0.0212111250, -0.0183770396, 0.0712855011, 0.1324229836, -0.0398666039, 0.0587166473, -0.0995739847, -0.0428414866, 0.0002847351, 0.0521090552, 0.1009623185, -0.0745774806, -0.0683705583, -0.0642560944, 0.0619342923, 0.0498941429, 0.0314571932, 0.1039193720, 0.0008001339, 0.1051621363, 0.0668133497, -0.0172710214, 0.0481055453, -0.0255254731, 0.1618636101, 0.0076027228, -0.0441280715, -0.0703543499, -0.1016945988, 0.0523517579, -0.0719232783, -0.0259791110, -0.0493700579, -0.0297875404, 0.0579583496, 0.0161758736, -0.0450389385, -0.0005828372, -0.0619737916, 0.0675516427, -0.0862518921, 0.0219603349, 0.1642570347, 0.1199519858, -0.0331051871, -0.0564812645, -0.0260502659, 0.0041021910, -0.1844234914, -0.0826121867, -0.0340128541, 0.0524317883, -0.0777384713, -0.0032289531, -0.1020728871, 0.0394961350, -0.0831149444, 0.0490471981, -0.0194430500, -0.1599398404, 0.2388244271, 0.0710964054, 0.0471938401, -0.0810206980, -0.1368581206, -0.1565001756, -0.0557894595, 0.0473963991, 0.0082867332, 0.0256344490, 0.0231506210, -0.0162093136, -0.1547614336, -0.0357116126, -0.0766121000, 0.0883499980, -0.0238002539, -0.0864254162, -0.1474854201, -0.0649592131, -0.1093951017, 0.0299647786, 0.0684610009, 0.0447941720, -0.0412638299, -0.0076050982, 0.0056937695, -0.0817361996, 0.0188658070, -0.1641681641, 0.0561426766, -0.0742561892, -0.0186568312, -0.0948530585, 0.1304423213, 0.0114119761, -0.0007536430, 0.0522385091, -0.0120346444, 0.0454809144, 0.0380482227, -0.0199720785, -0.0294614881, 0.0789545923, 0.0762791857, -0.0084885256, 0.0215254985, 0.1211114079, 0.0708196163, -0.0218283907, 0.0028004199, -0.1453437805, -0.1294805408, -0.0122526623, 0.0118206777, -0.0615938529, 0.1289401501, -0.0308453850, 0.0946449190, -0.0935771763, -0.0473440513, 0.0372716188, -0.1681871861, 0.0035567954, -0.0584523752, 0.0027207378, -0.0234778635, -0.0723397806, -0.0278682988, 0.0628161132, 0.0080540432, -0.0459283218, 0.0388622917, -0.0413033217, 0.1036951020, -0.0361875705, -0.0626122952, -0.0307222903, -0.0073767314, 0.0055379216, -0.2242132127, 0.0332205817, 0.0174445529, 0.0205514934, 0.1260143369, 0.0465853922, -0.0867906213, 0.0813044310, -0.0576309636, -0.0861477777, -0.1207524687, 0.0319102667, 0.0486400463, -0.0484683216, 0.0145138800, -0.0336550958, -0.0420384184, 0.0314307809, 0.0080594029, 0.1315246820, 0.0145820286, -0.0941382721, -0.0549107492, -0.1410563141, 0.0950256586, 0.1047774330, 0.0465654582, 0.0259088911, 0.1262983233, 0.0369372517, 0.0450908206, 0.0252236761, -0.1661250293, -0.0341175683, -0.0033324528, -0.1086691618, 0.0556704700, 0.0228380673, -0.0050499029, -0.0276893824, -0.0402086116, 0.0252368692, 0.0324936993, 0.0374518409, -0.0034483518, -0.0227475464, 0.0476599596, -0.0535284095, -0.0193463620, 0.0205977671, -0.0946077779, 0.0409528054, 0.0626248792, 0.0820327848, 0.0636465922, -0.0999522209, -0.0007138317, 0.0419964269, -0.0647099912, -0.0384044535, 0.0667888299, -0.1059033647, 0.1116285920, -0.1283885837, -0.0661945939, 0.0647323430, -0.0374521539, 0.0252988264, 0.1854366064, 0.0145937083, -0.0387010947, 0.0113369226, 0.0827917606, -0.0017993697, 0.0302594192, 0.0587007999, -0.0169800259, 0.0037533008, 0.0051440438, 0.0054326034, -0.1031472385, -0.0217407513, 0.1124866903, 0.0622189566, 0.1747197807, 0.0988440141, -0.0680602789, -0.0118121253, 0.0122842798, 0.0170765463, 0.0395628139, -0.0412170105, -0.0304047726, 0.0337664522, -0.0516510084, -0.0644865632, 0.0834698677, -0.0063260202, -0.1073220074, -0.0378803983, -0.0062860660, -0.0466983840, 0.0839682296, 0.0673294365, 0.1078951135, 0.0449861810, 0.0152567960, -0.0514176711, 0.0318947956, 0.1127882600, 0.1001007557, -0.0558119044, -0.1030958071, -0.1081237048, -0.1300929785, 0.0480617248, 0.0385400578, -0.0628437027, -0.0031629875, -0.0448658317, -0.0651324242, 0.1215802133, -0.1416530460, -0.0577928461, 0.0448843390, -0.1282090545, 0.0184652414, 0.0397720970, -0.0891516060, 0.0788546801, 0.0198317096, -0.0353058204, -0.1133540720, 0.0073582120, 0.1155795157, -0.1303385049, -0.0427654684, 0.0011687513, -0.0442339927, -0.0607974604, -0.0084679686, 0.0187306199, -0.0689849854, 0.0815154240, 0.1062374935, 0.1145855263, -0.0197346434, -0.0886164606, 0.0747023746, 0.0900832564, -0.0178495683, -0.0237842165, 0.1396204978, -0.0459855571, -0.0321883708, 0.0120874774, 0.0808451772, -0.0002534483, -0.1161126047, 0.2048438042, 0.1201841086, 0.0663191751, -0.0362885334, 0.0690230727, 0.0510486364, -0.0971626490, -0.0659506768, -0.0567501634, -0.0190404281, -0.0054514669, -0.0031052791, -0.0183796808, 0.0572350025, -0.0453033522, 0.0531557500, 0.0142021179, 0.0440957025, 0.0726480857, -0.0454377830, -0.0559877343, 0.0939186960, 0.0996832401, -0.0425112210, -0.0029221741, 0.0355617777, -0.1640993655, -0.0429650247, -0.0363566652, 0.0008755738, 0.1019416004, -0.0099004935, -0.0278323945, -0.0430521071, 0.0726392567, -0.1353832185, -0.0132101011, -0.0025198366, -0.0540207922, 0.0506649353, 0.0075895274, -0.1050613523, 0.1546382010, -0.0128379539, -0.1773831993, 0.0168543160, 0.0296280496, 0.0185679737, -0.0342334546, -0.1132669151, -0.0201844051, -0.0169266276, 0.0196741447, 0.0485577248, -0.1201812178, -0.0050115869, 0.0590965897, 0.0069447178, -0.0177336298, 0.0448309928, 0.0777926445, -0.0717392191, -0.0037829408, 0.0196666121, 0.0073287915, -0.0518360212, 0.0477427877, -0.0040136478, -0.1049464345, 0.0104816435, 0.0784329325, -0.0180953909, 0.0046844585, 0.1514022201, 0.0280095637, -0.0351737477, -0.0278354548, 0.0274366941, -0.0323933363, -0.0848795474, -0.0173890181, -0.0094448123, 0.0416821726, -0.1076638401, -0.0445963144, -0.0452953912, -0.1057445928, -0.0434254371, -0.0292202849, 0.0175364204, 0.0041448493, -0.0630016699, -0.0624947250, -0.0368076675, 0.1327118576, 0.0083778976, -0.0155935716, 0.0098246876, 0.0520193912, -0.0413357504, -0.0193571337, 0.0149029391, 0.0039202631, -0.0263123959, -0.1015726775, -0.0881051198, -0.0241323858, -0.0251029022, -0.1130386367, -0.0171861295, 0.1354866624, 0.0194477700, -0.1668412387, -0.0480896048, -0.0131180044, 0.0857903361, 0.0174282454, -0.0281950943, -0.0279964469, 0.1477333158, 0.1071612760, 0.0030137585, 0.0851951316, 0.0414338931, -0.0324303657, -0.1197576672, -0.1124987155, -0.1107628122, -0.0034914017, 0.0300617833, 0.1131081730, 0.0573424250, -0.0605286360, 0.0610633604, 0.0406908169, 0.0475881994, 0.0796976760, -0.1120008975, -0.0433316566, -0.0618735626, -0.1919446439, -0.0297218822, -0.0669618621, 0.1214322373, -0.0554923229, 0.0442061163, 0.1068974137, 0.0130048376, -0.0160222668, -0.0421923213, 0.0200911239, -0.0671002120, -0.0374112874, 0.0097734490, 0.0654329956, 0.0505581796, -0.0860184133, -0.0165757872, -0.0154441409, -0.0011543473, -0.1385421604, 0.0706536770, 0.0348444320, 0.0160215497, -0.0268275160, 0.1192018390, 0.0742287189, -0.0185457617, 0.1009681150, -0.0131140612, -0.0120952297, -0.0419908762, 0.0002891729, -0.0224620737, 0.0705823079, 0.0033937604, 0.0282996222, 0.0037834616, -0.0332303792, 0.0057627149, 0.0025694161, 0.0276023336, 0.0162080415, -0.1910895854, -0.0732356906, -0.1835921705, -0.0555380210, 0.1133944839, 0.1729862243, 0.0638239756, -0.0277945548, -0.0589258038, 0.2323567867, 0.1288609058, 0.0964053422, 0.0357674584, 0.0567366406, -0.0718407556, -0.0305690970, 0.0406437963, 0.1585515440, -0.0207850300, 0.0035451483, -0.0152669018, 0.1044764444, 0.0083114617, 0.0131536927, -0.0491930917, -0.0690320730, 0.0263752509, 0.1203389391, -0.0673807040, 0.0509531014, -0.0082666781, 0.0291623622, -0.0843444392, 0.0464925133, -0.0323510766, -0.0280588400, -0.0383479036, -0.0773472488, 0.0040420387, -0.0277957730, -0.1617370397, -0.0614587627, 0.0375389531, -0.0832441226, -0.0660728365, -0.0855652019, 0.0284238197, 0.0042810682, -0.0297416653, -0.0866795257, 0.1023162007, 0.0143658966, -0.0799688324, -0.0963102803, 0.0401868410, 0.0513596162, 0.0037284531, -0.0148622366, -0.0713833869, 0.1499527246, -0.0696685016, -0.0217392743, -0.0134049533, -0.1523103118, 0.0689962879, 0.1065278798, -0.1877820343, -0.0528738052, -0.0544840693, -0.0435238406, 0.0246560164, 0.1547893137, 0.0230434369, 0.0424356684, 0.1039979160, -0.0957897082, -0.0780693069, -0.0488979332, 0.0477778316, -0.0365364105, -0.1403064132, 0.0456083529, -0.1022911444, -0.0421552993, 0.0566110685, 0.0021125814, -0.0196077339, -0.0835729241, -0.0694160387, -0.0074296417, -0.0921934173, -0.0194759630, 0.1218276098, 0.0027027926, 0.0250823125, -0.0076674572, 0.0544473566, -0.0192670804, -0.0698782057, 0.0093801487, 0.0671581179, 0.0283099357, 0.0421178006, -0.0047064857, 0.0042757988, 0.0232866630, -0.0679572523, 0.0028590243, 0.1049054340, -0.0422706231, -0.0275471024, 0.0040350407, -0.0809410587, 0.0054259496, -0.0154618062, 0.0090181790, -0.0193688311, -0.0450490974, 0.0824833959, 0.0355807282, -0.0962021351, -0.0091519710, 0.1197785288, -0.0208632555, -0.0075461185, -0.0562153831, 0.1565809995, 0.1041893512, -0.0313652158, 0.0293134544, 0.0607597232, 0.0081254113, -0.0083250059, -0.0257793944, 0.0161742028, 0.0441746339, 0.0193540100, -0.0848847628, 0.0756419525, -0.1217120439, 0.0476815253, -0.0388843603, -0.0104454663, 0.0234492887, -0.0431826189, 0.0177570097, 0.0812354460, -0.1490270793, 0.0200898740, 0.0305362418, -0.2206994295, 0.0701228753, 0.0747581050, 0.0597727224, -0.0263211560, 0.0580663346, 0.0178379379, 0.0197883304, 0.0534986742, 0.0355759002, -0.0800816417, 0.0427305289, 0.1238535270, 0.0710406378, 0.0821055546, -0.0091587547, 0.0746969059, -0.0421910211, -0.0233497433, -0.1195237190, -0.0761696324, -0.1036662236, -0.0754509866, -0.1125143766, 0.1140787229, 0.0142505933, 0.1194574013, -0.0019780491, -0.0597779863, 0.0249326229, -0.0371997431, -0.0638501421, 0.0288140774, -0.0655964464, 0.0523128957, -0.0068104714, 0.0363987237, 0.0000617541, 0.1042872146, 0.1033744290, 0.0593748540, 0.0302265473, -0.0001526773, -0.0505578890, -0.0978910103, 0.0498528443, -0.0935960710, 0.0535969399, -0.0864017531, 0.0021472089, -0.0423989184, -0.0289566666, -0.0632092208, -0.1413572133, 0.0019597868, -0.0162224360, -0.0535935126, 0.0454307385, -0.0020185746, 0.1322208494, -0.1041728258, 0.0397273488, 0.0667246804, 0.0805961639, -0.0212360825, 0.0137928147, -0.0851905495, 0.0818932652, -0.0307072736, 0.0777594894, -0.0636327714, -0.1103157103, -0.0374119729, 0.0619344264, 0.0458847880, -0.1353373080, -0.0087823104, 0.0597184561, -0.1135751680, -0.0114006028, -0.0369480252, -0.0989085510, -0.0657948852, 0.0135242213, -0.0845139474, -0.0587976985, 0.0554118156, 0.0775514469, -0.0727171600, 0.0580116697, 0.2573643923, 0.0328593999, -0.0059312284, 0.0913228989, 0.0111175217, -0.0316927768, 0.0427053943, -0.0276546665, -0.0284153111, 0.1063298211, 0.0594676994, -0.0126244966, -0.0348719209, -0.0159720331, 0.1467302889, 0.0241994262, -0.0907899365, -0.1365326345, 0.1256218702, -0.0060172863, 0.0207146630, 0.0626417175, -0.0591386110, -0.0716121197, -0.0090858582, -0.0463589467, 0.0098035438, -0.0498411134, 0.0743461847, 0.0888800249, -0.0299030617, -0.0396839976, -0.0311078299, -0.0376541764, 0.0981593430, -0.0076873885, 0.0302201640, -0.0769882351, 0.0487052016, -0.1490691006, -0.1116802543, -0.0167471040, 0.0385962427, -0.0699831545, 0.0540330634, -0.0125824818, 0.0524509102, 0.0107904542, 0.1217132956, -0.0666172653, 0.0462878495, -0.0005298108, 0.0560850315, -0.0728477463, -0.0495694876, 0.1371214092, 0.0043353233, -0.0445737690, 0.1170011312, -0.0018136607, -0.0266071893, -0.0115173068, -0.1246033460, -0.0040642377, -0.0735520571, 0.1372805983, -0.0582925640, -0.0639296025, -0.0093355104, 0.0208429806, 0.0840266794, 0.0440369919, 0.0484922603, 0.0735413581, -0.0895042121, 0.0573232956, 0.0171747338, -0.1084997505, -0.0071418285, -0.1785967946, -0.0156590305, -0.0182767231, 0.1176700443, -0.0284928977, 0.0408042930, -0.0636238381, 0.0458604246, -0.0469989851, -0.1075883210, -0.1252502948, 0.0645261183, -0.1132443994, -0.0646518618, -0.1496873498, 0.1064193398, 0.0531192198, -0.0607971288, -0.0130412672, -0.0960126743, -0.0329416841, 0.0692444742, -0.0125723872, 0.0289402343, -0.1035280526, 0.0420514904, -0.0478052571, -0.0044290461, 0.0966631621, 0.0702990741, 0.1101227626, -0.0416513868, -0.0608475432, -0.0473894104, -0.1294314265, 0.0231857970, -0.1417063773, -0.0404313020, -0.1341627240, -0.0252212305, -0.0928701758, -0.0517277494, 0.0466900505, 0.0015723892, 0.0829936489, 0.0408927575, -0.0040526250, -0.0681811571, 0.0168809518, 0.0057767220, 0.0075140670, -0.0473826826, 0.0310881007, -0.0536085926, 0.0385378785, -0.0601285808, 0.0190824866, 0.0547007546, -0.0343699977, -0.0081423894, -0.1016340926, 0.0854360759, 0.0433827713, -0.0462827757, 0.0924711823, -0.0171124153, -0.0652336478, -0.0477522872, 0.0632415488, -0.0153553504, 0.0247613285, -0.1062220261, -0.0736671910, 0.0758195072, 0.0625688210, 0.0181190427, -0.0015815627, 0.0392463095, 0.0184153635, 0.2941969037, 0.0733142644, -0.0784652457, -0.0104115494, 0.1016033888, 0.0714107677, -0.0159993693, 0.0741945431, 0.0510817058, -0.0115315942, 0.0003584847, -0.0341036320, 0.0605284609, -0.0466614589, -0.1008985788, 0.0425719209, 0.1153082773, -0.0805068612, 0.1623215377, 0.1363580227, -0.0051658209, 0.0707610473, 0.0439242944, -0.0105986316, 0.0371463411, -0.0672714934, -0.1267057657, -0.0668626130, -0.0376833566, -0.0102040879, -0.0567600727, 0.0615832508, 0.0548102744, 0.0311118700, 0.0946758687, -0.0946505517, -0.0501825474, -0.0027422896, 0.1358673573, -0.0106752291, 0.0701736659, -0.1372806430, 0.0601472184, -0.0585846305, -0.0905073956, -0.0979105458, -0.0108398497, 0.0356640890, -0.0317511037, 0.0634557456, 0.0483459570, 0.0464025140, 0.0347810313, -0.0161331333, -0.0158927850, -0.0411218554, 0.0029091630, 0.0543958247, 0.0232339166, -0.0004899632, -0.0589440465, 0.0068768822, -0.0867980495, 0.0212204754, -0.0166594125, 0.0075114435, 0.1616144180, -0.0545830950, 0.0070730746, -0.1114023253, -0.0643949509, -0.0300441831, -0.0697702989, 0.0809618458, 0.1019452810, -0.0741267800, -0.0054241512, 0.0405948907, 0.0235276669, 0.0434998274, 0.0846309438, 0.0049596354, -0.0209801327, -0.0795025602, 0.0267133527, -0.0547794849, -0.0465078950, -0.1777937412, 0.0750921443, 0.1202228740, -0.1161848754, -0.1259938627, 0.0046673492, -0.1099007651, -0.1570137143, 0.0927165896, 0.0523680635, 0.0680678934, 0.0461418442, 0.1028105468, 0.0832306892, -0.0864500254, -0.0092564058, -0.0674502999, 0.1622147411, -0.0473855361, 0.0105362097, 0.0073885843, 0.0721390322, -0.0157308374, -0.0378524214, -0.0255891904, -0.0386456139, 0.0508533195, -0.0448349752, 0.0898044035, 0.0937743783, -0.0566372201, 0.0161092449, -0.1150442809, -0.0051767849, -0.0348685682, -0.0437434092, 0.0511830822, -0.0460153073, 0.0630512610, -0.0471332148, -0.0180566516, -0.0317990631, -0.0097289393, 0.0400619656, 0.0145222861, 0.0744926184, -0.1331227869, -0.0087872110, 0.0926566422, 0.0227552317, -0.0935613289, 0.1106912792, 0.1008164883, 0.0741736889, 0.0905179232, -0.0146426680, -0.1046022177, 0.0548243076, -0.0261684116, 0.0525610000, 0.0590211190, 0.0056435559, 0.0615769662, 0.1046968400, 0.0713608712, 0.0059663914, -0.1378902495, -0.1533361375, 0.0270320270, -0.0739125088, 0.1483560801, 0.0433437005, -0.0206048675, -0.0671237111, -0.0941303968, 0.0538118668, 0.1572095752, 0.0259641781, -0.0006214539, -0.1555420905, -0.0862994790, 0.0559413731, 0.1011417359, 0.1606210917, -0.1321703345, -0.0189522635, 0.1561738551, -0.0047234325, -0.0708507821, 0.0060054949, 0.0236531217, -0.0232167169, 0.0621560887, -0.0601077378, 0.0436135158, 0.0470917039, 0.0756453648, 0.0110251959, -0.0665691420, 0.0101260971, -0.0232650209, 0.0723482743, -0.0156265795, -0.1106610000, 0.0352640152, 0.0024913845, -0.0745083243, 0.0439204797, 0.0848776996, -0.1026713252, -0.0145544969, -0.0283030160, 0.0178955328, -0.0063269539, -0.1121087819, -0.0253727958, -0.1252795905, 0.0697326362, 0.0412063077, 0.0280479193, -0.0305427033, 0.0294242613, 0.0439511724, -0.0482731238, 0.0833035260, 0.0172954351, -0.0581095219, -0.0171877556, 0.0186938681, -0.1265175492, 0.0150187416, 0.0594484322, -0.1307903081, -0.0541822314, -0.0094961133, -0.0065477993, 0.0232381802, -0.0159678850, 0.0582802445, -0.0332687944, 0.0783055127, -0.0465037525, -0.1386891603, 0.0337393880, -0.1178852916, -0.0073981737, 0.0843991265, 0.0465769470, 0.0441669896, -0.0429612026, -0.0592361465, 0.0818514749, 0.0879997164, -0.0166996382, 0.0263162740, -0.0161791723, 0.0614401139, -0.1085798293, 0.0302774217, 0.1169287786, -0.0066433605, -0.0199264437, -0.0245164745, 0.1124948710, 0.0305789616, -0.1323844492, 0.0009278171, -0.0696897581, 0.0383623242, -0.0640865564, 0.0955768228, 0.0510166399, 0.0195429511, -0.1447339803, 0.0047355480, -0.0734356716, 0.0285179019, 0.0790192634, 0.0218236707, 0.0022304729, -0.0952041596, 0.0788156539, -0.0576559156, -0.0392987952, -0.0511847287, -0.0046760961, -0.0313845463, -0.0015347525, 0.0648608655, -0.0307093058, -0.0331816263, 0.0490730852, -0.1094760299, -0.0465904772, -0.0564411990, 0.0301555991, -0.0215980411, 0.0458216369, -0.0014464254, -0.0215027761, -0.0410636924, 0.0937213749, -0.0320962518, 0.0671027526, 0.0596884228, -0.1473827809, -0.0908602178, -0.0068030600, 0.0309711397, 0.0575255975, 0.1028553545, -0.0604963228, 0.0682869405, 0.0121599771, 0.1567635387, -0.1302898824, 0.0708796382, -0.1856185049, -0.0483844057, -0.0578198954, -0.2139970958, -0.1339506209, 0.0578508377, 0.0032367236, -0.0181748252, 0.0181442648, -0.0164339654, 0.0222244691, 0.0969053060, -0.0203889646, -0.0318710655, -0.1320667267, -0.0476998165, 0.0347490609, 0.0334265418, -0.0254441388, -0.0308756735, -0.0889564455, -0.0727897584, 0.0278640967, 0.1130420119, -0.0064413967, 0.0533779114, -0.0743975416, 0.0046450356, -0.0694717988, 0.0106216148, 0.1068185493, 0.0823880062, 0.0945659429, -0.1358323544, -0.0188859999, 0.0342782922, -0.0048024021, 0.1373118162, -0.0031108372, 0.1248206720, 0.1450102329, 0.0982872844, 0.0322259590, -0.0668572411, 0.0507136621, 0.0479401946, -0.0637138635, 0.0256983377, 0.0426176190, -0.1034414098, 0.0598301888, -0.0902959853, 0.0251508020, 0.0442455858, -0.1129760146, -0.0696872994, -0.0920220762, 0.0141510814, 0.0670986772, -0.0791651532, -0.0417407528, -0.0358993709, 0.0276827142, 0.0725960433, -0.0337828994, 0.0179656763, 0.0596076548, 0.0618197955, 0.0330274440, 0.0584044680, 0.0418453552, -0.1236956045, 0.0101684099, -0.0374086946, -0.1826613694, 0.0587037280, 0.0359542780, 0.1094330996, -0.0121332649, 0.0117174862, 0.0128722787, -0.0890339911, 0.0160740521, -0.0098499786, 0.0301549807, 0.0007699458, 0.1256488264, 0.0240676589, -0.0642778799, 0.0334772468, 0.0188830532, -0.1174545884, -0.0222397577, 0.0104930587, -0.0011428259, 0.0697328970, 0.0043415609, 0.0663575009, -0.0577332005, 0.0583203882, 0.0301032402, 0.0939152315, 0.0211991761, -0.1479763389, -0.0629228503, -0.1047972590, -0.0005404316, 0.0038291588, 0.0305415913, 0.0093418062, -0.0522512831, 0.1860514730, -0.0261767600, -0.0134345060, 0.0798650309, 0.0129776634, 0.0451288819, -0.0682669729, -0.0678833723, -0.0809828714, 0.1046518907, -0.0121132536, -0.0639554039, -0.0388973206, 0.1685357243, 0.0793404579, -0.0193321519, 0.0049075144, -0.1277761757, -0.0153100304, 0.0566092171, -0.0844850838, 0.1333560795, -0.0562224314, 0.0266065747, -0.0589084923, 0.0216289312, 0.0282654762, 0.0737631992, -0.1252256483, 0.1388615668, 0.1297366917, -0.0319117866, -0.0104273846, 0.0029308945, -0.0169468019, 0.0517799146, 0.0657469556, 0.0295214634, 0.0942868516, -0.1006913185, -0.0320857614, 0.0001368062, 0.0196454488, 0.0607311279, -0.0289152451, -0.1056591421, 0.0978666842, -0.0287421867, 0.1464900672, 0.0218340214, -0.1048180759, 0.1142251864, 0.0659182966, 0.0385106243, -0.1101057753, 0.0119813811, -0.0225406960, 0.0541736111, -0.0495433323, -0.0458233953, 0.0250596851, -0.0016629796, -0.0135937911, -0.0944324061, 0.0321890227, -0.0180620961, 0.0719863102, 0.0139571093, 0.0860740617, 0.1013533771, 0.0681731999, 0.0297449697, -0.0000285618, -0.0711235255, 0.1779917181, 0.0077127079, -0.0931027830, -0.0298266951, -0.0173727628, -0.0784230009, -0.0752972513, -0.0552768335, 0.0896539688, 0.1093100533, -0.1048860103, 0.0559570938, 0.0142911691, 0.1143038943, -0.0291795675, 0.0142514361, 0.1649357826, 0.0785412788, -0.0587325655, 0.0298308469, 0.0337793231, 0.1121857613, 0.0351268090, 0.0173462275, 0.0069283489, 0.0506909974, 0.0650305003, -0.0553394742, 0.0421758927, 0.0110511677, -0.0106159076, 0.0230695233, 0.0507964678, -0.0650477186, 0.1561933160, -0.0912997872, -0.0988470539, -0.0532921404, 0.1239612624, 0.0625571981, -0.0337698609, 0.1519737542, 0.1999243200, 0.0169034433, 0.0547113083, 0.0420566648, -0.1558239758, 0.1289871782, -0.0820214450, 0.0211069547, -0.1401168257, 0.0695629939, 0.0782290027, 0.0242799744, 0.0464837849, 0.0871280506, 0.0543864034, 0.0638092458, -0.0157259703, -0.0096997172, -0.0221526772, -0.0717970654, -0.0575319938, 0.0646910816, 0.0009011477, -0.0907554477, 0.0131680090, 0.1007809788, -0.0824572071, 0.0183446147, 0.0398769416, -0.0688171908, 0.0204144605, 0.0403342471, -0.0934564322, 0.0813974664, -0.0904397890, 0.0080762021, -0.0344288386, 0.0175178871, -0.0267470852, 0.0787723064, 0.0809286684, -0.0663297176, -0.0480709672, -0.0844233632, -0.1261668503, -0.1309420764, 0.0674247593, 0.0399717204, -0.0375320800, -0.0141721517, -0.0344844423, -0.0286179557, 0.0697220415, 0.0433940962, -0.1047356129, -0.1954977810, 0.0106291845, 0.0860879496, 0.0271419212, 0.0714181215, 0.1765606999, 0.0857384354, 0.0485350341, -0.0321342200, -0.0418879315, -0.0200594850, 0.1273117065, -0.0063128751, 0.0364635363, 0.1501681507, 0.1657591015, -0.0787232667, 0.0103962645, -0.0577322319, 0.0459493287, -0.0467779972, -0.1025844961, 0.0463162288, 0.0283014514, 0.0059976857, 0.0263441838, 0.0626178682, 0.0385585874, 0.0310007483, 0.1013142169, -0.1019755304, 0.0334292799, 0.0276809875, 0.0469070859, -0.0581167415, 0.1156601459, 0.0164736863, 0.0500189327, 0.0150613263, 0.0648185983, -0.0071815215, 0.0435801260, 0.0804902464, 0.0793942660, -0.0278259348, 0.0025134496, 0.0102262385, -0.0551379137, -0.0023022406, -0.0264854655, -0.1208126172, 0.0236456431, -0.0411333032, 0.0564967394, -0.0460904688, -0.0157015845, 0.0100011937, 0.0743867457, 0.0648264587, 0.1762143523, -0.0365488864, -0.0357458368, -0.0788607225, 0.0647942424, 0.0368660055, 0.0376907140, -0.0249733683, 0.0159685779, -0.0677039549, -0.1233214438, -0.0062558381, -0.1006400064, -0.0306072030, 0.0700271353, 0.0421783254, -0.0509344898, -0.0414437205, -0.0192423444, 0.0999184176, -0.0374858230, 0.0395361632, -0.0830370933, -0.0795484260, 0.0324639417, -0.0048120655, -0.0081533818, -0.0551349036, 0.0772933960, 0.0244074445, -0.0070627220, 0.0732891411, -0.0847928673, -0.0915308148, -0.0414373055, 0.0300304443, -0.0726361722, -0.0323132053, 0.0249673352, -0.0043128887, 0.0648963824, -0.1521043330, -0.1295793056, -0.0282058008, 0.0609999597, -0.0466885716, -0.1335778832, 0.0737645105, -0.0213248078, 0.0582640618, 0.0048941337, 0.0946827829, -0.0029667504, -0.0998619199, 0.0964698270, -0.1211684942, -0.1093877554, -0.0045176446, 0.0231701676, -0.0828292817, 0.0914694518, 0.0624501929, -0.0132771749, 0.0636936873, 0.0411239937, -0.0301735103, -0.0647912920, -0.0511551276, 0.0223437920, 0.0757748634, 0.0058038980, -0.1192713529, -0.0492995270, 0.1055730060, -0.0985613316, -0.1387371868, 0.2036730498, 0.0522691570, 0.0198593475, -0.0495320074, 0.0870193169, 0.0360696800, 0.1808258146, -0.0163622331, -0.0060705198, -0.0495782122, -0.0957248509, -0.0237736180, -0.0752587914, -0.0646226853, -0.0115795471, 0.0344258957, 0.0534079522, -0.0631508827, -0.0062331222, 0.0753639936, 0.0419368893, -0.1372909546, -0.0645418987, 0.0134101305, -0.0527853630, -0.0729072690, 0.0411706790, -0.0294517167, -0.1046471447, -0.0857238397, 0.0512154847, -0.0559405088, -0.0327165797, -0.1148904562, -0.0492245369, -0.0989481509, -0.0240921285, 0.0053117005, -0.0498714298, -0.0508699231, -0.0379679799, 0.0698734000, 0.0635823831, 0.0408829190, -0.0501545742, -0.0026406152, -0.1210448220, 0.0454870835, -0.0117658088, -0.0166873373, 0.0027971305, -0.0407502763, -0.0145497331, -0.0466100127, 0.0289092250, -0.0178405643, 0.0105743036, 0.0113571398, 0.1198996902, 0.1025872231, -0.0414371677, 0.0657329857, -0.0567350350, 0.1095973700, 0.1128588021, -0.0045163818, -0.0644625872, 0.0664626211, -0.0227253921, -0.0754475296, 0.0900592431, 0.0813136697, -0.1421450078, -0.1154592112, -0.0143960677, -0.0806816071, -0.0124252867, -0.0266963094, 0.0012187492, 0.0204355791, -0.0713150576, -0.0915573612, -0.0795716420, -0.0972524136, 0.0749522299, -0.1406378150, -0.0618703961, -0.1556488127, 0.0256906599, -0.0783250034, -0.0516938493, 0.0377712548, -0.0709779635, 0.1038144082, 0.0508039817, 0.0037132995, -0.0563603342, -0.0661645755, 0.0205089916, 0.0598363318, -0.0240157396, 0.0703008994, 0.0172994137, -0.0787251964, 0.0086896466, -0.0651956946, 0.0432758853, 0.0677683726, 0.0159806181, 0.1116764918, 0.0153982490, -0.1152227446, 0.0622700080, -0.0156074800, -0.0935918167, 0.0051972549, -0.0322371721, -0.0434385873, 0.1137683392, -0.1478797793, 0.0395919830, -0.0349525847, -0.0500067510, -0.0154929403, -0.0382017978, 0.0711932033, 0.0795428082, 0.0132242423, 0.0663220137, -0.1052992493, 0.0389034748, 0.1149867326, 0.1024059653, -0.0123783890, 0.0130218565, 0.0955698490, 0.0024050809, 0.0204188563, -0.0560925305, -0.0084366873, -0.0951377153, -0.0446471646, 0.0795353204, 0.0563548692, 0.0288368855, 0.0590050258, 0.0220265985, 0.0824562982, 0.0232857205, 0.0161879417, 0.0222664513, 0.0016317163, 0.1135808378, -0.0608312897, -0.1206762567, 0.0246001799, 0.1135721505, 0.0198853649, -0.0341764577, -0.2008582354, 0.0226194989, -0.0257397220, -0.0206408724, -0.1292183101, 0.0374587663, 0.0586750992, -0.0772682205, 0.0177283622, 0.0164608993, -0.1063780338, 0.0108909607, 0.0440824553, 0.1171733215, 0.1214673072, -0.0092951115, -0.0591941029, -0.0592169724, -0.0955699235, -0.0237689409, 0.0115131438, 0.1686021984, 0.0488217212, 0.0578223467, -0.1392153800, 0.0292683654, 0.0651013479, 0.0583495311, 0.0865744799, -0.0323783904, -0.0816035122, -0.0250764266, -0.0724572092, -0.0096287262, -0.0022437302, 0.1197327822, 0.0374536142, 0.0895059705, 0.0672479346, -0.0817592144, -0.0544931144, 0.0239271186, 0.0325929374, 0.1415527612, -0.0423363782, -0.0454394892, 0.0985120013, 0.0803985521, 0.0446285270, 0.1360397041, -0.0758859515, -0.0542196333, -0.0106761791, -0.0627999306, -0.0532423556, 0.0797879249, 0.0156002399, -0.0288062878, -0.1270131171, 0.0810438767, 0.0019052736, -0.0734354854, 0.1603453159, 0.0466723442, 0.0205682535, 0.0278125443, -0.0150856264, -0.0829322487, 0.0077954456, 0.1018735766, -0.0243827924, 0.0309920497, 0.0488668606, -0.0196311139, -0.0298722815, -0.0149616627, -0.0225761905, 0.0452302359, 0.0240650419, 0.0457679182, 0.0928434432, -0.0454666987, 0.0789418370, 0.0118192919, -0.0146341361, -0.0737015754, -0.0328015722, 0.1433694065, -0.0305802971, 0.0424249694, 0.0381775722, 0.1147185266, -0.0843614265, -0.0185118206, -0.0230247378, 0.0153261870, 0.0080013368, 0.0875570476, 0.1500824988, -0.0328246132, 0.0531464927, 0.0706824288, -0.0353159308, -0.0023364536, 0.0184381139, 0.0743996352, -0.0233204942, -0.0252057984, 0.0501264557, -0.0174943693, -0.0381515063, 0.0846075490, -0.0221755728, -0.0411022939, -0.0487592518, 0.0275951326, -0.0410479680, -0.0941352993, 0.0314725675, -0.0316510163, 0.1208362877, 0.0906339735, -0.0051197810, -0.0805626139, 0.0578822941, 0.0183536150, 0.1052280813, -0.1115840152, -0.0285237841, -0.0460069962, 0.0396800786, -0.0710868239, -0.0122700017, -0.0251223948, -0.0877730325, -0.0247401111, 0.1535937637, 0.0335815139, 0.0238297954, -0.0403542444, -0.1094241738, -0.1916345507, -0.0662329271, 0.0289107747, -0.0954435319, 0.0909663513, -0.1495176405, 0.0474791452, 0.0209009610, 0.1396915764, -0.0482712649, 0.0403250977, 0.0475160442, -0.1034794822, 0.2218954712, -0.0478811115, -0.0023673966, 0.1085758358, -0.1138881147, -0.0265529267, 0.0022164769, -0.0713875219, 0.0141983563, 0.0307616200, 0.0919771045, -0.0198928155, -0.0315238833, 0.0896672830, 0.0205132365, 0.1167156696, 0.0483215451, 0.0994871482, 0.1060103178, -0.1092859283, 0.0088439947, -0.1419250369, 0.0955579504, -0.0063859452, 0.0814419687, 0.0218019802, 0.0273100697, -0.1887412071, 0.1235968620, 0.0096736010, -0.0706329271, 0.0548996627, -0.1022070348, 0.0268061794, 0.0458130240, 0.1048705876, 0.0833557323, 0.0263846442, -0.0575523227, -0.0394022278, 0.0674672723, -0.0147019234, 0.0534751713, 0.0401644148, -0.0321862064, 0.0745243654, 0.0642811656, 0.0521693490, 0.0393234491, 0.0515472740, 0.1180115566, 0.0185025632, -0.0012403782, -0.1076496989, 0.0376622751, 0.0520222634, -0.0887290910, -0.0667949095, 0.0714129210, -0.0066949511, -0.0299518108, 0.0577423722, 0.0652967319, 0.0720959902, -0.0177878551, -0.0199208707, 0.1543703377, -0.0301573426, 0.0291241966, 0.0252537224, -0.1030187309, 0.0186864249, -0.0440994836, -0.0048679006, -0.0405026488, 0.0896200985, -0.0057981745, 0.0857736245, -0.0740782395, 0.0245015025, -0.0104569364, -0.0792457014, 0.0837175101, -0.0179279074, -0.0102474093, -0.0237453654, -0.1352128237, -0.0814821348, 0.0945463032, 0.0964103490, -0.0700305477, 0.0419835821, -0.0507963896, 0.0761782825, 0.0001393892, -0.0817534328, -0.0377694219, -0.0381215401, 0.0622421578, 0.1978315264, 0.0412866771, -0.1054788083, 0.0941628069, 0.0279186051, -0.0703538954, 0.0414418355, -0.1639746577, 0.0751190037, -0.2062688470, -0.0220533721, -0.0784653947, 0.1674744785, -0.1255331039, -0.1151739806, 0.0057875747, -0.0150809698, 0.0449201912, -0.0868255943, -0.0214009508, -0.1137992740, 0.1472177804, -0.0320110731, 0.0685010850, 0.0624411479, -0.0013348497, -0.0778024271, 0.0128729567, -0.0149215609, 0.0192379467, 0.0149409585, -0.0198231600, 0.0068788314, 0.0120304795, 0.0274368376, -0.0587845929, -0.0101708323, -0.0176084153, -0.0777300224, -0.1517048180, 0.0009674206, -0.0146348327, -0.0875408575, 0.0662717000, 0.0489689037, -0.0096075088, -0.0261243414, 0.0019013360, 0.0976827666, 0.0245325789, 0.0722087026, -0.0325912535, -0.0738793686, 0.0135564301, -0.0960079655, -0.0878441110, -0.0058597252, 0.0987292975, -0.0642089918, -0.0051832069, -0.0901856497, -0.0148245152, 0.1169703081, -0.0467081964, 0.0823447555, -0.0291711241, 0.0378974602, -0.0257757530, 0.0681102946, -0.0029905681, 0.0821879506, -0.1025551856, 0.1169837639, 0.0313228294, -0.0368716605, -0.0807553679, -0.0627368689, -0.0913064778, 0.0513509028, 0.0525061190, -0.0226604939, -0.1133374721, -0.0226267390, -0.0337833092, 0.0729501694, -0.0735341534, 0.0517380089, -0.0932651311, 0.0383060165, -0.0974667966, -0.0746721774, -0.0702325851, -0.0988667086, 0.0609685816, -0.0385707393, -0.1043855324, 0.1012101769, 0.1006141528, -0.0535182059, -0.0540911593, 0.0513052642, -0.0495168604, 0.1207186654, 0.0717521906, -0.0174208749, -0.0569785982, -0.0453779921, -0.0561840124, 0.0788585097, 0.0362223014, -0.0263571888, -0.0459344685, 0.0187302921, 0.0379224047, 0.0553182587, 0.0644251108, 0.0490995459, 0.0205981322, -0.0338709950, 0.1145042852, -0.0374852829, 0.1452998370, -0.0701986775, 0.1041750088, -0.1656840146, 0.0035038283, -0.0467966162, -0.0854857117, -0.0023687333, 0.0194014795, -0.1342828423, -0.0813535452, -0.0484054387, 0.0473435782, 0.0697887093, 0.0436161347, 0.1159787998, 0.0182245076, 0.0587410182, 0.1344946027, 0.0429498479, 0.0071196379, -0.0396779664, -0.0150484005, 0.0167229809, 0.0163997132, 0.1527812332, 0.0239338838, 0.0095861293, -0.0630035177, -0.0120206242, 0.0850185975, -0.0273107998, -0.0350795239, 0.0391860157, 0.0769710466, 0.0608020425, 0.1035940349, -0.0246738866, -0.1283870488, 0.0504190326, -0.0878143460, 0.0042787064, 0.0313331597, -0.1744673103, -0.0845704377, -0.0106419623, -0.0867363513, 0.0018299557, 0.0686387271, -0.0580587126, -0.0589710996, 0.0271778703, 0.0455437526, 0.1014771238, -0.0263868608, 0.0543393940, -0.1804305464, -0.0061419792, 0.1048441678, -0.0559652597, 0.0937266350, -0.0405784324, 0.0363050401, 0.0822592452, 0.0472307801, -0.0347080231, 0.0318416618, -0.0041008741, -0.0750972033, 0.1282416731, -0.0243559126, -0.0301290769, -0.1149857268, 0.0217529610, 0.1818212718, -0.1458248943, -0.0008413866, -0.0033143777, -0.0714563802, 0.0759132057, 0.0701439455, -0.0649066716, -0.0221650675, 0.0078270743, 0.1527689844, 0.0324360058, 0.1085053682, -0.0713858381, -0.0251744054, -0.0287802666, 0.1540494859, 0.1591534466, 0.0468432158, 0.1089326516, 0.0435251258, 0.0260723773, 0.0893489495, -0.0805640668, 0.0722114444, -0.0226838738, 0.0035580806, -0.0077580251, 0.0291461870, -0.0604603030, -0.0003570411, 0.0185323004, -0.0194613487, 0.0025152899, -0.1416408420, -0.0693389475, 0.0980101377, -0.1722917557, -0.0354150832, -0.1154977083, 0.0968401507, -0.0616730489, -0.0532379523, 0.0125886872, 0.0934825167, 0.0057671806, 0.0078789368, 0.1282942891, 0.0729683787, 0.0206118375, -0.0182398539, -0.0506045222, 0.0176402628, 0.0689923391, 0.1032675132, -0.0213504583, -0.0395596698, 0.0009541940, -0.0132747041, 0.0526720546, 0.0988772511, -0.1014349312, -0.0567282140, 0.1027858555, 0.0532629825, 0.0386299491, 0.0034742441, -0.1187263802, -0.0357659981, -0.0352797806, -0.1171725094, 0.0194976702, -0.0504616201, 0.0306081790, -0.1634664685, 0.0174948554, -0.0616728216, -0.0532203838, 0.0333823040, -0.0454522669, 0.0415807888, 0.1068088487, 0.0293504223, 0.1287886202, -0.0113345329, 0.0912606567, 0.0738078132, 0.0887420774, -0.0572569445, -0.0371741094, -0.0013392642, -0.0140648307, -0.0677269846, -0.1074480638, 0.0021408089, -0.1356596947, 0.0517328009, -0.0271814689, 0.0179014169, 0.0301459655, -0.0224473290, -0.0815823823, -0.0755492151, -0.0701426864, -0.1427313983, -0.0891092867, 0.0488128029, 0.0822399259, -0.0251126606, 0.0382885970, -0.0022512153, -0.0603489652, -0.0193219632, 0.0335152373, 0.0935606882, 0.0151685122, 0.0661030114, -0.0732222795, 0.0411721617, -0.0021407316, -0.1043112502, -0.0203772560, -0.0283211097, -0.0540690459, -0.0354401767, 0.0194501877, 0.0321004726, 0.0314575695, -0.0940114558, 0.0400746800, 0.0388769694, 0.0442400165, -0.0418027341, -0.0767769516, 0.0611988008, -0.0048913173, -0.0258667469, -0.0460057706, 0.0802755356, 0.0709468797, -0.0640786961, -0.0677788258, -0.0542869382, -0.1007846594, 0.1000279188, 0.0805473849, 0.0073609063, 0.0364063531, 0.1200778782, 0.0350457504, -0.0017822720, 0.0935316384, -0.1016861945, -0.0418515243, -0.0505991057, 0.1227441952, -0.0959818587, 0.0275805853, 0.1510041505, 0.0607435890, 0.0809704065, -0.0484263152, 0.0048225336, 0.0102901021, 0.0226366706, 0.1049311832, -0.1418586522, 0.0523052327, 0.0396506786, -0.0337636434, 0.1739900708, -0.0823490694, 0.0160458405, -0.0862973556, 0.0770142302, -0.0311813671, 0.0760063082, -0.0018746722, 0.0037206151, 0.0635883287, 0.0196406282, 0.0339040458, 0.1604151130, -0.0464599654, 0.0573967695, -0.0803698599, 0.0070102066, -0.0216758214, 0.0830561519, 0.0528352633, -0.0345411859, -0.0560938045, -0.0209650286, 0.0243757442, -0.0666558519, 0.0460791141, -0.1393343359, -0.0154213747, 0.0726705417, 0.0285311528, 0.0097291917, -0.0381011404, -0.0107313618, 0.0948027968, -0.0862043574, -0.0190804116, -0.1173320189, 0.0186622813, -0.0295477770, -0.0659235045, -0.0767604411, 0.0456618890, 0.0270446800, -0.0646260157, -0.0731501430, -0.0626684874, 0.1242878437, -0.0580085516, -0.0532373488, 0.0774018690, 0.0461128242, -0.0743343681, -0.0578485094, 0.0313669369, 0.0776992291, -0.1065285429, 0.0773886219, -0.0649311617, -0.1086747795, 0.0259252526, 0.0891057029, 0.0058799917, 0.0137592144, -0.0409081355, 0.0778571516, 0.0997622311, 0.0178210363, -0.1385194510, -0.0137337856, -0.0241422169, 0.0336935855, 0.1800531745, -0.0544473492, 0.0037822702, 0.0966655686, -0.0651119500, 0.0936782658, 0.0237438548, 0.0294510350, 0.0780166462, -0.0616200715, 0.1244640648, 0.0116503909, -0.0056157447, 0.1727610379, 0.0612048432, -0.0322788432, -0.0986857042, -0.0016370171, 0.1280207336, 0.0658470914, -0.0713446140, -0.0128544364, -0.0737686008, 0.0527071208, 0.0309673473, -0.0425584726, 0.0409691334, -0.0498097055, -0.0121144541, -0.0307097286, 0.0330796503, 0.0996606499, 0.0962274671, 0.0363237895, -0.0831645280, 0.1795558780, 0.0020908825, 0.0509864837, -0.0090485662, 0.1097407341, 0.0033276528, 0.0131155932, -0.0594660938, -0.0263924077, -0.0462780334, -0.0241625588, -0.0147282155, 0.0861613378, 0.0822359174, -0.0271204263, 0.0257838890, 0.1015500650, -0.0270935595, 0.0071127750, -0.0997312590, -0.0352163613, -0.0562217757, -0.0549853146, -0.0782595128, 0.1649495512, 0.0444421805, 0.0923124030, -0.0160213672, 0.0007976033, -0.1361785531, 0.0386201739, 0.1075633764, 0.0777600557, 0.0050691813, -0.0306446645, -0.0673196018, 0.0091544725, -0.0082672387, -0.0486559309, -0.1258690655, -0.0593802184, -0.0492267199, 0.2293887585, 0.0691869855, -0.0992829874, 0.1578809470, 0.0451412350, -0.0173143353, -0.0321529433, -0.0056901835, 0.0803450644, 0.1438542306, 0.0463976264, -0.0605540872, 0.0355719589, -0.0261974595, -0.0073404578, 0.0579892471, 0.0085898228, 0.0230359603, -0.0135706617, 0.0845017284, -0.0749474987, -0.0240399353, -0.0395125113, -0.0842109770, 0.0447409190, 0.0007571289, 0.0972270668, 0.0975082964, -0.0281369537, 0.0470507555, 0.0263326690, -0.1279455572, 0.0251879096, -0.0266504064, -0.0274283495, -0.0053864410, 0.0479285866, 0.1404086351, 0.0065169549, 0.0414131023, 0.0131707955, 0.1926878691, 0.1159876883, 0.1530350745, -0.1116961539, -0.0055533964, -0.0101618301, 0.0873918831, -0.0606666245, -0.0632039681, 0.0140261985, -0.0518170223, -0.0613341108, -0.0855163336, -0.0107949832, -0.0656681955, -0.0139312558, 0.0094922669, -0.0405154265, -0.0307636261, -0.0387936756, 0.0058359765, 0.0570317395, 0.0404577628, -0.0617287531, 0.0267389137, 0.0468703061, 0.0568169691, 0.1134250462, -0.0094168633, -0.0780542493, -0.0195344239, 0.0373376049, -0.0363385305, -0.0144528020, -0.0974335149, 0.0098999087, -0.0045474544, -0.1046667174, -0.0508822091, 0.0514432788, 0.0134803168, -0.0038245863, -0.0120785721, -0.0458373427, 0.1273978651, 0.0017904928, 0.0014030263, -0.0658881515, 0.0090563623, -0.0252410546, 0.0240069292, 0.1012460366, -0.0220395457, -0.0496422425, 0.1094862968, -0.0219513196, -0.0354379304, 0.1540805250, -0.0429132804, -0.0565103814, 0.0402838215, -0.0642825589, 0.1238353401, -0.0502309203, 0.1395093501, -0.1109823436, 0.1177818328, -0.0581276417, -0.1559276283, 0.0488275364, 0.0412293598, -0.0021801796, -0.1393186450, 0.0180701315, 0.0189232528, -0.0895632431, -0.1705295146, -0.1299265325, 0.0721654594, 0.0802254006, -0.0828528479, 0.1173231900, 0.0293471944, 0.0884531885, -0.0696597844, -0.0258524325, 0.0640587807, 0.0351959169, 0.0786281750, -0.0648855045, -0.0961334258, -0.0257544406, -0.0273964312, 0.0605318174, -0.0051260199, -0.1242249161, -0.0089697465, 0.0942120925, -0.0147860348, -0.0407996625, 0.0637522936, 0.1065268070, -0.0872531608, -0.0444254801, 0.0945452228, 0.0856711194, -0.0916870385, 0.1155188009, -0.0108668506, 0.0049640425, -0.0710062683, -0.0599231869, 0.0625018850, 0.0119499424, 0.0548930950, -0.0351993218, 0.0143827107, -0.1518938839, 0.0583738275, -0.0999573097, 0.0018068701, 0.0061236732, 0.1066548303, 0.0152295530, 0.0134834684, 0.0730788931, -0.1202295497, -0.0551308095, -0.0315615423, -0.1566579193, -0.0174725633, 0.0260732025, -0.0578278080, 0.0174951814, -0.0024803057, 0.1051624343, -0.0089307427, 0.0344866887, 0.1329535544, -0.0774446949, -0.0367946140, 0.1076439917, -0.0636913404, -0.0752962381, 0.1108331531, 0.0421838276, 0.0285360999, 0.1158406883, -0.0360120684, -0.0232045148, 0.0542413443, 0.0872106925, 0.0734363049, 0.0691213608, -0.0883473754, -0.0412356555, 0.0524492823, -0.0653492361, -0.0846624970, 0.0302925315, 0.0038595237, -0.0969606936, 0.0134724043, -0.0376109183, -0.0408566892, -0.0557019934, -0.0914920792, -0.1032039225, -0.0529131182, 0.1118754521, 0.0367539078, 0.0886933282, 0.0665456057, 0.1001125723, 0.0066987686, -0.0403803512, 0.0865236521, 0.0037849620, 0.0187687036, -0.0398639254, -0.1032089964, -0.0235515423, 0.1606740654, 0.0362920910, -0.0431235954, -0.0478883125, -0.1230297387, -0.0903284475, -0.0384208038, 0.0278993156, 0.0130842663, -0.0126373563, 0.1185301170, -0.0575166866, -0.0480789952, 0.0401785746, 0.0541253462, 0.0941475704, -0.1398491561, 0.0509175174, -0.0214700028, 0.0994202346, 0.0556789562, -0.0480459183, -0.1912417412, -0.0165323429, -0.0675676838, 0.0284987912, 0.0825205743, -0.0150334835, -0.0902410299, -0.1629155874, -0.0584790185, 0.0381542332, 0.0422966108, -0.0777224526, -0.0730870366, -0.0347361863, -0.0401138142, -0.0362021625, -0.0483573861, 0.0137238363, -0.0595787689, -0.0708303601, -0.1166994721, -0.0298720039, -0.1063464582, 0.0501219034, -0.0090581793, -0.0029073060, -0.0622990504, -0.1128216684, -0.0884568021, -0.0078773759, -0.0317814872, -0.0072534215, -0.0918172002, -0.0098621137, -0.0269970838, -0.0084232464, -0.0024242941, -0.0227743648, 0.0774211437, -0.0051287320, -0.0860988349, 0.0658001602, 0.0140754739, -0.0289139785, -0.0685569346, -0.0243814178, 0.0135947652, -0.1434644461, 0.0780516565, 0.0080951303, 0.0266926140, -0.0028350092, -0.0995186120, 0.0346056558, -0.0173075758, 0.0788412839, -0.0183552057, 0.0645166785, 0.0501902625, -0.0318006016, -0.0531773046, -0.1462508738, -0.0342595316, 0.0788041279, 0.1476599425, 0.0522588380, -0.0581307039, 0.0909018144, -0.1082873046, 0.0101347901, 0.0708455443, -0.0354304463, -0.0520601720, -0.0402959883, 0.1076955050, 0.0223486982, 0.0149983950, -0.0186031573, -0.0053853844, 0.0463676862, 0.0821535960, -0.0499164090, 0.0526035428, -0.1073899567, 0.1045300886, -0.1187362000, 0.0921865851, 0.0659973547, 0.1320077330, 0.0773048103, -0.0393959880, 0.0006088775, -0.0439786315, 0.1469723880, 0.0660999268, 0.1288064271, 0.0567180812, -0.0376440212, 0.0949445888, 0.1504830718, 0.0215855427, 0.1189268976, 0.0168574378, 0.0696997792, 0.0462467372, 0.0067884605, -0.0521505922, -0.0368290618, 0.1249706820, 0.0239638500, -0.0140376836, -0.0658184141, 0.0648963749, -0.0072990544, 0.0247058012, -0.0182435233, -0.0991640985, 0.1915273368, 0.0724578127, 0.1003191620, -0.0570609272, 0.1423180252, 0.0801537260, -0.0697725564, 0.0210130140, -0.0118027339, 0.0666897744, -0.0364111699, -0.0139232520, -0.0303209685, -0.0153364325, 0.0112589514, 0.0165465213, 0.0217718426, 0.0733226985, -0.0588762462, 0.0942910537, -0.0007302428, 0.0519416407, -0.0596237667, 0.0295631289, -0.0098351557, -0.1038670987, -0.0612801425, 0.0767380074, -0.0075704567, -0.0265132487, 0.0673098192, -0.1574753076, 0.0309305415, -0.0164848901, -0.0535599180, -0.0921470374, -0.0754886493, -0.0681179017, 0.0341138691, -0.0218063630, -0.1462145299, 0.0496179722, -0.0649385005, -0.1159007102, 0.0707948655, 0.0486863330, -0.0942824632, 0.0932833105, 0.0599443577, -0.0685655773, -0.0023308434, -0.0954148248, -0.0114555936, -0.0397975072, 0.0803092793, -0.1755844355, 0.0428090841, 0.1147657931, -0.0437104814, -0.0601212718, 0.0857955590, 0.0576986521, -0.0491949245, -0.0194355138, -0.0521769598, -0.0224694461, 0.0346978270, 0.0438214615, -0.0309989005, -0.0993869379, 0.1170330495, 0.0314008705, 0.0772271529, 0.0173712969, 0.1078918427, -0.0977078825, -0.0461031795, 0.0711425841, -0.0384083055, -0.1361944824, 0.0668429211, -0.0653707534, -0.0438355766, -0.1004079580, -0.0580431931, 0.0066723288, -0.0751582682, 0.0488877445, 0.2383625656, 0.1173493862, 0.0353058726, -0.0546386391, 0.0935699567, 0.0369057506, -0.1286658198, -0.0119802337, 0.1443319619, -0.0682899877, -0.1335390359, 0.0595330521, 0.0318633020, -0.0759088099, 0.0030766688, 0.0354092121, 0.1117868125, -0.0300859846, 0.0517750978, 0.1437193751, 0.0487188697, -0.0800705701, -0.0084301792, 0.0000530928, -0.0307992846, -0.0196613576, 0.0849672258, 0.0981819704, -0.0179473571, 0.0212770887, -0.1486609727, -0.1350016892, -0.0083616003, 0.0140451081, -0.0427355468, -0.0187352039, -0.0786737055, -0.0408296324, -0.0726810172, 0.0333828703, 0.0463888161, 0.0047947494, 0.0827517956, -0.0144942887, -0.0228344277, 0.0031909198, -0.1041916311, -0.1019269824, -0.0652638897, 0.0150148375, -0.0761523545, 0.0022198334, -0.0013547912, -0.0661673695, -0.0609605312, 0.1306437552, -0.0273055807, -0.0206228867, -0.0161018576, 0.0843905360, 0.0869611353, 0.0001922987, 0.0231961291, 0.0638302341, -0.0686687529, 0.1406439394, 0.0693903938, 0.0757766739, 0.0740527362, 0.0928549692, 0.0605654083, 0.0160876922, 0.0486959629, 0.0338619016, -0.0567934699, 0.0319116414, -0.0041711386, 0.0855625272, 0.0889570042, 0.0062284339, 0.0244509354, -0.1877402812, 0.1804374754, 0.0577449724, -0.0710421801, 0.0031307340, 0.0318146423, -0.0598053709, -0.1595512480, 0.0488901846, 0.0331447534, 0.0190443918, 0.0181547273, -0.0005208701, 0.0046105050, -0.1145338789, 0.0104554500, 0.0394201800, -0.0581524000, 0.0339031070, -0.0214698315, -0.1101058573, 0.0323948860, 0.0002143802, 0.1412902772, -0.0162356216, -0.1004752070, 0.0811855346, 0.0240053125, -0.0315022841, -0.0699063167, -0.1623379886, 0.1072740853, -0.0508876890, -0.0367993936, -0.0520461686, 0.0935912430, 0.0390608534, 0.0373169146, -0.1566855609, 0.0049848966, -0.0622507669, 0.0182300117, -0.0135788564, 0.0345522761, -0.0295939147, -0.0370385833, -0.0895752832, 0.0674022138, -0.0444597006, -0.0835540295, -0.0570564792, 0.0139026642, -0.0346767232, 0.0291328952, 0.0092678890, -0.0239804555, 0.0517520569, 0.0938578397, 0.0658113807, 0.0292955991, 0.0035763150, -0.0122699905, -0.1037068665, 0.0218138825, 0.0018437654, 0.0410711952, -0.0279031042, -0.0144476034, -0.1092031822, -0.0087471474, 0.0152593162, -0.1133590564, 0.0519119427, -0.0523335487, -0.0446912497, -0.0042080507, -0.0713432357, 0.0568826571, 0.0295534972, -0.1245396435, 0.1272952706, -0.0867660195, -0.0716596469, 0.0794469491, 0.1065200120, -0.0104265213, 0.0033216253, 0.0855259597, -0.0420017987, -0.0595949739, 0.0250587314, -0.0387900248, 0.0414252505, 0.0877354071, 0.0376501903, -0.0691696033, -0.0570270531, -0.1059629917, -0.0886934102, -0.0779722854, -0.0495961457, 0.1112597585, 0.0524887592, -0.0743343234, 0.0726466998, 0.0342060514, -0.0300480723, -0.1468445063, -0.1667505205, 0.0057746470, -0.0660625175, 0.0047231987, 0.0909631029, -0.1305704415, -0.0691604465, 0.0179392993, 0.1150418967, 0.0148941353, 0.0649431720, 0.0790424049, -0.0023492835, -0.2181067020, 0.0501527786, -0.0328078791, -0.1193766892, -0.0532029010, 0.0512038693, 0.0525734164, 0.0650687218, 0.0739364028, 0.0020759776, -0.0382206663, -0.0200840682, -0.0304762162, -0.0493082255, 0.0451801084, -0.0008513378, 0.0007307753, -0.1040978283, 0.0707513466, 0.0597076938, 0.0815866739, 0.0616592914, -0.0141680092, 0.0273698308, -0.0807884857, -0.0136686200, -0.0408005975, -0.0302830823, 0.0371750332, -0.0104380511, 0.1511583179, -0.0242657587, 0.1048169583, 0.0198476091, -0.0233684164, 0.0850268602, 0.0641002283, 0.1228104904, 0.0684638172, 0.0149274711, 0.1033162996, -0.1057755128, 0.0102599058, 0.0075986907, 0.0432315096, -0.0299108177, 0.0675267950, 0.0398900583, 0.0750597194, 0.0848485753, -0.0410256311, 0.0576005504, -0.0113004288, -0.0427884832, 0.0036809556, -0.1120678186, -0.0524971634, 0.0737477615, 0.0212915987, -0.1247303709, -0.0027884115, -0.0157181025, -0.0204585493, -0.0050982647, 0.0568844788, 0.0765615702, -0.0745473430, 0.0736877248, 0.0776878893, -0.0134941740, -0.0230756626, 0.1141972169, -0.0384833738, -0.0315548480, -0.0644760132, -0.0953564867, 0.0770954341, -0.1068627238, -0.0214181785, 0.0126743196, 0.0478495620, 0.0508829877, 0.0556068122, -0.1039443165, -0.0427933186, 0.0281315334, -0.0499735400, 0.0338073075, -0.0518794954, 0.0506010912, 0.0320628434, 0.0268075336, 0.0629955903, 0.0096104462, -0.0442689806, -0.1162221953, 0.0201255381, 0.0078854822, 0.0117711173, 0.0114510171, 0.0245103687, -0.1294461787, -0.0772704333, 0.0744555518, 0.0297548734, 0.1397234797, 0.1087340787, 0.0631641299, -0.0064817928, 0.0760063678, -0.1149746999, 0.0247409418, 0.0379738398, 0.0839729607, -0.1440687627, 0.1166597530, 0.0349905193, -0.0093865097, -0.0494183525, 0.0362461358, -0.0680727363, -0.0244106837, 0.2424963117, -0.0599975735, -0.0987114757, 0.0645270944, -0.1018742844, 0.0021766871, -0.0565418676, 0.0872793496, -0.0924260393, 0.0543930680, -0.0658261031, -0.0490665361, 0.0181560200, -0.1084616110, 0.0328106135, 0.0011911374, 0.0753971711, 0.1420865059, -0.1069350913, 0.0170029886, -0.0407532789, -0.0063456520, 0.0217090752, -0.0799077973, -0.0724818856, 0.1486908793, 0.1379035264, 0.0121444482, -0.0319266431, 0.0761121437, -0.1242867038, 0.0316586010, 0.1150873601, -0.1951796710, 0.1290065199, 0.0633682609, -0.0206706859, 0.0993958339, 0.0734993368, 0.0080449153, -0.0709047616, 0.1426652670, 0.0403912514, -0.1248318925, -0.0052787438, -0.1069145352, -0.0151463151, -0.0918539241, -0.0563442484, 0.0552824475, 0.0087295370, 0.0199372768, 0.0079552066, -0.0135435537, -0.1349529326, -0.0003795988, 0.0713834539, 0.0286822394, 0.0140659958, 0.0836488977, -0.0466628075, 0.0149831437, -0.0126629565, -0.0376278311, 0.1153714806, -0.1199298427, 0.0093331337, 0.1480602026, 0.0290661715, 0.0673215538, -0.0030776961, 0.0411248691, 0.0694228858, -0.0011300892, 0.0133264130, -0.0948828235, -0.0613031462, 0.0046302713, 0.1421506852, 0.0375913978, -0.0467777923, 0.0580739193, -0.1435777843, 0.0281081628, -0.0472611263, -0.0599754639, -0.0097034667, -0.1416127533, 0.1035685316, -0.0548134148, 0.0282986909, 0.0463007390, 0.0567073561, 0.0197321102, -0.0115730111, -0.0329189152, 0.1281697899, 0.0553677082, 0.1522876024, -0.0262055919, -0.0532172620, 0.0822244585, 0.1213071495, 0.0797671527, 0.0432539433, -0.0556063503, -0.0937469155, -0.0486769453, -0.0427350923, 0.0476798937, 0.0837245956, -0.0840661228, -0.0532695204, -0.0202665627, 0.0201606788, -0.0267599002, -0.0387437940, -0.1223681197, -0.0381379649, 0.0741410181, -0.0679097325, -0.0079008415, 0.0126564624, 0.0469586328, -0.1301569641, -0.1028810441, 0.0299049038, -0.0440651290, -0.0102168694, -0.0200794414, 0.0335523784, 0.0241723545, 0.0601817667, 0.0680812523, -0.0924991071, -0.1005493850, -0.0388557985, 0.0859244093, 0.0769238770, 0.1358559132, -0.0506100878, 0.0947057158, -0.0005904473, -0.0020817574, 0.0232425593, 0.0870014057, -0.0038235951, -0.1210698932, -0.0941084102, 0.0678697675, 0.1009424031, -0.0654544383, -0.0812511593, 0.0411895514, 0.1476868093, -0.0456392281, 0.0471426398, 0.0659953058, -0.0855999514, 0.0022337344, 0.0141446553, 0.0236703642, 0.0942317918, -0.0183632225, 0.0029742643, 0.0364428982, 0.1801515669, 0.0192974955, 0.0577512272, 0.0055771619, 0.0332160853, -0.1341251880, 0.0335634314, 0.0623496547, -0.0031713946, -0.0511014126, -0.0601545051, -0.0397472195, 0.0425986946, -0.0475796536, -0.1094415635, -0.0061293431, 0.0194834247, 0.0728704780, -0.0093099726, -0.0738244578, -0.0204776078, -0.0004292913, 0.0444147177, -0.0145151569, 0.0561872460, 0.0707375109, -0.1524229944, -0.0539079607, -0.0185114369, -0.0248737428, -0.0469283387, 0.0517025031, -0.0447614864, -0.0351868421, -0.0003829896, 0.0138194123, -0.0396921188, 0.0122149512, 0.1447891295, 0.0093995258, -0.0278300159, 0.0061953589, -0.0758825988, 0.0399949141, 0.1473686397, -0.0798412114, 0.0428084545, -0.0525143072, 0.0297975857, 0.0822907090, 0.0597934835, -0.0274954364, -0.0173303150, -0.0363188311, -0.0171722248, 0.0204467159, -0.0918812975, 0.0150928004, -0.0235661268, -0.0247233380, -0.0007592640, -0.0177830607, 0.0537451468, -0.0649575293, 0.0199597273, -0.0521024205, 0.0354448669, -0.1044542864, 0.0265642740, -0.1423108429, 0.1181490868, -0.0040095467, -0.1834221035, 0.0645270869, 0.0966720134, 0.0189972539, -0.0732068941, 0.0196887478, -0.0555413477, 0.0000551166, -0.0063191005, 0.0349024273, 0.0630846173, 0.0524368212, -0.0305900313, 0.0403858088, 0.0662292764, 0.0302823111, 0.0580683649, -0.0980960205, -0.0764298066, 0.0474110097, -0.0103012137, 0.0422015041, -0.0292647537, -0.0911851302, -0.0637854636, -0.0646905825, 0.0297268201, 0.0901814029, 0.0796023384, -0.0333018675, -0.0305307526, 0.0615828671, -0.0128734233, -0.0452529602, -0.0302024148, 0.0350913592, 0.0567801744, -0.0052493401, 0.1186205372, 0.0071800873, 0.0133310650, -0.0148607679, -0.0366391018, -0.1287125647, 0.1716609150, -0.0063915811, 0.0798816606, 0.0804957449, 0.0839712545, -0.0294200983, -0.0043826429, 0.0099239610, 0.0481205918, 0.0213228688, -0.0875578299, -0.0291022137, 0.0479015782, -0.0326522253, 0.0007653534, -0.0465253256, -0.0721912831, -0.0030241702, 0.0188562945, -0.0100551359, 0.0783009678, 0.0363619551, -0.0284989811, -0.0149927996, -0.1369118094, 0.1157028005, 0.0321402103, 0.1273862422, -0.1661882848, 0.0701713115, 0.1523263156, 0.0231529046, 0.0825104713, 0.0401247330, 0.0229839776, -0.0037345216, -0.0184985101, 0.0743058994, 0.0005973394, 0.0877283663, -0.1138266474, -0.0573700853, 0.0060794875, 0.0458661914, 0.0380350873, -0.0383127108, -0.0126358587, 0.0899486691, -0.1217006221, 0.0189498868, 0.0726402551, 0.1326366961, 0.0256813541, 0.1136720851, -0.0421657935, 0.0137524735, -0.0456847399, -0.0842794329, 0.0687736720, -0.0201143268, 0.0930735916, -0.0154112410, 0.0092169773, -0.0133783277, -0.0496334806, -0.0574242920, -0.1295432448, -0.0194506291, -0.0372094139, -0.0974665880, -0.0829716027, -0.0140309073, 0.0481946319, 0.0017966711, -0.0677578375, 0.0864409655, -0.0819256306, -0.1270007193, -0.2379405499, 0.1058983356, 0.0056103263, -0.0627727583, 0.0079435632, 0.0891757458, 0.0293898769, 0.0065693818, -0.0524595343, 0.1611897498, -0.0118622687, -0.0253578797, 0.0455513075, 0.0026897639, 0.0371546187, 0.0582469143, 0.1256306767, -0.0782489032, 0.0987815410, 0.0232024305, -0.1146124005, -0.1939693093, 0.0711301565, 0.1070390269, 0.0279339235, -0.1228480786, 0.0815229043, -0.1189390570, -0.0675805062, -0.0631550401, 0.0206774548, 0.1159124002, 0.0087649543, 0.0906591788, -0.1336067617, -0.0533051826, -0.0213091373, -0.0873438567, 0.0370937511, -0.0204327758, 0.0885380656, 0.0286377184, 0.0554855689, -0.0807493329, -0.0500809103, 0.1202661619, 0.0415716954, -0.0153078232, -0.0978503004, 0.0659069419, -0.0309255105, -0.0543003976, 0.0301443897, 0.0679790080, -0.1076148823, -0.0509647913, 0.0553352758, 0.1002540067, -0.0532998927, -0.0760773569, -0.0087159611, -0.0839356259, -0.0653914213, 0.0411570445, 0.0820183158, 0.1271123290, -0.0073080314, 0.0759104043, 0.1423909664, 0.0019801101, 0.0441724919, 0.0141373202, 0.1567980796, -0.1246948093, 0.0170577690, 0.0275545567, 0.0300915483, 0.0279740468, 0.0213699341, -0.1081088111, 0.0888635069, 0.0393330753, -0.0707653537, 0.0084364302, -0.0003192406, -0.0036796331, -0.0009119445, 0.0060208007, 0.0318831392, -0.0068407115, -0.1127481908, -0.0287280567, 0.0638523847, 0.0313453190, -0.1565434933, 0.1086070538, 0.0070760883, -0.1842895150, 0.0514401644, -0.0521006361, -0.0605821013, -0.0166593529, 0.1236531734, 0.0960062444, 0.0929771960, -0.0554637797, -0.0752386972, -0.0087698549, -0.0565306470, 0.0195690636, 0.0150700770, 0.0278155655, -0.0057320818, 0.0198547281, 0.0234375522, -0.0262988620, -0.0887090936, -0.0364794619, 0.0778613389, 0.0310198702, -0.0147133283, 0.1247597262, 0.1372624040, -0.0680573136, -0.0796493292, -0.0084406510, 0.0511512980, 0.1236415356, -0.0261988603, -0.0462522283, -0.1550508738, -0.0172405653, 0.0701539218, -0.0473917201, -0.0353801735, -0.0096766744, 0.0408338532, -0.0086154146, 0.0818597376, -0.1093429700, 0.0798646733, -0.0719197616, 0.0354920104, -0.0331013650, 0.0389000736, -0.1060205251, 0.0656985268, 0.0414600149, -0.0227748677, 0.1132010743, -0.1455958337, -0.2132073939, -0.0629261807, 0.0098018907, -0.0844249204, -0.0480849706, 0.0411483273, -0.0070256907, -0.0166589487, -0.0379767269, 0.0355701707, -0.0790244043, -0.0753828511, 0.0336417258, -0.0232860707, 0.1704717875, -0.0176393054, -0.0098961983, 0.0586334616, 0.0215536859, 0.0416326523, 0.0249801315, -0.0188102722, 0.0219151787, -0.1239999682, 0.0828108191, 0.0127720116, -0.0679907128, -0.0515043996, -0.0248859748, -0.0333377123, 0.0154973604, -0.0208222046, -0.1285182536, 0.0479751080, 0.0513108149, -0.0081505533, 0.0236400105, 0.1475758553, 0.0641423687, -0.0853233933, 0.0440801382, -0.0001805697, -0.0627443418, 0.0553988740, 0.0586997569, -0.0461510792, 0.0265795086, 0.0242249221, 0.0527049899, -0.0309268422, 0.0751143992, 0.0146452785, 0.1242636293, 0.0725773722, -0.0347983353, 0.0803911015, -0.0970723256, 0.0946117342, 0.0558934584, -0.0716906935, 0.0274287518, -0.0281106662, -0.0005870759, 0.1276438534, 0.0859977007, -0.1087655053, -0.0091999620, -0.0361564904, 0.1238130778, 0.0314103104, -0.0546783581, -0.0143760368, 0.0064256173, 0.0138059407, 0.0074189939, -0.0525434650, 0.1069524810, -0.1004028171, 0.0288468525, 0.2155031562, -0.0076654768, -0.0561923943, 0.1204985976, -0.0484043881, 0.0884381384, -0.1470170915, -0.0421745330, 0.0470511056, -0.0131820478, -0.0283743516, -0.0461710840, -0.0382208750, -0.0098156808, 0.1416322291, 0.0150908157, -0.0026659118, -0.0717919916, -0.1939284056, -0.0573688112, -0.0084951287, 0.0753218383, -0.1086751595, -0.1259693801, 0.0283552855, 0.0267813727, -0.0065355189, 0.1894951314, 0.0450857058, 0.0124315247, -0.0139579810, 0.1176752374, -0.0768090039, 0.0296220593, -0.1208400875, -0.0582479462, 0.0582852475, -0.0963514224, -0.0608698763, -0.0327723958, -0.0617259629, -0.0346267223, 0.0021780934, -0.0765443668, 0.0422227494, -0.0691585094, -0.0819861889, 0.0402371474, 0.0486703776, 0.0723374858, -0.0309160054, 0.0165573992, -0.0826495662, -0.0752234310, -0.0681696087, -0.0388819203, 0.0723749772, -0.0010911915, -0.0995172933, -0.0344763957, -0.0700617731, -0.0145012522, -0.0960049257, -0.1202873662, 0.0640354231, 0.0335666612, 0.0880756304, 0.0534586683, -0.1484002620, 0.0048229620, -0.0451869220, 0.0667590201, -0.0410103947, 0.1017394662, 0.0172657594, 0.0994905531, -0.0756817982, 0.0861044973, -0.1749944240, 0.0430406034, -0.0053289342, 0.0961693749, 0.2097648084, 0.0428040698, -0.0605659671, -0.0624839887, 0.1302662194, 0.1155219823, -0.0335566662, 0.1100322604, 0.1281858981, -0.0957936049, -0.0489012972, 0.1074979603, -0.0407888219, -0.0212975554, 0.0146148782, 0.0789334700, -0.1582216024, 0.0232843347, -0.1326613426, 0.1107609123, -0.0144221867, 0.0100060813, 0.0367753990, 0.0912413448, -0.0116317905, -0.0207310729, 0.0919998735, -0.0053489767, -0.0520996861, -0.0835801139, -0.0233838931, -0.0878100321, -0.0209052358, 0.0058476441, -0.0379050970, 0.0271784104, 0.0149960378, -0.0352431200, 0.0360223427, 0.0672464892, 0.1828836203, 0.0675222278, 0.0092290994, -0.0634119213, -0.0029908288, 0.0326316878, 0.0025250390, 0.0388862863, -0.0686187521, -0.0222104955, -0.0734030604, -0.0192374103, 0.0301232189, 0.0653007925, -0.0570904650, -0.0482047535, 0.0417739488, -0.0493075997, 0.1199987978, 0.0167503487, -0.1274550110, 0.0569257997, 0.0332254693, -0.0085854158, 0.0883094594, -0.0389977768, 0.0271255318, 0.0343048126, -0.0407605655, 0.0097828377, -0.0316102095, -0.0389501788, -0.0023798011, -0.0909726024, 0.0274220668, -0.0379299633, 0.0266473927, -0.0073445532, 0.0895989910, 0.0493819118, -0.0093145743, -0.0433566570, 0.0448910445, -0.0144077819, 0.0890405700, 0.0742014498, -0.0139809959, -0.1168435439, -0.0804038048, -0.0667018518, 0.0849551260, -0.0673636273, 0.0172783323, 0.0434213355, 0.0276428126, -0.0177363604, 0.0019713528, -0.1506753117, 0.0149796288, -0.0672137365, -0.0709975958, -0.0084362067, 0.0232559256, 0.0413115397, -0.0462053530, -0.0957592875, 