0.647180974483490, 0.743867456912994, 0.436301112174988, 1.308632016181946, 0.569695889949799, 0.362062513828278, 1.150831818580627, 0.896104514598846, 0.578074693679810, 0.593231976032257, 1.067934751510620, 0.607235074043274, 0.659842669963837, 0.822628378868103, 1.423194050788879, 1.017701983451843, 0.300783067941666, 0.503392875194550, 0.723225891590118, 0.619235873222351, 1.389430522918701, 0.662937641143799, 0.321048200130463, 1.123095631599426, 0.170031145215034, 1.171303272247314, 1.244413495063782, 1.111765623092651, 1.257718801498413, 0.892154335975647, 0.629940509796143, 0.948739767074585, 0.819336950778961, 1.236659526824951, 1.297794818878174, 0.953671336174011, 1.426958918571472, 1.093210935592651, 0.542912840843201, 1.046770215034485, 1.198928475379944, 1.417717337608337, 0.663833796977997, 1.088413476943970, 1.270710825920105, 1.359909057617188, 1.064917445182800, 0.766657292842865, 0.871459901332855, 0.640978097915649, 0.529458642005920, 0.949516713619232, 1.220603466033936, 1.003890156745911, 0.362513005733490, 0.053288076072931, 0.273643195629120, 1.363610863685608, 0.510909974575043, 0.413485616445541, 0.617516100406647, 0.373747706413269, 0.943139135837555, 0.701704859733582, -0.304903209209442, -0.173462659120560, -0.163071885704994, -0.368025779724121, -0.193458363413811, -0.450047582387924, -0.338065326213837, -0.531319856643677, -0.024181164801121, -0.328430086374283, -0.462639838457108, -0.250507771968842, -0.354082882404327, -0.317169040441513, -0.179977983236313, -0.383995085954666, -0.418096661567688, -0.187492266297340, -0.634483873844147, -0.374116450548172, -0.339212298393250, -0.235824882984161, -0.370800673961639, -0.129435718059540, 0.072922267019749, -0.515495955944061, -0.051823601126671, -0.097782395780087, -0.068022415041924, -0.276871532201767, -0.185006186366081, -0.156814962625504, -0.108948521316051, -0.255473077297211, -0.162404701113701, -0.392678707838058, -0.143749400973320, -0.231126829981804, -0.365450769662857, -0.111266940832138, -0.326433211565018, -0.111325547099113, 0.037914115935564, -0.292136609554291, -0.246428474783897, -0.178634807467461, -0.245446860790253, -0.227442294359207, -0.450200915336609, -0.236669689416885, -0.392836928367615, -0.320901483297348, -0.233183249831200, -0.176712229847908, -0.241318091750145, -0.176482394337654, -0.188222035765648, -0.303022563457489, -0.322573095560074, -0.229403704404831, -0.528845846652985, -0.035629484802485, -0.026666065678000, -0.332507938146591, 0.060064569115639, 0.000058104262280, 0.074853040277958, -0.099508963525295, 0.215574413537979, 0.044118292629719, 0.066752761602402, -0.056031387299299, -0.437105178833008, -0.227985501289368, -0.143799424171448, -0.129583746194839, -0.089380778372288, -0.008419409394264, 0.068935982882977, 0.159793883562088, 0.037387065589428, 0.084109395742416, -0.267731934785843, -0.065312698483467, -0.186933293938637, 0.304668217897415, -0.006069296039641, -0.047514207661152, -0.092198841273785, 0.140920609235764, 0.167935147881508, 0.000466825586045, 0.199890688061714, -0.025471929460764, 0.024316633120179, 0.204055652022362, -0.058496318757534, -0.315473884344101, -0.110571786761284, -0.123217545449734, 0.003551216330379, 0.010076852515340, 0.153032809495926, -0.044413119554520, -0.005530692171305, -0.083312451839447, -0.142528727650642, -0.039907485246658, 0.024202205240726, 0.201403588056564, -0.132454037666321, 0.028387272730470, -0.138236209750175, -0.047609947621822, 0.235567077994347, -0.075196608901024, 0.012340876273811, -0.201490923762321, 0.308908045291901, -0.135795697569847, -0.056185606867075, 0.115812443196774, -0.166863590478897, -0.151163026690483, -0.105177856981754, 0.382460922002792, -0.199432492256165, 0.127366885542870