//Numpy array shape [70, 192]
//Min -0.271639376879
//Max 0.271704196930
//Number of zeros 0

#ifndef BACKWARD_GRU_1_GRU_CELL_1_WEIGHT2_H_
#define BACKWARD_GRU_1_GRU_CELL_1_WEIGHT2_H_

#ifndef __SYNTHESIS__
model_default_t backward_gru_1_gru_cell_1_weight2[13440];
#else
model_default_t backward_gru_1_gru_cell_1_weight2[13440] = {-0.0932379216, 0.0263643842, -0.0403393619, 0.2155348212, 0.0761848316, 0.1307109892, -0.0826475397, -0.0162637345, -0.1960960776, -0.0697834417, 0.2181337178, 0.0992105529, -0.0133345062, -0.0968060941, 0.0726148859, -0.1564918905, -0.0446639247, 0.0252032951, 0.0339202024, -0.0031475041, 0.1624840498, 0.0368897989, -0.2175622284, -0.1681281328, 0.0739859790, -0.0645078942, 0.1742631197, -0.1104787886, 0.0797828138, 0.0237459689, 0.1570247263, 0.1770321280, -0.0987015516, 0.1892217696, -0.0179462750, 0.0342829861, -0.0328007378, -0.0530098006, -0.0694732070, 0.0712610856, 0.1919043809, -0.1284236312, -0.1597306877, -0.1348526776, 0.0170440432, 0.0238688383, -0.0797997490, -0.1480179727, 0.0715198889, -0.1391954273, 0.1386314631, 0.0500753298, -0.0226441175, 0.0467367060, -0.0293697380, 0.0917404145, 0.0520698018, -0.1306282133, -0.0843588188, 0.0311640892, -0.0864233896, -0.1592961848, -0.0772008449, 0.1559582055, 0.2033157647, 0.0468942374, -0.0032872397, -0.2074801028, 0.0896511599, -0.0268897433, 0.0565264598, -0.0976562798, 0.1814906746, -0.0842377394, -0.0350461155, -0.0475254394, -0.0911700726, 0.2364801615, 0.1710037589, -0.1726838946, -0.2083701491, 0.0755810365, 0.0665088370, -0.1051664054, -0.0826492980, 0.0457351841, -0.1513053179, 0.0404506624, -0.1700764149, 0.0488284379, 0.0904420838, 0.0515046865, 0.2416368723, 0.1841709316, 0.0851507038, 0.0535077415, -0.0369460657, 0.1520757973, 0.0966357812, -0.2251737565, 0.1005526185, -0.2335135490, 0.1704881489, -0.0428699851, 0.1800904125, -0.1968595088, 0.0549279265, -0.0799546763, -0.1789705753, 0.1294580251, -0.0740016475, 0.2700184286, -0.0078738946, -0.0569868460, 0.0229382850, 0.1218556836, -0.0554043204, -0.0743868649, 0.0912710950, 0.2359091491, 0.2094678432, 0.0835818052, -0.2074835747, -0.1900085211, 0.0098472768, 0.1246614307, 0.2664693296, 0.0562706068, 0.2523752749, 0.0070835785, -0.0620829947, -0.2033621520, 0.2238104492, 0.0644949377, 0.0302780252, -0.0113671562, 0.0350507200, 0.0741133913, -0.0036914272, -0.1329540312, -0.0017363892, -0.1491136402, -0.0675334930, 0.0822502300, 0.1978705674, 0.0530910157, -0.2456469536, -0.1070403829, 0.0938930884, 0.0923655480, 0.0220503863, -0.2631278932, -0.2041340619, 0.0181912798, 0.1828442663, 0.0299238022, -0.0969902650, -0.0927256942, -0.1700215936, -0.0966449007, -0.0069274534, -0.1167775542, 0.0899480060, -0.0920608789, 0.2474797964, -0.0980462581, -0.0438427329, -0.0408111028, 0.0368993618, 0.2283041030, 0.1408203691, 0.1838207841, -0.0108543942, 0.0800667107, 0.0046700616, -0.2108834386, -0.0456510298, 0.0786724016, 0.0861537084, 0.0089688050, -0.0282726828, -0.0796675608, -0.1687388122, 0.0331177339, 0.0433940552, 0.0449411310, 0.0357684381, -0.0900551975, -0.1896840185, 0.0622220263, 0.0800014436, -0.1102960482, 0.0752367824, 0.0029984589, -0.0094018392, 0.0134745277, -0.1533384174, 0.1409206837, -0.0251026116, 0.0366190635, -0.0985981897, -0.2525659204, 0.0448430441, 0.1547861546, -0.0600783601, 0.0073623182, -0.0342274494, 0.2523977458, 0.0059044529, -0.0762361512, -0.0704525337, -0.0062709842, 0.1174647287, 0.0125236996, 0.2617728710, 0.1372973621, -0.0674874932, 0.0228893086, -0.0809078813, -0.1951390952, 0.0668266043, 0.0022297376, 0.1048499122, -0.2110236883, 0.2124622464, -0.1370052099, 0.1098108664, -0.1069586277, -0.1454180777, -0.1661003530, -0.0183702167, 0.0091955950, 0.2692467272, -0.0030723782, 0.1430719793, -0.1526678056, 0.1531796604, -0.0684882626, 0.2237542272, -0.1189977601, -0.0644294173, 0.1302747130, 0.1520848870, -0.0495411716, -0.0625768527, 0.0097234538, 0.0789877772, -0.0484771766, 0.1418230236, -0.0136107327, 0.0077593788, 0.0133680589, -0.0879742950, 0.0141491583, -0.0362187028, 0.1185088903, -0.0056521455, 0.0738202110, -0.2613893747, 0.1023681834, 0.0279124547, 0.1104281619, -0.0731159374, 0.0212196093, 0.0952626020, -0.0045945505, -0.0115358308, 0.0271328930, -0.0657319948, 0.1907463074, -0.1568533778, 0.1594448239, 0.0291213766, -0.0863076970, -0.0098536573, -0.1370782256, -0.1063430235, 0.0138699049, -0.0626938716, 0.0546171442, 0.1309188902, 0.1215301156, 0.0482059494, 0.1707132757, -0.0975725949, -0.0361595005, -0.1608714163, -0.0369963236, -0.2198667973, 0.0965811461, -0.2062409371, -0.0780822784, 0.1177690327, -0.2069404274, 0.1774754673, 0.0751008093, 0.0297465585, 0.1250414699, 0.1344725341, 0.0661515146, 0.0005218548, -0.1216365173, 0.0197216775, -0.0705305189, 0.0915947333, -0.1147391200, -0.1073888391, 0.2240596265, -0.0880475193, 0.2294526249, 0.1382895410, 0.1297769696, 0.1775936037, 0.0517646223, -0.0224354044, -0.1897535920, 0.1013413072, -0.2444394231, -0.0543793663, 0.0308466461, -0.0183197949, -0.1993284523, 0.1125449240, 0.1500685364, -0.0118909627, -0.1451705694, 0.1473885924, 0.0235705301, -0.0434601083, 0.0258470178, 0.1502113044, -0.1500592530, 0.1081108972, 0.0564083531, 0.1964235157, -0.1170450523, -0.1071557999, -0.1023327783, 0.1190815419, 0.0269869789, -0.0482149236, -0.0731667802, -0.0241572093, 0.0414061807, 0.0146781849, -0.1522788256, -0.0821327865, -0.0086450065, 0.1562863141, -0.0460039526, -0.2201016098, 0.0210786518, -0.0355811827, -0.1108281538, 0.0814731419, 0.1458835155, 0.0085841464, 0.0652783811, 0.0975916833, 0.0720280930, 0.0308330767, -0.0703499243, 0.2280835062, 0.1574437618, -0.2111102045, 0.0333606489, -0.0637811422, -0.0207985956, 0.0344370939, 0.2708261013, -0.0926599726, -0.0294410978, 0.2136751115, -0.0143751698, -0.0821578056, 0.0068427054, 0.0834016874, -0.0527249984, 0.0616570711, -0.0229240973, 0.0369194150, -0.0574245229, -0.2343707383, 0.1922023296, 0.0650981367, 0.0884008929, -0.1372981369, 0.0744528770, -0.0316854119, -0.1291026771, 0.0517244861, 0.1203962862, 0.0073280991, 0.2056898624, 0.0434563942, 0.0126535138, -0.0724481568, -0.1068207324, 0.0122738443, 0.1042822674, -0.1986996233, -0.0066988985, 0.0580344535, 0.0250529014, 0.0955846682, -0.1765790284, -0.0671522319, -0.1641954035, 0.0926352590, 0.0929038897, 0.0735942349, -0.1313621700, -0.0396686420, -0.1119908318, 0.0965130180, 0.0496098213, 0.0326033309, 0.1219089329, -0.0557720289, 0.1353262365, 0.0688835382, -0.0374874696, 0.0720276758, -0.1192306578, 0.0313044451, 0.0267329365, 0.0626269877, 0.2491032928, 0.0000015624, 0.1489995122, 0.0216405988, -0.0031946099, -0.1290026009, -0.0959905088, -0.2221574634, -0.0083918609, -0.2628155351, -0.2197985351, -0.2019252926, 0.0396154225, 0.0835076198, 0.2453573048, 0.1845368296, -0.1315627396, 0.2673417628, 0.0189020652, 0.0510898829, 0.1126730517, -0.1581075639, -0.0047104238, -0.0603037924, -0.1130635515, 0.2378881276, -0.0066591278, -0.0020474002, 0.1571050733, 0.0406737402, 0.0329812877, -0.1696791947, -0.2025225908, 0.1972844750, -0.0069444720, -0.0387717448, 0.1610700637, 0.1189984083, -0.0432444811, -0.0022209061, 0.1676712185, 0.1167822406, 0.0598889329, -0.1134384647, -0.0385324843, -0.0384122245, 0.0197891314, -0.0123187695, -0.1309746802, 0.1673101336, -0.0080350256, 0.1413324475, 0.0308239087, -0.1142921969, -0.0523578860, -0.1799992472, -0.0614850782, 0.0949386060, 0.0938929394, -0.0309726652, -0.1645539850, -0.0037392031, -0.1364128739, -0.0780843347, 0.0921614096, 0.0311996806, 0.1825123280, 0.1630327553, -0.0877536088, -0.0087826159, -0.0862728134, 0.0041447878, 0.0787274167, -0.0815917104, 0.0483368151, 0.0962030143, 0.0808641762, -0.0870382115, -0.2249884903, 0.1433704644, -0.2651405632, -0.2224928141, -0.1332580447, 0.1305178702, -0.2576230466, -0.0808294639, -0.2018476725, -0.0634143725, -0.1886265427, -0.1149358451, -0.0617657043, -0.1556064934, 0.0737493113, -0.0315172412, 0.1209718511, 0.0876158923, 0.1300169528, 0.0187981036, 0.1445749998, -0.0394078381, 0.0032956658, -0.0747037083, -0.1635479927, 0.1021881700, 0.1657661051, 0.0807801932, 0.2387376130, 0.1135552973, 0.0358134359, 0.0800788254, -0.0360011943, 0.0562010594, 0.0329496376, -0.0890438855, 0.0500394329, -0.0663761646, 0.0695158616, 0.1401014328, 0.0554077625, 0.1341740638, -0.0470967516, -0.0456371307, 0.0309911892, -0.2564603090, 0.0070935199, -0.0618163720, 0.0517046377, 0.1172835678, -0.0118525373, -0.0744885951, 0.0264224522, 0.1305623353, -0.0559889264, 0.0592268556, -0.0724183321, -0.2522284687, -0.0931706503, 0.0816172212, -0.0535753891, 0.0552911200, 0.2006791234, -0.0534834526, -0.2119258642, -0.0158567745, 0.1973006874, -0.0714517385, 0.1446710080, -0.0578191578, 0.0167930238, 0.2661878765, 0.1017178819, 0.0124857649, -0.0998845175, -0.1184007153, 0.0454430804, 0.1484078020, -0.2615322471, -0.2515528202, 0.0507897139, 0.2232660353, -0.1738260984, -0.0231482331, 0.0358461104, 0.1045758948, 0.1053891256, 0.0387695916, 0.1536809951, -0.1462626457, -0.1065265313, 0.1467590183, -0.0640514940, 0.0233781245, -0.0851919055, 0.0543802865, 0.1421162784, 0.1238048375, 0.0376807861, 0.0782223865, -0.0529311672, -0.0076231915, -0.1120788828, 0.0202920903, -0.2562509775, 0.0928306729, 0.0355282053, -0.1111785546, -0.0187252630, 0.1589938402, 0.0072420267, -0.1092649847, -0.0472296998, -0.0011756965, -0.1471477747, 0.0917160958, -0.0843942091, 0.0030626995, -0.0718886033, 0.2237146348, 0.0743918493, 0.0897472575, 0.0117698638, 0.2023282349, 0.0341194496, 0.1423521042, -0.0256566405, 0.0491398163, -0.1093723774, -0.0930074230, -0.1491968632, -0.0022934980, 0.1007293314, 0.0854902714, -0.0072879265, 0.1282472759, 0.0728859827, -0.0061756875, 0.1764138937, 0.1527938545, 0.1379998624, 0.1077905968, 0.0411040373, 0.0582174547, 0.0512805134, -0.1993652582, 0.1800572872, -0.1069863290, -0.0401793122, 0.1033047140, 0.0108862342, -0.2483446747, 0.0634781569, -0.0468451567, 0.0170495324, -0.0793721974, -0.1488479674, 0.0554806292, -0.0258206110, -0.2598029673, 0.1334734708, 0.1404117793, 0.1532883048, -0.0181409232, -0.0466978699, -0.0776223987, 0.0388494469, -0.0989494622, 0.1200631261, -0.1854040325, 0.0611007884, -0.0369529426, 0.1772516519, 0.0084939413, -0.0561616942, 0.0455090851, -0.0793409571, 0.1262448877, -0.2223610133, 0.1650923938, 0.0484980047, -0.0629558116, 0.0258831326, 0.0002110274, 0.0649168789, -0.0943958238, -0.1550933570, -0.0056257872, 0.1035472825, 0.1073175967, 0.1245491132, -0.1063899398, 0.1088887006, -0.1604099274, 0.2582367659, 0.0210798085, -0.0659700036, -0.1798542589, 0.0374384709, -0.1563222259, 0.1678520888, 0.0027873619, 0.1436144710, -0.1146909073, 0.2133588344, 0.0086671617, -0.1409978122, -0.0371007808, 0.1969154030, -0.0840675086, -0.1630941331, -0.1667103618, -0.0179934632, -0.0614284948, -0.2162709236, -0.0019497271, -0.0836830288, -0.1236423180, 0.0159191713, -0.1349624842, 0.0866323635, 0.0438973233, -0.0373787060, 0.0824615732, 0.0057603316, 0.1594329029, 0.1696213931, -0.1273009330, 0.0053269602, 0.1235169545, -0.2403370887, -0.0151759768, -0.1270870119, -0.1190158203, 0.2595353425, 0.0264535565, 0.0495212786, -0.0642626807, 0.2580734193, 0.0810606480, 0.0477336012, -0.1557557881, 0.0487464406, 0.0434259772, 0.0609676689, 0.1049416363, -0.0640931800, 0.0474802032, -0.0396089777, -0.1893686801, -0.1954969913, -0.0587004647, 0.1003358513, -0.2310861945, -0.0267977584, 0.0065406505, -0.0140858153, 0.1931525171, -0.1090981588, -0.1828996688, 0.0287427790, 0.0619511008, -0.0261857025, -0.2703935504, 0.1555803120, -0.2566269040, 0.2374947220, -0.0488883965, 0.0580998324, -0.0262538306, 0.2176902443, -0.1906274259, -0.0170116425, -0.2056410462, -0.0073254243, 0.0157922562, 0.0870297402, -0.0837469250, 0.0369261354, -0.0816864520, -0.1886327118, 0.0944309011, 0.1098284274, -0.0890117437, 0.2449012548, -0.1456664354, -0.0175436959, -0.2246698290, 0.0549341962, 0.0505086295, -0.0958661810, 0.1581083536, 0.0975585207, 0.0085572060, -0.1710901856, 0.1989853382, -0.0060882154, -0.0999063998, -0.0342362896, 0.2618468106, -0.0185930040, 0.0577352531, 0.0018373436, -0.0400344320, 0.0720064864, 0.1446833313, 0.0925247297, -0.0219011791, 0.0393312462, 0.0125786616, -0.0711974129, -0.2503577769, 0.0531858653, -0.0750829428, 0.0236868579, 0.0798069760, 0.0577121861, 0.1085302234, 0.0340243950, 0.0097020436, 0.0545858480, -0.1120304912, 0.0924774632, 0.0491875857, 0.1274006069, 0.2653704882, 0.1440874487, -0.0121564213, -0.1179186478, 0.1190959811, -0.0631656721, -0.1726081371, 0.0952497646, 0.0062134597, 0.1501065046, -0.1408544928, -0.1074291170, 0.0248779766, -0.1800499558, -0.1887339801, -0.0597925074, -0.2077294588, 0.1594563574, 0.0889621153, 0.1305826306, -0.1529300213, 0.0245181527, 0.1276756972, -0.0984635279, -0.0411130823, -0.0703630522, -0.0781807378, 0.0326917097, 0.1335610896, -0.2141969949, -0.0379073918, -0.1500816643, -0.0288376641, -0.1094239429, 0.2078379989, 0.1758465916, -0.0526001826, -0.0217420664, -0.0017722483, -0.0464009456, 0.0998447612, -0.1159097627, -0.1240130663, 0.1205606833, -0.0101299249, 0.0077706571, 0.0681355968, -0.1743927300, -0.0130511364, 0.0130706392, 0.0911807418, 0.0042709191, -0.1709522158, -0.0407799259, 0.2231852412, 0.0551995002, -0.0608311445, -0.2043295950, -0.1900964379, 0.0568931773, -0.0751192272, 0.1522248387, -0.2629994452, -0.0581947193, 0.0413173586, 0.1322720498, -0.0769582987, -0.2009043545, -0.0237563960, -0.1598917693, -0.2285534590, 0.0048111044, 0.0411951207, 0.1965888143, 0.0254156999, 0.1165928468, 0.0340353064, 0.0001787821, -0.1512072384, -0.0679330900, 0.0208449420, 0.1965434849, 0.1444452107, 0.0317396224, 0.2504057288, -0.0929232910, -0.2570629716, 0.0832552686, -0.0894825459, 0.0749692097, 0.0550472550, 0.0465850905, 0.1156377792, 0.0523369089, -0.1353183985, -0.1491164714, -0.1585783362, -0.2626818419, 0.1201851070, -0.0468798913, 0.1297005117, 0.0880078524, -0.2236458659, -0.1368681639, -0.0672683790, 0.0900043473, -0.1399466097, -0.2098203301, 0.1464883238, -0.2251856774, 0.0925780609, 0.0454733111, -0.2305586636, -0.0718416870, -0.1691675186, 0.0052141673, 0.0353217870, -0.0379601344, 0.1417140961, 0.1811583191, -0.1440520138, -0.1425970048, 0.0494403988, -0.2147978693, 0.1397449225, -0.2381450385, -0.1719096303, 0.0413443595, 0.1602305919, -0.0420892350, -0.0417093784, 0.1316521466, 0.2019936293, -0.0399319939, 0.0942444280, -0.0549975671, -0.0508399457, 0.0776843503, -0.0578916669, 0.1394077390, -0.1339238137, -0.1075823233, -0.0230646022, 0.0786716193, -0.2001653314, 0.0275599360, -0.0360186398, -0.0722410828, -0.1679721177, -0.0919674784, -0.0085063921, 0.0003653442, -0.0577693321, -0.0158710778, 0.0351515338, 0.0987680256, -0.1033065021, 0.0821193978, 0.0042210328, 0.0343913585, 0.0112689743, -0.1236013100, -0.0195811763, -0.0716392845, -0.0347189121, 0.1296294928, -0.1438219994, -0.0573847257, 0.1132813841, 0.0834566280, 0.0774780884, -0.0624606535, 0.0799947903, -0.0693468302, 0.1036404073, 0.0344625935, -0.0323192887, -0.1013742462, -0.2120112330, -0.0583601855, 0.0567793623, -0.0852452889, -0.0235373043, -0.0390695184, -0.0396444947, -0.0917995647, 0.0570775531, -0.1027927920, 0.2430667430, 0.0111154327, 0.1607001722, 0.0571327135, -0.0571335331, 0.0939425677, -0.1185634360, 0.1390435696, 0.2236612141, -0.0882224366, -0.1888012439, -0.1899416745, 0.0124472594, 0.1288905591, -0.0874072313, -0.1594439745, -0.0048852088, -0.1009712890, -0.1837342978, 0.0986632258, 0.2195325643, 0.0579936765, -0.0284368098, -0.0997972116, -0.2289513350, -0.0144651206, -0.1887676269, 0.1077784896, 0.0850735977, 0.0086774006, -0.1380335540, -0.0329527818, -0.0610824898, 0.1342596114, 0.2012995034, 0.0903543606, 0.1080865487, 0.1095134988, -0.0641029477, -0.2023229748, 0.0009038810, -0.0751555562, -0.2409346253, 0.0719273761, 0.0034166947, 0.1292593181, 0.2390787899, -0.1275093257, 0.0816961750, 0.0716308355, 0.0207187850, -0.1316300929, -0.2166465819, 0.2357334048, 0.0784645826, -0.0432504192, 0.1158490032, 0.0985537469, -0.0961620361, 0.0202642679, 0.0671956241, 0.1910620481, 0.0987957492, 0.0551258326, -0.1376772225, 0.2441014946, 0.0328999795, -0.1409688890, 0.1948620975, 0.1311553121, 0.0795570165, -0.0127038993, 0.0197517183, -0.0271207783, -0.0247380454, 0.0190627389, 0.2542555630, 0.0079967873, -0.1323510110, 0.0627474636, -0.1568460763, 0.1369689554, -0.0781793222, -0.0167677682, -0.2290144265, 0.0305402912, 0.1902750134, 0.1570386738, -0.1148453504, 0.0226357691, -0.1033671573, -0.1100723371, 0.0921585038, 0.0970631838, 0.0194344036, 0.1678754091, -0.1466042548, -0.1361740530, -0.1306503266, 0.1341406256, 0.1419924200, -0.0334287770, 0.0463133343, -0.0724661052, -0.1978401989, 0.2252663970, -0.0821090192, -0.2015291750, -0.2072936147, 0.0489107855, 0.0125362966, 0.0387462415, -0.1563335210, -0.2398251742, 0.1073957458, 0.0845624581, -0.1256711930, 0.1331596524, -0.0206610225, -0.0439857654, 0.2074202150, 0.2117540538, -0.2366818339, -0.0023610794, -0.0447582863, 0.0762989447, 0.1860853583, -0.1251912564, 0.1207490861, 0.0353270285, -0.1560491472, 0.0257384665, -0.1331959963, -0.0258971471, 0.2221058011, 0.2092026472, -0.0222287606, -0.2506769300, 0.0390631407, -0.0830710083, 0.2001796961, 0.1159075871, 0.0299205463, -0.0471095257, 0.1406839490, 0.0543048307, 0.0203536432, 0.0260559451, 0.1399369985, -0.0386477001, -0.0958851948, 0.1853118092, 0.0632941276, 0.0438602790, -0.1230079159, -0.1681961417, 0.0448462889, 0.2661438584, 0.1478763968, -0.1382771134, -0.0858929530, -0.2241126895, 0.0699442700, 0.0160585437, 0.1985883862, 0.0754725412, 0.0393837281, -0.0572533607, 0.0056409393, -0.1675601304, 0.0640403032, -0.0394109301, 0.1674157530, 0.0373229496, 0.0522548594, -0.1253950149, 0.1639067233, -0.0962265208, 0.0189559795, -0.1813973784, -0.0929683894, 0.0368696377, -0.1457092017, -0.0016394376, -0.1122156531, 0.0299447626, 0.0777033791, 0.0583236665, 0.0781070367, -0.1012991592, 0.0843642205, 0.0357281119, -0.0696634799, 0.0061260955, -0.1189560890, -0.0909771547, -0.0300904792, 0.0635318086, -0.0501652136, 0.1963954568, -0.0532018542, -0.0964449421, -0.0555194207, -0.0779101253, 0.1274697334, 0.0433179177, 0.1460246146, 0.1065173373, 0.2669274211, -0.2215904742, 0.1224583238, 0.0370839313, -0.0775274560, -0.2682594359, -0.0182966013, 0.1668843031, 0.0200289562, -0.1982281804, 0.0264708102, -0.1947549284, -0.1521707028, -0.1050987020, 0.0264838785, -0.0129416417, -0.0023450837, 0.0398824029, 0.0894492865, -0.0245861150, 0.0637721568, 0.0981524885, -0.1595087945, -0.1893254519, 0.2116291821, 0.0425980017, 0.0313720033, -0.1150510386, 0.1093268022, -0.2095331550, 0.1712315977, -0.1158028245, -0.0478200205, -0.1752707064, -0.0176777970, -0.0491879135, -0.0465183221, 0.1102640256, -0.0216798000, 0.0139152193, 0.0132540073, 0.0568783320, -0.0243662335, -0.0381284244, 0.2379035503, 0.0480594672, 0.1124158725, -0.0172055215, -0.0929395407, -0.0318135470, -0.1307505220, 0.1548512727, -0.0282138456, 0.0169952363, -0.0447384603, -0.0057747788, 0.0256774481, -0.0987912714, 0.0799014494, -0.0078603616, -0.0711984560, -0.1221200749, 0.1197498739, 0.1039317027, 0.2461694181, -0.0680073425, 0.2161980122, -0.1291273683, 0.0034718500, 0.0043631634, 0.0167696048, -0.2284875214, -0.1340059191, 0.0097857723, -0.0824725926, 0.1602018476, 0.0628683493, -0.0095467465, 0.0593154095, 0.1027413234, -0.1364590973, -0.0815017745, 0.1200274974, 0.0010599737, 0.0615758672, -0.1614693701, 0.1498982012, -0.0113515994, 0.0082748542, 0.1344430596, -0.1210160926, -0.0208191685, -0.1001762822, -0.1187986955, -0.1698011607, 0.0509230383, -0.1228685528, 0.0083422503, 0.0186442658, 0.0138940113, 0.0274699014, 0.1995869130, -0.1545012146, -0.0311627854, 0.2313759178, -0.1733182818, -0.1073654070, -0.0004599959, 0.1822087169, 0.0836818814, 0.0046177432, -0.0276518203, 0.2603422999, -0.0556788146, 0.0308386926, -0.1056673378, -0.0430939160, -0.0453368053, -0.1468221843, 0.0800738409, -0.0929920524, 0.0625683665, 0.0323630571, 0.0054887068, -0.1640100181, 0.1342293173, -0.1660623550, 0.1070633307, 0.0066311536, -0.0892836750, -0.1439452171, 0.0154677657, -0.1222641766, 0.1758626550, 0.0896104872, 0.0981517434, -0.0120661762, -0.1338608116, -0.1263637245, -0.2258871645, -0.0914370194, -0.1898510009, -0.1875751019, 0.0728751048, 0.2488470674, 0.0943300128, 0.2041237652, 0.0679874867, -0.1442339867, -0.1042405814, 0.0038071608, -0.1944918931, -0.1599158943, -0.1151571274, 0.1685180664, 0.0534262881, 0.0226599555, -0.0026889439, -0.1060606688, 0.0043279664, -0.0714931712, 0.2301125228, 0.1967592984, 0.1148111820, 0.1227030978, 0.0185087249, -0.0557477437, -0.0403216779, 0.2223327011, -0.0675589442, 0.0125500895, 0.1478415281, -0.0349742658, -0.1619771123, 0.1073141024, -0.2232036144, -0.0797307566, 0.0954494998, 0.1877781898, -0.1023142859, 0.0358336940, 0.0293128528, -0.1378739923, -0.2005983740, -0.0153435413, -0.0583629794, 0.1527919173, -0.0730984434, -0.2069278210, 0.1149720475, 0.1726035923, 0.0366089456, -0.1155187115, -0.1983729750, -0.0205012690, 0.0707843751, 0.2155876011, -0.0023576715, -0.0088780755, -0.1023173705, 0.1261074543, 0.1401042044, 0.1742002815, 0.0692611113, 0.1771820039, -0.0319617055, 0.1121970713, 0.1637365669, -0.0797196776, -0.0574858747, 0.0730719939, 0.0672494248, 0.1514513791, -0.0079930108, -0.2312652469, -0.0303558279, 0.0412895642, 0.1130854413, 0.0768290237, -0.1145519242, -0.1920712441, 0.0066040815, 0.2114825398, -0.1202107146, 0.1134804562, -0.0135428840, -0.1943147033, 0.0063786320, -0.1377763301, 0.1810405552, -0.0246888157, 0.0080096545, 0.1688045263, -0.0413817540, -0.1485763192, 0.1492618173, -0.0558333695, -0.0569796190, -0.1705470532, -0.0281609651, 0.0551029593, -0.0970515460, 0.0777326748, -0.0550882891, -0.0328341909, 0.0458050221, -0.0441229790, 0.0576448590, -0.0912087560, -0.0464130677, -0.0409214795, 0.0792252868, -0.0935132727, 0.0364272483, -0.0002530798, 0.0147125814, -0.1476480812, -0.0550148748, -0.0241690669, -0.2417461276, 0.0275584217, 0.0074922740, -0.1557773948, 0.1174122319, 0.0493628271, -0.2665961385, 0.0472302251, -0.0248460490, 0.1324947178, 0.0209516082, 0.0412935577, 0.1831165850, -0.0858936608, 0.1939953864, -0.0756181553, 0.0246150922, -0.0660570711, -0.0098708533, -0.0121269794, 0.2309498340, 0.1334845424, -0.0657488480, 0.1791936904, 0.1296161115, 0.0008228839, -0.0649576411, -0.1650903672, -0.0595166385, 0.0862168074, 0.0808293670, -0.2435461432, -0.2257885486, -0.0871491283, -0.0062166005, 0.0600566007, 0.0089381626, -0.0145978937, -0.2647108734, 0.1417164654, 0.1951176822, 0.1265045255, 0.0842608884, -0.0314274356, -0.1403740197, -0.1207438558, -0.1655813009, -0.0305353794, 0.1741928309, -0.2193100303, -0.0000458013, -0.0173524320, 0.0532139093, 0.0787186995, 0.1335917115, 0.1510495096, 0.2106369138, 0.1739548445, -0.0856890976, -0.0722775534, -0.0984821245, -0.1522431523, 0.1339470595, 0.0413062908, -0.1111190841, 0.0949610472, 0.1561877877, -0.0140509149, -0.0134806894, 0.1503194422, 0.0477074757, -0.0823020637, 0.1423963159, -0.1005098671, -0.0468065552, 0.1165009513, -0.0451744050, -0.1531880945, -0.2112356424, 0.0307941902, -0.0571953058, -0.0765617415, -0.0539667830, -0.0874165669, -0.1373853981, 0.2063176036, 0.1476565301, -0.2002483606, 0.0092372596, -0.1886255443, 0.1361967027, 0.2479960620, -0.1554283351, 0.1408972293, 0.1163469106, -0.0265288502, -0.0615427271, -0.1115016416, -0.0893729404, -0.0686720386, 0.0974452645, -0.2105725259, 0.0700896904, -0.0881848931, -0.0290262327, 0.0142677668, 0.0351148807, -0.1467100978, -0.2290359735, 0.2076059282, 0.1753702760, 0.0493557565, -0.0883895084, 0.0959316269, -0.0029591687, 0.0447858945, 0.0702151284, 0.1200529560, -0.0504910648, 0.0837110057, -0.0049613463, 0.1018763110, -0.1123776361, 0.1460289210, -0.0152295968, 0.0483780913, 0.1352750957, 0.2348854393, -0.2370433956, -0.0681567267, -0.2106408030, -0.0490836501, -0.1666943133, -0.0596901029, 0.1600465178, -0.0897602364, -0.0471335761, 0.1008463800, 0.0588926673, -0.0714250579, 0.0314879492, 0.0125337262, 0.2356622666, -0.0010305479, -0.0695820600, -0.0018535611, 0.1220352724, 0.1201397181, 0.0581980124, -0.0878100693, -0.1125370041, -0.0944644213, 0.1056392789, 0.0551044494, -0.0674026683, 0.1824066192, -0.1404821128, 0.1676337570, -0.0765983313, -0.0515345521, -0.1720779985, -0.0377965346, 0.1238107532, 0.0521619730, -0.0084156198, 0.2508415580, 0.0651051626, -0.0106028877, 0.0206180606, -0.0963496268, -0.0210317690, 0.0705063269, -0.1708312333, 0.2294673175, -0.0351398773, -0.2622310817, 0.0744399354, -0.0103538744, 0.0533775762, 0.0323429331, 0.1426262408, -0.0687427223, 0.0349996798, 0.1056739315, 0.1409214139, -0.0145304296, -0.0371967480, 0.1968979985, -0.1821521521, 0.0027249069, 0.0875484645, -0.1952720582, 0.0244731940, 0.0295691211, -0.0371924080, 0.0881078765, -0.0900153965, -0.0667400807, -0.0603254549, 0.0719987154, 0.0683756471, -0.0136364335, -0.1196130067, 0.0964907333, 0.0954814553, -0.1079345495, 0.0305270627, -0.0627920851, 0.0159715917, 0.1254372001, -0.1563201696, -0.1267519444, -0.1776605397, -0.0306330211, -0.1038502082, -0.0245400388, 0.0697881505, 0.0295148827, 0.1034680083, 0.1868888289, 0.0179144945, 0.0286051407, -0.0086388458, -0.0384384356, -0.0988983884, -0.0366757512, 0.0405532755, 0.0106533691, 0.0959478915, 0.0175717007, 0.0841282830, 0.0244919099, -0.0667846203, -0.1287751645, 0.0158520304, 0.0322982259, -0.0281597190, 0.1426440477, -0.0250120182, 0.0823694840, -0.0674482659, -0.1552872211, -0.1116152927, 0.1254301518, -0.0498077087, -0.0438121818, -0.0721700042, -0.0403963178, -0.0809227154, 0.1051205918, 0.0020206366, 0.0198985618, 0.0778471455, 0.0758519620, 0.0166290216, 0.2561276257, -0.1058463976, -0.0399406292, -0.0251600947, -0.2683227658, 0.0303391106, 0.0702579618, 0.2241013050, 0.0655403957, 0.1207617447, -0.1312385648, 0.1165480614, 0.1935135722, 0.1517622620, -0.1171764657, -0.0650714487, 0.0786803588, 0.1427714676, -0.0523682497, -0.0364574715, 0.1064225957, -0.1570933610, -0.0544499718, 0.0965711325, -0.0943653807, -0.1808022410, 0.0701622441, 0.1695019007, -0.0669576526, -0.0291463714, -0.1034443974, 0.2017797381, -0.1212906390, 0.1879143268, -0.0338921696, 0.0073238816, 0.0442305580, 0.0039503560, 0.0155085539, -0.0239375532, 0.0297113210, 0.0012679903, -0.0558839776, 0.1050658748, 0.2022948563, 0.1169237867, -0.0463922247, 0.1338518858, -0.0838540196, 0.0224761982, -0.0567177758, -0.0550829731, -0.0744692907, -0.0176274404, -0.0032360400, 0.0925829783, 0.0712226033, -0.0042975862, 0.0499347821, -0.1263939589, -0.1529632658, -0.2029547691, -0.0115260063, -0.0557504967, 0.0796666816, -0.0184536781, 0.2509188652, 0.0746078938, 0.1435577422, -0.1313077211, -0.0242871046, -0.1094035208, -0.0268676709, 0.2010085881, 0.0022187193, 0.1100258157, -0.1196846068, -0.0024102791, 0.0234498624, -0.0210488345, 0.0909851193, -0.1833975464, 0.0684569925, -0.0089926776, -0.0249486621, -0.0082260519, 0.1380757242, -0.1445336789, -0.0148481624, 0.1360723078, 0.1872231513, -0.0322381817, 0.0393162630, -0.0152564235, 0.0719203725, 0.1929753721, -0.2156791389, -0.0020982833, 0.1145670265, -0.1659395695, 0.1277495921, -0.0995564833, -0.0633941963, 0.1679016948, 0.1670597345, 0.1076875627, -0.0565085672, -0.0482555889, 0.1819248050, 0.2305095941, -0.0194045044, 0.0022044410, -0.0676699728, 0.1968041211, 0.1760495156, 0.0369404070, -0.0018607436, -0.1659748256, 0.1514884979, -0.1682741344, 0.0896143317, 0.0691345781, 0.0260603670, 0.0441651009, 0.1611291021, 0.1135413200, -0.1612973213, 0.2106829435, 0.1014757007, -0.0444263779, -0.0866593122, -0.0298416466, -0.0041831355, 0.1393627077, -0.0374069847, 0.0866123438, 0.0500962362, 0.2230175585, 0.1476535201, -0.0256860591, 0.0299138334, -0.0606453829, 0.1568661034, -0.0349392071, -0.1255025715, 0.1012541875, 0.1790217906, 0.1952369660, -0.2629053593, -0.1159780473, -0.0720138028, 0.0321184210, 0.1976566315, -0.1928290278, -0.1045999527, 0.0935990885, 0.0023753974, 0.0100877611, -0.0531131923, -0.2062415928, 0.0200576466, 0.1873962432, 0.1046310067, -0.0734171048, 0.1300149560, 0.2080837041, 0.0287718959, -0.2520143390, -0.1324186325, 0.1028083712, 0.0078812037, 0.0613529794, -0.1561372131, -0.0960771069, -0.0554241352, 0.0868413076, 0.0909103453, -0.0588626154, -0.1776405424, -0.1198334843, -0.0925413296, -0.0146451714, -0.0071929819, 0.0796403140, -0.0198422763, 0.0743980110, 0.1730276197, 0.0059932922, 0.1630341262, 0.0426989198, -0.0195907243, -0.2673614919, -0.0174620040, -0.1898234487, 0.0917623341, -0.0409809090, 0.1037304848, 0.0894244835, 0.1718655229, 0.0257536061, 0.0298492536, 0.2045942098, 0.0576139987, -0.0164817404, -0.0039181225, -0.1784378439, -0.0928895772, -0.0185874272, 0.0159839857, -0.0368380845, 0.0646199733, 0.1104163677, -0.0353587568, -0.0529254042, -0.1002780497, -0.1221068949, -0.1848614067, 0.0257023685, -0.1455875635, -0.0580885299, -0.0405408330, -0.0822928473, -0.0312431045, -0.1013844833, -0.0730848983, 0.1645660549, -0.1166345775, 0.0739775598, -0.1784462184, 0.0126157776, 0.1543518156, 0.0583388396, -0.0247253776, 0.0105014266, -0.1740790159, -0.0161357857, -0.0231837351, 0.0338616706, -0.1220688969, 0.1422770768, 0.0890541300, 0.1111651212, 0.0172490869, -0.1105098501, 0.2261952758, 0.2392293811, 0.0314673521, -0.0061935550, 0.1288791895, 0.0642065704, 0.1050453708, 0.1830900609, -0.1361898631, 0.0018961236, 0.0877792612, -0.0717083067, 0.0679231510, -0.1330033094, -0.1857897639, -0.0334905162, 0.0260804314, -0.0775409192, -0.1327074468, -0.1399977803, -0.1569240391, -0.1290005296, 0.0082480898, -0.0909489170, -0.0217147470, -0.0181307271, 0.1682521254, 0.1659730077, 0.1578598469, -0.0050284103, -0.0881174207, -0.1247881278, 0.2574442923, -0.0651622936, 0.1350812167, 0.0287362766, 0.0483612791, 0.1128701568, 0.0035313743, -0.0500420034, 0.1414249986, 0.0587840378, -0.0831083208, -0.0338225737, -0.0408861190, 0.1326226890, 0.2611450553, 0.1243547872, 0.0162326712, -0.0343998596, 0.0164424907, 0.0455741882, -0.1928890049, 0.1347799897, -0.0697526187, -0.0025551589, 0.2033085823, 0.0544182211, -0.0780373439, 0.1470097303, 0.1976087838, 0.0074548949, -0.0599147230, 0.1047407836, -0.1813729405, -0.1843819022, -0.1190624237, 0.0234759673, 0.1690445542, 0.1525940299, -0.1968129575, -0.0137463901, -0.0574700199, 0.0249792337, 0.1869821846, -0.0663273782, -0.0394993462, 0.1158279106, 0.1824242622, -0.2271527946, 0.0936153755, 0.0993034989, -0.0439673364, 0.1374174505, 0.1565257162, -0.2353275716, -0.2153195590, -0.0729771852, 0.1280848980, -0.1612061113, 0.1206014529, -0.0220760126, 0.2618629634, -0.0053445497, 0.0094010262, -0.0268385839, -0.0402119942, -0.0848436505, 0.0589002818, 0.1218554229, 0.0629004091, 0.2708857656, -0.1313859224, 0.0100885658, 0.1149574518, -0.0087417057, -0.2216672450, -0.0707137957, -0.0916389525, 0.0240068696, -0.0966037661, 0.0788006559, 0.0631865114, 0.2234597206, -0.0273641609, 0.0449660644, 0.0030529415, -0.0370754227, 0.0463528708, 0.2040410489, -0.0274942927, 0.0132918116, -0.1753935069, -0.0433205105, -0.1888344437, 0.0113660851, 0.1635030955, -0.0587337054, 0.0034296836, -0.1901556849, 0.1961430162, -0.0213650279, 0.0186794382, 0.0939487144, 0.0633781403, 0.1890225410, -0.2255257517, 0.0217091348, -0.0007809738, 0.0675788149, 0.0391863473, -0.0420996211, -0.1503229290, 0.1417724490, -0.1719701290, 0.0944682956, -0.0190128479, 0.0032184012, -0.0397143289, -0.1631574929, 0.0872378200, 0.1248403266, -0.0875320733, -0.0715650469, -0.1344476491, -0.0018892415, -0.0007393280, -0.1673259735, -0.0395600013, -0.0647818744, -0.1044256464, 0.0080859428, -0.0469984114, -0.1107517332, -0.1533781439, 0.1411922574, 0.0559530593, 0.0252706818, 0.0498630777, 0.0099773370, 0.0989709273, -0.1551977098, -0.0506282821, 0.1876249015, 0.0561360903, 0.0691988394, -0.1509903967, -0.2114451081, 0.0221234784, 0.0914885625, 0.0196533948, 0.0332850628, -0.0616567209, 0.0107066045, -0.0094235707, -0.2472903579, 0.0613045804, -0.0864133537, -0.0239983741, 0.1842528433, 0.0310712215, -0.1412770152, 0.0603161193, 0.0159563851, 0.0043722014, 0.1597509086, 0.0039233635, 0.1670465022, 0.0629224330, 0.2321211547, -0.2262679189, 0.0127133271, 0.1683854163, 0.1303939074, -0.0083509320, -0.0306390636, -0.1151564047, -0.0292412378, -0.0907932743, -0.1708793938, 0.1008561403, 0.2357426435, 0.2590991557, 0.0220861100, 0.0981621072, 0.0779616907, -0.1937060952, 0.0437867306, 0.2264196873, 0.1527121961, 0.0902305320, -0.0030781496, -0.0027552224, 0.0793633983, 0.1366140395, 0.0839886293, 0.0462699085, -0.0253984034, -0.0351884738, 0.1598873883, -0.0481965840, -0.1312001348, -0.0396705307, 0.1318992525, 0.0330014080, 0.0296135619, 0.1007125005, 0.1322186291, 0.0617823564, -0.0498984940, 0.0457632430, 0.2456344515, 0.1785978377, -0.1113952398, 0.1409956813, -0.0762133002, -0.1268788427, 0.0548628867, 0.0983810276, 0.0415172502, 0.2155231386, -0.1456705928, -0.0673016533, -0.1313773841, 0.0311919115, -0.0595906265, -0.0424845256, 0.2590973675, 0.1797061861, 0.0607139952, -0.1196674705, 0.0665724874, -0.0693106279, 0.0316037126, -0.0700927079, 0.0111728041, 0.1375028938, 0.1631980687, 0.0302557386, -0.0791974738, 0.2675548196, 0.1145080850, 0.1482152939, -0.1047366038, -0.0382219516, 0.0325024724, -0.0012016220, 0.1617871523, 0.0313825198, -0.0648963451, 0.1429217011, -0.0768414214, -0.0156470463, -0.1617851555, 0.1821717024, -0.1026208326, 0.1731672138, -0.0377992615, -0.1681600809, 0.0180389769, 0.0551989861, 0.0680706650, 0.0597558692, -0.1069708616, -0.0050666514, 0.0418699943, 0.0681014955, -0.1262902468, -0.2239225954, -0.2118196636, -0.0391465984, 0.0083562946, -0.2140893042, 0.2193938792, -0.1955271959, -0.0920114517, -0.2422220260, -0.1128830239, 0.0316219926, -0.1358704269, 0.1222995743, 0.1283915043, -0.0042005023, 0.2660522461, 0.0118820360, -0.0663501769, 0.0494871773, 0.0284324940, -0.2206524909, 0.0891156793, -0.1907303780, 0.0141587760, 0.2677209377, 0.1745574027, 0.1015843078, 0.2494013906, -0.1034976840, 0.0729979351, 0.0835654959, -0.0096577443, 0.0823703110, -0.0663066357, -0.1008339003, -0.0969319344, -0.1193546504, -0.0253337789, -0.2357688844, -0.0965117589, -0.0370964520, -0.0724467486, 0.0395887308, 0.0418099426, 0.0308614410, -0.1856367141, -0.1547261328, -0.1450381726, -0.0421524234, -0.0940570161, -0.1889047027, -0.0829714686, -0.1951250881, -0.1031212732, 0.0113955252, -0.1339844912, 0.1858859807, -0.0882393941, 0.1157053038, -0.0092460401, -0.1167491227, -0.0143675143, -0.0770316422, 0.0682323128, -0.1173080057, 0.0843208358, -0.0218831208, -0.0486654118, 0.2240278125, -0.1418459713, -0.0713478774, -0.0221680906, 0.0947636962, -0.0412986763, -0.1778195947, 0.0609547980, 0.1157379001, 0.1602617949, -0.1276491880, -0.0217939503, 0.0149806775, -0.0315844528, 0.1795698106, -0.0454827920, -0.2053856105, 0.0730149001, 0.1209592745, 0.0726963803, -0.0313304961, 0.1361834854, -0.0837064907, 0.0348093994, -0.0753296688, -0.2149661779, 0.0927401036, -0.0374009237, 0.0611399636, -0.0612496808, -0.0202375259, 0.1507999599, 0.1383038908, -0.1323247403, 0.0849283114, -0.0535223335, 0.1251876950, -0.1428235322, -0.1226797700, 0.1241971701, -0.0149527304, -0.0905417055, -0.0443376489, 0.0883748233, -0.0419755466, 0.1044572741, 0.0896768197, -0.0986792967, -0.2326201648, 0.1591987014, -0.1333054453, -0.0541238934, 0.2678223252, 0.0321764834, 0.0533552654, 0.0287456680, -0.1296062768, 0.0206575803, -0.0153138321, 0.0946581736, -0.0438139364, -0.0523353182, -0.0764440298, 0.2279303372, -0.0982433632, 0.0050694454, -0.2299720198, 0.1093041152, -0.1602536887, 0.0145892017, -0.0118911220, -0.2223555744, -0.1927802563, -0.1072709411, 0.0488719344, -0.0968864784, -0.0052587097, 0.1415347755, -0.0846834034, 0.0989947319, 0.1856812686, -0.0349241160, 0.1413186342, -0.0623509288, -0.1094101071, 0.0649905801, 0.2307450622, -0.0779903084, 0.0374766476, -0.1117163822, 0.1081080884, -0.1296418011, 0.0868782923, 0.0578487255, 0.0791754201, -0.1110843197, 0.0362100229, -0.0402572453, 0.1555898339, -0.2676925361, -0.1852229089, -0.0133863110, 0.0360806175, 0.1043447927, -0.0035658588, -0.1933633685, -0.2269044667, -0.0719084516, 0.0858488530, 0.1186665744, -0.1106075868, -0.1244024932, 0.1839764416, -0.0483904071, 0.0588966906, -0.0222436655, -0.1810947508, 0.1816329360, -0.0241224151, 0.0132968929, 0.0347193740, 0.0590129867, 0.0534140356, -0.0752675012, 0.1527141631, -0.0731043443, 0.1043050289, 0.0808608830, 0.0328072384, 0.0881227329, 0.0666314363, -0.1330867559, -0.2124477327, -0.0044218013, 0.0994766429, -0.1046473607, 0.0663207769, -0.1309568435, -0.0495200381, -0.2287784517, -0.0217539389, 0.0880629420, 0.0183015596, -0.2213492841, 0.2012960166, 0.0935479254, 0.0514716282, -0.0002588139, -0.1945639104, 0.0330533199, -0.0067984718, 0.0068036267, 0.0606677681, -0.2101518363, 0.1829113066, -0.1000878587, -0.2334883660, 0.0124754654, 0.1111309975, -0.1674684584, 0.0628020167, -0.0689227879, -0.0243855789, 0.1360884756, 0.0403734855, 0.0076094810, 0.0205589030, 0.0120469946, -0.0525490195, 0.1049163565, 0.0458872207, -0.0604766533, -0.0443689115, 0.1737441868, 0.0082660448, 0.1587517411, 0.1068441495, 0.1613983065, 0.1567974240, 0.0669713914, -0.0101827160, -0.0816225782, 0.0015997534, -0.1283486038, 0.0727931559, 0.0566944629, -0.0826985240, -0.1930851340, 0.0385626741, 0.0017998544, -0.1461730450, -0.1223356947, 0.1265373975, 0.0342930444, -0.0802858397, 0.1860690564, -0.2005435675, 0.0948704854, 0.0071179066, -0.0139146894, -0.0361369327, 0.0464387573, 0.0427885577, -0.1258109361, -0.0632695854, 0.1994445771, 0.1324811727, 0.0622892156, 0.1684777588, -0.1061857566, 0.0394919477, 0.1361637563, 0.0296775494, 0.0263816044, -0.1502249390, -0.1692703813, -0.0109972516, -0.0084988177, -0.1128951684, -0.0187006369, 0.0284475256, 0.1841876358, -0.0251026880, -0.0045492244, -0.0748441592, 0.1255872846, -0.0244842470, -0.1690752655, -0.0495554693, -0.2220697850, 0.1420647055, -0.0310865212, -0.2028440833, -0.0211684741, 0.1615155190, -0.0181249771, -0.1676572859, -0.1913975775, -0.1605553180, 0.0856347159, -0.2029421926, -0.1276061833, 0.1050099134, 0.0785646662, -0.1068344861, -0.1412468255, 0.0763093978, 0.0753825977, -0.0111420760, 0.0572134666, 0.2369281799, 0.0489319153, 0.0145536577, -0.1430060863, -0.0279501919, -0.0148789445, -0.1094370037, 0.1439996958, 0.0364353023, -0.0073172781, -0.2425556332, -0.0466151722, 0.0589482263, -0.0163746029, 0.1594436020, 0.0595459342, -0.0660491809, 0.0143644307, -0.1458169669, 0.0473688357, 0.0092345914, 0.0319412053, -0.1908705086, 0.2121023238, 0.0490468927, -0.0250819810, -0.0659735650, 0.1151069850, -0.1051154509, -0.0154390084, -0.2698067427, -0.0482980646, 0.0638438612, 0.0979903340, 0.0498964451, -0.0522509925, 0.0865841433, -0.0157156903, 0.0805043280, 0.0481366888, -0.0360801294, -0.2610786557, -0.1057972237, 0.1590173393, -0.1501744688, 0.1161753237, -0.0359689295, 0.0307852551, 0.1158702895, 0.0563505143, -0.0394774936, -0.0222327244, 0.1647386849, -0.2195587009, -0.1433959752, 0.0085299630, -0.0566250682, -0.0136224739, -0.0747087151, 0.2005890310, 0.1845432371, -0.0922310427, 0.0480821282, -0.2207071185, 0.0570754074, -0.0695807859, 0.0080805812, 0.0304990280, -0.0813329369, -0.1185459197, 0.1907297969, -0.0177045781, -0.2338081300, 0.1710356027, 0.1873063445, 0.2017323673, -0.0205017682, -0.0475232527, 0.2237353027, -0.0532455482, 0.0330743790, -0.1879352778, 0.1010364592, 0.0243651215, -0.0995194688, -0.0327918045, -0.0044527245, -0.0809287801, -0.0080281841, 0.1537394971, 0.1352592558, -0.0267478470, -0.0153904976, 0.0974316299, 0.1618159562, 0.0264619440, -0.0849518254, 0.0075173113, -0.2526740134, 0.0843299329, 0.0951043293, 0.0285552461, -0.0347179510, -0.1161324233, 0.1037120521, -0.0322404839, 0.0862990618, -0.0100219464, 0.0264190510, -0.1727216393, 0.1941218525, 0.0216968413, -0.0757082552, 0.0266977027, 0.0409895293, 0.0753413066, 0.0493565165, 0.1061306745, -0.1032540798, -0.0238216165, 0.0848452225, -0.1233377531, -0.0723658279, -0.1323510110, -0.0764460638, 0.0079528410, -0.2658133209, -0.0682911724, 0.0302355122, -0.0083279312, 0.1066561937, 0.0635374114, 0.1149069965, -0.1406101733, -0.1102112532, -0.1090822890, 0.0369911939, 0.1241072640, 0.1042365208, -0.0416096225, -0.1118783504, -0.2000209540, 0.0151493046, 0.1422371417, 0.0678797215, 0.1701906621, -0.0625102967, 0.0485316366, -0.2286446542, -0.0463597476, 0.1387693286, 0.0202607960, 0.1499251425, -0.1355024129, 0.0726419911, 0.0274670310, -0.1909505129, 0.0111614959, -0.0515551642, -0.0050913077, 0.0596798696, 0.1336745322, 0.0330778584, -0.0547377467, -0.1338842362, -0.0002575332, 0.2396636158, -0.1183552742, 0.0934173614, 0.0546597578, -0.0122954454, -0.0137998452, -0.1581153870, 0.1146712154, -0.0615981296, -0.1761108935, 0.1683851629, -0.0119519969, 0.1246654540, -0.0389041491, -0.1100859344, 0.1026969478, 0.0565675683, 0.0674109682, 0.2000534087, 0.1786435097, -0.0032260644, 0.0332538895, 0.0194840115, 0.1795324385, 0.0911492333, 0.0921367779, -0.1141315401, -0.0995944142, -0.1165884435, -0.2323269248, 0.1402184516, 0.0085120508, -0.0262584202, 0.1218071654, -0.0002220077, -0.0337737314, -0.0309579596, 0.0997112393, 0.0890565440, -0.0911678821, 0.1106305048, -0.1645789295, 0.1269713193, -0.0738275945, 0.1464574337, -0.0206371602, -0.1140542328, 0.0999904647, 0.1522630751, 0.0675521269, -0.1574242115, 0.1284646392, 0.1828980148, -0.0474667922, 0.0552667566, 0.2208990753, 0.0492054783, -0.0512913764, 0.0610293821, 0.0752605125, 0.0282538310, 0.2152116001, -0.0727551356, -0.1483511329, 0.0208897721, 0.0037822083, 0.1878756285, 0.0922016501, 0.0141798127, 0.0284415968, 0.1767507643, -0.1463815719, 0.0532881618, -0.0844037160, 0.1237374395, -0.0919651836, -0.0798784941, 0.0633488223, 0.1467592418, -0.0460896753, 0.0831958055, -0.0661521181, 0.0600682981, 0.0382622257, 0.0289270878, 0.0246483646, 0.1510929167, 0.1368944198, -0.0076818303, -0.1801226884, -0.0929102302, 0.0758910030, 0.2364598811, 0.1627287418, -0.0957437679, 0.0135339657, -0.0703292340, 0.0955464095, 0.1005611494, 0.1456384808, -0.1631356180, 0.0395659804, 0.0489325002, -0.1264872551, -0.0744303688, 0.0587740690, 0.1028079093, -0.0211094096, -0.1858442128, -0.0053102467, 0.0194725171, -0.0028671168, -0.1378388703, 0.0619149879, 0.1925576925, -0.0723428279, 0.0995122269, -0.1133896485, 0.0904928297, 0.1220106930, -0.1416263431, -0.0521208756, -0.1879351884, -0.0688912496, 0.1070149392, 0.0568527132, 0.0373138152, -0.1106772721, -0.0479698814, 0.0323230885, 0.0291371904, 0.0661193356, -0.0097394651, 0.1343075484, -0.0683118999, 0.0917044878, 0.0327794030, 0.0545240492, 0.1618812978, 0.2273076922, -0.2351049036, 0.1163083836, -0.2035008818, -0.0102825044, -0.0109746503, -0.0734566003, -0.1403692663, -0.0592480376, -0.0276362970, -0.1261253506, 0.0557973012, 0.0213381089, 0.0211662538, 0.1781467348, -0.0396905616, -0.1913947016, 0.0415726602, 0.1275706738, 0.0524399690, -0.1044090614, -0.1846463233, -0.0325691029, -0.0604090318, 0.2086647898, 0.1030927002, -0.0857401043, -0.1951431483, 0.0436872989, -0.0123299351, 0.1263295412, -0.0565115139, -0.0065874192, 0.0742937624, -0.0732601732, -0.2523415685, 0.0101036597, 0.1630228758, -0.0550536737, -0.0428896584, -0.1378520429, 0.1236116141, 0.0612971112, 0.0987832621, 0.0039883796, 0.0408464856, 0.1819034070, -0.1244120747, 0.0539195202, -0.0300708972, 0.0193823483, -0.0382039733, 0.1863936335, -0.0356693715, -0.2118065804, 0.1870483011, -0.0352616012, 0.0116547700, -0.0097324857, -0.0020140065, 0.0525522903, -0.0116023449, 0.1327834278, -0.0355666876, -0.0719081908, -0.2306692898, -0.0016602405, -0.0506612845, -0.0742222220, 0.1653341502, 0.0639444888, -0.0307931062, -0.0308857393, 0.1752350330, 0.0052761375, 0.0189686269, 0.1528473496, 0.2082793266, 0.2184911221, 0.0789866969, 0.1317562610, 0.0826529041, -0.0237658788, 0.0657098219, -0.1623423994, 0.1705639213, 0.0394200422, -0.0107995067, -0.0963342711, -0.0356123373, 0.1020677835, 0.2093262523, -0.0307479873, -0.0925650969, -0.1110230014, 0.1201704890, 0.0548898652, 0.0281957146, -0.0095528420, 0.0179835185, 0.0936191007, -0.0183883514, 0.1198372692, -0.0824394971, 0.2312628180, 0.0939384922, 0.0320223235, -0.0897778273, 0.1143912002, 0.0019393972, 0.1042929515, 0.1364427358, 0.0071763839, 0.0336081833, 0.0698067471, -0.0608462915, 0.1738554835, 0.0187850911, -0.1918741763, -0.1575224698, -0.1755539477, 0.2523148656, -0.0392833799, -0.1698622108, -0.0400231183, -0.0866613761, -0.0979747474, -0.0596556775, 0.0887496099, 0.1231386662, 0.0790733844, 0.1965803951, 0.2488237768, -0.0390144922, -0.1900143027, 0.0519561209, -0.0980554074, 0.0950478762, 0.0688210279, -0.0196542051, 0.0367940180, 0.0193865411, -0.1948464066, -0.0056988308, -0.0840401649, -0.0415529646, 0.1939026564, 0.0039269123, 0.2288797200, -0.0564759374, -0.1816094220, 0.0715239942, -0.0066544265, -0.1008355841, 0.1163431555, -0.0282502640, 0.1644382775, 0.0709864423, 0.0332603008, 0.1655719429, -0.0820857584, -0.0279358961, 0.0427084193, -0.0972686186, 0.2424785495, -0.2152551562, 0.0476365462, 0.1978385597, -0.0068151620, -0.0135907531, 0.0334760435, -0.1038659215, 0.0649926290, 0.0698858947, -0.0563321784, -0.2362761497, -0.2159917951, -0.0100090010, 0.0648160651, -0.2362770289, -0.2077015787, 0.1274264008, 0.1156922951, -0.1033319980, -0.0126380390, -0.0162462760, 0.1019541323, 0.0376840793, 0.0296241753, 0.1415482610, -0.0895577967, 0.0633813739, -0.1492266208, -0.0925415978, 0.0987246335, -0.0895797014, -0.0194748845, 0.0662850142, -0.1352056116, 0.0913253054, -0.0578019992, 0.0467972197, -0.1750303358, -0.1980084479, -0.1002452150, -0.1101517454, -0.0849200040, -0.1115749404, -0.0804676339, 0.0087578809, 0.0793996602, -0.0641976595, 0.1814448833, 0.0234468859, -0.0226760115, 0.0820775330, 0.0695400313, -0.0502024889, 0.0706640631, -0.0994221121, 0.0923791304, -0.0088337231, -0.0169486385, -0.0618888177, -0.1317725629, 0.2038059980, 0.0382008329, -0.1155963615, -0.0709829256, -0.0101322522, -0.1256928593, -0.1968632340, 0.1079703271, -0.0376985706, 0.2688438892, 0.0114227440, 0.1604676843, 0.2058364302, -0.0462103039, -0.0759958178, 0.0597093739, 0.0566241592, 0.1433887929, -0.0647190809, -0.0279968232, 0.1858366579, 0.0293163341, -0.1952605695, 0.1357591003, -0.0859702453, 0.1340712011, -0.0693154484, 0.0256347470, 0.0673552379, -0.0116574140, -0.0319305584, -0.2393655181, 0.2308911532, 0.0225181784, 0.0982350856, -0.1706616729, 0.0897504240, -0.1319752187, -0.0172716491, 0.0034646394, -0.0881065577, -0.1271955669, 0.1805624813, 0.0631121546, -0.0390171185, 0.2397338450, 0.0959232673, -0.0844998583, 0.0045486749, -0.1954011470, -0.1494430602, 0.0494863912, -0.1008746997, -0.0543168895, -0.2383802384, -0.1301387399, 0.1480232030, -0.0758980662, -0.2402446717, -0.0642142445, 0.0065114847, -0.1704650670, 0.1443089992, -0.1435156614, -0.0984705314, -0.0118333437, -0.1507124007, -0.1689339429, 0.1113966182, 0.0492443144, 0.1839427054, -0.1531024724, -0.0706866980, -0.0017793628, 0.0221445877, -0.2716393769, 0.0139692789, 0.0814200789, 0.0520270318, -0.0343465768, 0.0153758554, 0.0580685362, 0.1576937139, 0.0860500038, 0.0104320068, -0.1094395146, -0.0948801041, 0.2522950470, 0.0341617465, -0.2366801947, -0.2054724693, -0.0501733571, -0.0263466351, 0.0529210605, -0.0899661034, -0.1269881427, -0.0602126606, 0.1274660081, -0.0129906591, -0.0544284359, 0.0500393957, 0.0672190189, -0.1477296054, -0.1547982693, -0.0211637374, -0.2023671120, 0.0035632495, -0.1335883588, -0.0857876986, 0.0130087771, -0.1066548675, 0.0161617156, 0.0095176492, -0.0721441135, -0.1239808872, -0.0195363071, -0.1507084370, -0.1943365782, 0.0605271347, 0.1416806430, -0.1883878112, 0.0640547201, 0.2705219388, -0.1585862190, -0.1592219323, 0.1446465403, -0.0087238448, -0.0630571321, -0.0802170038, -0.2159115672, -0.0349259973, -0.0701913685, -0.0321209654, 0.1839299947, -0.0223406069, -0.1765395105, -0.0258941036, -0.1173728928, 0.0642284602, -0.0203346740, -0.1082061306, -0.0741933286, 0.0376680754, 0.1659696251, 0.1050740108, -0.0503143743, 0.1866154075, -0.1252698451, -0.0538651533, -0.2102007419, -0.1547170579, 0.0282222889, 0.0542760268, 0.0391902104, -0.2114677429, -0.1687896699, 0.0210737269, -0.0626671761, -0.0444377065, 0.1080320179, 0.0066015050, 0.1382581294, 0.1857161671, 0.0873602331, -0.0679798573, -0.1075102538, -0.0170332137, 0.1681131572, -0.1323286146, 0.0786416978, -0.2466387600, 0.0041782572, 0.1646312624, 0.0972572193, 0.0950874984, 0.1692117602, -0.0611159801, 0.0781724900, 0.1546923220, -0.0673279017, -0.0821341425, 0.0968839377, 0.1766631305, -0.1340312511, 0.1082951799, -0.0051188907, 0.0052231485, 0.1102329269, 0.2266735882, -0.0355853587, -0.1716531664, -0.2117381394, -0.1786607355, 0.0721984357, 0.2209639102, -0.0969345868, -0.0241386425, -0.1379662156, 0.0567097627, -0.0601618886, -0.2614377439, 0.0432501659, 0.1416398436, -0.0435080491, -0.0310576018, -0.1463837028, 0.0994986445, 0.0229400769, -0.2162027359, -0.0673403069, -0.2636136413, -0.1399220377, -0.0774976909, -0.1745094210, -0.1495256424, -0.0725238994, 0.1081190258, -0.2212140709, 0.0974795073, 0.0878803506, -0.2208684534, -0.0407091975, -0.0712623894, -0.0394738503, 0.1392325014, -0.0857160091, 0.0415462665, -0.0287740454, -0.0958409011, -0.0403529815, -0.0564866327, -0.0462995768, 0.0414036326, 0.0973957628, 0.0139381476, 0.0337789059, -0.1974327415, -0.1908534914, -0.0314408131, 0.1642971486, -0.0032405474, -0.2381989211, 0.1399101317, 0.0969824940, -0.0790330544, 0.0249165986, -0.1270561963, -0.0569229685, -0.0132720787, -0.1606296599, 0.0907749087, 0.0231783446, 0.0837616399, 0.0021598169, -0.1294162720, 0.1333984584, 0.1339146495, 0.1825755090, -0.0653662607, 0.0020539698, 0.1783994138, 0.1209017485, -0.1099875420, 0.0013355031, -0.0050073597, -0.1229324415, -0.0226511527, -0.1152700856, 0.0400042981, -0.1730469912, -0.1787977815, 0.0294783227, 0.0332051702, -0.0416585431, -0.1095649153, 0.1049642563, 0.0016174874, 0.0060889688, 0.0800048411, -0.1569525301, -0.0957159922, -0.1201241538, 0.2082000226, -0.0021000230, 0.0138402255, -0.0761242956, -0.0737190917, -0.0456467606, 0.2666106820, -0.0995117351, 0.0417586081, 0.0567522757, -0.0165902507, -0.0466818959, -0.0352807567, -0.2166868150, -0.2270809710, -0.0658620745, 0.1272748113, 0.1305388659, -0.0103573315, 0.1160070300, -0.0778734535, -0.1506381035, -0.0829234570, -0.1558471769, 0.2420847565, -0.1155519858, 0.0652511641, -0.0002674385, -0.1096297279, -0.1349883825, 0.2305014431, 0.1310189813, -0.0254932605, 0.0298113264, 0.1389361322, -0.0994306654, 0.0713639632, 0.0513572320, 0.1935952753, 0.0134675885, 0.0011480063, -0.2331445366, -0.1102880239, -0.2390695959, 0.1707410067, 0.0815648958, 0.1164480820, 0.0020824571, -0.0527012423, 0.1877954900, -0.1295463294, 0.2210135907, 0.0013165561, 0.0978408381, -0.1000103280, -0.0841159523, 0.0383441783, -0.1673467457, -0.2610033751, -0.1310012043, 0.1649537385, 0.0474945977, -0.1210717484, -0.1100921780, -0.1216219217, 0.1016817540, -0.0962146074, 0.0212663729, -0.0486145690, -0.0007953722, 0.0954170078, 0.1973299831, -0.1615868509, 0.1767232716, 0.1652851403, -0.0778227001, 0.2502729297, -0.0514928959, -0.0075554275, 0.1460988224, 0.0493972637, 0.0992186219, 0.2456555068, -0.0101961065, -0.1136311144, -0.1900653690, 0.1376113743, -0.1755013019, 0.2096925676, 0.1473016143, -0.1288225353, -0.0120659545, -0.0328136906, -0.2435649484, 0.0176929254, -0.0325934365, 0.0216740780, 0.0241296981, 0.0089779589, -0.0446990356, -0.0490081944, -0.2257431746, 0.0005362701, -0.0628404543, 0.0279575065, -0.1749939173, -0.1995165646, -0.1122296229, -0.1435094178, -0.0062060729, -0.1640884876, 0.0023758754, 0.0624161027, -0.0338952281, -0.0593129769, 0.0352647752, -0.0389725864, 0.1510211676, -0.0943114087, 0.0681939423, 0.0645900443, 0.1343756765, 0.1492289603, -0.0578981526, -0.1722533852, 0.1013764814, 0.0209395885, 0.0407179222, -0.0364543460, 0.1360169053, -0.1187205911, -0.2074831724, -0.1108980551, -0.0194426663, 0.2301808745, -0.0769936219, 0.0014566757, 0.0747873187, 0.0718143210, 0.0483229719, -0.1093818098, 0.1563161612, 0.1240808517, -0.0363926254, -0.0595870093, -0.0373771191, 0.0092487819, -0.2279320657, 0.1011843979, -0.2703155577, -0.2489783615, 0.0587871298, 0.0119721619, 0.0573034175, -0.2053325325, 0.1254186779, 0.1295578182, -0.0300383735, 0.0990115255, 0.0619706735, 0.0347442515, 0.0874891430, -0.0523482598, -0.0483336821, 0.0815498382, -0.0086892024, 0.2565172613, -0.0458104387, 0.0343657508, -0.1023580134, -0.0656527802, -0.1271794140, 0.1137951985, 0.0086055761, -0.0182426218, -0.1357154697, -0.1183532104, -0.0028837875, -0.1429007202, 0.0194576457, 0.1610538661, -0.0986235738, -0.1579263508, 0.0026086590, -0.0772465393, 0.1408417970, 0.1452866346, -0.0325579979, -0.1005269364, 0.0362011455, -0.1163505167, 0.0351876616, 0.2331267893, 0.0087045459, -0.0196928196, 0.0673430935, -0.0250336584, 0.0083184615, -0.0254408102, 0.1726687402, -0.0585382320, 0.2117990106, -0.0238435417, 0.1803619117, 0.0087583084, 0.1067927852, -0.2209435403, 0.0349477045, -0.1333200485, 0.0873159245, 0.0635346249, -0.2050145119, 0.0031716537, -0.1007387564, -0.1574969739, 0.0757204294, 0.0083196238, -0.0908194929, 0.1659588218, -0.0255918931, -0.0535978824, 0.0779428333, -0.0404028259, -0.0640248060, 0.0865977332, 0.1363576651, -0.0873092189, -0.0589188561, -0.0187371094, -0.0846923813, -0.0051028752, -0.0283998121, 0.1958420128, -0.1748519242, 0.0702279359, -0.1024293080, -0.0559850298, 0.1258350611, -0.0098723387, 0.1360868067, -0.0921587050, 0.1569868028, -0.0517717339, 0.0138502065, 0.1088620350, -0.0118682412, -0.0803045183, 0.2064340264, -0.0727961585, 0.2002010792, 0.2488083094, -0.1736334115, 0.1030426249, -0.0043084808, 0.0315896384, 0.0371751674, -0.1186020598, -0.2637852132, -0.0309551954, 0.0545451790, -0.1353740394, 0.2195741385, 0.0247119274, -0.2394693047, 0.2404279411, -0.1424774081, -0.2080344260, -0.1027912199, -0.0828989223, 0.0693531483, -0.2262257934, -0.0394792892, -0.1613514125, 0.0748925433, 0.1121578962, 0.0166079514, 0.0029383316, 0.0613429360, 0.0894104168, -0.1546714306, 0.1460175663, -0.1781848371, -0.1706103235, 0.2093358040, -0.1602135301, -0.0220771935, 0.0803721845, 0.0696808547, 0.0344787613, -0.0326513313, 0.0154035166, 0.0100184428, 0.0242344830, 0.1036882922, 0.0325373784, -0.0253365021, 0.0099050663, 0.0332518145, 0.0062584272, -0.1691148877, -0.0809233785, 0.0103745218, 0.1719379723, 0.0467044637, -0.0529639684, 0.0671397373, 0.1133745760, 0.1265308261, -0.0991026312, 0.0998735949, 0.1967175752, -0.0400630794, -0.0333071388, 0.0080174245, 0.1352555901, -0.1162259877, 0.0164275933, 0.0388885587, 0.0167606790, 0.1683805436, -0.1741699725, 0.0748916790, -0.2235264331, -0.0673334673, -0.1531831324, 0.0237772521, 0.0082470365, -0.0076974318, 0.0356028005, -0.0951915607, -0.0534115471, 0.1521632075, 0.1583398730, 0.2123064250, -0.1384558082, -0.1987171769, 0.1433168054, 0.0051406575, -0.0679128841, -0.1166046560, -0.1895748526, 0.0383519009, 0.0890655518, -0.1383083314, 0.1928882301, 0.0719555244, -0.0505509116, 0.0297513362, 0.1197831184, -0.0257591978, -0.0204194952, 0.0721416995, 0.1411218345, 0.1535424441, 0.0145700546, 0.1220692173, 0.0523864813, -0.1185653210, -0.0736609697, 0.0328821652, 0.2179715335, -0.0919653997, -0.0554444306, 0.0452257395, -0.0032225985, -0.0675507188, -0.2607189119, 0.1191830784, -0.2398927212, -0.0795498714, 0.0681129247, 0.0903101340, -0.0065732491, 0.1368738115, -0.0774748102, 0.1476754546, 0.0618425384, 0.0135973338, -0.0404546224, 0.0139735714, -0.0050685299, -0.0292820074, -0.1561879218, 0.1364691705, 0.0169159845, -0.0061480091, -0.0532515459, 0.0075098691, -0.2637671530, 0.0471430309, -0.1751705110, 0.0857976973, 0.2061640024, -0.0106828809, -0.0072601154, -0.0400997587, 0.1574459672, -0.0165107865, -0.1856641769, -0.0023382404, -0.0262296032, 0.0658445209, 0.1538855582, 0.0308997277, 0.2485041171, -0.0827572718, -0.0045544612, -0.0514103472, -0.0273418464, 0.0549141206, 0.0077363490, -0.0830032229, 0.1729001254, -0.1050412431, 0.1081922129, 0.0798426941, 0.1008993387, 0.1163677350, -0.0867120400, -0.1450024545, 0.1736254543, -0.1763293147, -0.0339784138, -0.1663239598, -0.0807116330, 0.2056151032, 0.0657226071, -0.1322288364, 0.1146363243, -0.2416551113, 0.0857248455, -0.1238794103, -0.0045210854, 0.1312155873, 0.0319337249, 0.1372629255, 0.0907191709, -0.2171531618, -0.0697889850, -0.0805612579, -0.1411038041, -0.0586665571, 0.0248891320, -0.0802167729, -0.0077424166, -0.0632731095, -0.2023182064, 0.0541251265, -0.0772479326, 0.0531137474, -0.1408065557, 0.0943507999, 0.0945351496, 0.0959958136, 0.0178239997, -0.0037468607, 0.0676212311, -0.2500796020, -0.1521461010, 0.0170211755, -0.2251420766, 0.0476753116, 0.1850435883, 0.0513348691, 0.0375024341, -0.0037114250, 0.2049636543, -0.0491346493, 0.2159361988, -0.1825232506, 0.0297238510, 0.0837459266, -0.1355172843, -0.0391712300, -0.2076698244, 0.1864399165, -0.0422252342, -0.0386675298, -0.0354071930, 0.0540133566, -0.0666570663, 0.0121440906, -0.0431460887, -0.0964106247, -0.1473177671, 0.0078499587, -0.1348504573, 0.2124392241, -0.0260490589, 0.1156349033, 0.1968924701, -0.0748511553, 0.1794313043, -0.0652503148, 0.0893131867, 0.1424075663, -0.1680678576, 0.0345610827, 0.0051634051, -0.1394443661, 0.1436954141, -0.0754768103, 0.2125943899, -0.0413414240, 0.2276742607, -0.1459213346, 0.0034686166, -0.1718938798, 0.0907756016, -0.0291181616, -0.0371005386, -0.1788749248, -0.0207341388, 0.0843944624, 0.0044643497, 0.0095760236, 0.0181692448, -0.0885172486, 0.0445190854, 0.0922849774, 0.1107253954, -0.0050788885, -0.0415633321, 0.1204989776, -0.0369233564, -0.1275789738, -0.0915835723, -0.2017249614, 0.1256190091, -0.1035272330, -0.0522348024, 0.0406484641, -0.0777307227, -0.1439036876, 0.0635097027, 0.2342375517, 0.1106188297, -0.1401030421, 0.0720483214, 0.0615695789, 0.0927081257, 0.0059659341, 0.0253486484, -0.2656760216, -0.1552996039, -0.0390498824, -0.0184582397, -0.0050736703, -0.1096114814, 0.2609214187, -0.2078876793, -0.1468463391, -0.1803366691, -0.0339023098, -0.1801490635, -0.1905860752, 0.0008618569, -0.0538447909, 0.1099280864, -0.1531016231, 0.1697773039, 0.1283478737, 0.0301090032, -0.0857275501, -0.0618781634, 0.0015366544, -0.1065583900, -0.2269922048, -0.1039123088, -0.0365907997, 0.0301718470, 0.0970750228, 0.1135830805, 0.2672881484, -0.0420480222, 0.0067588990, -0.0086179283, 0.0546507984, -0.0209917817, -0.0824239701, -0.1485240310, -0.0573261455, 0.0395708047, 0.0771215856, 0.0916189030, -0.1975325495, 0.0004781139, -0.0630610064, 0.1331867576, 0.0829438195, -0.0610634349, 0.2081305981, -0.0365696438, 0.0928209350, 0.0819092020, 0.0300622024, 0.0097394083, 0.1821043491, 0.1996003687, -0.0016565290, -0.2171724588, -0.1293873787, 0.0915360227, 0.0209805071, 0.0411360152, -0.0373127013, 0.2694944143, -0.0030901453, -0.1479975879, -0.0799922869, 0.0752010494, -0.1268307716, 0.0244283173, -0.0288927816, 0.1456761062, 0.2191070616, -0.2146990746, 0.0582758859, -0.1205229089, 0.0248169750, 0.1272637099, 0.0536481775, 0.0418285206, -0.0873190165, -0.1038810089, 0.0801450685, 0.1245903149, -0.0922274143, 0.1304161251, -0.1789669991, 0.0650190189, 0.0553878807, -0.0386531912, 0.0169763099, -0.1295897961, -0.1350197196, 0.1537915915, 0.0023707263, -0.0406048000, -0.1222612262, 0.2263833731, 0.0687005743, 0.0270313676, -0.2141709626, -0.1031879187, -0.0585687086, 0.1207269579, -0.1719131619, -0.1435773224, -0.1250660419, 0.1941843182, -0.1544324309, 0.0376989581, -0.1367135942, -0.0253827069, 0.0229092203, -0.1648425609, -0.0814770162, 0.1365555227, 0.0311676525, -0.1694575399, 0.0350088105, -0.1667491943, 0.0413967632, -0.0798062012, -0.0226113275, -0.1048374698, -0.1405311823, 0.0751067027, 0.0609027967, 0.0977448598, -0.0882996991, -0.0428160653, 0.0765887871, -0.1863248795, -0.0911036730, -0.0890244171, 0.0603921153, -0.2646699846, -0.1077175438, -0.0516754761, -0.0932311490, -0.0801454037, -0.0497359000, 0.1089658216, 0.1055945158, 0.0180417988, -0.0548947714, 0.0566504598, 0.0519591719, -0.2268917859, -0.1404166818, -0.1429329515, 0.0107932109, -0.0205775052, 0.2622747123, -0.1640836447, -0.0033130234, -0.0805013552, -0.1161283329, -0.0666623861, 0.1203099340, -0.0659870952, 0.0040723062, 0.0810003132, 0.0873375535, -0.0575475097, 0.1640845239, 0.1557218432, -0.0173354726, 0.1000338197, 0.1667456031, -0.0112812147, 0.2016834170, 0.0683088973, -0.2212110162, -0.1337305009, 0.0158709921, 0.1532269418, -0.0452104323, -0.1971766800, -0.0600839891, 0.1278799176, -0.0369362943, 0.0555183887, 0.0006939500, -0.0623340048, -0.0550950244, 0.0105371587, 0.0505222604, -0.1312176734, 0.0652967989, -0.0646438897, -0.1642752439, -0.0208482537, 0.1471762657, 0.0605832823, -0.0682848170, 0.1098741144, -0.0284944586, -0.1036475226, -0.0255801752, 0.0123976478, 0.0513001457, 0.0364574417, 0.1002259776, -0.0135520706, 0.1470727623, 0.1880451739, -0.0439347103, 0.1943468899, -0.0185117461, 0.0325634629, 0.1010122076, -0.2196376175, -0.0854891017, 0.0495719053, 0.0922300816, -0.0942187756, 0.1249403059, 0.1372798830, 0.0667250305, 0.2435140014, -0.1242234930, 0.0413318910, -0.0142824594, -0.0618291199, 0.0039096149, 0.1678752899, 0.0929328650, -0.0242943354, -0.2225626111, -0.0574500971, -0.0089656683, 0.0362869352, 0.0184924137, -0.0834383070, 0.0522048622, 0.0859266594, -0.0080283685, -0.0852390453, 0.0639420748, 0.0281464756, 0.0435811989, -0.1407916248, -0.0373858549, -0.1882124394, -0.0280908477, -0.2658599019, -0.2493673563, 0.0232035872, -0.1454665065, 0.1108473614, -0.0544753708, -0.1149727404, 0.1755335033, 0.0315750092, 0.0383166298, 0.1691583693, 0.0803853646, 0.0386824906, -0.0213307627, 0.0125052026, -0.0529919192, 0.2501896322, 0.1223603413, 0.2402700186, -0.0418979116, -0.1648244411, -0.1645392478, 0.0469731279, 0.1223950684, -0.2255534381, 0.1265996248, 0.0129852528, -0.0726793706, -0.0612581894, 0.0086343409, -0.1610765159, -0.0982199907, 0.0473215841, 0.0743682161, 0.0386431329, -0.1124677658, 0.0548664108, -0.0409955867, -0.0844488069, -0.0510110892, 0.2239298075, 0.1220749840, -0.0544533618, -0.0395791344, -0.0496832170, 0.1234605163, -0.0049028900, 0.0244967677, 0.0136250537, 0.0872364789, 0.1662942618, -0.0379484892, -0.0626068413, 0.1735310555, -0.0149378749, 0.0671406612, 0.0692504197, -0.1003622413, 0.0684629381, -0.0022664643, 0.1756772399, 0.2156521827, -0.0615384281, 0.0953302160, 0.0491059758, -0.0712321624, 0.0093154768, -0.1212251857, 0.0260886252, 0.0275074951, -0.0433945917, -0.1441610903, 0.1646717936, 0.1189384833, 0.0441091396, 0.1753838956, 0.2086805254, -0.1334664226, -0.0082266387, -0.1947724074, 0.0904753730, 0.1899634302, 0.1272174865, -0.0139299287, 0.0164047983, -0.0588892698, -0.0546064824, 0.2130274028, 0.0617780611, -0.0327508561, 0.0615640804, 0.2091569752, -0.1360340416, -0.0472668186, 0.0933236629, -0.2272377014, -0.0251513757, -0.0277303029, -0.0724105313, 0.0540270954, 0.1599946618, -0.0913102925, -0.0935614258, 0.0704885125, -0.0152032897, 0.1730912775, -0.1482475102, -0.2353236526, 0.0175091960, -0.0719197765, -0.2262583226, 0.1008494422, 0.2084967196, -0.0284401942, 0.0018528015, 0.1525647491, -0.2131481767, 0.1619177163, 0.2209852636, -0.1619533747, 0.1483162642, -0.0331319608, 0.1599878818, -0.0685070083, -0.2074007541, -0.0467232540, -0.0584750138, -0.0903744325, 0.2150354832, 0.1536366791, 0.1848676503, -0.0604209043, -0.0777536556, 0.0704233572, -0.0976524949, -0.1777047664, -0.0234301817, 0.1595679820, 0.0084735500, 0.1692216247, 0.1585571617, -0.1250924021, -0.0258449130, -0.0445775725, 0.1862054318, 0.0996079817, -0.0082225939, -0.0357958488, 0.0634333193, 0.1997500062, -0.0106972689, -0.1729739904, -0.1055046692, -0.0398379341, 0.0017670004, 0.0568042360, 0.0065346239, 0.1703729033, 0.0139489584, 0.0213405881, -0.1117115915, -0.0596376136, -0.2328236848, -0.0131822405, -0.0497518294, -0.1147655696, 0.1218002215, -0.1195883602, -0.0983042940, 0.0233939495, -0.0635548010, 0.0092643527, -0.0233856738, -0.2083973289, 0.0552899800, 0.0556208603, -0.0668398738, -0.0239362586, -0.0899062306, 0.0543919243, 0.0523592979, 0.1994088441, 0.0147634689, -0.1042139009, -0.2266941965, 0.0811220035, 0.1054525524, 0.0229530167, 0.0229363833, -0.0428863727, 0.1086858884, 0.0332051441, 0.0965746194, 0.0565543137, -0.0832377821, -0.1928604841, -0.1595361531, -0.0937879458, 0.1734677255, 0.0073641585, 0.0630831644, -0.1321735382, -0.0368195474, -0.1340209842, -0.0075187986, 0.1040358990, -0.0794018283, -0.0398980603, -0.2013439387, 0.0435447730, -0.0716836676, -0.1090473533, -0.0164187942, 0.0876993015, 0.1881181747, 0.0753621459, -0.0588396303, -0.2639878392, 0.0241359249, 0.0353987329, -0.1762209684, 0.0696985498, 0.0454381555, 0.1892440766, -0.0709101036, -0.1690440178, -0.0223258175, -0.1817534417, -0.1692593247, 0.1401240528, 0.0424024127, -0.0007449431, -0.0022470884, 0.0341138653, -0.0073943837, -0.0647925884, 0.2224936932, 0.0253739264, -0.0689335689, -0.0774768293, -0.0276739877, -0.0444114506, -0.0072094840, 0.0717918798, 0.0236898251, -0.0881826431, -0.0704162866, -0.2393014133, -0.0362240523, -0.1092425436, -0.0986014381, -0.1089090481, 0.0971584544, 0.1025631130, 0.1061262339, 0.2006923705, -0.0327854641, -0.1503058970, 0.1864074171, 0.0359935202, 0.2124383301, -0.0127363252, -0.1656801999, -0.1543254554, 0.1696580350, 0.0232126843, -0.1616155803, 0.2646695077, -0.1381892711, -0.0535339601, 0.1256205291, 0.1185135245, -0.1166822016, -0.0422315709, 0.0581204183, 0.0003813957, 0.1485497057, 0.2160836905, -0.1708583534, -0.0399248376, -0.1310638487, -0.0714239478, 0.1522731483, -0.1014962345, 0.0878538862, -0.0207347497, -0.1199871972, -0.0714428425, -0.0373633616, -0.2019143254, -0.1248064786, 0.1088490412, -0.0369806103, 0.1597597003, 0.0161658544, 0.0876328945, -0.1802009940, 0.0692970008, 0.0594699420, 0.0974643379, -0.0519229770, -0.0708715543, -0.0770645142, -0.0513717793, -0.1142780930, 0.0071872566, 0.1296684593, 0.0191408098, 0.1729911566, -0.0529282913, 0.2366546839, -0.0777851716, 0.0795408264, 0.0085736038, -0.1786585748, -0.0513611697, 0.1681178957, 0.0154613508, -0.0254094824, -0.0702131838, 0.0538608432, 0.1712776124, -0.1234648079, 0.1245602891, 0.0152114592, 0.0619048066, 0.2346410155, 0.1101037338, 0.1137801707, -0.0458612517, 0.0661087930, -0.2120955288, -0.0826806426, -0.0425016992, -0.1263806075, -0.0090950811, 0.1609935462, 0.0310170930, 0.1595101506, -0.2701756358, -0.0665756017, 0.0480214581, -0.2568097115, 0.0970799401, 0.0086459620, -0.1094125435, 0.0494882241, 0.2179075629, 0.1367174089, 0.2435674667, -0.0172696151, 0.0706615895, 0.0383818857, -0.0383855104, 0.0569321550, -0.1316667050, 0.1562025547, 0.0351391509, -0.0550908186, -0.0381021053, 0.1392968446, 0.1190181375, -0.0880136192, 0.0119515816, 0.1750285625, 0.0233140551, -0.1972927153, -0.0690740719, 0.0340518989, 0.0695428699, -0.1543879062, 0.1792681515, 0.0354059450, 0.1736385822, 0.1521404982, -0.0765622482, 0.1419393569, 0.0486429818, 0.1131850407, 0.0421465710, -0.0934465080, -0.0740856305, 0.0072580492, -0.2641575038, 0.2155800015, -0.0733422637, -0.0513474233, -0.0209874623, -0.0697703436, 0.0461351722, -0.0316056907, 0.0652629882, 0.0765883550, 0.1118428186, -0.0347409025, 0.2433819771, -0.1383849084, 0.1452775002, 0.0487548374, -0.0000686539, 0.0324508958, 0.1554278731, 0.0336772576, -0.2061754465, -0.1463362128, -0.2532736361, -0.0553720668, -0.0827317536, -0.0643063858, -0.0880874693, 0.1150286421, 0.0033969057, -0.0748157129, 0.0973698795, 0.0113656428, -0.1854933649, 0.0211399887, -0.0768055543, -0.0443221293, 0.2022067755, -0.2705299854, -0.1100793406, 0.2415241450, -0.2197622657, 0.0342925116, 0.2593457997, 0.0961637050, 0.0334931202, -0.0335262753, -0.2592438459, 0.1792998761, 0.0679565892, 0.0607231110, -0.0106871948, 0.0426214002, -0.0539989434, 0.1213358492, 0.0981126800, 0.0238754563, -0.0546567738, -0.1132587716, -0.0545293316, 0.1646291763, 0.0180287994, 0.2497519851, -0.0203968212, -0.0185402054, -0.0758589357, -0.1224670559, 0.1504750252, -0.1315255910, -0.2084227353, 0.0059473752, -0.2228829414, 0.1419840604, -0.0006492512, 0.0120537532, -0.1946270764, -0.1233177185, 0.0038046106, 0.1469134092, 0.1261150837, 0.0132667711, 0.1009825170, -0.1049765497, -0.0097991340, -0.0458956733, 0.0797752142, 0.1857662052, -0.0368311517, -0.1316553205, -0.0127090160, 0.0890700668, -0.2135266960, -0.0597603470, -0.1630185992, -0.0994895995, 0.0824053362, 0.1295228302, -0.0379109941, -0.1699833572, 0.0653039515, 0.1732641459, 0.0974632651, -0.1079035699, -0.0968721956, -0.0835477188, 0.0494787283, -0.0362570137, 0.1648264229, 0.0423556156, 0.0200682115, -0.1334761828, 0.2238973081, -0.0804807022, -0.0952289701, -0.0675352588, 0.0740807652, -0.0305027105, -0.0118231270, -0.0562773719, -0.2012720704, 0.0709440932, -0.1335519850, -0.0727044567, 0.0193053372, -0.0589383170, 0.0723982751, 0.0224186648, -0.1634228528, -0.0311697517, 0.1452948749, -0.1302793622, -0.1930670291, 0.0074905977, -0.1642289609, -0.0318200327, -0.2411775887, -0.0936578438, -0.2552368939, -0.1855621934, -0.0407899246, -0.1858085692, -0.0986137390, -0.1194642484, -0.0394771509, -0.0253548753, 0.0943731740, 0.2288304865, 0.1403014809, -0.0108414507, 0.0525385141, 0.0342843682, -0.2276002467, -0.0759295598, 0.0253563300, 0.1230440140, -0.1454693526, -0.1888109297, -0.1134351566, 0.1102434471, 0.2306347638, 0.1320042461, 0.0153713338, -0.1206341162, 0.0997856557, 0.0911885798, -0.0033975923, 0.1509418786, -0.2599698603, 0.2061062008, -0.1760969311, -0.0058998172, 0.1590452641, 0.2335139662, 0.0839259401, -0.0383841544, 0.1330259442, -0.2027984113, 0.1538887620, 0.1364491284, 0.0179200266, 0.1380102783, 0.2710564733, 0.0712723807, -0.0227222834, 0.1788983047, 0.1241576448, 0.0215612501, -0.1153941303, -0.0311093125, 0.0770057440, -0.0690672770, 0.0635256991, -0.0249746945, -0.1183302552, -0.1379167587, 0.1213812158, 0.1316979080, -0.1598593742, -0.2535018325, 0.0538486727, 0.1939544380, 0.0923763588, 0.0256802831, -0.1417587698, 0.0780281276, 0.1257570237, -0.0950587392, 0.2558002472, -0.1279731095, 0.1229074001, -0.1248862296, 0.0043980666, -0.1839608997, -0.0125595583, 0.0798371509, -0.0482458808, 0.0879372284, 0.0184040777, 0.1134581864, -0.0687965304, 0.0801420659, -0.0128727416, 0.0177541822, 0.2698986828, -0.1245737597, -0.0269850418, -0.1029837206, 0.0066288323, -0.0798686817, 0.2364835739, 0.1053089350, 0.0778772086, 0.0389241576, -0.0011965646, -0.0082098562, 0.0633857697, 0.0475493520, -0.1439021230, 0.2654892206, 0.1402903646, -0.1540351212, 0.0579757616, -0.1649546325, -0.2403425127, 0.1470967829, 0.1924084127, 0.1533276886, 0.0105667673, -0.1281383187, -0.2400692999, -0.1284930408, 0.0998928249, 0.0559029169, 0.0024997105, 0.1273730844, -0.1840606779, 0.0011893959, -0.2514107525, -0.0082206856, 0.0862616450, 0.1345817745, 0.0623818375, 0.0608287156, -0.2038801461, -0.0690620169, -0.1275602877, -0.1887156665, 0.0347775891, -0.1056269184, -0.2431102842, -0.0575184487, 0.0950481072, -0.1638670266, 0.0483639613, -0.0827762932, 0.0985704213, 0.0410030149, 0.0083483774, -0.1414545476, 0.1303230673, 0.0688866824, -0.1884209961, 0.0749194995, -0.0114014316, 0.2304256558, -0.0462609753, -0.1531191319, -0.0025819058, 0.0773562342, 0.0279938169, -0.0325187892, -0.0713389143, -0.0173829757, -0.0178998224, -0.2293167710, -0.0260522086, 0.1082084253, -0.1667917222, 0.1754647344, 0.0663386509, -0.0614253543, -0.1029809415, 0.0610845722, 0.1331478804, 0.0119404448, -0.0170639828, 0.0312606283, 0.0910203978, -0.1009268090, 0.0315316729, 0.0171864908, -0.0380735993, 0.2042911798, -0.0802566409, -0.0493614152, -0.0199413188, -0.0250727832, 0.0714255348, -0.1129744723, -0.2189157903, -0.0983875766, 0.2229610085, -0.0643331930, 0.0003096513, 0.0679214522, -0.0389502496, -0.1402787864, -0.0407526679, 0.0861420780, -0.1582671106, 0.0901808068, 0.0108334012, -0.1146467924, 0.1930786222, 0.1320904940, 0.0289854612, -0.1327786595, -0.0040030694, 0.0523916893, 0.2271054983, -0.1398941875, 0.0254203491, 0.0368757471, -0.1009051278, 0.1507596672, 0.1481179595, 0.0123811848, 0.1314955205, -0.1044002846, -0.1101597026, 0.0617816895, -0.0437547825, 0.0593103915, -0.0281691886, 0.0390260033, 0.0818479657, 0.0603641681, -0.0193962250, -0.1632671058, -0.2059356421, -0.1647736728, -0.1440626383, 0.1228493974, -0.0098748943, 0.1269151717, 0.1453034431, -0.0565507598, -0.0397769772, -0.0504367091, 0.0947244763, -0.0017071199, -0.0439287350, -0.0021781356, -0.1991438419, -0.1196979657, -0.0143015394, -0.1610078961, -0.0856607482, -0.0025427628, -0.0079428712, 0.1498171538, 0.0332609825, -0.0769029558, 0.0565081686, -0.0821727738, -0.1628651619, -0.1517546326, 0.0234005880, 0.0331664123, -0.2063149512, 0.0388480388, -0.1291659772, 0.1162664592, 0.1400637180, 0.0044158208, -0.0407351330, 0.0018803092, 0.2309235036, -0.1441868395, -0.2012441903, -0.2245151103, -0.0697315037, -0.0183494594, 0.1143606231, 0.1204365864, -0.0742960200, 0.0487590581, -0.1763294190, 0.1602790803, 0.0678507686, -0.1383441091, 0.0749236122, -0.1186688468, -0.1226956099, -0.1167268977, -0.1647262275, 0.2265029103, -0.1406589597, 0.0055138054, 0.0594365112, 0.1324485540, -0.2712662518, 0.0212394465, -0.0945689157, 0.2508964837, -0.0373180062, 0.0748813078, 0.1471997648, 0.0957278386, -0.0303678624, -0.1820550114, -0.2206653208, 0.0148273129, 0.2156160325, 0.0048227650, 0.0282413866, -0.1465570778, 0.2303599566, 0.2404004484, -0.2105229199, 0.0758726820, 0.0204866882, 0.0216704346, -0.0978780538, 0.0217427853, 0.1106246486, -0.0614153966, 0.1695632488, -0.0155410720, -0.1177276969, 0.1195707694, -0.1768142283, 0.1886405349, -0.0596323311, -0.2292991430, -0.2296202034, 0.1957483590, 0.0336003192, 0.0932511240, 0.0664632320, -0.1552823037, 0.0594527796, 0.0549516939, 0.0062914365, -0.1704953015, 0.0651018098, 0.1243448481, 0.1697865874, -0.1356116533, 0.0379058085, 0.0134519525, 0.1534249038, 0.0369438268, 0.1051682830, -0.2293064743, -0.0457061492, 0.0469900519, -0.1073903739, -0.0198297501, -0.0624507293, 0.0242112298, -0.0250043925, -0.1451959312, 0.0271904971, 0.0100589981, -0.0663558319, 0.2452114671, -0.1239232272, -0.1188395321, 0.0845807120, 0.0730040222, -0.2174244970, -0.0381719433, -0.0162541196, -0.0694804639, -0.2446933389, 0.0103089567, 0.1151216030, -0.1321125627, 0.0861423984, 0.0331396610, -0.1451603472, -0.1043687537, -0.0811034366, -0.0537449419, -0.1638659686, -0.1149207354, -0.0280722938, 0.1029838920, 0.1104359850, 0.1475726813, -0.0003564373, -0.2295640558, 0.0816204250, 0.1891656667, 0.0600844398, -0.0328946970, 0.1662015170, -0.0202395227, -0.0164159425, 0.0398011357, -0.0467152670, -0.0844930708, -0.0750489309, 0.1149066016, -0.0340621807, -0.2219404280, 0.1736628413, -0.1418166161, 0.0176757444, 0.1145385429, -0.0194076691, -0.0111783408, 0.1470399350, 0.0346225798, -0.0909064859, 0.1190725565, -0.0598239191, -0.0981922522, -0.0819300115, 0.2126819938, -0.0240273047, -0.1274593472, -0.2281255722, -0.0198267996, -0.1120898128, -0.0484073646, 0.1113340035, -0.0053774873, 0.0029102922, 0.1384068877, -0.1042669415, -0.1981524378, -0.2256901860, -0.0339701734, 0.1269996464, -0.0494006015, 0.0984328166, 0.2176578790, 0.0701375604, 0.1012521833, 0.0380462594, 0.1372466683, 0.1741144508, -0.0000472909, -0.0025321885, -0.1626441479, 0.1033833697, -0.1901362240, 0.0197974890, -0.0412525944, -0.1826257408, -0.0489890315, 0.0090356087, -0.1919446886, -0.0586829260, -0.0501034260, 0.0666329712, 0.0598779991, 0.0920743942, -0.1535311937, 0.0510606244, -0.1693130434, 0.0479527190, 0.0599896349, 0.0235823207, -0.0861153007, 0.2250619233, 0.0307717733, -0.1375973523, -0.0559021719, 0.0531681590, -0.0634222925, -0.2161367983, 0.2299721390, -0.1525236964, -0.1124514043, 0.1149571240, -0.1809311509, -0.0006629355, 0.2362746000, 0.0769797936, 0.0931024775, 0.1347032338, -0.1174503192, 0.0497356579, -0.1918448359, 0.0072723837, 0.2088041455, -0.0109445248, 0.0251461063, -0.0373160429, -0.0721947104, 0.0038343240, -0.0719330534, 0.1543944329, -0.1177962720, 0.0802038461, 0.1061690971, 0.1706173122, -0.0394004881, 0.0096411584, -0.1623928994, 0.0319936909, -0.1031443775, -0.0041893534, -0.0738224015, -0.1574160308, 0.0178272091, -0.1395939738, 0.0741732642, -0.0415157191, 0.1536326557, -0.1698679328, 0.0485207662, -0.1492939889, 0.0537757687, -0.1446741074, 0.0914342776, 0.0277798157, -0.0041713389, 0.0126537289, -0.1898400784, -0.1900141835, 0.0092918919, 0.0391999707, 0.0563605577, -0.2235591710, 0.1289256066, 0.0307104718, 0.0003925898, 0.1911529452, -0.0864233449, -0.0551633760, -0.0070594824, 0.0604800358, -0.0277322717, 0.0980526954, -0.0796042383, 0.1097468585, -0.0564224273, 0.0763657689, -0.1774250567, -0.0147603909, 0.0898203403, 0.1073968187, -0.1046358868, -0.1894009113, -0.0246320833, -0.0274587348, 0.0820484832, 0.0707299635, 0.0966177806, -0.1016957238, 0.0128940307, -0.0899478123, -0.1499840468, 0.0687512681, -0.1183923334, -0.2528437376, 0.0156107862, 0.0934756324, -0.0263654236, -0.2401833385, -0.1207410470, -0.0065747369, -0.0722673014, 0.0273475666, -0.0143464180, -0.0331630073, 0.2660081983, -0.0839766636, 0.1774555147, -0.2470629811, 0.0475554131, 0.0128715122, -0.0376353338, 0.1470774561, -0.0872277915, 0.1769437045, -0.0195629671, 0.2265610844, -0.0754385442, 0.0209202934, -0.0316167325, 0.2305637598, -0.0221187323, -0.2580315173, 0.0540607609, -0.0443300121, -0.0370629579, -0.1920139194, 0.1598192006, -0.0581929386, 0.1653071642, 0.1476042718, -0.2019283623, -0.0713607594, -0.0677717552, -0.1477107406, -0.0676886067, 0.0534213744, -0.1259289980, 0.1071638167, 0.0512822084, -0.1788321882, -0.0057340199, 0.1688944548, -0.0941919386, 0.0214024223, -0.0602779984, -0.1584944725, -0.0570846647, 0.0904414728, -0.0484716333, -0.0586709157, -0.1966522187, -0.1211500391, 0.0048446064, -0.0030875290, -0.1037014499, 0.1238800362, 0.0978542194, 0.1970169544, -0.0047954181, -0.0643626601, -0.1188892350, -0.1006321907, 0.0076943180, 0.0745557547, -0.0628019497, 0.1747195721, 0.1310398877, -0.0803834498, -0.1765049845, 0.0700169131, -0.1924423128, 0.0333542004, -0.0353301354, 0.0938859135, -0.0118530020, -0.1292021275, 0.0509244651, 0.1760790795, -0.0866657123, 0.2684889138, -0.0431697592, -0.1782536060, -0.1011733264, 0.2455638796, 0.1011802107, 0.2007326782, 0.1535353065, -0.0659832731, 0.0904864222, 0.1671445966, -0.0145025253, -0.0990610272, -0.2154463679, 0.0071879048, -0.0667055845, 0.1654285938, -0.0782542229, 0.2013165951, 0.0928750932, 0.1269885302, -0.1732922494, 0.0991562307, 0.1329951286, -0.0080899401, 0.0741287842, -0.0167319346, -0.1761977375, -0.1445371062, 0.1154111773, -0.0692590550, -0.1707731783, -0.1435507685, -0.0705657154, 0.0161226038, -0.0999797881, -0.0072111278, -0.1882838905, -0.0767263398, -0.0045917365, -0.0027257407, 0.0480572470, 0.0521009862, 0.0889831558, 0.1840523928, 0.0921816602, 0.0409051143, 0.0001104164, -0.0752472803, 0.0754947141, -0.0327230319, -0.0314060897, -0.0630582348, -0.0329892151, -0.1900988072, -0.0255521927, -0.2182510942, 0.0834783092, -0.0994680822, -0.1444578916, 0.0591100492, -0.0072952318, 0.0836224928, -0.0282434374, -0.1470001191, -0.1818127334, -0.1129966080, -0.1072880104, 0.0025855100, 0.1653605998, 0.0102724191, -0.0991442353, -0.0243129376, -0.0756198913, 0.0997605398, 0.2236927748, -0.1884616911, 0.0119018294, -0.0425284728, 0.0971561447, -0.1132294089, -0.0920160040, 0.0815149620, -0.0452766977, 0.0333105810, 0.0238146689, 0.0325206034, -0.2336975485, -0.0101565011, 0.1366518140, 0.1243087053, -0.0967423469, -0.0648261979, -0.2588188350, -0.0970720351, -0.0532108359, -0.1695326716, 0.0847694948, 0.1612454057, -0.1072293147, 0.0160359461, -0.2218608260, 0.0088402759, -0.0353697017, 0.1641396880, 0.0053860163, 0.1671196967, 0.0244918875, -0.1354798526, -0.1727631390, -0.1278246790, -0.0814376697, 0.1562063694, 0.2587362528, 0.1506975591, 0.0869057700, 0.0228243601, 0.0872554928, 0.0574442893, -0.0176519100, -0.0349130854, -0.0328555107, -0.0836575106, 0.1485888064, -0.0602862276, 0.0031278604, 0.0714142025, -0.0253981277, -0.0117851635, -0.0352945700, 0.0815994814, 0.0608453080, -0.0478810780, 0.1312277317, 0.0571628213, -0.1276806295, -0.0173066203, 0.0517603643, 0.0401642434, 0.1960343122, -0.0853166059, 0.0167360287, 0.0730081946, 0.1405843794, -0.0797984153, -0.0453658700, -0.1025684997, -0.1459375173, 0.1755176187, 0.0026423102, -0.0627941862, 0.2003670186, -0.0924429595, 0.0385962799, -0.0774044171, -0.1244397908, 0.0005868539, -0.1463828087, -0.0549501106, -0.0433269553, -0.2576054931, -0.1206499189, 0.1142041907, 0.0247886926, -0.0790330768, -0.0669751689, -0.0151402904, -0.0986600965, -0.1130716354, 0.1164398789, -0.1263870150, -0.1675695777, 0.0338616222, -0.0683404729, -0.0304893218, 0.2482050806, 0.0973307490, 0.1506994814, 0.1098050177, -0.2075601071, 0.2011430413, 0.1072519049, 0.1704187989, 0.0067112888, 0.1572107971, 0.0049680974, 0.0997707993, 0.1830104440, 0.1599387676, 0.0207923874, 0.0336751975, 0.0038357528, -0.0031642206, -0.0935147628, 0.0978560001, -0.0525924638, -0.0463963263, 0.2122387886, -0.0080333911, -0.1996820271, -0.1011085138, 0.0557425842, -0.1581129879, 0.0521906018, 0.1695699543, -0.0602943935, -0.0744595081, -0.0266310219, -0.1660507768, -0.0170168784, 0.2070089877, -0.0520840771, -0.0429003052, 0.0115452772, 0.0852238834, -0.0131651256, -0.1137934923, 0.0671770200, 0.1446705759, -0.1528014690, -0.2299871892, -0.1227921546, 0.1482064873, -0.0152834626, -0.0133028897, -0.0358960219, 0.1618131548, -0.2063228637, 0.0103793321, 0.1610933542, 0.2670115829, 0.1885592490, 0.0505247153, 0.0690532327, -0.1385029405, -0.0291311983, 0.1489308029, 0.0093460567, 0.0228718147, 0.1291237772, -0.0079374490, 0.0964014530, 0.0628494993, 0.0597742386, 0.0158838835, -0.0405463837, -0.0995464474, 0.1355514228, 0.0191923268, 0.1516784430, 0.0699458122, 0.1470257938, 0.0499746427, -0.1298568547, -0.0615323707, 0.0321960375, -0.0091596860, 0.0494284630, 0.0152212214, 0.0939784274, -0.0343243517, -0.0340356193, -0.0463952310, 0.0571328737, 0.1025994793, 0.1444382071, 0.1654823869, -0.0625518933, -0.1001538932, 0.0645177141, 0.0548144318, 0.0701041371, -0.0811182261, -0.0685230866, 0.0362757295, 0.1315300912, 0.0586571470, -0.1181993037, 0.0534699894, -0.1156989709, -0.0505284443, 0.1365146935, 0.0760618597, -0.2654743791, -0.0629758835, -0.0650074854, -0.1619302183, -0.0556261465, 0.0725895241, -0.2270714641, -0.0236287229, 0.1826482266, -0.0359845310, -0.1210584715, -0.0678673312, -0.0773771852, -0.1054114178, 0.1469792873, -0.0678580180, 0.2450660020, -0.2012811601, -0.0570842288, -0.2377108037, -0.1421747506, -0.0241023470, -0.0996343270, -0.0119171022, 0.0110165458, -0.0808918402, 0.0160823520, 0.0144643746, 0.1445340365, -0.0207679383, -0.1203235760, -0.1795780361, -0.2186188400, 0.0492177159, -0.0848038420, 0.0389131233, -0.1090850309, 0.0453648232, -0.0338626839, -0.0370923206, -0.0958794653, 0.1537439525, 0.0306957494, -0.0937918499, 0.1723710299, -0.1944848448, 0.1388567686, -0.0887748823, 0.1071805656, -0.1160193011, -0.0516129024, -0.0797784701, -0.0707593933, 0.1050164923, 0.0531909466, 0.0961629078, 0.2229826152, 0.1184965521, -0.0121840248, -0.2625892460, -0.0767081827, 0.1337372661, 0.1213569269, 0.1181325316, -0.1070956811, -0.0270564333, 0.0807967409, -0.2609284818, 0.0298485439, -0.0137701575, 0.0863269493, -0.0444684140, 0.0476178154, 0.1594193429, 0.0071340073, 0.0489910915, -0.0602569543, -0.1617454737, 0.0825923979, -0.0847468600, 0.2328765988, -0.0068135164, -0.1099546328, -0.0619299449, -0.0821624920, -0.0465301499, 0.1013733521, 0.1339825839, -0.0571028106, 0.1173007339, 0.2002731711, 0.1451085955, 0.0956692174, -0.0017773854, 0.1090435982, -0.0997637659, 0.0611594021, 0.1392020434, -0.0220261868, 0.0421192087, -0.0693268105, 0.1957878470, 0.0327714719, 0.0397746190, 0.0556031168, -0.1748372465, 0.0036179137, 0.1087759212, 0.0115966750, 0.0325427987, -0.0576536618, -0.1847197711, -0.1941933781, -0.1343561113, 0.0546354987, -0.1260589510, -0.0645969510, -0.0092779994, 0.1378964335, -0.1915872246, 0.0711648166, -0.1228129864, 0.1230964810, 0.0930931270, 0.1299548447, 0.0414488986, 0.2275815308, 0.0457671247, -0.0210145991, 0.1148645282, -0.0771669149, -0.0005946351, -0.2283459753, 0.0776759610, -0.0056308717, -0.0558194406, 0.1677336544, 0.0141440555, -0.0821568742, -0.0666652545, 0.0493475832, 0.0727872252, -0.1343868822, -0.0414894000, 0.0269607902, -0.0135524226, 0.0515307002, 0.2367686182, 0.0307671186, 0.2424807400, -0.0329707786, 0.0234525800, -0.0298941676, 0.2086161375, -0.0127355559, -0.0069461535, -0.1446530670, -0.1091333553, -0.0722084492, -0.0300760642, 0.1715254188, -0.0289325640, -0.0067228437, 0.2208866328, -0.0979669616, 0.1775523275, 0.1277025789, -0.2525947988, -0.1079264805, -0.0508351587, 0.0091987522, 0.1657196730, 0.0213564876, 0.1943932474, -0.0829597116, 0.1453257799, -0.2371152043, -0.1223400086, 0.1389481127, -0.1510775238, 0.0509739593, 0.0552080795, 0.0258336030, 0.0406810902, 0.0527853668, 0.1362027973, 0.0837111324, -0.0758612975, 0.0014778954, -0.0664844438, 0.0098834205, -0.0380693674, 0.1302734017, 0.2350573689, 0.0131962402, -0.0699934810, 0.1125691310, -0.0576058254, -0.0271951817, 0.1168121621, 0.1467240155, 0.0492367744, -0.0653637946, -0.1429939270, -0.0333949924, 0.0506046787, -0.1799015552, 0.0172834937, 0.0874868557, -0.0170274470, 0.0170797352, 0.2058527470, -0.0386242084, 0.0466200747, 0.1920151561, -0.0007882983, -0.2472784072, 0.0703716576, 0.0455985703, 0.0558539368, 0.1547915637, -0.0638226196, -0.0406146161, -0.1327603906, 0.1370856762, -0.0483400449, 0.1322175413, -0.0916390345, 0.0316272005, -0.1121984050, -0.1882193089, 0.1827015877, 0.1343793273, -0.0188626312, 0.0912732184, 0.1430481225, -0.0697071776, 0.1614772826, 0.0031810105, -0.0661707669, -0.0649077073, 0.1169257835, -0.0247724671, -0.0147699947, 0.1599615365, 0.0270346161, -0.2143105716, 0.0091464538, -0.0177948959, -0.0776188299, -0.1276899576, 0.0577269085, 0.0604153797, -0.1826246232, 0.0921275318, -0.0013803387, -0.0902041197, 0.1592406631, -0.1431908160, 0.1497956961, 0.1503455490, 0.0772501752, 0.0408521630, 0.1705502272, -0.0795978308, -0.0969548598, -0.0469305366, -0.1147259176, 0.1124964654, 0.0900231749, 0.0650275871, -0.1561696231, 0.0442362875, -0.1543527693, 0.1489141285, 0.0591612235, 0.0020827812, -0.0194616411, -0.1371405125, -0.1397745460, 0.0801293999, 0.1295864135, -0.1392333508, -0.1568210721, 0.0339125767, -0.1046639532, -0.1176836565, -0.1576406211, 0.0842335969, -0.2004046738, -0.1916370243, -0.1710540503, 0.2144432068, -0.1133491620, -0.0004638300, -0.1116949990, -0.0102069573, -0.0911219791, 0.0517035089, 0.0501680896, -0.1944444776, 0.1872254908, -0.0235072281, -0.0713369250, -0.1254635006, -0.2193459719, -0.0779690295, 0.1112707481, -0.0735635683, 0.0651557744, -0.0645783022, 0.0179006532, -0.0511551499, 0.1234347969, -0.1726923436, -0.0951184779, 0.0507929251, 0.1248373687, -0.0274236631, -0.1442642212, -0.0909694955, 0.0782729238, -0.1618332118, 0.0352378860, -0.1514395922, 0.0781050771, -0.1202345639, -0.0710277110, -0.0120600136, 0.1661770642, -0.0252963435, -0.0939197987, -0.0237483196, 0.1346963346, 0.0222854074, 0.1355036795, 0.0172155388, 0.0952796862, 0.2406373918, -0.1795318872, 0.0632969439, -0.0807067081, 0.0060661673, 0.0479416065, 0.0437418297, -0.0169053115, -0.0507169589, 0.1337617636, 0.1497259140, 0.1831834465, 0.1224206835, -0.0328596048, 0.1940462440, 0.0360591039, -0.1032611206, -0.0051273005, -0.1710666865, -0.0302442443, -0.0340172760, 0.0319152959, -0.0355841964, 0.0013236629, 0.0885145441, -0.0980715528, 0.1087956652, 0.1413116008, 0.0533812270, 0.0844681337, -0.0434251428, 0.0322667845, -0.0224855132, -0.0856087655, -0.0554667562, 0.1879649162, 0.1183750480, -0.1860230267, 0.0161737613, 0.0143474964, 0.0153259933, 0.0614724644, -0.0470565036, -0.1223678291, 0.0167303365, 0.1134728715, 0.2677377164, 0.0791243613, -0.1786950678, 0.0413909368, -0.1368289143, -0.1547139436, -0.0877611339, 0.0803490207, 0.0160846170, -0.0676999316, 0.1782319844, 0.0134011507, 0.0491469800, -0.0627545714, 0.1823285371, -0.2296180576, -0.0527195968, -0.0109866234, 0.1232845709, 0.1253976375, 0.1275725812, -0.0457249992, 0.0045114094, 0.1083431467, -0.1649743915, -0.0882193744, 0.0328106023, -0.1217291877, -0.1583545655, -0.0429671593, -0.0606050082, -0.0934368446, -0.0377819538, -0.0152755966, 0.1230217516, -0.0069791586, -0.0327685624, -0.0919854045, 0.0862656608, -0.0296415780, 0.0909623802, 0.1121921614, 0.2116825879, -0.1395826191, -0.2582367957, 0.0482154340, -0.0961351544, -0.1364946812, -0.2358284146, -0.1846758425, 0.1086279973, 0.0632725805, -0.0167328380, 0.1003891304, 0.1336602420, 0.2086776048, -0.0486032702, 0.1869235337, -0.0070700007, 0.2340620160, 0.1115776524, -0.2410529405, -0.1287722886, -0.1031593457, 0.0025280491, 0.1598336697, 0.0868334323, -0.0283208229, 0.0260401517, 0.1502666622, -0.0357894599, 0.1252818853, -0.0139058083, 0.0026695579, 0.1219923645, 0.0751466677, -0.0306953080, 0.0732697248, -0.0372141749, -0.0335499682, -0.1095663831, 0.0955475718, -0.1301501840, -0.0593779050, -0.1939761341, 0.1219080761, 0.0175770037, -0.0712066144, -0.1883728802, 0.0146751637, 0.0424953662, 0.0747886747, -0.0093611423, 0.0774627179, 0.0876407102, -0.2635117173, -0.1576828361, 0.0699652359, -0.0035842173, -0.1069308221, -0.1981979162, 0.1807426810, -0.0361954160, 0.0750534087, -0.0602847785, -0.1762027144, 0.2172399312, -0.0521741733, -0.0105457129, -0.1622772366, -0.0649430007, 0.1649494767, 0.0449961759, 0.0395152532, -0.0850487649, -0.2610632479, -0.1325265467, -0.0267856251, 0.1316904277, -0.1555351764, 0.1504391730, -0.0050096232, -0.0182248037, -0.0871117413, -0.0942167267, 0.0552986041, 0.0474155620, -0.2121625692, 0.0116728032, 0.1866988838, -0.1191512719, 0.1825769395, 0.0706017911, -0.0877828375, 0.0765192062, 0.1223655418, -0.0301108100, 0.0387287363, -0.1373493075, 0.0476689301, 0.1022203118, 0.2432380617, 0.1595887095, -0.0047190282, 0.0168344043, -0.1344018579, 0.0849204138, -0.0123875784, -0.1729997098, 0.1910032928, 0.2132354677, 0.0280434601, -0.1623375863, -0.0244285371, 0.2244355530, -0.2536566257, -0.1609203368, -0.0599011369, 0.1419631094, 0.1316804290, -0.2328088880, 0.0818201751, -0.0361106731, 0.1333540827, -0.0678300336, -0.0487644747, -0.2345528901, 0.0469960235, -0.0771372318, -0.0144267660, 0.0522429869, 0.1233538017, -0.0925366655, -0.1750461459, -0.0486556590, -0.0557533540, 0.1677925289, -0.1169804707, 0.0403436050, -0.1637510061, 0.1378535628, -0.0735538080, 0.0900370106, -0.1395361423, -0.1676798463, -0.0901561305, 0.1316139549, 0.1043690965, -0.0134535246, -0.1434011310, 0.0162873119, -0.0523548611, 0.1213948280, 0.0072917766, 0.2312620133, -0.2397289276, -0.1515829414, -0.0827779472, -0.0250966139, 0.0757201239, -0.0078492044, -0.1057870537, -0.1781335771, -0.0662885755, 0.0680622682, 0.0621058717, 0.1013916880, 0.0681017712, 0.1400320977, -0.0726715550, -0.1848003715, 0.1068175659, 0.0340181813, 0.1289718896, 0.0177992117, -0.2312996387, -0.0814747512, 0.0279430300, 0.0476309247, 0.1474184394, -0.0406337902, 0.2219798863, -0.0089270519, 0.0813038051, 0.0296830405, 0.0799336433, 0.0640332997, -0.1356737465, -0.1053600833, 0.0868037120, -0.1264515519, -0.0782537535, 0.1062561199, 0.2653633654, 0.1050448120, -0.0412115380, 0.0056681270, 0.1996679455, 0.1649157703, 0.0462643839, -0.2101185024, 0.1250999421, 0.2423847467, 0.0751997530, -0.1376805753, -0.0665187612, -0.0140966633, -0.1067174748, 0.0202521440, 0.2121490091, 0.1172482073, 0.0839658976, -0.1408355087, -0.0504076555, 0.0453298278, -0.1879376173, 0.1921530217, 0.1416626573, 0.1143313274, -0.0689433217, 0.0690226331, -0.1122625917, -0.1775757074, 0.2085869759, -0.0724076554, 0.2688698471, -0.0752687976, -0.0177953951, -0.1226789430, 0.1379099041, -0.1471737474, -0.2634796798, 0.0489082336, 0.1614678353, 0.1653855741, 0.1501313746, -0.0868964568, 0.0485319532, 0.1148088276, -0.0037379938, 0.1942847073, 0.0884397253, 0.1154011488, 0.1494033486, -0.1201679111, 0.0952048525, -0.2076918334, -0.0763218924, -0.0947872996, 0.1933756918, -0.1230988279, -0.1608829945, -0.2674275041, 0.1827077121, -0.2292150706, 0.0485491008, -0.0341208801, -0.2038319409, 0.1662550271, -0.1760751456, 0.1629370302, 0.0780657157, -0.0624301918, 0.0207913853, -0.0844557211, 0.1308182478, -0.0996028110, 0.1654305905, -0.1124487221, -0.1029150262, 0.0985839143, -0.1374011785, -0.1813275069, 0.1084472239, 0.0705253705, -0.0846583024, 0.0545338094, -0.0064025088, 0.0039932411, -0.0128787300, -0.0240367819, -0.1707637906, 0.2281382680, 0.1777948886, 0.0755728036, -0.2073058039, -0.0186734274, 0.0407393165, -0.1056473330, -0.1320080757, -0.1596723199, -0.0702053979, -0.0617223941, -0.1174327731, -0.0532100573, 0.2427508980, -0.0122887306, 0.0193713699, 0.1075570211, 0.0700329244, 0.1478933245, 0.0134996958, 0.0338061154, -0.0773822889, 0.0436586402, 0.1169207916, 0.1370267421, -0.2059413642, 0.0466173328, 0.2041798234, -0.1793950349, 0.0167588294, -0.0810002089, 0.0919841379, -0.0431248248, 0.1118791029, 0.1897803843, 0.1006668061, -0.0839843228, -0.0117851477, -0.1014164239, 0.2389772832, 0.0748457536, -0.1337548941, 0.1175090671, 0.1925272942, 0.1221599728, 0.2222834677, 0.0734497160, 0.2106889337, -0.1832780391, 0.0275164749, 0.1127405316, -0.2282734811, -0.2575942576, -0.0445209891, 0.0697518736, -0.0822041705, -0.0712957159, 0.0637928918, 0.1959323287, -0.0366770178, 0.1223972812, -0.1590808481, 0.2014219016, -0.0598308407, 0.0347712524, -0.0331079662, -0.1006072313, 0.2031040490, -0.0108438078, -0.0688027218, -0.0260063168, 0.0793386176, 0.1766193807, -0.1938944012, 0.0175212696, -0.0358398072, -0.2067167163, -0.1161384135, -0.0224727206, 0.1412964463, -0.1202909052, -0.0059065386, -0.1322434843, -0.0017055760, 0.0748291835, 0.2524377406, -0.1007987112, -0.1301818788, -0.2136884779, -0.0672705770, 0.1281712353, -0.1450359672, 0.0410819836, 0.1516613662, -0.1175584644, -0.0838360190, 0.0114447894, -0.0944926366, 0.1479172409, -0.1501806527, 0.1801522821, -0.2139384449, 0.1316501647, -0.0397536680, 0.0308669414, -0.1014348865, 0.2656823695, 0.1521893293, -0.0176236108, -0.0114943516, 0.0248987675, -0.0121966209, -0.0725957006, 0.1425180733, 0.1789616495, 0.0425399877, -0.2556820512, -0.0612086467, 0.2287552953, -0.0454099923, 0.0129704205, 0.0647005215, -0.2388754934, 0.0282563940, -0.1352974325, -0.0590708107, 0.0972109362, 0.2689012587, -0.0464814454, -0.1298498809, 0.1477936357, 0.2689103782, -0.1761671901, -0.2292733938, 0.0769451335, 0.0693618059, 0.1437159628, 0.0815971866, 0.1430528015, 0.0783864781, -0.0179832820, -0.1460628957, 0.1201494783, -0.1577177048, -0.0892497301, -0.0071997023, 0.0110416282, 0.0508948565, -0.0592151806, -0.0845908374, 0.1621255726, -0.2533904016, -0.1591804326, -0.0788021386, 0.1638677120, 0.1159381121, -0.1279395819, -0.0257146768, -0.0816997439, -0.1159218922, 0.2708098292, -0.2005718797, 0.0905804411, -0.1283601373, -0.1178953350, 0.0407035053, 0.0860597864, 0.0736092627, 0.0344556943, 0.1409671307, -0.0295646340, -0.1155927554, 0.0485268161, 0.0806591585, -0.0108162649, -0.0807443112, -0.0325007252, -0.2110395432, -0.1529496908, 0.0805505216, 0.1516990811, -0.0556228943, 0.1311203688, 0.0118866609, -0.0942145512, -0.1077757850, 0.0349454470, -0.1044501141, 0.1571534276, 0.1011153907, 0.0566802882, -0.0434709825, 0.0341515616, -0.1470990181, 0.1076578796, -0.1071223542, 0.1687758267, 0.0295124128, 0.0809071586, -0.1754403114, 0.0866613239, -0.1913650185, -0.0347363427, 0.1328702271, 0.1950237751, 0.2226586342, -0.2120428979, 0.2104841918, 0.0039551598, -0.0424490012, 0.0737222359, -0.0546188168, 0.1041215658, 0.0795714632, 0.0132507384, -0.1699607223, 0.0943385065, 0.1963898838, -0.0177586246, 0.0128561053, -0.0803809389, 0.1518447548, 0.0204620156, -0.0271124747, 0.1204440370, 0.0681005269, -0.1062883586, 0.1486642510, -0.1106048301, -0.0078315623, 0.0028041089, 0.0504892655, 0.0558842495, 0.1160776019, 0.0090625202, 0.1409299672, 0.0784504786, -0.0492497981, -0.1011929289, 0.0718011111, 0.0530578569, -0.0112314783, -0.0666532069, 0.1171756983, -0.0358472131, 0.1988201886, -0.0313972235, 0.0989438817, 0.0321038030, -0.1084178463, -0.0555543043, -0.0594749898, 0.0439653769, 0.0737631544, 0.1378272623, 0.0459016487, -0.1052695736, -0.1028900668, -0.2190170437, 0.0502165109, -0.0296713617, 0.1270459592, -0.0318260826, -0.1525717676, -0.1411043108, -0.0113005592, 0.1815711558, -0.0416706987, 0.1043028384, -0.0708882660, 0.1085880175, -0.0406111181, -0.2297976017, 0.0490144603, -0.0939102769, 0.0581366643, 0.0289994441, 0.0747654364, -0.0168822203, 0.0166009292, -0.1275262535, 0.0368337557, 0.1328134984, -0.0708372742, -0.0621671081, 0.0193169191, 0.1180352420, 0.0263428520, -0.0741217136, 0.0741481334, -0.0042450363, -0.0781884491, 0.0101079913, 0.0829235986, -0.0523636639, 0.1722002625, -0.0187434833, 0.2186154723, -0.0635491088, -0.0111366771, -0.1759454757, 0.2044770271, 0.0004375193, -0.0980557054, -0.0828745514, 0.0328262709, 0.2700651884, 0.0397736877, 0.1946743876, 0.1957290918, 0.0011007243, -0.1545792073, -0.1801097393, -0.2364741713, -0.2118744105, 0.0631490201, -0.0273499191, 0.0733453706, 0.0543877035, -0.0880899131, -0.1427375525, -0.1126952171, 0.1344278008, 0.1054204106, -0.1089290008, -0.0605229996, 0.1396381110, -0.2053010911, -0.0558556244, 0.0646569580, -0.0723860562, -0.1480298936, -0.0162469000, -0.1139594316, 0.0643853992, 0.1290189475, -0.1008784100, 0.0072516990, -0.0101998905, 0.0408446603, 0.0017484841, 0.1220763177, 0.1023617536, -0.2591431141, 0.1858859360, 0.1641482115, 0.1023550779, 0.0676932633, 0.0676298141, 0.1844769418, 0.0861172527, 0.0052386732, 0.0521496646, 0.1383559704, -0.1689312309, -0.1907637715, 0.0043860595, 0.0471512489, 0.1604462266, 0.0896442831, 0.2467963099, -0.0843139514, -0.0648591518, 0.1191155314, 0.0755399838, 0.0944478735, 0.1692343950, 0.1659196019, -0.0224366337, -0.1901633143, -0.1587878913, -0.0689648986, -0.0291471761, -0.0602033101, -0.0020446386, 0.0450217500, -0.0647597983, 0.1914290786, 0.1139805838, -0.0420460515, -0.0052348711, 0.1175230145, -0.0488712490, 0.1601528674, 0.2195735872, 0.0780122355, 0.0600920729, -0.0127427299, -0.0356094278, -0.1003333554, 0.0666761249, -0.0538422801, -0.0833726898, -0.0346035324, 0.0910572410, 0.0223047510, -0.0167299081, -0.2436430901, 0.0569589473, -0.0968019217, -0.0177634042, -0.0479704998, -0.0003840384, -0.0258879717, -0.2593620420, -0.1330681443, 0.0530983135, -0.1111474037, -0.0563257821, -0.1640288234, -0.2629491091, 0.0414776802, 0.0536735281, 0.0406783782, -0.1918317825, -0.2022481263, 0.0726703107, -0.0566653535, -0.0934294164, 0.1466921717, -0.1187936291, -0.1389539987, -0.1887379587, -0.0793623552, -0.0905492827, 0.1488106549, -0.1517772973, -0.0583157018, 0.0332497172, -0.0091780080, 0.1207244173, -0.0795744881, 0.0905202553, -0.1430376023, -0.0634325743, -0.1649597734, 0.1897475421, -0.0328015052, -0.1242807359, 0.0085161580, 0.0389509425, 0.0193765145, 0.0937565193, -0.0405924097, -0.0604023710, -0.0072593400, -0.0089726662, -0.0453290083, 0.1316101104, -0.1246001646, 0.2647163570, 0.0591642521, 0.0513033792, 0.0438610800, -0.0727750659, -0.0136611359, -0.0829225481, -0.0921497643, 0.0622866638, -0.1603572220, -0.1945191175, 0.0815933719, 0.0436127856, 0.0972141474, 0.0344123282, -0.1078177243, 0.0733767524, 0.0099724727, -0.1654033363, 0.1137185022, -0.1665695459, 0.0494190007, 0.0892821029, 0.0674780682, 0.0644708872, 0.0883624628, 0.0953262001, 0.1552709639, 0.2675127983, -0.0092153074, 0.0325544588, -0.2280364335, -0.0746442899, -0.0669692531, -0.0267038401, -0.1166938618, 0.1416644603, 0.0069536846, -0.0515134707, 0.0971433148, -0.2084534466, 0.1356811076, -0.0469042547, -0.1854034662, -0.0321782902, -0.0766181126, 0.0743520483, -0.0885436684, -0.0545443855, -0.0534673855, 0.1188382953, 0.1440466493, 0.0090490887, 0.0473222435, -0.1154532284, 0.1925690174, 0.0843266547, -0.1161701083, 0.0413215496, -0.1449914724, 0.1174386442, 0.0769812837, 0.1604919583, 0.1303731650, -0.0876722559, 0.0098634362, -0.0021053455, -0.0860670060, -0.1130372509, -0.1135588214, 0.0575980321, -0.1620964110, 0.0989295691, 0.0172204077, -0.0674377382, -0.0589117259, -0.0150641715, 0.1707674712, -0.1062039956, -0.0697656944, -0.0492488854, 0.0500999093, 0.0715335533, -0.0434030257, 0.0254415106, -0.1449135095, -0.1413409114, -0.1114392206, 