0.647180974483490, 0.743867456912994, 0.436301112174988, 1.308632016181946, 0.569695889949799, 0.362062513828278, 1.150831818580627, 0.896104514598846, 0.578074693679810, 0.593231976032257, 1.067934751510620, 0.607235074043274, 0.659842669963837, 0.822628378868103, 1.423194050788879, 1.017701983451843, 0.300783067941666, 0.503392875194550, 0.723225891590118, 0.619235873222351, 1.389430522918701, 0.662937641143799, 0.321048200130463, 1.123095631599426, 0.170031145215034, 1.171303272247314, 1.244413495063782, 1.111765623092651, 1.257718801498413, 0.892154335975647, 0.629940509796143, 0.948739767074585, 0.819336950778961, 1.236659526824951, 1.297794818878174, 0.953671336174011, 1.426958918571472, 1.093210935592651, 0.542912840843201, 1.046770215034485, 1.198928475379944, 1.417717337608337, 0.663833796977997, 1.088413476943970, 1.270710825920105, 1.359909057617188, 1.064917445182800, 0.766657292842865, 0.871459901332855, 0.640978097915649, 0.529458642005920, 0.949516713619232, 1.220603466033936, 1.003890156745911, 0.362513005733490, 0.053288076072931, 0.273643195629120, 1.363610863685608, 0.510909974575043, 0.413485616445541, 0.617516100406647, 0.373747706413269, 0.943139135837555, 0.701704859733582, -0.304903209209442, -0.173462659120560, -0.163071885704994, -0.368025779724121, -0.193458363413811, -0.450047582387924, -0.338065326213837, -0.531319856643677, -0.024181164801121, -0.328430086374283, -0.462639838457108, -0.250507771968842, -0.354082882404327, -0.317169040441513, -0.179977983236313, -0.383995085954666, -0.418096661567688, -0.187492266297340, -0.634483873844147, -0.374116450548172, -0.339212298393250, -0.235824882984161, -0.370800673961639, -0.129435718059540, 0.072922267019749, -0.515495955944061, -0.051823601126671, -0.097782395780087, -0.068022415041924, -0.276871532201767, -0.185006186366081, -0.156814962625504, -0.108948521316051, -0.255473077297211, -0.162404701113701, -0.392678707838058, -0.143749400973320, -0.231126829981804, -0.365450769662857, -0.111266940832138, -0.326433211565018, -0.111325547099113, 0.037914115935564, -0.292136609554291, -0.246428474783897, -0.178634807467461, -0.245446860790253, -0.227442294359207, -0.450200915336609, -0.236669689416885, -0.392836928367615, -0.320901483297348, -0.233183249831200, -0.176712229847908, -0.241318091750145, -0.176482394337654, -0.188222035765648, -0.303022563457489, -0.322573095560074, -0.229403704404831, -0.528845846652985, -0.035629484802485, -0.026666065678000, -0.332507938146591, 0.199347242712975, 0.080956250429153, 0.217126101255417, -0.084984645247459, 0.262573391199112, 0.092875771224499, 0.004490694496781, -0.076107569038868, -0.359561562538147, -0.108420513570309, -0.169325947761536, -0.134153664112091, -0.082182064652443, -0.235682442784309, 0.171088293194771, 0.220295175909996, 0.037557080388069, -0.031828347593546, -0.185912176966667, 0.165977224707603, -0.134894579648972, 0.392692267894745, 0.127061337232590, -0.115370757877827, -0.212817534804344, 0.157218530774117, 0.174942985177040, -0.003403132315725, 0.235167607665062, 0.339235812425613, 0.176551625132561, 0.010240721516311, 0.120513506233692, -0.109798707067966, -0.010415297932923, 0.018703537061810, -0.119678959250450, -0.102471373975277, 0.056108072400093, -0.107168763875961, 0.041357021778822, -0.036365356296301, -0.204962462186813, 0.177180811762810, 0.056717678904533, 0.179781809449196, -0.057073820382357, 0.093299195170403, -0.090081162750721, 0.022446807473898, 0.093767285346985, -0.007702169474214, 0.030288709327579, -0.192404821515083, 0.150817677378654, -0.253061115741730, -0.197327852249146, -0.019554633647203, -0.029164072126150, -0.080706030130386, -0.006246437784284, 0.273558020591736, -0.225444361567497, 0.168629303574562