//Numpy array shape [192]
//Min -2.368913650513
//Max 0.772496521473
//Number of zeros 0

#ifndef BR6_H_
#define BR6_H_

#ifndef __SYNTHESIS__
model_default_t br6[192];
#else
model_default_t br6[192] = {-1.516017436981201, 0.772496521472931, -1.180849194526672, -0.932657420635223, -0.154338598251343, -0.422487080097198, -1.048623800277710, -0.233117043972015, -2.368913650512695, -0.839568793773651, -0.502155065536499, 0.404344469308853, 0.244097888469696, -1.544914126396179, -1.572773694992065, 0.276933640241623, 0.524878144264221, -0.007334582041949, -1.225481390953064, -1.682315111160278, 0.413244903087616, -0.347271442413330, -0.232631057500839, -1.720697760581970, -0.641920506954193, 0.678735852241516, -0.528957009315491, -0.678649544715881, -0.814158856868744, -0.895360648632050, -0.899388372898102, -0.969315350055695, -1.046988964080811, 0.684238016605377, -0.163357034325600, 0.488330692052841, -0.344293951988220, -0.950346052646637, 0.202869608998299, -0.077234156429768, 0.745302319526672, -0.053215127438307, -0.945957720279694, -1.381343722343445, -0.181196823716164, -1.413225173950195, -1.174833416938782, 0.033693250268698, -1.178952455520630, -0.338104993104935, -0.190830349922180, -0.381641030311584, -0.974588572978973, 0.264593183994293, -0.505795598030090, -0.450032353401184, 0.539290070533752, -0.518094897270203, -0.789250493049622, 0.167229250073433, -0.813910543918610, -1.150679111480713, -0.843365430831909, 0.082749485969543, -0.496767729520798, 0.326416730880737, -0.544757187366486, -0.298209697008133, 0.124010853469372, -0.298905611038208, -0.363237828016281, -0.176598399877548, -0.280848532915115, -0.307013809680939, -0.036670342087746, 0.366899162530899, -0.026347968727350, -0.344272196292877, -0.153483495116234, 0.109232194721699, 0.509397387504578, 0.251666247844696, -0.253894209861755, -0.430778354406357, -0.153395771980286, -0.217643752694130, -0.033179800957441, 0.136020347476006, -0.377354055643082, 0.099952831864357, 0.354345113039017, -0.334410637617111, -0.433860182762146, -0.337285995483398, -0.148795619606972, -0.182698592543602, -0.431752830743790, -0.085119001567364, -0.402873039245605, -0.299085766077042, -0.589492857456207, -0.415873438119888, -0.003556705778465, -0.345425426959991, 0.165098771452904, 0.458281815052032, -0.382269114255905, -0.725354433059692, -0.246986523270607, -0.141250535845757, 0.180607527494431, -0.230056762695312, 0.172640964388847, 0.006348192226142, -0.218220159411430, -0.320447623729706, -0.256762415170670, -0.465837597846985, -0.097177691757679, -0.080187462270260, 0.113967642188072, -0.318848580121994, -0.435677975416183, 0.278590112924576, 0.147935122251511, -0.243857875466347, -0.089207686483860, 0.180065914988518, -0.197791755199432, 0.004882517270744, 0.306143194437027, -0.144115850329399, 0.026629352942109, -0.270057082176208, 0.062748000025749, 0.270654141902924, 0.363398700952530, 0.213876634836197, -0.238858759403229, -0.110518440604210, 0.155702233314514, -0.228058204054832, -0.196344256401062, 0.040826842188835, -0.480985373258591, -0.071007162332535, 0.259152054786682, 0.193529114127159, -0.039592966437340, -0.224551364779472, 0.300958663225174, 0.355579972267151, -0.199267029762268, -0.204338312149048, 0.031671714037657, -0.311737835407257, -0.138936072587967, -0.236476510763168, 0.200018167495728, -0.186385482549667, -0.027876399457455, 0.014611436054111, -0.256503880023956, -0.082563847303391, 0.224647358059883, 0.185324206948280, 0.041907444596291, -0.283962130546570, -0.399249523878098, 0.283581346273422, -0.319191604852676, -0.210479572415352, 0.179007247090340, 0.160449594259262, 0.023312835022807, -0.271643906831741, -0.288196057081223, 0.255859255790710, -0.195896282792091, -0.231838151812553, 0.233943432569504, -0.217402875423431, -0.109272755682468, 0.074236489832401, 0.164633423089981, -0.102934040129185, -0.216481328010559, 0.274990707635880, -0.074171230196953, -0.111268661916256, -0.081398181617260, 0.286695241928101};
#endif

#endif
