-0.0309013128, 0.0824948698, 0.0344474129, 0.0905708224, 0.0450389124, -0.0378617868, -0.0983630791, -0.0542089865, -0.0333424956, -0.0324028805, -0.1172516942, -0.0777154714, 0.0273118149, -0.0099681737, -0.0216418821, -0.0392709337, -0.0442161709, -0.0720814243, -0.0470663011, -0.0085113971, 0.1168216616, 0.0042586355, 0.0446717441, 0.0505213663, -0.1209744364, -0.0340100862, -0.0247791111, -0.0976081043, -0.0789456591, -0.0559297130, -0.0839035213, 0.0042725354, -0.0348575525, 0.1323724687, 0.0426107906, 0.0651674718, -0.0794515386, 0.1125549003, 0.0060724383, -0.0615131147, -0.0390638448, -0.0135209206, -0.0050337268, -0.0938813388, -0.0425590687, -0.1608209312, -0.0402912758, -0.0044739470, -0.0552956983, 0.0401150100, 0.0200425591, 0.1263692081, -0.1472193003, -0.0812209323, -0.0396328121, -0.0132291140, 0.0091374889, 0.0996087492, 0.0118197119, 0.0689767972, -0.0379258953, 0.1013294980, 0.0215973146, 0.0187284369, 0.0145769976, 0.0222136751, -0.0714756399, 0.1159461439, -0.0897562355, 0.2082959712, -0.0879110992, 0.0977737829, -0.0127521576, -0.1212008968, 0.0193324853, 0.0994223654, -0.0548079014, -0.0873705819, 0.0175548978, -0.0695859119, -0.0995520651, 0.0913534313, 0.0513893813, 0.0177539010, -0.0391773172, -0.0386692733, 0.0585474633, 0.1840767860, -0.0128540294, -0.0440107360, 0.0052957395, -0.0078181699, 0.0046927561, 0.0034275597, 0.0433700047, 0.0339383036, -0.0132981399, -0.0032036039, 0.0044208672, 0.1270785183, 0.0054857959, -0.0608731471, -0.0314226635, -0.0122462343, -0.0814572349, -0.1187823117, -0.0156654343, -0.1126858220, 0.0033553713, 0.1300494671, -0.0821121857, -0.0571037345, 0.1546050459, -0.0455000736, -0.0035665438, 0.0324394144, 0.0125791477, 0.0015873335, -0.0429921895, 0.1288808882, -0.1000362858, -0.0709524825, 0.0662155300, 0.0352881514, 0.1070909426, 0.0206043515, -0.1107311174, -0.0158515889, -0.0629025176, 0.0590734631, 0.0736491010, 0.0018330805, -0.2219336927, 0.1068015695, 0.0022236807, -0.0624017529, 0.0097502442, -0.0894190669, -0.0356339142, -0.0732989386, -0.0759351477, 0.0099762650, -0.0634739771, -0.0711911768, 0.0173385832, 0.0359159485, -0.0131226396, -0.0700296089, -0.1088020951, -0.0699889436, -0.0641848966, 0.0552041978, 0.1430151761, 0.1478859633, -0.0143071953, 0.0469056591, -0.0027833744, 0.0842508674, -0.0251682885, 0.0667016208, 0.0775816143, 0.0103412978, -0.0103591206, -0.0009472603, -0.0080596050, -0.0307594184, -0.0482450686, 0.1049434021, -0.0879000947, -0.0490914285, -0.0661768839, -0.0835247412, 0.0403846502, 0.0783044398, 0.0791803673, 0.0046259710, 0.1125906333, -0.0671923012, 0.1421246529, 0.0781492591, 0.0702632666, -0.0870380998, 0.0605267063, 0.0272324607, 0.0758692399, -0.0523533262, 0.0383687466, -0.1132031754, -0.0020309014, 0.0516153462, -0.0116344411, 0.0313999318, 0.0557224005, -0.0813130140, 0.1104995236, -0.0618172437, 0.1158210561, -0.0322497115, 0.0030008375, 0.0910423994, -0.0006189089, -0.1091099977, 0.0093412446, 0.0854609311, -0.0013007473, -0.0673635826, 0.0582367629, -0.0072473530, 0.0050153248, 0.0983674973, -0.0212557465, -0.0521386936, -0.1129440814, 0.0167455766, 0.0071109915, -0.0160399769, -0.0061177500, -0.0179368686, -0.0782254040, -0.0387490205, 0.0109196063, -0.0073766913, -0.0655214861, 0.1193282232, 0.0663335398, -0.0088411421, -0.0850554407, 0.0243568867, -0.0192480925, 0.0454293713, -0.0078953281, -0.0094574764, 0.1319004446, 0.0447205007, 0.0677992553, -0.1041394472, 0.1117849648, -0.0302786455, -0.0490583479, -0.0756502897, 0.0824649185, -0.1482829601, -0.0162716825, 0.1046954617, 0.0973841846, -0.0538546294, -0.0440638065, 0.0315829702, -0.0383609533, 0.0511073060, 0.2095315605, 0.0330348760, 0.1005283073, 0.1125773042, 0.0108369505, -0.0706257597, 0.0082989894, 0.0681237951, 0.0685600042, -0.0429368354, 0.0451320708, 0.0174569171, 0.0859810859, -0.0478267968, -0.0320113450, 0.0516626649, -0.0121326521, 0.0152337104, -0.0602466613, 0.0386733525, -0.0983667821, 0.0129349623, 0.0411903970, 0.0140935909, -0.0611472875, -0.0120779639, 0.0191668440, 0.0131536853, -0.0133314412, -0.0517767183, -0.0433698706, -0.1412695944, -0.0173197091, 0.0564870499, 0.0826836228, 0.0399556570, 0.0145204542, 0.0283078160, 0.0370771885, 0.0157059450, -0.0403272472, 0.0267119762, -0.0658958927, 0.0532134734, 0.2583528459, 0.0865610167, 0.0658256263, 0.0085254377, -0.0473982990, 0.0581776053, 0.0910384580, -0.0473551005, -0.0528500751, 0.0552674420, 0.0453435369, -0.1427274942, -0.0318992771, -0.0161046907, -0.0422771834, -0.0424222350, 0.0092971427, 0.0002487688, 0.0108013824, -0.0511677228, -0.0871232897, -0.0098790284, 0.0724899992, 0.0833878294, -0.0599031672, 0.1970508099, 0.0115092173, 0.1120056883, -0.1117982343, 0.0024322381, -0.0640762150, -0.0602665767, -0.0346928388, 0.0474381596, 0.0880455971, -0.0654811934, -0.1432874799, -0.0381875336, 0.0567027144, -0.0107469736, -0.0426839218, 0.1901247501, 0.0839527473, 0.0370023847, 0.0101128258, -0.0107531827, 0.0670104772, -0.0089693367, -0.1283724755, 0.1359753460, 0.1696684510, 0.0024978044, 0.0761421099, 0.0100971544, -0.1191866025, 0.1096287370, 0.1381264925, 0.0746375397, -0.0129422545, 0.1553881615, -0.0162076596, 0.1027458161, -0.0715594366, 0.0239134654, 0.0636566356, -0.0909309834, 0.0264116842, 0.0176579040, -0.0780253112, -0.0102260895, -0.0460734926, 0.0824538544, 0.0600515008, 0.0154444985, 0.0503871478, 0.0278820526, -0.0681758001, -0.0318199396, -0.0337058827, -0.0141372820, 0.0453534722, -0.0002157610, 0.0310569331, -0.1524491906, -0.0530684963, 0.0864034817, 0.0670690536, 0.0771403611, 0.0210543517, 0.0308145229, -0.0549516231, 0.0185937472, -0.0032370090, 0.0048327567, -0.0159363076, -0.0544904806, 0.0049795713, 0.0129772313, -0.1159801930, -0.0256468710, 0.1394118220, -0.0070021790, -0.0039593126, -0.1851711124, -0.0072383527, -0.0782419443, 0.0484074987, 0.0311566442, 0.0666308776, -0.1594346613, -0.1280337572, -0.0985943601, 0.0197327994, -0.0429752134, 0.0444199443, 0.0139929373, 0.0615404472, 0.1216286644, 0.0787206814, -0.1165262088, -0.0961189121, 0.0028582530, 0.0173290595, -0.0723718777, -0.0239816327, 0.0230671279, 0.0364779942, 0.0101528065, 0.0536518320, -0.0724133551, 0.0122894840, -0.1560225934, -0.1102483273, -0.0159887467, 0.0512660071, -0.0509146750, 0.0174684320, -0.0236062370, -0.0148335863, 0.0325476602, 0.0250441395, 0.0793187916, 0.1100258380, 0.0798949748, -0.0133899860, 0.0090517700, 0.0853022933, -0.0375615433, -0.0317942984, 0.0385749377, -0.0432020314, 0.0701632872, -0.1012568399, -0.0146784186, -0.0045776954, -0.0340230167, 0.0922226682, 0.0073232870, -0.0642586201, 0.1442280263, 0.0987211689, -0.0301432721, -0.1387666166, 0.0876643807, 0.1136834174, -0.0891018659, 0.0926071629, 0.0217621326, 0.0166130885, -0.0304000173, -0.0608580224, 0.0432321094, 0.0263733491, -0.1228686944, -0.0680513307, 0.0218288656, 0.0617444851, 0.0668716803, -0.1496590078, -0.0283711310, -0.0153496154, -0.0089890361, 0.0467018299, 0.0542991236, -0.0948519781, -0.0084090289, -0.1869639456, -0.0560057759, 0.1541345716, 0.1477373689, -0.0073842318, 0.0913461819, -0.0141371898, 0.0015029842, 0.0367949307, 0.0234241895, -0.0864870846, -0.0507424213, -0.0383207500, 0.0000210949, 0.0911360234, -0.1604405642, 0.0594949089, -0.0212671477, -0.0219497550, 0.0389077850, 0.1247230694, 0.0058304132, 0.0114802942, 0.0384125188, 0.0729203969, -0.0691259652, -0.0180280376, 0.0908812359, -0.1996245235, -0.0964703262, -0.0297000669, -0.0040792315, -0.0359362476, 0.1289494485, 0.0360858962, -0.0156782288, 0.0299765691, -0.0155890379, -0.0369366892, 0.0392360762, -0.0491123609, -0.0053539793, -0.0159784909, -0.0487445444, 0.0428444184, 0.0300528165, -0.0504801422, -0.0264474191, -0.1708793342, 0.0804563314, 0.0687572360, -0.0506941862, -0.0177598782, 0.0860513970, 0.1350850016, 0.0245840084, -0.0316144489, 0.0957626551, -0.0344238952, -0.0035316537, 0.0598177463, -0.0055805338, -0.0914578363, -0.1207088605, 0.0497003868, 0.0937903374, -0.0093634157, 0.0962039754, 0.0822939202, -0.0201655813, -0.0736134723, -0.0738900825, 0.0879572406, -0.0507286042, -0.0185221285, -0.0522107892, -0.0136659946, 0.0067525636, -0.1243709251, 0.1214576438, -0.0222028475, 0.0009834638, 0.0544935614, 0.0161389858, 0.1015584022, -0.0341551155, -0.0852678791, -0.0441638194, 0.0133287450, -0.0010293288, -0.0626449212, 0.0984906852, 0.0382482298, 0.0753461570, 0.0980129763, 0.0788499564, -0.1698631197, -0.0317581743, -0.0261516552, -0.0446634293, -0.0530035719, 0.0466551185, 0.1010954604, -0.1121952087, -0.0057422295, 0.0848787874, -0.0236143637, -0.0045018080, 0.0483448170, 0.0395561047, 0.1600984931, 0.0120512834, 0.0973858759, -0.0845416784, 0.2063621581, 0.0326928869, 0.0638705567, -0.0004296872, -0.0804593340, 0.0234922469, -0.0412365273, -0.0956638008, -0.0278874058, -0.1182594746, 0.0270956811, -0.0300714243, 0.0092658605, -0.1267700940, -0.0302364230, 0.0881155282, -0.0996052250, -0.0423076823, -0.0270070210, -0.0343072712, 0.0113191176, -0.0302031226, 0.0142372204, -0.0839017704, 0.0238355584, -0.0301888585, -0.0222125277, 0.1172227263, -0.0378339216, 0.0034129629, 0.0124066882, -0.0257271901, -0.0145975724, -0.0135901142, 0.0129491910, 0.0079646381, 0.0478443429, 0.0510043502, -0.0540064946, -0.0309279263, 0.0942455381, 0.0335754976, -0.0338282213, -0.0247527454, 0.0923597068, -0.0132066142, -0.0109988861, 0.0259664021, 0.0025106734, 0.0815682262, -0.0181695707, -0.0610281974, -0.0603299811, 0.0618127063, -0.1029684246, -0.0509917513, -0.0939011574, -0.0847318396, 0.2186922729, 0.0228571519, -0.0776849687, 0.0053474111, -0.0193032920, 0.1019398347, 0.0304009430, -0.0660848618, -0.1569444686, -0.0729101151, 0.0343028530, -0.1116786450, -0.0307416171, -0.0339159444, 0.0056168269, -0.0761096999, 0.0002845041, -0.0828573704, -0.0177478790, -0.0336944945, 0.0115728211, 0.0748956949, -0.1714837402, -0.1137882322, -0.0879302695, 0.0685875714, 0.0472595990, 0.0662327260, -0.0930086821, 0.0124239288, 0.0636033714, 0.0363066159, -0.0794513375, 0.1366208196, -0.1235979795, 0.0753856674, 0.1608023643, -0.0370614529, 0.0355901495, -0.0059489324, -0.0541656129, -0.1539482176, 0.0227526445, -0.0405670628, 0.0619369820, -0.1379492134, 0.1067739874, -0.0565230437, -0.1163571775, 0.0699446276, 0.0040382501, -0.0749344081, -0.0306986831, -0.0819637626, 0.0348990485, 0.1267428398, -0.0711279735, 0.1068335325, 0.0093555655, 0.0166167282, 0.1015811265, -0.0405613706, -0.0329387002, 0.1326600164, -0.0317780562, 0.0866542906, -0.0463234968, 0.0782748982, 0.0079149771, 0.0632828772, 0.0376655497, -0.0826390684, 0.0444978699, -0.0189039484, 0.0363690853, -0.0001922995, -0.0184106790, -0.0277096387, 0.0422609486, -0.0773722380, -0.0726959333, -0.0948199108, -0.0917467326, -0.1091086492, -0.0214028656, 0.0037279977, 0.1243347079, 0.0158094205, 0.0773517564, -0.0236310251, 0.0058946507, -0.0671384782, 0.0701054111, 0.0036870046, 0.0808951035, -0.0094958209, -0.0172128156, -0.0094115306, 0.0496062413, 0.1148956940, 0.0436637551, 0.0580432862, -0.0231592171, 0.1141078696, -0.0414840467, -0.1480697989, 0.0160152093, -0.0608097315, 0.0187400877, -0.0512920171, -0.0117544951, 0.0721531883, 0.0182122085, 0.1338571757, 0.0875531361, -0.0123796407, -0.0947510004, 0.0033232640, -0.1487870961, 0.0868989378, 0.0469799042, 0.0811741874, -0.0970422179, 0.0150268450, -0.0176772643, 0.1100529134, -0.0419517718, -0.0060904371, -0.1170450822, -0.0547100678, 0.0597191118, -0.0115736146, 0.0020115315, 0.0360173024, -0.0331577435, 0.0670229942, -0.0198775344, 0.0281188283, -0.0362579152, 0.0343693718, 0.0775639266, 0.0942803174, -0.0169228502, -0.0837016478, -0.0347234532, 0.0614788085, 0.0893230736, -0.0623956956, -0.0174291059, 0.0777750164, 0.0536306500, 0.0906808451, 0.1511006355, -0.0008569844, -0.0236334242, 0.0621970445, 0.0649815649, -0.1038654894, 0.0132746808, -0.0542255417, -0.0013531214, -0.0676788390, -0.0083119217, 0.0275638103, -0.0247946717, -0.0279729627, 0.0494143181, 0.0042643435, 0.1984319091, 0.0176928304, 0.1029045880, 0.1007975563, -0.0515010506, 0.0374836586, -0.0982497185, -0.0909735635, -0.0039455462, 0.0496097729, -0.0153156435, 0.1130434126, -0.0713194087, 0.0354987942, -0.0199951697, -0.0069597913, -0.0415488556, -0.0065213591, 0.0245943237, 0.1154548600, -0.0341596231, 0.0188018717, 0.0200753100, 0.0858369842, 0.1042667627, 0.0032158075, 0.0456048399, -0.0595055893, -0.1241714433, 0.0778361782, -0.0134313870, 0.0792512596, -0.0010423114, -0.0632658899, 0.0166830570, 0.0330504552, 0.0719980448, -0.0179970115, 0.1508633941, -0.0336612873, 0.1500699818, 0.1300041527, 0.0008153347, -0.0108362855, -0.0860881060, -0.0470893681, 0.0464143641, -0.0215976983, 0.0049571618, 0.0349951982, 0.0355231836, 0.0779423341, -0.0104322936, 0.0184539426, 0.1252944916, 0.1291704178, -0.0928876847, 0.1372762620, -0.1344163716, -0.0104099046, -0.0383880697, -0.1618698388, -0.0071166786, -0.1134196967, -0.0413373634, 0.0018711751, 0.0925579518, 0.0224169511, -0.1123508513, 0.1302007586, 0.1046324447, 0.0342131406, -0.0720268041, 0.0075803474, -0.0335256793, -0.1315981001, 0.0565314852, 0.0359458029, -0.0656365007, 0.0151834423, 0.1157057807, -0.1047628298, 0.0357861966, 0.0779744759, -0.0626060590, -0.0084861685, 0.0185135864, -0.0635670871, 0.0758700520, 0.1023840383, 0.0745883211, 0.0799375325, -0.1010651141, 0.0716815516, -0.0882998258, 0.0503548831, 0.0138167907, -0.0278660953, -0.1329936087, 0.0379316546, -0.0045885760, -0.0796251446, -0.0124677494, 0.1173727512, -0.0504848734, 0.0875295028, -0.0728137717, 0.0630181730, 0.0031490279, 0.0507172793, -0.0174881369, 0.0783579424, -0.0378004946, 0.0883409977, 0.0247172937, 0.0608632937, 0.1609036773, 0.0955237001, -0.1283259094, 0.0592855141, -0.0855145082, 0.0051886337, 0.0316461660, 0.0416629128, 0.0186977126, -0.1553251594, 0.0317445286, -0.0812889785, 0.0434000194, 0.0427223258, 0.0995348766, 0.0010611825, -0.0610650480, 0.0765900761, 0.0981653929, -0.0055187289, -0.0564851686, -0.0313199125, -0.0362772122, 0.0319698118, -0.0030056089, 0.0451529883, -0.0107326498, -0.0743607953, 0.0319409557, -0.0305161476, 0.0463659838, 0.0029122690, 0.1517280042, -0.1844636500, -0.0090497686, -0.0292823520, -0.0283333883, 0.1331032217, -0.0567450039, 0.0701351762, -0.0920430645, 0.1013283283, 0.0694412440, -0.0890341550, -0.1248663813, -0.0281974226, -0.1415407956, -0.0286801476, 0.0915226564, -0.0681811869, 0.0255081709, -0.0739786103, -0.0156283490, -0.0182370357, -0.0640504435, 0.0487591401, -0.0102095790, 0.0181116071, 0.0945148319, 0.0283035096, -0.0613550581, 0.1022751927, -0.1482286304, 0.0027429690, 0.0389479659, 0.0760449246, -0.0927348733, 0.1017197296, -0.0037767249, -0.1049679816, -0.0845519453, -0.0384168252, -0.1170099601, -0.1142311618, -0.0160924271, -0.0776996538, -0.1419888884, -0.0140911844, -0.0161102638, 0.0031887728, -0.1080822349, -0.0798626617, -0.0429817922, 0.0263403449, -0.0983397439, 0.2242409289, -0.0484214574, 0.1073327214, 0.0409467332, 0.0563224442, 0.0763411075, 0.0095875561, -0.1768578589, -0.0759847537, 0.0723787174, -0.0432591140, -0.0177776422, -0.0786230341, 0.0910336599, 0.0150134638, -0.0333088413, 0.0903685689, -0.0642281622, 0.0528243594, 0.0384264290, 0.0140633620, 0.0306271613, 0.0204068366, -0.0078082629, -0.0723504573, 0.0361184962, -0.0048259697, 0.0578899905, 0.0203475915, -0.0369861573, -0.1496195197, 0.0020300434, 0.0577432886, -0.1560544819, -0.0717467442, -0.0011133829, 0.0435375050, 0.0420901366, -0.0196997300, -0.0254040584, -0.0075755799, -0.0814945549, -0.0359068662, -0.1016146988, 0.1975368559, 0.0707180947, -0.0198230725, -0.0622744709, 0.0333940312, 0.0699467510, -0.0060604662, -0.0917877182, -0.0401069447, 0.1356274337, 0.0812110081, -0.0049406448, -0.0787249282, -0.0475407578, 0.0763837546, 0.0137578808, -0.0232080407, -0.0218613092, 0.0229878239, -0.0829351097, 0.0254555196, -0.0120550850, -0.0750012621, -0.0912768319, -0.1366706640, -0.0138892746, -0.0333029404, 0.0150949480, -0.0617216267, -0.0007381644, 0.0193182360, 0.0949414298, 0.0170543604, -0.0071105822, -0.0735446885, -0.0056214603, 0.0391615257, -0.0247847140, 0.0361092910, 0.0424155034, -0.0572467074, -0.0481725372, -0.0321727805, 0.0744305253, -0.0421502776, 0.0463647619, 0.0117882770, 0.1181823537, -0.0498539656, -0.0793721229, -0.0235220436, -0.0656567067, -0.1066529155, 0.0231661331, 0.0215435587, 0.1770714819, 0.0385081396, -0.0691213608, 0.0272073857, 0.0834438801, -0.0511952490, 0.0431503803, 0.0742673874, 0.1018124074, -0.1128655449, 0.0657975674, 0.0345298909, 0.0090393964, 0.1177309006, 0.0954510346, -0.0322685316, 0.0087025156, -0.0074526463, 0.0116790747, -0.0567147471, -0.0140397847, 0.1341742575, 0.0469837934, 0.0415080413, -0.1127860025, 0.0506269000, 0.0037242323, 0.0064299391, -0.0171704590, 0.0935457870, 0.0578786060, 0.0008785643, 0.1253887713, 0.0646761358, -0.0129578942, 0.0325695686, 0.0352023840, 0.0404514149, -0.0650187731, -0.0425800085, 0.0502711907, -0.1403440982, -0.0055027660, 0.0101077287, -0.0404997170, -0.0576692857, -0.0281566903, 0.0518609881, 0.0311503261, -0.1180353686, 0.0020617847, 0.0081735803, -0.0485917553, -0.0319841132, 0.0223998539, 0.0277543943, 0.0518150404, -0.1708926708, -0.0189350694, 0.0782046840, -0.0247637536, -0.0945562199, 0.0779347345, -0.0192873105, 0.0394356772, 0.0519750081, 0.0041836845, 0.0082247397, -0.1186661571, -0.0159074832, 0.0464648679, -0.1327097714, 0.0694872439, -0.0237157382, 0.1055513471, 0.0201189127, 0.0526426136, -0.0313783474, 0.0291255787, -0.1113509610, -0.1544499546, -0.0440597758, 0.0215896796, -0.0329519249, 0.0514292940, 0.0199666843, -0.0467095822, 0.0032052919, -0.0080069415, 0.0871793181, 0.0483102128, -0.0210535415, -0.0183093585, -0.0727228373, 0.0434310064, 0.0387006141, -0.0425980650, 0.0716401413, -0.0534013622, -0.0411003716, -0.0643700063, -0.1307910830, -0.0667329729, 0.0409792289, 0.0100365151, 0.0933086723, 0.0778828785, -0.1235716492, 0.0944228694, 0.0113045797, -0.0135369599, -0.0014470853, 0.0082811937, -0.1477073580, 0.1278731227, 0.1686353385, 0.0601116978, -0.0365549698, -0.1148927808, 0.0953662917, 0.0680844486, -0.0861089826, 0.0525385663, 0.0074133733, 0.0283555482, 0.0765044987, -0.0750102028, -0.0338339731, -0.0101666525, 0.0061320490, -0.0576462708, -0.0110734366, 0.0428453125, -0.0770879090, 0.0258484520, -0.1016266942, -0.0242492370, -0.0635536537, 0.0029274118, -0.0416710936, 0.0623024441, 0.0791499391, 0.1058220118, -0.0323012248, 0.0332343690, -0.0376157984, -0.2285236418, -0.0171270426, 0.0887373909, 0.0642346814, -0.0509620234, -0.1073780954, -0.0118675809, 0.1671697348, -0.0185032506, -0.0458400920, 0.0613547824, 0.0912977159, -0.0057566985, 0.0202604681, 0.0339193568, 0.0277286246, -0.1246723533, 0.0157386195, 0.0487142354, -0.0090564247, -0.0519190840, -0.0229782481, -0.0498828739, -0.0372846089, -0.0368741229, 0.0157105140, 0.0639696643, -0.0153794978, -0.0540013984, 0.0274763256, 0.0380153880, 0.0596529730, 0.0289541967, -0.0890882090, -0.1709566414, -0.0709690377, 0.0461527929, 0.0753590465, 0.0680979937, -0.0729877204, 0.0781226233, -0.0144968480, 0.0937359035, -0.1102159917, -0.1091789976, -0.0712975115, -0.0252951235, -0.1197615787, 0.0957058966, 0.0502599515, 0.0779533014, 0.0446828380, 0.0989883691, -0.1181982830, -0.0178429261, -0.1573576629, 0.0497045480, 0.0349509045, -0.0742481127, 0.0213410668, 0.0032845866, 0.1454851329, -0.0950739533, -0.1129081696, 0.0866566002, 0.0317658857, -0.0421311930, 0.0299743749, 0.0963623673, -0.0925555453, 0.0244542435, 0.0801151097, -0.0669574514, -0.0765797421, 0.0027230377, 0.1363849044, -0.0268289968, -0.1265932471, -0.0121873803, -0.0511195660, -0.0017198310, -0.1304714680, -0.0901973024, -0.0776445270, -0.0265695695, -0.0853617191, -0.0168980490, 0.0168182049, -0.1049791723, 0.0095700184, -0.0934039652, -0.0146617070, -0.0350050107, -0.0752624124, 0.0915890783, 0.1062343493, -0.0179298893, -0.0027803751, -0.1061324924, -0.0889318287, -0.0686999783, 0.0412835032, -0.0623813830, -0.1059500724, 0.0752202421, -0.0048267092, -0.0666618496, -0.0566206351, 0.0546566844, 0.0719877258, -0.0201135371, -0.0680765435, 0.1070981771, -0.0192214213, -0.1639159620, -0.0641660765, 0.0020371620, 0.0189328846, 0.0808494836, 0.0178567059, -0.0763268471, -0.0305677541, -0.1892849654, 0.0757094547, 0.0622492060, -0.0943856239, -0.0499995276, -0.0288874917, -0.0897643119, -0.0616987757, 0.0105143115, -0.0643991083, -0.1019600779, 0.0217307471, -0.0930512249, 0.0291779637, -0.0657784417, -0.0566686206, 0.0094345203, 0.0637079105, -0.1346704513, -0.0996640176, 0.0345340036, -0.1260857135, 0.0033899918, 0.0761461928, 0.0342819504, 0.0503241085, -0.0221409276, -0.1292602718, -0.0664211661, 0.0738986135, -0.1383467615, 0.0077996496, -0.0053858049, 0.0626098141, -0.0338097811, -0.0019886242, -0.0743091032, 0.0088749090, 0.0192312077, -0.0330279171, 0.0556200966, -0.1193780899, -0.0332192965, -0.0356827006, 0.0092649348, 0.1399005800, 0.0915209949, 0.1079659760, -0.0032065720, -0.0728120357, 0.0414245985, 0.1440479904, -0.0523195192, -0.1240990236, -0.0673419312, 0.1272338778, 0.0296594240, -0.0017724996, 0.1311471015, -0.0608670563, -0.0362729244, 0.0029069670, -0.1041584536, -0.0387488678, -0.1176609695, -0.0886865929, 0.0101538114, 0.0224348679, 0.0444352105, -0.0045928778, -0.0148123093, -0.0391065590, -0.1245999634, -0.0188626908, -0.0105735669, -0.0275447220, -0.0823966861, -0.0052510798, 0.0995890945, 0.0882280096, -0.0793518722, 0.0027966024, 0.0010482778, 0.1346151829, -0.0751863793, -0.0702947676, -0.0111376867, -0.0759579688, 0.0692133754, -0.0405025035, -0.0276027117, -0.0245172344, 0.0294493027, 0.0176889487, 0.1042689458, 0.0283748433, 0.0262953453, -0.0340308435, 0.0393839180, -0.0333543643, -0.0553642139, -0.0255034994, 0.0187907740, -0.0461917594, 0.0467194878, 0.0414952226, 0.0061642891, -0.0560042486, 0.0852608234, -0.0561868772, 0.0623914227, 0.0279631615, 0.0623066165, 0.0361621156, -0.0983215272, -0.0118617611, -0.0165318362, -0.0038477816, 0.2275216579, -0.0200775675, 0.0417342372, 0.0653186813, -0.0874392986, 0.0166129302, 0.0515625291, -0.0130445315, 0.0158221554, -0.0033960887, -0.1979693174, -0.0603245571, 0.1872379780, -0.0556222945, 0.0574529991, -0.0532464981, -0.0239259638, -0.0075363070, 0.0614837110, -0.0364229605, 0.0817832574, 0.0959049091, -0.0132007468, -0.0330734849, -0.0218341071, -0.1412652284, 0.0174935870, 0.0190883242, -0.1596700400, 0.0559203438, -0.0280968733, 0.0261934046, 0.0077523459, -0.0693068579, -0.0313893370, 0.0146310516, 0.0681489110, 0.0068944534, -0.0153322220, -0.1419646591, -0.0967618078, -0.1342768818, -0.0328527614, -0.0252512880, 0.0686221123, -0.0230086353, -0.0221897755, -0.0048455251, -0.0445231125, 0.0657304376, -0.1089387909, 0.0802514777, -0.0019115997, 0.0061896937, -0.0251561180, -0.0234760903, -0.0706804246, 0.0579019487, -0.0455212891, -0.0287298039, -0.0325771943, -0.0865891427, -0.1203194186, 0.0395963341, -0.0171640664, 0.1260616779, 0.0903531760, -0.0836730748, 0.0150803849, -0.0235477220, 0.0729141086, 0.0658766627, 0.0485632159, -0.0515142232, 0.0693217814, -0.0774874464, -0.0480263457, 0.0236635059, -0.0670209602, -0.0341202170, 0.0034232847, 0.1432721168, -0.0383224115, -0.0283342525, 0.0087106554, -0.0631804839, 0.0831784457, 0.1021682248, -0.1173148379, -0.0108432844, 0.0491506420, 0.1872578263, 0.0749672279, -0.0013797310, -0.0385160074, -0.1191811189, -0.0619755462, 0.0531991869, 0.1102460250, 0.0066745868, -0.1132145450, -0.0197945088, -0.0273730177, -0.0066951732, 0.0394379422, -0.1054191664, -0.0011484595, 0.0196037348, -0.1274863780, 0.0641571432, -0.1007884890, 0.0539980941, 0.0340671688, 0.0991810784, -0.2211894244, 0.0147725884, 0.0763180703, 0.1034521535, -0.0349449553, 0.0564980730, 0.0248206332, 0.0100011546, 0.1044500992, 0.0943072960, -0.0253848545, -0.0753406212, 0.0097297933, -0.0384836569, -0.1223105863, -0.0000747237, 0.1657421440, 0.0821015984, 0.0352688134, -0.0895508379, -0.0608324111, 0.1544966698, -0.0599088781, -0.0333827585, -0.0826966614, -0.1276689470, -0.0403469168, 0.0736053661, 0.0671341270, 0.0424993858, 0.0860398263, 0.0014275583, 0.1438347101, 0.1105423570, 0.0086389780, -0.0442415252, -0.0690198019, -0.0124396635, -0.0994474888, -0.0690970644, -0.0151588060, 0.0664849803, 0.0150486864, -0.0217911098, 0.0678369403, 0.0510350317, -0.0185028389, -0.0491774380, 0.0370502844, 0.0005105911, 0.0293627419, 0.0426093191, 0.0381550044, 0.0697191134, -0.0151288211, 0.0763560310, -0.0323017761, -0.0077643404, 0.0397138409, -0.0449877232, 0.1053237170, 0.0004673371, -0.1231938526, 0.0328980088, 0.0469878726, 0.0939140171, 0.0583395064, 0.0456260480, 0.0152381733, -0.1012883559, 0.0185319036, 0.0691140145, -0.0058953529, -0.0621146522, -0.0801080540, 0.0016095918, -0.0656530038, 0.0467795692, 0.0718433037, 0.0076823351, -0.0186179299, -0.0148591958, 0.0418165401, -0.0520243719, -0.0817837641, 0.1640435755, -0.0514817089, -0.1200803444, 0.1276070476, -0.0861998424, -0.0583247617, -0.0503914468, -0.1075041369, 0.0347807743, -0.1727882773, 0.0495339297, 0.0386127159, 0.0418340079, -0.1481673717, 0.0038821893, -0.0803792402, -0.0078017274, -0.0207845103, -0.1562530249, -0.0189795587, -0.0120618585, 0.0626173913, -0.0201416388, -0.0576303378, 0.0077599795, 0.0472719111, 0.0132214138, 0.0418373346, 0.0997437835, -0.0132487416, 0.0167673267, 0.1534516662, 0.0547412634, 0.0683272108, -0.1054278389, 0.0510822833, 0.0485893451, 0.0623014979, -0.1136142686, 0.0410347059, -0.0471986458, 0.1537293345, 0.0373308733, -0.0416010842, -0.0116728088, -0.0275293700, -0.0338692665, 0.1623242348, -0.1637788266, 0.1012936234, -0.0231479295, 0.0655429587, 0.0926081166, 0.0592333600, 0.2408718765, 0.0372824036, 0.0301756207, -0.0473058894, -0.0214390084, -0.0277281385, 0.1148284227, 0.1260662675, -0.1492576897, -0.0696691051, 0.0692205057, 0.0444485173, -0.0099118054, -0.0479634926, -0.1062089950, 0.0436301753, -0.0284499787, -0.0181024615, 0.0864783823, 0.0511770844, -0.1413723081, -0.0136437230, 0.0213130768, -0.1001164094, -0.1098183766, 0.0784642026, 0.0221988186, -0.0501401201, 0.0567283258, 0.0943449065, -0.0044291578, -0.0139384735, -0.0225472115, 0.0717573240, 0.0380868539, -0.0344739966, 0.0024864636, 0.0625899658, -0.0581345558, 0.0306408852, -0.0492317118, 0.0450846031, 0.0682274327, -0.0899965167, 0.1550478786, 0.0464726575, 0.0251815300, -0.0275151320, 0.0351255164, -0.0533863381, -0.0170012340, 0.0666200891, -0.0199337620, -0.1335336715, 0.1050420254, -0.0726236403, -0.0037222719, -0.0461816974, 0.0965329036, -0.0326543339, 0.0712860227, 0.0512910001, 0.1408922970, -0.0883909762, 0.0767528191, 0.1325278133, 0.0848220661, -0.0592823923, 0.1044404209, 0.0080689192, -0.0476259701, -0.0122562405, -0.0329541601, 0.1387753934, -0.0972999781, 0.0902289227, -0.0912928805, 0.0262729265, 0.0184509158, -0.0384529866, 0.0249505993, 0.1163878590, -0.0350715071, 0.0842652097, -0.0296701714, 0.0322228000, 0.0146357436, 0.0172297601, 0.0264430419, -0.0760308355, -0.1167586297, 0.0759043247, 0.0353398100, 0.0566134229, -0.0321371853, -0.0720681921, -0.0649972558, -0.0438639745, 0.0159214363, 0.0116045829, -0.0432017967, 0.1203767359, -0.0580144264, 0.0824033991, 0.0345315598, 0.0274260417, 0.0915597677, 0.0694035962, -0.0605925992, -0.0468111373, 0.0190850049, 0.1053767279, 0.0615139194, -0.0406683125, 0.0473593101, 0.0648945719, 0.0852679014, 0.0734850317, 0.1843551546, -0.0086949226, 0.1021493003, 0.0172881037, 0.0158021543, -0.0030100404, 0.0329825990, -0.0170779917, -0.0267015137, -0.1198782697, 0.0797644928, -0.0133639034, -0.1352216154, -0.0410249904, 0.0188349430, -0.1018281430, -0.0549646877, 0.0273844525, -0.0612795576, 0.0470498316, -0.0571952127, -0.0135477800, -0.1188524365, 0.0177759193, 0.0904108658, 0.0417183861, -0.0306035057, 0.0028113723, -0.0503035933, -0.0496515818, -0.0038934536, 0.0399383008, -0.0201710574, 0.0062937997, -0.0960220993, 0.0280581675, 0.0149484202, 0.0392830111, 0.1470731944, -0.0371387787, -0.0605184585, -0.0018529557, -0.0620614216, -0.1155059040, 0.0327956490, 0.0697092265, -0.0120878713, 0.0512995385, 0.0969932079, -0.0335967094, -0.1358220577, -0.0018098131, -0.0740506053, 0.0657321215, -0.0261572488, -0.0542869903, -0.0344216265, 0.1477365941, -0.1045909226, 0.0293179043, -0.0032575815, 0.0644459352, 0.0543477535, 0.0188786983, -0.0281848628, 0.0795463920, -0.0394088216, -0.0388072580, 0.0459197834, -0.0550129004, 0.0060914867, -0.0881679133, -0.0875279307, 0.0442121774, 0.0600505136, 0.0631207824, -0.0237422455, 0.0005679652, 0.0273806248, 0.0937393531, 0.3146817684, -0.0024348900, -0.0054427013, -0.1409694403, -0.0328188427, 0.0160588436, 0.0279930681, 0.1018609703, 0.0046047196, 0.0634660646, -0.1219097599, -0.0004485188, -0.0341378301, 0.0074632848, 0.0211786795, 0.0094356220, 0.1009200364, 0.0195416473, -0.0036535636, 0.0166643411, -0.0425719693, 0.1337051392, -0.1261359453, 0.0127146235, 0.0722031072, 0.0426465385, -0.0850153565, 0.0087939762, -0.0131468112, -0.1255704761, -0.0144592039, -0.0135929361, 0.0384518467, 0.0649037808, -0.0363494121, -0.0810952634, -0.0052645728, 0.1371521950, -0.0458413251, 0.0847268030, 0.0557495132, 0.0203338433, 0.0101125576, -0.0280151777, -0.0060737096, 0.0738899931, -0.0632262081, 0.1236784831, -0.0415258482, -0.1782642901, 0.0146235805, -0.1169157028, -0.0340812132, -0.0168495104, -0.0509104505, -0.0640966520, -0.0321407169, -0.0739533454, 0.0187605526, 0.1345646232, -0.0244626794, 0.0288703907, 0.0260390919, 0.0573605523, -0.0875898376, -0.0159597658, -0.0018315681, 0.0379750431, 0.0704234391, -0.0517425500, -0.0011258237, -0.0367720127, -0.0501330197, -0.1022655889, -0.0623116195, -0.0549147651, 0.0369072407, 0.0761553869, -0.0427864343, -0.0728481859, -0.0556034446, 0.0717278868, -0.0658968836, -0.0692242533, -0.0266714506, -0.0425962657, 0.0444875360, -0.0340083241, 0.0220234469, 0.0978204012, -0.1204274446, 0.1654966921, -0.0379354656, 0.0591713525, 0.0202388633, -0.0294498149, 0.0379932225, 0.1388381571, -0.1041051894, -0.1366787851, 0.0877882317, 0.0177282020, 0.0214570612, 0.0929781869, -0.1272682846, 0.0377618372, -0.0973156914, 0.1135044917, -0.0211695731, 0.0149470251, -0.0933163017, -0.1482290328, -0.0325667858, -0.0396072641, 0.0042193886, 0.0751647279, 0.0528322496, 0.0383361056, -0.1332346648, -0.0298997704, -0.0668753013, 0.0996843576, -0.0730436817, -0.0360031798, -0.0032981457, 0.0898890197, -0.0015107710, -0.0754581764, 0.0391238928, -0.0121118389, 0.0401731618, 0.0291261338, 0.0819885433, -0.0786608160, 0.0976250619, -0.0494684130, -0.0661437958, 0.0870360956, -0.1648823321, 0.1046615243, -0.0367721543, -0.0896587744, 0.0206897054, 0.0864409506, 0.0732292980, -0.0103985816, 0.0109730382, -0.0831486583, 0.0662968755, -0.0291619245, 0.0146157779, 0.0061277710, 0.0340531245, 0.0471708514, 0.0192795917, 0.0965929404, -0.0304198414, -0.0099041481, -0.0205637142, -0.0185168013, -0.0957058370, -0.1318033487, 0.0806408748, 0.0733598471, 0.0684939623, 0.0162659567, 0.1370197535, 0.0421826877, 0.0474455319, 0.0695343688, 0.0548176467, -0.1111725345, 0.0968061760, 0.0953450948, 0.0626113415, 0.0503556058, -0.0146633163, 0.0153307058, 0.0120637268, 0.0739991218, 0.1317150295, 0.0112599451, 0.1834596992, 0.0372630060, -0.0129541764, 0.0664109439, 0.1172014400, 0.1273640096, -0.0080256462, -0.0398079716, 0.0251775477, 0.0377867296, -0.0469188243, -0.0984466448, -0.0534007400, 0.1454323828, 0.0261124745, 0.0148070389, 0.0182458330, 0.0222859904, 0.0269641634, 0.0243905019, -0.0959713906, 0.0182991810, 0.0085755028, -0.0190455895, -0.1097060889, 0.0195615832, 0.0148380389, -0.0371165723, -0.0070763156, -0.0073690610, -0.0386860371, -0.0608813018, -0.0425482318, -0.0021051145, -0.0338303857, 0.1296144724, -0.0065867370, 0.0432777405, -0.0107029639, -0.0015132064, -0.0191593766, 0.0867361426, 0.0877574384, -0.1625753939, 0.0449713394, 0.0346156769, 0.0832671225, 0.1431916952, -0.0842120349, 0.1276003122, -0.0141326785, -0.0230752546, -0.0986385569, -0.0438602045, 0.1161493212, 0.0465983301, -0.1435257941, -0.0142588494, -0.0974981040, 0.0401240997, 0.1420630217, -0.0424697436, -0.0659223646, -0.1329291314, -0.0190034974, -0.0624980517, -0.0083716605, 0.0638695657, -0.0427010916, -0.0552268028, 0.0928068608, -0.0990155563, -0.0551613867, -0.0182209108, -0.0205484759, -0.0066549694, 0.0707786530, 0.0131425951, -0.0034136139, -0.0907845348, -0.1809957623, 0.0295909047, -0.0576800071, -0.0550048612, 0.0582169667, 0.0398944244, -0.0178908966, 0.0397662446, -0.0082556624, -0.0399794728, 0.0226069260, -0.0928874910, 0.1060000658, -0.0665854216, 0.0498604514, 0.0499776900, -0.0083731804, -0.0742683187, -0.0113196513, 0.0744988993, -0.0886462182, 0.1078536287, -0.0002094605, -0.0144384289, -0.0938592404, -0.1081244573, 0.0080330204, -0.0106553761, 0.0256766155, 0.0313733816, 0.0463325679, 0.0203708746, -0.0040065609, -0.0321174823, -0.1023321301, 0.0921085998, 0.0154359518, 0.0562095866, 0.0243928805, 0.0086895302, 0.0736800283, 0.0491120070, 0.0225536991, 0.0046349410, 0.0888756216, 0.0151874246, -0.0893926546, -0.0491983667, 0.0060704648, 0.0873656571, 0.0451499522, -0.0418524183, -0.0110267261, 0.0381112657, 0.0478743240, 0.0441392250, -0.0972949639, 0.1024874076, 0.0261933673, 0.1091479808, 0.1547090113, 0.1378421783, -0.0869191065, -0.0900274366, -0.0162710305, -0.0070172683, 0.1117259860, -0.0346367098, -0.0511960611, -0.0590463802, 0.0216912497, 0.0850330964, 0.1045522764, -0.1372024417, -0.1099656001, 0.1190583706, -0.0087948199, -0.1261697859, -0.0373051055, -0.0957108289, -0.0519212559, 0.1129274219, -0.1347828507, 0.0183103271, 0.0614007339, 0.1071119308, -0.0961995721, 0.0352169722, -0.0045257462, -0.0731921941, 0.0267458521, -0.1058111116, -0.1827404797, -0.0025280132, -0.0812532380, -0.0029267380, 0.1152917892, -0.0171154737, -0.0085491147, -0.1347010285, 0.0832326710, 0.0239539780, -0.0394824743, 0.0031738216, -0.0234662350, 0.0464955121, 0.0312510170, 0.0348058492, 0.0498081595, 0.1970639974, -0.0345421769, -0.0756098479, -0.0266006812, 0.0100858910, 0.0715734065, -0.0283380449, 0.1073689461, -0.0108716451, -0.1127973869, 0.0457930751, 0.0907872319, 0.1002110019, 0.0149271414, -0.0493683182, -0.0364114270, -0.0815161094, -0.0534627661, -0.0546686463, 0.0569874458, -0.1121051610, -0.0438382775, 0.0243244711, -0.0426729284, 0.0095499400, -0.0222249962, -0.0253260769, 0.1135723963, -0.0467972979, 0.0010855850, 0.0663193017, -0.0425880104, 0.0622350201, -0.0213266723, -0.0162539035, 0.0022961050, 0.0693067312, -0.0289927870, 0.0525915921, -0.0177946445, 0.0436401591, -0.0564536862, 0.0052387640, 0.1397092938, 0.0493234396, -0.0486954488, -0.0010372922, 0.0033237841, -0.0322001427, 0.0059230663, -0.0010744091, 0.1511537880, 0.0394282527, -0.0533261374, 0.0712459311, 0.1021048874, -0.0744197220, 0.0084901303, 0.0050988626, 0.0463918969, 0.0844380409, 0.0078972559, 0.1361198425, 0.0379929580, 0.1032306030, -0.0229740962, 0.1708181053, 0.1856400073, 0.0508997850, -0.1035022661, -0.0126792453, -0.1284474432, 0.0559308976, 0.1631785333, -0.0955059826, -0.0011181217, 0.0722492710, 0.0515587144, 0.0014166832, 0.0654884204, -0.0710923448, -0.0164831467, -0.0762735754, -0.0876912922, -0.1208099499, -0.1040702090, 0.0222245436, -0.0791065693, -0.0226836167, -0.0347111076, 0.0761945844, 0.0933333263, 0.0605335161, -0.1814295650, 0.0914960653, -0.0358875990, 0.0143593829, 0.0080236960, -0.0683138072, -0.0147970999, -0.0851222873, -0.0445774198, -0.0062906686, 0.0066826381, 0.0715384111, 0.0666855127, 0.0050995536, -0.0041270321, -0.1237374544, 0.0302318595, 0.0217144042, -0.0459305048, -0.0159194171, 0.1734182239, 0.0250323098, -0.0033633746, -0.0683030635, 0.0581091903, -0.0727646723, -0.0528388247, -0.0927402899, -0.0921211615, -0.0320086107, -0.1282567382, 0.0257344004, 0.0423583090, -0.0692852661, -0.0391004384, -0.0494782478, -0.1045504808, 0.0885408223, -0.0238496661, 0.0036461111, -0.0126000531, 0.0509956367, 0.0790061802, 0.0013584029, 0.0684410930, 0.0381256826, 0.0766275302, -0.0929339528, 0.0381190702, 0.0026881290, -0.1164112538, 0.0174230449, -0.0153609496, 0.0597452000, 0.1467320770, 0.0491591878, 0.1092761606, 0.0175474286, 0.1060288027, -0.0670095384, -0.0313673168, 0.0140908575, 0.0180326737, -0.0409060344, -0.0054347557, 0.0894890130, -0.1503531188, 0.0902827904, 0.0237577632, 0.0860806108, 0.0370909944, 0.1149029806, -0.0289494805, 0.0289154388, 0.0564628616, 0.0199471153, 0.0331108309, 0.0304495096, -0.0763004348, 0.0747016743, 0.0735042021, 0.0702751279, 0.1091810539, 0.0451337546, -0.0723556504, 0.0319957137, -0.0572548285, 0.0316559933, -0.1213158369, -0.0796622783, -0.0078599090, 0.0691476911, -0.0056667151, 0.0783324465, -0.0811695978, -0.0318139903, 0.0137874484, -0.0742774829, 0.0464916527, -0.0392718166, 0.0169100575, -0.0147030260, 0.0539359413, 0.0393629968, 0.0258221850, 0.0088118063, -0.0092418715, 0.0638286993, 0.0319701508, -0.1489124894, 0.0250960700, 0.0405092686, 0.0284272395, 0.0676027983, -0.0132443346, -0.0848716497, 0.2643375993, 0.0421330854, -0.0114823245, -0.0201848876, 0.0032455530, -0.0066070380, -0.0007753856, -0.0223404579, 0.1736240089, 0.0357098021, 0.1110318154, -0.0925626755, -0.1072960794, 0.0942211747, 0.0481158160, -0.0968424678, 0.0629197955, 0.1432858855, -0.0562902316, 0.0073535442, 0.0542720146, -0.0831575841, 0.1670692414, -0.1414262652, -0.1230649576, 0.0961052701, -0.0759624690, -0.1109732836, 0.0191716589, -0.0610091910, 0.0144730527, 0.0879180506, -0.0770523995, 0.0019990038, -0.0877307057, 0.0773938969, -0.0015136763, 0.1461590081, -0.0195369590, -0.0093004182, -0.0844909474, 0.0736219659, 0.1095510945, -0.0217560045, -0.0828785151, -0.0263497774, -0.0371843353, 0.0420800708, 0.0656853244, -0.0169294104, -0.0417006947, -0.1382031292, -0.0139396694, 0.1222415492, -0.0208769087, 0.0500471555, 0.0648910850, -0.0434934199, 0.0194180831, 0.0692766756, -0.0368173793, 0.0456708446, 0.0814464763, 0.0982922465, 0.0267957523, 0.0367954858, -0.0784639865, -0.0422801189, -0.0394710302, -0.0010940861, -0.0319188386, 0.0727803782, -0.0314597636, -0.0789336935, 0.0320897289, -0.1193692535, 0.0712499544, 0.0420630127, 0.0858834386, -0.1926124990, 0.0081446813, -0.0075631835, -0.1310142130, -0.0989350155, 0.0449538678, 0.0632930547, 0.1420467943, 0.0065258397, 0.0360527858, 0.1029183567, 0.0137217361, -0.0297405589, 0.0818909407, -0.0267346930, -0.0159789789, -0.0612662882, -0.0377731845, 0.0579943545, -0.0514540970, 0.0375692621, 0.0465352237, 0.0105788298, -0.0795364976, -0.0957691446, -0.1087727472, -0.0535247773, 0.0484637804, 0.0831632540, -0.0094140675, 0.0973152220, -0.1135220602, -0.1083998382, -0.0890488550, -0.0980969071, -0.0069350596, -0.0369698219, 0.0680298507, -0.0276820399, -0.0598085150, -0.0330276377, 0.1400079876, 0.0095144268, 0.0271882061, -0.0874899104, 0.1289633811, -0.0261392519, 0.0134859569, 0.0264806561, -0.0422819816, 0.0128034912, -0.0547133461, -0.0702432096, 0.0616797395, 0.0043485183, -0.0358999744, -0.0054806489, -0.0998644978, -0.0303957332, -0.0093328441, 0.0158698522, -0.0597381592, 0.0535018966, -0.0931783170, -0.0812032893, 0.0179390796, 0.0119330697, 0.1508563459, 0.0115962150, 0.0625323728, 0.0231749490, -0.0004444958, 0.0563707389, 0.0815694332, -0.0702178776, 0.0089192567, 0.1035476029, 0.0382188149, -0.0417119004, 0.0085068829, 0.0357118323, -0.0068873782, 0.0514327027, -0.0291887112, 0.0695404336, 0.0479144417, -0.0724980831, 0.0970691592, 0.1549488306, -0.0374015048, 0.0854809135, 0.0519491583, -0.0848051831, 0.1019274220, 0.0575008057, -0.0275898539, -0.0170319378, 0.0726435184, 0.0576232076, -0.1298288554, -0.0977650210, 0.0088309385, 0.0657061934, 0.0852975100, 0.0040945234, -0.0151883746, -0.0054934835, 0.0549176745, 0.0084216101, 0.0381177217, 0.0515552573, 0.2253662050, 0.0116308741, -0.0068257377, 0.0072369478, 0.0332841352, 0.1351081729, 0.0068691419, 0.1066615656, -0.1407704502, -0.0183618516, -0.0169032812, 0.0516358986, 0.0058375411, 0.0148139820, -0.0466526300, -0.0467649028, -0.0450808853, 0.0782898143, -0.1282570958, -0.0507047698, 0.0803433880, -0.0571754798, -0.0606164038, 0.0117548667, -0.2194410264, 0.1319570094, -0.1474191695, 0.0182246007, 0.1551872939, 0.0056571960, -0.0570991188, 0.0219217539, 0.0302434564, -0.0412674509, 0.0041708248, 0.0499939844, -0.0592124872, -0.1107346565, 0.0414113626, 0.0785575509, -0.1514149308, -0.0688249320, -0.0680834875, -0.0796499476, 0.1743796468, 0.0059930356, -0.0027658988, 0.1267082095, -0.0451899394, 0.0078043132, 0.0175269060, 0.0300961062, -0.2733579576, -0.0551161617, -0.0026545506, -0.0569934994, -0.0298490599, 0.0331081748, -0.0233288836, 0.0412073396, 0.0936327279, 0.0775117129, 0.0571664348, 0.0274217837, 0.0294348225, 0.0780223981, 0.0043919515, 0.0330188945, 0.0323733017, -0.0256446451, 0.0584011599, 0.0445783399, 0.0336767361, 0.1039307490, -0.0036271922, 0.0322831422, 0.0155296475, -0.0789542496, -0.0415147953, 0.0286226738, 0.0472493134, -0.0121378396, -0.0676365718, -0.0027964488, -0.0959048867, 0.0594550520, -0.0221261643, 0.0630781800, 0.0578261390, -0.0673588663, 0.1023988798, -0.0661553890, -0.1068781242, -0.0434302911, 0.0602507219, -0.0030765636, 0.0392718278, 0.0976482481, 0.1446051449, 0.0244490318, 0.0867041051, 0.1144986451, 0.0515803806, -0.0510050952, -0.0380964205, 0.0632156879, 0.1017739847, 0.0149367042, 0.0175176654, -0.0047346819, 0.0079051945, -0.0733335316, -0.1003335267, -0.0956611112, -0.0711620674, 0.1431680173, 0.0258632507, 0.0209507123, 0.0131898867, -0.0952520370, -0.0887581706, 0.0206415690, 0.0427377969, -0.0351821892, 0.0639462322, 0.0107804816, 0.0344308577, 0.0747018978, 0.0471920669, 0.0184794832, -0.0298580434, -0.0228034630, -0.0244812351, 0.0194844306, 0.0355065614, -0.0720647797, 0.0308240689, 0.1389033645, 0.0663178936, 0.1296871156, -0.0048733093, 0.0216285698, -0.0104909521, -0.0099601485, 0.0250862092, -0.0305432435, -0.0215532295, -0.1138977483, -0.0295398422, -0.0444018021, -0.0460166819, -0.0842463821, -0.0810946897, -0.0772758797, -0.0446993634, 0.1956139058, 0.0842356607, 0.0774419829, -0.0398881175, -0.0611288622, 0.0291616321, 0.0367349274, 0.1138646528, -0.0670334175, -0.0539799631, 0.0129035385, -0.0629356727, -0.0373443142, -0.0325498581, 0.0551650077, 0.0897138864, -0.0205987431, -0.0345424227, -0.0204507709, 0.0679268539, -0.0028037252, -0.0503185689, 0.0689215064, -0.0535307936, 0.0763893947, 0.1259129941, 0.0422627330, 0.0272885934, -0.1023050174, -0.1022006646, -0.1109477729, 0.0139888506, 0.0007303947, -0.0752915516, 0.1328951120, 0.0383269563, -0.0129589150, 0.1331667304, -0.0685351267, 0.0702175796, 0.0190255605, -0.0262573883, -0.0438726023, 0.0081224740, 0.0228669606, -0.0092340112, -0.0113166962, 0.0632356480, -0.0208518207, -0.0169444550, -0.2062020898, -0.0486937203, 0.0027638655, 0.1288076490, 0.1501644701, 0.1202250570, 0.0217977241, -0.0225277785, 0.0569028445, -0.0468477048, 0.0653334409, -0.0247875899, 0.0237351861, 0.0199014675, 0.1384689808, -0.0211542416, -0.0588056669, -0.0267085936, 0.1310828477, -0.0405745730, -0.0773877800, 0.0567608103, 0.0619540066, -0.0618432872, 0.0068726018, 0.0074122213, -0.1378856897, 0.0642175153, -0.0459193178, -0.0632066876, -0.0545945577, 0.0195765272, 0.0142662469, -0.0623182245, 0.0829379782, 0.0631456077, 0.0174284354, 0.0596498884, 0.0208284594, -0.0462094024, 0.0221916102, -0.1223457903, -0.0908255875, 0.0599272773, -0.0383037776, -0.0813618302, -0.0646501407, 0.0150850564, -0.0763763115, -0.0343990475, 0.0469263084, -0.0585134551, -0.0492357574, 0.0237042271, -0.0064918734, 0.0065290984, 0.0286375806, 0.0551761165, -0.0086110104, -0.0223797001, -0.0324971490, 0.0113344863, 0.0148419868, -0.0848458633, -0.1439256519, -0.0545181669, -0.0390420742, 0.0080993902, 0.0053281076, -0.0368013009, -0.0520980470, 0.0497877300, 0.0812613964, 0.0542066991, -0.0215828400, 0.0157830473, 0.1209583655, 0.0567906834, 0.0558929108, -0.1212621331, 0.0978686437, -0.1108397618, 0.0433960333, -0.0002723665, 0.0627997145, 0.1071028709, -0.0281144511, 0.0486195907, -0.0237953737, -0.0710901842, 0.0469130054, 0.0788484514, -0.0038770940, 0.0397320017, -0.0962781757, 0.0471084267, -0.0557335243, -0.1922090054, -0.0956681520, -0.0306861717, 0.0201610122, -0.0195379723, 0.0367754102, 0.0399703644, 0.0596335530, -0.1212704629, -0.1103675887, 0.0667379051, 0.0105817225, -0.0980642214, -0.1529475003, -0.0992219672, -0.0216191169, 0.1079456732, -0.0596006997, -0.0124972817, 0.0046924949, -0.0382144749, 0.0576068163, 0.0914233625, -0.0134112397, 0.0233311877, -0.1536979973, -0.0016729571, -0.0426510796, -0.1214480698, 0.0130954199, 0.1950788498, -0.0362499580, -0.1892965287, -0.0154016428, -0.0006159907, -0.0475409515, -0.0072370237, 0.0546948127, 0.0413531736, 0.0490574166, 0.1372592002, 0.0117082186, 0.1185274944, -0.0920393765, 0.0243619494, 0.0162503757, -0.0084643448, 0.0034446549, -0.0547587499, -0.1163407043, 0.0515900627, -0.0015204856, 0.1377619952, 0.0005865404, 0.0163447484, 0.0590071119, 0.0600080267, -0.0758961812, -0.0885314047, -0.0859755278, -0.0985287949, 0.0507417619, -0.1099701673, -0.0951642543, -0.0857849717, -0.0455258787, 0.0578893088, 0.0130023081, -0.0198879000, 0.0284327921, -0.1100131646, -0.0246597864, 0.0116086081, 0.1247253120, -0.0879557580, -0.0328300633, -0.0391786881, 0.0788989589, -0.0636232942, 0.0646019429, 0.0015309975, -0.0646569356, 0.0467373021, -0.0735218674, 0.0100347213, 0.0492521115, -0.0959401950, -0.0741107166, 0.0291824788, 0.0591434240, -0.0500454158, -0.1337218285, -0.0220687483, -0.0733140483, 0.0152882580, -0.0172306839, -0.0323674344, 0.0307985991, -0.0051821880, -0.0111682341, -0.0231237728, 0.0115513047, 0.1410638839, 0.0664877594, -0.0232351962, 0.0088938065, 0.1967626065, -0.0135011636, 0.0110894479, 0.0739393830, -0.1252477765, 0.1211999357, -0.1097692251, 0.0134216994, -0.0682793632, 0.0600845814, -0.0076350113, -0.0072185248, -0.0873740092, 0.0161439441, -0.0420475155, -0.0067486539, -0.0726951882, -0.0948797762, -0.0898887515, 0.0799787417, -0.0026425496, 0.0045429207, 0.1035264954, 0.0395045765, 0.1714476347, -0.0258201137, -0.1416876316, 0.0629461408, 0.0755092129, 0.0252795108, -0.0100682490, 0.0261611752, -0.0938695297, 0.0018449752, -0.0180160850, 0.0351492241, 0.1876956075, 0.0232837908, -0.0829556584, 0.0968412235, 0.0170556922, 0.1444318593, -0.0293505788, -0.0970576406, 0.0206099171, -0.0320046283, 0.0175688434, -0.2189234644, 0.1421220899, -0.0020955652, -0.0001702234, 0.1262307912, 0.0910568908, 0.0101759229, 0.0298242718, -0.0594150275, 0.0415020809, 0.1330791563, 0.1247627959, -0.0505884849, -0.0151515352, -0.1447452009, 0.0662866682, 0.0034836791, 0.0812485516, -0.0270782150, -0.1138704270, -0.0221109651, -0.0304693952, -0.1248950660, -0.0234294664, -0.0099299178, 0.0174699351, 0.0611965209, 0.0490915962, 0.0741306841, 0.0109149311, -0.0022928207, -0.1108836532, 0.0159505792, 0.1193214357, -0.0230246130, 0.0844662637, 0.0478691570, -0.0227021798, -0.0332807377, 0.0556799099, -0.0063583879, -0.0724156946, -0.0189678781, 0.0023083510, -0.0978580192, -0.1018753722, -0.0261737872, -0.0420493819, 0.0583001524, -0.0717400163, 0.0558286607, 0.0128825158, -0.0191493258, 0.0723601952, -0.0780762807, 0.0013482766, 0.0907139257, 0.0640714914, -0.0512944870, 0.0666627735, -0.0221879985, 0.0041419696, 0.0876953751, -0.1261804402, 0.0330187306, -0.0066072950, 0.0407353789, 0.0374498889, 0.1048174053, 0.0651187897, -0.0176499505, 0.0920074955, -0.1088204011, -0.0073410869, 0.0329174846, 0.0869258270, -0.0108916201, 0.0260933619, -0.0039969487, 0.1368498653, -0.1317076087, -0.0073285894, 0.1113551259, -0.1271318644, -0.0133742038, 0.0725164190, 0.0011583520, 0.0903338939, -0.2120445073, 0.0821651220, 0.0106420787, -0.0431845449, -0.0524391681, -0.0720861107, -0.0685464814, -0.0709540173, -0.0046688300, 0.0315263569, -0.1004992053, 0.0589563847, -0.0272400174, -0.0643511415, -0.0874090940, -0.0579670593, -0.1282473207, 0.1153378934, 0.0058124848, 0.0030689836, 0.0597272739, -0.0579676479, 0.0471589267, -0.0630339608, 0.0480692945, 0.0227833912, -0.1151995063, -0.0271057338, -0.0393205397, 0.0427437797, 0.0744005293, 0.1002771705, -0.0009718128, -0.0244452208, 0.0152738951, -0.1478055716, -0.0691968799, -0.0002749814, 0.0547914319, -0.0042952159, 0.0094544077, 0.0796742439, 0.1129728332, -0.0741082355, 0.0542818643, 0.1413163096, -0.0012324005, -0.0196612775, -0.1101327166, -0.0037236298, -0.0033693495, 0.0604091510, 0.1371023357, 0.0438575968, -0.0980214104, -0.0215254631, -0.0537759289, 0.0168781355, 0.1011665240, 0.0074829552, 0.0262354687, -0.0962935984, 0.0591012426, -0.1504947841, -0.0385373160, 0.1639421582, 0.0449269190, 0.0112460703, -0.0657070875, 0.0100047197, -0.1370111406, 0.0402979478, 0.0553615801, -0.0053552287, -0.1328145564, 0.0454608425, 0.0198022760, -0.0534163527, 0.0424595959, -0.1686267853, 0.0096302964, -0.0593593009, 0.0480261408, 0.0735706016, -0.1319827288, -0.0180121176, -0.0112341587, -0.1165946275, -0.0934690759, -0.0348343700, 0.1557577699, 0.0684659928, -0.0115111237, 0.1287774295, -0.1552920192, 0.0532507636, -0.0628545657, 0.1213183999, -0.1052666306, -0.0289367530, 0.0426435508, -0.0589089319, -0.0613783374, -0.0659726113, -0.0483767986, -0.1221864745, 0.0737854689, 0.0891808867, -0.1196411997, -0.1033573151, 0.0789414495, 0.0230397508, 0.0796865821, -0.0477288403, 0.0915547609, 0.0485821515, 0.0142903142, -0.1114004403, -0.0226385854, -0.0088823438, 0.0307586789, 0.0511160865, -0.0487632491, -0.0293367356, 0.1230942383, 0.0462363623, 0.0486710109, -0.0317796618, -0.0215211324, -0.0032560434, 0.0572028980, -0.0258256532, 0.0444444939, 0.0563911647, 0.0626572818, -0.0672748014, 0.0469936989, 0.1026148126, 0.0839649141, -0.1037304029, -0.0551541857, -0.0114397686, -0.0544883758, 0.0773277059, 0.0291318819, 0.1040893644, -0.0933140442, 0.0112411166, -0.0918297023, 0.1075956151, 0.0179055445, -0.0743632540, -0.0188506171, -0.0660619512, 0.0331068411, -0.1179361492, 0.0436365120, -0.0147437714, -0.0709740743, -0.0310762171, -0.0622634701, 0.0755811632, 0.0800211132, 0.0462230481, -0.0313878059, -0.0278632715, 0.0357381962, 0.0178030878, -0.0300415140, -0.0251537934, 0.0260022506, 0.0076691303, -0.0573383905, -0.0077530253, -0.0332118906, -0.0694150999, -0.0322156735, -0.0265925862, 0.0228583682, 0.0238414370, -0.1120593622, -0.0826622620, -0.0729907975, 0.0304361284, -0.0475343280, 0.0225909390, 0.0933453292, -0.0376649946, 0.0126455296, 0.1013811678, -0.0748520568, -0.0324841887, -0.0221418850, -0.0256285537, 0.0551608503, 0.0491021164, 0.0905443728, -0.0978259072, 0.0420541540, 0.1011177450, -0.0159312431, 0.0332803056, -0.1185874492, 0.0941998139, -0.0037705898, 0.0325075760, -0.0176704489, -0.0179922506, -0.0347722620, -0.0235044155, -0.1001806408, 0.0372266918, 0.0983057395, 0.0325865485, -0.0427567884, 0.0125587052, -0.1148875803, 0.0120961294, -0.0796859339, -0.0748947039, 0.0026845653, 0.0840104744, 0.0114256609, -0.1135811433, -0.0267989896, -0.0070833741, -0.1672323942, -0.0203682631, 0.0903230906, -0.0346240662, -0.0638832301, -0.0579635240, 0.1295290440, 0.0262495875, -0.0914855897, -0.0016375184, 0.0498348996, -0.0229952447, -0.0344263427, 0.0359655470, 0.0758308098, 0.0351581015, -0.0331085026, 0.0002398118, 0.0281731915, -0.0692371130, -0.0235445984, 0.1390306503, 0.0508105755, 0.0604127496, 0.0575625077, -0.0051930798, -0.0087626241, -0.0191005245, -0.0928401202, 0.0062285960, -0.1523869038, -0.0998486280, -0.1060565487, 0.0088918516, 0.0084582698, 0.0891187936, 0.1055765525, 0.0762548894, -0.0390989184, 0.0431053638, -0.0263910964, -0.0574266389, -0.1185845137, -0.1397843510, 0.0861234665, -0.0537104420, 0.0241961442, 0.0504084378, -0.0727889910, 0.0346682481, 0.0848827511, -0.0144194588, -0.0152266566, 0.0230570547, 0.0272192620, 0.0012357915, -0.0666895434, -0.0291507374, -0.0707408786, -0.0316470787, -0.0251764711, -0.0181993973, -0.0533169918, 0.0439474173, -0.0772580355, -0.2181775421, 0.0751164407, -0.0293400567, 0.0445114635, 0.0044228546, 0.0371686779, 0.0219618250, 0.0104828589, 0.0258303080, 0.0555082224, 0.0324868783, -0.0918221921, 0.1508971155, 0.1370153874, 0.0596048832, -0.0884760320, 0.0207517166, -0.0914543122, -0.0788561627, -0.0501761325, -0.0282371417, -0.0144187352, -0.0176492240, -0.0979229733, 0.1604768932, 0.0031153141, 0.1242735162, 0.1096763238, 0.0082711913, -0.0774651021, -0.0794247910, 0.0102841593, -0.0697321296, -0.0399706364, 0.0636223331, 0.0435592569, 0.0626003742, 0.0417052135, 0.1664803177, 0.1153267175, 0.0654428154, 0.1419342905, -0.1863439083, 0.0425701067, 0.0478152484, -0.1197632030, -0.0710407645, -0.0303750709, -0.0309357364, 0.0426725037, -0.0200645160, 0.0728639811, 0.0895042866, 0.1217608601, -0.1065795422, 0.0036354815, -0.0756164119, -0.0382671542, 0.1363877207, -0.0528467745, 0.0992716402, 0.1580684483, -0.1176727265, 0.0476765782, -0.1099571809, 0.0656711161, -0.0257939752, 0.0189343654, -0.0399593413, -0.0290961582, -0.1228230447, 0.0365061946, 0.0416181609, -0.0612935275, 0.0314518474, 0.0420154482, 0.0207435265, -0.0827573836, -0.0113189332, -0.0523698777, -0.0169134550, -0.0213218741, -0.0652828366, -0.0303161219, -0.0174431596, 0.0487755388, -0.0266679786, -0.0000916766, -0.1100504696, -0.0038083196, 0.0366095118, -0.0879335403, -0.0780553743, -0.0124973962, -0.0094411355, 0.0399931222, 0.0350197814, -0.0540375113, -0.0496142246, 0.1054485738, -0.0797804072, -0.1460451037, 0.0125275645, -0.1240722686, -0.1078312993, -0.0578443781, 0.0658664703, 0.0268265046, -0.0215192344, -0.1122841313, -0.1033090651, -0.1453372538, 0.1490887403, 0.0133529752, -0.0377378576, 0.0640546829, -0.1001159772, 0.0058767307, -0.0073331222, -0.0545605794, 0.0153414346, -0.0728688315, -0.0835258514, -0.0350919068, 0.0280992668, 0.1702250391, -0.0688365549, 0.0209070761, -0.0131812766, 0.0586927012, 0.1466671824, 0.0397992656, -0.0479114987, -0.0087683257, -0.1063523740, 0.0182817616, -0.0389369614, -0.1154319271, -0.0329097025, 0.1103227586, 0.1102565974, -0.0818966925, 0.0532284528, -0.0315446071, -0.0063048173, -0.0234367978, 0.0424251854, -0.0095598064, -0.1218402982, -0.0133890789, 0.0165622719, -0.0098026469, -0.0422681347, -0.0478733964, 0.1018906012, -0.0542199574, 0.0111278556, 0.0175715350, -0.0329460576, -0.0177243836, 0.0703599676, 0.0294637121, 0.0427855365, -0.0506163947, -0.0243105572, 0.0134011414, 0.0230981465, -0.0314755701, 0.0161090307, 0.0353617817, -0.0409630015, 0.0532504395, -0.0269229151, 0.0340912454, -0.0456751883, 0.0630675033, 0.0143406056, 0.0776926875, -0.0147410035, 0.0465831906, 0.0487017781, 0.0531261861, 0.1010660753, 0.0151994089, 0.0801175460, 0.1127932668, -0.0129494891, 0.1360103339, 0.0077614523, 0.0475276783, -0.0442598909, 0.0301342271, -0.0812779441, 0.1084593683, -0.0126332566, -0.0465668216, 0.0655565932, -0.0899965093, -0.1400742829, 0.0554708689, 0.0265243128, 0.0382184237, 0.0189127605, 0.0749470294, -0.0531704798, -0.0789387450, 0.0487962365, -0.0762746111, -0.0051862081, -0.0052204765, -0.1442210674, -0.0590804182, -0.0555448532, -0.0845920965, -0.0225524008, 0.0373658389, 0.1117599085, -0.0337069072, -0.0303113684, 0.1458932608, -0.0749581531, 0.0814251080, 0.0201335791, 0.0242679715, 0.0534914993, -0.0207711440, -0.0841064975, -0.1013717726, -0.1487081051, 0.0059921443, 0.0516534224, 0.1490459442, -0.0672844648, -0.1216039062, 0.1465177089, 0.0728624165, -0.1095368788, 0.0426760204, -0.0436606482, 0.0015696231, 0.0665140748, 0.0052875057, -0.1315263957, 0.0352152660, -0.0260592774, 0.0813901424, 0.0420832708, 0.1017088369, 0.1835217774, 0.0688350871, 0.0762744769, 0.0297304485, 0.0534466878, -0.0148148648, 0.0003334638, 0.0121433958, 0.0493048020, 0.1164067015, -0.0591061860, -0.0622493476, 0.0159618706, 0.0643474162, 0.0491300970, 0.0393719152, 0.1110614464, -0.1286274195, 0.1723293066, -0.1280990690, -0.0056772102, -0.0265717097, -0.0194531400, -0.0601119064, 0.1013204008, 0.0628075451, -0.0130640790, -0.0030951360, 0.1208726913, -0.0153918900, -0.0724176168, 0.0573104024, -0.0472444259, -0.0600754991, -0.0956963375, 0.0677716732, 0.0189480651, 0.0212187618, 0.0190558638, -0.0437388942, -0.0479617119, -0.0794513673, 0.0256841108, 0.0320626199, 0.1538668871, 0.0053149723, 0.0749576837, 0.0075443406, -0.0617607012, -0.1641643345, 0.0264028609, 0.0220916271, -0.0472684316, 0.1845780015, -0.0799399987, -0.0841054618, -0.0849096924, -0.0900816619, -0.1041519791, 0.0196398683, -0.0098447884, 0.0273209177, 0.0173973665, 0.1427757144, 0.0562519170, -0.0738980100, -0.0656055510, 0.0832219794, 0.0813698322, 0.0056733764, -0.0400478914, -0.0418066159, 0.0090124570, 0.0546007417, 0.0011198535, -0.0279002506, 0.0756611824, -0.0623813644, 0.0658546984, -0.0635733753, 0.0737093538, -0.0361971855, 0.0893909112, -0.1158156097, 0.0295487791, 0.0684157088, 0.0823211372, -0.0778872296, -0.1509332061, -0.0699178651, 0.0586864911, -0.0709583536, -0.0733488202, 0.0931289345, 0.1051313952, 0.0112457359, 0.0194196738, 0.0242504105, 0.0149600171, -0.0396181121, 0.0670544207, 0.0468765274, -0.0088100284, 0.0365982540, 0.0575492755, 0.1133777127, -0.0239544865, 0.0241054837, 0.0493871830, -0.1397359967, 0.0578434169, 0.0399483666, -0.0330353528, -0.0330311880, -0.0373862050, 0.0345229208, -0.1304395497, 0.0143389553, 0.0290439688, 0.0608315840, -0.0109076202, -0.1222229749, 0.0213685073, 0.1348112226, -0.0172692109, -0.0770079121, 0.0229788907, -0.0333501585, 0.0248422474, 0.0156079261, 0.1389942467, 0.0034681843, 0.0563883297, 0.0098477099, -0.0163839478, 0.0647573546, 0.1221290305, -0.0368974879, 0.0347163118, -0.0807164311, 0.0601487011, -0.0151521470, 0.0002574269, 0.0835106745, -0.0422491841, -0.0477496162, -0.1006708890, 0.0347528756, -0.0452917628, -0.0441103876, -0.0287933201, -0.0565267503, 0.0576265194, 0.0647373870, -0.0277927574, -0.0534244925, 0.0198753718, -0.0557393804, -0.0375736207, 0.0286936648, 0.0910341442, 0.0689246356, -0.0183080956, -0.0542988591, -0.1020346954, -0.0393899716, -0.0256709680, 0.0916105732, 0.1166908816, 0.0372016579, -0.0994790196, 0.1104320660, -0.0110155120, 0.0619237348, -0.1088216975, -0.0315109491, -0.1255105734, 0.2141351849, -0.1004621685, 0.1710743755, -0.0127492407, -0.1309088767, 0.0420152955, -0.0607551113, -0.0079757059, -0.0749230161, 0.0744111612, 0.0326937884, -0.0019633854, 0.0470384061, -0.0084696598, -0.0642136931, -0.1416821480, -0.0334382653, 0.0924170911, 0.0214399323, 0.0657727197, -0.0992094502, -0.1167862043, 0.0211033132, -0.0298049189, 0.0284439810, -0.1519619673, -0.0997778773, -0.1300656348, -0.0137418620, 0.0425501242, 0.0576700978, -0.0395367816, -0.0530844703, 0.0822250843, -0.1138400510, 0.0338720754, -0.0810984820, 0.0579738244, 0.0487270728, -0.0307952203, -0.0625038892, -0.0005273051, -0.0416067429, -0.1540090740, -0.0234635249, -0.0346632786, -0.0587826483, 0.0032156175, -0.0692596063, -0.0422255509, -0.0551184490, 0.0509545580, 0.0917899013, -0.0149380090, -0.0258975029, -0.0389627665, 0.1213796884, -0.0354963094, 0.0925267413, 0.0440067314, 0.0750333965, 0.0193337426, 0.0944919065, 0.0824142620, -0.0931591615, 0.0076623503, -0.0604733452, -0.0654857159, -0.0471124388, 0.0504960604, -0.0167593025, 0.0900691599, 0.1124642342, 0.0578611642, -0.0291893780, -0.0306309648, -0.1012826785, -0.0950329229, 0.2193631530, -0.0209219437, 0.0510691255, 0.0262963139, 0.0803501755, 0.0747549757, -0.0361309648, -0.0101996250, 0.0068982933, -0.1444707364, -0.0756498650, 0.0201645717, -0.0543633066, 0.0803029686, -0.0416035391, -0.0563739724, 0.0483377390, 0.0613894574, -0.0494569130, 0.0687192902, 0.0112166926, -0.0868624300, 0.0465423986, 0.0419431031, 0.0241406728, 0.0293197334, 0.0542345159, 0.0553136393, -0.0214294344, 0.0049421974, 0.0446713269, -0.0200583339, -0.0510563590, -0.0810466036, 0.0024413671, -0.0536635816, -0.0528925061, -0.0928205103, -0.0241778661, -0.1206236929, 0.0144358575, 0.0385633931, -0.1549973190, -0.0861221999, -0.0243718158, 0.1609553695, 0.0123771308, -0.0814942420, -0.0175136607, 0.0703879669, 0.1594511271, -0.0832903087, -0.1565262675, -0.0893261209, 0.0439834297, 0.1408442855, 0.1518712044, -0.0327590033, 0.0452602357, -0.0539267585, 0.0013003536, 0.0978620276, 0.0976289213, -0.0094246771, -0.0114467889, -0.0154419784, -0.0498466678, 0.0331181884, -0.0729562789, 0.0733905360, 0.0264427215, 0.0125562102, 0.0854757875, 0.0072583389, 0.0710057467, -0.1077600867, -0.0308135357, -0.0089317597, -0.0525725484, 0.1055593640, -0.0445872955, 0.0880098268, 0.0050605470, 0.0039142910, -0.0531335250, -0.0261605568, -0.0165887978, -0.0076203179, 0.0361020118, -0.0261816625, 0.0531494990, 0.0409256890, 0.1233118102, -0.0849591643, -0.0888362303, 0.0462635532, -0.0310700685, 0.1487645507, -0.0321489275, 0.0232336409, 0.0248781089, -0.1973308474, -0.0698787868, -0.1483617276, 0.0196962580, 0.0670949891, 0.0276974421, 0.0475591123, 0.0340343900, -0.0072275037, -0.0692849606, -0.1129706204, 0.1002171785, -0.0405200198, -0.0293307304, 0.0649626851, -0.0288759880, -0.0875237733, -0.0522334464, -0.0145921018, 0.0186945498, 0.1352801919, 0.0057160421, -0.0805647075, -0.0721622631, 0.0249778293, 0.0293949433, 0.1123869568, 0.0673938319, -0.0862309113, 0.0386771709, 0.0080648512, 0.0484389253, -0.0174318515, 0.0371056795, 0.0191308707, -0.0470844842, -0.0782862902, -0.0248938445, 0.0655309856, 0.0807005912, -0.0027160496, -0.0556230359, -0.0434890017, -0.0364573374, -0.0137103032, -0.0384725630, -0.0878494307, -0.0008979924, 0.0365779102, 0.0950968266, -0.2802239656, 0.0804117322, 0.0910756513, 0.0585336052, -0.0560174137, -0.0104708532, -0.0407749563, -0.0075127911, -0.0908605754, -0.0112549327, -0.0269582700, 0.0263013542, -0.0732060000, -0.0044303951, 0.0540845729, -0.0961509794, 0.0903087109, -0.1027160585, -0.0114682242, -0.0534686521, 0.0989892259, -0.0839466602, 0.1590306610, -0.0935856551, -0.1530156136, -0.0293044336, -0.0202539712, 0.0304705650, -0.0943514258, 0.0617573783, 0.0654505938, -0.0041288137, 0.1326290071, 0.0604080483, 0.0134095028, -0.0412183627, 0.1560595930, 0.0068080714, -0.0470241606, -0.2103211582, -0.0974172205, 0.0701439306, 0.0957573876, 0.0105188005, 0.1092505977, -0.0776158720, 0.0478677675, -0.0086068269, -0.0434850231, -0.0133485161, -0.0648392364, 0.1363499165, -0.0661030412, 0.1202728227, -0.0617093369, 0.0807372779, -0.0757708848, 0.0831663236, 0.0286183972, -0.0088084228, -0.0870614722, -0.0320710838, -0.0409477651, -0.1036502123, -0.0537369438, 0.0067142472, -0.1292899400, -0.1428304613, -0.0133621022, -0.0352932028, 0.0170345139, 0.0703013763, 0.0768903941, 0.0769438148, -0.0878667161, 0.0706780031, 0.0258090012, -0.0698527992, -0.0331138670, 0.0108928494, -0.0248959325, -0.0437169634, -0.0661220253, -0.0126936845, 0.0333679765, -0.0999855474, -0.0104843127, 0.0444323979, 0.0783004239, -0.1000060514, 0.0055652317, -0.0048022512, -0.0188392363, -0.0786784515, 0.1285628974, 0.0432431847, -0.0873914883, -0.0384918302, -0.0574260317, 0.1098786369, 0.0142795993, -0.0018355586, 0.0142893232, 0.0097013749, 0.0832278058, -0.0249731205, -0.0764418840, -0.0128923953, -0.0484780706, -0.0887800455, -0.0515704527, 0.0882649720, 0.0396413356, -0.0069303047, -0.0223177727, 0.0347194150, -0.0142067121, 0.0161626395, -0.0935990736, -0.0437647402, 0.1049263999, -0.0845384449, -0.0361308418, -0.1017094553, 0.0096076243, -0.0185725130, -0.1444489211, -0.0299251787, -0.0124197463, -0.0409768783, 0.0627185479, 0.1558873653, -0.1092987657, 0.0004371069, -0.0316312276, 0.0098025873, 0.0082910694, -0.0977128670, -0.0029655658, 0.1124845371, -0.0483705178, 0.1673296690, 0.0575288683, -0.0824244544, 0.0881166607, 0.0187566001, -0.0016013719, 0.0838384926, -0.0439183228, 0.0365769789, 0.0511158779, 0.0759121329, -0.1533244699, 0.0456239842, -0.0581988283, -0.0131208766, -0.0525601730, -0.0811830983, 0.0387836695, -0.0705963895, -0.0309180915, 0.0566061325, 0.0094789639, -0.0085291751, -0.0482016467, -0.0696975738, -0.0327167399, 0.1345964521, -0.0950629488, -0.1329598278, -0.0152432546, -0.0182707459, 0.0285379961, -0.0245953463, -0.0540329516, 0.0020413715, 0.0677789524, 0.0018730406, 0.0284354202, -0.1063020676, 0.0400173739, -0.0932102799, 0.0468096063, -0.0002891272, 0.0978827029, -0.0594257563, -0.0543603115, -0.0155441687, 0.0988996923, -0.0537497848, -0.0681548640, -0.1205728650, 0.0248543117, -0.0195455514, 0.0801282823, -0.0669094026, 0.0247542337, 0.0432206951, 0.0373449214, 0.1140718088, -0.1671122015, 0.0088641047, 0.1600892842, 0.0233336631, 0.0096899746, -0.1210876629, 0.0867278054, 0.0034655686, -0.0274707414, 0.0151874423, -0.0164695457, -0.1077762991, 0.1132479608, 0.0755573958, 0.0414304323, 0.0561835207, -0.0060052318, -0.0075642765, 0.0066851196, -0.0672651678, 0.0059447326, -0.1110457778, 0.1131313592, -0.1051194593, -0.0511715412, -0.0290121790, 0.0052832775, -0.0141020603, -0.0307720341, 0.0049207583, -0.1222472340, -0.1354434043, -0.0856719837, 0.0698852539, 0.0222766139, -0.0866811126, -0.0755672529, -0.0177690908, 0.0905578434, -0.0533340797, -0.0562712960, 0.0579230078, -0.1256235987, -0.0288006924, 0.0048457589, 0.0174254384, -0.0005088411, 0.0659414157, 0.1146373302, -0.0071781352, -0.1137716025, -0.0534982309, 0.0124040768, -0.0889977664, -0.1164483428, 0.0217764825, 0.1191195250, 0.0186571591, -0.0229848549, -0.0093148351, 0.0503650717, 0.0757188126, -0.0620816499, -0.0168340411, 0.0145506971, 0.0388991870, 0.0774128288, -0.0202583093, -0.0243066847, 0.0985510051, -0.0770615041, -0.0626822412, -0.0836405307, 0.0316998102, 0.0222558845, 0.0175727773, -0.0102638947, -0.0559822768, -0.0122059695, 0.0941257328, 0.0448468998, -0.0242821891, -0.0141676776, 0.0503869653, 0.1331962943, 0.1220404953, 0.0227551255, -0.1365850866, -0.0746578723, -0.0525099710, 0.0947033763, -0.0470946580, -0.0897419378, 0.0811872929, -0.0162797943, 0.1416488290, 0.0938904807, -0.0259065032, 0.0103763156, -0.0033810278, 0.0422773696, 0.0986569002, -0.0835031271, -0.0018372834, -0.0201822855, -0.0760556832, 0.0552072488, -0.0424052961, -0.0997725502, 0.0048536975, 0.0705859363, 0.1040453613, -0.1204103306, 0.0880683288, -0.1149952039, 0.0669631138, 0.0639459789, -0.0370308906, 0.0829504430, 0.0750699639, -0.0139105413, 0.0990734696, 0.0604326986, 0.1510030478, -0.0466657057, -0.0556667298, -0.0073065646, -0.0953542441, -0.1012017205, -0.0835607201, -0.0213151127, -0.0570188314, -0.1670424789, 0.0007729931, -0.0503200442, -0.0004228419, 0.0187380780, 0.0222783033, 0.0379038416, 0.0471429117, -0.0710217133, 0.0093481652, 0.0226151031, 0.0543642640, 0.0527758487, 0.0300695077, 0.0436822660, 0.1491761506, -0.0092355050, -0.0487852991, 0.0215667784, -0.1014891863, 0.0703406632, -0.0734989643, -0.0135097485, 0.0394136533, 0.0083513474, -0.0320922062, 0.1330699176, -0.0526293591, -0.0785469115, -0.0652658790, 0.0993121713, 0.0017901100, -0.0189207867, -0.0106835030, 0.0569801293, 0.0534749553, 0.0978107899, -0.1272095442, 0.0811931044, 0.1125809401, 0.0858929157, 0.0654331148, -0.0440685637, 0.0227076169, -0.0778321028, -0.1447652578, 0.0532672368, -0.0100219063, 0.0094738379, 0.1146840602, -0.0802219957, 0.0297485050, -0.1245776564, -0.0421350636, -0.0188917294, -0.0090111010, 0.1248057857, 0.0163092483, -0.0526774637, 0.1447704732, 0.1574275196, -0.0100536570, -0.0179735683, 0.0073717330, -0.0578249991, -0.0379672498, 0.0780880749, 0.0299764704, -0.0184723791, -0.1064277962, -0.1513514668, 0.0309155621, 0.0915636048, 0.0461506359, 0.0211988837, -0.0871407986, 0.0249986332, 0.0828891993, -0.0625971258, -0.0162363760, -0.0192030072, -0.1395743638, 0.0315845497, -0.0414581671, -0.1384517998, 0.0228850842, -0.0155528225, -0.0809438974, -0.0213668663, -0.0552992634, 0.1083841994, 0.0995694548, 0.0626794100, 0.0228387173, -0.0185189005, -0.1161710322, 0.0636266023, -0.0766257197, -0.0502853394, -0.0229863543, -0.0113227181, -0.0324658453, -0.0368022099, -0.0308028795, 0.0290586017, 0.1145655960, -0.0162992552, -0.0060945526, 0.0301019810, -0.0181795526, -0.0483369827, 0.0036940696, -0.1373774558, -0.0298600830, -0.0975285843, 0.0214005858, -0.0532146357, 0.0714518577, 0.0234306585, 0.0617682971, -0.0343077593, -0.0194969140, -0.0582714230, 0.0740930587, 0.0321700424, -0.0167267639, -0.0658438951, 0.0057570338, -0.1050513536, -0.0001082793, -0.1042013019, -0.0590045750, 0.0538387895, -0.0397871956, 0.0350935347, 0.0245144423, 0.0538918935, 0.0698761195, -0.0029933928, 0.0007246900, -0.0731373951, 0.0642411858, -0.0151134487, 0.0327999406, 0.0526759103, 0.0020912322, 0.1013699770, 0.0970529765, 0.0477152914, 0.0047904253, 0.0915310085, -0.1597484499, 0.0261985362, 0.0272440147, 0.0106385425, -0.0213853195, -0.0098195542, -0.0777644813, -0.0313416980, 0.1254017949, -0.0662133098, -0.1497997940, 0.0738108084, -0.0612234175, -0.0254915878, 0.1184253767, -0.1834226698, 0.0101965927, 0.0440144837, -0.1684258878, 0.0302743688, -0.0792824328, -0.0159020033, -0.1358456463, 0.0849438384, 0.1127690971, 0.0603806302, -0.0561660081, -0.0256151333, 0.0118358862, -0.0937209502, -0.0274280328, -0.0084652761, -0.1345605105, 0.0432144105, 0.0667947531, 0.0345322154, 0.0311911963, -0.0993938670, -0.0680437535, -0.0771215186, 0.0613568276, -0.0658038855, -0.0401869006, -0.0537985824, -0.0076930742, -0.0554196537, 0.0266825370, -0.0768235028, -0.0206650384, -0.0844133198, 0.0570551082, 0.0525200702, 0.1407358795, -0.0556670427, 0.0204906706, 0.0793172270, -0.1910415739, -0.0433865227, -0.0097895041, -0.0058984472, -0.0495546684, 0.0351251140, 0.0291609094, 0.0367875546, 0.0200854279, 0.0566445403, 0.0351728648, 0.1395937651, 0.0097594708, -0.0120379236, -0.0173348878, -0.0016837567, 0.0862497091, 0.0439615510, -0.0276273321, 0.1113089174, -0.0513734668, 0.1246229708, 0.0478484519, -0.0502567217, 0.0456783846, -0.1953125149, -0.1086355448, -0.0845061690, 0.0481743515, -0.0116323791, -0.0133880498, 0.0196360033, -0.0350419544, 0.0558261052, -0.0037730671, -0.1252827644, -0.0663137212, -0.0430064015, 0.1550284475, 0.0271714162, 0.0598888285, -0.1392381191, 0.1500411630, 0.1243190989, 0.0965162069, 0.1203502342, -0.0255789757, 0.1698364764, 0.0252405126, 0.0241032541, -0.0312114228, 0.0212114491, -0.0831782818, -0.0450041890, -0.0353074409, 0.1550771147, -0.0230142660, 0.1078958735, 0.1157086492, 0.0656853542, -0.0696934611, 0.1391832083, 0.0401492603, -0.0100674164, 0.0833738297, 0.0564768910, -0.0897219032, 0.0254483111, -0.0139023885, 0.0167892799, 0.0785243809, -0.0925421715, 0.0405418985, 0.1284895539, -0.0732367039, 0.0398462228, -0.0247409604, -0.1317435056, -0.0889007971, 0.0061274581, -0.0182743371, -0.0020801239, 0.0738880038, 0.0017110743, -0.0516297333, -0.0078239255, -0.0638934299, 0.0217911638, 0.0967190340, -0.1646532118, -0.0311661270, 0.2126717567, -0.0557815209, -0.0717935860, -0.0313275792, 0.0803675950, 0.0168957375, 0.1235312298, 0.1460153013, -0.0499546528, -0.0072562583, -0.0125774667, -0.0270296447, -0.0401410647, 0.0745020285, 0.0150555996, 0.0643972084, 0.0676553026, 0.1057018042, -0.1205775812, -0.0484603345, 0.0644668713, -0.0486810356, 0.0400478505, -0.0199999679, 0.0113853896, 0.0749458149, -0.0375987142, 0.1572804004, -0.0803409666, 0.0982201770, 0.0050050057, 0.0011325469, 0.0760141760, -0.0374445096, 0.0402168483, 0.0227230527, 0.0127852894, 0.0960046872, -0.1474289447, 0.0535728149, -0.0343149677, 0.1179569438, -0.0546172410, -0.0065945704, 0.0113881268, 0.0134210214, 0.0284544602, 0.0471055582, -0.0501412377, 0.0298752375, 0.0112728514, 0.0134989936, 0.0625324696, 0.1860494167, -0.0328373648, -0.0326015800, -0.0258384813, 0.0504760481, 0.0142910816, 0.0588454157, 0.0542118624, 0.1023897380, -0.1249441952, -0.0165125914, -0.0135938842, -0.1111507639, -0.1794234663, -0.0586180352, 0.0719641671, -0.0240013972, 0.0127813723, 0.1126683056, 0.0989221632, 0.0268256553, -0.0253495127, -0.1145643443, 0.0287060216, 0.0198186617, 0.0137844030, 0.1349847168, 0.0149283214, -0.0004608240, -0.0085979849, -0.1899985075, -0.0566856526, 0.0968131199, 0.0002952833, 0.1186507642, 0.0578623936, -0.0028940882, 0.0673029423, 0.0979129151, 0.0106374510, -0.0755156353, -0.0136084454, 0.0418354124, -0.0172032788, 0.0217176583, -0.1373017132, -0.0144953206, 0.0236090347, 0.0575766042, 0.0050627552, 0.0072532473, 0.0059765801, 0.0933979452, 0.0449951440, 0.0168010592, -0.0300064739, 0.0910563245, 0.0823038518, 0.1191681772, -0.0380821824, -0.0833293051, 0.0454374105, 0.0500041842, 0.1065286323, -0.0419471264, 0.0077466704, -0.0450348966, -0.0232003890, 0.1038624048, -0.0070538409, 0.0144195575, 0.0097572133, 0.0327736512, 0.0642318204, -0.0380997322, 0.0398702100, 0.1260270029, -0.0354011729, 0.0038817646, -0.0173539836, -0.0624940619, -0.0125448164, -0.0609591007, 0.1443542540, 0.0136741810, 0.0354508646, 0.0771446526, -0.1327723116, -0.0277606994, -0.0475540012, -0.0481166504, 0.0406940617, 0.0320198089, 0.0612926111, -0.0783916265, 0.0677704439, -0.0614301004, -0.0832449496, 0.0732744858, 0.1017785743, 0.0195699763, 0.1194643527, 0.1476666629, -0.0535955504, 0.1000952423, 0.0578350350, 0.0377639271, 0.0025246702, -0.1571107954, 0.0013486706, 0.0484203063, 0.0407106504, -0.0596984401, -0.0518281050, 0.0419060439, -0.0638445094, -0.0322524905, -0.0895982087, -0.1029311344, 0.0410715044, 0.0174903870, -0.0628507882, 0.0304002538, 0.0696876198, -0.0452066213, -0.1524429917, -0.0399227403, -0.0970437452, 0.0180711597, -0.0389337167, -0.0936479717, 0.0671362057, 0.0012246603, 0.0240424387, -0.0808000341, -0.0254176594, -0.0357228369, 0.0565699339, -0.0268498920, -0.0357210673, 0.0052882805, -0.0940001979, -0.0887700990, -0.0337655134, 0.0223891698, -0.0508146882, 0.1023431942, 0.0193122402, 0.0048936307, 0.0832797885, -0.0077846106, 0.1450357884, 0.0519412756, -0.1566911638, -0.0447347984, 0.0121187866, 0.0326462016, -0.0466204807, 0.0404634178, -0.0148566328, -0.0328340270, -0.0446361341, 0.1525622308, 0.0784336925, -0.0538902432, -0.0623576529, -0.1043420359, 0.1160101146, 0.0675394014, 0.0260200016, 0.0086496249, -0.0029178574, -0.0088010058, 0.0424143262, 0.0341144353, 0.0521407090, 0.0271906648, 0.0951365232, 0.0061389226, 0.0219843183, 0.1511447579, 0.0754801780, 0.0404315628, -0.0194010120, -0.1007124409, 0.0012223572, -0.1014592499, 0.0883247256, -0.0535976253, 0.1621164382, -0.0415643789, 0.0726046413, -0.1037837863, -0.0145195350, -0.0243550055, 0.0584091991, -0.0208285283, -0.1677659750, -0.0893334523, 0.0355345160, 0.0181290098, -0.0801797211, -0.0861028582, -0.0499029979, -0.1384728551, -0.0072438661, -0.0150403026, 0.0471640341, 0.0380911268, -0.0238626916, -0.0057811290, -0.0195217971, 0.1073886305, 0.0363434218, 0.1116489023, 0.0566420779, 0.1242991313, -0.0640976205, -0.0310212895, 0.0348916240, 0.0789494514, 0.0111718439, 0.0362431854, 0.0450615063, 0.0221572910, -0.0449090004, -0.0244701561, 0.0807066634, -0.1181513667, 0.0557318069, 0.0385705791, 0.0721719936, -0.1768723279, -0.0484201647, -0.0438187756, 0.0517004393, 0.0688917413, 0.0925760567, -0.0459354930, -0.0643472224, 0.1270081252, -0.0554246530, -0.0692574978, 0.0230205692, 0.1065051407, 0.0177281424, -0.0725717098, 0.0197259113, 0.0861265510, -0.0330862328, 0.0305429772, 0.1084919870, 0.0242105126, 0.0269739106, -0.0440290160, 0.0081779659, -0.0297125615, -0.0973689631, -0.1708544195, -0.1934870034, -0.0364162736, 0.0151348151, -0.0205730256, 0.0404636748, -0.0493168682, -0.0048880205, 0.0159602296, -0.0452166125, -0.0328620300, 0.0501314960, 0.0165131073, -0.1569989622, -0.0083538964, -0.0505410135, -0.1415681243, -0.0014700983, 0.1063466817, 0.1216272414, 0.0558134466, -0.0020922380, 0.0326759517, 0.0479078554, -0.0830746144, 0.0242265258, 0.0174754634, -0.0924188569, 0.0670462698, 0.0556530990, -0.0166446865, -0.0069988524, 0.0966865867, -0.0414881930, 0.1184371561, -0.0814057440, -0.0105034681, 0.0123524107, -0.0508607961, 0.0534662753, 0.1502942294, -0.0730142146, -0.0146293044, -0.0458382294, 0.0230296589, 0.0388039090, 0.1598598957, -0.0089837648, -0.0616128817, 0.0341710597, 0.0476263575, 0.0881628990, -0.0115457810, 0.1802490056, -0.0377308652, -0.0222812891, -0.0124514308, -0.1702016294, -0.1191700175, -0.0927325264, 0.0093823802, 0.0847414061, -0.0520645306, -0.0507153645, -0.0851946697, 0.0601534098, 0.1642819345, -0.0497657247, 0.1018822044, 0.0992572904, 0.0645270348, -0.0159259066, -0.0771390200, -0.0554394498, 0.0784835592, -0.0904178098, -0.0115461173, -0.0419248790, 0.0357780568, 0.0152402073, -0.0087260064, -0.0139110209, 0.1316344291, 0.0874385089, 0.0454285964, 0.0725494474, -0.1128805503, 0.0904399231, 0.0177746471, 0.0095929066, 0.0543683767, -0.1079593152, 0.1390029192, 0.0686424226, 0.1279148608, -0.1092002690, 0.0575903505, -0.0533991791, 0.0831266791, 0.0363155454, 0.0176683925, 0.0515829176, 0.0677145794, 0.1093228459, 0.0555553436, 0.0436458290, 0.0199212786, 0.0906264633, 0.1080363318, 0.0211030915, -0.0759465024, 0.0352424756, -0.0443177298, -0.0048612282, 0.0987249240, -0.0322484225, 0.0031307191, 0.0841788277, -0.0458145067, 0.0387470983, -0.0842624977, -0.0931384265, 0.0533737466, -0.2491361797, 0.1410678923, -0.0632505119, -0.0418128185, -0.0190108698, -0.0129782222, 0.0288880188, 0.0467501990, -0.0620937385, 0.0430852138, -0.0654358566, 0.1390380710, -0.0058162585, -0.0878525525, -0.1206580624, -0.0429110937, 0.0099936947, -0.0064139478, -0.0772730932, -0.0335050188, -0.1363280416, 0.0927018523, 0.0738745406, 0.1020421535, -0.0337964520, 0.0147311427, 0.0485833287, -0.0392312780, 0.0569267422, -0.0865815729, -0.0573910661, -0.0718915164, -0.0696845651, -0.0503086932, -0.1100658849, -0.0283133760, -0.0390192159, 0.0280405264, -0.1026054248, -0.0063277176, -0.0942108482, -0.0828441828, -0.1180627644, 0.0657858104, 0.0493203513, -0.0101884939, 0.0179975536, 0.0239750557, -0.0151776001, -0.0316051766, -0.0898554176, 0.0426285937, -0.1128489673, -0.0201214664, -0.0836856738, -0.1005193219, -0.0223095734, 0.0720372275, 0.0771291107, -0.0719020218, -0.0815002769, 0.0736649856, 0.0320930406, -0.0766249448, 0.0527604409, -0.0466917083, 0.0510278195, 0.0409891196, -0.0436829180, -0.0265129805, -0.0515244827, -0.0392014347, -0.0148803592, 0.1117520407, -0.0037016505, -0.0247029699, -0.0751529932, 0.0788774788, 0.0131678674, -0.0391762108, -0.0222625807, 0.0351198614, 0.0303780213, 0.1099180877, 0.0546690859, -0.0045305304, 0.1088286787, 0.0244420860, 0.0632546246, 0.0084562376, 0.0521602817, 0.0171279944, -0.0542660393, 0.0437736176, -0.0395717956, -0.0798149705, -0.0335310996, -0.0358787104, -0.0586434752, 0.0038009854, 0.0051240236, -0.0234502107, 0.0336556658, -0.0209121294, -0.1334280074, -0.1316451877, 0.0473279282, 0.1183245778, -0.0116743902, 0.0548769385, -0.0778677762, -0.0179976169, 0.0484733582, -0.1114814356, -0.0145901702, -0.0239915755, -0.0331898667, 0.0447278693, 0.0429785103, 0.0740217268, 0.0509419776, 0.0261662230, 0.0099914707, -0.1069431603, -0.0891307518, 0.0925846100, -0.0007650275, 0.0139710978, -0.0061496049, 0.0171125326, 0.0317291096, -0.0219885260, 0.0395419076, 0.0112493206, -0.0572986826, -0.1678361595, 0.1138574928, 0.1037867740, 0.0059444979, -0.0322779119, -0.2958639562, 0.0635759532, -0.1032359600, -0.0626829416, 0.0595097430, -0.0024452340, -0.0467358530, 0.0306189042, -0.0356981903, -0.0782123208, -0.0255309567, 0.1532894969, -0.0533507206, -0.0132752657, -0.0627810508, -0.0804951563, 0.0222339910, 0.0294399410, 0.0357173532, -0.0294617545, 0.0035914355, -0.0360162035, -0.0040351450, 0.1199562401, -0.0100040305, 0.0795114636, 0.0820611119, -0.0183162875, -0.1088474616, -0.0603670180, 0.0552481003, 0.0869446620, 0.0825311765, -0.0431522653, -0.0072027054, 0.0281697884, -0.0486127138, 0.0405277424, -0.0577518642, 0.1443945616, -0.0306623317, -0.0132983029, -0.0425527543, 0.0192244723, -0.0581939369, 0.1546047330, 0.0147882178, -0.0927636549, 0.0025801864, -0.0693501160, 0.0303070918, -0.0655371323, 0.1008810550, -0.0496235304, 0.0142902844, -0.0201898627, 0.1435997635, 0.0068715066, -0.0656564087, 0.0518685915, 0.0076711830, -0.0322324187, -0.0523819886, 0.1113685146, -0.0337400995, -0.0476855338, -0.0251388866, 0.0192587152, 0.0098448116, -0.1026478335, 0.0624326095, -0.1320594847, -0.0084758773, -0.1049705520, 0.0129934810, 0.0103864428, -0.0940814614, 0.0132354535, -0.0189513750, 0.0524111465, -0.1942020059, 0.0720077753, -0.1218166053, 0.0918473229, -0.0585346036, -0.0436465740, 0.0783794969, -0.1862872988, -0.1142352223, -0.0298400111, 0.0654786676, 0.0810053498, 0.0028269235, -0.1208640933, 0.0593748800, 0.0469513722, 0.0923605114, 0.0359265395, -0.0691212788, -0.0173853580, 0.0457077436, 0.0087676710, 0.0606387220, -0.0221724175, -0.0643835962, 0.0383486897, -0.0150547475, 0.1183824316, 0.1259959191, 0.0219383612, -0.0354310945, -0.1098535359, -0.1203154102, 0.0980026498, -0.0785929412, -0.0521797687, 0.1205099076, -0.0527842417, -0.0077081653, 0.0434641168, 0.0015036669, 0.0420305878, -0.1006035134, 0.0341362022, -0.0800941065, 0.0267322473, 0.0251468588, 0.1080476642, -0.0384513140, -0.0489220172, 0.0390482768, 0.0843814984, -0.1249720380, 0.0935151279, 0.0034368206, 0.0077803852, -0.0230486225, 0.0063355919, -0.0870230198, -0.0633433312, -0.0077057648, -0.0265084710, -0.0130269863, 0.1070113182, 0.0723345429, -0.0810474604, 0.0604076758, 0.0484501123, -0.0423304401, 0.0250265878, 0.1668852270, -0.0312362798, -0.0140817994, -0.0409494750, 0.0491178669, -0.1086824685, 0.0480325297, 0.0125641301, 0.0815424919, -0.0291079972, 0.0457709096, -0.0665905997, 0.0312280953, -0.0376215428, -0.0070919096, -0.1085055470, -0.0434661917, 0.0193437245, -0.1743684411, -0.0784850121, -0.1168265045, -0.0515311584, -0.0583845191, 0.0470901355, 0.0317237154, -0.0875569433, -0.0039417204, 0.0148762278, 0.1156189442, 0.0036404645, -0.0049192812, 0.1126131415, -0.0258090366, 0.1069555059, -0.0355942473, -0.0390831381, 0.0508805476, 0.0132671464, 0.0547739826, 0.1191085130, -0.1208116710, 0.0148695204, -0.0093852300, 0.0202393942, -0.0443005189, -0.0035225712, -0.0866185576, -0.1530553252, 0.1071901396, -0.0073411716, 0.0025465097, -0.0515950620, -0.0224357508, -0.0087809339, -0.0005723219, -0.0268606693, 0.0324255265, -0.0328643173, 0.0214188918, -0.1261823177, -0.0820094198, 0.1134747788, -0.0846271217, -0.0989197493, -0.0045032194, -0.0640075877, -0.0050900187, -0.0350127593, -0.0109324157, 0.0295916535, -0.0174620114, 0.0242125895, 0.0955447331, -0.1215845421, 0.1214901805, 0.1618580371, 0.1185834110, -0.0591646768, 0.0887615457, 0.0551698692, -0.1156844497, -0.0511781164, -0.0541432425, -0.0121135656, 0.0548364446, -0.0754786581, 0.0108881462, 0.0445203632, 0.0746108592, 0.0219646320, 0.0716446936, -0.0555200949, -0.0320618600, -0.0137875918, -0.0616732650, 0.0129652265, 0.0593409762, -0.0830436274, 0.0264976081, 0.1060550213, 0.0269656647, -0.0783424154, 0.1110049933, -0.0036178138, 0.0466192253, 0.0204283930, 0.0136679001, -0.0510568283, -0.0392174497, 0.0791439489, -0.1182230562, -0.0777270496, 0.0000212416, -0.0346951671, -0.0281996801, 0.0567337051, 0.1173596606, -0.0222198069, 0.0057346830, -0.1357519180, -0.0827644914, 0.0558666289, 0.0037899592, 0.0364315622, 0.0374068618, -0.0600851476, 0.0352134779, 0.0794608742, -0.0028926767, 0.0473046452, -0.0188405979, -0.0422405340, -0.0658705682, -0.0020334222, 0.0913539305, 0.1164548546, -0.0147262067, -0.0852426365, 0.2957050502, 0.0337225161, -0.0485223457, 0.0574683696, 0.0421702638, 0.0619789623, -0.0694574937, -0.1209132373, -0.0297274254, -0.0027302168, -0.0470397845, 0.0573282987, -0.0309049040, 0.0158464201, 0.0500460789, 0.0180661790, -0.1205216795, -0.0809929371, 0.0709287673, 0.0480356477, -0.0986383557, -0.0341584608, 0.0160762519, -0.0923482031, 0.1036937088, 0.1428484172, 0.0776218921, -0.0497935936, 0.0057701399, -0.1144689694, 0.1801729798, -0.0973319262, -0.0866940990, 0.0274867117, 0.0650806949, -0.0179087482, 0.0101519544, 0.0872213989, 0.0159035586, 0.0915170610, -0.0568796694, 0.0624851882, -0.1276881546, 0.0080479886, 0.0703773946, 0.0178308077, -0.0698839352, 0.0643898994, 0.0556835309, -0.0420944691, -0.0128991548, 0.0678588226, 0.0221963786, 0.0458257757, 0.1593732834, -0.0651706532, -0.0777564794, 0.1043448374, 0.0576895289, 0.1549998671, 0.0120172333, -0.0107116736, -0.0529032126, 0.0148639884, -0.0221231040, 0.0019037398, 0.0446642451, -0.0923169032, 0.0471858680, -0.0588661954, 0.0308371577, -0.0619504414, -0.0039729504, 0.0428345501, -0.0307292007, -0.1002575383, -0.0277448874, -0.0413435027, -0.0746322572, 0.0277265050, 0.0762638748, 0.0216031615, 0.0799441338, -0.1109455824, -0.0405146256, 0.0426468849, 0.0027553160, -0.0380585007, 0.1201060489, 0.1455630958, -0.0319185629, -0.0311744139, -0.0427866429, 0.0307375733, 0.0093471184, 0.0023561362, 0.0563875474, 0.0667339638, 0.1331733018, -0.0939308703, 0.0316116177, 0.0996637493, -0.0631645471, -0.0203502364, -0.1121258587, 0.0432950519, -0.0225231983, 0.0120265558, 0.0061578741, 0.0379413515, 0.0827143863, 0.0543948412, 0.0421156622, -0.1042777300, 0.0752808899, -0.1390558481, -0.0481909998, 0.1244361922, -0.0596451238, 0.1072110236, 0.0339199491, 0.1210982129, 0.0025560008, -0.0041938256, 0.0554363020, 0.0034367484, 0.0065643527, -0.0331696905, 0.0989391208, 0.0591264516, -0.0631849021, -0.0344042405, 0.0021112710, -0.0089931581, 0.0259732697, 0.0724748299, 0.0198554564, 0.0600333661, 0.0442914851, 0.1240354031, 0.0669569820, -0.0862908885, 0.0412810408, 0.0191038884, -0.0031501614, -0.0153283104, 0.0241777524, 0.1161549017, -0.0483837351, 0.0566881858, 0.0596828535, -0.0180515610, 0.1927077621, 0.0095425453, -0.0528086647, -0.0846022889, 0.0483784117, 0.0559489094, -0.0323081985, -0.0725996941, 0.0273830555, 0.0116116963, 0.0909513608, 0.0498182848, -0.0295081753, 0.0337073356, -0.0103712752, 0.0144869182, -0.0609353632, -0.0130507220, 0.0627814233, 0.0035509123, -0.0712698624, -0.0083721401, 0.0425192118, 0.0145859197, -0.0460064448, -0.1124517918, 0.1490612328, -0.0319850668, 0.1148624271, -0.0007784721, -0.0333717465, 0.0085779298, 0.1422933787, 0.1010611504, 0.1007422060, 0.1639474928, -0.1296717077, -0.0451016016, 0.0561816618, -0.0270186029, -0.0310421623, 0.0671860874, -0.0894098505, 0.0559383593, 0.0050797835, -0.0179816019, 0.0793615431, -0.0404059850, 0.0367084295, -0.0268255267, 0.0673776940, -0.1322461963, -0.0247246567, 0.1203752980, 0.0600476041, -0.0267174635, -0.0439112261, 0.1433364749, -0.1611206532, -0.0367622860, 0.0647509396, -0.0315771326, -0.0121463221, -0.0815440342, 0.0314012319, 0.1750202030, 0.0551225282, 0.0156634953, -0.0023986474, -0.0026734206, 0.0074759647, -0.0508551858, 0.1487585306, 0.0162760094, -0.1188492924, 0.1267837882, 0.1012232304, 0.0668060482, 0.0610253662, 0.0207008999, -0.0065007787, -0.0575516559, -0.1180046499, 0.0349600390, 0.1059694439, -0.0197727624, -0.0149535406, 0.1371526867, 0.0327186845, 0.0561126769, -0.0988192260, 0.0975099802, -0.1213596612, -0.0174213387, -0.1402996778, 0.0008643018, 0.1406495273, -0.0976941884, 0.1455875933, 0.0780641660, -0.0325122625, 0.0117299519, 0.0380688384, 0.0652077496, 0.0427217036, -0.0152442874, -0.0595169999, 0.1181602627, -0.0186007060, 0.0207498986, 0.0450082831, -0.0071391743, 0.0685019717, -0.0671301261, 0.0678338856, -0.0640811175, 0.0050640749, 0.0455987453, -0.0177506171, 0.0030597495, -0.0108634904, -0.0563464910, 0.0344968997, 0.0395893417, -0.1388206482, -0.1037958637, -0.0635121986, 0.0787658989, -0.0555602647, -0.1151275933, 0.0547072738, 0.0080387332, -0.0834508315, 0.0599177293, -0.0319430083, 0.0678066537, -0.0479803942, -0.0577998720, 0.0057863668, 0.0381388590, 0.0401648656, -0.2244656384, 0.0010689739, 0.0945490152, -0.0373810939, 0.0045401976, 0.0181202181, 0.0516800433, -0.0599404350, 0.0539734736, -0.0769572034, 0.1444055140, 0.1169314086, -0.0237010792, 0.0104415240, -0.1783478409, -0.0777625591, 0.0973679051, -0.0020920953, -0.0481368080, 0.0512499213, -0.0619035177, -0.0370263644, -0.0053903908, 0.1011493504, 0.1432495266, -0.0480718464, 0.0440229252, 0.0112639442, -0.0424752608, -0.0808129385, -0.0274339356, -0.0000673160, -0.0740349367, 0.0345259719, 0.0430072844, -0.0643119067, 0.0114312749, -0.0481822118, 0.0634230226, 0.0636107400, 0.1098718867, 0.0725254640, 0.0481950790, 0.0578970239, -0.2030303478, 0.0368228741, 0.0341665111, -0.0685104877, -0.1020203829, 0.0220623612, 0.0700013787, -0.0476814546, 0.0271999314, -0.0116479639, -0.0483747199, -0.0179104768, 0.0216712486, 0.0446402207, -0.0635985285, 0.0199526772, 0.0408949889, -0.0758379474, 0.0659738630, 0.0833433345, -0.0322783589, -0.0854997933, -0.0250711776, -0.0790495276, -0.1029155552, -0.0333393812, 0.0067329388, 0.0816998482, -0.0258818883, -0.1053402051, -0.1052435711, -0.0601230487, 0.0152844209, 0.0699536130, -0.1105661094, 0.0270750877, 0.0044038584, 0.0596874282, -0.0260497816, 0.0443360656, 0.0206735432, -0.0542907529, -0.0973687470, -0.0033359928, -0.0551888086, 0.1360003650, -0.0388107151, 0.0086722337, 0.0547288954, -0.1196117401, 0.0769416541, -0.1093252599, 0.1141942665, 0.0925578251, 0.0074936645, 0.0021137795, 0.0935765207, -0.0448486730, -0.0206692107, 0.1029653847, 0.0250400342, -0.0979845673, -0.0780358464, -0.0546938144, 0.0190222301, 0.0219586641, 0.1207964569, 0.0155362589, -0.1152339578, 0.0528472960, -0.0033217873, 0.0625217408, -0.0137746930, -0.1158042103, -0.0926661193, 0.1257964373, 0.0077305939, -0.0216197409, 0.0172507949, -0.0737507567, 0.0432890728, -0.1131816581, 0.0214947201, 0.1786153018, -0.0744848028, -0.0855223686, -0.0069296472, 0.0948275849, 0.0473944955, -0.0168049559, 0.0612177774, 0.1197758913, 0.0433748476, 0.0248375461, -0.0982903689, 0.1458564997, -0.0065984353, -0.0542397499, 0.0388669595, 0.0483287908, 0.0298033487, 0.1763285697, 0.1576902270, -0.0593663640, -0.0293210279, -0.0158347450, 0.1092189550, -0.0460030325, -0.0893965736, -0.0212695319, 0.0579683967, -0.0321504399, -0.0394122787, 0.0676108152, 0.0349896476, 0.0820517465, 0.0987520814, 0.0275365375, -0.1019235477, 0.0081895180, -0.0137690865, 0.0148703242, 0.0008196086, -0.0423930250, 0.0348501094, -0.0246510934, 0.0922174901, 0.0024243593, -0.0889754966, -0.0459305830, 0.0857129619, 0.1060165912, -0.0075440779, -0.0073020421, -0.0071586100, -0.0263838153, 0.1102403253, 0.1315620691, 0.0035425033, -0.0510955527, 0.0332647003, 0.0017743651, 0.0894576311, -0.0637159795, -0.1059765071, 0.0090631600, 0.0397406220, 0.0560791343, -0.0321848691, -0.0194738582, -0.0139589114, 0.0504569225, 0.0445398949, 0.1634341627, -0.1011602134, -0.1013886109, 0.0138261253, -0.0469076782, -0.0279779676, -0.0368652940, -0.0005862322, -0.0092808101, -0.0960828960, 0.1605306119, -0.1073326617, -0.0899392739, 0.0352360308, -0.0549047589, 0.0886227936, -0.0332924798, 0.0434089303, 0.0590222739, 0.1025523990, -0.0495831892, -0.0150458328, 0.1456767172, -0.0790060759, 0.1128827184, -0.1226746961, -0.0219517667, 0.0058410666, 0.0586775504, -0.0906177089, -0.0199068226, -0.0877135992, -0.0114673683, -0.0114261331, -0.0450897925, 0.0289201494, -0.0173000880, 0.0717430413, -0.0232898071, 0.0005547847, -0.2038477063, 0.0738961995, 0.0404886082, -0.0945482999, 0.0342702121, -0.0511305332, -0.1067040786, 0.0051473132, 0.0521223396, 0.1351009011, -0.0972642154, 0.0116891265, -0.0164836831, 0.0846937373, -0.2119251937, 0.0049520954, 0.0632052720, 0.0898825675, 0.0983766243, 0.0549052879, -0.0579865947, -0.0221399367, 0.0031438312, -0.0660327673, 0.0596805215, -0.1237125546, 0.0233259089, 0.0649471581, 0.0400504991, -0.1049773246, -0.0316036679, -0.0549734607, -0.0480486304, 0.1482368261, -0.1140837595, -0.0080198999, 0.0749375597, 0.1006133109, -0.0522076227, -0.0235955492, 0.0020837355, -0.0163907968, -0.0211517960, -0.0238913670, -0.0056958329, -0.0729383305, 0.0560750179, 0.0485830680, 0.0781493038, 0.0457401760, 0.1461909860, 0.0071106041, 0.0099140629, -0.0608946607, -0.0623838678, -0.1409494132, -0.0008414555, -0.0884370059, 0.0629099533, -0.0998681039, 0.0468477868, -0.0112360641, -0.0328082815, 0.1861778051, -0.0422373787, 0.0371338725, -0.0158244893, 0.0675782114, 0.0709607303, -0.0079001598, -0.0314237177, 0.0087689571, -0.0523149706, -0.1019573808, 0.0479463562, -0.0790298283, 0.1162976474, -0.0454675071, -0.0822031945, -0.0725033283, 0.0604329780, 0.0198225956, 0.1298682690, 0.0988389701, 0.0283623543, 0.0350284688, -0.0705320239, -0.0220054258, 0.0250983387, 0.0520209186, 0.0091801016, -0.0660561398, 0.1159714311, 0.0375437140, 0.0208506249, 0.0291777700, 0.0297775939, 0.0517880060, -0.0251985975, 0.0144261932, -0.0225494001, 0.0585458502, 0.0761743262, 0.0617989302, -0.0067793303, -0.0017099241, 0.0547167361, -0.0320453383, -0.0958243310, -0.0866122246, 0.0822498128, 0.0217005331, 0.0219420139, 0.0628125370, -0.0753181800, -0.0060933530, -0.0423183478, -0.0504965596, -0.0215268880, 0.0313768275, 0.0120234778, 0.0709438771, -0.0272681676, -0.0976961777, 0.0276423320, 0.0074738432, 0.0936330706, 0.0763127059, 0.0174243283, 0.0065655224, -0.0309045762, 0.0929910839, -0.0848728344, 0.0594995022, -0.0124555184, -0.0588139780, 0.0558580458, 0.0561187379, 0.1264263093, 0.1173725873, 0.0131182997, -0.1027167588, -0.0636215210, -0.1313045472, -0.0646761283, 0.1205037981, 0.0695258975, -0.1159223989, -0.0676355138, 0.1471030116, -0.0084801381, 0.0013545081, -0.2035749257, 0.0453569368, -0.0719769001, 0.0556009300, 0.0547921173, 0.2337697297, -0.1077867821, 0.0436968282, -0.0018117491, 0.0838473812, -0.0001372639, -0.0200814493, -0.0201392807, 0.0230356082, 0.1365937293, 0.0741211474, -0.1009849161, -0.0231437366, -0.0640883595, -0.0137058459, -0.0281404462, 0.1130667478, 0.0078786723, 0.0231411289, 0.0910615399, -0.1601675153, -0.0138498787, 0.0908195823, -0.0156956967, 0.0596975982, -0.0169518068, -0.0895275027, 0.1085294932, 0.0648525730, -0.1056068540, 0.0637875721, -0.1148642451, 0.1734678149, 0.0115649235, -0.0204278342, -0.0278448686, 0.0331504270, 0.0336372778, -0.0213327408, 0.0458026752, 0.0879179910, 0.0345076248, -0.1650515199, 0.0099427029, -0.1114909798, 0.0183030944, 0.0482731014, -0.0717175007, 0.0591678768, 0.1021830738, -0.0695263594, 0.0750910491, 0.1305385977, -0.0483142734, 0.0609178133, -0.0956510156, 0.1229895875, 0.0759757236, 0.0235629193, -0.0282038450, 0.0015363880, 0.0569966771, 0.0126771070, 0.0417567864, -0.0395140238, -0.0856456161, -0.0377535708, 0.0500616804, -0.0081874272, -0.0980179384, 0.0199810229, 0.0359916016, -0.0043657459, 0.1314688027, 0.0251755416, -0.0638465732, -0.0316783525, -0.0299353153, -0.0348962471, 0.0064435313, 0.0891166329, 0.0425896496, -0.0809075609, -0.0652441308, 0.0108317565, -0.0533405431, -0.0625449419, -0.0812881216, 0.0914639607, 0.0273584165, -0.0565076731, 0.0713343322, 0.1116762310, 0.0342648625, 0.0184939057, 0.1107067466, -0.0255702194, 0.1481482536, -0.0094094062, -0.1136868447, -0.0538053364, -0.0224208422, 0.0726425946, 0.0615071431, 0.0653622225, -0.0225011073, -0.0020602662, 0.0683300346, 0.0594572760, 0.0358441286, -0.0168632828, 0.1170216873, 0.0139468228, 0.0129688531, -0.0861914903, 0.0984908938, 0.0324317664, -0.0413652509, -0.0004297737, -0.0049640313, -0.0422033332, 0.0166585967, -0.0415625423, -0.0744858459, -0.0425567031, 0.0389415920, -0.1025940627, 0.0473517217, -0.0500443354, 0.0067617428, -0.0281275064, -0.1374631822, -0.1361286193, -0.0751644820, -0.0201379880, -0.0026549832, -0.0099357432, -0.0318186320, 0.0458052009, 0.0578015670, -0.0400416628, 0.0420333892, 0.0000409028, -0.0458461195, 0.1603783816, 0.0157269575, -0.0108637707, 0.0354354903, -0.0257663019, -0.0267662778, -0.0365239233, 0.0548786484, 0.0179224238, 0.0334743224, 0.0019646846, 0.0181492232, -0.0106108943, 0.1057131886, -0.0383688621, -0.0381793156, -0.1270568967, -0.0422712937, 0.0335904136, -0.0059775244, -0.0694184378, -0.0416657664, 0.0227174554, 0.0881654620, 0.0155606642, -0.0299524907, -0.0676410422, 0.0254501775, -0.0003410568, -0.0435717925, 0.0340866148, -0.0399507470, -0.0584316105, 0.0458727106, -0.2059515715, 0.0765111521, 0.0378930271, -0.0942451507, -0.0339498892, -0.0372263230, -0.0289213844, -0.0439500585, -0.0248863157, 0.0261379462, -0.1019890755, 0.0202077739, 0.0144401398, -0.1571526229, -0.0343215875, 0.0017552674, 0.0361109376, -0.0416107103, -0.0071687717, 0.0432266966, 0.0428221971, -0.0076418687, -0.1098049805, 0.0482466072, 0.0356767960, 0.0896747187, -0.1701293290, -0.0689239949, -0.0105886273, 0.0480145365, 0.0943446457, -0.0171355866, -0.0157426540, -0.0415126085, 0.1085772142, 0.1674271822, -0.1766935587, -0.0867427886, -0.1060786545, 0.0228577964, 0.0290810652, 0.0553948656, 0.0549308695, -0.0928828120, 0.0022625066, 0.0159076750, -0.0312712491, -0.2679388225, -0.0377803296, -0.0907844603, 0.0889180228, -0.0580675714, -0.1106846482, 0.1272055656, -0.0718271509, 0.0722226724, -0.0437463596, 0.1075448915, 0.0451025292, 0.0101376437, 0.1185142919, 0.0241763387, 0.0786289871, 0.1122511998, 0.0198069569, 0.0370753706, -0.0407583490, 0.0251487736, 0.0458395332, -0.0249645561, -0.0829248577, 0.0464116074, 0.1150942445, 0.0563714355, -0.1821857393, -0.0741767362, 0.0099254362, -0.0035709101, -0.1278209835, 0.1569113731, 0.1283728629, 0.0638994649, 0.1056622639, 0.0022886461, -0.0197563171, 0.0911129490, -0.0211264268, 0.1282213926, 0.0946560055, 0.0547264367, 0.0424854122, -0.0295918435, -0.1056224331, -0.0125045814, -0.0661414340, 0.0391347259, 0.0386179015, -0.0836389959, 0.1108692288, 0.0786094069, 0.0047679543, -0.0413647555, -0.0714047700, -0.1181765348, 0.0702652037, -0.0037416816, 0.0569472574, -0.0131565062, 0.0759903491, -0.0255059004, -0.0853620917, 0.0694627166, -0.0564359874, 0.0234932005, -0.0744443536, 0.0413409956, 0.1763084084, 0.0181724541, -0.0391215235, -0.0454209559, -0.0276905000, -0.0173159298, -0.0477826707, -0.0172622912, 0.0204849243, 0.0908644423, -0.0331919566, 0.0457883254, -0.0061774598, -0.0631089807, 0.0265430529, -0.0900390744, -0.0727823973, -0.1149559841, 0.0031343866, 0.0349967405, 0.0518782437, -0.0133147556, -0.0627215654, -0.1235353500, 0.0964886993, -0.0268201046, 0.0747211874, 0.0421842262, 0.0499399342, -0.0270298924, -0.0401865542, 0.0785800293, 0.0872219205, -0.0238334779, 0.1605044156, -0.0549308062, 0.0081689376, 0.1096345857, 0.0268217586, -0.0319746844, -0.0776044875, 0.0482947752, -0.0615786836, -0.0574816801, 0.0930028632, 0.0786157027, -0.0384399928, -0.0870372728, -0.0259958785, 0.1183160022, -0.0165785123, -0.0709562078, -0.1233714521, -0.0115683395, -0.0166643485, -0.0169978198, -0.0405677631, 0.0466383994, 0.0034918170, 0.0317786708, -0.0655458048, 0.0903321207, -0.0129810348, 0.0148422103, -0.0584149361, -0.0439690277, -0.0180427320, -0.0330930278, 0.0583972931, 0.0184972025, -0.0597479343, -0.0361113362, 0.0284712277, 0.0872777998, -0.0079293754, 0.1094480753, -0.0640181080, -0.0374623910, 0.0686204806, 0.0446893126, -0.0117615387, 0.0567041971, -0.0658723041, 0.0640896112, 0.0405852310, 0.0163499974, -0.1185431629, 0.0898580477, -0.1761745214, -0.0613827407, 0.0086274659, 0.0546923839, 0.0203808732, -0.1646991670, -0.0783983916, -0.0889036283, 0.0325206444, -0.0146876723, -0.0614188649, 0.1674443185, -0.0314902142, -0.0541146919, -0.0021658111, 0.0066824146, 0.0143998843, -0.0204202086, 0.0703012049, 0.0129713416, 0.0554834083, 0.0179336909, 0.0524003953, -0.0174896065, 0.0892888382, -0.0013978537, 0.0780186355, 0.1418569982, -0.1832051128, -0.0833785236, 0.0387825333, -0.1228987575, -0.0628789365, -0.1061425433, -0.0236135460, 0.0483931154, 0.0738344491, 0.0658718795, 0.0339147672, 0.0929202363, -0.0628204271, -0.0095898397, -0.0309436060, 0.0117555214, -0.1091271192, 0.0524867177, 0.0095411334, -0.0095476657, 0.0637998879, -0.1284070313, -0.1180993468, 0.0386617519, 0.1648838073, -0.1125662699, -0.1068423092, -0.0393474326, -0.1283152699, 0.0514305159, 0.0423604921, -0.1144302338, -0.0117335375, 0.0545415878, 0.0970186442, 0.0559497103, -0.1267580539, 0.0612156615, -0.1048693880, -0.0770858973, 0.0106589906, 0.0080745332, -0.0536107421, -0.1701343060, 0.0815007165, 0.0240322091, -0.0905973017, -0.0138577176, -0.1180102825, 0.0288936161, 0.1092597395, 0.0822480991, 0.0568453595, -0.0223773159, 0.0490612537, -0.0859351829, 0.0782661140, 0.0707082674, -0.0404366069, 0.0596307665, -0.0340398587, -0.0457225814, 0.0247157216, -0.1240807474, 0.0798874646, -0.0961518586, 0.0900481641, 0.0065386593, 0.0062168064, 0.0222117640, -0.1043001264, -0.0781060681, 0.0145524256, -0.0800420046, -0.0566993728, -0.0640536770, 0.0367528349, -0.0739865676, -0.0350711979, -0.0094621293, 0.0233575515, -0.1028536856, -0.0159837138, 0.0444192514, 0.0213798732, 0.0346305221, -0.0334146209, 0.1387513280, 0.0723780692, -0.0314236134, 0.0380457230, 0.1028781831, -0.0290486794, 