1.058117866516113, 0.990137994289398, 0.706002056598663, 1.204455137252808, 0.862586557865143, 1.458388090133667, 1.352753043174744, 1.062754988670349, 1.091450452804565, 0.722175359725952, 0.473970711231232, 0.933957755565643, 1.285357594490051, 0.328166484832764, 1.009033441543579, 1.157057642936707, 0.630218446254730, 0.579141914844513, 1.439103364944458, 0.795353829860687, 1.213989734649658, -0.297950685024261, 0.627628684043884, 0.669007182121277, 0.898674845695496, 0.240932330489159, 0.286104351282120, 1.539885759353638, 1.396019220352173, 0.936114728450775, 1.337269306182861, 0.125701278448105, 0.761044919490814, 0.428084194660187, 0.724771142005920, 0.916688561439514, 0.332664221525192, 0.857752323150635, 0.783675849437714, 1.061081051826477, 0.953569173812866, 1.001193761825562, 1.135184764862061, 1.224674701690674, 1.080536246299744, 1.068085193634033, 0.485915660858154, 1.075447082519531, 0.532061457633972, 0.680542469024658, 0.898250579833984, 0.975639700889587, 1.461301445960999, 0.597486257553101, 1.305165886878967, 0.988868355751038, 0.784631609916687, 0.995493829250336, 0.375285297632217, 0.536613881587982, 1.420061945915222, 0.519582271575928, 0.497680991888046, 0.474351525306702, -0.303792625665665, -0.119808644056320, -0.011795414611697, -0.038215246051550, -0.060311224311590, -0.311839103698730, -0.080269493162632, 0.061175838112831, -0.133548095822334, -0.133499950170517, -0.152661368250847, -0.170500278472900, 0.021007325500250, -0.016864081844687, -0.284066796302795, -0.115786761045456, -0.112848542630672, 0.089937448501587, -0.091675050556660, 0.049331955611706, -0.449550181627274, 0.022567460313439, -0.185757011175156, -0.256716847419739, 0.076700598001480, 0.212498083710670, 0.030530011281371, -0.302613496780396, -0.069654002785683, -0.114512808620930, -0.306418448686600, -0.026380762457848, -0.266678571701050, -0.338220447301865, -0.050362084060907, -0.129600822925568, -0.050414491444826, -0.414733499288559, -0.122798793017864, -0.310633808374405, -0.184061631560326, -0.106459379196167, -0.063294246792793, -0.375390917062759, -0.095723554491997, -0.198818951845169, -0.095369957387447, -0.331680268049240, -0.296376883983612, 0.040030393749475, -0.332969397306442, -0.283079952001572, 0.060913603752851, -0.053174521774054, -0.319171518087387, -0.023992801085114, -0.093403838574886, 0.048240281641483, -0.265920788049698, -0.084893889725208, -0.073519535362720, 0.157538130879402, -0.161238431930542, -0.161697104573250, -0.188068509101868, 0.226486921310425, -0.246953412890434, -0.171300768852234, 0.284666836261749, -0.028577947989106, 0.190372005105019, 0.108474396169186, -0.121579557657242, -0.317406266927719, -0.085877083241940, 0.005809488240629, 0.061566226184368, 0.166078850626945, 0.226014629006386, -0.022922005504370, -0.141474902629852, 0.084275655448437, -0.040001656860113, 0.072688497602940, -0.015556043945253, -0.122400581836700, -0.218943849205971, 0.042932540178299, 0.046509891748428, 0.022420907393098, 0.267635971307755, 0.234128743410110, 0.300905257463455, -0.087572880089283, 0.053725052624941, -0.041612353175879, 0.042072046548128, -0.160273805260658, 0.020373210310936, 0.183968454599380, -0.096339300274849, 0.213280856609344, -0.022218855097890, -0.012113246135414, 0.292210012674332, 0.109462641179562, -0.044509563595057, -0.068485774099827, 0.320676296949387, -0.141505792737007, 0.009125684387982, 0.047764696180820, -0.242478847503662, 0.109590172767639, 0.034661900252104, 0.234614893794060, -0.140256121754646, -0.054433926939964, 0.215760439634323, 0.166900649666786, -0.249007448554039, -0.004175476264209, 0.040161225944757, 0.075716577470303, 0.009212198667228, 0.111414708197117, -0.222546920180321, 0.150167196989059