0.0023653670, -0.0998314172, 0.1058444828, 0.1767045856, 0.1303442866, -0.0127622802, 0.1206882745, 0.0603742562, 0.0817047432, -0.0680503622, 0.0169319492, -0.2072013319, 0.0787997395, 0.1711522192, 0.2125791162, 0.1484462023, 0.0160430372, 0.1178840473, -0.1100983396, -0.1874570996, -0.0033050287, 0.2655410767, 0.1345566511, 0.1995520741, 0.0124450652, 0.0194334053, 0.0441834182, 0.1624636054, -0.1850960255, 0.2030586600, -0.0317220055, 0.0212908909, 0.0263868049, -0.1490879208, 0.0843072459, -0.1068642959, 0.1241824254, 0.0730337575, 0.2050477862, 0.1677328944, -0.2709157169, -0.2444901615, 0.2113036662, 0.1393209249, 0.0463988781, -0.0426341444, 0.1053904593, -0.1205850020, -0.1507631391, 0.0601712205, -0.0319942832, 0.1236536950, 0.0560128763, 0.2305372059, 0.0297487173, 0.0680676401, -0.1173525751, 0.0252343882, 0.0241215657, -0.1606678963, -0.0067430269, -0.0365369357, 0.1117342412, 0.1381160021, -0.0498602986, 0.0524884015, -0.1301624924, 0.2515713871, -0.0175602622, -0.1115406156, -0.1305947453, -0.0664019734, 0.2271849662, 0.1550932676, -0.0773420632, -0.1888932586, 0.1092179045, -0.1755068600, -0.0111162066, 0.1039465219, -0.1460767686, -0.0779170841, -0.1723877788, 0.0057680388, -0.0773323700, 0.0730306283, 0.1516408324, -0.1303306818, -0.1599173248, 0.2188541442, -0.0434881151, 0.0352095589, -0.1571642458, 0.0683792979, -0.0159315579, 0.0032181833, 0.0508445092, -0.0461989492, 0.0129096191, 0.2437869012, -0.0598563552, -0.0806275383, 0.1889407784, 0.0160433780, 0.0667041764, 0.0352031924, 0.1191167980, 0.0114626708, 0.0807391778, 0.0668989643, 0.1267376244, -0.1316485554, 0.1238251776, -0.0173873175, 0.0467051566, -0.1113514453, -0.2206672728, 0.1538703293, 0.0913364366, 0.1796257347, 0.0566785261, -0.0325792581, -0.1111232638, 0.0434213839, 0.1403343529, 0.1804910004, 0.0560006686, -0.1732093692, -0.0126986736, -0.0803973749, 0.0095366566, -0.0583014227, 0.0962895900, -0.0421052650, 0.0499087907, -0.0026963579, 0.0550288409, 0.2174807489, -0.1006400660, -0.0556778423, 0.0541258603, -0.0960238874, 0.0957069620, -0.1452832222, -0.0241031777, -0.0435637273, 0.0157453921, 0.0238383804, -0.1555477083, -0.2681874335, 0.0325751714, -0.1584465653, 0.0805493072, 0.0652423501, 0.1320892423, 0.0670223385, -0.0462594815, -0.0585021563, -0.0260249712, 0.1044560522, 0.0519542322, 0.2278120816, 0.0299604144, -0.2094385475, 0.0092169121, 0.1574746370, 0.1056439206, 0.0617307611, -0.0440931357, 0.0172244832, -0.0767709613, 0.0595250763, 0.0438600704, 0.0844012126, -0.0907151699, 0.0105153238, 0.1486404091, 0.0740879998, -0.0732319653, 0.2389496714, -0.1580824703, -0.0928008482, 0.1176438928, -0.1403343081, -0.0674722269, -0.2661044896, 0.1630984545, -0.0330878012, -0.0483805425, 0.0711824298, 0.1711994857, 0.0287813228, 0.0283174124, 0.1240847409, 0.1254646927, -0.0935357437, -0.1392656714, 0.1819952130, -0.1836804748, -0.2060952187, 0.0590660125, -0.0761253014, 0.1232985035, 0.2706731856, 0.1033644974, -0.0028685774, 0.1012282073, 0.2461655885, -0.1482598186, 0.1418374777, 0.0856542289, 0.0461064167, 0.0147359855, 0.0597375669, -0.2251528651, 0.0794439614, -0.0691881329, 0.0303502642, -0.1622653008, -0.0284507051, 0.0283285361, 0.1711330265, -0.0629199892, -0.1141057611, 0.1890638322, -0.1310880333, 0.0637391731, -0.0634701848, 0.0564588644, -0.2200907618, -0.0077766986, -0.0787194520, -0.1304320842, 0.0976496786, 0.0827140212, -0.0747597739, 0.1299795806, 0.0117557645, 0.1965830624, 0.1510655433, 0.1418412328, -0.0161338579, -0.1414924562, -0.0562662184, 0.1031988040, 0.1828474700, 0.1022601873, 0.0432933010, 0.0309148170, -0.0388017371, 0.0390999243, 0.0069551463, -0.1861225814, 0.1448145658, 0.0075975819, 0.0191920511, -0.0130908135, 0.1391849816, -0.0394569971, 0.1565670669, 0.0420564450, -0.0084033459, 0.1121068373, -0.1608607471, -0.1907807142, -0.0128082111, -0.0976983681, -0.0307403393, 0.1027702391, 0.0484772362, -0.0354937129, -0.0354221649, 0.0018418086, 0.2600643337, 0.0548637472, 0.0728077739, 0.0339122638, -0.2160340250, 0.0260977019, -0.1977804005, 0.0928214118, 0.1058608815, 0.0870913118, -0.1087409779, 0.0475100018, -0.1388824582, -0.0246554017, 0.0195116960, -0.2278217971, 0.1732885689, 0.1550105810, -0.0534305125, -0.0993358195, 0.0821932703, 0.1295817792, -0.1489832252, -0.0303496066, -0.1066971794, -0.0131248021, -0.0489020087, -0.0262041297, 0.1322415918, -0.0781615376, 0.2624175549, -0.0804233924, 0.1210327595, -0.1152887717, -0.1080770120, 0.1609860808, -0.1428789347, -0.1740910709, 0.0744954497, 0.0740083456, 0.1436408311, 0.0125579815, 0.0544671752, 0.0040723346, -0.2044683993, -0.0014074392, 0.1040495932, 0.2019190043, 0.1920500994, 0.1815539002, 0.1755866706, 0.1022740677, -0.1370248944, 0.2120329440, -0.0908111706, -0.2102153599, -0.1163634136, -0.1460053921, -0.0885417610, 0.1660770327, 0.1207255423, 0.0039914320, -0.0826906934, 0.0939973146, 0.1728604138, 0.1819988340, -0.2032018751, -0.1294302195, 0.0373740643, 0.0322248116, -0.1768520921, -0.1194393560, -0.1572940797, 0.1244791150, 0.1656976193, -0.1468965113, -0.1738688946, 0.2499408871, 0.0353887565, 0.0393958502, -0.0254624803, 0.0624588393, 0.1654060185, -0.0376784131, -0.2237262726, -0.1082614511, 0.0661649778, -0.0363200828, 0.0243733469, 0.2498121411, -0.0423843674, -0.0987702832, 0.0756847113, -0.1339443177, 0.0793958083, 0.2378905118, -0.0249407813, 0.0086969230, 0.1635332853, 0.1157773733, 0.0712442547, -0.1312698871, -0.2574574053, 0.1373096704, -0.1420226693, -0.0496070199, 0.0170189943, 0.0318246149, 0.0606139563, 0.2212866694, 0.0599731877, 0.1551744044, 0.0033449729, -0.1052089855, 0.0298246406, 0.0076987324, -0.0154490564, 0.0900558904, 0.0321507789, 0.0405583195, 0.0760372952, -0.1028670892, 0.0059925979, -0.0054945857, 0.0987471119, 0.0711259767, -0.0855439454, 0.0495406762, -0.0732145905, -0.0392527618, -0.0155000919, -0.0757581666, 0.0016919835, 0.0469480567, 0.0475306772, 0.1159444973, 0.0346821323, -0.1657703519, 0.0368154719, -0.1438904256, -0.0908958390, 0.0945891589, 0.0547609366, 0.0694966987, 0.0263564289, 0.1275376230, 0.0299794711, -0.1658824533, 0.0441689268, 0.1982386857, 0.0669768825, 0.1331322044, 0.0398365743, 0.2390965223, -0.2609758973, 0.0630040020, -0.1650465131, -0.1067728400, 0.1669966131, -0.0040285788, 0.0041293059, 0.0377087928, 0.1912098378, -0.1367643327, 0.1353753954, 0.0216116086, -0.0571112819, -0.0941870362, 0.0662792325, 0.1966962218, -0.0689524040, 0.0559997596, -0.0558675490, 0.2331834882, 0.0611484535, -0.0164414197, 0.0570852049, 0.1539627910, -0.1320020705, -0.0007847444, 0.1378936768, 0.0445641093, -0.0077863587, -0.1447009593, 0.0634007826, 0.0828327909, -0.0040555708, -0.0778715834, 0.1910033971, 0.0541802645, -0.0850785971, -0.1045263559, -0.1195640862, 0.1125432104, -0.2190290093, 0.1151498631, 0.0553999916, -0.1192550957, 0.0865019783, -0.1019705012, -0.1199068204, 0.1543689817, 0.1379621774, 0.2446411103, -0.0713068843, 0.0681629479, -0.1112930626, 0.0859043151, 0.1254792660, -0.0672942325, -0.0767041743, 0.1556715369, 0.0462302603, 0.1404406875, 0.1482461393, 0.1362110823, -0.0905790776, 0.0251181517, -0.0677424222, -0.0516770780, 0.1225597337, -0.0308903102, 0.0190428998, -0.0861325786, -0.0164577458, 0.0125040216, -0.1485621631, -0.2632133961, -0.0536178462, -0.1091319472, -0.1117364913, 0.0863283649, 0.0995501578, 0.0009838619, -0.0874957368, 0.1580844223, 0.0633585528, 0.0848436281, -0.1355108619, -0.1107124314, -0.0355072506, -0.0771161541, 0.2180099189, -0.0745647848, 0.0497364253, 0.1464760303, -0.1625581086, -0.2148204148, -0.1436067969, -0.0891686380, -0.1474853009, -0.1475390494, -0.1377720535, -0.0410520248, 0.1120335311, 0.1409895271, -0.1913276017, -0.0364162140, 0.0423162058, 0.0777343884, 0.1294605434, -0.0697876960, -0.1035040468, -0.0526232235, 0.0139574204, -0.0331190825, -0.2604278326, 0.0140710967, 0.2177961171, 0.0611074865, -0.0555315092, 0.0302361194, -0.1084794328, -0.1189159006, 0.0430874974, 0.2039203495, -0.0405030474, -0.0245899390, -0.2528178394, 0.0718481168, 0.1137691587, 0.0158894584, -0.1524580270, 0.1132412776, -0.1921104193, 0.1133995503, 0.0643940791, -0.1444254518, 0.0847785249, 0.1983056962, 0.0039188350, 0.0422760285, 0.2160091251, -0.0053871502, 0.0349248499, -0.1056245342, -0.1182018593, -0.1811273843, 0.1323492825, -0.0365766734, -0.1172144189, -0.2363907993, -0.1987786144, -0.0218397770, 0.2085699439, -0.0746110752, -0.0409010835, -0.0099018030, 0.0810506791, -0.0776215866, 0.1813338399, 0.1347741038, -0.0211921409, -0.1040769294, -0.2516118586, 0.0600418337, -0.0324905105, 0.1483580023, -0.0909268409, -0.0283819940, 0.1549035460, -0.0443218760, -0.0535344370, 0.1128197163, -0.1913609207, 0.0722870305, -0.1655277014, 0.0333670042, 0.1087052822, 0.0815358609, -0.0964027569, -0.1549536139, 0.0578639507, 0.0742259026, -0.0987544060, 0.2063491493, -0.1286397278, -0.0727021322, -0.1720818579, -0.0033261811, -0.0571018420, -0.0034783308, 0.2473783791, 0.2280918509, -0.0807165802, -0.1293582022, -0.1314266026, -0.1047050655, 0.1035658345, 0.0666905418, 0.1935049891, 0.0934263617, 0.0300294217, 0.1660510153, -0.0129479188, -0.0283857286, -0.1077926308, -0.0103874383, -0.0976610109, 0.0204680953, -0.2574624121, -0.0121442135, -0.1064792201, -0.0201513581, 0.0480847582, -0.1910848022, -0.1147065386, -0.1135975569, 0.1206690446, -0.0868565962, -0.0064699105, -0.1364151835, 0.2360226363, 0.1456118226, -0.1098266914, -0.1160794571, 0.1677329540, 0.0422693379, -0.2046888769, 0.0504685491, 0.2668475509, -0.1009894088, -0.1390019357, -0.1646300554, 0.1136198714, 0.0008282139, -0.1643707603, -0.0331412554, -0.0895187408, -0.0732223839, -0.0421185829, 0.0527950116, -0.0280166343, -0.0202413816, 0.0049080742, 0.0196445547, 0.0117302760, -0.1286380440, 0.2286145687, 0.0427777097, 0.0331500359, -0.1216319650, -0.1430140734, 0.2057375908, -0.0004569015, 0.0847343132, -0.0649059266, 0.0185235478, 0.1002440229, 0.0307734478, 0.1545125842, -0.1947165430, -0.1610689610, 0.0043881941, 0.1580547243, 0.2016264051, 0.0726327300, -0.0820209682, 0.0216063000, 0.2120693624, 0.0151119167, 0.0801845938, -0.1543611437, 0.1995571703, -0.0069138547, 0.1153877750, -0.2630356550, 0.1115959063, 0.2555481493, 0.0641244054, -0.0778944716, -0.0068355892, 0.1080510989, -0.0857742876, -0.0839821696, -0.0201944541, -0.1616775542, -0.0862135962, 0.1123331264, -0.0106064444, -0.0674207434, 0.0372510627, -0.1208419204, -0.1210162714, -0.0447742119, -0.1839103252, -0.1473548561, 0.0669504479, 0.0957932696, 0.1148224920, -0.0398701802, -0.1406659335, -0.0051539117, -0.0490570329, -0.0126300752, -0.1767514646, -0.1818901151, -0.1475739330, -0.0768754557, 0.0256585255, -0.0843731612, 0.0113569526, 0.1267189533, 0.0859150067, -0.0143442303, -0.1689792871, -0.1492002010, -0.0796061680, -0.0407861322, 0.1741002053, -0.1822370440, -0.0028569361, -0.0940617621, -0.0822251439, 0.0710172057, 0.1102175638, -0.0663406774, 0.0382467508, 0.2328859419, 0.1447150260, 0.0219212901, -0.0143096875, -0.0279601682, -0.0416709781, 0.0850996599, 0.2568934262, -0.1082348004, 0.0074306875, 0.1043262407, -0.0750969723, -0.1443931460, -0.0593530200, 0.0703222528, -0.0171520635, -0.1308124959, -0.1518910974, 0.0294916257, -0.1173225790, 0.0215817131, -0.0426809750, -0.0379267484, -0.0763218999, -0.0324449763, 0.0950428993, -0.0756164715, 0.0471308418, -0.0115086697, -0.1599759012, 0.2000186890, -0.1778677106, 0.1367736161, 0.1224424466, 0.0380842350, 0.1679882109, -0.1526693851, 0.0477865636, -0.2261666358, -0.0547782816, -0.0704126805, -0.1023352742, -0.1177537441, 0.1299171150, -0.0115906158, 0.0937563926, 0.1310251653, 0.0512964651, 0.0792281702, 0.1513624787, -0.1699960828, 0.0998202413, 0.0432199985, 0.0589827709, 0.0786415935, -0.2143063843, 0.1445540041, -0.0054384032, 0.0742176399, 0.0782789141, 0.0930062160, -0.0698246807, 0.0420212522, 0.1112440526, -0.1404148638, 0.2059929967, -0.0430556089, -0.2234610021, 0.0596343651, 0.0007947399, -0.0846856982, 0.0587817766, 0.1839060336, -0.0134664746, -0.0626650974, -0.1886620075, 0.2304441482, 0.0349591449, -0.0353946798, 0.0064861947, -0.0141159976, -0.0461339355, -0.0925577581, -0.0931447297, -0.0896132439, 0.1827976704, 0.0599443130, 0.0231023338, 0.0259688776, 0.0550950058, -0.2225395739, 0.1272724569, -0.1250112802, 0.0442044958, -0.1575209051, 0.0064763068, 0.0159700587, -0.0813180953, -0.0413486063, 0.0592806041, -0.0938983336, -0.1217291132, 0.0490053073, -0.0572977103, -0.0505044386, 0.2292326838, -0.0012229636, 0.1387162507, 0.1100913435, -0.1122954264, 0.1257085353, 0.1573132724, -0.0609709285, 0.1028531119, -0.0315326713, -0.0265993122, -0.1194283068, -0.0195206348, 0.0170026813, 0.0510804206, -0.1292342544, -0.0120585365, 0.0462657250, 0.2481232136, -0.1300475150, -0.0250985827, -0.0600121468, -0.1022154763, -0.1212680042, -0.0917283520, 0.0540529080, 0.1337613314, 0.0648027733, 0.0226719361, -0.0068449792, 0.0790554732, 0.2121891230, -0.1606442928, -0.0466231629, -0.1320225447, 0.0163285974, -0.0938458741, -0.0877835676, 0.1435798556, 0.2540046275, -0.0320763513, -0.0518150032, -0.0555030927, 0.0564577654, 0.1380182207, 0.1394660324, -0.0352050923, -0.1062839404, -0.0745881572, 0.1807361245, -0.1497799754, 0.0545856580, 0.2235666215, -0.0027028415, -0.1787196249, 0.1926350296, 0.0420021527, -0.0548995696, -0.0818198621, -0.0634126142, 0.0910876468, 0.1368391365, 0.2010957897, -0.1485383213, 0.0351717286, 0.2072335631, 0.0402449928, -0.0209293272, 0.1077627093, 0.1142725348, -0.1350070238, 0.0731030032, -0.1611395776, 0.0298531260, -0.1580324322, 0.0431632362, -0.1911793947, 0.0447367616, 0.1786670387, 0.0401819050, 0.1216961741, -0.1796979904, 0.0767189190, -0.0509615242, -0.1372078359, -0.1826562881, 0.0225244500, -0.0058120009, 0.0258837156, 0.1414520442, -0.1262260228, 0.0240598898, 0.1507040560, -0.2100435346, -0.0312339794, 0.0241347644, 0.2688894868, 0.0320953019, -0.0431361496, 0.1864906102, 0.0633215159, -0.0601349287, -0.0364429951, -0.0414517224, 0.0522012860, 0.0367957167, 0.0208845753, 0.1638820469, -0.0049608843, 0.1272300035, 0.1138946116, 0.0104370667, 0.0951379910, -0.0451779105, 0.1999164969, 0.1451136172, -0.1393141150, 0.1952439696, -0.1212614775, 0.0240182485, 0.1672867835, 0.0138424244, 0.1226605698, -0.1218226030, -0.0817897916, 0.1026979908, -0.0234496612, -0.1093930975, 0.0276423357, -0.0582408346, -0.0793630779, -0.0361144207, -0.0169234462, -0.2061498165, 0.1176142842, -0.1420955807, -0.1362161636, 0.1104485765, -0.2018070668, -0.0399576016, 0.1149465740, 0.1184902936, -0.0136477826, 0.0489802919, 0.2686359882, -0.2508487105, 0.0751406476, -0.0952035859, 0.0093554417, 0.0753146261, -0.1951600462, -0.0885135010, 0.0726557225, -0.0770998001, 0.0860451832, -0.0327545963, 0.0629200861, 0.1103321835, 0.0147843277, -0.0783541873, -0.0096759638, 0.0307048801, -0.1959188432, 0.0887244642, 0.0556731373, -0.1427180469, -0.1469564885, 0.0768846571, 0.2325266451, 0.0421100631, 0.0790192708, 0.0163998436, -0.1950183064, -0.1234687492, 0.0720978975, -0.1220539212, -0.1628103703, -0.1664332151, 0.1079147384, -0.0350757502, -0.1612307280, -0.0489563905, -0.1146537587, 0.0132844215, 0.1202343553, -0.0184140429, -0.0333859585, 0.0289770700, -0.1040682271, -0.1607719213, 0.0299074519, -0.0454104617, 0.0952940062, 0.0547162145, -0.0031820107, 0.1201124042, -0.1442933530, -0.0752688050, -0.0939189717, 0.2089980394, 0.0850092322, -0.0544127636, 0.2526521087, 0.0954872370, -0.0301071629, 0.1513790041, -0.0480328724, 0.0240125880, -0.1059110984, 0.1434516907, 0.1827469468, -0.0186342988, 0.0933815390, -0.1017483547, 0.1122123897, -0.1459644586, -0.1429309100, 0.1918272376, -0.1628439128, -0.0303266235, 0.0075909011, -0.0840514153, 0.2217697650, 0.0050736889, 0.1011398062, 0.0703610107, -0.1424197257, -0.1066555381, -0.1174813882, -0.0382689051, -0.0550807454, 0.0277346727, -0.1918368042, 0.0474596024, -0.1837983280, -0.1216956973, 0.0898088291, 0.0630066991, 0.1510231346, -0.1532073170, 0.0426586792, 0.0503937528, 0.1013706177, 0.2234583646, -0.1100692302, 0.1290257722, -0.1108433455, -0.0945057124, -0.1386405528, 0.1319227517, -0.1291457713, -0.0564411692, -0.0668710023, -0.0608631782, -0.1539661735, 0.0167185273, -0.0735541284, 0.0520326905, 0.1108795628, -0.1859306544, 0.1553826332, 0.0583081059, 0.0332096927, -0.0317293517, 0.0764724389, -0.0367288440, 0.0508364998, -0.1198361069, -0.1706250012, -0.0714843124, 0.0475329049, 0.0630535707, -0.0328539498, 0.0066364994, 0.1225543842, -0.0647836924, -0.0628231168, -0.1178892776, -0.2130441219, -0.0420673639, -0.0893651247, -0.1427940577, 0.0316309556, 0.0822545588, 0.1949650943, 0.0167823359, 0.0640361682, -0.0149372779, 0.2088544965, 0.0375775322, 0.0173631720, 0.0819796100, 0.0974143893, 0.1380068809, 0.1042122915, -0.1217883080, 0.0125611117, 0.0422449559, -0.0952641591, -0.1405944526, 0.0685674250, 0.0680289567, -0.1675357670, 0.2402587682, -0.0537824966, -0.0693027228, -0.1633994728, 0.0653777122, -0.0152300885, -0.0192958415, 0.0501845181, 0.0527353249, -0.1001173109, -0.1011749804, -0.0323891230, 0.0582675673, -0.2120039165, 0.0584534705, -0.0805740654, 0.0139972745, -0.0665597171, -0.0594394989, 0.0787406713, 0.1802829653, -0.0544753931, -0.1840996444, 0.0411678813, 0.0728200749, 0.0874145254, -0.1667260528, 0.2300551981, -0.0308569707, -0.0715217069, -0.1151476204, 0.0813095868, 0.2714667618, 0.2271587849, -0.0344734937, -0.0701450855, -0.1061412543, 0.0533233881, 0.1229111478, 0.2099829465, 0.0806928873, -0.1682176143, -0.0719007403, 0.0930061713, -0.1984932125, -0.1597203761, -0.1051997542, -0.2459554672, -0.1006478071, 0.0275315512, 0.2266893387, 0.1289092153, -0.0795411989, 0.0978002176, -0.2694199085, -0.0309019256, -0.0011974049, 0.1418032646, 0.1407126188, -0.0329695456, -0.1549390703, 0.1234732866, 0.1670745611, 0.0998282135, -0.0646946058, 0.0886737257, -0.0369593874, -0.0818329155, 0.1250926852, 0.0401342325, -0.1294372231, -0.0103365788, 0.0919640362, 0.1187124252, 0.2026144415, 0.1216108873, -0.0844087824, 0.1089798436, -0.2180840075, 0.0591446795, -0.1464198232, 0.0076069748, -0.0521075614, -0.2199068516, -0.0079807043, -0.1739871502, -0.0643305779, -0.0023594787, 0.0781854093, 0.1932938099, 0.0241766088, -0.0975657254, 0.0746151805, -0.0393455513, 0.1380043477, -0.0048594885, -0.0809990838, -0.1951676905, 0.1669459492, -0.0074709421, 0.0407583155, 0.2093700022, -0.0539360866, 0.2564778030, 0.0483034216, 0.0571482554, -0.0065012486, 0.0067210626, 0.0664094537, 0.2172772139, -0.2186554968, 0.0932567716, -0.0479226261, 0.0331835188, 0.1346085817, -0.0284772459, -0.1537411213, -0.0274242610, -0.0012264100, 0.1723472029, 0.1416835934, 0.1473007649, 0.0661763996, -0.1221731529, 0.0210335832, -0.0675275475, 0.0223176237, 0.0875571072, 0.0208815299, 0.0042141951, -0.1514792293, 0.0085516637, 0.0563680530, -0.0383335873, -0.0069683432, -0.0415971018, -0.1574233621, -0.1954245716, -0.0527507551, 0.2340169996, -0.0251164138, 0.0226414539, -0.0596041791, 0.2326390892, -0.0582064018, -0.0250611845, -0.0378161408, -0.1261407733, 0.0267874394, -0.1929038465, 0.2582283616, -0.0827941224, -0.0168920439, -0.1468927860, -0.1473258287, 0.0385833010, 0.1569522917, -0.1047366858, -0.0480468199, -0.0626535788, -0.1358876228, -0.2028716058, 0.0093912268, 0.0367915519, -0.1446001977, -0.0450426787, -0.0695072189, -0.2678396404, -0.1307931244, 0.1910663545, -0.1121979430, -0.1386730671, 0.0340094008, -0.0960553065, -0.1668923795, 0.0801516771, -0.2576059997, -0.1624444872, 0.0968580842, -0.0136170136, -0.0965476558, 0.1923258901, -0.1468503028, -0.1818332970, -0.0680881441, 0.0228176340, 0.0040202127, -0.1834361106, 0.0307968613, -0.1041903719, -0.1068032011, -0.0236555785, -0.2009862363, 0.1321483701, -0.0417470299, 0.1883189082, 0.0810237527, -0.0946301818, -0.2167170793, 0.0142424144, 0.1236069724, 0.0417286977, -0.0260478705, -0.0596095771, 0.1782760471, 0.1206731200, -0.0914960876, -0.1627958417, -0.0847661048, 0.0783846900, 0.0224335007, 0.2286855429, -0.1847695708, 0.0603869595, -0.0077917348, 0.0972451419, -0.1321996301, 0.0528568551, 0.0711105764, -0.0140261399, -0.0955490172, 0.0087252315, 0.0511559844, -0.1983934045, 0.1130865663, -0.0840199366, 0.0618057288, -0.2479361147, 0.0707108155, 0.0427300446, 0.0388463475, 0.0541097261, -0.0130355358, -0.1212637201, -0.0104546938, -0.2330845594, -0.0312511735, -0.0083297594, -0.1281484663, -0.0721320882, -0.0375027508, -0.2002161294, -0.1821748316, 0.0410671607, -0.0182639882, -0.1254384071, -0.0753528997, 0.1246299818, 0.0147742666, -0.0350894704, -0.0070085060, -0.0616488047, 0.1910798252, -0.2621463239, 0.0935488120, -0.1413553208, 0.0975136682, 0.0785059407, -0.0610298887, -0.0567451529, 0.0131857339, -0.1249526441, 0.1082996204, -0.2103882879, -0.1807880104, 0.0013664041, 0.0873119533, -0.0771565437, 0.0355439335, -0.0554692894, 0.0591761805, -0.0484049469, 0.1601668745, 0.0204291381, 0.0053258748, 0.2004149258, -0.1202994436, 0.1385958344, -0.1337346882, -0.0727217346, 0.2351122200, 0.0270880554, -0.0145275826, -0.1242710128, 0.1302185804, -0.1048852950, 0.0794888139, 0.1658905745, 0.0341905504, -0.0191347562, -0.0780610666, -0.2172491550, -0.1087984741, 0.0263859536, 0.2128633261, 0.0384001471, 0.2381696254, 0.1207080707, 0.0593977235, 0.1891953200, -0.0099714370, -0.0587057844, -0.1140409485, -0.0400111116, 0.1919523627, -0.1640436202, 0.0275073014, -0.1040017456, -0.2131694257, 0.1565081179, 0.0615909621, -0.0507159159, 0.1904152185, 0.0494152717, -0.0781215727, 0.0766046941, -0.0597287677, 0.1145208105, -0.1659077406, -0.1082257777, -0.1665683836, 0.2393278927, -0.1920699328, 0.0050834632, -0.0070637767, 0.2219665051, 0.1000846475, 0.1577070057, 0.0817504972, 0.0337084569, -0.0932258144, -0.0734769925, -0.0803518146, 0.1302221417, 0.0183370840, -0.0922705606, -0.1283310503, -0.0559213012, 0.1509884149, 0.0716710612, -0.0451679118, 0.1679521203, 0.0062779975, 0.1770917922, -0.0261838250, -0.2348608524, 0.0464918651, -0.0259539615, 0.0074377554, -0.1027935371, 0.0686135441, 0.0262090284, 0.0911484063, -0.2335339189, 0.1113236025, -0.1028849706, -0.1720469445, -0.1032696962, -0.0079372665, -0.1402201653, -0.1231714189, 0.0192952212, 0.2498936951, -0.1558499634, 0.0947406366, 0.1016165242, -0.1439943910, -0.0493781865, 0.0121666640, -0.1243357882, 0.1564718336, -0.0398645587, -0.0653547421, -0.1238273308, -0.0651372299, 0.0163836125, 0.1053274795, -0.2318262309, 0.0129711851, -0.1194636300, 0.1858628690, -0.0573769920, -0.0013264316, -0.0750985742, -0.0736079961, 0.1749761850, -0.1065012440, 0.0616043024, 0.1240055636, 0.1632979959, -0.1835003048, -0.0431587361, 0.2349914759, -0.1171916351, 0.1183578148, 0.0506905057, -0.1041430458, -0.0511056557, 0.1992485374, -0.2644929886, 0.0348463766, -0.1075142696, -0.1358679831, -0.0687984377, 0.1290117949, -0.0052255057, -0.0338168629, 0.0516136140, 0.0251249894, -0.2533300817, 0.0207286123, 0.0697493479, -0.0103266910, 0.0882292837, 0.1805205345, 0.2048821300, -0.1819447875, 0.0542252846, -0.1895292699, 0.0865036175, 0.0423635282, 0.2329310477, 0.2711599469, -0.0947724730, -0.2269984186, 0.2200288773, 0.0459129512, -0.0718114451, -0.1187983155, -0.0527664945, 0.0549167283, 0.0232831873, -0.0400616601, -0.1442504525, 0.0859227777, 0.1171475053, -0.1022770479, 0.0008727007, -0.0934322104, -0.1384824067, 0.2703176439, -0.1178394407, -0.0404208228, -0.1464690715, 0.0612511188, -0.0012346004, 0.1645267010, -0.1614194363, -0.1030263081, -0.0790575892, -0.0280089099, 0.2091753334, -0.0569404773, -0.1628676057, -0.1222920492, 0.0868121088, 0.1353629231, -0.1964257509, 0.2189378887, 0.0864794403, -0.1233766004, 0.0066501223, 0.1184770912, 0.0097012389, -0.2042758316, 0.1134489477, 0.1582268476, 0.0932690576, 0.0249569826, -0.2464431673, 0.0015690612, 0.0988636613, -0.0591699667, -0.2403714657, -0.1130574942, 0.1081713215, -0.0595557615, 0.1225406677, 0.1294733733, -0.0393589363, 0.0280989222, 0.1371704489, 0.0150276441, 0.0919735283, 0.1716384441, 0.1144770086, -0.1268408448, 0.2371004969, -0.1329241991, 0.0213138536, -0.0825644061, -0.0568501242, 0.0557901487, -0.0254409183, -0.0277331732, -0.1574899107, -0.1104694307, -0.0862997398, 0.0050435090, 0.1804236323, 0.0607365109, 0.0416257791, -0.0821749121, 0.0505653247, 0.0126177883, -0.0209467690, -0.2492160052, 0.0950056463, -0.1743978411, -0.0726130679, -0.0795313492, -0.0461758599, 0.1149879918, 0.0178056192, -0.1110163182, 0.1503974050, -0.0663994774, -0.0483106188, -0.0008273138, 0.1592428833, 0.0609990843, -0.0803706497, -0.2702047229, -0.0608454980, -0.0154233752, -0.0185230710, -0.0496761873, -0.0462976880, 0.0371934995, -0.0647485405, -0.1296576858, 0.0476454720, -0.0202452410, 0.0637053847, 0.1176876575, 0.1155525595, -0.0675254241, 0.2334441394, 0.0738427937, 0.2292691618, 0.0397966616, 0.1085855737, -0.0047210450, -0.1308321804, -0.1701113582, 0.0233078878, -0.0212744940, 0.1175955385, -0.0010838145, 0.1435337812, -0.0596411489, -0.1682173163, 0.0092810569, -0.2179426551, -0.0828866586, -0.1144107208, 0.1688797623, -0.0249210354, 0.0670729354, 0.0996011347, -0.1547495574, -0.0195203777, -0.0186237954, 0.0680320337, 0.0835261792, -0.0425030924, -0.1319225580, 0.0306169372, 0.1025249138, -0.1304467320, -0.1456927061, -0.0952746868, 0.0507448576, -0.1657124162, -0.0812649056, -0.1479730308, 0.1253912002, -0.0647743493, 0.1253995597, -0.2685898840, 0.0713684410, 0.1000746712, -0.0858022347, 0.0293941293, 0.1760996580, 0.1034147590, -0.0549997985, -0.0626326650, 0.0194576532, 0.1584505737, 0.1185487285, 0.0042389450, 0.0300280750, -0.2182601541, -0.2012826800, -0.1605726779, 0.1151185855, 0.0046762195, 0.0790967494, 0.0131829428, -0.1190315783, -0.1450333595, -0.1156237721, -0.0388894603, -0.1114890799, 0.2357971519, 0.0589524433, -0.2389926165, 0.1207408607, -0.0287126675, -0.0221543573, -0.0742394775, 0.0054348200, -0.0037371749, -0.2172792703, -0.0115505382, -0.0824502110, -0.0771343857, -0.0221415870, -0.0037969521, 0.2126100808, -0.0014296881, 0.1939009428, 0.0910075530, -0.0581682436, -0.0078319488, 0.0201860070, -0.2605609298, 0.0633938983, -0.0032252446, -0.0069808778, 0.0733920932, -0.0920079276, -0.0939561799, -0.1548524499, 0.1019672602, -0.0102660498, -0.1853836328, -0.0066195619, 0.0257812683, 0.1414269954, 0.1262037605, -0.0918424353, 0.1138431504, 0.1275450140, -0.0740728825, 0.1098869964, 0.0712873638, -0.0780552551, -0.0201016143, -0.2441310436, -0.0457980745, -0.1974358112, -0.1041639298, 0.1092748120, -0.0101172784, 0.1304063350, -0.0308567025, -0.1159673855, -0.0290098656, 0.1185689270, -0.0738804340, -0.1897067428, 0.1469678581, -0.1233995855, 0.2255686224, -0.2497098595, -0.0302342158, -0.2418457717, -0.1222080737, 0.2057539374, -0.0065884772, -0.0881141201, 0.2589095533, 0.0046184752, -0.0507691838, 0.1925852895, -0.0417366698, -0.0306976791, 0.0903010368, -0.1829442531, 0.0835412368, -0.0031332143, -0.0806172341, 0.2479204684, 0.1035734117, 0.1642731875, -0.0975025743, 0.1097692922, 0.0147622339, 0.1806499511, 0.0614912882, -0.0908525288, -0.0341079384, 0.0546530336, 0.1015327945, 0.0925294235, 0.1597812921, 0.1398051232, 0.0189010128, -0.0162247382, -0.1741554886, 0.1817145050, 0.0422633775, 0.2335709780, 0.0940616503, 0.0746240914, 0.1135758013, -0.1348591149, 0.0729654655, -0.1249696538, -0.2159487903, -0.1244735420, 0.0401788093, 0.0837870464, 0.0241615623, 0.1180876866, 0.0914855376, 0.0057740109, 0.0388951898, 0.0736474246, 0.0624282174, -0.1705955267, -0.0410129391, -0.0294447914, -0.0366324820, -0.1558412164, 0.1719838381, 0.2029675543, -0.1134304330, -0.0042701401, 0.0127430586, 0.0428752117, 0.0128527619, 0.1693972200, 0.1427424848, -0.0608864464, 0.0616249107, -0.0504244938, 0.1007085443, 0.0588120297, -0.0140572768, 0.0468448959, -0.1387541145, 0.1589605808, 0.1291560531, 0.2482864708, 0.0155501971, 0.0595754869, -0.0689765215, 0.0849931538, -0.0194516405, 0.1244674027, 0.2347552478, 0.0819797143, 0.0542464145, -0.1961110532, 0.2170316875, -0.0217484441, -0.0741449073, 0.2304972112, 0.0606965125, -0.2118397206, -0.0597658753, -0.2376755029, -0.0811748877, -0.2043636739, 0.0925771892, -0.1209083125, 0.1221983656, 0.0137307234, -0.0446804240, 0.0064712581, -0.2637141943, -0.0666127130, 0.0172036625, 0.0994571447, -0.0560442731, 0.0154579962, -0.0500423461, 0.0791410804, 0.1934713274, 0.0327881798, -0.1316156536, -0.2440215200, -0.0087375948, 0.0967396870, -0.0569875836, 0.0183215253, -0.0558410846, -0.1512355208, -0.1233803928, 0.0640262514, -0.0303297136, 0.1774426401, 0.1262916923, 0.0522100255, 0.0988433659, 0.0713203400, -0.0344918445, -0.1146493778, 0.1294979900, 0.0422450006, -0.1360227913, 0.0083166659, -0.0807688832, -0.1269717366, -0.0214806087, -0.0183500107, 0.0736765638, 0.0495082624, -0.2296308726, 0.0710456818, 0.2198519409, 0.0209334660, 0.1554234475, 0.0401058942, -0.1028016657, -0.2345074117, 0.0226834137, 0.1063536406, -0.1089485437, -0.0624084063, 0.1807521433, -0.1593212932, 0.1625574827, -0.0865590796, 0.0900812894, 0.0291986782, 0.0121775186, -0.0004878856, -0.0160424002, 0.2081212550, -0.1058388874, -0.1400320977, -0.2040154040, -0.1782269180, 0.0968549177, 0.1710726172, -0.0560457967, -0.0851655379, -0.0674602166, 0.1561677158, -0.1121320575, -0.0398803428, 0.0456602126, -0.2367992103, 0.0882824585, -0.0879946277, 0.0793133900, -0.0807529613, -0.0066568353, -0.0968172625, -0.0211048163, 0.0718663335, -0.0096300347, 0.2682061493, -0.1245180219, 0.1335901767, -0.0511380956, -0.2287780046, 0.1993414313, -0.0239236560, 0.0980249345, -0.0896921232, 0.0735947192, 0.0590868965, 0.1714164764, 0.0008921011, -0.0499365553, 0.2601019144, -0.1782291979, -0.1682041138, -0.0288523752, 0.0922640860, -0.0465621091, 0.2152843624, 0.1556945890, 0.0393119268, 0.0756429285, -0.0330916643, 0.0454318263, 0.2532768250, -0.0966488793, 0.1779624373, -0.0397850238, 0.1156254634, -0.1999329031, -0.0681769326, 0.1125598103, -0.1278581023, 0.1020260453, -0.0521210879, 0.1094449088, -0.0507280193, 0.1925658137, 0.0036338402, 0.1759727746, 0.0385249145, -0.0613640435, 0.0921606869, 0.0028743320, 0.0895673856, -0.0140324663, 0.0828060806, -0.0366159864, -0.0584081300, 0.0098157050, 0.0399514511, -0.0487004183, 0.0853735507, 0.0152772227, 0.0556947552, 0.0931367502, -0.0886749029, -0.2538167238, -0.2242812663, -0.0756877661, -0.2303159535, 0.0240532756, -0.0172305908, -0.2275270224, 0.0555599257, 0.0780868456, -0.1296436489, 0.2710053623, -0.0072759874, 0.0043124724, -0.0299813487, -0.0487781614, 0.0436633304, -0.1551312953, -0.1523836106, 0.1980938017, 0.1511158347, 0.0008298357, 0.0177109595, 0.1306954175, 0.0265085883, -0.0621815734, 0.0786940306, -0.0619299710, 0.0722624660, 0.0700178370, 0.0902329385, -0.1792462915, 0.1226366088, -0.1533870995, 0.1474229991, -0.0989466608, 0.1812220961, -0.0571934953, 0.0182172414, -0.2268154621, 0.1235176325, -0.1060934216, 0.1097331867, 0.1587020159, -0.0401053093, -0.0869285241, 0.1329920292, 0.2306973189, 0.0247342587, -0.0328945331, -0.1657957137, 0.1397106498, 0.0628420487, -0.1067371070, -0.0837362260, -0.1773662865, 0.0653348565, -0.0075534303, 0.0779523030, -0.0832864419, 0.1449150890, 0.2377488017, -0.0851307511, -0.2540048063, -0.2573527396, -0.2222915292, -0.0597523563, 0.0783431008, -0.0139690153, -0.0977766290, -0.0344652981, -0.1630773693, -0.1572858989, -0.0539594777, 0.0244975276, 0.0817350522, -0.0019944808, -0.1454799622, 0.2571433783, -0.0425911136, -0.1609870195, -0.0316627063, 0.0700898319, -0.1273784935, -0.1208924502, -0.0441034436, -0.0701532289, -0.1097616255, 0.0998930633, -0.0443157777, -0.1927435845, -0.1237368584, 0.0500386097, 0.2177461982, -0.0835391879, 0.0676921830, 0.0180358663, 0.1517258435, -0.1432470083, -0.0327352025, -0.1278666109, -0.0676272511, -0.1923450530, -0.0807223096, 0.0454729274, 0.1923861802, -0.0351146013, -0.1268048286, 0.0747968853, 0.2230410278, -0.1457166821, 0.1190097928, -0.1766282767, -0.0160934720, 0.1507481188, -0.2018909752, -0.0985371694, 0.0074223615, 0.0267983209, -0.1847864836, -0.0593080074, -0.1256319433, 0.1210076436, 0.0120689282, 0.0654083639, -0.1098946258, 0.0730291381, 0.2257647216, 0.0300833862, 0.0022365693, -0.1362430304, -0.1214088798, -0.0246140249, 0.0724694431, 0.1649704725, 0.1216154099, 0.0288504977, 0.0990971252, -0.1875150055, 0.1608892232, 0.0684940740, 0.1335983276, 0.2045657486, 0.2255825549, -0.0566824004, 0.1566495895, -0.0438969806, 0.1582167149, 0.2529163361, 0.0444703586, -0.0953256711, -0.0561010092, -0.1960159242, -0.0845479965, 0.0080865622, 0.1253193468, 0.0678852871, 0.1084514782, -0.0345252082, 0.0805882439, -0.2248202413, 0.1011371985, -0.0833447650, 0.0212602988, -0.1123822182, -0.1162285060, 0.0325196125, -0.1076863930, -0.0260727853, 0.0110722929, 0.0641821101, -0.0292939022, -0.0982276499, 0.1526230723, 0.1578155607, 0.2615299523, -0.1755519956, 0.0155433062, -0.0139558241, 0.1019495800, 0.2411940396, 0.0338103771, 0.1636231542, -0.0779147744, 0.0432222858, 0.1195475310, -0.0416361578, 0.0348137915, 0.0808481127, 0.1500333250, -0.0567085370, -0.2487559766, 0.0738547891, -0.0164248068, -0.0132085448, -0.0985975489, -0.1521007717, -0.0439865440, -0.0267947465, -0.0672696829, -0.1795398295, -0.0346203260, 0.0404064618, -0.2303057611, 0.2063886374, -0.0511244237, -0.1940642148, 0.1760270298, 0.0215877313, -0.0350057967, -0.1017282978, 0.2070237696, -0.2523529530, -0.0441328436, 0.0468960367, -0.0719968826, 0.0686543807, 0.1009615362, 0.1230563745, 0.0856369585, -0.1177822798, -0.0453351140, -0.0450890474, -0.1821124256, 0.1854306310, 0.0476205312, -0.1668205410, 0.1889680475, -0.0352807753, 0.0286889039, 0.0406841487, -0.0533626750, -0.1945805699, 0.0699264333, 0.0126796868, 0.0495169386, -0.0745031461, 0.2313814908, -0.0937136561, 0.0513409600, -0.0089464188, -0.2191120833, 0.0640912279, -0.1284381598, 0.0555697121, -0.0685567632, -0.0769143254, 0.2046539634, 0.2322153151, -0.2259746790, -0.0757029504, -0.1257961094, -0.0515276454, 0.1995445192, -0.0017518887, 0.0866761357, 0.1708576828, -0.2352957726, 0.0318116434, 0.0584374070, 0.1045800745, -0.0777506903, -0.2534469068, -0.0991792902, -0.1210012138, -0.2436839491, 0.0088780522, -0.0970553234, 0.2240345031, 0.1704360694, 0.1291267574, 0.0254697856, 0.1348720491, -0.1831047237, -0.1000949740, -0.0932327658, 0.1272719502, 0.0448529385, -0.0299008638, 0.1063628569, -0.1627190113, 0.1042183191, -0.0748141110, 0.0236657318, 0.1725556403, -0.0939169228, 0.0311592799, -0.1786635816, 0.1498072296, 0.0049304389, -0.0227537304, -0.0236046389, 0.0548816770, -0.0182176679, 0.1330277175, -0.0694305375, -0.0464930870, 0.0598291047, 0.1278835982, 0.1311656088, -0.1109348685, 0.0767826438, -0.2398584336, 0.0448761210, -0.1915464103, 0.0229393765, -0.0407730490, 0.0840897933, -0.0031979980, 0.1190707758, -0.0230075512, 0.0589224659, 0.1389042884, 0.0777573586, -0.0832571313, 0.0123750279, -0.0673863441, 0.1485881358, 0.1631882638, -0.1438788474, -0.0050245360, 0.0412206948, -0.1092234552, 0.0526156686, -0.0878042057, -0.0254530832, 0.2094049305, 0.1257475019, 0.0624330416, -0.0685365573, 0.1212673709, 0.0645921752, 0.1197231486, -0.1268344969, -0.0743686408, 0.0084442487, 0.2621216476, 0.1734015197, 0.0075133317, 0.0240911860, -0.2179299444, -0.1437035799, -0.1093098745, -0.0076211621, -0.0861239359, -0.1081625000, -0.0052475738, 0.1493482441, -0.0658577085, 0.0147075811, -0.0905840099, 0.0329839475, 0.0941845626, 0.0847506747, 0.0835853592, 0.1276917458, -0.1722880751, -0.0871697739, -0.1133536696, 0.1690255255, 0.0319066122, -0.0945062712, 0.0494475514, 0.0708749369, -0.0578090362, 0.1373050213, -0.1070402488, -0.0864465088, -0.1513079554, -0.0978388488, 0.0099005401, 0.0417201370, 0.1338187903, 0.0370848998, 0.0916367620, -0.1436287612, 0.0933496878, 0.1434863210, -0.1050518751, -0.0951081291, -0.1114643291, 0.0585483462, 0.0297548231, 0.0115206810, 0.0776681155, 0.1069735289, -0.2605662942, -0.0242386069, 0.0532040074, -0.0350016467, -0.0955544561, 0.0863051787, 0.0797977671, -0.1010207236, -0.1567249596, -0.0836236626, 0.0830590948, 0.1155883595, 0.0719963312, 0.1906366199, -0.0372543670, -0.1783816963, -0.0905797780, -0.0215468723, 0.0684533492, 0.0824203342, 0.1160092056, -0.1876359135, -0.1169616580, 0.2163603008, -0.0360858403, 0.0498578735, 0.0902710035, 0.0953438431, 0.0665921345, 0.0801207498, 0.0471027382, -0.1758683473, -0.2273490578, 0.2138585448, 0.1512722671, 0.1161554679, 0.0113478685, 0.0900947526, -0.1589206457, 0.2662046254, -0.0256413948, 0.0128941787, 0.2347427309, -0.1563619524, 0.0484730862, -0.0404889621, 0.1213993728, -0.1405166090, -0.2522291839, -0.0102101164, -0.0905554816, 0.0137302782, -0.2005718350, 0.1355703771, -0.0509848073, 0.1590321213, 0.2505268157, -0.0201006457, -0.2336169779, -0.0380714759, 0.0017057619, 0.1848029643, -0.0832238868, 0.1776277572, 0.0602621213, -0.1539939493, -0.1105808318, -0.0290809423, -0.1084519699, -0.0895751864, 0.0396295451, -0.1367551833, 0.2229333371, -0.0132287508, 0.2591917515, 0.1294575334, -0.1118929237, 0.1073535085, 0.0642756149, -0.1339467764, -0.0541600995, -0.0324504636, 0.1023180187, -0.0009581347, 0.0239136089, -0.0865627676, -0.0117546050, -0.2544709146, 0.1042539924, 0.1284160018, 0.0268363431, 0.0107204607, 0.0611261018, 0.0082749035, -0.0602519400, -0.0647037104, 0.0332228914, -0.0137624620, 0.0454866029, 0.0123174405, 0.1247143894, 0.0192902721, 0.0573984347, -0.0272323620, 0.0580205843, -0.0514341742, -0.1167950258, 0.0509899482, 0.1422211677, 0.1119335815, 0.0587787963, 0.0257728957, 0.0063618282, 0.0934653059, -0.1868121624, -0.1236270592, 0.1539359987, 0.0935189724, 0.0579157136, 0.0191844478, 0.0904723927, -0.1517748088, 0.1979110986, -0.1069165468, -0.0767316744, 0.2005999386, -0.0654141009, -0.0699146688, 0.0760521144, -0.0833794251, -0.1376505792, 0.0044337809, 0.0893355161, 0.0566938594, 0.0450756028, -0.1086906567, -0.0432449281, 0.1585637033, -0.0805838555, 0.0110619124, -0.2037200779, -0.0414016098, 0.0101101277, -0.1480254680, 0.0608040020, 0.0126721524, 0.1075837910, -0.0596363582, 0.1972129345, 0.0574802943, 0.1595400870, 0.1555902660, 0.0740896091, 0.0279708374, -0.1332444698, -0.2644807100, -0.0462032147, 0.0005033938, -0.1801268607, -0.0234558079, 0.0440697521, -0.0353286639, 0.0964696631, 0.0084410328, -0.1456815153, -0.0541660972, -0.1148477867, 0.1388829798, 0.1319783330, -0.1144091040, 0.1560757607, -0.0374850221, -0.0760367140, -0.1037209257, 0.0310708284, 0.2118905783, 0.0328628682, 0.1743038595, 0.1061974242, 0.0313897952, 0.1309439689, 0.0462372005, 0.1346225291, 0.0748955235, 0.2488116026, 0.0061026071, -0.0796454176, 0.0529270619, 0.0089733349, -0.1669747829, -0.0706015453, 0.0352777839, -0.0124742966, 0.1332453936, 0.1672800630, 0.0044155126, 0.0811353475, -0.2475164086, 0.0311806016, 0.1316719055, -0.1393071115, -0.1936572343, -0.0879599825, 0.2151415944, 0.0145178623, -0.0714936405, -0.1400443017, 0.1652209163, -0.2021867335, -0.2664213479, 0.1952509433, 0.1092381775, -0.0484093204, 0.0651474446, 0.0062762699, -0.1168368161, -0.0188533273, 0.0812655315, -0.0854098797, 0.1251547188, -0.2077173591, 0.2166938931, 0.0832684413, -0.1149126142, 0.0918022618, -0.1487549096, 0.1202428117, 0.1870620847, 0.0380332023, -0.0788446218, -0.1469567716, 0.0828043744, 0.1831510067, -0.1956018955, 0.0371997952, 0.0523388460, -0.0842738673, -0.1072540954, -0.1517071724, 0.0413655452, -0.0199326444, -0.1258659065, -0.0339581184, 0.0423108935, 0.0517518595, -0.1093330383, 0.0127311815, -0.1306959540, -0.1762445867, -0.2087316960, 0.1793960035, -0.0259587895, -0.0248179249, 0.0688167661, 0.0466294810, 0.0837609470, -0.1203935593, 0.1769725531, 0.1545748860, -0.0422026142, -0.1174536496, -0.0714951381, -0.0899956599, -0.0704917014, -0.1134622619, 0.2017031014, -0.2500203550, 0.2478034347, -0.2355049700, -0.0624961518, -0.1172999218, -0.0166791659, -0.1563794762, 0.1685081124, -0.0542227626, 0.0265980680, -0.1260540485, 0.1756771058, -0.0077599646, 0.2181973606, 0.0754116327, 0.0654806197, -0.1434626728, 0.0318480358, 0.0148232495, 0.1303278804, -0.0515726320, 0.2069941461, 0.0140971700, 0.1786464155, -0.1006921008, 0.2092261016, -0.0852917358, 0.0345978290, -0.0466546007, -0.0203802902, 0.2190897763, 0.0780463889, 0.1839327663, -0.0241659787, 0.0166651364, -0.1074795425, -0.0726016462, 0.0548238158, -0.0825042650, -0.0195661597, 0.2167163789, 0.1393872499, 0.0735338032, -0.1967141479, 0.0220664404, 0.2700837851, -0.0207953695, -0.0223498158, 0.2134840488, 0.0349171311, -0.2314222157, 0.1736482978, 0.1818542778, -0.0714409351, 0.1006140560, 0.0561407097, 0.1415169090, -0.2496410310, 0.1344666034, -0.0144083966, -0.0486241095, -0.0020673135, -0.0229284354, 0.0974738002, -0.0416513607, -0.0752542615, -0.0444861874, -0.1828090996, 0.1383006126, 0.1529055685, 0.1078176647, -0.0715979114, 0.0442045107, -0.0923050940, -0.0462893993, 0.0726062208, -0.0982828811, -0.0386544652, 0.0041444595, -0.1308079809, 0.0320061743, -0.0943782851, -0.0658576563, 0.1423713267, 0.0561454557, 0.0570700243, 0.1347526014, -0.0728157610, 0.0663294792, -0.1591333598, 0.1172166467, -0.0042221006, -0.2261441499, 0.2001211047, 0.2690891027, -0.0031221423, -0.0030358434, 0.1913026571, 0.0126265083, -0.1567383707, -0.1993062645, 0.1759243906, 0.2062164545, 0.0522179455, -0.0804010406, -0.0013866811, -0.0368986093, -0.1898115724, -0.0611228533, -0.1431153268, -0.0122293141, 0.0499569289, -0.1274293363, -0.2004838139, -0.1057937443, -0.0811391473, 0.0290903319, 0.1803236306, -0.2205403000, 0.0755216628, -0.1082396358, -0.0810796693, -0.0447985567, 0.0762154013, -0.0731455907, -0.0181743521, -0.0219845995, 0.0713699982, -0.0970865786, -0.0767039210, -0.0384064950, -0.0519501381, 0.0035737208, -0.0578901470, -0.0689522251, -0.1505195796, 0.1088817716, 0.1821002811, 0.1366366297, -0.1623011380, -0.0821409300, -0.2044913173, -0.0469201021, 0.0756973177, 0.1288644224, 0.0126929656, 0.1889114231, 0.1595802009, 0.1164358333, 0.0312302187, -0.0589237325, 0.1532273293, -0.0450865664, -0.0613462180, -0.1964847594, 0.1479573250, -0.0098409085, -0.2431820780, 0.1302445084, -0.0873244181, -0.1080916673, -0.0011726286, 0.0635874048, 0.0661051422, -0.2441532165, -0.1483819634, 0.1060910746, 0.1348156631, 0.2308928668, 0.0263312683, 0.0219648238, 0.1855324507, 0.1752590239, 0.2393625081, -0.1491935849, -0.0520739034, 0.1296011955, -0.0280178320, -0.0009805119, 0.2364153415, 0.0824781880, 0.2012596726, 0.1386246234, 0.1406206787, 0.0731048658, 0.1551676691, 0.1174023300, 0.1399472654, -0.1929020137, -0.0103443014, 0.1254405528, 0.1119667813, 0.0011737355, -0.0009843593, -0.2259642780, -0.1369750500, 0.0386513546, 0.0617230758, 0.0636724159, 0.0076422431, -0.0570646226, 0.0375244617, -0.0684732795, -0.1646125913, 0.1395878792, 0.0685096011, -0.1241710410, -0.0751227364, 0.1873664409, -0.0789409056, -0.0999049842, 0.1896945685, -0.0475892536, -0.0351193100, 0.0123436386, 0.0672609806, 0.0124600548, -0.1597317755, 0.0634698272, -0.2330166847, -0.0761831179, -0.1515954286, 0.0105542550, 0.1035336480, 0.0717998743, -0.2139218599, -0.0569797494, -0.2334430665, -0.1002347544, -0.1013798043, -0.0080009466, 0.0813498944, -0.0037884540, -0.1950488985, -0.0224516671, 0.1713694781, -0.2265259176, 0.0081545152, 0.0219103098, 0.0236540008, -0.0676703900, 0.2547662556, 0.0814389959, 0.1516300887, -0.1080212072, 0.0540060662, -0.0004188815, -0.1132723987, 0.0204564054, -0.0745658427, 0.2005950063, 0.0360139534, -0.1874421984, -0.0814835951, 0.1486309767, -0.0493014418, -0.0350622199, 0.0030189576, -0.0898965225, -0.0040923264, -0.1764696389, -0.0984014720, 0.0630512238, 0.0016675366, -0.0689164624, 0.0496909991, -0.0602761023, 0.0431651175, -0.1409363002, 0.2429881096, 0.0182716101, 0.1250641942, 0.0099219726, 0.0161050558, 0.2026384324, 0.0112370420, 0.0824739486, 0.0732755736, -0.0121194785, 0.0502733216, 0.0120816343, -0.0287217535, 0.0774371624, -0.1009376198, -0.0028304469, -0.1071645617, 0.1774324924, 0.0072491835, -0.2610083818, 0.1516047120, 0.2048013508, 0.0209573712, -0.0327749364, 0.2646927834, 0.0095306495, 0.1453045458, -0.0635592788, -0.0719790608, -0.2165086716, 0.1507352591, -0.0528850369, 0.0350624397, 0.0793384910, -0.1288481653, 0.0459066555, -0.1899414808, 0.0847024843, 0.0598618798, 0.0315099247, 0.0076696887, -0.0243555848, -0.2142437696, 0.1355299205, 0.1776348501, -0.0129277762, 0.1881357729, -0.0515626632, 0.0027231760, 0.1119587272, 0.0769829750, -0.2033753097, 0.0334076025, -0.0576531403, -0.0915703997, 0.0623924546, -0.2022307217, 0.0591829903, -0.0062899813, 0.1640146375, 0.2215887010, -0.0849894136, 0.0798732191, 0.1754055023, 0.0335407592, -0.1076506972, -0.0169680491, -0.1340392381, 0.0328386389, -0.1665950418, 0.0250519887, -0.0699200258, -0.2116525620, -0.1828302890, 0.0283532105, 0.0686248019, -0.0110343983, 0.0396100022, 0.0737647563, -0.0665116757, 0.0079290941, 0.1129678711, 0.0070631988, 0.2638607323, 0.2684689760, -0.0123147508, -0.0757872239, 0.0335436538, 0.1383536160, -0.0952866971, -0.1014852375, 0.0705742165, -0.0518770292, 0.2030685097, -0.0988209397, -0.1002576426, -0.0495776534, -0.0234896503, 0.0962634683, -0.0213503204, 0.0180809572, -0.0613957606, -0.0214407612, 0.2581654787, -0.0795623064, -0.0186000969, -0.0368904136, 0.1786260903, -0.0253145657, -0.0786070898, 0.0471847206, -0.0098486971, 0.0941754207, 0.0879586115, -0.1276229471, 0.1892879158, -0.0207394101, -0.0688107312, 0.2546086609, -0.1314487904, -0.0471298434, 0.0465992242, 0.0269108955, -0.0829734206, -0.1909952015, 0.0442553572, 0.0806543902, -0.1548952162, 0.0497598536, -0.0792342126, 0.0803276151, 0.0419214964, 0.1114565209, 0.2475073487, -0.0092540132, -0.2074487656, -0.0895185247, -0.1050022990, -0.0128999958, -0.0708237961, 0.0713750795, 0.0453012772, 0.0033818546, 0.1238327846, 0.0390514918, -0.0677062124, -0.2439286709, -0.2357610762, 0.1025589108, -0.1098369956, -0.0599074177, -0.0870664865, -0.1477678567, -0.0693723112, -0.1325471252, 0.0961981863, 0.0726565495, -0.0234241467, -0.0383234210, -0.0411890112, -0.1545140296, 0.0046804296, 0.2185401917, -0.1728908569, 0.0866676494, -0.1680931300, 0.1655788571, 0.0921803117, -0.1614561826, 0.0026534204, -0.0952668637, 0.0365586653, -0.1728340387, 0.1764656156, -0.0225470085, -0.0363896452, -0.0802612677, 0.0640022606, -0.2257777154, -0.0390556119, -0.0765798986, -0.1716915667, 0.0280398633, -0.0910212696, -0.2014520764, 0.0091231745, -0.0747664049, 0.0648202971, 0.0768651292, -0.2101554722, -0.0678382516, 0.0403900556, 0.0453265719, 0.1063394845, 0.1500779390, 0.0658594966, 0.0377778299, -0.0717798322, 0.0021880362, 0.0737465918, 0.1098767892, -0.2205403596, -0.1330190003, 0.0038374057, 0.1017840728, -0.1157175750, 0.0180196371, 0.0946749896, -0.0564442277, 0.0720901191, -0.0336015597, -0.0035672721, 0.2223261148, -0.0796632245, 0.0206971299, -0.0721641481, -0.1340259463, 0.1627730727, -0.1592885405, -0.0907356590, 0.0503692776, 0.0087513272, -0.1223416179, 0.0944042429, 0.0251671802, -0.1266856045, -0.1489345580, -0.0367210768, 0.0554829687, 0.1462454349, -0.1845561266, 0.0983109400, -0.0226997919, 0.0700914189, -0.0354940295, 0.1203342751, -0.1246126890, -0.0349163674, 0.2085366547, -0.0887365416, -0.1048742235, 0.0791494697, -0.2183676958, -0.0779949948, 0.2709752917, 0.0630220100, 0.1870955080, 0.0546943508, 0.0364436246, 0.0100478232, 0.0183908101, 0.0410983600, -0.0433708280, 0.0591788217, -0.0706991181, -0.1527048647, -0.0399110876, -0.1277064681, -0.0938789397, 0.0542220809, 0.0778279677, -0.1100016832, 0.1146334335, -0.1562570781, -0.0479802489, 0.0576974042, -0.1502921581, -0.0496213734, -0.2170279026, -0.0735091045, -0.1513282061, 0.1454731822, 0.1697585732, 0.1014830619, 0.0324566998, 0.1682164073, -0.0168860108, -0.0739403665, -0.0108499276, 0.1257886887, -0.0039801686, -0.0054455614, 0.0347502157, 0.0360266417, -0.0393832996, 0.0329268351, 0.1424815506, 0.1297420263, -0.1242146790, 0.0789456815, -0.0948989019, 0.0993677452, 0.1786720902, 0.0482752770, 0.1497753561, 0.0171884019, 0.0211151149, -0.0885771289, 0.1009740382, -0.1628495753, -0.1096071079, -0.0684895664, 0.0887147933, 0.0506396294, 0.2011371255, 0.1480299681, 0.0918449983, -0.1913558245, 0.1078851596, 0.1104471982, -0.0203439202, 0.1675267369, 0.0676546171, 0.2509285808, -0.2017295808, 0.1423230320, 0.0124434875, 0.1110426635, 0.2039925456, -0.2223677933, 0.2458232343, -0.0419243276, -0.1187017411, -0.0256676041, 0.0727419853, 0.1290416867, 0.1775490493, 0.0246023610, 0.2137566954, 0.0800049528, 0.0726230368, -0.0563166142, 0.1537609398, -0.0174791869, 0.1887697577, -0.1902748048, 0.0563695170, 0.0340682678, 0.2681213617, -0.1807366461, -0.1285169721, 0.1527206004, -0.2005290538, -0.0357492305, 0.0573467240, -0.2511414587, -0.1372937113, -0.1749568880, 0.0008281349, -0.1147748530, 0.0841959864, 0.0134237101, 0.0725779384, -0.0138992304, 0.0359000266, 0.0212671403, 0.0234207865, -0.1429958045, 0.0348197222, -0.2314037234, 0.0009163097, 0.0293521490, -0.1606050283, 0.0427706167, 0.0359008312, -0.0188014712, 0.1334407777, -0.1855641156, 0.1169707775, -0.1257591844, -0.1997689456, 0.0695804358, 0.0116438987, 0.0360285379, 0.0981046185, 0.1949913055, -0.0152406516, -0.1636469811, 0.0741200224, 0.1415923834, -0.2464036345, 0.0393371917, -0.1308738738, -0.1212600470, -0.1040715501, 0.0020377229, -0.0698736235, -0.1563416421, -0.1250282973, 0.1096247286, 0.0862306878, -0.0075057819, -0.0726580098, -0.2074122429, -0.0417337306, 0.0975861996, -0.1412727982, 0.1650247276, -0.0980050415, 0.1300189048, 0.1041393355, 0.1473840922, -0.1307379156, 0.0833927989, 0.1654912233, -0.1208370775, -0.0855327323, -0.0883216262, 0.0079640811, 0.1300723255, -0.0572529696, 0.1544798911, 0.0237422362, -0.1138022467, 0.0234585796, -0.0122156823, -0.0539084338, -0.0360893086, 0.0986780152, -0.0011060513, 0.0871412009, -0.2488604635, 0.1239561737, -0.0264612287, -0.0748955980, -0.1777800918, 0.0735071078, 0.0941114351, -0.0129388589, -0.2417572439, 0.0509449244, 0.0956485718, -0.0335233100, 0.0228684600, 0.0596131124, 0.2134394199, 0.1188642308, 0.1233714893, 0.0366903506, -0.1350288540, 0.0772278309, 0.0290511400, -0.0284619499, -0.0034808370, -0.0914134458, 0.1434733272, -0.0338365734, -0.1022942960, -0.0272838399, 0.1910956055, -0.0845057666, -0.2222816199, -0.1943510771, -0.0125314370, -0.0396633483, -0.1003605276, -0.0545929223, -0.0165129434, -0.0861163288, -0.0405891128, 0.1203952208, -0.0288771689, -0.1183260083, 0.0318558589, -0.1656353623, -0.1006309688, 0.0401136801, 0.1574861407, 0.0962778926, 0.0077062189, -0.0992938429, -0.1218541712, 0.1135277301, 0.1271141618, 0.0567620769, -0.1527709067, -0.0476054214, 0.0936332345, 0.0995573550, -0.2168153077, -0.1720520258, 0.0876715407, -0.0699500740, -0.0189325195, 0.0766132921, 0.1167551503, -0.0989274234, -0.0430267118, -0.0439975969, -0.2095980495, 0.1372749060, 0.1273331344, 0.0532986335, -0.1509182751, -0.0481163859, -0.0475065075, 0.1751610488, -0.2620969117, 0.0083025424, -0.0338606238, -0.2060470581, 0.0101038599, -0.0303488411, 0.0880732611, 0.2037566155, 0.1884125173, -0.1375439018, 0.1803963184, -0.0520114340, 0.1512527764, -0.0341404304, 0.1034390256, 0.1456318796, 0.0552079119, -0.1028365791, -0.1589869112, 0.1463489830, -0.0687338710, 0.1766096354, -0.0719086826, -0.2497431189, -0.1144337729, 0.0568318404, -0.1323833317, 0.0837105811, -0.0730795786, -0.0361771137, -0.2050610632, 0.0366980284, -0.0499425754, -0.1884279996, 0.1115047112, -0.0346315168, 0.0724202618, -0.0542476848, -0.0422139019, 0.0343244076, 0.0265170224, 0.0624486245, -0.1007139012, 0.0604759939, -0.0380047075, -0.0111234458, 0.0327310599, 0.0093439529, 0.0367332064, -0.0907904804, 0.1788049489, -0.0856987461, 0.0014223743, -0.0455953926, 0.2111752927, 0.1086045653, 0.2092981040, -0.0091685122, -0.0926391855, -0.0741800368, 0.0653463155, -0.0875570327, -0.1646319181, -0.0088828225, 0.0076447465, -0.0325901285, 0.0808351263, 0.0790348202, 0.0073851040, -0.1529247016, 0.2471228689, 0.0402841680, 0.1229814291, 0.0953960344, -0.0136416359, 0.1462745368, 0.1008279547, -0.0899729356, 0.0726623014, 0.0354843251, -0.0511637479, -0.1229138076, -0.0420369245, 0.1517209411, 0.1512971967, 0.0938724801, 0.0795144364, -0.0058156024, 0.1847029626, 0.2022518963, 0.1595308632, 0.0006363332, -0.1289372295, 0.0056492165, -0.2517014742, -0.0698245019, -0.2054823488, -0.2128977925, -0.0924761072, 0.0121076303, -0.2556293905, -0.1779409349, 0.0063030873, 0.0766353086, -0.0511273220, -0.0356933400, 0.0585222952, -0.1119748279, 0.0567944199, 0.0025641157, 0.0198156275, -0.0412918627, 0.0443343706, 0.1420881748, 0.1434131861, 0.0549445115, -0.2349831760, -0.0509545058, 0.1577620059, 0.2005514950, -0.0287159532, -0.0550882630, 0.0224557091, 0.0925375819, 0.0183781926, 0.1336098909, -0.0917358920, 0.0919095129, -0.2217476070, -0.0339445882, -0.0312633328, -0.0249327123, -0.1467899233, -0.1116672009, -0.0647873208, -0.1169735715, -0.1154257283, -0.1670866907, -0.0099228993, -0.1742486954, 0.2556836009, 0.0984183699, -0.0319253132, -0.1583530158, 0.1443843842, -0.1297898591, 0.1283223033, 0.0658240914, 0.0318004750, -0.1179549843, 0.0664201453, -0.0287832897, -0.0103374086, -0.0161488950, -0.1575993150, -0.1812040061, -0.0114089800, -0.0774018466, -0.2636797428, -0.1306348294, -0.2406458557, 0.2290391922, 0.0970985442, -0.0787423849, 0.0085713686, -0.1236576438, 0.0387823023, -0.0433120839, 0.0416766889, 0.2158771157, 0.1981817335, 0.0196478013, -0.0773800537, 0.1035101265, 0.1514205486, 0.0086767450, 0.0012629791, 0.0631522536, -0.1159253344, 0.1225516275, -0.0956049487, -0.0794362947, -0.0343365446, 0.1233409271, 0.1387402862, -0.1397590041, 0.0173606239, -0.0812170804, -0.0334120169, 0.0321385637, -0.0084555894, 0.0116057470, 0.2328628749, -0.1181676462, -0.1482347697, -0.0928125530, 0.0837652832, -0.1110023782, 0.0829651877, -0.2047340423, 0.1479890049, 0.1386605799, 0.0717960075, 0.0543945953, -0.0590666384, -0.0310561452, 0.0635229945, 0.1332271248, -0.0691808015, -0.1107328534, 0.0255014282, -0.1391387731, -0.0466234423, 0.1128635332, -0.0317485482, 0.1221582294, 0.0024873626, -0.1466703266, 0.1411156058, -0.0334904417, 0.0028905645, 0.2676415443, -0.1054920331, 0.1841959357, 0.1101791933, 0.0914657265, -0.1855151951, 0.0872801617, -0.0506117754, 0.2224029899, -0.1965043694, -0.0239446498, 0.1867487282, 0.1269426793, 0.1499580294, 0.0699791536, 0.2509480119, 0.0638144240, -0.1501330882, 0.0581190027, -0.0365690105, -0.0259743053, 0.2166831046, 0.1537732184, -0.0647926256, 0.0278778058, 0.0781937912, 0.1083951071, -0.0927638933, -0.0964875519, -0.0033497296, -0.0053413510, 0.0615983717, -0.0319335647, 0.1930773109, 0.0510625727, -0.1201910526, 0.1104756817, -0.0283646919, -0.1143993810, 0.0462613143, -0.0261541121, 0.1028609201, 0.0436832234, -0.0503808483, -0.0505476445, -0.0706142560, -0.2052186728, 0.2593198717, -0.1155345365, -0.0991163030, -0.0857075602, 0.1330815107, -0.0432983264, -0.0209514052, -0.0687543377, -0.2197138965, -0.0177040827, -0.0554001369, -0.0944903642, 0.0680275708, -0.0619067214, -0.1137002185, -0.1683655232, 0.0466299839, -0.1049685627, 0.0132434824, -0.2314511687, -0.1215100437, -0.0283678677, 0.2317693830, 0.1139253303, 0.0926595777, -0.0695062429, 0.0577174686, 0.1427145153, 0.0257863309, -0.0153293051, -0.0806910768, -0.1307540238, 0.0943966657, -0.2606127262, 0.2116015255, -0.0760818198, -0.0164129455, 0.1795052886, -0.0845652670, -0.1950819641, 0.1097339168, 0.0189678092, 0.0251629949, -0.1104683653, -0.0239031315, -0.0567046329, 0.2214795202, -0.0669246316, 0.0391962714, -0.0241237003, 0.0932171419, 0.1810209453, 0.0601373799, 0.2360871434, -0.1785052866, 0.2661927640, -0.2494056672, -0.1958148777, 0.0501084737, 0.1730434150, -0.0650374591, 0.2680405974, -0.0788974389, -0.1681139767, -0.0280458611, 0.2702977657, 0.0356480703, -0.0079262778, 0.2002870739, 0.0413778722, 0.0119015817, -0.0234971419, 0.1177850068, -0.2605238259, -0.0126952687, 0.1286458522, -0.0412523337, 0.0902422518, 0.0580840595, 0.1958895475, 0.0141116129, 0.0064632380, 0.0266717374, 0.1517353356, -0.0441947095, 0.1024073139, -0.1415042281, -0.0543728583, -0.0791229382, 0.2124261111, 0.0727738142, 0.1571179330, 0.1130329147, -0.0509213656, -0.1833531857, -0.1303634942, -0.1185152456, -0.0118109388, -0.1659599394, 0.0953571051, 0.1193700135, 0.0425445586, 0.0505537651, 0.1196601018, -0.0724047199, 0.2016689777, -0.0247817896, -0.0233421531, 0.0457354635, -0.1203066036, -0.1153738871, -0.0635953173, 0.0354990400, -0.1730726361, 0.0573848784, 0.1181412265, 0.1794030666, -0.0685739443, -0.1211076677, -0.0981891006, -0.0484481119, -0.1614958346, -0.0407769568, 0.0014759791, -0.0756042451, -0.1977116466, 0.1591517478, -0.1137549281, 0.0334753171, 0.0007922412, 0.1120557785, -0.0708247572, 0.1347597241, -0.0717673749, 0.0635756180, -0.1932884455, 0.0256991256, 0.2477048039, -0.2608160377, 0.0508598499, -0.1273616850, 0.0517680198, 0.1663484871, -0.0409238413, 0.0778669044, -0.0686071143, 0.2406191379, -0.0289879739, 0.1440140009, 0.0174784195, 0.0990152657, -0.2267721295, 0.1302950382, 0.1837652475, 0.0433612838, -0.0443536453, -0.0459396206, -0.2304029465, -0.0284104310, 0.0862954035, 0.0583369061, -0.0581357330, -0.0129274866, -0.1285557896, 0.0367136076, 0.0024211714, 0.1297929138, 0.0062545557, -0.0807572976, 0.1414316446, 0.0355195627, 0.0373326316, 0.1755109727, -0.1551857889, 0.1605132967, -0.0613984577, 0.0565879382, 0.0934597626, 0.0355740562, 0.0280612092, 0.2170195282, -0.0597530492, -0.0353843458, -0.0490560383, 0.1064934358, 0.1590337008, 0.0060880277, 0.0697735399, 0.1757578552, -0.0896160081, -0.0578182861, -0.0976413041, 0.0387790464, -0.0298659150, -0.1629519165, 0.1420352459, 0.1398397386, 0.0706458539, -0.1232393160, -0.1019337028, 0.1782127470, 0.0919328704, -0.0000371888, 0.0742620006, 0.0802380070, 0.2057834119, -0.1986934841, -0.0397149101, -0.0582136847, 0.0250174925, -0.1157884374, 0.1191432029, 0.0890329555, -0.1031733304, 0.0213511959, 0.0497830510, 0.0042261006, -0.2034595460, -0.0869741738, -0.0657828227, -0.0664242208, 0.0125307702, 0.1157542542, 0.1175053045, -0.1683849990, -0.0228211191, -0.1379914880, -0.0576174743, 0.0087624481, 0.0004166912, -0.0915915966, -0.0493547730, -0.1139251366, 0.0241464768, 0.0272213873, -0.1850807071, 0.0419811681, -0.2361705005, 0.0631880313, -0.0107974252, -0.0579718538, 0.0675245672, -0.2547517717, 0.0175457820, -0.0440818332, -0.1478787959, -0.0659109578, -0.1930838227, -0.1096685752, 0.0115738967, -0.0024380779, 0.1875334233, -0.2358162254, 0.0294682253, -0.0015973761, 0.0079820715, 0.0207934678, 0.1033400744, 0.1020601988, -0.1719893068, -0.0085821701, -0.2446081489, -0.0661305711, -0.1037478000, -0.2419621646, 0.1321398914, -0.1578621119, 0.0992630422, -0.0491230190, -0.1526561230, 0.0507283695, 0.0280735884, -0.1694265902, -0.1501975358, -0.0071873632, -0.0380486995, -0.0013266838, -0.0872802958, -0.0019118002, 0.0237152707, -0.1695245951, 0.1680778265, 0.0477227159, -0.0103886668, -0.0666062683, 0.0733770132, -0.0365752019, 0.1393045634, -0.0981419012, -0.1012333632, -0.0269468203, -0.2437667698, -0.1097004935, 0.1547385007, -0.1161491647, 0.1526075006, -0.0361528024, 0.1932042986, 0.2455368638, 0.0550774410, 0.0827766582, 0.0564559065, -0.0113311876, -0.0018404573, 0.0498052761, 0.0726768523, 0.0218690839, 0.1985927224, -0.0437447019, 0.1197545305, -0.0600225814, 0.0348113962, 0.0702162981, -0.0054148063, 0.1985993683, -0.1552371830, -0.1115264669, -0.1298802048, -0.1508354247, -0.1242630184, -0.0592413023, 0.0449607521, 0.1313654929, 0.0829075947, -0.0145909358, -0.0960072577, 0.0109988740, -0.2228286415, 0.0419253744, 0.1242629662, -0.0888857096, 0.0482828021, -0.1023443267, -0.0328036621, 0.0834756494, 0.0629718378, -0.0631423593, -0.0077861268, 0.0719043612, -0.0326133631, 0.1011370942, -0.1346918344, -0.2277509123, 0.1316816211, -0.1360386163, -0.1231045723, 0.0425785333, -0.1666183770, -0.0743457526, 0.1308432817, 0.0529551022, -0.0325132981, -0.1313209385, -0.0649395883, 0.0628486723, -0.0658761412, 0.1584888250, -0.0388873592, -0.1029611155, 0.1529786885, -0.1546198577, -0.0333616473, -0.2339534760, 0.0130151659, 0.1094744802, 0.1433465779, 0.1350825429, -0.0448172241, -0.1920086592, 0.0013241983, -0.0338205285, -0.0554906242, -0.1453666389, -0.2499221414, -0.0832765549, -0.0704968646, -0.0099179829, -0.1244835705, -0.2247442007, -0.2077457458, -0.1781829745, -0.2647156417, 0.1558753252, -0.1236680150, -0.2513385713, 0.0330719538, 0.1968376637, 0.0048313504, -0.0557018183, -0.0245232694, -0.1240661070, -0.1474941224, -0.0726081803, 0.1886307299, -0.2680657804, 0.0234902613, -0.0229051318, 0.0876902118, -0.0819277093, 0.0325424038, 0.0330791026, 0.1705048233, 0.2034575492, 0.0976009518, 0.0720555633, -0.1989240795, -0.0845190138, 0.0810464248, 0.0558228604, -0.0607814118, 0.0263031311, 0.2438289225, -0.0489351340, -0.1671625078, 0.0398610793, 0.1583206505, 0.0862047523, -0.1763630360, -0.0235242508, -0.0329438001, 0.1652840227, -0.0977825671, 0.1218694225, 0.1222014576, -0.1560874134, -0.0357736386, -0.0789277777, 0.0855881125, 0.0512313098, 0.1049570069, -0.1178257465, -0.0856537074, -0.2247270495, 0.0646599680, -0.0575865246, 0.0673463121, 0.0435889140, -0.0907820612, -0.0481325686, -0.0378484540, 0.1515448689, -0.1570957154, 0.1255331188, -0.1014812663, 0.1477925181, 0.0433167815, -0.2197485417, 0.0304528084, -0.1062863022, 0.0816767439, 0.1109788716, 0.0148479901, -0.0848091394, 0.1939296275, 0.0711210594, -0.0676387772, -0.0124086048, -0.0119923409, 0.0881515518, -0.0936001763, -0.0171380676, -0.1478794962, 0.1174612492, 0.0569028407, -0.2620139420, -0.1466581672, 0.1394614428, 0.0274668541, 0.0905748978, -0.0629842952, 0.0261191223, -0.1123344004, 0.0634336099, 0.1171799898, 0.0115121529, 0.0873567387, 0.0664256662, 0.1243550405, -0.1189395785, -0.0793878809, 0.2644842267, 0.0016305832, -0.0605933368, 0.1137608066, -0.2248365581, -0.0166559294, -0.0654372051, 0.1932681948, -0.1169330925, 0.0325227790, -0.1778678447, -0.1654675901, 0.2244147956, -0.0233327448, -0.1104679257, -0.0545459166, 0.1834760755, 0.2276506722, 0.0899504051, 0.0309142955, 0.1350499392, -0.0527033880, 0.1513367146, -0.0168264266, 0.0905007794, 0.1574542820, -0.0721178129, -0.0743945763, -0.1281976849, 0.1442445368, -0.0451176800, -0.0719909295, -0.1891985536, -0.0797944963, -0.1521011591, -0.1351418197, 0.0487479977, -0.0278742276, 0.0429932103, 0.0574107096, 0.2578645051, -0.0447038263, 0.0152607877, 0.0235557780, -0.1754902601, -0.0796964765, 0.0562872216, -0.1207368672, -0.0990891829, 0.0296823829, -0.1509959102, 0.0087888110, -0.0948981345, 0.0363659412, 0.0627522841, -0.0315748304, 0.2431805283, -0.0875038579, -0.0997949615, -0.1426043957, 0.1133538708, 0.1776276082, -0.1270021200, 0.0519522578, 0.0896241888, -0.0821452811, 0.0267350692, 0.0702647716, 0.1349086314, 0.0038060700, 0.0894915909, -0.0501863733, 0.0330584645, -0.0057464554, 0.1594719887, -0.1675699204, 0.0363046899, 0.2007624805, 0.1475969106, 0.0386186689, 0.0735063255, -0.0778766200, -0.0574530177, 0.1277583092, 0.1828685552, -0.0876162350, -0.1409721226, 0.0237070303, -0.2156444490, 0.1911781579, -0.0121643422, 0.0230745170, -0.0553776585, -0.2465323359, -0.0665602237, 0.0200221557, -0.2041646838, -0.0127026718, -0.0311132632, -0.0868758857, -0.0017997347, -0.0458862446, 0.1845435351, -0.0053530671, 0.0066994163, -0.0827296823, -0.0244268663, 0.1740442365, -0.2363592982, 0.1578662395, 0.0809418932, 0.0962013453, -0.1548795402, 0.0323714986, 0.1560827643, 0.0947966874, -0.0583611615, 0.1432214081, -0.1007559150, -0.1196392626, -0.0715984926, -0.2450664490, -0.1677869409, -0.1035249606, 0.0585816354, 0.1026279330, -0.1106587276, 0.0459410436, -0.0235101879, -0.1904275566, -0.0269786604, 0.0334475711, 0.1521798819, -0.0065793060, 0.0527455471, -0.0235154647, 0.2195876837, -0.1766918004, 0.0126460306, -0.2500252724, -0.0486844592, 0.0379505157, -0.0881725401, 0.1006962061, 0.0677972361, 0.0381494276, -0.0066272337, -0.1334427893, -0.1139939651, -0.0344123915, 0.1803802997, -0.0830228329, 0.0833081678, 0.0986321270, 0.1479802430, 0.1970890760, 0.1337830871, 0.0036801253, 0.1984059364, -0.1530586630, -0.2327531725, 0.1810546368, 0.0357985049, -0.1284895986, 0.0149288746, -0.1385943145, -0.0778735802, 0.1082435921, -0.0468485504, -0.0475027449, -0.0020469225, -0.0040950449, 0.2307712287, -0.0917088687, -0.1296928227, -0.0631501004, -0.0492476560, 0.1064833105, 0.0135026062, -0.0103110820, 0.2414162606, 0.0488803089, -0.0714956000, -0.0216116626, 0.0985584632, -0.1344483346, -0.0147050796, 0.2502372563, -0.0988570228, -0.0888026431, 0.0561741292, -0.1952480674, -0.0076648844, -0.1332899034, 0.1951761097, -0.1355185062, 0.0023177688, -0.0925520137, 0.0043209023, -0.0701933354, -0.1639381349, -0.0288253818, -0.0203833971, 0.2062702626, 0.1094757169, -0.2485833615, 0.1192311421, 0.1077905446, -0.0093548410, -0.1425247043, -0.0170677621, 0.1004093066, 0.1990224570, 0.0468504578, -0.0663008913, -0.1713054329, -0.0426281393, -0.0339563526, 0.0247885734, -0.1076173857, 0.1395575851, 0.0059997612, -0.0318776965, -0.1155039147, 0.1288955659, 0.2144878507, -0.0186092928, 0.1439570189, -0.0716372207, -0.1259101778, -0.0396313742, 0.0405696109, 0.1299485713, -0.0521012656, 0.0706213042, -0.0368668772, -0.2444984615, 0.0646287277, -0.1515646130, -0.0385665782, -0.1527330428, 0.0996535718, -0.0882929042, 0.1022325605, 0.1798078418, 0.1550464928, -0.0385673046, -0.1130174100, -0.0289300214, 0.2158550024, 0.0793939978, -0.0898130462, -0.0677700937, -0.1250839382, 0.0901271850, -0.0462039039, 0.1705409288, -0.0664877370, 0.0223674066, -0.0754409507, 0.1332633495, -0.0378900915, 0.1436350793, -0.0536723621, 0.1189389378, -0.0895991400, -0.1615760475, 0.0003364332, -0.0707788691, 0.2371701151, 0.0062468569, -0.1104857624, 0.0195782147, -0.0581226535, 0.0064156819, 0.1593618840, -0.0758041888, -0.1990139335, -0.0477821156, 0.2208436430, 0.1782829911, -0.0387074538, 0.1058323160, 0.1440809965, -0.1351328194, -0.2325842232, 0.0771232620, -0.0280561522, -0.0185150821, 0.0093943337, -0.1652221382, -0.1219785884, -0.1000907496, -0.2048735172, -0.0999939516, 0.1952749044, 0.1961356550, 0.1448874921, -0.0146238543, 0.1044871509, -0.0703758001, 0.0711472556, -0.1723668724, 0.0874134451, 0.0276925955, 0.0985541567, 0.1149393693, 0.1355801672, 0.1067956090, -0.1954700649, -0.0031729627, -0.0101935985, 0.0035021161, -0.2030463368, 0.1103781015, 0.0204091985, 0.0850319788, 0.1134485900, 0.0396578200, -0.0020324017, 0.0864224583, -0.1949175447, 0.0517604202, -0.2041165978, 0.1479589194, 0.2707579136, 0.0070538195, 0.0933116823, -0.0348205417, 0.0120163234, 0.1047127247, -0.1663617492, -0.0537936054, 0.1541027576, -0.0908854902, 0.0717961043, -0.0957216993, -0.0558619276, 0.1401641369, -0.2430454493, 0.0366431400, -0.1045294106, 0.1315471828, 0.0947830379, 0.0841987655, 0.0524033606, 0.1265118271, 0.0854611918, 0.1563349664, 0.0897692218, 0.0845362172, 0.1672967225, -0.0517644659, -0.1434278637, 0.1135494187, 0.0379462428, -0.1125125363, -0.1315054893, -0.0090483297, -0.0259181224, 0.1036764458, -0.0131519502, 0.0673129261, 0.1669959128, 0.0424396545, 0.0219709128, 0.0560619384, 0.0891989172, 0.0441642292, -0.0826017559, 0.0858147368, -0.0254061650, 0.2708287239, 0.1177030057, 0.1104805693, 0.0901269019, 0.0573586375, -0.1067571193, -0.0181989037, 0.0202645492, 0.0594395772, -0.0798491612, 0.0338960811, -0.1522561908, 0.0761203393, 0.0150035527, -0.0390636027, 0.0490641110, 0.2047293335, -0.1723691374, 0.1582767367, 0.1022155210, 0.2349090725, 0.1174126342, 0.2434013039, 0.0331305638, -0.0502819568, -0.1792150438, -0.1232858524, -0.1180727705, -0.0668300763, 0.1663241982, -0.0693798214, -0.0226616040, 0.0629551038, 0.0157041103, -0.0101634040, 0.1107081398, -0.2290710360, -0.0135221956, 0.0208030250, 0.1355011612, -0.2037144303, -0.1527363956, -0.0875373110, -0.0476670079, -0.0398166589, 0.0827984959, -0.1459139884, 0.2068093270, -0.0225004721, -0.1229098588, 0.1186298132, -0.0575720631, 0.0558382720, -0.0254528373, 0.0099964784, 0.1246479079, -0.0912835225, 0.0994841307, -0.2628577352, -0.1494929940, -0.0086646667, -0.0581245571, -0.0025749691, -0.1590712070, -0.0378568619, -0.1361624449, -0.1102396920, 0.0140699632, -0.1053772047, 0.0168145560, 0.0281871390, -0.1555957198, 0.1208987981, -0.0394722186, 0.1697366089, -0.0111310259, 0.1512978375, 0.2039269954, 0.0347875506, -0.0393999070, 0.1893889755, 0.0047808196, -0.0831545740, -0.0661063120, 0.0414574407, 0.0771865249, -0.1278612316, -0.0232179444, 0.1934080273, 0.2686507106, 0.1637918055, 0.1975422055, 0.0521950945, 0.1373722255, -0.0682391599, 0.1878091544, -0.0018873182, 0.0953512192, 0.0716335699, -0.0744341910, -0.0901965722, -0.0233755168, 0.1271607727, 0.1321577430, -0.2098452449, 0.0445863791, 0.0884452611, -0.0569512583, 0.0465839282, 0.2096746713, 0.0228603538, 0.0313944332, 0.0583406277, -0.0628451630, -0.1015468985, 0.0012208573, -0.1412025988, -0.0402696989, 0.1276979446, -0.0284081735, -0.1352647990, 0.1304592639, 0.2063896060, -0.0359960757, -0.0198237021, -0.1894316673, -0.1036459655, -0.1571663022, -0.0772641227, 0.0719713047, -0.1202739626, 0.1090468690, 0.0075834645, 0.2053953707, -0.2578881085, 0.0608403310, -0.0160598420, -0.1237470135, 0.0263714306, 0.1244243383, 0.1007423699, -0.0408182181, 0.0022121032, 0.0370264426, 0.0114597455, 0.1080596521, 0.0495400056, -0.1760928631, 0.0824471414, 0.1840294152, -0.0006880970, 0.0483888052, -0.0467826128, 0.2497915626, 0.2410964817, -0.0156955961, -0.1652244627, 0.1136290729, 0.2080937475, -0.2508279979, 0.1278158128, 0.0171983093, 0.1050746888, 0.1855501533, 0.1444363147, 0.0541035756, -0.1727251410, -0.1947050691, -0.1507151425, 0.1336461306, 0.1123800576, -0.0298500080, 0.1019971222, 0.1407890618, -0.2229252905, -0.1063843444, 0.1318881065, 0.0024754670, -0.1440929025, -0.0476845913, 0.2407453060, 0.0677421242, 0.0238144975, -0.1344602555, -0.1671122313, -0.0077590714, 0.1344432980, 0.0859546587, 0.1018274128, 0.0042042206, 0.1641577184, 0.0939726532, 0.0264211204, -0.0728365406, 0.0048567276, -0.0639383569, -0.0818121210, 0.1543495953, 0.2148665041, 0.0690354779, 0.0455539487, 0.1524028927, 0.2410697490, -0.1335496455, 0.1825258285, 0.1514045298, 0.1324954480, 0.1119664982, 0.1745187789, -0.1565733701, -0.2596066892, -0.2028965503, -0.1334102154, 0.0107157743, 0.0820307434, 0.1726695150, -0.1697324216, 0.0747029930, -0.0151704419, 0.1358439326, -0.0559095666, -0.1480683237, 0.0938110501, 0.1727432311, -0.0056573949, -0.0304613672, 0.2046032995, 0.0641187578, 0.0232574642, 0.0902247131, -0.2587446570, 0.0286646690, 0.1749130040, 0.0219465084, 0.0758745670, -0.1464306563, -0.0267905705, -0.1794084013, -0.0823686868, -0.0130434269, -0.0882046893, 0.1314904243, -0.0538268536, 0.0215854794, -0.2110798806, 0.0884936675, 0.1192724705, -0.1390114427, -0.2206208408, 0.0557609461, -0.0020769918, 0.0112906024, -0.0707605556, 0.0950788334, 0.1584234983, 0.0540794805, -0.0289343763, -0.0471848883, 0.0143218022, 0.0904076323, -0.0287887640, 0.2048062384, -0.0791830048, 0.1909408271, -0.0858450606, 0.2437761575, 0.1320016682, 0.0877377316, -0.1188784167, -0.2585133314, -0.0476125032, 0.1024582461, -0.1236625761, -0.0062493845, -0.1507658064, -0.0260454305, -0.2001707554, 0.2187727541, -0.0196918398, -0.0308452547, 0.1821945608, 0.0318211764, 0.0870049149, 0.1077260524, 0.1863328069, 0.1242549568, 0.1290519089, 0.2440321296, -0.0724896789, 0.0578269102, -0.0475291796, -0.1170393154, 0.1951033324, -0.0885111019, -0.1035339460, -0.1081652492, -0.0185713992, -0.1747611165, -0.0930067152, 0.0379308723, -0.0872971788, -0.0040838770, 0.0763212815, 0.0605185740, 0.0771899745, -0.0481231920, 0.0235385410, 0.1093715280, -0.1008243114, 0.2413729131, -0.0041781384, 0.1087943390, -0.2515634894, 0.0491829887, 0.1188600957, 0.2365312278, 0.1983279288, 0.0055071749, 0.0979572460, 0.0643490255, 0.0211797077, -0.0282515995, 0.1733987629, -0.1174923703, 0.0797483847, 0.1961742193, -0.0450174622, -0.0538557991, -0.2322731018, -0.1313357353, -0.0955843776, -0.2247891724, -0.0107375467, -0.0487648323, 0.0566534661, -0.2116061896, 0.1161663011, 0.2333196253, -0.0690884888, -0.1431335211, -0.2557083666, 0.0159995258, 0.0862229243, 0.0148924515, 0.1122143120, -0.0882849395, 0.2217075527, 0.2071031928, -0.1709902436, -0.1891252100, -0.0739345029, 0.1305751801, 0.0003537585, -0.0805027485, -0.2127488256, -0.2286067158, 0.1259300411, -0.0768920556, 0.0254787467, -0.2152804732, 0.1400787532, -0.1603377461, 0.0958510488, -0.2157542855, -0.1175137460, 0.1046788543, 0.1241701469, 0.2676613033, -0.1356825382, 0.1235084981, 0.2011530697, 0.2669031620, 0.0334632918, -0.1094198823, 0.0831363127, -0.0864135176, 0.0868403539, 0.1039213166, 0.0139537128, -0.1151197106, -0.2311396748, -0.0331986621, 0.1120649874, 0.1813396364, 0.1753426194, -0.0650371239, 0.1028648391, 0.0489165559, 0.0828419998, -0.0495875701, -0.1980333179, 0.0588373691, 0.0477633849, 0.0506224632, -0.2216721177, 0.0571018048, 0.2037726194, -0.0174543466, -0.0489582121, -0.0575040691, -0.0164201036, -0.1774695665, 0.0052565248, 0.0865625441, -0.0646607131, 0.0345851742, -0.1836393178, 0.0712850243, 0.1791577786, 0.1656735986, -0.1569022834, -0.0411929749, -0.0706998855, 0.0364132747, -0.0680441335, 0.2100863457, -0.1809655875, -0.1648828536, 0.1603257358, -0.1008499116, -0.1550931334, 0.2517217696, 0.1560332179, 0.1468585879, 0.0847328827, 0.0206455011, 0.0219375640, 0.1064325795, 0.0555479899, 0.0986062586, 0.2459009886, -0.0342069082, -0.0121262250, 0.0949889049, -0.0798772797, -0.2642454207, -0.2633542418, 0.1819306016, 0.0119125443, 0.1075333208, 0.0645606592, -0.1479615271, -0.0021930342, -0.1430690885, 0.0410902426, 0.1448572278, 0.0004686059, -0.1835440248, 0.0192232784, -0.0371140279, -0.0371854901, 0.1820876300, 0.0210040361, -0.0079071568, 0.1854290664, -0.0488182530, -0.1574996561, 0.1800794750, -0.0322334804, 0.1344607025, 0.0248526130, -0.1677659154, 0.0220893640, -0.1084959432, 0.1853507310, 0.0412458256, -0.0249284338, -0.2170588523, -0.1379281580, 0.0749710351, 0.0629809648, -0.0520471632, 0.1066201925, 0.1738134176, 0.1146233380, -0.0017760227, -0.1292026639, 0.0474416912, 0.0362184457, 0.0649618730, 0.0542838722, 0.0814750791, -0.0588239171, -0.2112119645, -0.1698785424, 0.1609710902, 0.1885974556, 0.0670676529, 0.0146147050, -0.1804900020, -0.0125496686, -0.1170016676, -0.1907875836, -0.0857593119, -0.0025782755, 0.0179366171, 0.1645181626, 0.0575336516, -0.0262137968, -0.1777939349, 0.0525623076, -0.1655757427, -0.0762654468, -0.1057682931, -0.0985377431, -0.0603641123, 0.0960733965, 0.0844380632, -0.0990770832, 0.0447714664, -0.1486750543, -0.0094073415, -0.0419534743, 0.0271649677, -0.0031313170, -0.0047366787, -0.1510408074, -0.0116988504, 0.1692111790, 0.1391611099, -0.1260525435, 0.0793492496, -0.1639310122, -0.0855693221, 0.0426690765, 0.1022090763, -0.0434509814, 0.1112009361, 0.0310991909, 0.0334868170, -0.1885043532, 0.0738055632, 0.0253565982, -0.2210928649, -0.0106703518, 0.0392492972, -0.1673658341, -0.0111661730, 0.2356446236, 0.0729537979, -0.2087571770, -0.0784964487, -0.1918617189, -0.0096621020, -0.0946840420, 0.0043086680, 0.1943537593, 0.0761425868, -0.0887264982, 0.1268680692, 0.1937600821, 0.0026224211, -0.0887301713, 0.0589746684, -0.1860178858, -0.1489475965, 0.0434286073, 0.0585832633, 0.0565407909, 0.1093679443, -0.0678865910, -0.1365783513, 0.1272694916, 0.1273853779, 0.0509992465, -0.0758053139, 0.0871790200, -0.1985318065, -0.0589348450, -0.0091120237, -0.1441374868, 0.1107553765, 0.0508219488, 0.0946576595, 0.0018556848, -0.1563082188, -0.0595804602, 0.0729980767, 0.0730075985, -0.0114865676, -0.0865297019, -0.1727609783, 0.0354305841, 0.0890351534, 0.1807724833, -0.0158059075, 0.0492255762, 0.2410382777, 0.0904182717, 0.1465210021, -0.0102048526, -0.0823535323, -0.1423142701, 0.0253730137, -0.0134186735, -0.1520877779, 0.0608911738, 0.0894280970, 0.0808588713, -0.1631230861, 0.0974248201, 0.0167677086, -0.0876050144, 0.0659543946, -0.0522735342, -0.0999142379, -0.1107706279, 0.2617968917, -0.1766436100, -0.1476783007, -0.0735072866, 0.1427243799, -0.1804369688, 0.2000239193, 0.0550844707, -0.0882689282, -0.0587586351, 0.0875975192, -0.0061897864, -0.1650562137, -0.1431985945, 0.1149432063, 0.1828598827, 0.2085625082, 0.1268801391, -0.2263889909, -0.1660653353, -0.0814805180, 0.0599837042, 0.0455226004, 0.1541564614, -0.2348402739, -0.1358491480, -0.1175673679, -0.2449172586, 0.1367658973, 0.1031097323, 0.0596037768, 0.0188338626, -0.2411018163, -0.0710445493, -0.0340417027, -0.1526790559, -0.0546045005, 0.0363239348, -0.0217686612, -0.1428258717, 0.0055725235, -0.0160364974, -0.0072100000, -0.1165485904, -0.2493190169, -0.2127009183, 0.2060016841, 0.0478331819, 0.1138390899, -0.0000421284, 0.1021135971, 0.0738715753, 0.0083861100, 0.0194062926, -0.0582222156, 0.1254624426, -0.0518947244, 0.0389776118, -0.0184517875, 0.0095599387, -0.1161106825, -0.1954949349, -0.2057827264, -0.1111522391, 0.1465632766, 0.0504463762, 0.2238574326, -0.0750694275, -0.2012988478, -0.1418441236, -0.0006921897, 0.0132372323, -0.0106096994, 0.0894054025, 0.0742601901, -0.1279565990, 0.0360124335, -0.0162091795, -0.0283205174, -0.1427780390, -0.0336552784, -0.1317306757, 0.1407304853, -0.0652689189, 0.1327372193, 0.1912544519, 0.0071046846, -0.0263007730, 0.2108642310, 0.1024226025, 0.0782961696, 0.1139280722, 0.2043275833, -0.0000615122, 0.0000574735, 0.1245653555, 0.1537070423, 0.0251888465, -0.1053461432, 0.0047887876, -0.1246619299, 0.0606620796, 0.1699109226, -0.1643793136, 0.0257928725, 0.0993227288, 0.1416529864, 0.0340255089, 0.1884883791, -0.0622645617, 0.0550100394, -0.1071947217, 0.0618619807, 0.0974212587, 0.0242131613, 0.1194296777, 0.0277354531, -0.0905126855, -0.0306152981, 0.1315504164, 0.0930943936, -0.0898072422, 0.1877353936, -0.1257713586, -0.2190021276, -0.0967414826, 0.0590560660, -0.0175247323, -0.1033032611, -0.0079927184, 0.0154307727, -0.0948992595, -0.1851362288, -0.0045947586, 0.1545123011, 0.0893879458, 0.0465818346, 0.1818847656, 0.2187902480, 0.0046449755, -0.1668797880, 0.0782640129, -0.0299830921, -0.0669605806, -0.0806443095, -0.2452128977, -0.0894439891, 0.0584993102, 0.0280290898, -0.0000817738, 0.0497255847, -0.0467203110, -0.0472862646, 0.0180156939, -0.0914816856, 0.1685132682, -0.0687293634, -0.0731263980, 0.0629327595, 0.0483353809, 0.0138162524, 0.0705525652, -0.0504734069, 0.1370649189, 0.0184886716, 0.0072891167, 0.1490754783, -0.0727908164, 0.0853917152, 0.0682036281, -0.1897087693, -0.1532189697, -0.1734166592, -0.0943577811, -0.1337140799, 0.0424980335, -0.0717428997, -0.1596962363, -0.0773867294, 0.0371229127, 0.0313919075, 0.1994985640, -0.1622712314, -0.1739734709, -0.0843204409, 0.0432672389, 0.1121307611, 0.1308144182, 0.1116830334, 0.0911811963, -0.0322374366, -0.0252092797, -0.1395713389, 0.0852753744, -0.0085208090, -0.0495345257, 0.0289122239, 0.0041455850, -0.2382975370, 0.1035846099, 0.0161582436, -0.0095901722, 0.1002319455, 0.0119494591, -0.0976824388, 0.0003694645, -0.1613054574, -0.2241879404, 0.0540993325, 0.1264570504, 0.1352046281, 0.0856513083, 0.0008224432, 0.0027941263, -0.0994841084, 0.0001398477, -0.0248676259, -0.0094602639, -0.0731175691, -0.0178189240, -0.0711366907, -0.0023124015, 0.0481395349, 0.2442069650, 0.0529735833, 0.1994398832, -0.1209946796, 0.2638748288, 0.0536770336, -0.0285993293, -0.2039504945, 0.0556755289, -0.1233654022, 0.0140729137, -0.0091253454, 0.0922614038, -0.0069848350, -0.2144432813, -0.0271321386, -0.1207834110, -0.0632502437, -0.0483206958, 0.0677333251, 0.1383745223, -0.1168387756, -0.1038916707, 0.0928424373, -0.2198891044, -0.1112385094, 0.0845214650, -0.0326553695, 0.2282735109, 0.0767605826, -0.1402117163, 0.0610008352, 0.1783684641, 0.0182807632, -0.1016610339, 0.1229453832, -0.1172202528, -0.0764148012, 0.1012149528, -0.1398834437, -0.1340339929, -0.1071483344, -0.0969859287, 0.0792708546, 0.1446858048, 0.0393942147, -0.2188331783, -0.1294056326, -0.0272232406, -0.0224324763, 0.1778288931, -0.1089017615, 0.0385886841, -0.0020770133, 0.0219725352, -0.0662525967, -0.0790616497, 0.1635847539, -0.0788313374, 0.0733740628, -0.0630255640, -0.0951249525, -0.2152186334, -0.1667200327, -0.0063939993, -0.1937490702, 0.2226317823, -0.0292699561, -0.0975876600, -0.1081775427, 0.2354718745, 0.0201062337, -0.1404620111, 0.0295131095, 0.1755249947, 0.0142302485, 0.0015210526, 0.0023532556, 0.0451571643, -0.0203986242, 0.1019924358, -0.1692843884, 0.0390288047, 0.1239768490, 0.0192344896, 0.0587800369, 0.0293763448, 0.0357155018, -0.1771178097, 0.2624770701, -0.0869642496, 0.0888635218, -0.2379129231, -0.1190606281, 0.0292720608, -0.1629664004, -0.0047931150, 0.1334887892, -0.0018687401, -0.0425176732, 0.1632919014, 0.0318857208, -0.2695955634, -0.1219357848, 0.1873873174, -0.2245282829, -0.1141672954, -0.1266328543, 0.1150171086, 0.2453211546, 0.1131489947, -0.2205846310, -0.0214741807, 0.0884202495, 0.2458667755, -0.0581979454, -0.0938248634, -0.0433716513, -0.2565830052, 0.2148143947, 0.0148063069, -0.1649175733, 0.1021742970, 0.1986880302, 0.0319894738, 0.1643852741, -0.0960343480, 0.0956736058, -0.0682605356, 0.0047622104, -0.0460424237, 0.1739626378, 0.0830989406, -0.1141425073, -0.0461577475, -0.0412000157, 0.0702820271, 0.0457358062, 0.0116064930, 0.1687338948, 0.0260689911, 0.0656274632, -0.0926906839, 0.1591414511, -0.2054970413, 0.1206626594, 0.1981477439, 0.1102291644, 0.0970693603, 0.1128252000, -0.0188910607, 0.0616746284, -0.0180161987, -0.0034773832, -0.0298257861, 0.0320477113, 0.1689224690, 0.0706259310, -0.1611476988, 0.0676613376, -0.0367585011, -0.0091893813, 0.0629081130, -0.0536710992, -0.0343211442, -0.2036151588, 0.0375651345, -0.2149463594, 0.0524296314, 0.1133580059, 0.2075733244, 0.0024942488, -0.0654472634, -0.1902754903, -0.1773505509, -0.0855617821, 0.0418799892, 0.0207523666, 0.1813560873, -0.0028476331, 0.1248077899, 0.2048947811, -0.0928754359, -0.1086988598, 0.1059729606, 0.0569685213, -0.1114902720, 0.0597486570, 0.0809067190, -0.0758419484, -0.0254749283, -0.0434759893, -0.0983151272, 0.0014342043, 0.0206908565, 0.1261278987, 0.0141262887, 0.0098253898, -0.0304200761, 0.0314504243, 0.1072331294, -0.0313622355, 0.0370381214, 0.2454752475, -0.0815272257, -0.1098787859, 0.0386547521, 0.2366078794, 0.0826755837, 0.0353808068, 0.0163183659, 0.1410691291, -0.0933722928, -0.0962629020, -0.0035097757, 0.1720096320, -0.1479797512, 0.1786316782, 0.0672932640, -0.0805980712, -0.0750280544, 0.2649154961, 0.0825478435, 0.2495602816, -0.1858234555, 0.1071642563, -0.1060007736, 0.1232248545, -0.1174381077, 0.0232286490, 0.2380745113, 0.0033531911, 0.0413337871, 0.0006345204, 0.0885744914, 0.0855427086, -0.0038544035, -0.0148510765, 0.2580347657, 0.2123979181, 0.1804139465, -0.0733924508, 0.2589264512, -0.1700844616, -0.2064189762, -0.1008482724, -0.0703460053, -0.0338321626, 0.2014949918, 0.1400616169, 0.0518601872, 0.0921239406, 0.0373214111, -0.0071722683, -0.0392439328, 0.1241126060, 0.1399438083, 0.0483104177, 0.1892161518, 0.1375443488, -0.1950073838, 0.0132485284, -0.0550215617, 0.0973151475, -0.1056153774, 0.1973904669, 0.2228253484, 0.1615042239, 0.0937059298, -0.1984661072, 0.0784502774, -0.0602460541, 0.0041602259, -0.0742679983, 0.1154370904, 0.1387886852, 0.1073128060, 0.0199588686, -0.0421634316, 0.0280368589, -0.0062453924, 0.0178413931, -0.0367833935, -0.2037461847, 0.0314517096, 0.0400474444, 0.0054289922, -0.0406849571, 0.0627718195, 0.1137518957, -0.0222000424, -0.1203229576, -0.2661275864, 0.0838729665, 0.1306484342, -0.0564651787, -0.1469324380, 0.0512476601, 0.1108806282, 0.1200136319, 0.0602892749, 0.1947717816, 0.1871438324, -0.0871069357, 0.0329798386, -0.0943289325, 0.0589876994, -0.0466564782, -0.0114132678, -0.1888673156, -0.0747714266, 0.0061408198, 0.0230939947, -0.1138564199, 0.1024626195, 0.0852890909, -0.0598402768, 0.0194460470, -0.1470229924, -0.1408949345, -0.1549522281, 0.1453032941, -0.2023528963, -0.2172623575, 0.0045153834, 0.1156341657, 0.0475133136, 0.0499813333, -0.2061155885, 0.0281902030, 0.0590141527, -0.2531575561, -0.0250649434, -0.0049523660, 0.2344003767, 0.0254603866, -0.0023045072, -0.1209873408, 0.0029812236, -0.0302507374, 0.0508066230, -0.1001045331, -0.0851713419, -0.0105594965, 0.1902825534, -0.1461622566, -0.1421177089, 0.1108684763, -0.1683933884, 0.0487832315, 0.0229096729, 0.1163623706, -0.1751438677, 0.0618037283, -0.0469618812, 0.0586142577, 0.1436736733, -0.0396401919, 0.2076958120, -0.1133751571, 0.0541169085, -0.0717193186, 0.0396421775, 0.0529716462, -0.0471914262, -0.0500043109, -0.0304435845, -0.0882406458, 0.2115023285, -0.0138032371, 0.0276992265, 0.0932265371, -0.0468187109, -0.1185850054, -0.0006425341, -0.1134070233, 0.0490695909, -0.1068324447, -0.1160760447, 0.0051619508, -0.0733377635, 0.1781563312, 0.1358846575, 0.1853716224, 0.0988615975, 0.1174064204, -0.0731788948, 0.1422843188, 0.0597698763, 0.1455238312, -0.1855691373, 0.1722577810, 0.0857613832, -0.1427838504, 0.1730803996, 0.1563451141, -0.0830726102, -0.2082451284, -0.0806610510, -0.0640174448, 0.0368586406, -0.0596773848, -0.1912800670, -0.2181229889, -0.1398022473, -0.1543284953, 0.2628898919, -0.1945311576, 0.0359574854, -0.0085446360, -0.1056860536, 0.0838105232, -0.0857945383, -0.0826110393, 0.1470612735, -0.0874720588, 0.2442346215, 0.0001834360, -0.0056291479, -0.0178983957, -0.0163301192, -0.1931286752, 0.0779121444, 0.0625901595, 0.1441836059, -0.0529781580, 0.0124996006, 0.0536814742, -0.0149301440, 0.0342479832, -0.0286263730, -0.1798752248, -0.0123872152, 0.0310570225, 0.1304697692, -0.1239010319, -0.0704969615, -0.0570652671, -0.0216894262, 0.0850630403, 0.0663992241, 0.1595576853, 0.0167880468, 0.0930519924, 0.1130258590, -0.0016131639, 0.0858265758, -0.0270614848, -0.0827241540, 0.0655772164, -0.2508239746, -0.0651853234, 0.1496300995, -0.0218149573, 0.1211734414, 0.0430078767, 0.0951806009, 0.2471208721, 0.0985672474, 0.2455400974, -0.0988050029, 0.1224960163, -0.0702576861, -0.0256533530, -0.0128969904, -0.2020070553, 0.0492749065, 0.1774909794, 0.0581686273, -0.2344344407, -0.0009214614, -0.0333973132, 0.0251405053, -0.0956891105, 0.0730551705, 0.1532411426, -0.0960507244, -0.1321115345, -0.0885541663, -0.0988284647, 0.0946815237, 0.1844239980, 0.0579599701, 0.0079345899, -0.0785787329, -0.0353175364, 0.1605398208, -0.2449797541, 0.1559319347, -0.0196373146, 0.1604655981, -0.1045009568, -0.0516374148, 0.0258807223, -0.2004569620, -0.0925739631, 0.1738214940, -0.2286604196, -0.0387565307, 0.0622420274, 0.0686620250, 0.0800060034, 0.1343900114, -0.0896450132, -0.2077439129, -0.0448951386, -0.0934796259, -0.1300789714, -0.1867602915, 0.0276987515, 0.1796312630, -0.0658720136, 0.1800438315, 0.0795525908, -0.0707675517, -0.2151693404, 0.1310365796, -0.1774289459, -0.1083483398, 0.0060169301, 0.1579068899, -0.2580741346, -0.0324765891, -0.0207623728, -0.0129378196, 0.1042437032, -0.0697360113, 0.1694650203, -0.0933723077, -0.1598206609, 0.0033373490, -0.1318044215, 0.2075321227, -0.0616198145, -0.0620204359, 0.0083578015, 0.1689777225, -0.0271206442, -0.1571048945, -0.0218444634, 0.2274027169, -0.1326715648, -0.0100577297, -0.1373943985, 0.0506891198, -0.0679741725, -0.0800450668, 0.1475066245, 0.0918762758, 0.0741775185, -0.0747085586, -0.1768236011, -0.0092355954, -0.1825190336, -0.0009216730, -0.0146718016, 0.1372304261, 0.2550909519, 0.2648087144, -0.1117260233, 0.2640982270, 0.0968752354, -0.0789033249, -0.0272686351, -0.1167995110, 0.0085707903, 0.0305318031, 0.0848549902, -0.1012084931, 0.1125027314, 0.0650994405, -0.0127751483, -0.0002042220, -0.0549565628, 0.2178240865, 0.0612988062, 0.1386746317, 0.0753629208, -0.0445489958, -0.0575802438, -0.1403554976, 0.0323050953, -0.0171377640, 0.0743868276, -0.0488014556, -0.0676075071, -0.0305494070, -0.0749682412, -0.1633720994, -0.0214051940, -0.0345460176, -0.0820681825, -0.0090141930, -0.2434987724, -0.1555272341, 0.1104674041, 0.0048654578, 0.1824309677, -0.1123070121, -0.2082699388, 0.0724564120, -0.0278663952, 0.0746588930, 0.1424759626, -0.1452246308, -0.2238624096, -0.0506856181, -0.0451672226, 0.0224078577, 0.1606582999, 0.0158601645, -0.0733035803, 0.0055452790, -0.0428042151, 0.0626716390, 0.2564071715, 0.1225336492, -0.2193023264, 0.0333154872, -0.0425079241, 0.0217697266, -0.1014298424, 0.1128617451, -0.1920017004, -0.1852910221, 0.0125551047, -0.1537087411, 0.0708826631, 0.0184028074, -0.0237617865, 0.0942621902, 0.1131267399, -0.0379778631, 0.1600159258, -0.0268307142, 0.0225098766, 0.1199628338, 0.0226159953, 0.1325633228, 0.0936238691, -0.0629182011, 0.1938919276, -0.1700066477, 0.0420516133, 0.0171858072, 0.0406433269, 0.0015168574, 0.0880216956, 0.0636434108, 0.2442453206, 0.0812705308, -0.0459833406, -0.0123073552, 0.1264237612, -0.0680634230, -0.0770328343, -0.1310621798, -0.0850466043, -0.0736151710, 0.1571242064, 0.0454158075, 0.2306388617, -0.0131270392, 0.0361085534, -0.0813341141, -0.1184061617, 0.1221700162, -0.0667579696, 0.0728187561, -0.2191939205, 0.0680378228, 0.0647074208, 0.1202922836, -0.0902059376, 0.0775947347, -0.0355719551, 0.1617863774, -0.0989180952, 0.0526361987, 0.0001376216, 0.1270656884, 0.1391566396, 0.0924234912, 0.0172188543, 0.0328366794, -0.1056261510, -0.0649821460, -0.0356594250, -0.1740127355, -0.0709895268, -0.2072937638, 0.0982735455, -0.0323393457, 0.0527729206, -0.1380265504, -0.1239382401, 0.0427576117, -0.0681531653, -0.2129065692, 0.1185723916, 0.1605952084, 0.0166338235, -0.1058060452, 0.1060065106, -0.0938465148, -0.0243959222, -0.0155238230, 0.2279144526, -0.0128515828, 0.0413517505, -0.1382723898, 0.0245782230, -0.0911369175, 0.1794051528, 0.1743108332, -0.0301258173, 0.2408895791, 0.0445830189, -0.2229016572, 0.1540509760, 0.0218054969, 0.0092538046, 0.0069534359, 0.1118766889, 0.0052042860, 0.1126184091, 0.1964562684, -0.0727721229, -0.1954427809, 0.1444175392, 0.0658842027, 0.1104760990, 0.1296696067, 0.1276464164, 0.0593058281, -0.1663224101, 0.1597446501, 0.0411821157, 0.1373046041, 0.2304835916, -0.0679322481, -0.0531741753, 0.1850828230, -0.0324422754, 0.0013462477, -0.0278539136, -0.0979213715, 0.1997001618, -0.0542077497, 0.0429430306, 0.1054312363, 0.0863098428, 0.0350785516, 0.1620227098, -0.1177721992, 0.1047005281, 0.0685743690, 0.1104366854, 0.0048173587, -0.2001128793, -0.1596534699, 0.0408957750, -0.1458849609, -0.0478836559, 0.0354513191, -0.2324576378, -0.1007128358, 0.1423162818, -0.0815096349, 0.1045405343, 0.0540494435, 0.0739520043, -0.0900002122, 0.1031413078, -0.0545428507, -0.0409891084, -0.0578769855, -0.0440596305, -0.0040176408, -0.0591025129, 0.1346285939, 0.1901692301, -0.1003462225, -0.0050589256, 0.0153490975, -0.0109630497, 0.1141995043, -0.1901636869, -0.1026897132, -0.0360089093, -0.1667185724, 0.0404084660, -0.0941271856, -0.2299464196, 0.1870010942, 0.1359660029, 0.2402518541, -0.0101481946, 0.1406897604, -0.0065294816, 0.0359076224, -0.0527756512, -0.0919422135, 0.1141769812, 0.0472001098, 0.1615282744, 0.1670868546, -0.1900451481, 0.0104753682, 0.0847866535, 0.1462441683, -0.0357573777, 0.0823295265, -0.0733273998, 0.0655428097, 0.1568574607, 0.1016269326, 0.1342106760, 0.0673800558, -0.0857426897, -0.1553418040, -0.0942746997, -0.0079006860, 0.2009332925, 0.1368952543, 0.2438944280, 0.0347072855, -0.1400096714, 0.1061974838, 0.1183428243, -0.0390775837, -0.1559584886, 0.0096358201, -0.1439927369, 0.0193289798, 0.0135455858, 0.2089348286, 0.1505682617, 0.1311513036, -0.0429301709, -0.0102451574, 0.0761000067, 0.0968067572, -0.1636286080, -0.1041612402, -0.1162759289, -0.0511379912, 0.0217257943, -0.2141032517, 0.1404541135, -0.0217015594, 0.0743042529, 0.1182556897, -0.1021028534, 0.0615200624, -0.0849054009, 0.1208757311, 0.0970801115, -0.1128383279, -0.0392868966, 0.0010046000, 0.0854464844, -0.1502367407, -0.1192355901, 0.1564708948, -0.0654588714, -0.0948355123, -0.1268166155, -0.1149613559, 0.0136342980, -0.1314567775, -0.1650898457, 0.0096621225, -0.1196684614, 0.0152783757, -0.0363046192, -0.0258864462, 0.1760594398, -0.1970508993, 0.0993993059, -0.0894054994, 0.1176470518, -0.0120599559, -0.0203986503, -0.1528520882, -0.1164690033, 0.0423392430, -0.2633241415, -0.0685071051, -0.0661886930, 0.0260959920, 0.0623168349, -0.1654046029, 0.0102716973, -0.1730925739, -0.1774321496, -0.1037640423, 0.0338469446, -0.0112757124, 0.1206475273, -0.0184697434, 0.1728693843, 0.1094197258, -0.2609818578, -0.1657270342, -0.1393036693, -0.1844291091, -0.1404876411, 0.2672722340, 0.1295022964, -0.1104695275, 0.2054250836, 0.0740192235, -0.0417187475, 0.1206409037, -0.0433623791, 0.0397899188, 0.0346360467, -0.0237618163, -0.1317986846, -0.1247491539, -0.0977651104, -0.0458767936, 0.0563740581, -0.1874511987, 0.0589265339, 0.0778752044, 0.0111897271, 0.1239663810, -0.1819300503, -0.0028821940, 0.1919293255, 0.0602794215, 0.0192141123, -0.0168916471, -0.0649415106, 0.1113734096, 0.0774725303, -0.0021413704, -0.1524715722, -0.1405992508, -0.0276885424, 0.1547904015, 0.0112114334, -0.1001281589, 0.0061582476, 0.0210990105, 0.1075059772, 0.0877919942, -0.0891932100, 0.1051919237, -0.1306303442, 0.0484731682, 0.0883327425, -0.2049374133, 0.0197274350, -0.0553395823, 0.1710696220, 0.1952979267, 0.0426929742, -0.0545132942, 0.0299409963, 0.0146322800, -0.0563177466, 0.1825061888, -0.1674325913, 0.0489255413, 0.1303757429, -0.1772012413, -0.0193930995, 0.0781262890, 0.1337149590, -0.1744320095, -0.1287790686, -0.0023523800, 0.0297328103, -0.1444286704, -0.0807401165, -0.1622349024, 0.1807758659, -0.1409244835, -0.0957205519, -0.1807022393, 0.0249779858, -0.0211906079, 0.0403317623, -0.1089357585, 0.1785055846, 0.0532871746, 0.1199366078, -0.0064614499, -0.1042893156, -0.1134739593, -0.1395726353, -0.0023481471, -0.1760087311, 0.2588436902, 0.0670094192, 0.1831725985, 0.1659480631, -0.1754252315, -0.0215888321, -0.1142823845, -0.0369768962, -0.1038267463, 0.1778736413, 0.0740683526, 0.0914474353, 0.0001989793, 0.2553741336, 0.1733897626, 0.0945552289, -0.0456402972, 0.1058133245, -0.1170153320, -0.1003613770, 0.2227276564, -0.0579159781, 0.2199667245, -0.2306025624, -0.1551528424, 0.1590396613, -0.1203979179, -0.2213631123, 0.0869469643, -0.2024663389, 0.1569683850, 0.1147937626, -0.0198049862, -0.0852941424, -0.1669354737, 0.1631183624, 0.0786739066, 0.1721693575, -0.0235624295, -0.1946740896, 0.1808356345, -0.2119648457, -0.0553788170, 0.1038699523, -0.1723601222, -0.0431963876, 0.0501286015, -0.1328348517, 0.1484399587, -0.0097093070, 0.2077194452, -0.0034904703, 0.1587034166, -0.2583940029, -0.1172247678, -0.1703211516, -0.0773458332, -0.1451108009, 0.0136028817, 0.0981608331, -0.1360121816, 0.0926712304, 0.0553482808, -0.0999999866, 0.1168982089, 0.0922819823, 0.0241990928, 0.0490876175, -0.1349613965, -0.0396479443, 0.2342073172, -0.1578351855, -0.0242428221, -0.1509062797, 0.1882076114, 0.1278177947, 0.0545934960, 0.0258071516, -0.0677114874, -0.0283106212, -0.2171625495, -0.1167204455, 0.1942614764, 0.1140200719, 0.1616498083, -0.0163230728, -0.1933318973, -0.1440736949, 0.2528799176, -0.0494637862, 0.1669249237, -0.1021688879, -0.2583964765, -0.0405462496, 0.0655812174, 0.0486649759, 0.0197758172, 0.1061637551, 0.1681710035, -0.0390903093, 0.0664662495, -0.0254896786, -0.2604410350, 0.0693894401, 0.1528711170, 0.0170368291, -0.0174259748, -0.1414068043, 0.0380466320, 0.0294509847, -0.0297483876, 0.1240099147, -0.0324445702, -0.2111241072, 0.1146310568, -0.0418319367, -0.1775594205, -0.0787196979, -0.0350829065, 0.0785205439, -0.1177920252, -0.0500719920, -0.2585672736, -0.0283557139, -0.0704706907, 0.2195912153, 0.1023369059, 0.0514783673, -0.0537588783, -0.0155439544, 0.1270585358, 0.0429591574, 0.0100523131, 0.1366642863, -0.0332753547, -0.1053856760, 0.1967404187, -0.0505329259, 0.0932240784, 0.0492590554, -0.2444368601, 0.0779965892, -0.0766202509, -0.0959939063, 0.1103253514, -0.0448109470, -0.1952659041, 0.0186907426, -0.1440147310, 0.1461571455, -0.1230602935, 0.1448841095, -0.0515096001, -0.0176258795, 0.2601173818, 0.0405769162, -0.2017157674, 0.0369800664, 0.0040387879, -0.1366695166, 0.0460352227, 0.0472670607, 0.1249934882, -0.1600974053, -0.0216505248, -0.0272317864, 0.0350305066, -0.0621864796, 0.0397120304, 0.0204091202, 0.0730411336, -0.1155763119, -0.1717158407, -0.0154867517, -0.0019106239, -0.2696734071, -0.0137145137, 0.0433961041, 0.1728059351, -0.0105327191, -0.0098320190, -0.1217234805, -0.0388138518, 0.1964894831, -0.0008411002, 0.0604140274, -0.1062124446, -0.1353796422, 0.1831781864, 0.0664429739, 0.1294834018, -0.1043913290, 0.0433994383, 0.0388970301, -0.0195321515, -0.0506999791, -0.0728146806, 0.1640179902, 0.0504691526, 0.1485878229, -0.0864252523, -0.0096396860, -0.0747066960, -0.0152577544, 0.1130181700, -0.0728807524, 0.2663413882, -0.0832730383, -0.1538039595, -0.1534431875, 0.1365288347, 0.0527991392, 0.1701801270, 0.1530132443, 0.1767470837, -0.0339960866, -0.0035870110, -0.0674712732, -0.1738693565, -0.0198437553, 0.0653610677, 0.0174742211, -0.1119347140, 0.1128652841, -0.0836087614, -0.1562121063, -0.0180807281, -0.0194406230, 0.2310786843, 0.0887383372, 0.0225135945, -0.1348284781, -0.0549882874, 0.0907417759, -0.0761433095, 0.0659339726, 0.0167561322, 0.1731987745, 0.1427398920, -0.0550514311, 0.1392034441, -0.0351849720, -0.0611208677, 0.0753551424, 0.1476451755, 0.0435837097, 0.1475877911, 0.2361008376, -0.1282749474, 0.2498368472, 0.0509954616, -0.0045318613, 0.0005961945, 0.1749855429, -0.1386955082, -0.1352743804, 0.0012563146, 0.2401532233, -0.1553045362, 0.2197148204, 0.0729121417, -0.0771965906, 0.1132263988, 0.1381200403, 0.1859025210, -0.0627725869, -0.0708364919, 0.2262122035, 0.0634706765, -0.0537585802, -0.0691681206, -0.1131154075, 0.1747096777, 0.1198810562, -0.0394097306, -0.0032161372, 0.1204955429, 0.0761841312, 0.1648467183, -0.0778468773, 0.1548862159, 0.0475050248, -0.1740525812, -0.1649783105, 0.1480204016, 0.0388082936, -0.0230654143, -0.0359679721, 0.0899115875, 0.1297675371, -0.0869389549, -0.0292869974, 0.0184418932, 0.0124194408, 0.0887438804, 0.0453395694, -0.0079529332, -0.0024743106, 0.0728178844, 0.0285786446, -0.0081239995, -0.2122111171, 0.0334898084, -0.1265016645, -0.0005647246, 0.2076883912, -0.0291432496, -0.1050665453, 0.0842174068, 0.0227336008, -0.0282895844, 0.0560196005, -0.0051165554, 0.1212320551, -0.1039017439, -0.2049462944, -0.0224135425, 0.0462695919, -0.1449416429, 0.1751169413, 0.1817964017, -0.0573919788, 0.1678310186, 0.1335902661, 0.0996636972, -0.0541666634, -0.1076701209, 0.1231819838, -0.0656885952, -0.0094134277, 0.0613203906, 0.0918561220, 0.0917335972, 0.2492283136, 0.0561880171, 0.1681561917, -0.1153794304, -0.1937933415, 0.0796300843, 0.1226459220, -0.0290254876, 0.0329918005, -0.0585624799, -0.0122808805, -0.0651815012, -0.1532347351, 0.1659943461, 0.0045331530, -0.0145417089, -0.0852688178, -0.0709334388, -0.1524648517, -0.2388506383, 0.1788462847, -0.1803127229, -0.0082806470, -0.0814927220, 0.1293925792, -0.0906359181, -0.2342473269, 0.1649217159, -0.0193688180, -0.1534698904, 0.1268749237, 0.0327664204, 0.1611313671, 0.0964687094, 0.1204369590, 0.0922841281, 0.0447408482, -0.1090507805, -0.1810307801, -0.2344364077, -0.2208381742, -0.1365034580, -0.1297103316, 0.0569266602, -0.0090401797, -0.0123760011, 0.1852182001, -0.1451605707, 0.0408773124, -0.0501116626, -0.1298286766, 0.2034886032, 0.2417524159, -0.1493517458, -0.0789757073, 0.1638664007, -0.1036354825, -0.1945587248, 0.0866882429, 0.1250167042, -0.0737595111, 0.0489881039, -0.0075077498, -0.0685179383, -0.0049851718, 0.1092372835, 0.0852565616, 0.0524525344, -0.0045087817, 0.0351834297, -0.2411083579, 0.1760749668, 0.2175844014, -0.1192152277, 0.0140716285, -0.0696992204, 0.0425255336, -0.1004951000, -0.1267559677, 0.0338131301, -0.1127941012, -0.2595270276, 0.2092680931, 0.2374135554, 0.0406780280, 0.1423071921, 0.0153619656, 0.0693339184, -0.0984084979, -0.0730054304, 0.0248625390, 0.1825678647, 0.1222617179, 0.0152901663, -0.0384037271, 0.2072562575, 0.0930282772, 0.0076072891, 0.2267711759, -0.0182380863, 0.0970642269, -0.1442923695, -0.0118156690, -0.1366991401, -0.1797492057, 0.0308640786, 0.2390643209, -0.0680108443, 0.1172802299, -0.0960643217, -0.0360160023, 0.1645510793, -0.0088668708, 0.0505158715, 0.2246343344, -0.2654971480, -0.0300925020, 0.0904894918, 0.0724477991, -0.0943950638, -0.1436690688, -0.2331694514, 0.2311735004, -0.0625497699, 0.0669553131, 0.0299088825, 0.0596490726, -0.2413496971, 0.1129087880, -0.0319326371, 