//Numpy array shape [192]
//Min -0.429656982422
//Max 0.361694335938
//Number of zeros 0

#ifndef B19_H_
#define B19_H_

#ifndef __SYNTHESIS__
bias19_t b19[192];
#else
bias19_t b19[192] = {-0.34576416015625, -0.02770996093750, 0.19860839843750, -0.07510375976562, 0.06680297851562, -0.11163330078125, 0.04187011718750, -0.16409301757812, -0.18432617187500, 0.17425537109375, -0.18988037109375, -0.29043579101562, -0.19836425781250, -0.08761596679688, -0.15576171875000, 0.36169433593750, -0.09863281250000, -0.11016845703125, -0.20181274414062, -0.31048583984375, 0.11636352539062, -0.33065795898438, -0.17565917968750, -0.04568481445312, -0.00640869140625, -0.32229614257812, -0.06085205078125, -0.38098144531250, -0.38934326171875, -0.12002563476562, 0.00103759765625, -0.08880615234375, -0.26464843750000, -0.10556030273438, -0.03222656250000, -0.21655273437500, -0.08389282226562, -0.09698486328125, -0.28890991210938, -0.12283325195312, -0.32199096679688, 0.15386962890625, -0.12142944335938, -0.42965698242188, -0.04974365234375, -0.13479614257812, -0.08758544921875, -0.35647583007812, -0.13272094726562, -0.29837036132812, -0.16281127929688, -0.37551879882812, 0.19512939453125, -0.10214233398438, -0.25677490234375, -0.00476074218750, -0.19015502929688, -0.11746215820312, -0.14163208007812, -0.00811767578125, -0.08642578125000, -0.42858886718750, -0.22793579101562, -0.29446411132812, 0.06918334960938, 0.03244018554688, 0.05316162109375, 0.08081054687500, -0.06817626953125, 0.09613037109375, 0.08053588867188, -0.14779663085938, -0.05526733398438, 0.02026367187500, 0.11770629882812, 0.05307006835938, -0.03384399414062, -0.02090454101562, 0.04541015625000, 0.05041503906250, -0.05963134765625, 0.22329711914062, -0.00115966796875, 0.02770996093750, -0.20306396484375, 0.13870239257812, 0.00189208984375, 0.03149414062500, -0.04257202148438, -0.04211425781250, -0.11450195312500, 0.18200683593750, -0.07290649414062, 0.10494995117188, 0.01580810546875, 0.13903808593750, -0.04092407226562, -0.02590942382812, 0.01647949218750, -0.10842895507812, -0.06472778320312, 0.10156250000000, -0.00668334960938, -0.01736450195312, 0.01669311523438, 0.06826782226562, -0.04208374023438, 0.21395874023438, -0.04556274414062, -0.02691650390625, -0.01046752929688, 0.21997070312500, -0.12481689453125, 0.01641845703125, 0.11392211914062, 0.01403808593750, 0.01245117187500, -0.05807495117188, 0.11834716796875, -0.10275268554688, 0.00167846679688, 0.16207885742188, -0.02645874023438, -0.02758789062500, 0.10946655273438, 0.13925170898438, 0.15408325195312, -0.00723266601562, -0.17309570312500, -0.05749511718750, -0.13699340820312, -0.18634033203125, -0.02978515625000, -0.19400024414062, -0.12271118164062, 0.03454589843750, 0.06768798828125, -0.05142211914062, 0.18438720703125, 0.11410522460938, -0.09533691406250, 0.00775146484375, 0.04449462890625, 0.11801147460938, -0.03503417968750, -0.16036987304688, 0.05914306640625, 0.27264404296875, -0.05487060546875, -0.16848754882812, 0.11578369140625, 0.09906005859375, -0.00006103515625, 0.06896972656250, 0.05474853515625, 0.20193481445312, 0.09606933593750, -0.13604736328125, -0.09951782226562, 0.15936279296875, 0.03027343750000, -0.05093383789062, 0.09594726562500, 0.00619506835938, 0.06887817382812, 0.16329956054688, 0.13946533203125, 0.05340576171875, 0.08120727539062, -0.14703369140625, -0.03240966796875, -0.17266845703125, -0.09390258789062, 0.02542114257812, 0.07635498046875, -0.17321777343750, 0.01010131835938, 0.14468383789062, -0.15914916992188, 0.01577758789062, 0.11544799804688, 0.07199096679688, -0.07986450195312, 0.00628662109375, -0.09197998046875, 0.12228393554688, 0.04922485351562, -0.00769042968750, 0.14807128906250, 0.20263671875000, 0.18035888671875, -0.01251220703125};
#endif

#endif
