//Numpy array shape [64]
//Min -0.442169189453
//Max 0.054077148438
//Number of zeros 0

#ifndef B6_H_
#define B6_H_

#ifndef __SYNTHESIS__
bias6_t b6[64];
#else
bias6_t b6[64] = {-0.03591918945312, -0.07171630859375, -0.31945800781250, -0.14633178710938, -0.02883911132812, -0.06246948242188, -0.20703125000000, -0.09677124023438, 0.05407714843750, -0.44216918945312, -0.03488159179688, -0.13711547851562, -0.08453369140625, 0.00228881835938, -0.08999633789062, -0.34680175781250, 0.03671264648438, -0.03729248046875, 0.02474975585938, -0.10183715820312, -0.13641357421875, -0.06942749023438, -0.05963134765625, -0.04006958007812, -0.05618286132812, -0.10018920898438, -0.15661621093750, -0.04046630859375, -0.03170776367188, -0.02246093750000, -0.02273559570312, -0.03472900390625, -0.03762817382812, -0.07113647460938, 0.00067138671875, 0.01333618164062, -0.06796264648438, -0.02380371093750, -0.10684204101562, -0.09820556640625, -0.07687377929688, -0.28704833984375, 0.03286743164062, -0.02984619140625, -0.03887939453125, 0.01623535156250, -0.09646606445312, -0.09689331054688, -0.04736328125000, -0.07089233398438, -0.09173583984375, -0.03247070312500, -0.38290405273438, -0.05859375000000, -0.12399291992188, 0.02191162109375, -0.04653930664062, -0.04565429687500, -0.10754394531250, -0.04858398437500, -0.09243774414062, 0.00125122070312, -0.11999511718750, -0.12060546875000};
#endif

#endif
