-0.781486272811890, 0.114032320678234, -0.422230333089828, -0.335459232330322, 0.227683573961258, -0.252078920602798, -0.280104309320450, -0.487077742815018, -0.119138300418854, 0.046262394636869, -0.318032294511795, 0.093561284244061, -0.261919111013412, -0.236499756574631, -0.152470320463181, -0.269738167524338, 0.135316461324692, -0.024040462449193, -0.331045091152191, 0.120131835341454, -0.600861668586731, -0.109017781913280, 0.781874239444733, -0.237662255764008, 0.279934823513031, -0.189198940992355, -0.251245796680450, -0.294682115316391, 0.019368050619960, 0.039866153150797, 0.120301082730293, -0.433605670928955, -0.364378780126572, -0.789041340351105, -0.176577746868134, -0.201546117663383, -0.936468601226807, 0.316057473421097, -0.014627877622843, -0.651136875152588, -0.470471203327179, -0.418215095996857, -0.418428987264633, 0.008423672057688, -0.870384633541107, -0.056506138294935, -0.043658107519150, -0.173886582255363, -0.150181680917740, -0.068366393446922, -0.170534312725067, -0.337984442710876, -0.275797039270401, -1.053498506546021, 0.024227030575275, 0.377938151359558, -0.015399423427880, -0.371890842914581, -0.566428422927856, -0.227227985858917, 0.318436831235886, 0.471047222614288, -0.956103503704071, 0.003299741074443, 1.040481686592102, -0.258509635925293, 0.201272293925285, 0.411631286144257, -0.210512205958366, 1.000734925270081, 0.185954272747040, 0.501331269741058, 0.248042225837708, 0.250117510557175, 0.166602462530136, 0.153430625796318, 0.413985490798950, 0.321316570043564, 0.101111710071564, 0.256201356649399, -0.274469792842865, 0.423086643218994, 0.436607062816620, 0.052450977265835, 0.539781093597412, 0.423572152853012, 0.163417577743530, -0.007744323462248, -0.258784145116806, 0.726833283901215, 0.142454236745834, 0.212589770555496, 0.370689094066620, 0.055815123021603, -0.673145234584808, 0.099081084132195, -0.235041067004204, 0.260628104209900, -0.145600363612175, 0.132945612072945, 0.100471541285515, 0.254317045211792, 0.446651160717010, 0.339150220155716, 0.657037913799286, -0.185964450240135, -0.018548738211393, -0.665021896362305, 0.529952168464661, -0.641649127006531, 0.292920410633087, 0.873340427875519, 0.493997842073441, -0.144951164722443, 0.573167622089386, 0.373546481132507, 0.450550526380539, 0.299979478120804, 0.252109587192535, -0.026086984202266, -0.060053721070290, 0.472043603658676, 0.450530678033829, 0.574971735477448, 0.731396615505219, -0.140234574675560, -0.339177250862122, 1.523577809333801, -0.527553319931030, -0.216363474726677, 0.012974816374481, 0.169671863317490, -0.335461527109146, 0.373812079429626, -0.075534224510193, 0.190137416124344, 0.254448801279068, -0.485016286373138, 0.007965532131493, -0.081875145435333, 0.504343509674072, 0.259787231683731, 0.140049830079079, -0.084838233888149, -0.134423881769180, 0.248133078217506, -0.210816994309425, -0.167957395315170, 0.244808033108711, -0.060682818293571, -0.043501231819391, 0.103518217802048, 0.718373537063599, -0.009378578513861, -0.128204733133316, -0.014534773305058, 0.210428550839424, -0.003059066832066, -0.690101444721222, 0.227704107761383, -0.095800206065178, 0.222492039203644, 0.202481880784035, 0.182767346501350, 0.053389918059111, 0.132986187934875, -0.661622762680054, -0.138850182294846, -0.133065998554230, 0.152916595339775, 0.473672121763229, -0.306964188814163, -0.211734771728516, -0.412526696920395, 0.188939049839973, 0.158471927046776, 0.159419298171997, 0.106685355305672, 0.371004194021225, 0.181274369359016, 0.057032193988562, 0.129348903894424, -0.203000143170357, 0.248555764555931, 0.142931967973709, 0.337305694818497, 0.152202382683754, 0.015947036445141, 0.044921878725290, -0.442894518375397, 0.240727618336678, -0.266028970479965, -0.201697334647179, 0.193056300282478, 0.477506279945374, -0.340300619602203, -0.816643238067627, -0.455422729253769, -0.364246606826782, -0.999506175518036, 0.207116901874542, 0.180887967348099, -0.220474287867546, 0.257727116346359, 0.202275872230530, 0.042698852717876, -0.083630532026291, -0.533318221569061, -0.218522951006889, -0.590070009231567, 0.542332291603088, -0.284585148096085, -0.487615019083023, 0.020230064168572, -0.233516290783882, -0.126314699649811, -0.566815257072449, -0.424039125442505, 0.091846652328968, -0.209457278251648, 0.044610101729631, -0.628598332405090, 0.513222515583038, -0.362329602241516, 0.218269333243370, -0.515769541263580, -0.848025798797607, -0.856435537338257, -0.359718054533005, 0.189102947711945, -0.631103217601776, -0.473730862140656, 0.147531569004059, -0.079915404319763, -1.089925169944763, -0.126872152090073, -0.558822453022003, -0.438860595226288, 0.140808507800102, -0.395891487598419, -0.253657251596451, -0.116131819784641, -0.203648239374161, -0.070846192538738, -0.119085580110550, -0.191952392458916, -0.029849467799067, 0.835975348949432, 0.071506790816784, -0.353404551744461, 0.621974349021912, -0.261179029941559, 0.409498035907745, 0.479882240295410, -0.042749628424644, -0.449138909578323, -0.018484145402908, -0.149974659085274, -0.413740843534470, -0.250303506851196, -0.240726232528687, 0.119775176048279, 0.389232873916626, 0.503866314888000, 0.322308152914047, -0.931119620800018, 0.280161887407303, 0.063057690858841, -0.040254026651382, -0.802362442016602, 0.361501008272171, 0.221508234739304, 0.117942050099373, -0.185684740543365, 0.135073065757751, -0.101644955575466, -0.004924886859953, 0.330935359001160, 0.029217336326838, 0.141102045774460, 0.019768377766013, 0.309901267290115, 0.038946531713009, 0.517925381660461, 0.052567884325981, 1.103415608406067, 0.872327566146851, 0.095449604094028, -0.255190074443817, 0.745285749435425, 0.327130079269409, 0.363777726888657, -0.076823949813843, 0.103613480925560, -0.206533655524254, 0.666038811206818, 0.909251689910889, 0.109913833439350, 0.368081688880920, 0.263018429279327, -0.546807944774628, 0.061865817755461, 0.011056927964091, -0.153570011258125, 0.569046735763550, -0.576775133609772, 0.231118068099022, 0.036519695073366, -0.112835511565208, 0.028528923168778, 0.108032010495663, 0.115826480090618, -0.526353478431702, 0.063366129994392, -0.491458028554916, 0.607270717620850, 0.251602083444595, 0.075897105038166, -0.032749857753515, -0.539586782455444, -0.342134058475494, -0.220322802662849, -0.620865046977997, -0.104304403066635, 0.065545938909054, -0.320201486349106, 0.122181683778763, -0.408736348152161, -0.271288752555847, -0.729571223258972, 0.062872074544430, -0.277062475681305, 0.396517336368561, 0.232200205326080, -0.045517407357693, 0.182306751608849, -0.629475057125092, 0.342407375574112, -0.150380849838257, -0.251882255077362, 0.088844560086727, 0.216415032744408, 0.133199512958527, 0.262738019227982, 0.014975203201175, 0.366270124912262, -0.029650270938873, 0.360517293214798, -0.002575771650299, 0.199404329061508, -0.750110328197479, -0.012997169978917, -0.245507687330246, -0.317921340465546, 0.170353934168816, -0.447823166847229, 0.219153806567192, 0.359528899192810, 0.233565151691437, 0.700708389282227, 0.254107326269150, 0.421069443225861, -0.505660772323608, -0.413448810577393, -0.086166717112064, -0.179270073771477, -0.002475069602951, 0.347704410552979, 0.251919835805893, 0.094298303127289, 0.370630323886871, -0.198569029569626, 0.198901504278183, 0.050816807895899, -0.158146157860756, 0.146097451448441, -0.007081187330186, 0.477489978075027, 0.230518087744713, 0.119901351630688, -0.335160434246063, 0.207037523388863, 0.218999356031418, -0.293866217136383, -0.717371761798859, -0.017056699842215, 0.304664522409439, -0.031195860356092, -0.373144924640656, -0.329083532094955, -0.673487842082977, -0.088909074664116, -0.088807657361031, 0.142572417855263, -0.202473908662796, 0.329828679561615, 0.290154606103897, -0.352014660835266, -0.054668210446835, 0.139801755547523, -0.563179969787598, -0.341085612773895, -0.443145036697388, 0.422259062528610, 0.016942046582699, 0.102132916450500, 0.391247749328613, 0.103684559464455, 0.343875974416733, 0.362413078546524, 0.117493979632854, 0.014305779710412, -0.292713791131973, -0.155587077140808, -0.665400743484497, 0.434206068515778, -0.279669016599655, 0.130665555596352, -0.236902713775635, 0.162592083215714, -0.134115919470787, 0.424701184034348, 0.185643106698990, 0.316066056489944, -0.508119940757751, -0.018971700221300, 0.277322262525558, -0.154508739709854, 0.161021262407303, -0.421983629465103, 0.076539158821106, -0.206572026014328, 0.218393847346306, -0.170219764113426, 0.618719696998596, -0.021663539111614, 0.255532413721085, 0.052292160689831, 0.427748292684555, -0.527672767639160, -0.425146907567978, -0.342923223972321, -0.463951826095581, 0.087961688637733, -0.129697263240814, -0.464788556098938, 0.266732037067413, -0.508347928524017, 1.000416994094849, 0.235309213399887, 0.053924381732941, 0.165575787425041, 0.506617128849030, 0.849998593330383, 0.925979375839233, -0.136220738291740, -0.626423478126526, 0.382173806428909, 0.161007151007652, 0.315249025821686, -0.092864200472832, -0.294828027486801, -0.154808968305588, 0.899930834770203, 0.640423834323883, 0.413430422544479, -0.241762876510620, -0.015918375924230, 0.199908107519150, -0.056122772395611, -0.156347200274467, -0.208350151777267, -0.558006942272186, 0.509597659111023, 0.240995734930038, 0.948267936706543, 0.354205250740051, 0.368656396865845, 0.455323606729507, 0.589808642864227, 0.198053032159805, -0.384940326213837, 0.138451039791107, 0.173423886299133, 0.128028705716133, 0.265417426824570, -0.030405912548304, 0.942485511302948, 0.423966765403748, 0.550815165042877, 0.442583739757538, 0.107551462948322, 0.579156339168549, -0.235259279608727, 0.131735190749168, 0.230260550975800, 0.397475212812424, -0.117034263908863, 0.321029245853424, 0.645097255706787, 0.553586542606354, 0.664692282676697, 0.724071621894836, -0.094545431435108, 0.536254107952118, 0.555478990077972, 1.255135416984558, 0.402322322130203, 0.919154942035675, -0.878615856170654, 0.081199869513512, 0.556066751480103, -0.210140585899353, 0.035167507827282, -1.177487730979919, 0.253391206264496, 0.422029554843903, -0.299055933952332, -0.329137444496155, 0.121199056506157, 0.044167812913656, 0.257185727357864, 0.351142436265945, -0.355281740427017, 0.082288369536400, 0.100000515580177, -0.346180111169815, 0.203236043453217, 0.381590455770493, 0.055186722427607, -0.312563240528107, -0.334203213453293, 0.429738104343414, -0.053434200584888, 0.194745212793350, 0.097801029682159, 0.533497929573059, -0.284051835536957, 0.188499346375465, 0.530771076679230, -0.189910009503365, 0.103596754372120, -0.018359938636422, -0.062008593231440, -0.052494522184134, 0.067718081176281, 0.582877695560455, -0.201247617602348, -0.034444011747837, -0.651249706745148, 0.026671078056097, -0.131398737430573, -0.085697337985039, -0.127902507781982, 0.167826563119888, -0.082456506788731, 0.334934860467911, -0.283009737730026, 0.470140874385834, -0.186233595013618, 0.332685410976410, 0.237921550869942, 0.116159692406654, 0.131272688508034, -0.331450343132019, -0.279162585735321, 0.077484957873821, 0.301775366067886, -0.066109105944633, 0.034073472023010, 0.473089933395386, -0.467040568590164, 0.181161150336266, -0.709430098533630, -0.292662203311920, -0.064847916364670, 0.397744596004486, -0.084104716777802, 0.284525364637375, 0.045377150177956, -0.775012493133545, 0.305340826511383, -0.105682834982872, -0.431737452745438, 0.203486919403076, 0.436073839664459, -0.672934532165527, -0.144695714116096, -0.214707180857658, -0.291545063257217, -0.065149538218975, -0.765854179859161, -0.055898819118738, -0.607161402702332, 0.142702460289001, -0.845225512981415, -0.119998827576637, -0.199364691972733, -0.684789299964905, -0.217463016510010, -0.590728938579559, -0.266414225101471, -0.379220485687256, 0.113939486443996, -0.279976308345795, -0.288202434778214, 0.256721317768097, 0.001596833462827, 0.299923539161682, -0.023089475929737, -0.183106929063797, -0.485651612281799, -0.212095230817795, 0.234191015362740, -0.003341297619045, -0.120884902775288, -0.492457270622253, -0.015002151951194, -0.611710548400879, -0.457079768180847, 0.432634115219116, -0.098607614636421, 0.319447815418243, -0.130480900406837, -0.225364893674850, -0.734555423259735, 0.487073630094528, 0.170184701681137, -0.117832265794277, -0.569998562335968, 0.114433832466602, 0.101332992315292, -0.259908795356750, -0.054303634911776, 0.290430039167404, -0.277374804019928, 0.213553592562675, -0.182180166244507, 0.026301559060812, 0.139082804322243, 0.173057571053505, 0.159748420119286, 0.201669380068779, 0.355061948299408, 0.096792094409466, -0.402790278196335, 0.517035305500031, 0.113210037350655, -0.172112539410591, -0.388238519430161, -0.351559966802597, 0.327531039714813, -0.159232288599014, -0.417400240898132, -0.022341007366776, 0.257797032594681, -0.120235070586205, 0.092296481132507, -0.073981605470181, -0.282229393720627, -0.013793122023344, 0.316200941801071, 0.374196827411652, -0.233776912093163, 0.020260868594050, 0.226344883441925, 0.212386012077332, 0.577758729457855, 0.054586939513683, 0.220781818032265, -0.024682782590389, -0.102762766182423, 0.198654428124428, -0.039565075188875, -0.284469068050385, -0.318650633096695, -0.032652355730534, -0.024531502276659, -0.392872780561447, 0.062751129269600, 0.291788518428802, 0.383098840713501, 0.213341519236565, -0.180148631334305, -0.076905332505703, -0.174742192029953, 0.079461880028248, -0.046076837927103, 0.271510303020477, -0.156554684042931, 0.060312576591969, -0.303480565547943, -0.397601544857025, -0.155609831213951, -0.112635046243668, 0.086091130971909, -0.190186113119125, -0.268301159143448, 0.184129372239113, 0.298605084419250, 0.338753253221512, -0.147621467709541, 0.271331429481506, -0.166353717446327, -0.607805013656616, 0.160117372870445, -0.337113618850708, -0.533279538154602, 0.280530452728271, -0.092225991189480, 0.320607930421829, -0.462853670120239, -0.595768034458160, 0.074644722044468, 0.289879590272903, -0.055822066962719, -0.177028417587280, -0.107627205550671, -0.329945832490921, 0.159238591790199, -0.534462332725525, -0.001493456074968, -0.003344737691805, -0.263748586177826, 0.192016392946243, 0.089578814804554, -0.468214750289917, 0.337853193283081, -0.688916563987732, 0.083595260977745, -0.182597786188126, 0.060358863323927, -0.186652213335037, 0.009122474119067, -0.549843192100525, 0.201506301760674, -0.159563675522804, 0.074373409152031, 0.669698774814606, 0.016785554587841, -0.159746423363686, -0.121691308915615, -0.179315179586411, 0.085380457341671, 0.157238781452179, 0.230052471160889, -0.564957439899445, -0.509800136089325, 0.170910716056824, -0.485242277383804, 0.004634467419237, -0.073244422674179, 0.011914196424186, 0.357279181480408, -0.201513126492500, 0.091764882206917, -0.243593454360962, 0.035548925399780, -0.680248558521271, 0.025225128978491, 0.202824398875237, -0.266791194677353, -0.076891250908375, 0.298336982727051, -0.395224571228027, -0.036536872386932, 0.295021504163742, 0.085290424525738, -0.187569975852966, 0.312486380338669, -0.104526743292809, -0.660797178745270, -0.529272139072418, -0.274984538555145, -0.001420166925527, -0.316965520381927, -0.766577363014221, -0.485348999500275, -0.120890438556671, -0.080464802682400, -0.366660177707672, -0.343504339456558, -0.418779820203781, -0.162410303950310, 0.419064283370972, 0.103707097470760, -0.066770613193512, 0.065111897885799, -0.473014861345291, 0.327883154153824, -0.007782793603837, -0.479401826858521, -0.375991374254227, -0.587756156921387, -0.349510222673416, -0.490030884742737, -0.237485259771347, 0.130880624055862, -0.023631805554032, 0.188921421766281, -0.099241279065609, -0.232782423496246, -0.318702697753906, 0.110244713723660, -0.276583194732666, 0.239238709211349, -0.173335894942284, -0.894885420799255, -0.700153350830078, -0.689159989356995, -0.681907415390015, -0.588315188884735, -0.260059714317322, 0.233894050121307, -0.070332832634449, -0.358642727136612, -0.220320686697960, -0.290042668581009, -0.271504461765289, -0.084892116487026, -0.476278364658356, -0.448944449424744, -0.206739947199821, 0.117396734654903, 0.265125930309296, -0.343036979436874, -0.186149001121521, -0.264541476964951, -0.710688173770905, 0.432932734489441, -0.895849585533142, -0.029258018359542, 0.529962778091431, -0.076229929924011, 0.054490849375725, 0.482190936803818, -0.281584262847900, 0.128777220845222, 0.466051787137985, 0.284802645444870, 0.221662387251854, 0.838310480117798, 0.733649611473083, -0.002548177726567, -0.036324270069599, -0.121898792684078, 0.054632257670164, 0.379711210727692, 0.177930459380150, 0.074059084057808, 0.165309056639671, 0.560412287712097, 0.274529188871384, 0.230722382664680, 0.374485969543457, 0.638622760772705, -0.224677532911301, 0.209529742598534, 0.031364634633064, 0.390646904706955, 0.329204440116882, 0.564136624336243, -0.091260910034180, -0.111125290393829, -0.116385921835899, 0.135540455579758, -0.143607571721077, -0.207826852798462, -0.308126240968704, 0.182414576411247, -0.385521262884140, 0.376711934804916, 0.532619476318359, 0.042495451867580, -0.175710394978523, 0.331781804561615, 0.379918813705444, -0.079894915223122, 0.388979673385620, -0.129390463232994, 0.094042934477329, -0.219093397259712, 0.291631340980530, 0.240501806139946, 0.222769200801849, 0.058184582740068, -0.043903436511755, -0.102669857442379, -0.074000820517540, 0.367199659347534, -0.030085409060121, 1.079648852348328, 0.284245252609253, -0.465919047594070, 0.631610155105591, 0.690307080745697, -0.266605108976364, -0.293588519096375, -0.147824004292488, -0.109137773513794, -0.582829892635345, 0.125015333294868, 0.202716693282127, -0.101823583245277, 0.443420290946960, 0.625285565853119, -0.128030121326447, -0.187858134508133, -0.056415908038616, 0.056984044611454, -0.158921077847481, 0.420089125633240, 0.332600206136703, 0.278675764799118, 0.115187071263790, 0.398887604475021, -0.084210269153118, -0.313048720359802, -0.243474677205086, -0.025663081556559, 0.372849911451340, 0.294983357191086, -0.318281561136246, 0.163957521319389, -0.072140134871006, 0.251255929470062, 0.216852396726608, 0.188075527548790, -0.240563064813614, 0.384750843048096, 0.224510237574577, -0.110134057700634, -0.152369454503059, 0.195100545883179, -0.072858087718487, -0.146132245659828, 0.146101012825966, 0.511541903018951, 0.038890093564987, 0.011330200359225, -0.024163840338588, -0.294228434562683, -0.048745974898338, -0.224444404244423, -0.019495019689202, 0.573754191398621, 0.180145427584648, -0.234242245554924, -0.323390305042267, 0.150853097438812, 0.185810863971710, 0.110700719058514, 0.141171202063560, -0.025567770004272, 0.330900311470032, 0.003482328727841, -0.071046106517315, -0.501706898212433, 0.203145399689674, 0.051454652100801, 0.195772036910057, 0.389652162790298, 0.587702333927155, 0.148027405142784, -0.228064164519310, -0.147839277982712, 0.246201500296593, -0.075693942606449, -0.147574022412300, -0.461043626070023, 0.295546174049377, -0.240498617291451, 0.039658110588789, -0.422008901834488, -0.282055377960205, -0.223511338233948, 0.036064997315407, -0.378047138452530, -0.663491487503052, 0.502900540828705, 0.378932029008865, 0.018469234928489, 0.426809489727020, -0.002414914779365, -0.030070343986154, -0.079359300434589, 0.326058685779572, -0.190016135573387, 0.052421994507313, 0.019576678052545, -0.670188724994659, 0.475845515727997, 0.000067062297603, 0.024456586688757, 0.788853585720062, 0.099361501634121, 0.328365176916122, 0.234300479292870, -0.129552409052849, 0.425410807132721, -0.080903738737106, 0.241757810115814, -0.222732573747635, 0.748590528964996, 0.772690832614899, 0.369805514812469, 0.105096198618412, -0.139052405953407, 0.282088577747345, 0.390508651733398, -0.352317899465561, 0.152439191937447, 0.195797935128212, 0.919006049633026, 0.308858364820480, 0.059003110975027, 0.757272064685822, 0.306033521890640, 0.680435478687286, -0.140835985541344, 0.017836313694715, -0.467915624380112, 0.973859488964081, -0.088928908109665, 0.117167599499226, 1.217431545257568, -0.987978935241699, 0.333487510681152, 0.398251533508301, -0.160497516393661, 0.329916954040527, 0.110796794295311, 1.156465172767639, -0.182397201657295, 0.185756593942642, -0.247733309864998, 0.098895929753780, 0.119445458054543, 0.438276767730713, 0.429734021425247, 0.717786848545074, -0.620365202426910, -0.174452066421509, -0.356964617967606, -0.510178744792938, 0.056718286126852, 0.388773918151855, 0.383662849664688, -0.459097802639008, -0.228160649538040, -0.171607241034508, 0.369309484958649, 0.276875942945480, 0.895251095294952, 0.016738230362535, -0.039712373167276, -0.127269342541695, -0.598323464393616, -0.168560922145844, 0.670502364635468, -0.734589219093323, 0.179172426462173, -0.292370349168777, 0.825030148029327, -0.017473967745900, 0.678420841693878, 0.071740038692951, -0.418504595756531, 0.104674890637398, 0.589890956878662, 0.453177899122238, -0.373681783676147, -0.819028258323669, -0.383425563573837, -0.647377431392670, 0.211640104651451, 0.193198740482330, -0.005264481529593, 0.115213386714458, -0.198724806308746, -0.087056025862694, -0.030577693134546, -0.391628921031952, -0.386999219655991, -0.244944944977760, -0.602666199207306, 0.485493749380112, 0.109774485230446, -0.256497979164124, 0.646517455577850, 0.287995040416718, 0.041243974119425, -0.043618615716696, -0.305081397294998, 0.088817350566387, -1.072776436805725, -0.321577578783035, -0.115691348910332, -0.177584514021873, 0.234711617231369, 0.412921011447906, 0.092906415462494, 0.220975592732430, 0.530824363231659, -0.041312273591757, 0.895022511482239, -0.118866331875324, -0.266027569770813, 0.349735289812088, 0.010439525358379, 0.091491840779781, -0.442374587059021, -0.299456059932709, -0.101808927953243, 0.001276800525375, 0.403984397649765, -0.200007244944572, 1.188266515731812, 0.587810993194580, 0.070824079215527, 0.072696283459663, 0.281589269638062, 0.339507669210434, -0.559907257556915, -0.112084217369556, -0.517150044441223, 0.122808970510960, -0.799588441848755, 0.033170558512211, 0.053806301206350, -0.379423111677170, 0.095424316823483, 0.246040165424347, 0.132484108209610, -0.013414156623185, -0.097602136433125, -0.010653418488801, -0.046237364411354, 0.344505250453949, 0.294346928596497, 0.226054355502129, -0.265705347061157, -0.060991138219833, 0.058285363018513, 0.145253971219063, -0.421895474195480, 0.550273895263672, -0.436977624893188, -0.425868839025497, -0.499528914690018, -0.458060920238495, -0.657245099544525, -0.298131644725800, 0.289265632629395, -0.151225969195366, 0.417010009288788, 0.427456587553024, -0.664835453033447, 0.566929280757904, 0.813462138175964, 0.142358601093292, -0.290560245513916, 0.498994678258896, -0.190339356660843, 0.174551948904991, 0.285704284906387, 0.060459729284048, 0.652406275272369, 0.403546273708344, -0.537691593170166, 0.114607200026512, 0.793584167957306, 0.422304153442383, -0.218715563416481, 0.245796635746956, 0.437122344970703, 0.076348230242729, 0.074649721384048, 0.063913993537426, 0.149991601705551, 0.388758242130280, -0.129599586129189, -0.576114356517792, 0.099349685013294, -0.193306088447571, 0.110756054520607, 0.054248243570328, -0.011816969141364, 0.068422012031078, -0.017496868968010, 0.078356333076954, -0.100267425179482, 0.158045873045921, 0.399267852306366, 0.361707955598831, -0.246966227889061, 0.184769541025162, -0.416401684284210, -0.295374840497971, 0.577061474323273, -0.194913342595100, 0.390142083168030, -0.455655455589294, 0.058302998542786, 0.376963496208191, 0.310464382171631, -0.121211901307106, -0.266278684139252, -0.162272140383720, 0.312527924776077, -0.670174598693848, -0.221545979380608, -0.740085065364838, -0.368424683809280, -0.345605701208115, 0.479609936475754, 0.455589324235916, -0.757599174976349, -0.013424779288471, -0.521373033523560, 0.439030766487122, 0.419920235872269, -0.762573122978210, -0.454465508460999, 0.169451043009758, 0.527429699897766, 0.310903429985046, 0.183331966400146, 0.045210879296064, 0.120884284377098, 0.094997756183147, 0.161781713366508, -0.575689971446991, -0.186934232711792, 0.113333240151405, 0.340743154287338, 0.550915956497192, -0.222616761922836, 0.001149942982011, -0.227204382419586, 0.448472142219543, 0.075432382524014, -0.456377983093262, -0.265662610530853, -0.116235420107841, -0.558633148670197, -0.493929415941238, 0.096249535679817, 0.280682891607285, 0.001598237431608, 0.415110945701599, -0.304730713367462, 0.536577761173248, 0.067564792931080, 0.454004853963852, 0.009219885803759, -0.184883207082748, -0.135061860084534, 0.274424999952316, -0.025735134258866, -0.031911600381136, 0.668735086917877, 0.214560329914093, -0.039633512496948, -0.132325321435928, 0.074617385864258, 0.089113458991051, 0.089832030236721, 0.143569886684418, 0.255865335464478, 0.044794630259275, -0.023733047768474, 0.374185740947723, 0.057360518723726, -0.086163222789764, -0.047362282872200, 0.321934461593628, 0.121546760201454, -0.380594253540039, 0.323766022920609, -0.033736467361450, -0.350771903991699, 0.132439345121384, 0.372632116079330, 0.147075369954109, -0.112930692732334, -0.894501566886902, 0.339954495429993, 0.338752657175064, 0.466600179672241, -0.050950188189745, 0.202287495136261, 0.350206911563873, 0.139346614480019, 0.570480346679688, -0.314189076423645, 0.608145534992218, -0.544060707092285, 0.180901408195496, 0.142165198922157, -0.329991221427917, 0.022141225636005, 0.042241472750902, 0.004315250087529, -0.225691184401512, -0.173346340656281, 0.100450053811073, -0.046607591211796, 0.142796248197556, -0.720054268836975, 0.508610606193542, -0.106918081641197, 0.109498910605907, -0.096147149801254, -0.547581136226654, 0.415589958429337, -0.059047508984804, -0.146918356418610, 0.091409996151924, -0.501834988594055, 0.201486825942993, -0.471681535243988, 0.630217730998993, 0.278150528669357, 0.118039667606354, 0.517908096313477, -0.020215371623635, 0.216550946235657, 0.067614316940308, 0.018658103421330, -0.297303617000580, -0.047753639519215, 0.173143744468689, 0.368918985128403, -0.058389049023390, -0.102094337344170, -0.340529710054398, 0.184082701802254, -0.129352614283562, 0.291637986898422, -0.142396748065948, -0.021698182448745, 0.519279658794403, -0.403388291597366, -0.390405565500259, 0.000866769521963, -0.486930310726166, -0.008575021289289, 0.800428926944733, 0.100829996168613, -0.207785934209824, 1.029937624931335, -0.185272306203842, 0.058328695595264, 0.177107766270638, -0.171065554022789, -0.303515851497650, 0.761421144008636, 0.179210677742958, 0.916410446166992, -0.958913028240204, 0.606897711753845, 0.192900866270065, 0.336879998445511, 0.080861911177635, 0.186861008405685, 0.300920933485031, -0.071704253554344, 0.690429866313934, -0.357128292322159, 0.475202709436417, -0.282667845487595, 0.163080543279648, 0.470637083053589, -0.301237851381302, -0.572217524051666, -0.324924737215042, -0.288962483406067, 0.530586242675781, 0.450947195291519, 0.083027303218842, -0.523073911666870, -0.163950070738792, -0.466554492712021, 0.412525832653046, -0.035497561097145, 0.463336259126663, 0.543564975261688, 0.036305893212557, 0.034665904939175, -0.353206962347031, 0.323169231414795, 0.369396269321442, -0.035381965339184, -0.509584605693817, -0.108713217079639, 0.417444318532944, -0.208195805549622, -0.035107545554638, -0.782874524593353, -0.595159590244293, -0.345487564802170, -0.630753219127655, -0.402363866567612, 0.243246003985405, 1.086670398712158, -0.740854740142822, 0.656275689601898, 0.091722600162029, -0.389527231454849, 0.204237729310989, 0.314393699169159, -0.237047970294952, 0.043893411755562, 0.546279430389404, 0.102725818753242, -0.055524144321680, 0.736864387989044, 0.278043180704117, -0.563675045967102, 0.059708587825298, 0.379242241382599, -0.097753897309303, -0.719758152961731, -0.097120806574821, 0.042100884020329, 0.109156966209412, 0.036911629140377, 0.397547692060471, -0.196495160460472, -0.000456653855508, -0.031466696411371, 0.151978716254234, 0.227625548839569, -0.754709899425507, -0.896730840206146, 0.205171033740044, -0.463468074798584, -0.080798231065273, -0.505724847316742, 0.470724195241928, 0.148210212588310, -0.192519217729568, -0.258056253194809, -0.460829824209213, 0.284234136343002, 0.261220067739487, 0.254857689142227, -0.093166328966618, -0.233334407210350, 0.102457150816917, 0.243255496025085, 0.272370725870132, -0.296020209789276, -0.151126161217690, 0.421915560960770, -0.200958535075188, -0.198775961995125, 0.257443726062775, 0.672474086284637, 0.344381600618362, -0.108907669782639, -0.242779344320297, 0.293694496154785, 0.029817232862115, 0.307995736598969, 0.169468536973000, 0.398541748523712, -0.241907417774200, 0.269688934087753, -0.829420328140259, 0.761861324310303, 0.005370613653213, -0.298621088266373, 0.217161506414413, 0.141430452466011, -0.004844290670007, -0.092906817793846, -0.123899966478348, -0.042572643607855, 0.756749868392944, 0.393953382968903, -0.450437098741531, -0.027234110981226, 0.088397197425365, -0.138996168971062, 0.117827102541924, -0.897665858268738, 0.934622824192047, -0.004334505181760, -0.165502727031708, -0.057693269103765, 0.182391926646233, -0.303583174943924, 0.065296784043312, 0.175209015607834, 0.225644662976265, 0.190943658351898, 0.274064868688583, -0.461737722158432, 0.257014185190201, -0.345714807510376, 0.045583728700876, 0.782069087028503, -0.024512032046914, -0.092722035944462, 0.138668671250343, 0.633201062679291, -0.169509187340736, -0.170732736587524, -0.236578524112701, -0.095576822757721, -0.162360757589340, 0.023183273151517, 0.520031988620758, -0.213990896940231, -0.134960249066353, 0.107691943645477, 0.015357209369540, -0.135860204696655, 0.250093609094620, 0.038760822266340, -0.122009508311749, 0.066470369696617, -0.239136010408401, 0.153478577733040, 0.231827884912491, -0.483072817325592, -0.544368863105774, 0.344117909669876, 0.029160149395466, 0.043392423540354, -0.007192162331194, -0.143844977021217, 0.251198798418045, 0.041128952056170, 0.359021067619324, 0.077625744044781, -0.097559444606304, -0.351970613002777, 0.075412191450596, 0.352288067340851, 0.363965660333633, 0.156466215848923, 0.670944392681122, 0.626918494701385, 0.121624357998371, -0.098638266324997, 0.387103646993637, 0.345166534185410, -0.039933953434229, 0.800493836402893, 0.146684363484383, 0.184990987181664, 0.748130381107330, -0.899633228778839, 0.379762262105942, 0.292364358901978, -0.084908492863178, 0.193519279360771, 0.415662318468094, 0.113945826888084, -0.354507684707642, -0.421423316001892, -0.313384175300598, 0.031551703810692, -0.079863332211971, -0.747824907302856, 0.547737419605255, -0.765915155410767, -0.162374183535576, -0.436300277709961, -0.315866261720657, -0.436956524848938, -0.338962912559509, -0.507712066173553, 0.508100271224976, 0.199943542480469, 0.208710402250290, -0.394507735967636, 0.328143000602722, -0.445841223001480, 0.018559237942100, 0.008396092802286, -0.145272865891457, -0.583866536617279, 0.701757431030273, -0.348097413778305, 0.010020901449025, -0.568944752216339, -0.106492795050144, 1.069610238075256, -0.521320641040802, 0.119634971022606, -0.012745317071676, 0.239155441522598, 0.688146114349365, 0.175679668784142, -0.946796596050262, 0.085871532559395, 0.087124928832054, -0.660622417926788, 0.135952845215797, -0.458526700735092, -0.029662858694792, 0.409124642610550, -0.024671358987689, -0.158814057707787, 0.876525282859802, -0.418504953384399, -0.101244822144508, 0.710928678512573, 0.195734083652496, 0.159344419836998, -0.365582376718521, -0.076038062572479, -0.404845267534256, 0.110697492957115, 0.166109576821327, -0.074290663003922, -0.178612172603607, 0.032207153737545, -1.030786991119385, 0.036185745149851, -0.399437546730042, 0.303479075431824, -0.009818581864238, -0.642226874828339, -0.467155098915100, -0.360078006982803, -0.261720746755600, 0.039897676557302, -0.466165393590927, -0.111770696938038, -0.234098359942436, -0.113917529582977, 0.305086344480515, -0.801419079303741, 0.772439777851105, -0.058279033750296, 0.122635528445244, 0.454675495624542, -0.148617133498192, -0.357445359230042, -0.139709815382957, -1.051722288131714, -1.246814250946045, 0.169747382402420, -0.117201641201973, 0.350828766822815, 0.207815632224083, 0.469986617565155, -0.010812555439770, -0.329362690448761, -0.105291269719601, 0.618027865886688, 0.486792951822281, -0.196160510182381, 0.096720509231091, 0.447973698377609, 0.595825016498566, 0.561137616634369, 0.301529407501221, 0.601940691471100, -0.433021754026413, -0.511804878711700, -0.054545450955629, 0.078209027647972, -0.109584532678127, 0.439514487981796, -0.063653655350208, -0.019331019371748, -0.901693761348724, 0.273631066083908, 0.119317851960659, 0.365692019462585, -0.111539468169212, 0.175283715128899, -0.156285226345062, 0.204391047358513, -0.268449604511261, 0.097928866744041, -0.122551478445530, 0.073407746851444, 0.290320754051208, 0.005360906012356, 0.564268290996552, 0.201390817761421, 0.126638725399971, -0.133607745170593, -0.669496834278107, -0.290419310331345, -0.668123722076416, -0.366179019212723, -0.790510296821594, -0.018503542989492, 0.471512109041214, 0.098324440419674, 0.394038170576096, -0.083474986255169, -0.027965288609266, 0.081014186143875, 0.231999412178993, 0.398851096630096, 0.233282849192619, -0.760518372058868, -0.277083128690720, -0.565877139568329, -0.040928918868303, -0.533111035823822, 0.292412102222443, -0.068117789924145, -0.118920601904392, -0.355008482933044, -0.118872582912445, 0.009373587556183, -0.047518622130156, 0.343673050403595, -0.360607296228409, 0.097186945378780, 0.087289288640022, -0.614895820617676, -0.213890612125397, 0.036684561520815, 0.716852486133575, 0.312223762273788, 0.226431071758270, -0.021486788988113, 0.181129246950150, -0.280087381601334, 0.285766333341599, 0.079735763370991, -0.585138976573944, 0.027353083714843, -0.092279650270939, -0.051511324942112, -0.155356615781784, -0.237174659967422, -0.599464654922485, 0.309832990169525, 0.128509655594826, 0.271847099065781, -0.244677618145943, -0.212215870618820, 0.087783597409725, -0.013842688873410, 0.528589308261871, -0.282488942146301, -0.425884962081909, -0.195425033569336, -0.188577458262444, -0.183882161974907, -0.922319293022156, -0.176476076245308, -0.354174762964249, 0.070611216127872, -0.610914170742035, 0.105357907712460, 0.312178730964661, -0.845913290977478, -0.021039735525846, 0.224201679229736, -0.356350988149643, -0.529603302478790, -0.600184857845306, 0.069022908806801, 0.088717371225357, -0.116923280060291, 0.265088230371475, 0.024783685803413, 0.171772360801697, -0.269524991512299, 0.132937178015709, 0.057351946830750, 0.015453044325113, -0.174252167344093, -0.108132369816303, -0.024012126028538, 0.768366694450378, 0.691722512245178, -0.236953184008598, -0.796823978424072, -0.541804790496826, 0.246266350150108, -0.217137336730957, -0.589950501918793, 0.474850833415985, -0.563052535057068, 0.041927136480808, 0.631538093090057, -0.129548385739326, -0.168537944555283, 0.268351435661316, 0.711332499980927, 0.298437297344208, -0.366429746150970, -0.713455855846405, -0.126396760344505, -0.144168362021446, 0.237710654735565, 0.115956321358681, -0.990482926368713, 0.261929422616959, -0.212299719452858, -0.229652270674706, -0.678322494029999, 0.127997800707817, 0.283254057168961, -0.382314354181290, -0.555477619171143, 0.144372433423996, 0.858965456485748, 0.606172382831573, 0.078962773084641, 0.229682326316833, 0.204134091734886, 0.060114115476608, -0.292191684246063, 0.457700788974762, -0.279178291559219, 0.176891133189201, -0.080272153019905, 0.030700620263815, -0.337686181068420, -0.263042867183685, 0.044172756373882, 0.156612098217010, -0.301980853080750, -0.023578269407153, 0.537185430526733, 0.224003344774246, -0.416332960128784, 0.255379855632782, -0.183097660541534, 0.091465219855309, 0.717210531234741, -0.325768917798996, 0.347517251968384, -0.211200132966042, -0.258707344532013, 0.200671076774597, -0.414401471614838, -0.538208186626434, -0.384828686714172, -0.111278317868710, -0.324475228786469, 0.305613607168198, -0.020388308912516, 0.915739953517914, -0.498781174421310, -0.217461824417114, 0.083495192229748, -0.023592244833708, -0.097937464714050, 0.249581694602966, -0.184749424457550, 0.185788184404373, 0.258166611194611, 0.032630886882544, -0.286312848329544, -0.346777796745300, -0.166407361626625, 0.030599586665630, -0.685979843139648, -0.250467777252197, -1.110100388526917, -0.162092551589012, 0.094577454030514, -0.172062456607819, 0.074178524315357, -0.201243042945862, -0.002283702138811, -0.338082998991013, -0.581541061401367, 0.328417479991913, 0.884054183959961, -0.370699167251587, 0.061103962361813, -0.323962330818176, -0.132556617259979, -0.095542654395103, 0.004425907973200, -0.301064401865005, -0.103065684437752, 0.021321514621377, -0.175136953592300, -0.521035909652710, 0.060464270412922, 0.335830479860306, 0.125495433807373, 0.066124983131886, -0.179666161537170, 0.023969009518623, -0.497691035270691, -0.170780524611473, 0.427866399288177, -0.019881237298250, 0.573766052722931, -0.241051301360130, 0.241178140044212, -0.073548488318920, 0.238367512822151, 0.031856976449490, 0.162880703806877, 0.091969259083271, -0.073824495077133, 0.262086868286133, -0.035466555505991, 0.363926559686661, 0.062050092965364, 0.044085450470448, -0.318320304155350, -0.156006395816803, -0.094217315316200, -0.060623753815889, -0.000297817954561, -0.430297374725342, -0.107426993548870, 0.523517191410065, 0.197127044200897, 0.358227372169495, -0.064962856471539, 0.103593088686466, 0.448334634304047, -0.129048317670822, 0.371893882751465, -0.328281342983246, 0.557985186576843, -0.146702691912651, 0.463220626115799, -0.222089767456055, -0.023328918963671, -0.195929259061813, 0.124883495271206, 0.151452809572220, 0.820249497890472, -0.374994337558746, 0.122850500047207, 0.432008177042007, -0.542573928833008, 0.482580065727234, -0.091092154383659, 0.035285878926516, 0.070886015892029, -0.376440942287445, -0.119178883731365, -0.039250664412975, 0.329271972179413, 0.034489687532187, 0.546032071113586, 0.165076643228531, 0.028373377397656, -0.300615847110748, 0.311083346605301, -0.023060334846377, -0.095630526542664, -0.168980836868286, 0.588760018348694, -0.721220314502716, 0.188711866736412, 0.515248417854309, 0.204370379447937, -0.076784148812294, -0.016667619347572, -0.342904716730118, 0.440402656793594, 0.075014986097813, 0.125248298048973, -0.096013791859150, 0.013209021650255, 0.317040860652924, -0.270245671272278, 0.417740106582642, -0.047955870628357, 0.189192488789558, -0.023523872718215, -0.559228122234344, -0.039129476994276, 0.591671526432037, -0.677347958087921, 0.721726715564728, 0.086626827716827, 0.401508867740631, 0.323741734027863, -0.408485293388367, -0.228442162275314, -0.234068036079407, 0.216787517070770, 0.349415689706802, -0.297890752553940, 0.161302924156189, -0.110457867383957, -0.818388819694519, -0.033406000584364, -0.585642099380493, 0.544474840164185, -0.493728518486023, 0.262920886278152, -0.419386059045792, -0.125299125909805, 0.264838635921478, 0.438027709722519, 0.232935190200806, -0.294727742671967, -0.917742311954498, 0.216588497161865, 0.033370599150658, -0.152680262923241, 0.185785248875618, -0.089468382298946, 0.239574834704399, -0.447553008794785, -0.354169845581055, -0.861127972602844, -0.039643853902817, -0.052153971046209, 0.037167385220528, -0.029278358444571, -0.505954146385193, 0.422327458858490, 0.155169516801834, 0.166305631399155, -0.192124143242836, 0.317599356174469, -0.568414270877838, 0.045489430427551, -0.338077902793884, -0.446519523859024, 0.045041203498840, -0.587860465049744, -0.421872437000275, -0.337306350469589, 0.174683257937431, -0.026690797880292, 0.325298637151718, -0.911777138710022, -0.318441689014435, -0.308694958686829, 0.314858317375183, 0.036383837461472, -0.144959449768066, -0.674679219722748, 0.016962500289083, 0.030017491430044, -0.247136667370796, 0.396513164043427, 0.391048669815063, 0.161840707063675, -0.058400101959705, -0.060187086462975, -0.525235593318939, -0.396743446588516, 0.446811527013779, 0.155787318944931, 0.148370921611786, -0.076012432575226, 0.005777999758720, -0.538860380649567, -0.083111487329006, 0.216864630579948, -0.577072083950043, -0.396045982837677, -0.116744324564934, 0.028842519968748, -0.332602411508560, 0.008195741102099, -0.156687974929810, -0.245360523462296, 0.402212053537369, 0.047560293227434, -0.102603681385517, -0.350595593452454, 0.132610559463501, 0.013146989047527, -0.142629489302635, -0.279024064540863, -0.193968236446381, 0.045040443539619, -0.514155983924866, -0.192277386784554, 0.318757951259613, 0.141778424382210, 0.270007431507111, 0.069701164960861, -0.269372493028641, -0.079635322093964, -0.182047352194786, 0.574360489845276, -0.189206004142761, 0.078856818377972, -0.356261312961578, 0.112823642790318, -0.265444636344910, -0.256687968969345, 0.164697378873825, -0.168908759951591, -0.511878848075867, 0.186753422021866, 0.740618884563446, -0.162674620747566, -0.064778417348862, 0.205062106251717, 0.034489538520575, -0.058439474552870, -0.263359069824219, -0.286681652069092, -0.272704601287842, 0.154439106583595, -0.232342615723610, 0.195926994085312, -0.094254605472088, 0.899264276027679, -0.361324191093445, -0.267755180597305, 0.010298063047230, 0.390464723110199, 0.606089890003204, 0.610576152801514, -0.528575718402863, 0.238865822553635, -0.084007360041142, -0.269129961729050, 0.244331330060959, 0.486831754446030, 0.045438800007105, 0.169464737176895, -0.556355178356171, 0.693616986274719, 0.038674321025610, 0.384074002504349, -0.197307080030441, -0.250616669654846, -0.026360001415014, -0.108158051967621, 0.274478048086166, 0.044392563402653, 0.791707396507263, 0.390364080667496, -0.726387739181519, 0.218583717942238, -0.096456304192543, -0.226166218519211, 0.019096048548818, -0.302071571350098, -0.307734519243240, -0.024592757225037, -0.059088088572025, 0.204378023743629, 0.058061391115189, 0.132990255951881, 0.699395537376404, -0.342242300510406, -0.042046546936035, -0.145745649933815, 0.592513680458069, -0.358195692300797, 0.090872325003147, -0.224131062626839, -0.223325893282890, 1.204886078834534, 0.330138832330704, 0.791158318519592, 0.165694817900658, -0.279936820268631, 0.137061849236488, -1.163009643554688, 0.117499627172947, 0.104442872107029, 0.660321414470673, -0.329428493976593, -0.646302521228790, 0.247794970870018, 0.379345655441284, 0.349168866872787, -1.231826663017273, 0.036442372947931, -0.179163128137589, -0.322638541460037, -0.041400212794542, 0.337453305721283, 0.055765558034182, 0.194864705204964, -0.283107131719589, -0.225794389843941, -0.233520925045013, 0.450455904006958, 0.193956181406975, 0.099114537239075, 0.267553836107254, 0.620604693889618, -0.381399601697922, 0.213301599025726, 0.097048379480839, 0.624778687953949, 0.299185931682587, 0.216304600238800, 0.447868674993515, -0.302415221929550, 0.050450112670660, -0.761995673179626, -0.278160750865936, 0.192764103412628, 0.322064429521561, -0.304786682128906, -0.230213999748230, -0.231915935873985, -0.127497553825378, 0.090433724224567, -0.040483955293894, 0.453463554382324, 0.026361588388681, -0.134563028812408, -0.053260732442141, 0.409150600433350, 0.417050123214722, 0.151688799262047, 0.206264123320580, -0.522920906543732, 0.021824745461345, -0.227438896894455, 0.064672045409679, -0.165829032659531, -0.311963081359863, -0.073135867714882, 0.293581068515778, 0.117827497422695, 0.388992935419083, 0.054788444191217, -0.187330663204193, -0.152755975723267, -0.615817427635193, -0.434042304754257, -0.306892573833466, 0.027625249698758, -0.672923564910889, -0.360228568315506, 0.383069097995758, 0.339906126260757, -0.093325473368168, 0.016073873266578, -0.054318018257618, -0.178647279739380, -0.424325495958328, -0.315867483615875, -0.255468875169754, -0.055463615804911, -0.330165237188339, 0.451294422149658, 0.470396637916565, 0.139582142233849, 0.009463655762374, -0.480728358030319, 0.424139916896820, 0.082288004457951, -0.383219331502914, -0.137189313769341, -0.398618400096893, -0.041120938956738, -0.240810185670853, 0.326613575220108, 0.204891294240952, -0.672937035560608, 0.120290786027908, 0.156175911426544, 0.067819647490978, 0.085868373513222, 0.330498784780502, -0.410308450460434, -0.132532015442848, 0.002923146355897, -0.200829446315765, -0.072983585298061, 0.301435172557831, -0.091029427945614, -0.013262089341879, 0.340298920869827, 0.057992674410343, -0.141564548015594, 0.152145355939865, 0.354244709014893, -0.221505820751190, 0.633047997951508, 0.186730578541756, 0.122973263263702, -0.218531101942062, -0.005911751184613, 0.375050038099289, -0.203130289912224, 0.049378309398890, -0.011312733404338, -0.132313758134842, -0.510616302490234, -0.202865928411484, 0.435866713523865, 0.015596173703671, -0.078671231865883, -0.048606026917696, 0.033999424427748, -0.076142378151417, 0.337764829397202, 0.273046135902405, 0.164294585585594, 0.638355612754822, 0.305349171161652, 0.539564430713654, -0.670124590396881, 0.324602097272873, 0.304670214653015, -0.274917513132095, 0.268245607614517, 0.196729108691216, 0.273390799760818, 0.200087502598763, -0.027039952576160, -0.014562674798071, -0.051123175770044, 0.797774970531464, 0.344741493463516, 0.417959958314896, 0.309156298637390, -0.215523153543472, -0.014614722691476, 0.498464137315750, 0.016325263306499, 0.286074191331863, 0.253816783428192, -0.142324268817902, 0.088799737393856, 0.130807921290398, 0.036956850439310, 0.749439477920532, 0.360967516899109, 0.474086523056030, -0.103156760334969, 0.296357512474060, 0.225595951080322, 0.193859398365021, 0.307612538337708, 0.114141695201397, 0.182071775197983, 0.713278889656067, -0.193394839763641, -0.255928337574005, 0.915773630142212, 0.395546913146973, 0.456837207078934, 0.562371909618378, 0.299515426158905, 0.459884256124496, 0.311182260513306, 0.523354589939117, -0.292987644672394, 0.292411893606186, 0.197139650583267, 0.339013040065765, 0.461673527956009, 0.085291281342506, 0.877053856849670, 0.103105902671814, -0.546583414077759, 0.159328863024712, 0.456007152795792, 0.341057837009430, -0.113263078033924, 0.649360299110413, -0.084017679095268, 1.123799443244934, -0.086516775190830, -0.506576299667358, 0.457985013723373, 0.079540647566319, -0.355857193470001, -0.067990697920322, -0.308028995990753, -0.335414439439774, -0.402158349752426, -0.457600712776184, -0.598096072673798, -0.574604153633118, -0.079377047717571, -0.851148843765259, -0.580347537994385, 0.036058604717255, -0.117319114506245, 0.252901375293732, -0.013663771562278, -0.909399509429932, -0.225430548191071, -0.154070764780045, -0.176379203796387, -0.399802148342133, 0.006706496700644, -0.125328943133354, -0.372553855180740, 0.114873819053173, 0.198854401707649, -0.132962360978127, 0.364243865013123, 0.315145373344421, -0.529672026634216, -0.372468680143356, -0.095062188804150, -0.167424157261848, 0.045824613422155, -0.096959576010704, -0.382827460765839, -0.341749697923660, -0.181182920932770, -0.358051270246506, 0.327470958232880, -0.417350441217422, -0.065973117947578, -0.576803028583527, 0.081173725426197, -0.394166976213455, -0.081542380154133, -0.409839063882828, -0.268403500318527, -0.800211250782013, -0.710355043411255, 0.034248411655426, -0.144915252923965, -0.075678430497646, -0.043670438230038, -0.780802011489868, -0.294882744550705, -0.494017213582993, 0.127945169806480, -0.625240087509155, 0.196469366550446, 0.210133388638496, -0.074696794152260, -0.236122205853462, 0.423539966344833, -0.064662054181099, -0.057682033628225, 0.538660347461700, -0.310890257358551, 0.141633287072182, -0.202704429626465, -0.378543972969055, -0.439225345849991, -0.102958023548126, -0.133073121309280, -0.868134796619415, -0.244532629847527, -0.039408843964338, 0.267264783382416, -0.070889391005039, -0.118932843208313, -0.298582702875137, 0.069343417882919, -0.017563359811902, 0.091539435088634, 0.343583852052689, -0.221226289868355, -0.430793613195419, -0.109425954520702, 0.135816410183907, 0.103582009673119, 0.193185284733772, 0.264435201883316, -0.041882056742907, 0.467954516410828, 0.214390203356743, -0.332220196723938, 0.002678825752810, -0.270289093255997, -0.376628935337067, 0.015483619645238, 0.404261320829391, 0.206040412187576, -0.063260138034821, -0.043582487851381, -0.436939686536789, 0.020262109115720, -0.045688603073359, 0.059184249490499, 0.040923781692982, 0.354367613792419, -0.313734143972397, 0.183136761188507, 0.302492439746857, -0.234939634799957, 0.259581953287125, -0.051759086549282, 0.125350058078766, -0.336703568696976, 0.147692516446114, 0.155185088515282, -0.031921878457069, -0.199118882417679, -0.345364987850189, 0.502796411514282, -0.331335544586182, 0.054761167615652, 0.957890093326569, 0.424911707639694, -0.169250831007957, 0.334942758083344, 0.136977523565292, 0.322357535362244, 0.281208872795105, 0.853814363479614, 0.676175296306610, -0.339722543954849, 0.402174532413483, 0.463420927524567, 0.357264667749405, 0.732516765594482, 0.066586382687092, 0.439397960901260, 0.509881675243378, 0.080880381166935, 0.406361758708954, -0.083384491503239, 0.629004597663879, 0.336185425519943, -0.109834991395473, 0.421908199787140, -0.221672907471657, 0.164017558097839, 0.452357202768326, 0.525264501571655, 0.597467005252838, 0.944906353950500, 0.225074037909508, 0.054532665759325, 0.470879226922989, 0.475344061851501, 0.424173057079315, 0.683315694332123, 0.576422095298767, 0.416147559881210, -0.068386860191822, 0.355018436908722, 0.694098353385925, 0.323357790708542, 1.082492232322693, 0.199308529496193, 0.539398670196533, 0.548549056053162, 0.171762421727180, 0.471941560506821, 0.032921493053436, 0.410677433013916, 0.552396416664124, 0.249052092432976, 0.288148581981659, 0.840901315212250, 0.215906798839569, 0.198969155550003, 0.070904262363911, 0.086362123489380, 0.025421336293221, -0.070150852203369, -0.068594753742218, 0.563244283199310, 0.913868546485901, 0.757435917854309, -0.536622524261475, -0.119629681110382, 0.045696835964918, -0.175365328788757, 0.111805148422718, -0.684578120708466, 0.174768745899200, -0.338097840547562, -0.007245402317494, -0.034371607005596, -0.483944535255432, -0.365698933601379, -0.639500617980957, 0.090740814805031, -0.269453525543213, -0.513004004955292, -0.166205152869225, -0.603599965572357, -0.959897279739380, -0.319844424724579, -0.749927759170532, -0.312173068523407, 0.138837307691574, -0.241703897714615, 0.216642886400223, -0.280413538217545, 0.240218520164490, -0.483295530080795, 0.171998918056488, -0.756402552127838, -0.558628141880035, -0.882284402847290, 0.281681120395660, -0.639949560165405, -0.790858507156372, -0.574447572231293, -0.110391929745674, -0.111056216061115, -0.231324672698975, 0.407831877470016, 0.198309838771820, 0.319921314716339, -0.438841283321381, -0.040901653468609, -0.348258197307587, -0.009188245050609, -0.351238429546356, -0.077991217374802, -0.073034994304180, -0.035928465425968, -0.538459002971649, 0.257959783077240, -0.380495756864548, -0.373989224433899, -0.269210517406464, -0.120427846908569, 0.078126087784767, 0.066636800765991, -0.142297491431236, 0.232367351651192, -0.633713483810425, 0.249531030654907, 0.442709058523178, -0.206303194165230, -0.022895975038409, 0.056560419499874, 0.386345386505127, -0.234454587101936, 0.500418901443481, -0.188072830438614, 0.337916940450668, 0.332927495241165, -0.512929320335388, 0.199682831764221, -0.125404551625252, -0.107014618813992, -0.324432343244553, -0.704573810100555, 0.014076798222959, 0.117416962981224, 0.452254354953766, -0.210181489586830, -0.311285644769669, -0.037104595452547, 0.086245954036713, -0.026798939332366, -0.076955802738667, 0.087865710258484, -0.147906452417374, -0.057961504906416, 0.045763656497002, -0.092503756284714, 0.264487415552139, -0.429735958576202, -0.049533247947693, 0.453736066818237, 0.330158084630966, 0.078337088227272, 0.181812360882759, 0.083709977567196, -0.478260338306427, -0.246240422129631, 0.565238416194916, -0.076186388731003, 0.005726162809879, -0.282824099063873, -0.200573742389679, 0.270473808050156, -0.074124954640865, 0.134455576539040, -0.146160811185837, -0.392432630062103, -0.292566418647766, 0.253818601369858, 0.099876627326012, 0.203232750296593, -0.028363078832626, -0.104876607656479, 0.190108314156532, -0.236218795180321, -0.090654246509075, 0.005019271746278, -0.102206572890282, 0.214614123106003, -0.123597644269466, 0.573037266731262, -0.577605545520782, 0.622903466224670, -0.687368690967560, 0.096777737140656, 0.499104857444763, -0.097425229847431, 0.156686678528786, 0.024288449436426, -0.503881514072418, 0.021892290562391, -0.137003600597382, -0.203941494226456, -0.061446130275726, 0.204041704535484, 0.211215138435364, -0.065482482314110, -0.879075050354004, 0.298760503530502, 0.297930389642715, -0.232793837785721, 0.228785514831543, 1.058657288551331, -0.429076462984085, -0.084369473159313, 0.101617574691772, 0.340898841619492, 0.348320245742798, 0.276777863502502, 0.120912209153175, 0.177784129977226, -0.216662064194679, -0.172268748283386, -0.499147146940231, -0.007674340624362, -0.074427351355553, 0.395463079214096, -1.017767906188965, -0.536304235458374, -0.342819035053253, -0.052375193685293, 0.617555618286133, -0.153847321867943, -0.783247649669647, 0.108745448291302, 0.047871991991997, -0.287514895200729, 0.305801421403885, -0.763646245002747, -0.393757998943329, 0.401192784309387, -0.028982173651457, 0.156477227807045, -0.139561057090759, 0.343666166067123, 0.165774330496788, 0.181155070662498, -0.050210028886795, -0.085570134222507, -0.058619700372219, -0.132735073566437, -0.180180042982101, -0.000520874222275, 0.248532146215439, -0.603688418865204, 0.408347189426422, -0.402541548013687, -0.400503367185593, -0.115924805402756, -0.617763519287109, -0.257098317146301, -0.029454737901688, 0.309196472167969, -0.493591219186783, 0.034132305532694, 0.133609935641289, -0.264362603425980, 0.009900583885610, -0.167365759611130, 0.260223835706711, -0.086430311203003, -0.055164441466331, 0.084568522870541, -0.323669403791428, -0.023044371977448, 0.596730709075928, 0.000420081691118, 0.494153439998627, -0.268285751342773, 0.021508118137717, -0.373230069875717, 0.163021206855774, -0.140171840786934, -0.144628569483757, -0.260095149278641, -0.246715426445007, 0.190620005130768, 0.189542889595032, 0.333086162805557, -0.039945609867573, -0.000331762712449, 0.921186149120331, -0.117641158401966, -0.105437189340591, 0.075952693820000, 0.522341907024384, 0.362774372100830, -0.027365170419216, -0.150568678975105, -0.124067366123199, -0.067260660231113, -0.333793967962265, 0.596055924892426, -0.490728586912155, 0.021431619301438, 0.118090309202671, -0.006724046077579, -0.430242687463760, 0.156090915203094, 0.309155464172363, 0.231513306498528, 0.380575597286224, 0.100686207413673, 0.104332871735096, 0.279460132122040, 0.005235843826085, -0.256231874227524, 0.299598395824432, -0.189879730343819, -0.252808541059494, 0.093180663883686, 0.227926880121231, -0.019217794761062, 0.130965992808342, 0.524483442306519, -0.418664842844009, -0.033003255724907, -0.495205610990524, -0.124566823244095, 0.321609437465668, 0.142366781830788, 0.011968540027738, 0.160697743296623, 0.335103839635849, 0.208969503641129, -0.118353120982647, -0.162104398012161, -0.417401939630508, 0.107041038572788, 0.564217925071716, -0.046881750226021, -0.114235572516918, -0.189027234911919, 0.375450551509857, 0.394390910863876, 0.074080958962440, -0.117756582796574, 0.063231624662876, -0.113130889832973, -0.051356300711632, 0.263926297426224, 0.555367767810822, -0.117841280996799, -0.369542181491852, -0.032117225229740, -0.427359580993652, -0.485933750867844, 0.376627564430237, -0.178941637277603, -0.061579130589962, -0.607208251953125, -0.011290819384158, -0.205379441380501, 0.273130834102631, -0.231685817241669, 0.500208675861359, 0.249844968318939, 0.460724890232086, 0.092835217714310, 0.191690057516098, 0.109001539647579, -0.545158147811890, 0.296223014593124, 0.039638455957174, 0.098863378167152, 0.396859705448151, 0.206056550145149, 0.088058426976204, 0.068234384059906, 0.192878469824791, 0.058179102838039, 0.039384268224239, -0.190487623214722, -0.173768922686577, -0.193667888641357, 0.118632070720196, 0.396730035543442, 0.108999297022820, -0.255201578140259, 0.443507522344589, 0.110674321651459, -0.183134749531746, -0.347179830074310, -0.408833831548691, 0.142590329051018, -0.118709556758404, -0.176115572452545, 0.244887232780457, -0.564412474632263, -0.232543110847473, -1.047272324562073, 0.174455761909485, -0.221286982297897, 0.482337951660156, 0.395778268575668, 0.149632021784782, -0.098924279212952, 0.070321597158909, -0.353603214025497, 0.123327977955341, 0.291467726230621, -0.163791477680206, -0.275487720966339, -0.143858492374420, 0.371497929096222, 0.328114598989487, 0.712535560131073, 0.267476081848145, 0.147309780120850, 0.089291431009769, 0.295699566602707, 0.059444379061460, 0.092570982873440, 0.147253468632698, 0.410750389099121, -0.022048467770219, 0.080355025827885, 0.479307681322098, 0.389403194189072, -0.067431956529617, 0.616299152374268, 0.088547617197037, 0.075554214417934, 0.148624688386917, 0.506772339344025, -0.233360067009926, 0.290089726448059, -0.059158768504858, 0.321382671594620, -0.028521295636892, 0.239713996648788, 0.577480435371399, -0.254866629838943, -0.906072258949280, 0.067720502614975, 0.347895056009293, 0.389700412750244, 0.518924713134766, -0.292672127485275, 0.101213201880455, 0.502544999122620, 0.519766032695770, 0.136283546686172, 0.099700294435024, 0.012835966423154, 0.222507834434509, 0.045211587101221, -0.049585089087486, 0.845423281192780, -0.069375790655613, 0.114515997469425, 0.089598670601845, 0.221297040581703, -0.000307527749101, -0.058878663927317, 0.293816298246384, 0.480132967233658, 0.290623068809509, -0.405586808919907, 0.298285096883774, -0.324814528226852, -0.153441429138184, -0.120940200984478, 0.160570487380028, -0.257370650768280, -0.041760791093111, 0.396190166473389, 0.323068439960480, 0.276919573545456, 1.210101008415222, -0.180987730622292, -0.265085756778717, -0.030532594770193, -0.432935386896133, -0.158352613449097, -0.625983297824860, 0.592624664306641, -0.051111593842506, -0.449194729328156, -0.192765459418297, -0.131149187684059, 0.206300958991051, 0.258810788393021, 0.072067491710186, -0.159585788846016, 0.193683281540871, 0.111163631081581, -0.044204503297806, -0.475540190935135, 0.001972535857931, 0.284179031848907, -0.045281268656254, -0.008016893640161, -0.042751446366310, -0.676415860652924, 0.167735189199448, 0.354407399892807, 0.826006412506104, 0.203630194067955, -0.064705617725849, -0.215029850602150, 0.079963624477386, 0.331012815237045, -0.159028992056847, 0.148122012615204, 0.002969115041196, 0.073119506239891, -0.137294933199883, -0.214821934700012, -0.116248331964016, -0.043632078915834, 0.060094483196735, 0.534456610679626, -0.249338269233704, -0.569105029106140, -0.313734292984009, 0.086432747542858, -0.074897229671478, -0.365608364343643, 0.097434088587761, -0.255047202110291, -0.131680205464363, 0.185116708278656, -0.292437881231308, -0.269281893968582, 0.266818165779114, -0.250198513269424, -0.286779433488846, 0.049652628600597, 0.045957833528519, 0.459862679243088, 0.112004980444908, -0.116121418774128, 0.227137222886086, 0.640281677246094, -0.162422508001328, 0.189021646976471, -0.121893472969532, 0.079491771757603, -0.398733258247375, 0.014347312040627, -0.240575656294823, 0.277208685874939, 0.099925808608532, 0.157604038715363, 0.112014912068844, 0.187418550252914, 0.026293762028217, -0.136887878179550, -0.124312505125999, -0.145204782485962, 0.167836979031563, 0.268652141094208, -0.005629042629153, 0.108051232993603, 0.014925491996109, 0.033548828214407, 0.025371260941029, -0.032782450318336, -0.333349674940109, 0.406939387321472, 0.634909749031067, -0.474099963903427, 0.342527955770493, 0.197251200675964, -0.012502505443990, -0.236707791686058, 0.710752487182617, -0.153269723057747, 0.558204770088196, -0.491713911294937, -0.182125270366669, 0.270851522684097, 0.054477531462908, 0.634893000125885, -0.138972491025925, -0.283873409032822, -0.144401013851166, -0.545224487781525, -0.008115915581584, 0.308404415845871, 0.640752911567688, -0.231130152940750, -0.166477009654045, -0.266320049762726, 0.361786276102066, 0.198101401329041, -0.269366323947906, -0.076168633997440, -0.047484003007412, -0.065221294760704, 0.146085500717163, -0.411531627178192, -0.182699769735336, -0.241190865635872, -0.263916760683060, -0.192540735006332, 0.161163523793221, -0.698535621166229, 0.153531789779663, -0.647073447704315, -0.208618104457855, -0.062170747667551, 0.002357280347496, 0.064143240451813, -0.679536104202271, 0.267551213502884, -0.262983143329620, 0.179455101490021, 0.179689779877663, -0.112695746123791, -0.308968305587769, 0.268795877695084, -0.266416370868683, -0.159300431609154, 0.423811197280884, -0.712805390357971, -0.216354206204414, -0.407281994819641, -0.289343208074570, -0.099239170551300, -0.031441871076822, 0.029099306091666, -0.169298127293587, -0.149966359138489, -0.178128108382225, -0.611867308616638, -0.154441118240356, 0.360913127660751, 0.380439013242722, -0.353248655796051, 0.264122962951660, -0.046536743640900, -0.399738579988480, -0.190742298960686, 0.733044147491455, 0.165804415941238, 0.114447437226772, -0.223562419414520, -1.116974830627441, 0.333219677209854, -0.051637951284647, 0.848045647144318, -0.796190202236176, 0.326443016529083, 0.056185334920883, -0.357642292976379, -0.309493541717529, -1.216884136199951, 0.957029044628143, -0.397970974445343, 0.047910977154970, -0.261733025312424, 0.773412108421326, -0.170829832553864, -0.168011039495468, 0.757545232772827, -0.243729054927826, 0.520344316959381, -0.327247321605682, 0.231820464134216, -0.146632254123688, -0.407274901866913, 0.310144215822220, -0.288135796785355, 0.029847994446754, 0.310691684484482, 0.168301925063133, 0.898482084274292, 0.059798169881105, 0.545160293579102, 0.191555440425873, 0.982024013996124, -0.292424529790878, 0.071867235004902, 0.258046835660934, 0.136670932173729, -0.274095922708511, -0.435030221939087, -0.542004883289337, -0.694504499435425, -0.496264040470123, 0.665669381618500, 0.779183208942413, -0.083987459540367, -0.919212162494659, 0.419015049934387, 0.091456636786461, 0.689797759056091, -0.323029875755310, 0.179863110184669, 0.569528281688690, 0.845932185649872, -0.233855709433556, -0.104391239583492, -0.050688974559307, -0.070144340395927, -0.809428334236145, 0.340890765190125, 0.685465633869171, 0.207716986536980, -0.011683301068842, -0.178757712244987, 0.949362158775330, 0.062346410006285, 0.141460493206978, 0.446207553148270, 0.018565395846963, -0.149659201502800, -0.088392905890942, -0.229161053895950, -1.304977536201477, -0.321127116680145, 0.122638307511806, -0.541814386844635, 0.530251562595367, -0.195103198289871, -0.039521630853415, 0.232709184288979, 0.087576366961002, -0.027043178677559, -0.426414936780930, 0.021599225699902, -0.400723993778229, 0.504829883575439, 0.434344649314880, 0.563099205493927, 0.260161131620407, -0.293352514505386, 0.468599051237106, 0.100622847676277, 0.009788258932531, -0.410843729972839, 0.218550965189934, -0.610608160495758, 0.212787151336670, -0.820642888545990, 0.123832896351814, -0.023661276325583, 0.474916070699692, -0.089518569409847, 0.499202460050583, 0.156843528151512, -0.007070709485561, -0.157957062125206, 0.099312134087086, -0.356090426445007, -0.482470422983170, 0.307090550661087, -0.112029649317265, -0.320167154073715, 0.362773209810257, -0.078114651143551, 0.021757218986750, 0.377433001995087, -0.179805397987366, 0.834184110164642, -0.002003347733989, 0.325639337301254, 0.819337725639343, 0.196950942277908, 0.374558091163635, -0.063750416040421, -0.673418521881104, 0.262823551893234, -0.028499340638518, -0.184607401490211, -0.158334776759148, 0.175798043608665, -0.391085147857666, -0.321439862251282, 0.230568960309029, 0.047933015972376, 0.412758409976959, -0.537068665027618, -0.162403687834740, -0.483584731817245, 0.531836628913879, 0.353393763303757, 0.344193488359451, 0.054568652063608, 0.147520035505295, -0.154051050543785, -0.142705202102661, -0.307979792356491, 0.252548724412918, 0.247644335031509, 0.560010254383087, -0.006835391279310, 0.656499981880188, 0.199992284178734, -0.064523667097092, 0.476392596960068, 0.375161558389664, 0.030303694307804, 0.564777910709381, 0.214612379670143, -0.157616123557091, -0.138069346547127, 0.179944783449173, 0.425603508949280, 0.309298187494278, 0.346937268972397, 0.098760187625885, 0.421139806509018, 0.222006157040596, -0.424008131027222, 0.117207877337933, 0.026044361293316, 0.621717154979706, -0.152967691421509, 0.073292158544064, 1.014098763465881, 0.445331901311874, -0.076443612575531, 0.484167754650116, 0.395000308752060, 0.105520322918892, 0.157413870096207, 0.183819338679314, 0.597470343112946, 0.234152257442474, -0.425414621829987, -0.207220360636711, 0.253014117479324, -1.113468885421753, 0.107517331838608, 0.556528449058533, -0.051532696932554, 0.129944279789925, 0.095977827906609, 0.358947366476059, -0.099109940230846, -0.132573500275612, 0.385387092828751, 0.486012279987335, -0.235392734408379, 0.179296627640724, -0.705477774143219, 0.007861173711717, -0.003216156503186, -0.092074543237686, -0.304726451635361, -0.642128884792328, -0.379549145698547, -0.384837567806244, -0.300882488489151, 0.679313659667969, 0.102588787674904, 0.075384013354778, 0.278660416603088, 0.229179710149765, 0.266743570566177, -0.092840880155563, -0.471223592758179, -0.244142293930054, 0.003609565319493, -0.708062410354614, -0.328128397464752, 0.701367914676666, -0.522427320480347, -0.643139779567719, 0.086646676063538, 0.074707277119160, 0.577638626098633, -0.314099699258804, -0.510748863220215, 0.271096587181091, -0.829020380973816, 0.320105075836182, -0.013749116100371, -0.382390409708023, -0.056854359805584, -0.012362709268928, 0.335084557533264, 0.029753638431430, 0.239175289869308, -0.147851392626762, -0.000658073695377, -0.191186562180519, 0.345279365777969, 0.278477430343628, -0.695421040058136, -1.085435748100281, -0.386285781860352, 0.157877415418625, -0.137056753039360, -0.228623911738396, 0.462528854608536, 0.258769571781158, -0.086483754217625, 0.593132913112640, 0.486242562532425, 0.179742768406868, -0.250220745801926, -0.482755213975906, -0.274536728858948, -0.265825659036636, -0.210767105221748, -0.286267876625061, 0.068408243358135, 0.246302515268326, -0.007408245000988, 0.381620585918427, -1.804730772972107, -0.110083930194378, -0.361648112535477, 0.075807824730873, -0.153154402971268, -0.385856240987778, -0.022332400083542, -0.582912743091583, 0.018534503877163, 0.052608668804169, -0.158918678760529, 0.371347546577454, 0.196207761764526, -0.059474531561136, 0.446933448314667, -0.429354667663574, -0.045354347676039, 0.203103154897690, 0.260767012834549, -0.920853734016418, 0.514081478118896, -0.318712770938873, -0.478729456663132, 0.116550512611866, -0.599087595939636, -0.327174723148346, -0.287606239318848, 0.111840859055519, -0.233795017004013, -0.069881543517113, -0.084693349897861, -0.090735591948032, 0.112987227737904, 0.203458964824677, 0.041068043559790, -0.248283147811890, -0.050333224236965, -0.297367125749588, -0.040592640638351, 0.161638393998146, -0.071374088525772, 0.272627204656601, -0.079991139471531, -0.273289322853088, -0.358525156974792, -0.203204348683357, 0.397825330495834, 0.477534353733063, 0.158151537179947, -0.560107707977295, 0.022188587114215, -0.316546678543091, -0.118055291473866, -0.596010446548462, 0.038569789379835, 0.045330844819546, -0.234125822782516, -0.197218582034111, -0.378734111785889, 0.154748976230621, 0.378362238407135, -0.449739754199982, 0.228662431240082, -0.060165889561176, 0.178967863321304, 0.444934815168381, -0.124057397246361, -0.060506962239742, -0.162389770150185, 0.266753643751144, 0.108620151877403, 0.432176023721695, 0.138253435492516, -0.240271121263504, 0.120390959084034, -0.289006203413010, 0.636720120906830, -0.211742430925369, 0.130645975470543, 0.249961227178574, 0.400116026401520, 0.333855301141739, -0.241877615451813, 0.277947992086411, 0.205875381827354, -0.384990781545639, 0.231322377920151, 0.303033143281937, -0.093118451535702, -0.474492043256760, 0.026163330301642, -0.520897746086121, -0.180069416761398, -0.132609024643898, 0.206358745694160, 0.625751793384552, 0.558796763420105, 0.221361577510834, 0.083146803081036, 0.124732561409473, -0.236551284790039, -0.328300058841705, -0.072716757655144, 1.034440755844116, 0.387076646089554, 0.052889477461576, -0.112230226397514, 0.281662702560425, 0.583857953548431, -0.020855957642198, 0.295494318008423, 0.196187496185303, 0.450605630874634, -0.356946766376495, -0.117356911301613, 0.215330719947815, -0.005665714852512, -0.368125975131989, 0.180634319782257, -0.733260154724121, 0.446694344282150, -0.342704445123672, 0.484330654144287, 0.615624487400055, -0.572462618350983, 0.129979476332664, 0.139681920409203, 0.182591617107391, 1.156963706016541, -0.319747745990753, 0.362642914056778, 0.443612992763519, 0.311243683099747, 0.157645523548126, -0.055583227425814, -0.848093807697296, 0.018491325899959, 0.455513566732407, -0.410761803388596, -0.754394054412842, 0.072421126067638, -0.232545018196106, -0.033119179308414, -0.014117315411568, 0.424013823270798, 0.327364921569824, 0.872380912303925, 0.285918116569519, 0.057896573096514, 0.732668578624725, 0.101401180028915, -0.653530478477478, -0.026549667119980, 0.562918722629547, 0.307701230049133, -0.180411994457245, 0.255325436592102, -0.343417704105377, -0.292913436889648, -0.472602039575577, 0.776528060436249, -0.159073725342751, 0.089306861162186, 0.231866151094437, -0.035435985773802, 0.374642699956894, 0.863174319267273, 0.307847678661346, 0.354807883501053, 0.172025457024574, 0.118889287114143, -0.691825091838837, 0.325921535491943, -0.433899700641632, 0.658967852592468, 0.137599453330040, 0.351880490779877, -0.207027599215508, 0.175041973590851, 0.309487968683243, 0.176493942737579, -0.189231649041176, 0.044169239699841, -0.184472560882568, 0.647171854972839, 0.464537709951401, -0.029817916452885, 0.121514596045017, -0.188742682337761, -0.457183659076691, -0.015060873702168, -0.537720441818237, -0.115025468170643, -1.108232259750366, 0.138109207153320, -0.018034594133496, -0.142608776688576, -0.653814435005188, -0.203113824129105, 0.487404406070709, -0.082859851419926, -0.196223840117455, -0.345680236816406, -0.239594146609306, 0.189975053071976, -0.100930057466030, -0.090682119131088, 0.662655651569366, -0.273178040981293, -0.176894322037697, 0.000301634194329, 0.407922267913818, -0.077144421637058, -0.207308545708656, -0.000568972376641, -0.458353579044342, 0.151651576161385, -0.124011956155300, 0.109058186411858, -0.048901721835136, 0.272848814725876, 0.228981718420982, 0.210108086466789, -0.085782758891582, -1.028663754463196, 0.110795065760612, -0.851286232471466, -0.357287853956223, -0.080950923264027, -0.117643810808659, -0.587533175945282, -0.240365833044052, 0.170661076903343, -0.243918731808662, -0.031902246177197, -0.375818222761154, 0.164384305477142, 0.302812635898590, 0.761049151420593, -0.080342836678028, -0.752914309501648, -0.011944280937314, 0.021339824423194, 0.543517410755157, -0.170769855380058, -0.382256776094437, 0.140077367424965, 0.191808357834816, 0.042675908654928, 0.228064790368080, 0.122866697609425, 0.128919512033463, -0.075440965592861, -0.037556897848845, -0.160131320357323, -0.206849411129951, 0.051133692264557, 0.519362390041351, 0.590898454189301, -0.044766061007977, -0.255754500627518, 0.069153964519501, 0.288118213415146, 0.030732758343220, -0.239013493061066, 0.002199196955189, 0.131300225853920, 0.063249625265598, -0.173323422670364, -0.250611454248428, 0.172302529215813, 0.334150999784470, -0.059605661779642, -0.321873605251312, -0.049669217318296, 0.040084809064865, -0.251998394727707, -0.351891398429871, 0.084294848144054, -0.478301227092743, -0.180169701576233, -0.104525707662106, -0.210245206952095, -0.114413894712925, -0.086000025272369, 0.268687397241592, 0.000558255764190, 0.423296332359314, -0.297475963830948, -0.279991000890732, -0.009900817647576, -0.080995723605156, 0.314412713050842, -0.479713439941406, -0.449287414550781, 0.182839661836624, -0.282091081142426, -0.589551627635956, 0.062197431921959, -0.653088748455048, -0.144636169075966, 0.031422309577465, -0.335252463817596, 0.117454685270786, -0.045676976442337, -0.321804881095886, -0.028820682317019, 0.047440577298403, 0.165194600820541, -0.205181151628494, -0.609252095222473, -0.077160559594631, 0.832930743694305, 0.537635564804077, 0.813206076622009, -0.354444384574890, 0.130630776286125, 0.469270348548889, -0.112957894802094, -0.177367076277733, 0.359579324722290, 0.189391568303108, -0.411137998104095, 0.677487909793854, 0.174722030758858, 0.603697240352631, 0.001143274479546, -0.039409279823303, -0.060582645237446, 0.171879425644875, 0.549962520599365, -0.258927226066589, 0.117035441100597, 0.154607594013214, -0.141491338610649, 0.056364331394434, 0.216551750898361, 0.493132263422012, 0.125898927450180, 0.519363582134247, 0.125108778476715, 0.454526573419571, -0.250406414270401, -0.368219494819641, -0.560459196567535, -0.231820061802864, 0.192555293440819, -0.069415271282196, 0.767526566982269, 0.256260812282562, -0.099910937249660, -0.349792867898941, 0.455827921628952, -0.100218579173088, -0.304149836301804, 0.021640118211508, -0.129816740751266, 0.283265382051468, -0.444944500923157, -0.098148278892040, 0.317458271980286, 0.646434783935547, 0.532261133193970, -0.504768967628479, 0.016537018120289, -0.402231216430664, 0.083058357238770, 0.067423194646835, -0.137400135397911, -0.041899964213371, -0.136710286140442, 0.146969139575958, 0.271632015705109, -0.312991231679916, 0.490769833326340, 0.352115005254745, 0.402666449546814, -0.047841224819422, 0.155422076582909, -0.178560599684715, -0.149845659732819, -0.093171931803226, -0.372559517621994, 0.501821100711823, -0.409950375556946, -0.285348355770111, -0.346560567617416, -0.287590861320496, 0.006320741493255, -0.252423286437988, -0.345271199941635, 0.182367056608200, 0.182063728570938, 0.589422643184662, 0.288742661476135, -0.167123869061470, 0.873101413249969, 0.358350664377213, -0.451429665088654, 0.101251438260078, -0.123185783624649, -0.516271471977234, 0.458072543144226, -0.030883092433214, 0.347748965024948, 0.108017325401306, 0.453152626752853, -0.326681584119797, 0.217177450656891, 0.777932286262512, 0.241226330399513, -0.112737610936165, 0.439642697572708, -0.085244327783585, 0.300417751073837, -0.124827593564987, -0.495047956705093, -0.127443462610245, -0.572940289974213, 0.310858070850372, 0.283325821161270, -0.073710814118385, 0.098634168505669, -0.302475988864899, 0.244743227958679, -0.053773861378431, 0.372673839330673, 0.097311198711395, -0.231887623667717, 0.141443982720375, -0.359990119934082, 0.248220756649971, -0.201514542102814, 0.286374151706696, -0.075826808810234, -0.447016328573227, -0.256734520196915, 0.091589659452438, -0.736698627471924, 0.150603398680687, 0.558456242084503, -0.368133366107941, -0.174011006951332, -0.159005001187325, -0.454151213169098, 0.493025809526443, -0.639916777610779, 0.335567861795425, -0.289361774921417, 0.100993283092976, -0.618054747581482, 0.409760653972626, 0.148891866207123, -0.169874295592308, -0.095748312771320, -0.240108266472816, 0.107488147914410, -0.359219431877136, 0.106362730264664, 0.213569343090057, -0.100912950932980, 0.036314111202955, 0.380833834409714, 0.080785080790520, 0.044885411858559, 0.648575067520142, 0.068234160542488, -0.622799038887024, 0.447522640228271, -0.354293406009674, 0.419584453105927, -0.457302927970886, -0.416490197181702, -0.178296655416489, 0.227447628974915, -0.375141680240631, 0.618446648120880, 0.395116895437241, -0.859143137931824, -0.379513680934906, -0.883931696414948, 0.121134854853153, -0.357677578926086, -0.112452015280724, -0.156115412712097, -0.176411628723145, 0.273383349180222, -0.402613490819931, -0.380144715309143, 0.611333608627319, 0.011333446949720, -0.022230736911297, -0.308782339096069, -0.017816707491875, -0.031344797462225, -0.240366578102112, -0.085178464651108, 0.089907340705395, 0.319687873125076, 0.302385270595551, 0.048332836478949, 0.913283407688141, 0.236595228314400, 0.023053538054228, -0.248421579599380, -0.484952062368393, -0.438744604587555, -0.241838216781616, -0.188105851411819, -0.356640547513962, 0.470444858074188, 0.283676117658615, -0.326114684343338, -0.382546395063400, -0.242774575948715, -0.433072030544281, 0.031708911061287, 0.019493009895086, -0.376481950283051, -0.028601897880435, 0.237895742058754, -0.264878720045090, 0.408857375383377, -0.023626422509551, 0.005620765965432, 0.024994065985084, -0.061304707080126, 0.030612783506513, -0.339349359273911, -0.694200754165649, -0.201316654682159, 0.050683613866568, -0.166516035795212, -0.560171723365784, 0.334274142980576, 0.123729705810547, 0.329274326562881, -0.205909326672554, -0.296390235424042, 0.187479600310326, -0.645263731479645, 0.288011938333511, -0.208390116691589, 0.262976497411728, -0.065937548875809, 0.171236798167229, -0.160759940743446, -0.286219298839569, -0.216857373714447, 0.200111895799637, 0.168529823422432, -0.172794401645660, -0.114458464086056, 0.106317341327667, 0.155144572257996, 0.868150591850281, -0.040220845490694, 0.351008534431458, 0.314722895622253, -0.140192329883575, -0.164193943142891, -0.047358345240355, -0.432241648435593, 0.384838044643402, 0.388446152210236, 0.679642558097839, -0.176044210791588, -0.585458159446716, -0.182375624775887, 0.321899086236954, -0.138863235712051, -0.122096769511700, 0.003861519042403, -0.300385713577271, 0.285423576831818, -0.080120712518692, 0.323371171951294, -0.191669330000877, -0.410477846860886, 0.070381753146648, -0.009404963813722, -0.495062351226807, 0.316604554653168, 0.097768224775791, 0.131766512989998, -0.073501400649548, -0.145800322294235, -0.191982463002205, -0.344222009181976, -0.730828523635864, 0.106729030609131, -0.092942200601101, 0.021285852417350, 0.783478796482086, 0.213596209883690, -0.239349216222763, 0.146396279335022, 0.019383456557989, 0.061842963099480, 0.263973861932755, 0.151072144508362, -0.344750136137009, -0.317938178777695, -0.258608847856522, -0.526393473148346, -0.035971298813820, -0.171545922756195, 0.045955918729305, 0.221314758062363, 0.319844305515289, -0.181466683745384, -0.230032861232758, -0.101156629621983, -0.489436775445938, -0.404318720102310, 0.142307952046394, -0.365211963653564, 0.447694450616837, -0.031666032969952, -0.369505286216736, -0.012902266345918, 0.001204817323014, 0.476657748222351, -0.322091132402420, -0.356504797935486, 0.063367098569870, 0.295726567506790, -0.395113855600357, 0.151688039302826, -0.185235679149628, -0.281385958194733, -0.494936555624008, -0.448517560958862, 0.410920530557632, -0.429431259632111, 0.333869040012360, -0.563305258750916, -0.223879188299179, -0.683313488960266, -0.569775879383087, -0.506390511989594, -0.743747532367706, 0.621967375278473, -0.255644798278809, -0.158567726612091, 0.313161313533783, 0.309484660625458, 0.015318947844207, -0.324032694101334, 0.098820611834526, 0.334647297859192, -0.350894361734390, -0.086941272020340, -0.001498419907875, 0.499112457036972, -0.450031429529190, -0.135594978928566, -0.348898082971573, 0.287881940603256, 0.215427085757256, 0.225570619106293, 0.417637050151825, -0.040905304253101, -0.324522137641907, 0.638183712959290, 0.731424272060394, 0.115764454007149, -0.105962745845318, 0.314524531364441, 0.452527940273285, -0.313490957021713, 0.098107449710369, -0.300160884857178, 0.043183248490095, -0.279762417078018, -0.030117267742753, 0.763439893722534, -0.137574613094330, 0.258751779794693, -0.177242711186409, 0.151919543743134, 0.521454513072968, 0.022751830518246, 0.267887145280838, 0.308955252170563, 0.784238874912262, 0.160485729575157, -0.155733108520508, 0.572585165500641, -0.355013132095337, -0.495255589485168, 0.233628645539284, -0.212498784065247, -0.142056524753571, 0.682547032833099, 0.258266478776932, 0.242537081241608, 0.014536469243467, -0.683271110057831, -0.406448006629944, -0.845072984695435, 0.327995359897614, 0.567389190196991, 0.561042308807373, -0.100729033350945, -0.010057651437819, 0.628286182880402, 0.056532908231020, -0.266318768262863, 0.040540885180235, -0.118990540504456, -0.023574078455567, -0.608957529067993, 0.302905797958374, 0.114853523671627, 0.072434291243553, 0.702809274196625, 0.234341636300087, 0.332541793584824, -0.486856579780579, 0.660240530967712, 0.832695841789246, -0.297782272100449, -0.337324798107147, 0.422729581594467, -0.539258539676666, 0.135978728532791, -0.165522456169128, -0.618655383586884, 0.841145515441895, 0.290965318679810, 0.029156548902392, 0.314370810985565, -0.187909811735153, -0.303440004587173, 0.161900311708450, -0.059965450316668, -0.697637796401978, -0.213698267936707, -0.121801972389221, -0.104717411100864, 0.753449738025665, -0.232497468590736, 0.157786846160889, 0.017353594303131, 0.327832072973251, -0.064731948077679, -0.033876381814480, -0.250642865896225, -0.137690916657448, 0.473298698663712, 0.016786426305771, 0.872934758663177, 0.160510063171387, 0.131013318896294, 0.126226648688316, -0.621362149715424, -0.025762734934688, -0.536492526531219, -0.066156856715679, -0.359968543052673, -0.131548494100571, -0.154213905334473, 0.006647798232734, 0.072109624743462, -0.017267402261496, 0.128544852137566, 0.280440360307693, -0.336896747350693, 0.196314007043839, 0.338567137718201, -0.527874350547791, -0.331387519836426, 0.050735346972942, -0.281163126230240, -0.108021877706051, 0.052909336984158, 0.247367173433304, 0.877971351146698, 0.253741115331650, 0.595884442329407, 0.313176423311234, -0.038561739027500, 0.069865457713604, -0.706514120101929, -0.154196113348007, 0.345622181892395, 0.882426202297211, -0.538772940635681, 0.020342506468296, 0.133482709527016, 0.077374324202538, 0.439305901527405, -0.010803487151861, -0.103165529668331, 0.095865435898304, 0.013482234440744, 0.324048370122910, 0.243748307228088, 0.141482576727867, -0.298490971326828, -0.215057045221329, -0.270436793565750, 0.021972121670842, 0.023722501471639, 0.561452507972717, 0.174037441611290, -0.294645965099335, 0.464887738227844, 0.127453431487083, 0.055384103208780, -0.137360870838165, 0.188655361533165, -0.470429897308350, -0.086880028247833, -0.201951533555984, -0.543124079704285, -0.451572358608246, 0.097099177539349, 0.490990132093430, 0.550893604755402, -0.205466732382774, 0.232463002204895, 0.362189501523972, 0.155166834592819, -0.138839140534401, -0.024851940572262, 0.333337306976318, 0.153801396489143, -0.226979210972786, -0.369491815567017, 0.381629228591919, 0.403425604104996, -0.057220984250307, -0.362912118434906, -0.323597431182861, -0.275553524494171, 0.213024750351906, 0.223965004086494, 0.475130975246429, -0.322275429964066, -0.073801904916763, 0.420204013586044, -0.036891039460897, -0.779682099819183, 0.334741890430450, -0.394488811492920, -0.194780215620995, -0.328928768634796, -0.567001819610596, -0.480399996042252, -0.082295127213001, 0.080752052366734, 0.009619448333979, 0.471165657043457, -0.143065407872200, -0.058102164417505, 0.638494789600372, -0.005518651567400, -0.268537253141403, -0.291274666786194, -0.052399069070816, 0.310823887586594, 0.130243703722954, 0.693309366703033, -0.131796970963478, 0.062979407608509, 0.019485162571073, -0.723191499710083, 0.147160440683365, 0.250537902116776, 0.343415677547455, -0.403436660766602, 0.166045263409615, 0.487102895975113, -0.671097218990326, -0.115543268620968, -0.408350378274918, -0.091112494468689, -0.499518662691116, 0.174058899283409, -0.032213035970926, 0.111052088439465, -0.430823922157288, -0.173070400953293, -0.249383464455605, -0.103630237281322, -0.510694026947021, 0.080207340419292, 0.034776475280523, -0.194113194942474, 0.539468884468079, -0.060243006795645, 0.119883231818676, -0.177268385887146, 0.606417536735535, 0.394612997770309, 0.153734743595123, -0.828046381473541, -0.086266599595547, 0.088565193116665, 0.329226315021515, -0.355733692646027, -0.201678499579430, 0.489012926816940, 0.522446215152740, -0.101280219852924, -0.769959926605225, 0.699119508266449, 0.513800263404846, 0.315922558307648, -0.736407518386841, 0.234236732125282, 0.279253512620926, 0.963448405265808, 0.238713726401329, -0.435323625802994, 0.258912295103073, 0.329382091760635, -0.837428927421570, 0.456724375486374, 0.280047059059143, -0.616875588893890, 0.055542524904013, -0.410009473562241, -0.771424114704132, 0.454715341329575, 0.288468271493912, -0.020876543596387, 0.090280964970589, 0.171541497111320, 0.288220137357712, 0.183798849582672, -0.199524536728859, -0.265620529651642, -0.184920892119408, -0.173981174826622, 0.332926183938980, 0.356732517480850, -0.113162882626057, 0.075259007513523, -0.013332285918295, 0.160121411085129, 0.153144538402557, 0.399164527654648, -0.021043445914984, 0.253903448581696, -0.490291655063629, -0.287553101778030, -0.449851125478745, -0.028743632137775, 0.302460193634033, -0.297797381877899, 0.333578050136566, -0.251337885856628, 0.186861798167229, 0.066088937222958, -0.194059863686562, -0.228053778409958, 0.227138087153435, 0.835174620151520, -0.038300406187773, -0.454429328441620, 0.224681302905083, -0.131297603249550, -1.245719790458679, 0.794541418552399, -0.062368553131819, -0.299943119287491, -0.044646974653006, 0.452067583799362, -0.716321289539337, 0.091128930449486, 0.091452315449715, -0.005554581526667, 0.095249332487583, -0.333477944135666, 0.015191431157291, -0.367967903614044, 0.225765660405159, 0.232190817594528, 0.925276577472687, 0.453361153602600, -0.504994750022888, -0.343249410390854, -0.071660444140434, -0.808295428752899, 0.199718996882439, -0.400285840034485, 0.719857454299927, 0.167781040072441, 0.001547341467813, 0.065214432775974, 0.254462003707886, 0.242021203041077, -0.639108180999756, 0.284546285867691, -0.067093133926392, 0.322497695684433, -0.082865171134472, 0.185970157384872, -0.227709665894508, 0.410807788372040, -0.033068686723709, -0.228226259350777, 0.271244108676910, 0.135577082633972, 0.832990169525146, -0.381080418825150, 0.474737852811813, 0.102512001991272, -0.904438316822052, -0.104011692106724, -0.073946192860603, -0.325759977102280, -0.106019616127014, 0.456411123275757, -0.821613430976868, -0.137805476784706, 0.451538801193237, 0.294035822153091, 0.435552209615707, -0.582122266292572, 0.137503445148468, 0.009784935042262, 0.460812091827393, -0.999238848686218, 0.031028859317303, -0.187170371413231, -0.297351121902466, -0.260083854198456, -0.622887969017029, 0.362995356321335, -0.346152752637863, -0.218973726034164, -0.003463133005425, 0.158878922462463, 0.389016658067703, -0.037711858749390, 0.003863456426188, -0.043449554592371, 0.298762023448944, 0.128075152635574, -0.965772807598114, -0.048340063542128, -0.437368392944336, -0.604459583759308, -0.057646039873362, -0.464653789997101, -0.935508430004120, -0.249850273132324, 0.608792483806610, 0.553098499774933, 0.169551685452461, -0.272074520587921, -0.557324588298798, -0.781456649303436, 0.430014789104462, -0.249701738357544, -0.040936477482319, -0.130835175514221, -0.240765318274498, 0.048691149801016, -0.684796988964081, -0.438967466354370, 0.003574793227017, -0.355668306350708, 0.896156013011932, -0.160304352641106, -0.247883304953575, 0.406412690877914, -0.247852668166161, -0.315843135118484, -0.057614572346210, 0.327951371669769, -0.030365027487278, -0.026853745803237, 0.620639562606812, 0.152297213673592, -0.089310318231583, -0.518468737602234, -0.336210846900940, 0.112229935824871, -0.147490307688713, -0.075151450932026, -0.121235355734825, 0.367101877927780, -0.227568447589874, 0.347354978322983, -0.318784475326538, -0.067848235368729, -0.216503784060478, 0.214112415909767, 0.244371816515923, 0.008261723443866, 0.027660753577948, 0.390082418918610, 0.275653392076492, 0.366521030664444, 0.082715287804604, -0.307896584272385, -0.443421840667725, -0.312591850757599, -0.063678108155727, 0.042162567377090, -0.466103523969650, 0.043018952012062, 0.023538978770375, -0.168404683470726, -0.090961433947086, 0.005520672537386, -0.049409605562687, 0.097890265285969, -0.115247718989849, -0.212134867906570, 0.209670126438141, -0.298442840576172, -0.076839178800583, -0.149240344762802, 0.332458764314651, 0.015415079891682, 0.092721998691559, -0.591935396194458, -0.457649737596512, -0.109042711555958, -0.100834064185619, 0.295953929424286, -0.116549059748650, -0.217884957790375, 0.163803130388260, 0.039657812565565, 0.327028065919876, -0.177889689803123, 0.315736651420593, -0.011541983112693, 0.086008191108704, -0.146595582365990, -0.048095695674419, -0.320865422487259, 0.508087813854218, -0.047540135681629, 0.570890307426453, -0.225850209593773, -0.070747293531895, -0.390484213829041, 0.004199451301247, 0.106719650328159, -0.418189495801926, -0.259123206138611, 0.172094821929932, 0.120865918695927, -0.137827888131142, 0.157005310058594, -0.211308121681213, 0.004160220734775, -0.107067570090294, 0.187282890081406, -0.463235706090927, -0.130079761147499, -0.505923569202423, 0.258133798837662, -0.321182161569595, -0.369111895561218, 0.109311319887638, -0.491967678070068, -0.647709250450134, 0.035790834575891, 0.034068465232849, -0.039500623941422, 0.400522202253342, 0.431289851665497, -0.125606045126915, 0.258736789226532, 0.076497375965118, 0.015376543626189, 0.057198360562325, -0.068327449262142, -0.690061628818512, -0.062220450490713, -0.196223363280296, -0.179847568273544, -0.263170719146729, 0.104768097400665, -0.053918968886137, 0.395442903041840, 0.350127667188644, -0.019237462431192, 0.206884205341339, -0.009851972572505, -0.420894443988800, -0.062076181173325, 0.279632389545441, -0.454749941825867, -0.112986788153648, 0.521455883979797, -0.161878824234009, -0.396667510271072, 0.166523799300194, 0.360643863677979, 0.168907970190048, 0.725694656372070, -0.443206399679184, 0.201353251934052, 0.284739941358566, 0.262576520442963, -0.108040370047092, 0.292486160993576, -0.051132034510374, -0.002018557861447, 0.102135099470615, -0.162496164441109, 0.298371434211731, 0.443347573280334, -0.270053267478943, 0.000483433279442, 0.289375424385071, 0.204209223389626, 0.107603006064892, 0.286423325538635, -0.185155272483826, -0.196486279368401, -0.185965329408646, -0.318315833806992, -0.089137293398380, 0.302718847990036, 0.280129790306091, 0.041392829269171, 0.554421901702881, 0.633515655994415, 0.102045409381390, 0.400485038757324, 0.074763283133507, 0.449001908302307, -0.192914709448814, -0.416919171810150, -0.056466687470675, -0.496426641941071, 0.356269240379333, 0.280259549617767, 0.443899214267731, 0.227001711726189, 0.373612314462662, 0.074505470693111, 0.268434464931488, -0.204713314771652, 0.095783054828644, 0.461733072996140, 0.642115056514740, -0.248211279511452, 0.113022804260254, 0.586078047752380, -0.069865703582764, 0.338795483112335, -0.271805852651596, -0.038779206573963, -0.336705833673477, 0.046783447265625, 0.485181570053101, -0.045511964708567, -0.491580486297607, -0.061212144792080, 0.528416395187378, 0.176794961094856, 0.375616580247879, 0.125296071171761, -0.272779285907745, -0.091846548020840, 0.197605639696121, -0.010911047458649, -0.442278027534485, -0.365835696458817, -0.081961520016193, -0.747087955474854, 0.377924114465714, 0.196191295981407, 0.411700755357742, -0.308717548847198, 0.166272208094597, 0.487583547830582, -0.457960158586502, -0.076712310314178, -0.487200647592545, 0.227147698402405, -0.168639361858368, -0.123744629323483, -0.351136863231659, 0.186719805002213, 1.353948473930359, 0.105685241520405, -0.053568098694086, -0.447680294513702, -0.293387979269028, 0.571697711944580, -0.020454488694668, -0.100877508521080, -0.047029659152031, -0.036433976143599, 0.537491261959076, 0.480188310146332, 0.766078114509583, -0.209332242608070, -0.418207973241806, -0.545869410037994, -0.367237150669098, 1.090355038642883, 0.170603901147842, 0.212531834840775, -0.064711801707745, -0.098391950130463, -0.411917507648468, -0.713592469692230, 0.086447507143021, -0.158230468630791, -0.139427646994591, -0.860021770000458, 0.246818676590919, 0.104647792875767, -0.060398105531931, 0.499109864234924, -0.143714398145676, -0.416000247001648, -0.237093836069107, 0.379329293966293, -0.542968571186066, -0.541740238666534, -0.251372694969177, -0.666686534881592, 0.027924092486501, 0.341877579689026, 0.498892277479172, 0.341231167316437, 0.110130123794079, -0.100220784544945, 0.118556059896946, 0.211358174681664, 0.588044762611389, -0.115590088069439, -0.055751990526915, -0.135178208351135, 0.061304125934839, -0.035856090486050, 0.221146672964096, 0.459656745195389, -0.228295385837555, 0.235851198434830, -0.237325325608253, 0.091855078935623, 0.001661742106080, -0.111666135489941, -0.233613789081573, 0.229589283466339, -0.937671184539795, 0.071115657687187, 0.005106231197715, -0.100349240005016, -0.058766264468431, -0.119623303413391, 0.071370437741280, 0.052381090819836, -0.216651812195778, 0.077804245054722, -0.207446247339249, -0.009953672997653, -0.637957811355591, -0.309140980243683, 0.498481959104538, -0.020289072766900, -0.167086094617844, -0.649761915206909, -0.173458114266396, 0.169368103146553, -0.021234268322587, -0.357560038566589, 0.397074908018112, 0.282586008310318, -0.018638243898749, -0.337644279003143, 0.209993615746498, -0.066032744944096, -0.277921438217163, -0.025214014574885, -0.261324971914291, -0.186855316162109, -0.346952080726624, 0.132463112473488, -0.011112297885120, 0.041727192699909, 0.311817348003387, 0.078795731067657, 0.105303175747395, 0.101888552308083, 0.520221471786499, -0.457894504070282, -0.531267404556274, -0.033139307051897, -0.401278972625732, 0.171206042170525, -0.149137616157532, 0.054018855094910, 0.109682738780975, -0.301961034536362, 0.747933089733124, -0.306153118610382, 0.414927452802658, -0.046248652040958, 0.270630478858948, -0.043547589331865, -0.304586052894592, 0.373736947774887, 0.076071031391621, 0.469481080770493, 0.029340527951717, -0.154151469469070, 0.164411440491676, 0.088308140635490, 0.172608926892281, 0.280214548110962, 1.017181038856506, -0.096335507929325, 0.073588326573372, -0.501507580280304, 0.301552355289459, 0.066269546747208, 0.523452341556549, -0.153111770749092, -0.098068572580814, 0.027803381904960, 1.052502036094666, 0.032078444957733, 0.030752254649997, -0.204903572797775, 0.834443747997284, 0.239279001951218, 0.160458803176880, -0.257283538579941, -0.122542075812817, 0.117626041173935, 0.016313176602125, -0.525227785110474, 0.399705618619919, 0.096858881413937, 0.355854183435440, -0.181832984089851, -0.162208050489426, 0.988712906837463, -0.228737473487854, -1.141732573509216, 0.465598136186600, 0.876888751983643, -0.469579547643661, -0.511781334877014, -0.239309072494507, -0.456543654203415, 0.936289012432098, 0.093208327889442, 0.165263518691063, 0.270561575889587, -0.094762414693832, -0.434832960367203, 0.103197835385799, 0.285504966974258, -1.738836884498596, 0.103714115917683, -0.604278981685638, 0.559203863143921, -0.452924698591232, 0.472678542137146, -0.428738594055176, -0.333689033985138, -0.019484620541334, -0.165818691253662, -0.067846797406673, 0.254987657070160, -0.106148377060890, -0.029588429257274, 0.012044462375343, -0.019624365493655, -0.416219770908356, 0.160127952694893, -0.082507334649563, -0.384684056043625, 0.192865997552872, 0.318367838859558, -0.075296700000763, 0.164609059691429, -0.077381819486618, -0.295104324817657, -0.493965774774551, -0.034998502582312, 0.455486118793488, -0.565491914749146, -0.217307150363922, 0.015671284869313, -0.196929275989532, -0.811342477798462, -0.289299935102463, -0.502774477005005, 0.732610583305359, 0.314902156591415, 0.049042221158743, 0.192376092076302, -0.876734554767609, -0.002470955019817, -0.287434101104736, 0.188478291034698, -0.457674950361252, -0.623762249946594, 0.211181282997131, 0.115503564476967, -0.045177921652794, 0.024754831567407, -0.150303542613983, -0.634267508983612, -0.267601430416107, -0.689195811748505, -0.813743531703949, 0.406657040119171, -0.075532808899879, -0.666962385177612, 0.126497000455856, 0.358503431081772, 0.232044443488121, 0.310848385095596, 0.274540781974792, 0.145239815115929, -0.550792872905731, -0.258194744586945, 0.110370106995106, -0.108216688036919, -0.088615283370018, -0.368010461330414, -0.362037032842636, -0.145298480987549, -0.222049936652184, -0.149111092090607, 0.083097256720066, -0.017137918621302, -0.045534405857325, 0.399748206138611, -0.272318154573441, 0.447927683591843, 0.352026075124741, -0.375388830900192, -0.043291803449392, -0.459099709987640, 0.320548266172409, 0.315322309732437, 0.113292165100574, 0.500162601470947, 0.527674913406372, -0.241071313619614, 0.190807864069939, -0.334411710500717, -0.126816570758820, -0.143996119499207, 0.403082907199860, -0.362925976514816, -0.000752895488404, -0.153315961360931, 0.020510133355856, -0.666634023189545, 0.329501062631607, -0.003538046032190, -0.034347880631685, 0.337298601865768, -0.098691828548908, 0.106398142874241, -0.355538398027420, -0.391178190708160, -0.116121523082256, -0.155175402760506, 0.032282784581184, -0.118614472448826, 0.014053819701076, -0.197844773530960, -0.262672930955887, -0.203963816165924, -0.343478173017502, -0.224342495203018, 0.317243307828903, 0.412793517112732, -0.124599725008011, 0.127371624112129, -0.479678928852081, -0.197911009192467, 0.026962285861373, -0.559873163700104, 0.060176208615303, -0.548201084136963, -0.369193464517593, -0.506183564662933, 0.014979911036789, -0.782534360885620, 0.108533762395382, -0.239726707339287, -0.216662079095840, -0.350699484348297, -0.570198893547058, 0.121550090610981, 0.024788809940219, -0.681724369525909, -0.026625163853168, 0.871919631958008, -0.368998408317566, 0.046936221420765, -0.245246574282646, -0.134607091546059, 0.352946251630783, -0.419375717639923, -0.868132174015045, -0.305901616811752, -0.410237401723862, -0.236357316374779, -0.720182478427887, -0.142357870936394, -0.701547980308533, -0.419037759304047, -0.457011967897415, -0.409002423286438, -0.601058483123779, -0.302215307950974, -0.086633495986462, -0.589858949184418, -0.719108700752258, -0.732362627983093, 0.196014404296875, -0.056762646883726, -0.392598450183868, -0.418252766132355, -0.514497339725494, -0.197144255042076, -0.251101315021515, -0.352534621953964, -0.246263995766640, -0.536585092544556, -0.213268846273422, -0.247101143002510, -0.256003558635712, -0.363962262868881, 0.431915789842606, -0.777876198291779, -0.403399497270584, 0.194801986217499, -0.443753212690353, 0.277502894401550, -0.460878819227219, -0.085637435317039, 0.744055449962616, -0.296174407005310, -0.186205297708511, 0.433521509170532, 0.151334956288338, 0.370874613523483, 0.540407896041870, -0.305010139942169, 0.293589830398560, 0.195470452308655, 0.655153572559357, 0.062878206372261, 0.217650353908539, -0.066769510507584, -0.120887860655785, 0.268424093723297, 0.467551440000534, 0.313774734735489, 0.732329607009888, 0.537373006343842, 0.553677320480347, -0.053508024662733, 0.481267839670181, 0.218133807182312, -0.230043143033981, 0.325200229883194, -0.246793597936630, 0.171607136726379, -0.079137928783894, -0.133655875921249, 0.121404215693474, 0.491771966218948, 0.352514326572418, 0.364886820316315, 0.040214683860540, 0.199710339307785, 0.040840484201908, 0.131532832980156, 0.193501234054565, 0.109115920960903, 0.433110386133194, -0.184685945510864, 0.090661145746708, 0.238436520099640, 0.373563081026077, -0.169579833745956, 0.253235101699829, 0.147122696042061, 0.581849753856659, 0.610881567001343, 0.169172644615173, 0.640144824981689, 0.423179596662521, 0.581675589084625, 0.664453566074371, -0.279737710952759, 0.079901851713657, 0.810470879077911, 0.189610287547112, 0.180091872811317, 0.205925464630127, -0.324009865522385, -0.212117522954941, 0.817930579185486, -0.109553426504135, -0.220877319574356, -0.441035091876984, 0.121739529073238, -0.267916977405548, -0.015235672704875, -0.037041895091534, 0.481795936822891, 