//Numpy array shape [64, 192]
//Min -2.493095159531
//Max 1.677607655525
//Number of zeros 0

#ifndef FORWARD_GRU_GRU_CELL_2_RECURRENT_WEIGHT2_H_
#define FORWARD_GRU_GRU_CELL_2_RECURRENT_WEIGHT2_H_

#ifndef __SYNTHESIS__
model_default_t forward_gru_gru_cell_2_recurrent_weight2[12288];
#else
model_default_t forward_gru_gru_cell_2_recurrent_weight2[12288] = {-0.746588110923767, 0.248785138130188, 0.134381115436554, 0.156898960471153, 0.345219939947128, -0.356773674488068, -0.092329688370228, -0.020522125065327, 0.232829898595810, 0.258977115154266, 0.214980572462082, -0.052809018641710, -0.299299627542496, 0.242124140262604, 0.257235467433929, -0.165434896945953, 0.303185999393463, -0.604220867156982, -0.401836603879929, 0.101150728762150, -0.260073393583298, -0.102152772247791, -1.013999462127686, -0.461391389369965, -0.055005479604006, -0.310893297195435, 0.722925901412964, -0.460477799177170, -0.370553702116013, 0.280122071504593, -0.649444639682770, -0.161368072032928, -0.034793026745319, 0.497420847415924, 0.410497575998306, -0.452172011137009, 0.029184110462666, -0.080692276358604, -1.200216889381409, 0.062785811722279, 0.339251458644867, -0.609008193016052, -0.615025937557220, -0.115667618811131, 0.149627700448036, -0.081067085266113, -0.069457679986954, -0.175056532025337, -0.368217974901199, 0.228147625923157, -0.637068986892700, 0.187762409448624, -0.026311993598938, 0.192146569490433, -0.329541027545929, 0.884522616863251, -0.073979355394840, -0.182379752397537, 0.576076209545135, -0.141963034868240, -0.486813217401505, 0.962685048580170, -0.128197282552719, -0.377887129783630, 0.379445046186447, 0.006185572594404, -0.855952680110931, 0.187275826931000, -0.317951798439026, 0.403474539518356, -0.261354476213455, -0.366393029689789, 0.412203699350357, 0.150331512093544, -0.561388492584229, -0.022468926385045, -0.605279505252838, -0.369807064533234, -0.311051368713379, 0.115901432931423, 0.536128699779510, -0.910486757755280, 0.277562022209167, 0.623548328876495, 0.053694285452366, 0.502790629863739, 0.259735584259033, -0.467662721872330, 0.598813831806183, -0.659643113613129, -0.023801894858479, -0.366520613431931, 0.297099024057388, 0.124608568847179, 0.390403598546982, -0.249494597315788, -0.293939828872681, -0.395619481801987, 0.877501428127289, -0.358489453792572, -0.220962345600128, 0.227617084980011, 0.492209494113922, 0.819150209426880, 0.295010179281235, -0.112905912101269, 0.831663250923157, 0.393560230731964, 0.026728192344308, 0.336672902107239, 0.103416644036770, 0.240955173969269, -0.114930234849453, -0.442231059074402, 0.224322080612183, 0.163740456104279, -0.062478534877300, 0.059155724942684, 0.428278207778931, -0.080669216811657, 0.348855197429657, -0.180455029010773, 0.127081125974655, 1.028995513916016, -0.010483456775546, -0.049418047070503, -0.543176054954529, -0.797472715377808, -0.838446378707886, 0.055466119199991, 0.012274421751499, 0.333727359771729, -0.445865571498871, 0.164064377546310, -0.245973959565163, -0.673264145851135, -0.311283558607101, 0.569267272949219, 0.119392126798630, -0.073995120823383, -0.820253312587738, 0.107151046395302, 0.201556056737900, -0.148422732949257, 0.102292619645596, -0.611853897571564, 0.235783681273460, -0.187804639339447, -0.382959723472595, -0.126207530498505, -0.348760396242142, -0.034333135932684, 0.203222036361694, -0.355321288108826, -0.097214818000793, -0.296414732933044, -0.392893761396408, 0.201607614755630, 0.031793843954802, -0.007962709292769, 0.351791620254517, 0.358072578907013, -0.096069969236851, -0.209525108337402, -0.323774516582489, 0.145340278744698, 0.391688525676727, 0.120506294071674, 0.149320557713509, 0.033402472734451, -0.385723948478699, -0.249299749732018, 0.021360790356994, 0.173570111393929, -0.129947677254677, 0.192648187279701, 0.316415935754776, 0.005807701963931, 0.564625203609467, -0.087377995252609, -0.605187118053436, -0.059871487319469, -0.064920932054520, 0.245947450399399, -0.075219459831715, 0.549307167530060, 0.305100321769714, 0.072081722319126, -0.313884615898132, 0.009693719446659, -0.040008649230003, -0.161163210868835, 0.524304389953613, -0.041634920984507, 0.379542738199234, -0.339273869991302, 0.516083300113678, 0.037629034370184, -0.157848581671715, 0.531351745128632, 0.372421860694885, -0.245701745152473, 0.426903784275055, 0.116161622107029, -0.286872208118439, 0.646841764450073, 0.319092869758606, -0.144031643867493, 0.070976205170155, -0.152106150984764, 0.451427668333054, 0.334074884653091, 0.056585773825645, -0.219929352402687, 0.108481392264366, 0.226372823119164, -0.574963867664337, 0.509953379631042, 0.867130339145660, 0.226346611976624, -0.599017083644867, 0.389856904745102, 0.205885708332062, 0.318017542362213, -0.603395879268646, 0.128399312496185, 1.209085226058960, -0.038419745862484, 0.268587768077850, 0.394269376993179, 0.254350155591965, -0.541895031929016, 0.102502703666687, -0.597399711608887, -0.651760339736938, -0.818135201931000, -0.264256656169891, -0.626090347766876, 0.032581601291895, -0.160253554582596, 0.028338309377432, 0.565617978572845, 0.078918419778347, -0.090068072080612, 0.040815424174070, -0.755559980869293, 0.338933080434799, -0.115082509815693, -0.245290279388428, 0.760776579380035, 0.085122153162956, 0.098028048872948, 0.293608158826828, -0.180825352668762, -0.732478499412537, 0.210877761244774, 0.251951992511749, -0.088490709662437, -0.686889052391052, -0.230800241231918, 0.302205711603165, 0.199328258633614, -0.228163316845894, 0.555673182010651, 0.647903323173523, 0.234205991029739, -0.176404654979706, 0.209553167223930, -0.041300959885120, 0.483961880207062, 0.756961882114410, 0.095904231071472, -0.520349979400635, 0.019916560500860, 0.411944538354874, -0.907904386520386, -0.532660961151123, -0.300791949033737, -0.123704977333546, 0.246174335479736, 0.242092028260231, -0.319142103195190, 0.181977793574333, -0.093229122459888, -0.257006108760834, 0.923327624797821, -0.143047034740448, 0.507927477359772, -0.130256965756416, -0.043906331062317, -0.777732372283936, 0.505758821964264, -0.336261332035065, 0.403987586498260, -0.339367330074310, 0.023101661354303, 0.006506541278213, 0.332324147224426, 0.206623688340187, 0.542732715606689, -0.120531305670738, -0.512814998626709, -0.558493852615356, 0.196687847375870, 0.182206869125366, -0.439945459365845, -0.313525766134262, 0.297916650772095, 0.706466555595398, -0.472430795431137, -0.609748899936676, 0.295878589153290, 0.039014082401991, 0.321355789899826, 0.349696904420853, 0.849087834358215, 0.575573503971100, 0.304620802402496, -0.193614020943642, 0.162485539913177, 0.186783909797668, -2.124794721603394, -0.841993331909180, 0.064667023718357, 0.583405911922455, -0.206994533538818, -0.138675540685654, -0.041439428925514, 0.004987442865968, -0.021174127236009, -0.301548004150391, -0.607738852500916, -0.080493703484535, 1.018167614936829, -0.235724091529846, -0.023869283497334, -0.012076543644071, -0.104341618716717, -0.386942446231842, 0.127416297793388, 0.545608639717102, 0.495022356510162, 0.003020236035809, 0.009585884399712, -0.655914187431335, -0.690312445163727, -0.035908658057451, -0.383814990520477, -0.842925131320953, 0.605941712856293, 0.124657660722733, 0.295394182205200, 0.280440270900726, -0.012864988297224, 0.488797873258591, -1.008029222488403, -0.496933043003082, 0.240634456276894, -0.172156170010567, 0.010616957210004, -0.274811834096909, -0.080533526837826, -0.564851284027100, 0.169098064303398, -0.410006046295166, 0.449944019317627, -0.279040664434433, -0.133553802967072, -0.099511660635471, -0.630925774574280, -0.229711398482323, 0.590192854404449, 0.287479341030121, 0.194071188569069, -0.224705919623375, -0.033150348812342, 0.187953397631645, -0.272806704044342, 0.275935977697372, -0.332894742488861, 0.636853456497192, 0.063308723270893, 0.385636806488037, -0.288124561309814, 0.163639187812805, -0.532278180122375, -0.378710180521011, 0.089884072542191, -0.433169960975647, 0.003754675155506, -0.174376800656319, -0.090604662895203, 0.299673944711685, 0.147468149662018, 0.554215431213379, -0.180822968482971, -0.694607794284821, -0.053220942616463, -0.027947898954153, -0.241878852248192, 0.277063488960266, -0.161207780241966, -0.513255059719086, 0.402789205312729, 0.402850449085236, 0.139965176582336, -0.012018312700093, 0.132583007216454, 0.729738473892212, -0.144665941596031, -0.120919905602932, 0.244440242648125, 0.633341014385223, -0.091892369091511, 0.079874448478222, 0.675521254539490, 0.234799355268478, -0.012288874946535, 0.230366706848145, 0.582557260990143, 0.463903635740280, 0.628178000450134, 0.188975170254707, -0.507042825222015, -0.088634997606277, -0.308867752552032, -0.123343236744404, -0.440755516290665, 0.176958993077278, -0.282956510782242, -0.108748465776443, -0.244873180985451, -0.290346294641495, 0.354326307773590, 0.178285926580429, 0.064121194183826, -0.362340033054352, -0.370426118373871, 0.323969513177872, 0.164200693368912, -0.229290574789047, -0.078505679965019, -0.502087116241455, -0.265519678592682, -0.099587164819241, 0.441307455301285, 0.070048689842224, -0.140650257468224, 0.306542903184891, 0.732932746410370, -0.178584322333336, -0.093869566917419, -0.093082539737225, 0.103805281221867, 0.035513404756784, 0.616293787956238, 0.741310596466064, -0.333423018455505, 0.072683766484261, 0.070534229278564, 1.208658456802368, 0.092742569744587, -0.370679676532745, 0.593230366706848, -0.126236364245415, -1.000149250030518, -0.145042076706886, -0.610618948936462, 0.622361660003662, 0.181268170475960, -0.352040648460388, -0.014667083509266, -0.503224730491638, 0.135564744472504, 0.267783790826797, 0.197877332568169, -0.515956878662109, -0.150128230452538, 0.025929851457477, -0.155627205967903, 0.217938005924225, -0.180532738566399, 0.804553925991058, 0.143195971846581, -0.006088710390031, 0.402974188327789, -0.210133850574493, 0.274689763784409, 1.042361974716187, 0.681941568851471, 0.478152900934219, 0.198879942297935, -0.248839899897575, -0.071205452084541, -0.010192688554525, 0.467559218406677, 0.422789692878723, 0.093189463019371, 0.312309324741364, 0.043649580329657, 0.021511679515243, -0.297123432159424, -0.658375144004822, 0.346040278673172, -0.100802488625050, -0.802136301994324, 0.350029766559601, -0.268375813961029, 0.665250301361084, -0.044928859919310, 1.613307476043701, 0.086480513215065, 0.119911745190620, 0.257552117109299, -2.113084793090820, 0.171919077634811, -0.212876677513123, -0.193929493427277, -0.208734899759293, -0.378573864698410, 0.096400760114193, 0.589119315147400, 0.127021908760071, -0.154882043600082, 0.199153035879135, -0.136753350496292, 0.004216695670038, -0.047845561057329, 0.213596329092979, -0.450505048036575, -0.315357655286789, 0.229572862386703, 0.060369368642569, -0.247890487313271, 0.496884584426880, -0.521310627460480, -0.303171396255493, -0.473946303129196, -0.878024280071259, 0.237850978970528, -0.277400612831116, 0.098849229514599, 0.136203259229660, -0.219299703836441, 0.074980013072491, 0.621104419231415, 0.853017449378967, 0.079846687614918, -0.088380560278893, -0.579898297786713, -0.414722323417664, 0.175513416528702, -1.010850906372070, 0.530854940414429, -0.702117443084717, 0.054010752588511, -0.249150156974792, 0.554404258728027, 0.224166318774223, 0.122450202703476, 0.964768350124359, -0.389731705188751, 0.290603190660477, -0.004162967670709, 0.009632773697376, 0.154017642140388, -0.001001837546937, -0.637630701065063, 0.348922103643417, 0.766048371791840, -0.114028632640839, 0.090313807129860, 0.172511547803879, 0.029609644785523, 0.105130039155483, 1.066344022750854, 0.444990217685699, -0.253302067518234, -0.279329955577850, 0.645202457904816, -0.285185664892197, 0.026332085952163, -0.615817368030548, 0.183044403791428, -0.192206278443336, 0.234244376420975, 0.255875229835510, 0.416475743055344, -0.376595497131348, 0.369507372379303, 0.218631342053413, 0.619353234767914, 0.414942741394043, 0.070007532835007, 0.618651807308197, 0.125176832079887, 0.484658122062683, 0.580382704734802, 0.495019048452377, 0.579984724521637, 0.671050548553467, 0.692890286445618, -0.007600764743984, 0.231202974915504, 0.540307879447937, 0.045801576226950, 0.423214137554169, -0.830075800418854, -0.285191863775253, 0.884678781032562, -0.865643858909607, 0.255769401788712, -0.486597299575806, -0.273764729499817, -0.621942400932312, 0.182096600532532, 0.535906434059143, 0.400930404663086, -0.850272655487061, 0.364259511232376, 0.052426170557737, -0.449337124824524, 0.233524903655052, 0.714738011360168, -0.042098365724087, -0.679784059524536, 0.858756303787231, 0.039690408855677, 0.144461765885353, -0.775028169155121, 0.254979759454727, 0.561712026596069, 0.381722897291183, 0.554947197437286, 0.108728893101215, -0.240729853510857, -0.503079056739807, 0.759755611419678, -0.460438370704651, 0.236418247222900, -0.302349925041199, 0.434405326843262, 0.372655838727951, -0.543634533882141, -0.033761639147997, -0.516372859477997, 0.029980508610606, 0.325392097234726, -0.251489996910095, -0.138339549303055, -0.281675368547440, 0.296297132968903, 0.002238691551611, -0.521239280700684, -0.121442817151546, 0.576880037784576, 0.150821074843407, -0.413981407880783, 0.109460890293121, 0.519304215908051, 0.046355720609426, 0.128191068768501, -0.245091319084167, 0.489342212677002, -0.553227245807648, -0.503867864608765, -0.326514840126038, 0.029371213167906, -0.085377618670464, -0.392581611871719, 0.293630301952362, 0.175572827458382, 0.289232373237610, 0.200755849480629, 0.298161715269089, -0.272366374731064, 0.006478059571236, -0.304378926753998, 0.186310559511185, -0.312355726957321, -0.369230180978775, -0.213793680071831, 0.343856602907181, -0.457667112350464, -0.491028487682343, -0.369012087583542, 0.076932191848755, -0.087485581636429, 0.486720889806747, -0.278629422187805, -0.434732943773270, 0.449897050857544, 0.684919297695160, 0.284796386957169, -0.228022634983063, 0.265726745128632, -0.673111915588379, 0.821667850017548, 1.123513340950012, 0.266760677099228, 0.074197597801685, -0.216769531369209, -0.266951054334641, 0.076548673212528, 0.007376696448773, -0.029289517551661, -0.025004575029016, -1.463701009750366, -0.233841642737389, -0.283301532268524, -0.038186002522707, 0.511738121509552, 0.550402641296387, -0.131891995668411, -0.030500933527946, -0.033936847001314, 0.353448212146759, -0.473148524761200, -0.142291247844696, -0.082163229584694, 0.127988606691360, -0.378028839826584, 0.287738054990768, -0.560178101062775, -0.337996959686279, 0.028943745419383, 0.124556884169579, 0.222418144345284, -0.181241914629936, 0.609099566936493, -0.261940181255341, 0.277329564094543, -0.170169755816460, 0.399796515703201, -0.056128006428480, -0.000245225237450, -0.463019251823425, 0.306022554636002, -0.160568132996559, 0.307006180286407, 0.304542720317841, -0.122338853776455, -0.102865092456341, -0.251474410295486, 0.329221546649933, 0.115234240889549, -0.415625751018524, -0.424613773822784, -0.279801607131958, 0.230021998286247, -0.112387575209141, -0.145174875855446, -0.149325430393219, 0.512732028961182, 0.697163462638855, 0.187092989683151, 0.710906147956848, -0.386967420578003, -0.372041136026382, 0.376579582691193, 0.277647763490677, -0.144449055194855, -0.367117166519165, 0.134850576519966, 0.255560994148254, 0.177680045366287, -0.252603292465210, 0.267820030450821, 0.216341629624367, -0.284265100955963, 0.000429329666076, 0.094283506274223, -0.414662659168243, 0.322584331035614, -0.311475723981857, -0.814219355583191, -0.337749123573303, -0.017625071108341, 0.701903641223907, 0.377610355615616, 0.775705873966217, 0.354269981384277, 0.202819883823395, 0.051462255418301, 0.179494529962540, -0.214526206254959, 0.291987031698227, 0.507611930370331, 0.019972834736109, -0.568011045455933, 0.132334724068642, 0.176451042294502, -0.399722337722778, 0.247808888554573, 0.198999494314194, 0.521793305873871, 0.912698209285736, -0.166437596082687, 0.064145661890507, -0.093184433877468, -0.653196454048157, -0.062824055552483, -0.128672257065773, -0.118665657937527, 0.822014510631561, -0.293256610631943, 0.133012294769287, -0.079691879451275, -0.147488251328468, 1.010064601898193, -0.120689012110233, 0.222443044185638, 0.070935539901257, -0.499323934316635, 0.286605685949326, -0.309754937887192, 0.157746493816376, -0.137807786464691, 0.177094176411629, -0.147265419363976, 0.605548322200775, -0.431331932544708, 0.457368522882462, -0.032614815980196, -0.071388833224773, -0.190653890371323, 0.032893061637878, 0.213032379746437, 1.093367099761963, 0.069218017160892, -0.425660312175751, 0.022553188726306, -0.102380111813545, 0.266082733869553, 0.041421033442020, 0.803140223026276, -0.987955391407013, 0.466131269931793, -0.030093001201749, 0.497377067804337, -0.096143864095211, -0.162232100963593, -0.209440961480141, 0.456120908260345, 0.066843420267105, 0.423674196004868, 0.360292345285416, -0.257301658391953, 0.458019107580185, 0.065878391265869, 0.081972576677799, 0.084296308457851, 0.093827389180660, -0.018298968672752, -0.609698712825775, -0.421599477529526, -0.165564984083176, 0.460290253162384, 0.083559691905975, -0.273567050695419, 0.390199542045593, 0.161974474787712, 0.319675862789154, -0.734619617462158, 1.022297978401184, 0.259978950023651, -0.701133191585541, 0.468756496906281, 0.178079888224602, -0.087208874523640, 0.203831657767296, -0.050270330160856, 0.194096356630325, -0.053323633968830, 0.345708817243576, -0.152507305145264, 0.155086144804955, 0.094387955963612, -0.612297832965851, 0.170677736401558, 0.322819709777832, -0.690478980541229, 1.310252189636230, 0.303788363933563, 0.463813662528992, -0.192789867520332, 0.238588735461235, 0.550412714481354, -0.680097520351410, -0.251525074243546, 0.113200448453426, 0.154553502798080, 0.334635227918625, -0.538952410221100, -0.449956744909286, 0.216379821300507, -0.007724567316473, -0.689848363399506, -0.108692996203899, -0.437898397445679, -1.532022714614868, -0.240305051207542, -0.044234991073608, 0.167617261409760, 0.551571547985077, -0.226060718297958, 0.141463071107864, 0.086204417049885, 0.446339607238770, -0.072564288973808, -0.621498286724091, -0.305282145738602, -0.114071726799011, 0.061184346675873, -0.531457662582397, 0.346252173185349, -0.096642248332500, 0.097576737403870, 0.499192088842392, -0.122758515179157, -0.253254055976868, -0.334701001644135, -0.260090440511703, 0.015249719843268, -0.137867540121078, -0.667094886302948, -0.220985725522041, -0.334494680166245, -0.494797259569168, 0.004988916683942, 0.418833285570145, -0.311228930950165, 0.363769024610519, 0.099403955042362, -0.627096056938171, 0.027270955964923, 0.213781341910362, -0.338407546281815, -0.012065411545336, 0.120832212269306, -0.089594386518002, -0.125231027603149, -0.557677388191223, -0.055472232401371, -0.080153703689575, 0.173966482281685, 0.372641742229462, 0.029639799147844, 0.368339657783508, -0.182015687227249, -0.062827974557877, -0.522755384445190, 0.332059592008591, 0.358771741390228, 0.195369973778725, -0.452293634414673, 0.344270467758179, 0.328247964382172, 0.411768764257431, 0.855782747268677, 0.163862958550453, -0.314132601022720, -0.792735278606415, -0.147152632474899, 0.247607812285423, 0.073252007365227, -0.135019659996033, -0.066871844232082, -0.014155071228743, -0.579492807388306, -0.642267286777496, 0.214564606547356, -0.227977886795998, 0.059172071516514, 0.580286443233490, 0.374991506338120, 0.203570216894150, -0.942493736743927, 0.276247322559357, 0.163925349712372, 0.051096167415380, -0.254637598991394, -0.781141281127930, 0.385047644376755, -0.322265446186066, -0.245361313223839, 0.392304122447968, 0.130052939057350, 0.216474890708923, 0.342102915048599, -0.340286940336227, 0.059542167931795, -0.301220625638962, 0.633665382862091, -0.439624190330505, 0.273996651172638, 0.127957820892334, 0.041140206158161, -0.463002592325211, -0.186868324875832, -0.100756742060184, -0.934297919273376, -0.564683198928833, -0.005878967233002, -0.330569028854370, -0.391643226146698, -0.380602270364761, 0.237532883882523, -0.201464459300041, -0.729856491088867, -0.249689966440201, 0.149854958057404, -0.033443756401539, 0.286259144544601, 0.006972431670874, 0.330480813980103, -0.293146163225174, 0.424153596162796, -0.427679240703583, -0.077746354043484, 0.225860342383385, 0.600352942943573, -0.910281360149384, 0.014749299734831, 0.265364587306976, -0.103295631706715, 0.420240998268127, 0.008369335904717, 0.154995977878571, 0.085019111633301, 0.157299429178238, -0.316126316785812, 0.290840178728104, -0.478067457675934, 0.008134135976434, 0.623344659805298, -0.103904299438000, -0.456934928894043, 0.295714229345322, 0.635530173778534, 0.184131562709808, -0.209240168333054, 0.805070579051971, 0.705234646797180, -0.115517802536488, 0.406722337007523, 0.080409318208694, 0.261669516563416, -0.212551191449165, 0.315097659826279, 0.033047158271074, 0.262777209281921, 0.349338322877884, 0.120527297258377, 0.596952319145203, -0.512430608272552, 0.254994094371796, -0.346383363008499, 0.612279176712036, -0.815814018249512, 0.145029827952385, -0.618108391761780, 0.028077870607376, 0.523980438709259, 0.223492428660393, -0.102248229086399, -0.163724005222321, 0.254542052745819, -0.109094701707363, 0.009928564541042, 0.317585408687592, 0.000778459419962, -0.531153798103333, -0.289666384458542, 0.173734813928604, 0.297495543956757, 0.847923159599304, -0.394000560045242, 0.432847619056702, -0.298774182796478, -0.083251394331455, 0.429466575384140, 0.048158079385757, 0.403131693601608, 0.242865204811096, 0.438630729913712, 0.256100416183472, 0.416668564081192, -0.261733621358871, -0.198483794927597, 0.040693197399378, 0.145546704530716, -0.202704802155495, -0.974673867225647, 0.229870259761810, -0.089316077530384, 0.200243160128593, 0.173164948821068, -0.085076399147511, -0.195450007915497, 0.083653815090656, -0.031603567302227, -0.425073683261871, -0.198729947209358, -0.080070585012436, 0.233119323849678, -0.341477096080780, -0.085463479161263, -0.361446619033813, 0.169006809592247, -0.064154140651226, -0.387306034564972, -0.426262468099594, -0.352334558963776, -0.150852397084236, 0.223704114556313, 0.170232445001602, 0.307543694972992, 0.891242086887360, 0.031913533806801, -0.248672842979431, -0.013311886228621, -0.237730041146278, 0.142968609929085, 0.120666749775410, 0.340022295713425, 0.356076359748840, -0.026435818523169, -0.108203433454037, -0.022093255072832, -0.414098709821701, -0.139710441231728, 0.358588695526123, 0.003053814638406, -0.150690868496895, 0.000459208502434, 0.197001516819000, 0.358605086803436, 0.289763867855072, 0.358893424272537, 0.135198205709457, 0.013525838032365, 0.037685256451368, 0.103648886084557, 0.326520353555679, 0.329011291265488, 0.105210162699223, 0.026672840118408, 0.137362316250801, 0.331017464399338, 0.029915539547801, -0.230897739529610, 0.515670359134674, -0.506568193435669, 0.473126471042633, -0.624468803405762, -0.180085480213165, 0.064252875745296, -0.048259362578392, -0.284144341945648, -0.604815840721130, -0.415367901325226, -0.584991693496704, -0.075713768601418, -0.368891209363937, 0.241817578673363, 0.152306854724884, -0.139630481600761, 0.379447281360626, -0.321270197629929, 0.383476078510284, 0.063649140298367, -0.491201937198639, 0.208846226334572, -0.975778281688690, -0.708211481571198, -0.099318698048592, 0.661923825740814, 0.331693977117538, 0.226428806781769, -0.547046840190887, 0.381389558315277, 0.378938168287277, 0.426211118698120, -0.085277870297432, 0.142227783799171, 0.503752946853638, -0.867487072944641, 0.762723147869110, -0.459148854017258, -0.381567180156708, -0.096302695572376, -0.103840105235577, -0.363514244556427, -0.216162979602814, 0.228516399860382, -0.087498396635056, -0.175892114639282, -0.115207895636559, 0.005211207084358, -0.097887225449085, 0.033837798982859, 0.371769011020660, -0.003337758593261, -0.389062404632568, -0.120163984596729, -0.264864325523376, 0.070347763597965, -0.041760943830013, 0.383449047803879, -0.137618720531464, 0.251278370618820, 0.746008396148682, 0.151887729763985, -0.280887961387634, 0.204713821411133, 0.399805366992950, 0.447600483894348, -0.675173580646515, 0.752464771270752, 1.359869122505188, -0.144539728760719, -0.638383209705353, 0.091393642127514, -0.679692566394806, -0.185374617576599, 0.143823906779289, -0.141730591654778, 0.482307076454163, -0.098395578563213, 0.321844309568405, 0.411150157451630, 0.157109335064888, 0.021456450223923, -0.703027248382568, 0.108613878488541, 0.323656171560287, -0.407882362604141, 0.462573021650314, -0.243365600705147, -0.061892561614513, 0.584225594997406, -0.993322014808655, -0.658639311790466, 0.966878950595856, -0.509320497512817, -0.281610876321793, -0.356075704097748, 0.494583398103714, 0.625996768474579, -0.317044764757156, -0.240816265344620, 0.160406291484833, 0.376571774482727, 0.326728761196136, 0.344066172838211, 0.135444805026054, 0.563091933727264, -0.328056424856186, 0.512190699577332, -0.354842543601990, -0.248238563537598, -0.016778461635113, 0.143794640898705, 0.786319136619568, -0.050607379525900, 0.169189795851707, 0.488147854804993, -0.177631154656410, -0.439644962549210, -0.183950185775757, -0.150317132472992, -0.001096080406569, -0.131794035434723, -0.632427871227264, 0.644394755363464, -0.101514972746372, -0.471686124801636, -0.190569549798965, 0.033699590712786, -0.201468974351883, -0.183030918240547, 0.444443255662918, 0.264539211988449, 0.964775323867798, 0.035910036414862, -1.025799274444580, 0.366390794515610, 0.160773560404778, -0.122003205120564, -0.050655640661716, -0.202500537037849, 0.045793432742357, -0.007904193364084, -0.131963789463043, 0.637450277805328, -0.100750595331192, -0.113062940537930, 0.289036959409714, -0.232867836952209, 0.080762170255184, 0.243855386972427, -0.132001459598541, 0.032806999981403, 0.131660729646683, -0.289183527231216, 0.274653881788254, -0.092904359102249, -0.508213698863983, 0.084329016506672, -0.669889032840729, -0.204365104436874, 0.501101255416870, -0.390177875757217, -0.067691527307034, 0.389137685298920, 0.510849654674530, -0.411471068859100, -0.532264351844788, -0.576075911521912, 0.019611183553934, 0.093983717262745, 0.346529483795166, -0.022018427029252, -0.067557908594608, -0.013668855652213, 0.210029974579811, -0.101458325982094, -0.360232502222061, -0.359904408454895, 0.136243239045143, 0.207469433546066, -0.131099045276642, 0.116434134542942, 0.227347150444984, 0.147345229983330, 0.190784215927124, -0.014171670190990, -0.170752242207527, -0.554599106311798, -0.040395524352789, 0.258365124464035, 0.098461434245110, -0.254094421863556, 0.433789461851120, 0.056200325489044, 0.589187860488892, 0.886845290660858, 1.004863977432251, 0.305261164903641, 0.224415823817253, 0.408638715744019, -0.461016982793808, 0.407380908727646, 0.475044131278992, 0.101594977080822, -0.105596169829369, 1.060620069503784, -0.353414535522461, 0.295884460210800, -0.121346108615398, -0.046416830271482, -0.087998792529106, 0.187297374010086, 0.081303335726261, 0.334002196788788, 0.425498425960541, 0.300796300172806, 0.739312827587128, 0.258611679077148, 0.446648538112640, 0.295966237783432, 0.440021127462387, 0.821487605571747, 0.196356937289238, -0.482860088348389, 0.320457488298416, 0.106837011873722, -0.348554700613022, 0.805601954460144, 0.319042623043060, -0.454097390174866, 0.288286298513412, 0.060815364122391, 0.353901714086533, 0.390532881021500, 0.335064113140106, 0.656750679016113, 0.623059988021851, -0.129689425230026, -0.561109900474548, 0.515739679336548, 0.605186104774475, -0.620850741863251, 0.231855869293213, 0.261825650930405, -0.134090319275856, -0.433396726846695, 0.152512803673744, -0.454230993986130, -0.160847499966621, -0.716887354850769, -0.075899735093117, 0.085568927228451, 0.200395241379738, 0.249229192733765, -0.233684718608856, -0.672812640666962, -0.593192517757416, 1.367046952247620, -0.153901100158691, 0.067341253161430, -0.035093110054731, -0.088370062410831, -0.167182266712189, 0.215056911110878, 0.042373422533274, 0.259656935930252, 0.494657754898071, 0.131506040692329, 0.698266744613647, -0.023876596242189, -0.257071793079376, 0.852330923080444, -0.024473084136844, 0.501955866813660, -0.475880205631256, 0.395648539066315, 0.372900217771530, -0.139365866780281, 0.969719052314758, -0.549987971782684, -0.042301442474127, 0.822091162204742, -1.069581508636475, -0.359733939170837, -0.056160837411880, 0.154433935880661, 0.209203243255615, -0.158993959426880, -0.279397964477539, 0.031789671629667, 1.160519242286682, -0.530333995819092, -0.531673312187195, -0.115579240024090, -0.072167634963989, 0.770272135734558, 0.896466791629791, 0.280361443758011, 0.179283484816551, 0.527360618114471, -0.606391727924347, -0.516253888607025, -0.272910475730896, 0.159673973917961, -0.213412627577782, -0.496752768754959, 0.002445670776069, -0.206467092037201, 0.553956210613251, 0.392148733139038, 0.598202288150787, 0.292683809995651, -0.304170340299606, -1.043087482452393, -0.702621042728424, -0.496341586112976, -0.315410345792770, -0.498216718435287, -0.389246046543121, -0.270931303501129, 0.219622388482094, 0.418110042810440, -0.017163554206491, 0.235254436731339, -0.388190299272537, -0.111291036009789, -0.413087576627731, -1.194301962852478, -0.230722367763519, -0.324918717145920, 0.304171562194824, -0.004920327570289, 0.335281252861023, 0.278146952390671, 0.399786829948425, 0.132626920938492, 0.341440379619598, -0.400338768959045, 0.329504221677780, -0.660032093524933, 0.190629735589027, -0.140532776713371, -0.578021824359894, 0.312600791454315, 0.481879860162735, -0.214948982000351, -0.236540958285332, -0.020389340817928, 0.198102042078972, 0.452257454395294, -0.249053835868835, -0.060449428856373, 0.175259187817574, -0.221275314688683, -0.446321308612823, 0.436911076307297, 0.094822376966476, 0.030666964128613, -0.732311010360718, -0.045928176492453, 0.118938095867634, -0.125105604529381, -0.115212552249432, -0.053123630583286, -0.359524846076965, 0.054873123764992, -0.640635550022125, 0.012722346000373, 0.100516662001610, 0.881339013576508, 0.004609349183738, -0.461711704730988, -0.441213160753250, -0.361596077680588, 0.188598886132240, 0.087807521224022, -0.321010857820511, 0.018001606687903, -0.600130319595337, 0.019790874794126, -0.584332644939423, -0.341509521007538, 0.059656172990799, 0.211107775568962, -0.876126468181610, 0.146281003952026, 0.537577092647552, 0.077240094542503, 0.449820518493652, 0.317495524883270, 0.604612529277802, -0.213375046849251, -0.542688786983490, -0.223281681537628, 0.331743329763412, 0.171313613653183, 0.928954958915710, 0.279600083827972, -0.133535191416740, -0.627720415592194, 0.667118668556213, 0.092245407402515, -0.387511163949966, -0.623803079128265, -0.630454182624817, 0.208741143345833, -0.356642246246338, -0.178597986698151, -0.289000540971756, 0.044158961623907, 0.736695528030396, -0.082748070359230, -0.068890444934368, -0.395028203725815, -0.131449222564697, -0.223455503582954, -0.486073404550552, 0.721835136413574, -0.035403344780207, -0.202696844935417, 0.519466936588287, -0.049144405871630, -0.410841137170792, -0.114192776381969, -0.067810960114002, -0.135421916842461, 0.298217684030533, -0.125037789344788, 0.523196101188660, -0.260323464870453, -0.343341767787933, -0.796430945396423, 0.114474527537823, -0.657114207744598, -0.125317305326462, -0.151021659374237, -0.762543320655823, 0.499681293964386, -0.140788182616234, 0.529780566692352, -0.612807989120483, -0.231274053454399, -0.095398895442486, 0.048649486154318, 0.043937072157860, 0.416236788034439, -0.494321405887604, -0.319880962371826, -0.659135460853577, 0.833194911479950, -0.442916750907898, 0.613836705684662, -0.237999349832535, 0.523586273193359, -0.059030484408140, -0.165469795465469, -0.435038924217224, -0.136028066277504, 0.600249469280243, -0.445045948028564, -0.355226397514343, -0.016768159344792, -0.247093915939331, 0.052213396877050, 0.074021339416504, -0.860488891601562, 0.019261859357357, -0.304180860519409, -0.215528443455696, 0.170508682727814, 0.694080829620361, -0.714796304702759, -0.524144291877747, -0.339513719081879, -0.375521242618561, -0.076876863837242, 0.183752417564392, 0.438999027013779, 0.584351360797882, 0.286688238382339, 0.081648252904415, -0.368914872407913, 0.201467350125313, -0.117145113646984, -0.201589733362198, -0.435353934764862, -0.604809522628784, 0.547056913375854, 1.242943048477173, 0.080610804259777, -0.229328274726868, -0.323230803012848, -0.231957972049713, 0.211544811725616, 0.442434519529343, 0.237873852252960, 0.870026648044586, 0.051405888050795, 0.482796430587769, 0.220181107521057, 0.197688937187195, -0.310905635356903, 0.329983323812485, 0.718952357769012, -0.437845855951309, -0.620634496212006, -0.357197016477585, 0.161049515008926, 0.048117078840733, 0.071412041783333, 0.050769612193108, 0.142795845866203, 0.294073551893234, 0.320549309253693, 0.058024603873491, 0.047784939408302, -0.721898615360260, -0.011380232870579, -0.565637767314911, -0.317932128906250, -1.632807612419128, 0.177769377827644, -0.199773937463760, -0.206291481852531, -0.187941610813141, 0.093542993068695, 0.078431084752083, 0.179468199610710, 0.126798465847969, -0.637608528137207, 0.058206100016832, -0.795724451541901, -0.256749361753464, 0.069520585238934, -0.156984210014343, 0.351428300142288, 0.348800867795944, -0.326629817485809, -0.189726397395134, 0.048354174941778, 0.155539676547050, -0.025046503171325, 0.128672033548355, -0.278671592473984, 0.377381920814514, -0.050888195633888, -0.229818195104599, 0.094351522624493, -0.316930830478668, -0.076965026557446, -0.031834952533245, -0.129662737250328, 0.081351749598980, -0.395659297704697, 0.441398173570633, -0.114466637372971, -0.197370216250420, -0.070909537374973, 0.322626054286957, 0.029544971883297, -0.529664099216461, 0.000536862295121, -0.067534856498241, 0.110770061612129, -0.175930261611938, 0.917010128498077, 0.106748677790165, 0.068542726337910, -0.306305378675461, 0.313076555728912, 0.684612810611725, -0.243770033121109, -0.167521432042122, 0.033755891025066, 0.145009532570839, 0.679412901401520, -0.010020238347352, 0.419852346181870, -0.321634083986282, -0.700582444667816, 0.285945773124695, 0.745659410953522, -0.004039995372295, -0.045910440385342, 0.442915052175522, 0.016891006380320, 0.305632054805756, 0.261883378028870, -0.547572791576385, -0.549730539321899, 0.597231209278107, -0.125780552625656, 0.415329962968826, -0.800924003124237, 0.187521338462830, -0.807270407676697, -0.674089014530182, -0.563745260238647, -0.114566244184971, -0.504516184329987, 1.014130473136902, -0.472711682319641, 0.240044668316841, 0.031809996813536, 0.014626243151724, 0.184717759490013, -0.136363372206688, -0.330425679683685, -0.608519911766052, -0.281005531549454, -0.026516005396843, -0.487152814865112, -0.051006842404604, 0.784457981586456, -0.651512384414673, -0.367493718862534, -0.157819449901581, -0.578776359558105, -0.096949808299541, -0.322918027639389, 0.750120759010315, -0.349345505237579, -0.689972579479218, -0.839390575885773, -0.171923115849495, 1.057738900184631, -0.535888373851776, -0.628540873527527, 0.692484498023987, 0.883697152137756, 0.212503373622894, -0.214145243167877, -0.507530748844147, 0.458409667015076, -0.089865811169147, 0.145710662007332, -0.169625416398048, 0.166704401373863, 0.363191485404968, -0.417164653539658, -0.121781468391418, -1.020278573036194, 0.185344591736794, -0.473572790622711, 0.353147745132446, 0.134508386254311, 0.299760520458221, -1.018386960029602, 0.029124060645700, 1.072446107864380, -0.494916260242462, 0.076481014490128, 0.031004227697849, 0.287955313920975, 0.338383883237839, 0.611377954483032, 0.098362848162651, 0.471674174070358, -0.028947783634067, -0.626712322235107, 0.003820486599579, -0.946770131587982, 0.358812958002090, -0.140810713171959, 0.417847514152527, 0.133030205965042, 0.104574978351593, -0.065823681652546, 0.261881828308105, 0.101482406258583, 0.658393919467926, 0.018798246979713, -0.748095691204071, -0.529243946075439, -0.150043666362762, -0.123745590448380, 0.164999604225159, 0.326035976409912, 0.251316428184509, -0.435640186071396, 0.112828336656094, -0.442183494567871, 0.496959447860718, 0.266511529684067, -0.315938919782639, 0.195364058017731, 0.335078656673431, 0.351260900497437, 0.581432044506073, -0.865826606750488, -0.544777512550354, -0.469694644212723, -0.378587543964386, -0.215116664767265, -1.207701325416565, -0.064209103584290, -0.510843157768250, -0.409157902002335, -0.222065716981888, 0.319648623466492, 0.316348761320114, 0.052741669118404, 0.504875540733337, 0.607734322547913, -0.009816029109061, 0.385434508323669, 0.005484071560204, 0.058731760829687, 0.027918551117182, -0.229971870779991, 0.596195697784424, -0.314618468284607, 0.274329721927643, -1.286040544509888, -0.364836812019348, -0.038377676159143, -0.074933759868145, 0.167401596903801, 0.452568978071213, -0.192493543028831, 0.418113082647324, -0.492035448551178, -0.132973596453667, 0.342995733022690, 0.070782214403152, -0.448981076478958, -0.880045175552368, 0.402647554874420, -0.007016960997134, 0.317789286375046, -0.160388857126236, -0.268604159355164, -0.119473129510880, 0.281249910593033, 0.027537163347006, -0.325808316469193, -0.161012157797813, 0.320114672183990, 0.717428445816040, 0.024204626679420, 0.231062158942223, 0.324911862611771, 0.218595296144485, -0.039560459554195, -0.456677556037903, 0.518012464046478, -0.294652014970779, 0.505414664745331, 0.137226760387421, 0.278986275196075, 0.552434623241425, -0.028125703334808, -0.210153460502625, -0.141778096556664, -0.012543085031211, 0.049655161798000, -0.017579490318894, 0.270103484392166, 0.031231455504894, 0.295410782098770, 0.199207425117493, 0.119325794279575, -0.232265040278435, 0.015705741941929, -0.008399291895330, -0.398519366979599, -0.191275045275688, -0.056569129228592, -0.177456080913544, 0.412197947502136, 0.157289296388626, 0.145056337118149, -0.547599136829376, 0.683518826961517, -0.011759047396481, 0.337267428636551, -0.116643235087395, 0.128935903310776, -0.172951176762581, 0.387671798467636, 0.211840972304344, -0.416341722011566, -0.539820015430450, 0.011344914324582, -0.334071755409241, 0.113160155713558, -0.011262414976954, 0.569581627845764, -0.315553933382034, -0.649089217185974, -0.394639790058136, -0.311322569847107, -0.177416637539864, -0.672647893428802, 0.795989871025085, -0.359232395887375, 0.138282209634781, 0.235497161746025, 0.123824834823608, 0.024152975529432, -0.189830973744392, -0.111230574548244, -0.684390068054199, -0.355050623416901, -0.067190460860729, 0.488658100366592, 0.103812240064144, -0.109848044812679, -0.517265319824219, -0.109933681786060, -0.065225563943386, -0.592970013618469, 0.251536011695862, 0.605478823184967, 0.048180732876062, 0.060885474085808, 0.154222548007965, 0.207160755991936, -0.302345365285873, 0.099966704845428, -0.086298733949661, 0.482586234807968, -0.379567950963974, 0.318492710590363, -0.703612804412842, -0.393995016813278, 0.831552386283875, 0.444015443325043, -0.631201267242432, -0.026556063443422, 0.065525822341442, 0.209736943244934, 0.091180972754955, -0.055514469742775, -0.092901468276978, -0.075687564909458, -0.361760407686234, -0.023282840847969, -0.128096744418144, 0.066093362867832, -0.057670149952173, 0.483434408903122, -0.623248219490051, 0.816157937049866, -0.275356620550156, 0.469110250473022, -0.816543638706207, -0.275572478771210, -0.082597456872463, 0.175275579094887, -0.708067715167999, -0.623831212520599, 0.267253100872040, 0.430206418037415, -0.052355356514454, 0.549127638339996, -0.715475678443909, -0.093862958252430, 0.023919442668557, -0.003129247343168, 0.131045758724213, -0.770712435245514, -0.207411319017410, -0.402045607566833, -0.650334894657135, -0.058642838150263, -1.017258882522583, 0.374984055757523, -0.009331756271422, 0.599397361278534, 0.101817891001701, 0.219681933522224, 0.278576284646988, -0.155799970030785, -0.126618206501007, -0.339705765247345, -1.275500416755676, 0.038110412657261, 0.090603254735470, -0.066455192863941, 0.076920442283154, 0.015330794267356, 0.486834019422531, -0.672626078128815, 0.177060216665268, -0.033455226570368, -0.246559396386147, 0.980620980262756, -0.216213464736938, -0.234161481261253, -0.318585455417633, -0.317371308803558, -0.232295304536819, -0.490549594163895, -0.767455756664276, -0.250321507453918, -0.005403771530837, 0.720604062080383, 0.150067970156670, -0.806024670600891, -0.377616047859192, -0.156567856669426, 0.256338030099869, 0.370182126760483, -0.166935637593269, -0.355815887451172, -1.407471418380737, 0.569191575050354, -0.228751704096794, -0.357772558927536, 0.123048506677151, 0.245032623410225, -0.342716544866562, -0.160897538065910, 0.576101422309875, -0.504452347755432, 0.219292610883713, 0.099556297063828, -0.105913572013378, -0.335499256849289, 0.163827076554298, 0.433459162712097, -0.258757948875427, -0.044496946036816, 0.389902979135513, -0.128603845834732, -0.217331916093826, -0.163887947797775, 0.020438017323613, 0.075735114514828, 0.406000286340714, 0.388026684522629, -0.442139446735382, 0.562859892845154, 0.226645201444626, -0.321437150239944, 0.354262799024582, 0.146867498755455, 0.091562807559967, 0.144781827926636, -0.247225731611252, -0.032345082610846, 0.516674339771271, -0.150572896003723, -0.308598935604095, 0.109850771725178, 0.249731615185738, -0.475791871547699, 0.028394168242812, -0.435667902231216, 0.197267115116119, 0.345175653696060, -0.146328181028366, -0.619989097118378, 0.048282139003277, -0.000880680338014, -0.381665855646133, 0.135918468236923, -0.249237686395645, -0.096434697508812, 0.676911056041718, -0.309060007333755, 0.460001945495605, 0.544572949409485, -0.045696243643761, -0.269595175981522, -0.099859975278378, 0.564807713031769, -0.481944292783737, -0.051075190305710, 0.171744897961617, 0.019333509728312, -0.337843120098114, -0.381698668003082, 0.044644840061665, -0.751884520053864, 0.152946710586548, -0.378287643194199, 0.012304312549531, -0.159719318151474, -0.052406270056963, 0.673744857311249, 0.609964370727539, 0.208680033683777, 0.962918877601624, 0.356142222881317, 0.104955792427063, 0.142140686511993, 0.028536049649119, 0.534607231616974, -0.133576259016991, 0.217463731765747, 0.351118534803391, -0.095336399972439, 0.135894179344177, 0.192066982388496, -0.763648331165314, -0.311750471591949, 0.462525695562363, -0.131224498152733, 0.103756763041019, -0.826616525650024, -0.069843232631683, -0.480241954326630, 0.293561309576035, 0.176752433180809, 0.172301396727562, 0.508213758468628, 0.864300727844238, -0.818980872631073, -0.264953732490540, 0.507292628288269, -0.175535634160042, 0.584812700748444, 0.815950214862823, 0.475177973508835, 0.335396021604538, 0.416955769062042, -0.759006023406982, -0.055136967450380, 0.171901166439056, 0.376278668642044, -0.181082427501678, -0.157024845480919, -0.593636751174927, 0.640197455883026, 0.524982035160065, 0.166299715638161, -0.456925779581070, -0.048257078975439, -0.163924515247345, 0.267985463142395, 0.311595976352692, 0.744279742240906, 0.401465028524399, -1.138625860214233, 0.833796381950378, 0.437914699316025, 0.326151430606842, 1.208157420158386, -0.237855494022369, -0.433945357799530, -0.431126177310944, 0.884696543216705, -0.341534167528152, 0.267763048410416, -0.254553377628326, 0.127602234482765, -1.042497038841248, 0.190900385379791, -0.485099792480469, -0.863938868045807, -0.018634939566255, 1.011474609375000, 0.248706012964249, -0.334966421127319, 0.181126996874809, 0.570327341556549, 0.586812853813171, -0.609112381935120, -0.052693009376526, 0.198989480733871, -0.310022264719009, 0.538831055164337, -0.364107400178909, 0.055118434131145, 0.251084804534912, 0.497021496295929, -0.298758745193481, 0.501255273818970, 0.408445358276367, 0.442306607961655, 0.156778886914253, 1.287099003791809, 0.343572258949280, -0.046498138457537, -0.379898369312286, -0.003035759320483, 0.663325011730194, -0.433174550533295, 0.740914762020111, -0.136913314461708, 0.395247191190720, -0.229475453495979, -0.206237867474556, -0.309444338083267, -0.021865770220757, 0.452998727560043, 0.303025633096695, 0.616564512252808, -0.183341428637505, -0.042328439652920, -0.110438548028469, -0.125855818390846, -0.207161799073219, -0.900010764598846, -0.220544889569283, -0.303460061550140, 0.301814913749695, -2.299862146377563, 0.516343474388123, -0.054608091711998, 0.192410334944725, -0.140308469533920, 0.663006365299225, -0.932378649711609, 0.304345101118088, -0.684183776378632, 0.050540383905172, 0.230871766805649, -0.303394943475723, 0.241931468248367, -0.285559952259064, -0.362146139144897, 0.027329362928867, -0.634061157703400, -0.120108395814896, 0.351674497127533, -0.603124737739563, -0.129372939467430, 0.699112176895142, -0.149002000689507, 0.315728604793549, 0.044558312743902, 0.170522496104240, 0.095313787460327, -0.279216051101685, 0.344161540269852, -0.105957701802254, -0.685507953166962, -0.261833429336548, -0.094222083687782, -0.327863097190857, -0.292071849107742, -0.762428104877472, 0.099188588559628, 0.268955677747726, 1.085136890411377, 0.104051262140274, -0.161229759454727, -0.389296561479568, -0.691820979118347, 0.121328152716160, 0.775858283042908, -0.264289528131485, -0.249343648552895, 0.348588943481445, -0.101626142859459, -0.038483109325171, -0.547719836235046, 0.552218914031982, 0.184984073042870, -0.824750125408173, -0.681186258792877, 0.388317376375198, -0.831356108188629, 0.051415398716927, -0.952991187572479, -0.648495972156525, -0.255479574203491, -0.374344229698181, -0.284811735153198, -0.194857001304626, 0.022820604965091, -0.261172145605087, -0.210036858916283, -0.011204109527171, -0.883751690387726, -0.360448479652405, -0.538061320781708, -0.594999372959137, -0.072422377765179, -0.828368961811066, 0.013271545059979, 0.012591667473316, -0.356561660766602, -0.568060696125031, 0.101073868572712, 0.074144385755062, -0.387009561061859, -0.748493552207947, -0.663289964199066, -0.701284468173981, -0.091577470302582, -0.280848503112793, -0.020884795114398, -0.444257527589798, -0.420620858669281, -0.022377746179700, -0.108569242060184, -0.503992319107056, -0.947012245655060, -0.183279410004616, -0.307848304510117, -0.438384741544724, -0.386680632829666, -0.807882964611053, 0.188553139567375, -0.751385509967804, -0.419220924377441, 0.025128705427051, -0.524128079414368, -0.757991790771484, -0.707457304000854, -0.991590619087219, -0.305871903896332, -0.270904600620270, -0.792067348957062, -0.249340534210205, -0.753885149955750, -0.385481595993042, -0.472258359193802, -0.311112791299820, -0.268670439720154, 0.088750578463078, 0.321713984012604, 0.273601025342941, 0.865123331546783, 0.290190130472183, 0.424792170524597, -0.325984150171280, 0.329005211591721, 0.030277196317911, -0.474155426025391, -0.114661492407322, 0.230854496359825, 0.663169980049133, 0.448349922895432, -0.877705454826355, 0.479446619749069, 0.112701334059238, 0.739732205867767, 0.450733780860901, 0.062566101551056, 0.260502099990845, -0.131397366523743, 0.378653913736343, -0.481736093759537, 0.979840934276581, 0.542872905731201, -0.609356284141541, 0.124063260853291, -0.150406032800674, 0.190228626132011, -0.111764214932919, 0.128227069973946, 0.643123924732208, -0.302548199892044, -0.239880278706551, 0.520277738571167, -0.244781568646431, 0.323942065238953, -0.053341329097748, 0.207468107342720, -0.107834987342358, -0.004898157436401, 0.004035637248307, 0.316851556301117, -0.298966675996780, 0.475714683532715, 0.645515322685242, 0.705753862857819, 0.608307838439941, 0.335885256528854, 1.335225582122803, -0.427822917699814, -0.069554410874844, 0.233899012207985, 0.259477138519287, 0.258190959692001, 0.269943296909332, -0.020877473056316, -0.174982294440269, -0.327493637800217, -0.388592869043350, -0.024238804355264, -0.211912631988525, -0.160861626267433, 0.095653958618641, 0.607035219669342, 0.183351308107376, 0.004973592702299, 0.135469570755959, 0.091132707893848, -0.697564005851746, -0.071099385619164, -0.079464390873909, 0.111561857163906, -0.177041515707970, 0.248429208993912, -0.069898180663586, 0.201041921973228, -0.634185910224915, 0.517048656940460, 0.296474695205688, 0.256137102842331, -0.284959405660629, -0.242679551243782, -0.124429300427437, -0.319954454898834, -0.005746966693550, 0.023174962028861, -0.359035164117813, 0.011519717052579, -0.047878868877888, 0.609493792057037, 0.117545485496521, -0.444138705730438, -0.227190017700195, -0.111300647258759, -0.028345927596092, -0.062869302928448, 0.498964995145798, 0.087201967835426, -0.061613831669092, -0.092594072222710, -0.087027616798878, -0.066506110131741, -0.152518182992935, -0.325382858514786, 0.189794987440109, -0.049005396664143, 0.300633281469345, 0.028331654146314, 0.247937545180321, -0.408609390258789, -0.209836676716805, -0.030822372063994, -0.497036606073380, -0.119742110371590, -0.722664654254913, 0.048702348023653, -0.138397648930550, -0.090164251625538, 0.050882637500763, -0.032820485532284, -0.456515699625015, 0.472090601921082, -0.084604784846306, -0.009566840715706, -0.279965937137604, -0.042021233588457, 0.197553321719170, -0.269361406564713, -0.435213744640350, 0.419193834066391, 0.235207349061966, -0.687924802303314, -0.510578989982605, -0.486447364091873, 0.555190920829773, -0.019721150398254, 0.475367993116379, -0.252126604318619, 0.341544747352600, -0.255731463432312, 0.160940468311310, -0.462340950965881, -0.520870268344879, -0.263025075197220, -0.143492728471756, -0.212526768445969, -0.622170865535736, -0.201829358935356, -0.156964942812920, -0.194592356681824, -0.137036725878716, -0.386608779430389, -0.063951343297958, -0.434503734111786, -0.095106758177280, -0.052068941295147, 0.281717956066132, -0.315750271081924, -0.489523380994797, -0.116986662149429, -0.749737381935120, -0.160242125391960, 0.175386771559715, -0.475025862455368, -0.231552019715309, -0.292430639266968, -0.796199679374695, -0.493473768234253, -0.134686604142189, 0.032550450414419, -0.126293435692787, 0.445961475372314, -0.312077641487122, -0.657885432243347, 0.697273433208466, -0.214805886149406, 0.148623511195183, 0.550597608089447, 0.205812647938728, -0.420194178819656, -0.181418880820274, -0.056726153939962, 0.236006066203117, 0.285139709711075, -1.113924741744995, 0.140081301331520, 0.397699058055878, 0.380829006433487, -0.038207110017538, -0.181507274508476, 0.004792986903340, 0.115129269659519, -0.186772242188454, 0.190893724560738, -0.007824213244021, 0.266308307647705, -0.041293766349554, 0.030507877469063, -0.276198744773865, 0.031848337501287, -0.211111485958099, -0.114903360605240, 0.148229196667671, 0.877047598361969, -0.167921513319016, -1.845734119415283, 0.446345984935760, 0.162294775247574, 0.429509460926056, -0.353642433881760, -0.036166515201330, 0.369230657815933, -0.805339515209198, -0.422332406044006, -0.452755123376846, -0.849610626697540, 0.730558991432190, -0.398134797811508, 0.093570724129677, -0.106406338512897, -0.693649888038635, 0.049721870571375, -0.530507087707520, -0.138132408261299, 0.149773344397545, 0.106212988495827, 0.817525744438171, 0.239735767245293, 0.144017070531845, -0.054073642939329, -0.389958232641220, -0.100833363831043, -0.576301217079163, 0.074651144444942, -0.220130011439323, 0.235041260719299, 1.594198346138000, 0.783233106136322, -0.702117383480072, 0.212508589029312, 0.417890816926956, -0.357353895902634, 0.355903118848801, 0.111824192106724, 0.422087728977203, 0.225524902343750, 0.346593111753464, 0.515593290328979, 0.265403091907501, 0.329268425703049, 0.645603060722351, 0.280064374208450, 0.194279491901398, -0.263426750898361, 0.328823745250702, 0.088426336646080, -0.063254468142986, -0.957081019878387, 0.010466516949236, 0.747334718704224, -0.003308790037408, -0.154568746685982, -0.874059975147247, 0.150453433394432, 0.140540286898613, 0.146416142582893, 0.167124569416046, 0.786356031894684, 0.232445418834686, -2.046664714813232, 0.398718088865280, -0.307204991579056, -0.315102398395538, -0.198068067431450, -0.066832095384598, -1.051578760147095, -0.376820743083954, 0.154790684580803, 0.321829229593277, 0.393207371234894, -0.176859825849533, -0.405169188976288, 0.745402812957764, -0.603281497955322, 0.200861051678658, 0.098572939634323, -0.000358714081813, -0.693891823291779, 0.394707709550858, 0.484772413969040, -0.952379107475281, -0.075170509517193, -0.306979298591614, 0.258409231901169, 0.045913860201836, 0.474777579307556, 0.511889815330505, -0.110777713358402, 0.324249923229218, 0.414344161748886, 0.321396708488464, -0.508147716522217, 0.695475161075592, 0.017307786270976, -0.575232207775116, 0.177530914545059, 0.041958156973124, 0.212968096137047, -0.441990345716476, 0.404155969619751, -0.384908884763718, 0.261978864669800, -0.256320983171463, 0.278892070055008, 0.012333954684436, 0.323502808809280, -0.498423933982849, 0.238265007734299, 0.066035173833370, -0.376818507909775, -0.342867434024811, -0.319821894168854, 0.089167132973671, 0.354606717824936, 0.002475162036717, 0.049092862755060, -0.167482078075409, 0.287164092063904, 0.296523541212082, -0.027359828352928, -0.107857391238213, -0.003556476207450, 0.339241415262222, -0.045952979475260, -0.235376998782158, 0.369428247213364, -0.618661761283875, 0.564342916011810, 0.300210207700729, -0.569949686527252, 0.250071406364441, -0.923795461654663, 0.068914830684662, -0.362698674201965, 0.014059839770198, 0.677939414978027, 0.148323595523834, 0.725384771823883, 0.390295594930649, 0.035831186920404, 0.498916417360306, -0.227727904915810, -0.429366230964661, -0.564639031887054, -0.378150552511215, 0.303731083869934, -0.839836299419403, 0.101571872830391, -0.596907019615173, 0.430035203695297, -0.292005807161331, -0.022535558789968, 0.241374313831329, 0.419189751148224, -0.099624462425709, 0.611521422863007, -0.276483356952667, -0.041473437100649, 0.355070203542709, 0.230522036552429, -0.435220062732697, 0.150318026542664, -0.038763560354710, 0.193013489246368, 0.647406995296478, -0.067936025559902, 0.100168257951736, -0.103013038635254, 0.224103033542633, 0.126018121838570, 0.471301853656769, 0.661210656166077, 0.034907624125481, -0.031822480261326, 0.069880455732346, -0.177223116159439, -0.360045760869980, 0.141344368457794, -0.831760883331299, -0.698913395404816, -0.659603118896484, -0.502283453941345, -0.349901318550110, -0.572754621505737, -0.761896252632141, 0.536386489868164, 0.105509616434574, 0.189951941370964, -1.494396090507507, -0.035105139017105, 0.392141014337540, -0.045427422970533, -0.201470687985420, -0.241381525993347, -0.063857659697533, 0.520155251026154, -0.100186586380005, -1.033659815788269, -0.058728769421577, -0.620150804519653, 0.220407545566559, -0.051120754331350, 0.166969329118729, -0.912728607654572, 0.006334490142763, -0.354707688093185, -0.457389980554581, 0.052663329988718, -0.849563419818878, -0.594074308872223, 0.027837004512548, -0.698137283325195, -0.282238930463791, -0.738885045051575, -0.018282432109118, 0.595424771308899, 1.006289958953857, -0.074042432010174, 0.375044912099838, 0.530631542205811, 0.140695646405220, -0.429108470678329, -0.490282952785492, 0.057665117084980, -0.443863779306412, -0.351862788200378, -0.229391708970070, -0.575459599494934, -0.301641106605530, 0.401596546173096, -0.441222816705704, 0.288907706737518, 0.462714463472366, -0.259105175733566, 0.214540556073189, -0.779918074607849, -0.066436171531677, -0.230416044592857, -0.224218606948853, 0.581746339797974, -0.354184865951538, 0.513460040092468, -0.054452028125525, 0.287199974060059, 0.168842762708664, 0.484543681144714, -0.031130183488131, 0.212765008211136, 0.053360801190138, 0.190949022769928, 0.697921037673950, 0.548572719097137, -1.270146965980530, -0.255256295204163, -0.079831317067146, -0.016962468624115, -0.109569966793060, -0.409707248210907, 0.076441302895546, -0.388464748859406, -0.117977350950241, 0.090762786567211, -0.074010670185089, -0.038014747202396, 0.561072468757629, 0.267171710729599, 0.032585263252258, -0.041806705296040, 0.077030561864376, 0.079498797655106, 0.733005940914154, 0.235442236065865, 0.230731442570686, 0.488955736160278, 0.333838164806366, -0.349143594503403, -0.090110078454018, 0.683361768722534, 0.123501531779766, 0.269247978925705, -0.753668367862701, 0.488613903522491, 0.334634214639664, -0.915721654891968, 0.738364517688751, -0.469304472208023, -0.259531587362289, 0.042837966233492, 0.430955648422241, -0.099716603755951, -0.076499991118908, 0.076255306601524, -0.711426734924316, -0.415238738059998, 0.023356569930911, -0.226304098963737, -0.034088782966137, 0.168980926275253, 0.478951066732407, 0.020734490826726, 0.308398216962814, -0.483685165643692, -0.075023643672466, 0.264281302690506, -0.178244143724442, 1.311663150787354, -0.135548338294029, 0.256033688783646, -0.162121310830116, 0.280795991420746, 0.394333750009537, 0.225973457098007, 0.167325064539909, -0.199586808681488, 0.229425251483917, 0.340453177690506, 0.195073932409286, -0.150005161762238, -0.068919971585274, 0.108878731727600, 0.546125710010529, 0.974584758281708, 0.126165717840195, -0.480330646038055, 0.181347742676735, 0.254919081926346, -0.420250505208969, -0.434676378965378, 0.597429752349854, -0.211271226406097, 0.323619872331619, -0.401457250118256, 0.061344303190708, -0.055021531879902, 0.088342301547527, 0.177259281277657, 0.233605965971947, 0.207735970616341, 0.028856832534075, 0.772064983844757, 0.396728575229645, 0.151025980710983, -0.329106926918030, 0.069554515182972, 0.733338236808777, 0.282403469085693, 0.016962233930826, -0.116912364959717, -0.041962359100580, -0.628044128417969, -0.105738714337349, 0.879637420177460, 0.104292705655098, 0.443290144205093, 0.043989002704620, -0.330759137868881, 0.036900028586388, 0.364235311746597, -0.771144509315491, 0.202168390154839, -0.170157283544540, -0.056554015725851, 0.026569388806820, 0.297733813524246, 0.026330964639783, -0.331534862518311, -0.136662021279335, -0.570636570453644, -0.046247456222773, -0.104694373905659, -1.411246538162231, -0.134650856256485, 0.041230745613575, 0.003217362333089, -0.529089093208313, 0.159129291772842, -0.501190781593323, 0.246352851390839, 0.750766932964325, -0.599425256252289, -0.310044020414352, 0.504874110221863, -0.231534004211426, 0.048506181687117, -0.550303518772125, -0.506759583950043, -0.584031045436859, -0.011752719990909, -0.357710123062134, -0.168940171599388, 0.287562191486359, 0.499595910310745, 0.626204311847687, -0.399181991815567, -0.116643801331520, 0.386925399303436, -0.153131335973740, -0.067093394696712, -0.267581343650818, 0.223860919475555, 0.171604543924332, 0.154357582330704, 0.097545191645622, -0.063150458037853, -0.538423657417297, -0.169268488883972, 0.295803546905518, -0.659028351306915, -0.432651162147522, -0.439238905906677, 0.499802976846695, -0.740397274494171, -0.459114253520966, -0.747838616371155, -0.865623354911804, -0.393079906702042, -0.450795024633408, -0.038002397865057, -0.490802079439163, -0.730407178401947, -0.095193140208721, 0.523804724216461, -0.348872989416122, -0.271097481250763, 0.867902874946594, 0.083923459053040, -0.340524405241013, 1.196371436119080, 0.128341585397720, -0.013017108663917, 0.557943880558014, -0.167064741253853, -0.170568704605103, -0.445867806673050, -0.357961297035217, 0.211293190717697, 0.063342392444611, 0.006655574310571, -0.218777999281883, 0.209707036614418, 0.101852193474770, -0.308686584234238, 0.299595713615417, 0.280421048402786, 0.292211890220642, -1.936148881912231, 0.094917334616184, -0.390079021453857, 0.560993373394012, 0.790301084518433, -0.007164014969021, 0.315582096576691, 0.142944037914276, -0.240701705217361, -0.054806530475616, -0.349675029516220, -0.389638215303421, -0.551451861858368, 0.150394380092621, -0.107660517096519, 0.197605192661285, -0.257960885763168, 0.146143943071365, -0.498713433742523, -0.499195277690887, -0.417072325944901, 0.126138448715210, -0.308119118213654, 0.488240420818329, -0.251479148864746, -0.736379444599152, 0.201623812317848, -0.261940807104111, 0.058237861841917, -0.171898081898689, 0.328628838062286, 0.651532411575317, -0.248733490705490, -0.147382467985153, -0.147106781601906, -0.179377302527428, 0.350301176309586, -0.223626732826233, 0.561411678791046, 0.147552803158760, -0.387017756700516, 0.767497479915619, -0.171893760561943, 0.371851146221161, -0.027583397924900, 0.211983576416969, 0.466864377260208, 0.200237795710564, 0.336444348096848, 0.205684885382652, -0.055715419352055, -0.063502006232738, 0.199029758572578, 0.158210247755051, -0.263853549957275, 0.083653196692467, -0.773932337760925, 0.260694980621338, 0.197252497076988, -0.070641249418259, -0.600301563739777, -0.405113130807877, 0.150608137249947, 0.160728871822357, -0.243595942854881, -0.655342042446136, 0.471474677324295, -0.777749300003052, 0.682268023490906, 0.200544506311417, -0.311438381671906, -0.146605223417282, 0.785887122154236, 0.654119610786438, 0.246367022395134, -0.023140756413341, -0.233288273215294, -0.287823081016541, -0.252829611301422, -0.432401984930038, -0.088357508182526, 0.181280478835106, -0.158892348408699, -0.248944133520126, 0.611122846603394, -0.256499111652374, 0.456929773092270, 0.194017156958580, -0.054984237998724, 0.240059688687325, 0.325180619955063, 0.151810646057129, 0.014420633204281, 0.497291892766953, 0.287743598222733, -0.528621435165405, 0.041232541203499, 0.675852000713348, 0.117829129099846, -0.395700305700302, 0.277892231941223, -0.291753560304642, 0.159415796399117, 0.355852782726288, 0.552931129932404, -0.881270170211792, -0.282094776630402, -0.045410990715027, 0.198974370956421, 0.360386103391647, -0.448052942752838, -0.053835645318031, -0.262684434652328, -0.564106464385986, -0.683825492858887, -1.188925981521606, 0.071171671152115, -0.256735563278198, -0.211281016469002, -0.194012254476547, -0.462554991245270, 0.258554667234421, 0.103147029876709, 0.214855492115021, 0.705067992210388, -0.510931849479675, -0.257833182811737, -0.224270284175873, -0.333437979221344, 0.497590601444244, -0.531178891658783, 0.352640360593796, 0.190835952758789, -0.618572413921356, 0.709883511066437, 1.070749044418335, -0.332595497369766, 0.500888884067535, -0.564924240112305, 0.217844352126122, 0.807441771030426, 0.230773612856865, -0.432095795869827, 0.343598067760468, -0.321314662694931, -0.497840881347656, -0.302285879850388, 0.000716624548659, 0.195929870009422, 0.584054112434387, -0.431173622608185, 0.113907061517239, 0.337874323129654, -0.012478199787438, 0.053384389728308, -0.172278553247452, 0.704774022102356, -0.334879279136658, 0.206011816859245, -0.820852220058441, 0.178232908248901, -0.310682058334351, -0.448420584201813, 0.279378175735474, 0.093404926359653, 0.042466305196285, -1.141247391700745, -0.312748461961746, -0.734708845615387, -1.039939880371094, 0.812360823154449, -0.430729627609253, 0.371271520853043, -0.574574887752533, 1.208166956901550, -0.021914951503277, -0.032040473073721, 0.386164277791977, -0.104663185775280, -0.012792496010661, 0.414098352193832, -0.621212482452393, -0.034673325717449, -0.071154147386551, -0.582193911075592, 0.048648618161678, -0.060663491487503, 0.036519017070532, 0.150186032056808, 0.138464778661728, 0.041272301226854, -0.040383905172348, -0.250659465789795, -1.407656073570251, -0.079640783369541, -0.279425382614136, -0.402065455913544, -0.281877100467682, -0.044635094702244, -0.557305097579956, 0.483142644166946, -0.785298228263855, 0.068097688257694, -0.239679411053658, 0.183657735586166, -0.269158154726028, 0.054215535521507, 0.460692226886749, 0.485056519508362, 0.516648948192596, 0.085045926272869, -0.166672497987747, -0.488872349262238, 0.219879314303398, 0.328154146671295, -0.115959145128727, 0.513074100017548, -0.030373491346836, -0.550010740756989, -0.389955699443817, 0.564382910728455, -0.235887378454208, 0.059039816260338, -0.273947805166245, 0.061330322176218, 0.414751976728439, 0.281344711780548, -0.247967079281807, 0.105045884847641, -0.198843955993652, 0.146063476800919, -0.122669316828251, 0.459749788045883, 0.374876320362091, 0.058300912380219, 0.187755256891251, 0.150681540369987, 0.109326213598251, -0.317298918962479, 0.158043295145035, 0.035583779215813, -0.429125964641571, -0.707807004451752, -0.732926845550537, -0.527207791805267, -0.448657661676407, -0.514053761959076, -0.111555077135563, -0.183796048164368, -0.185010895133018, -0.601257264614105, 0.056085143238306, 0.655258655548096, 0.070792235434055, 0.274490803480148, 0.288256853818893, 0.110794529318810, 0.329520344734192, -0.343699455261230, 0.061829000711441, -0.607859253883362, -0.276726305484772, -0.278898686170578, 0.840987145900726, -0.016950244084001, -0.636341214179993, 0.659701168537140, -0.350214600563049, -0.348727762699127, 0.133093088865280, 0.068548589944839, 0.315077066421509, 0.405012637376785, -0.122033618390560, -0.694169282913208, -0.430653750896454, 0.434275507926941, 0.232940703630447, -0.409145385026932, 0.484459817409515, -0.204502969980240, 0.076564811170101, -1.102211952209473, -0.506040513515472, 0.129899069666862, -0.260895341634750, -0.207624018192291, 0.283399879932404, 0.037775803357363, -0.415663182735443, 0.222290113568306, -0.063641883432865, -0.199078470468521, -0.205523923039436, -1.068608164787292, -0.546657919883728, -0.364046037197113, -0.900007724761963, -0.376123160123825, -0.991619825363159, 0.003849235130474, 0.482671648263931, -0.723521351814270, -0.554863154888153, -0.295847475528717, -0.198148041963577, 0.712668895721436, 0.069335363805294, -0.819574356079102, 0.633480727672577, 0.109289862215519, -0.226899564266205, 1.176034569740295, -0.182584807276726, 0.189097255468369, -0.199407786130905, -0.033133599907160, 0.106319233775139, -0.117993593215942, 0.078049629926682, -0.924977719783783, -0.431991308927536, 0.745643794536591, 0.120265074074268, 0.665290355682373, -0.028003118932247, -0.163527429103851, -0.239431753754616, 0.712469041347504, 0.347583115100861, 0.668643474578857, 0.588554620742798, -0.020007867366076, 0.156899556517601, 0.491114795207977, -0.835352957248688, -0.067164987325668, 0.944692552089691, -0.349301606416702, 0.630650043487549, -0.271789014339447, 0.229356795549393, -0.256106644868851, -0.325594097375870, 0.680330812931061, -0.327379047870636, 0.356630295515060, -0.337367892265320, -0.613963127136230, -0.778912544250488, 0.047511748969555, -0.229955479502678, -0.258648842573166, -0.626501381397247, 0.480169385671616, -0.390269190073013, -0.033116571605206, 0.683154821395874, -0.197091206908226, -0.248259752988815, -0.513934850692749, -0.316136896610260, -0.061841897666454, 0.940781295299530, -0.183436408638954, -0.675989925861359, -0.171181708574295, -0.131779223680496, -0.361629277467728, 0.444868922233582, -0.141723468899727, -0.309307128190994, 0.791158080101013, 0.237791687250137, -0.469665616750717, 0.153578415513039, 0.148605629801750, 0.067466504871845, -0.177339032292366, 0.329863339662552, 0.398530274629593, -0.323852092027664, 0.167852982878685, 0.466987937688828, 0.297673135995865, -0.020021753385663, -2.493095159530640, 0.181702062487602, -0.352067142724991, -0.457380682229996, 0.158016458153725, -0.111852720379829, -0.412535369396210, 0.432502537965775, 0.019771696999669, 0.691119968891144, -0.100974470376968, -0.466914713382721, -0.845049440860748, -0.205012306571007, 0.082771919667721, -0.402722835540771, -0.461129158735275, -0.844566524028778, -0.200998559594154, 0.114076547324657, 0.178550809621811, 0.698697328567505, -0.101635903120041, 0.077758915722370, -0.586362183094025, 0.065675944089890, -0.130534291267395, 0.076032832264900, -0.152372643351555, -0.526347517967224, -0.154969483613968, -0.394562989473343, 0.668558359146118, 0.195117130875587, 0.416786819696426, 1.677607655525208, 0.226995378732681, -0.478885084390640, -0.063926838338375, 0.250114053487778, 0.396194547414780, -0.263752102851868, 0.353344142436981, -0.269563943147659, -0.027141595259309, 0.491568505764008, 0.185553446412086, -0.232464879751205, 0.272451192140579, -0.252153635025024, -0.186232656240463, 0.217115491628647, 0.206960648298264, -0.494390726089478, -0.492587625980377, -0.563148736953735, -0.056235164403915, -0.059283956885338, -0.557994067668915, -0.012194445356727, -0.116806559264660, 0.230605587363243, -0.151375293731689, -0.073716066777706, -0.692232668399811, -0.073331214487553, -0.701003968715668, -0.654150128364563, -0.727947771549225, -0.694275498390198, -0.315709412097931, -0.291794449090958, 0.126362204551697, 0.657241940498352, 0.082141071557999, -0.600365340709686, -0.328314393758774, -0.319607168436050, -1.134901881217957, -0.427949219942093, 0.064355649054050, -0.140064865350723, -0.586549103260040, -0.382409811019897, 0.049722481518984, -0.334760516881943, -0.145184844732285, -1.019291400909424, -0.773323833942413, -0.417711824178696, 0.275575608015060, -0.797169625759125, 0.139151826500893, -0.060402318835258, 0.211993619799614, -0.302340805530548, 0.412459373474121, -0.363454937934875, -0.308593571186066, -0.690205037593842, -0.086949571967125, -0.454724282026291, -0.237338244915009, -0.778625965118408, -0.722697794437408, -0.618518352508545, 0.577631890773773, -0.142711877822876, -0.628218770027161, 0.060686107724905, 0.094944015145302, 0.446887135505676, -1.256984949111938, -0.485385984182358, -0.126108601689339, -0.044053975492716, 0.247349351644516, 0.124399587512016, -0.433518290519714, 0.475091457366943, 0.318341284990311, -0.340154349803925, -0.515196800231934, 0.117739826440811, -0.223443523049355, 0.461959034204483, -0.444216728210449, -0.165670156478882, -0.248926639556885, 0.262722134590149, -0.308846056461334, -0.555079758167267, -0.697162091732025, -0.444627791643143, -0.116148464381695, 0.464842498302460, -1.082495450973511, 0.661239981651306, -1.025055885314941, 0.177552431821823, 0.156080439686775, -0.100680597126484, 0.002575681777671, -0.658094406127930, -0.354833602905273, -0.822250485420227, 0.425391048192978, 0.601166129112244, 0.343753963708878, 0.258709520101547, -0.260512858629227, -0.038008984178305, 0.174878910183907, 0.056415814906359, 0.486727654933929, 0.010679086670280, -0.224357888102531, 0.548983633518219, 0.091043218970299, -0.362196087837219, 0.256113469600677, -0.124639213085175, -0.266154050827026, -0.391890585422516, -0.253101557493210, -0.238574355840683, 0.000169104183442, -0.306221246719360, 0.185398414731026, 0.897662580013275, 0.358497023582458, -0.321768611669540, 0.831351518630981, -0.127734065055847, 0.053227648139000, 0.012043739669025, -0.028682079166174, 0.546856880187988, -0.498960345983505, 0.039058994501829, -0.073335111141205, 0.140596807003021, -0.124124974012375, -0.265118658542633, 0.077716350555420, -0.467517375946045, -0.434907972812653, 0.385322272777557, -0.025556009262800, 0.391544431447983, -0.388844281435013, 0.357191681861877, -0.205609932541847, -0.597220540046692, 0.341592997312546, -0.138972550630569, 0.107975952327251, 0.687019467353821, -0.072921171784401, -0.326529383659363, -0.043382439762354, 0.201611161231995, -0.754935503005981, -0.759140193462372, -0.273023366928101, -0.280030250549316, 0.218143641948700, 0.192598044872284, -0.091989487409592, 0.297246277332306, -0.621643245220184, 0.292044311761856, -0.105953715741634, 0.158712759613991, -0.228625044226646, -0.673849403858185, 0.459815025329590, -0.078565970063210, 0.169059231877327, -0.047341756522655, 0.251492857933044, 0.390163064002991, -0.001924047362991, 0.419298440217972, -0.379153668880463, 0.156637489795685, -0.204650953412056, -0.008734210394323, -0.051752977073193, 0.312739878892899, -0.026052379980683, 0.283418864011765, -0.188958480954170, -0.417976588010788, -0.051241859793663, -0.216967925429344, 0.016326280310750, -0.066709429025650, -0.471117645502090, -0.320605903863907, 0.065341182053089, 0.494237244129181, -0.968249022960663, -0.399548977613449, -0.660783171653748, 0.083775229752064, 0.049028344452381, -0.435237169265747, -0.720005273818970, 0.118388742208481, -0.301502048969269, 0.032055955380201, -0.565336763858795, 0.282125413417816, -0.333435744047165, -0.143195822834969, 0.274018347263336, -0.227621525526047, -0.715760529041290, -0.071480736136436, 0.204353079199791, -0.757372081279755, -0.074061863124371, -0.379492998123169, 0.211325183510780, 0.502860903739929, -0.364242851734161, -0.279247522354126, 0.046934790909290, -0.623823583126068, 0.505097687244415, 0.696418583393097, 0.153702616691589, -0.749189078807831, -0.437553256750107, 0.300958335399628, 0.073712304234505, 0.280303835868835, -0.137927442789078, -0.042400155216455, -0.256312727928162, -0.379517436027527, 0.770802915096283, 0.293997973203659, -0.100628085434437, 0.248526617884636, -0.453047007322311, 0.274124622344971, 0.061775628477335, 0.300468713045120, -0.240176498889923, -0.421678006649017, -0.495216548442841, -0.121208071708679, 0.329548329114914, -0.169137313961983, 0.068005591630936, -0.511989116668701, -0.086758367717266, -0.213896080851555, 0.365712136030197, 0.100876122713089, 0.867690205574036, 0.346943885087967, -0.655690670013428, -0.261668175458908, -0.101769112050533, -0.106746181845665, -0.258011519908905, 0.368872433900833, -0.519241571426392, -0.433150500059128, -0.559018969535828, 0.246645689010620, -0.286637037992477, -0.157698452472687, -0.062555462121964, 0.833592176437378, -0.289068669080734, 0.387657880783081, -0.432094365358353, 0.170704945921898, -1.087250113487244, -0.001487959758379, -0.282545030117035, -0.149857759475708, 0.312856078147888, -0.093899473547935, -0.026428617537022, -0.047528747469187, 0.176386669278145, 1.404150724411011, 0.205308794975281, 0.390085637569427, 0.015613029710948, 0.073364891111851, 1.081008315086365, 0.165636777877808, 0.357752710580826, 0.275328457355499, -0.498645246028900, 0.031396441161633, 1.017281055450439, -0.680444955825806, -0.223458796739578, -0.383636474609375, 0.334406226873398, 0.348241448402405, 0.375969290733337, 0.888756096363068, 0.005893607623875, -0.617362439632416, 0.198278263211250, -0.114501699805260, -0.114536985754967, -0.385351032018661, 0.002997844014317, 0.010490948334336, -0.128331243991852, 0.215315699577332, -0.142355024814606, 0.795886337757111, -0.002889421069995, 0.212235987186432, -0.537025749683380, 0.096747726202011, 0.547663986682892, -0.312450051307678, -0.191701486706734, -0.018953612074256, 0.224159434437752, 0.058565597981215, -0.236285075545311, 0.208487153053284, 0.323058605194092, 0.327527463436127, 0.074374191462994, 0.272794187068939, 0.072768583893776, -0.226743489503860, -0.512832581996918, 0.315480619668961, 0.034930400550365, -0.294760793447495, 0.270939528942108, -0.406008660793304, -2.143600463867188, 0.123452894389629, 0.855826497077942, 0.262276887893677, -0.805581152439117, 0.412440150976181, -0.377191305160522, -0.028399711474776, -0.138105601072311, -0.440981298685074, -0.425689309835434, 0.325948178768158, -0.019277453422546, -0.306758016347885, -0.863768517971039, 0.042000610381365, 0.031434338539839, 0.304869204759598, -0.596913397312164, -0.216135561466217, -0.486590653657913, -0.115541391074657, 0.028694819658995, -0.057608537375927, 0.061034385114908, 0.408211737871170, -0.473754167556763, 0.987889885902405, -0.018347486853600, -0.302588522434235, -0.144284293055534, -0.485926032066345, 0.018657229840755, -0.211404249072075, -0.003319778712466, 0.713140249252319, -0.536508321762085, 0.032435491681099, 0.438663989305496, -0.153885588049889, -0.173094823956490, 0.050088778138161, 0.864922225475311, 0.538004398345947, -0.215723961591721, 0.053355183452368, -0.505506873130798, -0.037286531180143, -0.221647307276726, -0.407755613327026, -0.016448805108666, 0.314574539661407, -0.648917257785797, -0.626576721668243, -0.561890304088593, -0.311136215925217, 0.224385425448418, -0.536790907382965, -0.259679764509201, -0.035052813589573, 0.198552474379539, 0.730860352516174, -0.042965855449438, -0.294495195150375, 0.436170518398285, -0.193954512476921, 0.445479869842529, -0.593688428401947, -0.276391863822937, -0.218722015619278, -0.656467497348785, 0.496163606643677, -0.991087496280670, -0.900526940822601, 0.469005286693573, 0.282469242811203, 1.020860075950623, 0.204053044319153, 0.264899760484695, 0.623140335083008, -1.098897457122803, 0.746749162673950, 0.530038654804230, -0.443880110979080, -0.273083359003067, 0.151027619838715, -0.657644867897034, -0.863811075687408, 0.261675059795380, 0.293974220752716, 0.123290061950684, 0.255985200405121, -0.044223565608263, -0.418471157550812, 0.332962751388550, -0.398491680622101, -0.092286519706249, 0.200754106044769, 0.327017575502396, -0.073995053768158, 0.187183782458305, -0.001780309132300, 0.168246924877167, -0.116058349609375, 0.941519975662231, 0.077578492462635, 0.736423671245575, -0.215761259198189, 0.161317899823189, 0.020254699513316, 0.643262624740601, -0.006252063438296, -0.068561404943466, 0.950123965740204, 0.170544102787971, -0.278786301612854, 0.643889248371124, -0.026082145050168, 0.668233633041382, 0.069470211863518, -0.006567986216396, -0.253812670707703, -0.357956916093826, -0.622860193252563, -0.111369833350182, 0.682312548160553, 0.202970072627068, -0.359583318233490, -0.370106041431427, 0.136184155941010, -0.231768444180489, 0.862103402614594, 0.404067933559418, -0.449435949325562, 0.264695495367050, -0.530445635318756, 0.243631049990654, 1.179923534393311, 0.336499780416489, 0.208303213119507, -0.599248886108398, 0.152418464422226, 0.820128917694092, -0.352348387241364, -0.079010426998138, -0.288497060537338, 0.138412535190582, 0.922946870326996, 0.099554434418678, 0.496214121580124, 0.123529270291328, 0.484640449285507, 0.245411783456802, -0.149382665753365, -0.009447829797864, 0.963304698467255, 0.599657475948334, 0.849950492382050, 0.826441347599030, -0.279509335756302, 0.371891438961029, -0.107984878122807, -0.485479384660721, 0.326921314001083, 0.223557353019714, 1.450710654258728, 0.288650095462799, -0.217653200030327, 0.694704413414001, 0.303323209285736, -0.752122819423676, 0.223719388246536, -0.028991680592299, -0.013727025128901, 0.378404498100281, -0.545192837715149, -0.007019951473922, 0.794150471687317, -0.088122457265854, -0.525932610034943, 0.242897510528564, -0.325797259807587, -0.128002956509590, 0.095352672040462, 0.039862759411335, -0.495196372270584, -0.026195716112852, -0.107774026691914, 0.518446683883667, -0.538336336612701, 0.055882718414068, 0.377510815858841, -0.238158583641052, -1.253890275955200, -0.351540684700012, -0.785822331905365, 0.368564963340759, 0.574421286582947, 0.461534351110458, -0.278269022703171, -0.369262218475342, 0.419434309005737, 0.109821431338787, -0.406297087669373, -0.258127540349960, -0.458043843507767, -0.452175229787827, -0.393546193838120, 0.635728001594543, -0.315507501363754, -0.300129264593124, 0.118567563593388, -0.827678203582764, 0.068542368710041, -0.307336300611496, -0.136706665158272, -0.532039642333984, -0.152018621563911, -0.125744879245758, 0.061747249215841, -0.085534587502480, -0.118211381137371, -0.119167916476727, -0.002166779246181, 0.308253049850464, 0.157462775707245, 0.083760946989059, 0.277758568525314, 0.221619606018066, -0.435625821352005, 0.178747847676277, -0.155672356486320, -0.627943158149719, 0.159229829907417, 0.052148953080177, 0.063654586672783, 0.017976801842451, -0.075782157480717, -0.387037336826324, 0.371752619743347, 0.187163978815079, 0.190627276897430, 0.030214121565223, -0.099840685725212, 0.103291332721710, -0.424097388982773, 0.412053883075714, 0.133989438414574, 0.037102870643139, -0.002137924544513, -0.443473249673843, 0.203664630651474, 0.065763719379902, 0.000435057212599, -0.125534981489182, -0.188210710883141, -0.571006178855896, -0.186081066727638, -0.103297717869282, 0.220865532755852, 0.571403682231903, -0.047090552747250, 0.187318086624146, -0.332310527563095, 0.483178973197937, 0.393655866384506, -0.172454774379730, 0.256079971790314, -0.162940412759781, -0.046417444944382, 0.037795227020979, -0.123045235872269, 0.117296025156975, 0.063228636980057, 0.534720718860626, 0.297370880842209, 0.278990089893341, -0.330528259277344, -0.080201275646687, 0.154038786888123, 0.422645866870880, 0.523360550403595, -0.001564032165334, -0.179101660847664, 0.137618482112885, -0.009185256436467, 0.176210090517998, 0.548961877822876, -0.147204726934433, 0.449427068233490, 0.305828958749771, 0.251381903886795, -0.343318998813629, -0.809640586376190, 0.071591466665268, 0.112732522189617, -0.487442642450333, -0.703627884387970, -0.155333980917931, -0.230552062392235, -0.462680280208588, -0.675573408603668, -0.323254913091660, 0.715843617916107, 0.007511746603996, -0.460662752389908, 0.198232948780060, 0.200752124190331, -0.431933432817459, 0.587051510810852, -0.632706701755524, -0.177256703376770, -0.247551441192627, 0.154973745346069, 0.066422581672668, 0.717516243457794, 0.216050773859024, 0.035759139806032, 0.149404183030128, 0.044788792729378, 0.004839714150876, 0.257056295871735, 0.910174489021301, -0.508073568344116, 0.605328619480133, 0.418773025274277, -0.210592642426491, -0.027426866814494, 0.323681801557541, -0.834001004695892, 0.013760260306299, 0.418824404478073, -0.776167690753937, -0.629554092884064, -0.688710033893585, -0.229691475629807, -0.458485096693039, 0.354569792747498, -0.246567472815514, -0.037252202630043, 0.188293293118477, 0.071709915995598, -0.687075734138489, -0.082372844219208, 0.677795231342316, -0.171999633312225, -0.236661016941071, 0.817754983901978, -0.056339260190725, -0.119188144803047, 0.037875313311815, -0.942863941192627, -0.116735413670540, -0.105629168450832, -0.340605109930038, -0.097422428429127, 1.046738862991333, -0.233077436685562, -0.133498936891556, 0.818056821823120, -0.054489601403475, 0.154991418123245, -0.317451417446136, -0.275625497102737, 0.282525449991226, 0.272331237792969, -0.142209455370903, 0.033093359321356, -0.616370260715485, -0.337196975946426, -0.073845289647579, 0.090657785534859, 0.002783893607557, -0.227855727076530, 0.111567497253418, -0.523587763309479, 0.276849746704102, 0.070789404213428, 0.486710250377655, -0.198254138231277, -0.392738848924637, -1.299531340599060, 0.391756296157837, 0.135920420289040, 0.116450153291225, 0.423981457948685, -1.605665206909180, -0.177376165986061, -0.065979816019535, 0.487314105033875, 0.478058427572250, -0.294519841670990, -0.701016664505005, 0.141373202204704, -0.401578485965729, 0.426315724849701, 0.250870943069458, -0.249503210186958, 0.454632163047791, 0.094778545200825, 0.274340748786926, 0.184135288000107, -0.031804058700800, -0.136222943663597, -0.544157028198242, -0.093094013631344, -0.361964195966721, 0.337924122810364, 0.217017322778702, 0.717420220375061, -0.157229840755463, 0.424365133047104, 0.024152860045433, -0.206311494112015, 0.221818640828133, -0.452076733112335, 0.818186163902283, 0.039211329072714, -0.139678731560707, -0.462456583976746, 0.225671008229256, -0.181927576661110, 0.338176161050797, 0.579067170619965, -0.056913312524557, 0.704007029533386, 0.328785598278046, 0.413634091615677, -0.578272998332977, -0.218740180134773, 0.172288700938225, 0.305917620658875, -0.025137593969703, -0.995884954929352, -0.151459693908691, -0.173156902194023, 0.114076763391495, -0.672652900218964, -0.540133357048035, 0.314600735902786, 0.495871245861053, 0.401307374238968, -0.019899005070329, -0.010302641429007, -0.064946323633194, -0.375215411186218, 0.060571573674679, -0.169865503907204, -0.795730829238892, -0.251518815755844, 0.676475882530212, 0.916592121124268, -0.844083845615387, 0.184676617383957, 0.059479661285877, 0.929361045360565, -0.046086966991425, -0.260801136493683, -0.127552509307861, 0.010491975583136, -0.419565171003342, 0.399090617895126, -0.308799326419830, -0.500698983669281, 0.043311987072229, 0.445810705423355, 0.164086312055588, -0.445803850889206, -0.616900682449341, -0.053421359509230, -0.271118968725204, -0.276137650012970, -0.085656978189945, -0.121704593300819, 0.017657810822129, 0.510454356670380, -0.177549093961716, -0.577328920364380, -0.301086217164993, -0.803549766540527, 0.387995570898056, -0.254338562488556, -0.057641562074423, 0.213168218731880, -0.382690668106079, -0.035284385085106, -0.629601240158081, -0.232857286930084, 0.075593441724777, 0.173918768763542, 0.295437872409821, 0.115064986050129, 0.005156369879842, -0.366517663002014, 0.483671188354492, -0.239561200141907, 0.015679558739066, 0.274047344923019, 0.238309115171432, -0.505892872810364, 0.504245817661285, 0.134177550673485, -0.459698170423508, -0.230414271354675, -0.532331585884094, 0.504504740238190, -0.279439002275467, 0.298134326934814, -1.460354089736938, 0.179062977433205, 0.219544842839241, -0.030921716243029, 0.406165152788162, -0.386357337236404, -0.202768579125404, 0.961006760597229, 0.228890776634216, -0.698931813240051, 0.306835353374481, -0.130072265863419, -1.171260476112366, 0.487611562013626, -0.786587953567505, -0.482335299253464, -0.073460623621941, 0.354048192501068, 0.645661950111389, 0.250076413154602, -0.466572076082230, -0.282230645418167, -0.384318888187408, 0.050183508545160, 0.685320079326630, 0.328318119049072, 0.139453500509262, 0.432164311408997, -0.240484088659286, 0.440235257148743, 0.259763449430466, 0.009699533693492, 0.115744896233082, 0.796533942222595, -0.231423079967499, 1.188570618629456, 0.202719420194626, -0.144504085183144, -0.191996932029724, 0.551959156990051, 0.130780413746834, -0.279644429683685, 0.048255261033773, -0.273185431957245, -0.548763990402222, 0.211936146020889, -0.470107346773148, 0.827642261981964, -0.842114269733429, 0.405903697013855, -0.276177614927292, -0.227243751287460, 0.983282268047333, -0.128848642110825, 0.262130558490753, -0.222370103001595, 0.205154836177826, -0.658028662204742, 0.410220950841904, 0.131877183914185, 0.750504136085510, 0.136822164058685, -0.263823628425598, 0.439901322126389, -0.300399988889694, 0.753807127475739, -0.155843690037727, 0.288244873285294, -0.083513982594013, -0.496956974267960, 0.572155535221100, -1.042537212371826, 0.408098280429840, -0.006263663992286, -0.614405035972595, 0.323997020721436, -0.320461213588715, -0.975130498409271, -0.195887699723244, 0.159174904227257, -0.042890276759863, 0.204002171754837, -0.459701448678970, -0.298563361167908, -0.081277482211590, -0.338937789201736, 0.118678987026215, 0.816679775714874, 0.069892466068268, 0.088041268289089, -0.262754112482071, -0.183727547526360, -0.342431992292404, 0.846758902072906, 0.185160905122757, 0.169032022356987, 0.091875284910202, 0.400409340858459, 0.734702706336975, 0.123452953994274, 0.016448456794024, -0.315795928239822, 0.313624054193497, -0.771236360073090, -0.083459459245205, 0.000918343255762, 0.890613853931427, 0.082694016396999, 0.572131156921387, -0.035596303641796, 0.539663255214691, 0.531920373439789, 0.503556489944458, 0.566665649414062, 0.165813937783241, 0.346068650484085, 0.007488641887903, 0.102045051753521, 0.113878197968006, 0.107661128044128, -0.272012978792191, -0.101137861609459, -0.134045183658600, 0.568689405918121, -0.702402710914612, 0.625050246715546, 0.312785685062408, 0.403275579214096, 0.312932372093201, 0.006121560931206, 0.032781977206469, 0.222378984093666, 0.147551864385605, 0.554820239543915, 0.089720748364925, -0.441902071237564, -0.712842345237732, 0.167090073227882, -0.734976470470428, 0.332044392824173, -0.416574925184250, -0.214148983359337, 0.582400381565094, 0.132848426699638, 0.332591474056244, -0.720574378967285, 0.671263754367828, 0.116903021931648, -0.027167661115527, 0.341691136360168, 0.392574787139893, 0.114175364375114, -0.052954927086830, -0.145255237817764, -0.236096099019051, 0.232597798109055, -0.372350722551346, -0.258371263742447, 0.197159335017204, -0.891164004802704, -0.345985740423203, 0.799526274204254, 0.224452316761017, 0.076764985918999, -0.077935285866261, 0.285704761743546, -0.195217356085777, 0.100441403687000, 0.018684111535549, 0.022492567077279, -0.168701037764549, -0.338395744562149, 0.275083035230637, -0.358163535594940, 0.777020692825317, 0.485944837331772, -0.644869327545166, 0.899500906467438, -0.092334263026714, -0.813431859016418, 0.419722795486450, -0.138247355818748, 0.175397589802742, 0.086618699133396, 0.034112799912691, 0.108098916709423, 0.180416971445084, -0.130804419517517, 0.094665631651878, -0.521010160446167, -0.547903180122375, -0.227967098355293, 0.387386947870255, -0.230753496289253, -1.195738911628723, 0.161951944231987, -0.219434529542923, -0.298902869224548, 0.147315502166748, -0.151054263114929, -0.418863743543625, 0.059897828847170, 0.405397802591324, 0.328241527080536, 0.762401759624481, -0.080771625041962, -0.082348346710205, -0.473894029855728, 0.085969135165215, -0.344057023525238, -0.199699535965919, 0.051405970007181, -0.202184125781059, 0.235501706600189, 0.678102970123291, 0.729850828647614, 0.183798000216484, -0.021405525505543, 0.168699845671654, 0.020374542102218, 0.004536130465567, -0.261850744485855, -0.180668711662292, -0.665907263755798, -0.183867275714874, 0.119265668094158, -0.348795145750046, 0.038287408649921, 0.537989377975464, 0.168243557214737, -0.012948395684361, -0.966474711894989, -0.159631446003914, -0.370439976453781, 0.218773886561394, 0.459904402494431, 0.366056561470032, -0.259142100811005, 0.509893536567688, 0.246131375432014, 0.046765580773354, -0.785673797130585, 0.252669990062714, 0.332406967878342, -0.592437207698822, 0.304786026477814, 0.309192925691605, 0.386970371007919, -0.436837047338486, -0.228242278099060, 0.303427815437317, -0.094164021313190, -0.611488819122314, -0.045901995152235, -0.588378906250000, -0.671273946762085, 0.048750825226307, -0.202961951494217, 0.013125744648278, -0.146005749702454, -0.168898671865463, -0.093036986887455, 0.095354899764061, 0.001081410795450, -1.730982303619385, -0.155336886644363, 0.226077988743782, -0.081452585756779, 0.055160988122225, 0.205566436052322, 0.487105160951614, -0.212710738182068, 0.168777048587799, -0.265470474958420, -0.168964892625809, 0.091522112488747, -0.375173538923264, 0.136403962969780, 0.718333661556244, -1.069394946098328, 0.414675146341324, -0.028083840385079, 0.374311149120331, 0.300975054502487, 0.499869853258133, -0.500026762485504, 0.202438637614250, -0.465827822685242, 0.030116869136691, 0.039585240185261, 0.551483929157257, 0.101797029376030, 0.114620760083199, 0.421160668134689, -0.234284609556198, -0.045826449990273, -0.154933989048004, 0.068437561392784, -0.431540012359619, 0.234716698527336, -0.075737729668617, -0.099092178046703, -0.149844884872437, -0.208670973777771, -0.705772995948792, 0.681065499782562, -0.146007999777794, 0.256532937288284, -0.011216891929507, 0.499517947435379, 0.187215492129326, -0.481038540601730, 0.283757656812668, 0.264966130256653, 0.253490656614304, 0.006641536019742, -0.623687744140625, -0.183921068906784, -0.442652136087418, 0.831679284572601, 0.485712587833405, -0.520816266536713, -0.067051090300083, 0.969160020351410, 0.137878760695457, 0.345866143703461, 0.360056787729263, 0.101394884288311, -0.159737259149551, -0.207282036542892, 0.137987181544304, 0.527397155761719, 0.452386558055878, -0.058467477560043, 0.286093503236771, 0.327029198408127, 0.804042935371399, 0.124155856668949, 0.170802712440491, -0.380101412534714, 0.030211741104722, -0.009258586913347, 0.426270991563797, 0.782577812671661, -0.099641777575016, 0.237323790788651, -0.488528579473495, -0.499860048294067, 0.593974590301514, -0.300132423639297, -0.438629150390625, 0.909838259220123, 0.538473725318909, -0.087146684527397, -0.112402938306332, 0.177873641252518, 0.554980874061584, -0.030278628692031, -0.140498787164688, 0.241222664713860, -0.027081964537501, 0.284324198961258, 0.433965027332306, -0.234432026743889, 0.048048660159111, -0.325482428073883, 0.064558506011963, -0.740253150463104, 0.303481251001358, -0.316021680831909, -0.265324264764786, 0.333267420530319, 0.375283658504486, -0.190978974103928, 0.208805665373802, 0.628088831901550, -0.153990149497986, 0.290116906166077, -0.207117766141891, -0.017950903624296, 1.213700771331787, 0.170112282037735, 0.509332001209259, 0.460851401090622, -0.041839703917503, 0.660549402236938, 0.577306151390076, -0.172128245234489, 0.357417285442352, 0.020975224673748, 0.611599266529083, -0.623243510723114, 0.495779544115067, -0.288402587175369, 0.782277405261993, 0.416702777147293, 1.030443787574768, 0.468804568052292, -0.264136463403702, -0.356647223234177, 0.527612090110779, 0.792482852935791, 0.658727288246155, 0.448930889368057, -0.237209051847458, 0.312909454107285, -0.739813804626465, 0.313988268375397, 0.249815016984940, -0.114731594920158, 0.386054813861847, -0.221410557627678, 0.325050085783005, 0.085728228092194, -0.141545802354813, 1.321096181869507, -0.105960451066494, -0.495745539665222, 0.756162166595459, 0.095329396426678, 0.597163856029510, 0.612537920475006, -0.558762848377228, 0.080860748887062, 0.348478376865387, 0.473909676074982, 0.198282018303871, -0.019641691818833, 0.707158327102661, -0.197897389531136, -0.045729655772448, -0.223254650831223, 0.553257465362549, -0.277166277170181, -0.386049836874008, -0.097294375300407, 0.040543716400862, 0.216192126274109, -0.296223998069763, 0.396081328392029, -0.072029508650303, 0.887246787548065, -0.011536871083081, 0.403787791728973, 0.500703036785126, 0.272616058588028, 0.197159871459007, -0.691962122917175, 0.748014926910400, -0.406326919794083, 0.253259837627411, 0.334631741046906, 0.025645358487964, -0.699675500392914, -0.805294930934906, 0.953160583972931, -0.024388991296291, -1.834401011466980, 0.068083621561527, 0.099669545888901, 0.579570710659027, 0.665901541709900, 0.071126461029053, -0.470107555389404, 0.768483579158783, -0.594798803329468, 0.173839002847672, -0.017206404358149, 0.234957411885262, 0.510810017585754, -0.295929908752441, 0.455481052398682, -0.033286344259977, -0.468521296977997, 0.300018340349197, 0.175892665982246, -0.083099514245987, -0.028945699334145, 0.139195829629898, 0.591356515884399, -0.301513910293579, -0.044049616903067, 0.004816400352865, 0.291623085737228, 0.287431180477142, 0.532139122486115, -0.732674062252045, -0.549453794956207, -0.079278774559498, 0.211829870939255, -0.648063123226166, 0.046176023781300, -0.480874866247177, 0.024750467389822, 0.839402973651886, 0.281565904617310, -0.214592769742012, -0.582058966159821, -0.118644945323467, 0.397608578205109, -0.109367184340954, -0.083805337548256, 0.029673023149371, -0.205679163336754, 0.200480580329895, -0.075454846024513, -0.105817683041096, -0.242641121149063, -0.197778865695000, -0.534972310066223, 0.440223693847656, 0.049651708453894, -0.140844002366066, -0.306845515966415, 0.036141231656075, 0.523157060146332, 0.049973510205746, -0.061598140746355, 0.124863557517529, 0.222146198153496, 0.596190273761749, 0.381585597991943, 0.001054408145137, -0.073012039065361, -0.195958077907562, 0.289848715066910, -0.208430990576744, -0.392987489700317, -0.729788243770599, 0.104790978133678, -0.462360709905624, 0.001156190177426, -0.165681943297386, 0.154036626219749, -0.118706323206425, 0.135603085160255, -0.287630558013916, 0.044995442032814, 0.101052366197109, -0.567754328250885, -0.284118860960007, -0.344067484140396, 0.002379100304097, 0.159834608435631, -0.115547843277454, -0.388559907674789, 0.157116889953613, 0.247210130095482, 0.302905559539795, -0.040736306458712, -0.325809806585312, -0.514262318611145, 0.050785697996616, 0.037571553140879, 0.642923951148987, -0.469706743955612, -0.954110383987427, -0.455238550901413, 0.114706173539162, -0.060926020145416, 0.061086393892765, 0.323940992355347, -0.367790669202805, 0.819002509117126, 0.137785628437996, 0.515760004520416, -0.352627962827682, 0.139498069882393, 0.255075275897980, -0.039365682750940, 0.175980880856514, -0.029604692012072, 1.114288806915283, -0.083427086472511, 0.063285082578659, 0.452730417251587, -0.062858551740646, -0.016135079786181, 1.442982673645020, 0.201832830905914, 0.069872714579105, 0.572611868381500, 0.882877111434937, -0.594740271568298, 0.696586132049561, 0.372026711702347, 0.675828516483307, 0.208922639489174, 0.099804751574993, -0.084374435245991, 0.105909794569016, -0.158934250473976, 0.164940536022186, -0.653557419776917, -0.208510339260101, -0.381434231996536, 0.551605820655823, -0.617116153240204, -0.358251571655273, -0.146536782383919, 0.016057044267654, -0.408022582530975, -0.984388470649719, 0.174381032586098, 0.162378370761871, 0.222943782806396, -0.181374549865723, -0.090636573731899, -0.680967330932617, -0.033305622637272, -0.326687514781952, 0.293081462383270, -0.251021862030029, 0.208731055259705, 0.483958572149277, -0.300475358963013, -0.092650346457958, -0.459275126457214, 0.155364811420441, -0.272784829139709, 0.168139621615410, -0.287155508995056, -0.260034769773483, -0.104532010853291, 0.789906978607178, -0.386424630880356, 0.591792821884155, 0.079553626477718, -0.175060659646988, 0.900763213634491, -0.119587659835815, 0.060314074158669, 0.464916825294495, -0.292388349771500, -0.123909346759319, 0.191984295845032, 0.385645151138306, -0.591150224208832, -0.177738398313522, 0.160479053854942, 0.447972655296326, -0.160567522048950, -0.549613833427429, -0.486533105373383, 0.300002932548523, -0.638310730457306, -0.140150830149651, -0.052317455410957, -0.735110700130463, 0.129388511180878, -1.893247365951538, 0.111652612686157, -0.295960247516632, 0.507444739341736, -0.504021644592285, 0.168026134371758, 0.423253148794174, 0.011290925554931, 0.094126738607883, -0.657361626625061, 0.333946883678436, -0.478081285953522, -0.014889533631504, -0.303250581026077, -0.142123401165009, -0.073088385164738, -0.114634677767754, 0.007144092116505, 0.075385898351669, 0.530671238899231, 0.441099703311920, -0.148485317826271, -0.122024707496166, 0.207763105630875, -0.436933040618896, 0.675199866294861, -0.163039460778236, 0.648366570472717, -0.004246109630913, -0.450049877166748, -0.652286589145660, 0.625950515270233, -0.580775201320648, -0.546457290649414, -0.183153718709946, -0.366188764572144, 0.398556560277939, -0.331460952758789, -0.208863645792007, -0.131938695907593, -0.717883646488190, 0.472302585840225, 0.478789627552032, -0.372066855430603, 0.405372321605682, 0.084516048431396, -0.371630698442459, 0.351805597543716, 0.273618787527084, -0.507103979587555, -0.522772848606110, 0.152059629559517, 0.319683432579041, -0.528453588485718, 0.071188829839230, -0.104043081402779, 0.238621801137924, 0.084322847425938, 0.449741095304489, -0.150143802165985, -0.305331677198410, -0.185270667076111, 0.386947959661484, 0.438005447387695, -0.148070037364960, -0.354268342256546, 0.027512889355421, -0.194672048091888, -0.337471604347229, 0.024356685578823, -0.407890409231186, -0.540756583213806, -0.476627647876740, 0.331411689519882, -0.163314759731293, -0.160276547074318, 0.437262356281281, 0.353349268436432, 0.248600825667381, 0.019897632300854, 1.009580135345459, -0.036030489951372, -0.175860568881035, 0.194114759564400, 0.048700425773859, 0.363853871822357, 0.363291859626770, -0.346430867910385, 0.131952598690987, -0.116068735718727, -0.100516863167286, -0.073894485831261, -0.151184141635895, -0.336989521980286, -0.035797972232103, 0.234056353569031, -0.174297034740448, -0.510420978069305, -0.116528555750847, -0.205101653933525, -0.040482107549906, -0.338634073734283, -0.021636273711920, -0.022081725299358, 0.467495411634445, 1.185837864875793, 0.063206136226654, -0.108118310570717, 0.142490595579147, -0.133736252784729, 0.018285848200321, -0.117344640195370, -0.142710849642754, 0.301512449979782, -0.033545598387718, 0.102924495935440, 0.278153985738754, 0.304773837327957, 0.275174707174301, 0.347196519374847, -0.341678708791733, 0.756802499294281, -1.532406449317932, -0.025875192135572, -0.358696401119232, 0.237723693251610, -0.273874193429947, 0.444236606359482, 0.081447713077068, -1.269837617874146, -0.426737844944000, 0.780768990516663, -0.222431063652039, 0.659789383411407, 0.005466894712299, 0.253412753343582, -0.343413978815079, -0.143652215600014, 0.577851176261902, 0.157444760203362, -0.206360533833504, -0.178086355328560, -1.039596915245056, 0.166244238615036, -0.212428390979767, -0.398360550403595, 0.452212035655975, 0.176821127533913, 0.661701977252960, -0.214104309678078, -0.185797899961472, 0.595903158187866, -0.154919058084488, -0.441260516643524, -0.265051215887070, 