-0.009241277351975, 0.591467678546906, 0.402686774730682, 0.814924478530884, -0.006970761809498, 0.531772077083588, 0.246288761496544, 0.551606535911560, -0.370276153087616, 0.198284581303596, 0.058248423039913, 0.554598689079285, 0.152396872639656, 0.270928710699081, -0.395929187536240, 0.919956266880035, 0.265239924192429, -0.111903645098209, -0.224628210067749, 0.357757240533829, -0.025276923552155, 0.189193785190582, -0.139413744211197, -0.267885476350784, 0.042543526738882, 0.156136319041252, 0.207408934831619, 0.210325956344604, 0.853239417076111, 0.103810630738735, -0.080868601799011, 0.487459361553192, 0.175656452775002, 0.537342667579651, 0.111665226519108, -0.134191840887070, 0.059100411832333, 0.139637678861618, 0.326463729143143, -0.144598439335823, -0.042951203882694, 0.256106495857239, 0.571974098682404, 0.062189985066652, -0.465327054262161, 0.623163580894470, -0.036661829799414, -0.232280433177948, 0.762973368167877, -0.021199259907007, 0.378720283508301, 0.219324350357056, 0.284714460372925, 0.358729153871536, 0.238520026206970, -0.195544615387917, -0.195312753319740, -0.192274928092957, 0.270674258470535, -0.088651239871979, 0.284996747970581, 0.313662916421890, 0.015017043799162, -0.128880783915520, -0.054719582200050, 0.155478641390800, 0.242768883705139, 0.441469371318817, -1.008286833763123, 0.600369215011597, -0.338813066482544, -0.207771301269531, 0.185334980487823, 0.173143103718758, -0.310497969388962, 0.332496881484985, -0.795401811599731, -0.027317352592945, 0.895723342895508, 0.289569675922394, -0.388451755046844, 0.126848533749580, -0.650079607963562, -0.456161946058273, -0.104849055409431, 0.255217462778091, -0.423676848411560, -0.488960295915604, 0.396028220653534, 0.248392373323441, 0.162844032049179, -0.223633095622063, -1.631011009216309, 1.508340477943420, -0.089341498911381, -0.197210356593132, -0.444317489862442, -0.084399022161961, 0.075614795088768, -0.231295481324196, 0.450474053621292, -1.079073905944824, -0.655970215797424, -0.573368191719055, 0.641501307487488, 0.250229239463806, -0.038723770529032, -0.724719643592834, -0.822029471397400, -0.485387623310089, -1.247783303260803, -0.369634240865707, -0.748380362987518, -0.126684814691544, -0.270416676998138, -0.028204131871462, 1.291175007820129, -0.358199685811996, 0.200508594512939, 0.098789967596531, -0.146064326167107, -0.208994582295418, 0.407274037599564, 0.024896714836359, 0.269057840108871, -0.191820606589317, -0.378026098012924, 0.741016983985901, -0.425856888294220, 0.132318824529648, -0.085776805877686, 0.290012180805206, 0.249119371175766, 0.177750214934349, -0.202384769916534, 0.080082342028618, -0.291095405817032, -0.019859762862325, 0.002667076420039, -0.196740612387657, 0.040183961391449, -0.607205450534821, -0.063216626644135, -0.280608952045441, -0.274968296289444, 0.020967718213797, -0.188669964671135, -0.339147925376892, -0.055835012346506, 0.089809484779835, -0.619185268878937, 0.297224104404449, 0.182728052139282, 0.010514319874346, -0.131052285432816, 0.605836212635040, 0.584757208824158, 0.087170645594597, 1.194966912269592, 0.348626583814621, -0.515466332435608, -0.255490243434906, 0.076361097395420, -0.075556553900242, -0.102821998298168, 0.129980385303497, -0.124718770384789, -0.170649245381355, 0.019824909046292, -0.243847936391830, 0.314842939376831, -0.264832615852356, 0.285653322935104, -0.238304287195206, -0.009609174914658, -0.026254368945956, 0.265016913414001, 0.298599064350128, -0.211845338344574, 0.314309448003769, 0.615186452865601, 0.181491166353226, 0.214046329259872, -0.159281611442566, 0.040776189416647, 0.556257188320160, 0.263008892536163, -0.362176418304443, 0.222187280654907, 0.037845261394978, -0.106251716613770, 0.299599766731262, 0.194937989115715, 0.261725544929504, 0.908277690410614, 0.080787263810635, 0.199834674596786, 0.057417754083872, 0.065043695271015, -0.007429577875882, 0.577903211116791, 0.138544186949730, 0.091945759952068, 0.055412307381630, 0.333697408437729, 0.098014950752258, 0.015227736905217, 0.034596927464008, 0.170475333929062, -0.020663412287831, 0.029432557523251, 0.600511908531189, 0.660546243190765, 0.292922824621201, 0.014790119603276, 0.078762397170067, -0.052203971892595, 0.210958167910576, 0.604913294315338, -0.047702882438898, -0.035198748111725, 0.269440323114395, 0.573793232440948, -0.258525252342224, 0.385356038808823, 0.514795780181885, 0.237189307808876, 0.724529206752777, 0.102784678339958, -0.013038995675743, -0.128715857863426, 0.348776102066040, -0.120938576757908, 0.464965283870697, 0.539373874664307, -0.031662456691265, 0.172374546527863, 0.669015288352966, 0.412629902362823, -0.007353369146585, 0.051632702350616, -0.154764488339424, 0.731463611125946, -0.066194199025631, 0.158650264143944, 0.153563946485519, 0.105124905705452, 0.209729701280594, 0.346666753292084, 0.185479894280434, 0.845983386039734, 0.315014719963074, 0.157352507114410, 0.061724998056889, -0.167862817645073, 0.580329358577728, -0.021013354882598, -0.699181020259857, -0.282128334045410, -0.230435475707054, -1.075798153877258, -0.066928006708622, -0.290101170539856, -0.604218184947968, 0.025142639875412, 0.623522162437439, -0.592503368854523, 1.129013776779175, 0.546407401561737, -0.717713356018066, 0.302128404378891, -0.021033063530922, 0.305757254362106, 0.274795979261398, -0.598421573638916, -0.999830961227417, 0.565614461898804, -0.627801239490509, -0.922852814197540, 0.215927213430405, -0.197296649217606, -0.105249486863613, -0.557030916213989, -0.397486954927444, -0.166064694523811, 0.844701647758484, -0.483120858669281, -0.119769163429737, -1.002795815467834, -0.157090663909912, -0.776892483234406, -0.660972714424133, -0.002859891857952, 0.861746251583099, 0.139434695243835, 0.360835760831833, 0.554652392864227, 0.382960677146912, -0.269073963165283, 0.021344592794776, 0.123321175575256, -0.207778051495552, -0.226383090019226, -0.394560605287552, 0.184145197272301, 0.391172915697098, 0.427189618349075, -0.286903768777847, 0.503885686397552, -1.249078750610352, 0.396837890148163, 0.440876603126526, 0.088765807449818, -0.267288446426392, -0.317775160074234, -0.551562786102295, 0.019136346876621, 0.363639622926712, 1.735596060752869, 0.343999773263931, 0.504216015338898, 0.109616883099079, 0.178838238120079, 0.405412554740906, -0.425978571176529, 0.339978456497192, -0.425497531890869, -0.679405391216278, 0.134574145078659, 0.584896028041840, 0.128128051757812, 0.462644606828690, -0.262232095003128, -0.386652678251266, -0.005363180302083, -0.178213208913803, -0.044586982578039, -0.321296781301498, -0.051367290318012, -0.632549583911896, 0.458336830139160, 0.184413731098175, 0.258147567510605, -0.007073947228491, 0.049779988825321, 0.282866895198822, -0.103395842015743, 0.052816696465015, -0.264316499233246, -0.351162135601044, -0.168541669845581, -0.013252569362521, -0.097587935626507, 0.368677109479904, 0.246911764144897, -0.339815109968185, 0.360117584466934, -0.489883810281754, -0.245893418788910, 0.555347561836243, -0.140370801091194, 0.202306494116783, 0.060131840407848, -0.003479892387986, -0.263303250074387, 0.270437419414520, 0.091644763946533, 0.081039726734161, -0.418762147426605, 0.077549763023853, -0.043709695339203, -0.057492434978485, 0.066731646656990, 0.470474004745483, 0.041607759892941, -0.078758664429188, -0.025222856551409, 0.058720331639051, 0.022964110597968, -0.922400832176208, -0.197912126779556, 0.247553840279579, -0.078963696956635, -0.108638018369675, 0.413600474596024, -0.199497461318970, -0.141019508242607, 0.553480446338654, 0.263287127017975, 0.136127367615700, 0.311880201101303, -0.404713213443756, 0.642073214054108, 0.101762801408768, 0.733555614948273, 0.025105228647590, 0.091668106615543, -0.011263913474977, 0.011488038115203, 0.204898655414581, -0.390497058629990, 0.341635018587112, 0.456207603216171, -0.268107980489731, -0.249361827969551, -0.168603256344795, 0.306736707687378, -0.203383624553680, 0.137994304299355, -0.029449600726366, -0.096230924129486, -0.496096193790436, 0.328077554702759, -0.198110461235046, -0.074707433581352, 0.123512797057629, 0.515672147274017, -0.160825937986374, -0.116825938224792, -0.255535542964935, -0.084936916828156, 0.457032293081284, 0.333866089582443, 0.289731651544571, 0.530713379383087, -0.014944600872695, 0.231337636709213, 0.730073451995850, 0.269460111856461, 0.069312378764153, -0.134082734584808, 0.312234222888947, 0.358512014150620, -0.128488838672638, 0.102744385600090, 0.610354006290436, 0.040518179535866, -0.278071731328964, -0.416794270277023, 0.512923479080200, 0.338954895734787, 0.090621970593929, 0.138742133975029, -0.009932504035532, 0.363771051168442, 0.519589722156525, -0.016933629289269, 0.384906738996506, -0.337289422750473, -0.053950477391481, -0.022891800850630, -0.647124946117401, 0.287103325128555, 0.173075407743454, 0.137101858854294, -0.239851981401443, -0.585175275802612, 0.092281691730022, 0.123247280716896, -0.056176535785198, -0.619139492511749, 0.345254093408585, 0.239772021770477, -0.086330339312553, -0.205692306160927, 0.010586956515908, -0.590800762176514, -0.840374708175659, -0.255279600620270, 0.416990458965302, 0.307035833597183, -0.391286164522171, 0.069508016109467, 0.524197161197662, -0.735212504863739, -0.182976588606834, -1.054878115653992, 1.066278815269470, -0.273888915777206, 0.042505722492933, 0.079402886331081, -0.308731585741043, -0.116399027407169, 0.407545298337936, -0.087872974574566, 0.596482753753662, 0.585363924503326, 0.717122793197632, 0.645323216915131, 0.257502615451813, -0.458870202302933, 0.035455133765936, -1.309827566146851, -0.120292522013187, -0.874784111976624, -0.326573729515076, -1.437617897987366, -0.126498967409134, 0.517672717571259, -0.336007893085480, 0.046629421412945, -0.175528094172478, -0.415092527866364, -0.156625345349312, 0.156443402171135, -0.389967888593674, -0.411046802997589, -0.098932966589928, 0.002086501102895, 0.056632187217474, -0.105606526136398, 1.138985037803650, 0.021846745163202, 0.142838403582573, -0.127146080136299, 0.347213119268417, 0.405982673168182, 0.230178773403168, -0.225571706891060, -0.070676840841770, 0.273818582296371, -0.321163117885590, 0.215327829122543, 0.089317582547665, -0.241584032773972, -0.008658658713102, -0.376675486564636, -0.066436745226383, 0.346392899751663, -0.103390663862228, -0.099112607538700, -0.104232989251614, -0.015341303311288, 0.026095576584339, -0.140525773167610, -0.498387485742569, 0.179970577359200, -0.145409882068634, -0.224595263600349, -0.183557003736496, 0.611096322536469, -0.040756046772003, -0.153025731444359, -0.039737630635500, -0.371250987052917, 0.103501133620739, -0.066003799438477, -0.010183037258685, -0.046145215630531, -0.266459226608276, -0.133033156394958, 0.077340133488178, 0.048350691795349, 0.230569019913673, 0.068963751196861, -0.240371465682983, 0.123437866568565, -0.059627249836922, 0.100236207246780, 0.009198299609125, -0.457505524158478, 0.136494979262352, -0.242197424173355, 0.000919701415114, 0.193519726395607, -0.078392595052719, -0.021020244807005, 0.310467898845673, -0.413457095623016, 0.019723445177078, 0.264044076204300, -0.004924080334604, 0.188150465488434, -0.069416388869286, 0.067183516919613, -0.526296675205231, -0.045870218425989, 0.214430510997772, 0.599605023860931, 0.154019683599472, 0.680154919624329, 0.359283864498138, -0.186749130487442, 1.088087201118469, 0.525151312351227, 0.206321552395821, -0.466580897569656, 0.442816078662872, 0.809608042240143, -0.152854368090630, 0.383673936128616, -0.386678904294968, -0.075072094798088, 0.130776211619377, -0.057175319641829, 0.337671726942062, 0.454364001750946, 0.683559834957123, -0.170444056391716, -0.026880426332355, -0.507921755313873, -0.222498342394829, 0.226672023534775, 0.096789099276066, 1.289126038551331, 0.840009689331055, -0.174834832549095, 0.146854683756828, 0.402071714401245, 0.748590052127838, -0.021848391741514, 0.339814841747284, -0.358283132314682, -0.302730202674866, 0.046462286263704, 0.463978618383408, -0.269593387842178, 0.528094410896301, -0.452482163906097, -0.427086204290390, 0.057785719633102, -0.388620138168335, 0.236523926258087, 0.886996150016785, 0.568985402584076, -0.058633159846067, 0.169442296028137, 0.694172084331512, 0.976333022117615, -0.072028413414955, 0.350559592247009, 0.105931438505650, 0.228059262037277, -0.084524206817150, 0.627418935298920, -0.133751377463341, -0.839572489261627, -0.530960202217102, 0.116573952138424, 0.058157477527857, -0.194048538804054, -0.139758676290512, -1.033815145492554, 0.947546899318695, -0.810061037540436, -0.334724545478821, -0.420249670743942, -0.819591045379639, -0.462652921676636, -0.605863034725189, 0.548423409461975, -0.245242282748222, -1.000968337059021, 0.273217052221298, -0.256418764591217, 1.452892065048218, -0.546870291233063, 0.361050367355347, 0.084166176617146, -0.039680019021034, 0.809269726276398, 0.871019124984741, 0.090847194194794, 0.710004627704620, -0.082382775843143, -0.834956705570221, -0.394655764102936, -0.458468914031982, -0.685817778110504, -0.448045849800110, 0.479212075471878, 0.543787121772766, -1.142971992492676, 0.838285565376282, 0.397840440273285, -0.401308715343475, -0.788244605064392, 0.310099184513092, 0.368812769651413, -0.072680123150349, -1.058482170104980, -0.541124284267426, -0.502364158630371, 0.283331274986267, -1.403096914291382, 0.208579570055008, -0.888669490814209, -0.204046189785004, -0.412635833024979, 0.144882202148438, -0.559916675090790, -0.807405948638916, 0.232571393251419, 0.597981512546539, -0.076378494501114, -0.115154258906841, -0.604144096374512, 0.779709994792938, 0.168630301952362, -1.450303435325623, 0.030427485704422, 0.240643501281738, -0.163329556584358, 1.091820597648621, 0.625446081161499, 0.523416876792908, 0.051531501114368, -0.047491617500782, -0.311691194772720, -0.770739316940308, -0.080776996910572, 0.154955327510834, 0.586085796356201, -0.312116920948029, -0.486470252275467, -0.393215030431747, 0.211032882332802, 0.376771330833435, 0.005525100510567, -0.202694565057755, 0.461020439863205, 0.482388556003571, 0.389438748359680, -0.471759408712387, -0.428730845451355, -0.046735722571611, -0.276878923177719, -0.313757628202438, 0.554225564002991, 0.006585609633476, -0.384973883628845, 0.072745367884636, 0.318188518285751, 0.572293043136597, 0.251759082078934, 0.097037151455879, -0.190910175442696, -0.249215453863144, 0.569942831993103, -0.340347737073898, -0.468750864267349, -0.108803123235703, 0.426587164402008, 0.199776813387871, -0.027533991262317, 0.163031995296478, 0.168376922607422, -0.218708157539368, -0.019190978258848, 0.521911919116974, -0.582366824150085, -0.428245782852173, -0.309824347496033, -0.162789106369019, 0.733437657356262, -0.151067227125168, -0.752175927162170, 0.110981851816177, -0.469648003578186, 0.021216761320829, 0.212745591998100, 0.141494855284691, 0.516708374023438, -0.207594901323318, -0.641394019126892, -0.329319566488266, 0.510542571544647, -0.137679293751717, 0.065740562975407, -0.478549808263779, 0.798133492469788, 0.360537081956863, -0.244985342025757, -0.086568981409073, -0.203743323683739, 0.230527728796005, -0.272006213665009, -0.450981169939041, -0.408266454935074, 0.158884570002556, -0.210558384656906, 0.204190328717232, 0.253739327192307, 0.714078783988953, -0.168330579996109, -0.398757070302963, 0.705714821815491, 0.136166244745255, -0.520453631877899, 0.249730929732323, -0.440562158823013, 0.006137485615909, -0.456469267606735, 0.076501667499542, 0.455173730850220, 0.679231941699982, -0.214847102761269, 0.595689058303833, 0.647448837757111, -0.509987235069275, 0.099907062947750, 0.224788129329681, -0.000436120491941, 0.027506574988365, 0.122815385460854, -0.202951386570930, 0.234000891447067, -0.491747438907623, -0.111765988171101, 0.045628953725100, -0.227418765425682, 0.594230234622955, 0.971326589584351, 0.351445436477661, -0.315845757722855, 0.113616406917572, 0.691560566425323, -0.071792691946030, 0.186955973505974, 0.302051365375519, -0.078936703503132, 0.414935380220413, 0.404314786195755, 0.430709004402161, 0.046986922621727, 0.370766699314117, 0.193409889936447, -0.188781425356865, 0.463464617729187, 0.797692418098450, -0.060480937361717, -0.052404556423426, -0.736581027507782, -1.362673521041870, 0.145733729004860, -1.305934786796570, 0.578230559825897, -0.991916000843048, -0.583785295486450, 0.060684181749821, -0.107091225683689, 0.295688658952713, -0.663072347640991, -0.318238258361816, -0.053340144455433, -1.404034852981567, 0.277015298604965, 0.045343663543463, 0.757438421249390, -0.729799985885620, -0.527098298072815, 0.001774862874299, -0.066584810614586, -0.189353525638580, 0.024119924753904, -1.014602780342102, -0.740184724330902, 0.688182592391968, 0.806607007980347, -0.230786979198456, -0.682621240615845, -0.217421308159828, 0.194772645831108, 0.280122220516205, 0.554253160953522, 0.372398018836975, -0.327653914690018, -0.105073772370815, 0.390515327453613, -0.281722784042358, 0.358044832944870, -1.066549181938171, -1.265957474708557, 0.400533825159073, -0.483974754810333, -0.474135130643845, -0.310505330562592, -0.188319101929665, 0.154784381389618, 0.000569940544665, -0.510039150714874, -0.488706707954407, -0.919605672359467, -0.966473639011383, -0.118120476603508, -0.720540523529053, 0.093848451972008, -0.459337592124939, -0.289303690195084, -0.041161827743053, -0.868394792079926, -0.408280491828918, -0.223857462406158, 0.314736604690552, 0.036112193018198, -1.054138779640198, -0.189157873392105, 0.051145143806934, 0.330124586820602, 0.815632760524750, -0.635725319385529, 0.245868086814880, -0.466462939977646, -0.038248330354691, 0.023023713380098, 0.464606046676636, 0.348602205514908, -0.248572438955307, 0.070430606603622, -0.668602049350739, 0.379981756210327, -0.565329372882843, -0.279859393835068, -0.027995401993394, 0.437464952468872, 0.005183901172131, 0.342146158218384, -0.163589179515839, -0.527993381023407, 0.468234956264496, 0.031338632106781, -0.587762594223022, -0.268440932035446, 0.138325631618500, -0.012595647946000, 0.037044234573841, 0.172708377242088, -0.236596167087555, 0.252724111080170, 0.135140165686607, 0.006515324581414, -0.861388802528381, 0.048439212143421, -0.299471855163574, -0.050980713218451, -0.927030503749847, 0.525420904159546, -0.656330406665802, -0.434161335229874, -0.323695898056030, -0.108770951628685, 0.437059998512268, -0.061291292309761, 0.461405843496323, -0.349328160285950, 0.301536977291107, -0.501130521297455, -0.525332689285278, 0.144992694258690, 0.001964211929590, -0.450124055147171, 0.069694533944130, 0.367507427930832, 0.215519174933434, 0.008892492391169, 0.409209966659546, -0.176429167389870, 0.167439118027687, 0.285068064928055, 0.833792865276337, 0.041105583310127, 0.336105734109879, 0.108523763716221, 0.024700479581952, 0.079011932015419, -0.183811768889427, 0.154527664184570, 0.027879342436790, 0.707607865333557, 0.398892611265182, 0.210984691977501, -0.066440872848034, 0.086521543562412, 0.465396553277969, 0.149504631757736, -0.188623458147049, 0.275019317865372, 0.708959758281708, 0.128332123160362, -0.104175209999084, 0.475347548723221, 0.484189718961716, -0.080662555992603, 0.725712776184082, -0.045361325144768, 0.458629965782166, -0.139347538352013, 0.498569130897522, -0.163960918784142, -0.135259389877319, 0.382837027311325, -0.289073526859283, -0.043227206915617, 0.738864779472351, 0.503720939159393, 0.394650191068649, 0.092428736388683, 0.425587624311447, 0.242228150367737, 0.055488336831331, 0.095326296985149, 0.104169346392155, -0.319393575191498, 0.069546736776829, 0.065227553248405, 0.568741738796234, -0.053233973681927, 0.149100765585899, 0.588430702686310, 0.788319945335388, -0.169220134615898, 0.275817990303040, 0.296374797821045, 0.283201843500137, 0.639321744441986, -0.332098484039307, 0.469486355781555, 0.321511059999466, -0.177904501557350, -0.143923744559288, -0.017732381820679, -0.034148842096329, 0.008521244861186, 0.425377666950226, -0.345727354288101, -0.680632710456848, -0.197215497493744, 0.764361381530762, -1.090398788452148, -0.386010706424713, 0.202899068593979, -0.706986904144287, -0.236161321401596, 0.107615925371647, -0.217156648635864, -0.268128126859665, -0.496041506528854, 0.084823280572891, -0.149841576814651, 0.133155107498169, 0.494541049003601, 0.622432112693787, -0.581029117107391, -0.163058519363403, -0.451822280883789, 0.123208634555340, -0.702111601829529, -0.084598414599895, 0.075830392539501, -0.272143483161926, 0.574152946472168, -0.677446961402893, 0.045631919056177, 0.968902945518494, -0.549579620361328, -0.089247390627861, -0.481728672981262, -0.191676333546638, 0.052165333181620, -0.308655083179474, 0.167815417051315, 0.268365651369095, -0.304558604955673, -0.617991387844086, -0.792116761207581, -0.176306188106537, -0.014317290857434, -0.053620282560587, -0.199167251586914, -0.237957790493965, 0.526849508285522, -0.124393068253994, -0.152417838573456, 0.307629048824310, -0.254351675510406, -0.753214001655579, -0.168117880821228, 0.444900989532471, 0.219455033540726, -0.229819864034653, 0.390361934900284, 0.667462766170502, 0.023656608536839, -0.180460751056671, -0.391665697097778, -0.187667295336723, -0.543572783470154, 1.034112572669983, -0.007567879743874, -0.372996568679810, 0.010384232737124, 0.051380414515734, -0.150520190596581, -0.158245429396629, 0.125247225165367, 0.067509777843952, 0.041168969124556, 0.291981607675552, 0.276365727186203, 0.385745972394943, -0.128768086433411, 0.060513429343700, -0.224064081907272, -0.138203710317612, 0.265587538480759, 0.158745840191841, 0.055055961012840, 0.373334795236588, -0.223562136292458, -0.107889331877232, -0.035358224064112, 0.076407678425312, 0.011883559636772, 0.144940167665482, -0.186312332749367, 0.187954097986221, 0.008745686151087, -0.398020237684250, -0.134017348289490, -0.103552691638470, 0.149180293083191, 0.434942960739136, -0.230590537190437, -0.140487238764763, -0.000765800243244, -0.526424348354340, 0.185132682323456, 0.096153914928436, -0.128737300634384, -0.041251480579376, -0.128092825412750, -0.030757179483771, -0.398000776767731, 0.040322914719582, 0.245405197143555, -0.262098342180252, 0.049722701311111, 0.192087113857269, -0.192890927195549, 0.088986948132515, -0.390837281942368, 0.565686047077179, -0.158145830035210, -0.117541193962097, 0.168348804116249, 0.137467399239540, -0.288557946681976, 0.119400575757027, -0.324290484189987, -0.062276605516672, -0.101419053971767, -0.162187784910202, 0.284109383821487, -0.135349631309509, 0.103501781821251, -0.365937441587448, 0.018235960975289, 0.469499528408051, 0.612642347812653, 0.999132931232452, 0.902828097343445, -0.151290848851204, 0.420325785875320, 0.084173373878002, -0.080430783331394, 0.432680696249008, -0.069364845752716, 0.872142076492310, 0.289748638868332, 0.521745681762695, 0.210820421576500, -1.069128274917603, 0.027929864823818, 0.182778432965279, -0.510066986083984, -0.056608214974403, 0.001230403431691, 0.118801720440388, -0.001281559932977, 0.245540648698807, 0.333626151084900, 0.296851575374603, 0.368662714958191, 0.805572450160980, 0.289336234331131, 0.433914810419083, -0.248228773474693, -0.602414608001709, 1.155808568000793, -0.381228208541870, 0.115853346884251, 0.795309364795685, 0.204615950584412, -0.636815786361694, 0.335457950830460, -0.073071293532848, 1.161596298217773, -0.098079137504101, 0.090716727077961, -0.134917676448822, 0.904983341693878, 0.605131030082703, -0.084553033113480, 0.617045104503632, -0.705827236175537, 0.745747566223145, -0.170605778694153, -0.374537318944931, 0.469939440488815, -0.384635061025620, 0.838510572910309, 0.140333101153374, -0.037052929401398, -0.178526327013969, 1.688502192497253, 0.417701691389084, 0.506988406181335, 0.524301707744598, 0.324955582618713, 1.617489814758301, -0.304270863533020, 1.148438930511475, 0.131522789597511, -0.691807627677917, -0.128007665276527, -0.244939103722572, 0.081718057394028, -0.925947427749634, -0.111652225255966, 1.245516777038574, -0.178327500820160, -0.140480279922485, -0.854759037494659, -0.893381774425507, -0.019502948969603, 0.390896677970886, 0.141200318932533, -0.425506085157394, 1.072704911231995, 1.041436672210693, -0.246860995888710, 0.583425641059875, 0.136038914322853, 0.546476364135742, -0.908643066883087, 0.809737682342529, -1.281664967536926, -0.447907984256744, -0.649282157421112, 0.330709606409073, -0.844310700893402, 0.595374584197998, 0.565965890884399, 0.654415011405945, -0.923238456249237, -0.461435973644257, -0.290802091360092, -0.808808147907257, -0.011809596791863, -1.001904964447021, -1.107898354530334, 0.988310098648071, -0.119373276829720, 0.054142415523529, 0.006536862347275, -0.570355951786041, 0.125380828976631, -0.589046299457550, 1.602633595466614, 0.609297633171082, 0.958817720413208, -1.013170838356018, 0.532460689544678, -0.256433993577957, -0.599968492984772, -0.708008229732513, -0.206491395831108, -0.020827705040574, -0.052223511040211, -0.581851482391357, 0.302337527275085, 0.105498306453228, 0.099912956357002, -0.326179444789886, -0.260978728532791, -0.128920689225197, 0.281668961048126, -0.613780200481415, 0.071710385382175, 0.830745637416840, -0.271231561899185, 0.660428225994110, 0.523750007152557, 0.613544404506683, -0.252929687500000, 0.453538745641708, -0.296191751956940, 0.009886482730508, -0.281303763389587, -0.151833757758141, 0.062352038919926, 0.658206522464752, -0.009430015459657, -0.670894622802734, -0.080112524330616, 0.246688380837440, 0.564103364944458, 0.743578374385834, 0.257851183414459, -0.111778132617474, -0.204731807112694, 0.341163396835327, -0.593734741210938, 0.179311245679855, 0.044042866677046, 0.394678682088852, -0.622413039207458, -0.200207933783531, 0.145836815237999, 0.542043149471283, -0.555928766727448, -0.174470171332359, 0.320875674486160, -0.310368031263351, -0.069676324725151, 0.276551902294159, 0.349609911441803, 0.096757523715496, -0.523826956748962, -0.294835567474365, -0.174803659319878, 0.336807072162628, 0.205547347664833, 0.059137430042028, -0.553744077682495, -0.237324163317680, -0.917347788810730, 0.669636964797974, 0.254531055688858, -0.601695954799652, 0.001486459281296, -0.456699073314667, 0.051832269877195, 0.431387007236481, 0.068986460566521, 0.548875451087952, -0.474645584821701, 0.246619164943695, 0.537029743194580, 0.690959095954895, 0.640361487865448, 0.222769185900688, 0.152263164520264, 0.326893866062164, 0.071212045848370, 0.996665418148041, -0.286431342363358, -0.206680297851562, -0.310816615819931, -0.438972085714340, 0.197761580348015, -0.950038671493530, 0.385734081268311, -0.116051264107227, -0.074271060526371, 0.186792179942131, -0.037943530827761, -0.451679974794388, 0.245255112648010, 0.784758567810059, 0.021999448537827, -0.157983645796776, -0.079651311039925, -0.096715375781059, -0.121455915272236, -0.333147734403610, 0.065190501511097, -0.360418677330017, 0.129349052906036, 0.363403081893921, 0.512230694293976, 0.745486676692963, -0.095279835164547, 0.338517099618912, 1.021211385726929, -0.225639909505844, 0.659230172634125, -0.079606197774410, 0.125006601214409, 0.126394867897034, -0.141651585698128, 0.417769640684128, 0.016729656606913, -0.511153876781464, -0.126819893717766, -0.460409551858902, -0.294386982917786, 0.402128458023071, -0.369952201843262, 1.012660503387451, -0.329904347658157, 0.370293319225311, 0.636807739734650, 0.934156417846680, 0.059231221675873, 0.027455894276500, -0.555827319622040, 0.381929993629456, -0.079531468451023, 0.075962081551552, 0.304304152727127, -0.403827428817749, -0.135859906673431, -0.313657701015472, 0.596500277519226, 0.249798610806465, 0.335509747266769, 0.386693328619003, -0.067471176385880, -1.233926892280579, 0.042997132986784, 0.141474083065987, 0.669020116329193, -0.617215633392334, -0.136339217424393, 0.486684799194336, 0.029733393341303, 0.423174798488617, -0.686402559280396, 0.706979870796204, -0.269681751728058, -0.749366223812103, -0.507692277431488, 0.314066022634506, 0.172925367951393, 0.533497095108032, -0.441748112440109, 0.466053992509842, -0.602823078632355, 0.175386309623718, -0.079975835978985, 0.763166069984436, -0.809035599231720, 0.082024827599525, 0.590786278247833, 0.109650582075119, -0.458758831024170, -0.258639037609100, 0.886761009693146, 0.237452685832977, -0.996134042739868, 0.024459002539515, -0.957089185714722, 0.541539728641510, -0.966890573501587, -0.561917662620544, 0.075144045054913, -0.548388659954071, 0.537667334079742, -0.263112992048264, 0.688744306564331, 0.079991489648819, -0.504336357116699, -0.610694825649261, -1.453553557395935, -0.629282176494598, -0.328022718429565, -0.892039299011230, -0.404714405536652, -0.565111994743347, -0.210525810718536, -0.311640173196793, -0.016459539532661, -0.146525457501411, 0.291625231504440, 0.108206868171692, 0.072083339095116, -0.143719136714935, 0.123495854437351, 0.380223572254181, 0.741497397422791, -0.201697081327438, 0.021281121298671, -0.187433660030365, -0.076283022761345, 0.221733883023262, 0.414776146411896, 0.149892732501030, 0.592034041881561, 0.685053706169128, 0.483374983072281, -0.295652478933334, 0.268287152051926, 0.102249570190907, 0.055730141699314, 0.384542077779770, -0.280193328857422, -0.676679909229279, 0.215282410383224, -0.732813179492950, -0.659324288368225, -0.191652595996857, -0.196229442954063, -0.513085424900055, -0.203883007168770, 0.206973850727081, -0.250276833772659, -0.251754403114319, 0.279139190912247, 0.279407382011414, -0.619018256664276, 0.121382251381874, -0.385316520929337, -0.436210632324219, -0.011599314399064, 0.060679934918880, -0.862137496471405, 0.425609380006790, 0.277682304382324, 0.108839564025402, 0.016173236072063, 0.222504839301109, 0.134134382009506, -0.100351542234421, -0.055801179260015, -0.111299954354763, 0.068106979131699, 0.058180514723063, 0.447093218564987, 0.188123747706413, 0.161877214908600, -0.403095841407776, -0.033042874187231, -0.052924767136574, 0.307139217853546, -0.060942027717829, 0.016004154458642, 0.311930805444717, 0.115448303520679, 0.550187408924103, 0.371549457311630, 0.162036940455437, -0.323521405458450, 1.262533545494080, 0.617651164531708, -0.249865412712097, -0.205887764692307, 0.499043107032776, -0.118978999555111, 1.109559893608093, 0.905946314334869, -0.188962221145630, 0.329779803752899, 0.154649898409843, 0.358805567026138, 0.834045648574829, 0.249247446656227, -0.136748000979424, -0.673285424709320, -0.037685070186853, 0.264564216136932, -0.261004805564880, 0.206229284405708, -0.061803031712770, 0.218707263469696, -0.273041397333145, -0.182125344872475, -0.026995414867997, 0.048427801579237, -0.237923905253410, 0.060852829366922, -0.225808754563332, 0.261953651905060, 0.687407910823822, 0.359279662370682, 0.495593518018723, 0.585977613925934, -0.272318929433823, 0.260459601879120, 0.327396273612976, 0.427592903375626, -0.210149288177490, -0.078295528888702, 0.134696185588837, 0.041542548686266, 0.572282552719116, 0.370879769325256, 0.187826380133629, -0.238514125347137, 0.303620189428329, 0.154773011803627, -0.533013522624969, 0.399138122797012, -0.179040521383286, 0.088821671903133, -0.105921745300293, -0.019096445292234, 0.376656651496887, -0.099404491484165, 0.285794973373413, -0.214037805795670, 0.107344038784504, -0.285149037837982, 0.526568114757538, -0.074487946927547, 0.022702364251018, -0.673446595668793, -0.707673490047455, 0.504161417484283, -0.390481144189835, 0.377253413200378, -0.422400802373886, 0.021684814244509, -0.346928745508194, -0.324594110250473, -0.267049580812454, -0.145427867770195, -0.213701829314232, -0.607558608055115, 0.426950007677078, 0.449269562959671, 0.628463327884674, 0.705860078334808, 0.175723373889923, 0.183389231562614, -0.446765184402466, 0.008674134500325, -0.114029742777348, -0.472543597221375, 0.068497426807880, 0.222936049103737, -0.561257064342499, -0.283168166875839, 0.123832702636719, -0.696124970912933, -0.113555833697319, -0.009507466107607, -0.292475968599319, 0.274567514657974, 0.754910588264465, 0.095538601279259, 0.438760370016098, -0.047480925917625, -0.547345042228699, -0.190912052989006, -0.652651786804199, 0.277741998434067, -0.364969193935394, 0.216314315795898, -0.067444697022438, -0.302682727575302, -0.472038239240646, 0.062642619013786, -0.023218698799610, -0.669105529785156, 0.334513247013092, 0.270929127931595, -0.501687586307526, -0.326099306344986, -0.125366836786270, -0.451767235994339, 0.497906178236008, 0.394633591175079, 0.182727336883545, 0.532185792922974, -0.222837343811989, -0.194941192865372, -0.275045275688171, -0.171378657221794, 0.307188868522644, -0.435468971729279, -0.142271295189857, -0.121981926262379, 0.190330743789673, 0.325973093509674, 0.015537738800049, -0.215629994869232, -0.387187063694000, 0.163364157080650, 0.331992685794830, 0.083336897194386, -0.428706943988800, 0.325640141963959, -0.226486116647720, -0.183118358254433, 0.250932693481445, -0.227462440729141, 0.369737982749939, -0.018001282587647, -0.082429654896259, -0.429010331630707, -0.005192243959755, -0.039848860353231, -0.560488820075989, -0.088160090148449, 0.075047805905342, 0.397709578275681, 0.029718639329076, 0.181459039449692, -0.288244396448135, -0.006638834718615, -0.589646637439728, -0.200750604271889, -0.125002682209015, 0.029436215758324, -0.419617831707001, 0.067138165235519, -0.282314985990524, -0.202057301998138, -0.164232924580574, 0.180269420146942, 0.362235486507416, -0.509495377540588, 0.242944866418839, -0.133660539984703, -0.544126808643341, -0.068219959735870, 0.066065669059753, 0.055113565176725, 0.290872424840927, 0.017067141830921, 0.036422949284315, 0.267511874437332, -0.097168505191803, 0.048124212771654, -0.048494603484869, 0.185110196471214, 0.258084923028946, 0.652243256568909, -0.659412145614624, 0.198920458555222, 0.664761185646057, 0.214080497622490, -0.288749366998672, 0.101142406463623, 0.086943373084068, 0.423127233982086, 0.639327824115753, 0.645245194435120, -0.563797116279602, -0.201438054442406, 0.296847134828568, 0.362699270248413, 0.128997832536697, -0.120469935238361, 1.003594636917114, 0.035109858959913, -0.058478269726038, 0.306596308946609, 0.598223268985748, 0.370186269283295, 0.686900198459625, 0.599982857704163, -0.487804979085922, 0.546359598636627, 0.023636123165488, 0.679287493228912, -0.108687385916710, 0.315876930952072, 0.262602716684341, 0.298837840557098, 0.209523469209671, 0.025702111423016, 0.494386970996857, -0.035611409693956, 0.853944182395935, 0.570334613323212, 0.319541633129120, -0.334395945072174, -0.012228093110025, 0.057753909379244, 0.534540355205536, 0.205669134855270, 0.026284880936146, 0.434142529964447, -0.131178766489029, -0.133178874850273, 0.136691823601723, -0.101912543177605, -0.263272106647491, 0.740373730659485, -0.121957451105118, 0.108353279531002, 1.033253312110901, 0.441724807024002, -0.673307716846466, 0.338247388601303, -0.075915426015854, 0.554586529731750, -0.075060896575451, 0.446993768215179, -0.149355039000511, -0.240342229604721, 0.569949030876160, -0.079196594655514, -0.328721463680267, 0.100661046802998, -0.251868188381195, -0.757246196269989, -0.453714072704315, -0.209137529134750, -0.049640085548162, -1.227352142333984, 0.795583307743073, 0.816242039203644, -0.022494660690427, -0.868256926536560, 1.055341243743896, -1.016428709030151, 1.247982621192932, -0.291457563638687, -0.661533415317535, 0.251336485147476, -0.689463973045349, -1.071179628372192, 1.141944885253906, 0.366855621337891, -0.025735726580024, 0.157192662358284, -0.348308831453323, -0.931393563747406, -0.276077181100845, -0.577279984951019, 0.680883705615997, -0.229382798075676, -0.008725254796445, -0.036716256290674, -0.867841958999634, 0.133124023675919, 0.040045313537121, -0.109635680913925, -0.311162680387497, 0.212061271071434, -0.489852726459503, -0.365872710943222, -0.694264650344849, -0.819503247737885, -0.624691247940063, 1.071640491485596, -0.477261066436768, -1.031451344490051, -0.735382735729218, 1.397259593009949, -0.107415862381458, -0.026429761201143, -0.394627392292023, -0.237383991479874, 0.034197933971882, -0.491243302822113, -0.510163962841034, -0.622420787811279, -0.759566605091095, 0.340163469314575, 0.088909104466438, 1.352045416831970, -1.103164434432983, 0.468758851289749, 0.125923678278923, -0.004394571296871, -0.319435060024261, 0.067142605781555, 0.048910215497017, -0.093627668917179, 0.596729695796967, 0.991268515586853, 0.313374996185303, -0.132049351930618, 0.440882474184036, -0.179225966334343, -0.106510259211063, -0.383224844932556, 0.085289366543293, 0.074331089854240, -0.652046084403992, 0.116456158459187, -0.264828771352768, -0.325271487236023, -0.092435613274574, 0.350836902856827, -0.000905680411961, -0.473576486110687, 0.035282727330923, 0.275233924388885, 0.354812920093536, -0.057565346360207, 0.660162985324860, -0.104982338845730, 0.497663050889969, -0.363891452550888, -0.175286546349525, -0.092535227537155, 0.208641231060028, 0.532497525215149, -0.268723189830780, -0.646313965320587, -0.359036177396774, -0.458139032125473, 0.051488626748323, -0.274452567100525, -0.513513565063477, -0.410354554653168, -0.047621667385101, -0.116802275180817, -0.080685012042522, 0.192716494202614, 0.197771713137627, 0.205720245838165, -0.160213589668274, -0.379789322614670, 0.101966790854931, 0.401975244283676, -0.080078162252903, -0.284431248903275, 0.458797067403793, 0.273953497409821, -0.159504711627960, 0.311813712120056, 0.010916094295681, 0.285579025745392, -0.197133392095566, -0.135980755090714, 0.037262536585331, 0.508739113807678, 1.035169720649719, -0.257283538579941, -0.382465779781342, 0.004817734006792, -0.028557747602463, -0.372482508420944, 0.749333024024963, 1.200618147850037, -0.742920875549316, -0.441823869943619, -0.102619037032127, 0.391166865825653, -0.264686465263367, 0.304522752761841, -0.157311245799065, 0.231248736381531, 1.109845876693726, 0.450272381305695, 0.468109875917435, -0.135841935873032, -0.239740207791328, 0.953671753406525, -0.314945250749588, 1.395988106727600, 0.772357523441315, 0.858901023864746, 0.277792334556580, 0.438705474138260, 0.304305195808411, -0.038732156157494, -0.191486969590187, -0.439707636833191, -0.546338737010956, -0.457316428422928, 0.075983494520187, -0.083229877054691, 0.067201316356659, 0.314985722303391, 0.181067720055580, 0.131273016333580, 0.962143719196320, -0.217612832784653, -0.912159681320190, -0.278127610683441, -0.460017383098602, -0.011951491236687, -0.213237240910530, -0.391243070363998, 0.389783918857574, 0.608882188796997, -0.413176238536835, 0.524388492107391, -0.557248055934906, 0.408618807792664, 0.705176353454590, 0.863014161586761, 0.637311398983002, 0.357150584459305, 0.386997044086456, -0.199778571724892, 0.584936380386353, -0.039585649967194, 0.024935156106949, 0.724337875843048, 0.291097193956375, -0.434477031230927, 0.383221626281738, -0.082721009850502, 0.146153807640076, -0.602858841419220, -0.070593520998955, -0.096029058098793, 0.165064722299576, 0.895354747772217, 0.852702021598816, 0.419432729482651, 0.455616295337677, -0.675084888935089, -0.190759435296059, -0.633831143379211, -0.290630221366882, -0.378929525613785, -1.594534397125244, -0.011888204142451, -0.135197028517723, 0.591943204402924, 0.397960662841797, -1.105151057243347, -0.263777852058411, -0.610372722148895, -0.843151390552521, 0.663305342197418, 0.406918853521347, -0.099810078740120, 0.747323513031006, -0.158789113163948, 0.774003446102142, 0.120294943451881, -0.670105278491974, 1.435376524925232, 0.256544440984726, -0.290138036012650, 0.921300411224365, 0.652855753898621, -0.628313422203064, -0.696099460124969, -0.031887888908386, 0.628843665122986, 0.015087530016899, -0.326148033142090, -0.544616758823395, -1.428819537162781, -0.707534432411194, -0.287837743759155, -0.573108971118927, 0.472427159547806, 1.326470255851746, -1.109990477561951, -0.195368096232414, -1.086439013481140, -0.518161237239838, -0.451544672250748, 0.438198447227478, 1.282712340354919, -0.754249691963196, -0.147404193878174, -0.409173935651779, -0.491946727037430, -0.404875725507736, -0.888263702392578, 0.140380129218102, 0.302726268768311, -0.022551378235221, 0.408955484628677, 0.199639484286308, 0.487381875514984, 0.138784974813461, 0.262506842613220, -0.385284662246704, 0.171600520610809, 0.561644911766052, 0.031000124290586, -1.014243125915527, -0.025037741288543, -0.313971698284149, -1.071090221405029, 0.186457604169846, -0.780228257179260, 0.863224923610687, 0.344103634357452, -0.450886964797974, 0.294589906930923, 0.387360066175461, 0.651133537292480, -0.526092767715454, 0.310770124197006, -0.428216725587845, 0.302727818489075, 0.007665943354368, 0.312741428613663, 0.232240751385689, 0.068759769201279, -0.126397997140884, 0.670174717903137, -0.229675903916359, -0.558088541030884, 0.361315220594406, -0.626011252403259, 0.140271231532097, -0.186775907874107, 0.214236140251160, 0.271197855472565, -0.690832257270813, -0.070757247507572, 0.353439986705780, -0.823020637035370, -0.235005855560303, 0.020437125116587, 0.042596045881510, -0.032967466861010, 0.301668256521225, 0.061678923666477, -0.371489495038986, -0.566145479679108, -0.290315955877304, 0.155087783932686, 0.086620643734932, 0.788821935653687, 0.410372793674469, -0.267278939485550, -1.057524085044861, 0.205923274159431, 0.400994569063187, 0.034519739449024, 0.480422735214233, 0.847353458404541, -0.481628358364105, -0.847710728645325, -0.257797390222549, -0.365383565425873, 0.535861432552338, 0.129326701164246, 0.171239241957664, -0.577877759933472, 0.606674551963806, -0.678366184234619, 0.259353280067444, 0.153616309165955, -0.110471487045288, 1.744676828384399, 0.241488948464394, -0.214945167303085, 0.934376776218414, 1.026586174964905, 0.441421657800674, 1.046594262123108, 0.015619293786585, 0.081557385623455, -0.494568556547165, -0.425490051507950, -0.005751666147262, -0.853130877017975, -0.320315539836884, -0.434230625629425, -0.397817671298981, 0.882951796054840, 0.292262613773346, 0.248939365148544, 0.475239247083664, 0.218829408288002, -0.564663112163544, 0.191944554448128, -0.533515810966492, 0.039238438010216, -0.410024672746658, -0.383780539035797, 1.495120406150818, -0.692481517791748, 0.450646609067917, -0.248576045036316, 0.253658622503281, 0.395793914794922, 0.013864462263882, 0.855476975440979, -0.190557613968849, -0.506045818328857, -0.428184598684311, 1.068576693534851, 0.541745126247406, -0.157634556293488, 0.374643474817276, -0.140318706631660, 0.092575527727604, -0.406683057546616, -1.456176757812500, 0.783262372016907, -0.793791234493256, 0.268280029296875, -0.202966541051865, -0.260276913642883, -0.358890414237976, -1.306924104690552, 0.237512454390526, -0.124922096729279, 0.075869105756283, 0.254023462533951, 0.438016682863235, -0.231818065047264, 0.501026034355164, -0.125087141990662, 1.433735251426697, -0.247107684612274, 0.475885301828384, 0.353933364152908, -0.526694416999817, 0.214000850915909, 0.736910521984100, -0.282574057579041, 0.546972393989563, 0.095001481473446, -0.217361047863960, -0.958518147468567, 0.424499064683914, 0.383545488119125, -0.419454187154770, -0.729218900203705, -0.079520307481289, -0.753651440143585, -1.143054723739624, -0.441609978675842, -1.109911561012268, -0.893780171871185, -0.036046821624041, -0.469557851552963, -0.630642712116241, -0.297547191381454, -0.211295053362846, -0.587557196617126, -0.896254479885101, -0.758214294910431, -0.134906068444252, 0.638785839080811, -0.461861759424210, -0.585063695907593, 0.286773890256882, -0.635953307151794, -0.271741271018982, -0.974372684955597, -0.119660496711731, -0.882932364940643, -0.220979332923889, -0.658958137035370, 0.112028598785400, -0.518556416034698, -0.314104586839676, 0.166170760989189, 0.853919804096222, -0.485864967107773, -0.242735370993614, -0.095254734158516, 1.025543808937073, 0.490309298038483, -0.121290780603886, 0.165950968861580, -0.688909053802490, -1.102834582328796, 0.579270184040070, -0.790002286434174, -0.235329195857048, 0.162922769784927, 0.752861440181732, -0.316263049840927, -0.274159073829651, -0.588931441307068, 0.536716580390930, -0.440620660781860, 0.214412271976471, -0.015039769001305, 0.510412931442261, -0.104982212185860, -0.790004014968872, -0.298339784145355, -0.017386488616467, -0.631961882114410, 1.022630810737610, 0.639767825603485, -0.842078626155853, 0.474702835083008, 0.510638713836670, 0.203974828124046, -0.613008916378021, 0.049498580396175, -0.113370433449745, 0.934016644954681, -1.029195547103882, -0.456153273582458, -0.100511386990547, 0.797725379467010, -1.104683876037598, 0.041446600109339, -0.789070844650269, -0.109975747764111, -0.380793541669846, -0.851306140422821, 0.100641317665577, -1.066274642944336, -0.590570569038391, -0.118049696087837, 0.703933715820312, -0.227400347590446, 0.457175254821777, -0.880828559398651, -0.205792903900146, -0.538743019104004, 0.135266408324242, 0.227512270212173, -0.781558811664581, -0.274639993906021, -0.221203774213791, -0.506495654582977, -0.768971800804138, 0.711736023426056, 0.626722455024719, 0.003293470945209, 0.338759571313858, -0.326383531093597, 0.827639877796173, 0.538792669773102, -0.629919350147247, -0.305899024009705, 0.073466420173645, 0.078348815441132, -0.380936831235886, 0.015703173354268, -0.668438434600830, 0.204664453864098, -0.273401767015457, 0.209315925836563, -0.295154035091400, 0.023003900423646, -0.363478004932404, -0.704396247863770, -0.545344173908234, 0.460888355970383, 0.036506716161966, 0.818921923637390, 0.513919889926910, -0.131919905543327, -0.236046567559242, 0.341417551040649, 0.333849042654037, -0.308251619338989, -0.427115648984909, 0.024111179634929, 0.070674262940884, 0.050335094332695, -0.267074018716812, -0.936739265918732, 0.586566507816315, 0.376887798309326, 0.006870888639241, 0.121993757784367, 0.028593907132745, 0.661207735538483, 0.208815425634384, 0.583485960960388, 0.613649129867554, -0.523810267448425, 0.146338030695915, -0.378613740205765, -0.436034291982651, -0.048551313579082, 0.203818783164024, 0.063240006566048, 0.368750631809235, 0.574055969715118, 0.119184821844101, 0.367705613374710, 0.145958051085472, 0.428470015525818, 0.200356051325798, -0.065643101930618, 0.902325689792633, -0.352226942777634, 0.417396634817123, -0.281248956918716, -0.729588806629181, -0.735602855682373, 0.475135862827301, 0.097386106848717, -0.001239831792191, 0.542276918888092, 0.099494114518166, 0.678142368793488, -0.081251367926598, -1.036802411079407, -0.078315965831280, 0.731343805789948, -0.214247345924377, 0.790993034839630, -0.451793700456619, -0.358453601598740, 0.752430558204651, -0.362788051366806, 0.771565496921539, -0.098542205989361, -0.136401101946831, -0.491433709859848, -1.640420436859131, 0.108175247907639, 0.587881088256836, -0.574537992477417, -1.021502137184143, -0.621918618679047, -1.320592641830444, -1.176815390586853, -0.033194135874510, -0.458903253078461, -0.401910692453384, -0.615697324275970, 0.104076847434044, -0.377851784229279, 0.508592009544373, -0.476298600435257, -0.643860578536987, 0.012201687321067, -0.442543357610703, 0.193906918168068, -0.047323521226645, 0.142855495214462, -0.457342416048050, -0.323275923728943, 0.275630414485931, 0.959676086902618, -0.653989970684052, -1.186682105064392, -1.380276203155518, -0.001031681662425, -0.847151994705200, -0.495903342962265, -0.886424541473389, -0.585699260234833, -0.045353915542364, 0.138896897435188, -0.360342800617218, -0.041012201458216, -0.705243945121765, -0.829639434814453, -0.772328972816467, -0.024995271116495, 0.121935620903969, -0.046723287552595, 0.479717016220093, -0.047545157372952, -0.022922016680241, 0.550437867641449, -0.031153636053205, -0.024595987051725, -0.195169523358345, 0.272531270980835, 0.159506961703300, 0.279213398694992, 0.328057825565338, 0.467954128980637, -0.469542890787125, -0.460701853036880, 0.657993555068970, -0.440445601940155, 0.605970025062561, 1.189302444458008, 0.394327610731125, -0.325199991464615, 0.087491542100906, -0.153632178902626, 0.094813331961632, -0.971452713012695, -0.409897953271866, -0.271856516599655, -0.579079627990723, 0.286604911088943, 0.033844165503979, -0.461413323879242, 0.562913000583649, 0.029000658541918, 0.282108485698700, 0.010830705985427, 0.143772020936012, -0.165463566780090, -0.702300250530243, -0.405149847269058, 0.335943758487701, -0.474775552749634, 0.462051630020142, 0.213949367403984, -0.139744862914085, -0.502492189407349, -0.128223866224289, -0.173100054264069, 0.180690094828606, -0.469288378953934, 0.580914199352264, 0.386942595243454, -0.158542335033417, 0.470731317996979, 0.306206047534943, -0.361119031906128, -0.128640428185463, -0.212272226810455, -0.181873828172684, 0.082180805504322, -0.003225518623367, -0.048069950193167, 0.094173520803452, 0.458714455366135, 0.232120752334595, 0.414051324129105, 1.023490071296692, 0.149465978145599, 0.394082069396973, 0.047304842621088, -0.275265961885452, 0.753396093845367, -0.498946249485016, 0.595500946044922, 1.302284836769104, 0.271815419197083, -0.002845506882295, 0.694606423377991, 0.242434799671173, 1.103480696678162, -0.225716218352318, -0.293104916810989, 0.739187896251678, 0.355788350105286, -0.404197871685028, 0.275732398033142, 0.384345680475235, 0.476690113544464, 0.807872653007507, -0.459410965442657, 0.032968025654554, 0.323719948530197, 0.685637712478638, 0.051038019359112, -0.416975051164627, 0.087876871228218, -0.320758253335953, -0.252479881048203, 0.352214664220810, -0.286686599254608, 0.956303179264069, -0.082386754453182, -0.424465358257294, 0.343727439641953, 0.258455902338028, -0.254537433385849, 0.067829407751560, -0.765684962272644, -0.511137187480927, 0.530152797698975, 0.035121839493513, -0.201880812644958, 0.223785638809204, 0.169208973646164, -0.414729595184326, -0.014636198058724, -0.742194652557373, 1.806547760963440, -0.269759058952332, -0.068884544074535, -0.018650382757187, 0.424736291170120, -0.480121821165085, -0.137750819325447, -0.381455689668655, -0.672407269477844, 1.248386144638062, 0.639480531215668, -0.045114874839783, 0.096165791153908, -0.756060421466827, 0.372307032346725, -0.518513858318329, -0.226550251245499, -0.273146867752075, -0.655839443206787, -0.302125334739685, -0.423255950212479, -0.669599890708923, -0.682777643203735, 0.158742547035217, 0.274001806974411, 0.611865460872650, 0.001869480125606, 0.690567433834076, 0.529508054256439, -0.230568215250969, -0.672162294387817, -0.042900230735540, -0.654486536979675, -0.358531326055527, -0.878106713294983, 0.439269393682480, 0.067933402955532, 0.513310432434082, 1.099178910255432, -1.874754190444946, -0.763012468814850, -1.287503480911255, 0.402688622474670, 0.908608555793762, 0.915525734424591, -1.052449464797974, -0.220558181405067, 0.609508931636810, -0.255505740642548, 0.140877619385719, 0.416273504495621, -0.290916115045547, 0.254690468311310, 0.656140923500061, -0.454863697290421, -0.045450437813997, 0.281591832637787, -0.562696516513824, -0.863382220268250, -0.244722515344620, -0.202154904603958, 1.153278231620789, -0.461617350578308, 1.525799989700317, -0.768892049789429, -0.169528007507324, -0.752799153327942, -0.893508613109589, 0.150884792208672, 0.760004699230194, 0.312202155590057, -0.824200391769409, -0.077955357730389, -1.012505531311035, -0.258610963821411, -0.707175910472870, -0.802239537239075, -0.120498865842819, -0.337080597877502, 0.165571659803391, 0.410304486751556, 0.535530030727386, 0.330508291721344, -0.586152672767639, 0.121966525912285, -0.489136278629303, -0.037523936480284, 0.089553363621235, 0.342161178588867, -0.729224383831024, 0.176207050681114, 0.050506114959717, -1.007444143295288, -0.052118908613920, 0.584570884704590, -0.674655258655548, 0.468680769205093, -0.023921243846416, -1.171740055084229, -0.143529325723648, -0.178456276655197, 0.210701793432236, 0.069495722651482, 0.010626971721649, 0.034760609269142, 0.212466031312943, 0.752393245697021, -0.902432501316071, 0.192056536674500, -0.261842131614685, 0.479298651218414, 0.071578733623028, -0.639700770378113, -0.061541590839624, -0.340896129608154, -0.420281499624252, -0.275450050830841, 0.125359028577805, 0.999179422855377, -0.646190106868744, 0.249033898115158, 0.313246071338654, 0.640724062919617, -0.319241046905518, 0.068937040865421, 0.167530074715614, 0.791586816310883, -0.922504484653473, 0.252328336238861, -0.341404408216476, 0.210817962884903, 0.876031100749969, 0.262729436159134, -0.331759601831436, 0.475409209728241, -0.668937444686890, -0.293410927057266, -0.509567320346832, 0.143644511699677, 0.116184420883656, 0.471441924571991, -0.122740879654884, -0.212211742997169, 0.780811786651611, 0.052056070417166, 0.155242413282394, -0.020061444491148, -0.520416796207428, 0.429199337959290, 0.132438749074936, 0.183279097080231, -0.356540620326996, 0.528063058853149, 0.954477608203888, -0.061322622001171, 1.486227750778198, -0.258333742618561, 0.653648793697357, -0.016425626352429, -0.545930445194244, -0.088108584284782, -0.168087646365166, 1.170382142066956, 0.045463319867849, -0.094809204339981, -0.184606999158859, -0.254234373569489, 0.502107024192810, 0.873869001865387, -0.427012413740158, 0.676429092884064, 0.435473561286926, -0.102016232907772, 0.302450656890869, -0.092914797365665, -0.042464878410101, 0.122438751161098, 0.404696017503738, -0.090256534516811, -0.406139940023422, 0.007412945386022, 0.629674434661865, -0.104154542088509, -0.661368310451508, 0.621407628059387, 0.508599519729614, -0.513099968433380, 0.978812038898468, -0.181944191455841, -0.108746595680714, 0.395971000194550, -0.427386820316315, -0.316026926040649, -1.001121401786804, -0.595522284507751, -0.042740959674120, -0.768880784511566, 0.171086788177490, 0.019779752939939, 0.249465867877007, 0.717929482460022, 0.315684735774994, -0.151587128639221, -0.210507065057755, 0.711141705513000, -0.162461280822754, -0.677956283092499, -0.417377322912216, 0.233149781823158, -0.984276771545410, -0.386665999889374, -0.799597024917603, 0.087560981512070, -0.412320733070374, -1.098139762878418, 0.229745343327522, -0.119084149599075, 0.039952695369720, -0.417523473501205, 0.073923937976360, 0.611705541610718, -0.849214613437653, -0.297782629728317, 0.940773308277130, -0.933446049690247, -0.294073462486267, -0.282141298055649, -0.970159649848938, -0.110020644962788, -0.175959557294846, -0.716633260250092, -0.185961231589317, -0.533275067806244, -0.125976577401161, -0.716543257236481, -0.132860496640205, 0.818526923656464, -0.398477047681808, -0.405647724866867, -0.014929977245629, 0.249998196959496, -0.165249645709991, -0.031096002086997, -0.013893437571824, 0.186674997210503, 0.259707003831863, -0.542719423770905, -1.058645248413086, -0.463721841573715, -0.089847400784492, -0.484467118978500, -0.613980770111084, 0.793917655944824, 0.454453170299530, -0.329024314880371, -0.051560394465923, 0.284267961978912, -1.411445498466492, -0.026981310918927, -0.088858544826508, 0.324002891778946, -0.914748668670654, -0.463339328765869, -0.870535850524902, -0.099165037274361, -1.117003679275513, -0.230714276432991, -0.531327843666077, -0.514778852462769, 0.566141664981842, 0.200048744678497, 0.069015301764011, -0.264726489782333, 0.829655706882477, -0.035841748118401, -0.277436137199402, 0.709475398063660, 0.080110445618629, -0.435247510671616, -0.334517598152161, -0.428544342517853, 0.018315851688385, 0.210638731718063, 0.154360115528107, -0.009126230143011, 0.094933256506920, 0.156564161181450, 0.343379527330399, -0.329635560512543, 0.327287524938583, 0.026080010458827, 0.342763304710388, 0.168647229671478, 0.421926826238632, 0.468020856380463, -0.376720190048218, 0.173588126897812, -0.057247404009104, -0.403661102056503, 0.626695752143860, 0.064593181014061, -0.583414137363434, -0.262964934110641, -0.004027359187603, 0.356891661882401, -0.571675539016724, -0.162754788994789, -0.431565135717392, 0.109652183949947, -0.570230662822723, 0.204170957207680, -0.104105755686760, -0.443602979183197, 0.198605090379715, 0.011959233321249, -0.033438850194216, 0.018202465027571, 0.013871991075575, -0.390057951211929, 0.093681946396828, -0.369097083806992, -0.106100045144558, -0.305714160203934, -0.218313723802567, 0.035150218755007, 0.234377562999725, -0.248910382390022, -0.656863272190094, -0.539926528930664, 0.503646194934845, 0.474838078022003, 0.130356892943382, 0.042997270822525, -0.149928644299507, -0.647795796394348, 0.208828002214432, -0.022666404023767, -0.576956570148468, 0.500282227993011, 0.054414603859186, 0.818441510200500, 0.109739996492863, 0.883404910564423, -0.243652135133743, 0.076293885707855, 1.135260820388794, -0.585539758205414, -0.094103798270226, 0.236572369933128, -0.430834144353867, 0.522580087184906, 0.231215640902519, -0.017241662368178, -0.401437103748322, -0.131837248802185, -0.192915946245193, 0.452739119529724, -0.236224010586739, 0.190342456102371, -0.204265639185905, 0.445892214775085, 0.523205697536469, 0.315300941467285, -0.143135964870453, 0.453351438045502, -0.001204089378007, 1.039584279060364, 0.231114670634270, -0.241662904620171, -0.211474224925041, -0.287840485572815, -0.228259861469269, -0.608505249023438, -0.102333426475525, 0.096164278686047, -0.595156013965607, -0.142180532217026, 0.563450932502747, 0.057818688452244, 0.074175089597702, 0.606910288333893, 0.258095502853394, 0.295129001140594, 0.282185167074203, -0.243225663900375, 0.893657267093658, 0.080737940967083, 0.218860089778900, -0.390402346849442, 0.239692881703377, 0.268348932266235, -1.110529184341431, -0.083350330591202, -0.184404551982880, 0.540438890457153, -0.329213947057724, -1.037501454353333, -0.508681058883667, -1.258233189582825, 0.049273017793894, -0.543604135513306, 0.401099592447281, 0.159800708293915, -0.376281023025513, 0.152527272701263, -0.407329499721527, -0.941506564617157, -0.939881742000580, -0.692091047763824, -0.534777939319611, -0.777119398117065, -1.388939976692200, -0.033600084483624, -0.241617664694786, -0.349520474672318, 0.388280004262924, 0.297509014606476, -0.563397705554962, 0.660572469234467, -0.257233142852783, -0.109144024550915, -0.547679722309113, -0.041719082742929, 0.412735044956207, 0.228621914982796, 0.083838582038879, 0.573599636554718, -0.597439765930176, -0.006764934863895, 0.524746716022491, -0.458903908729553, 0.613329648971558, -0.392495304346085, -0.520643353462219, -0.239368781447411, 0.432798177003860, 0.599581956863403, -0.990992307662964, -0.234123960137367, -0.490280181169510, 0.951757431030273, -0.558747470378876, 0.110937021672726, 0.193177610635757, -0.241255775094032, -0.252156525850296, -0.455669730901718, -0.209517866373062, 0.375135898590088, -0.394185990095139, 0.876848518848419, -0.045423764735460, -0.740967273712158, -1.097093224525452, -0.641907155513763, 0.864760577678680, -0.524646043777466, 0.049643233418465, -0.170291244983673, 0.578258395195007, -0.110668845474720, -0.089397147297859, 0.532781779766083, 0.210704863071442, -0.231449723243713, -0.272601157426834, 0.220550656318665, -0.012165801599622, -0.206829980015755, -0.240716248750687, -0.636308312416077, -0.698285341262817, -0.395984560251236, 0.409226924180984, 0.079334169626236, -0.708057463169098, 0.459704667329788, -0.556315362453461, 0.002696426818147, -0.094226039946079, 0.344332128763199, 0.342980295419693, 0.172794669866562, 0.242617934942245, -0.452062308788300, 0.249692454934120, 0.216048404574394, 0.057692725211382, -0.246158063411713, -0.542099773883820, -0.183979526162148, 0.021258089691401, 0.422085523605347, -0.018844610080123, -0.495800614356995, 0.001319155446254, -0.041740257292986, -0.110680654644966, 0.002216437365860, -0.696325421333313, -0.016443235799670, -0.180513858795166, -0.372167378664017, -0.206025302410126, 0.031901698559523, 0.305311679840088, 0.481310725212097, 0.212841227650642, 0.362609714269638, 0.365621179342270, -0.320700436830521, -0.123393557965755, 0.215366244316101, -0.244587957859039, 0.258341223001480, 0.574057281017303, -0.281309157609940, -0.304366350173950, 0.142783895134926, -0.091243050992489, -0.026004651561379, -0.400462955236435, -0.029750872403383, -0.171018689870834, 0.234496101737022, 0.568339943885803, 0.374412119388580, 0.203523382544518, 0.315727859735489, 0.984569907188416, 0.155989602208138, 0.347418248653412, 0.165606930851936, -0.355814248323441, 0.260587185621262, -0.218761831521988, 0.346213847398758, 0.125671699643135, 0.166668221354485, -0.176728874444962, 0.080953046679497, -0.274897426366806, -0.086905702948570, 0.653685152530670, 0.004450478591025, -0.150142282247543, 0.370939016342163, 0.121413491666317, -0.100521720945835, -0.028223061934114, 0.198889896273613, 0.613704562187195, 0.131574332714081, 0.467551797628403, 0.215549096465111, 0.583998799324036, 0.338636219501495, 0.126820921897888, -0.087457746267319, 0.379945397377014, -0.626717507839203, 0.268563449382782, -0.601666808128357, -0.498446345329285, -0.163938149809837, -0.219327196478844, 0.315507292747498, 0.010409595444798, -0.673831343650818, -0.128635317087173, 0.490874320268631, 0.172718733549118, -0.592970848083496, 0.822283208370209, 0.627625763416290, 0.133309721946716, -0.050875738263130, 0.541900813579559, 0.495162904262543, -0.271015912294388, 0.019358424469829, 0.232339546084404, 0.337826460599899, 0.733278155326843, -0.074164487421513, -0.414379268884659, -0.829137206077576, -0.688978672027588, 0.464448779821396, -0.980316579341888, -0.702333092689514, 0.104919075965881, 0.773442566394806, -0.002527266973630, 0.876815736293793, 0.266429573297501, -0.180708348751068, -0.228057682514191, 0.659870028495789, -0.722724318504333, 0.532487094402313, -0.062678232789040, -0.791306376457214, -0.566882371902466, -0.239711627364159, 0.998906254768372, -0.090311482548714, -0.003183993510902, -0.048893738538027, 0.318913817405701, -0.223419800400734, -0.973007321357727, -0.787586987018585, -0.176957726478577, -0.479863256216049, -0.159978017210960, 0.058317292481661, -0.376855522394180, -0.573961436748505, 0.685447275638580, -0.299228012561798, -1.261463880538940, 0.241265252232552, -0.982404232025146, -0.432902872562408, 0.479626774787903, -0.806976497173309, -0.064660355448723, -1.163377642631531, -0.016859324648976, -0.786318540573120, -1.038646697998047, -0.659179568290710, -0.449089169502258, -0.599907279014587, -0.532589852809906, 0.179112762212753, -0.524441599845886, 0.294618427753448, 0.189153552055359, -0.091394774615765, 0.391239613294601, 0.020233251154423, 0.292820900678635, 0.833166658878326, -0.338204562664032, -0.493117272853851, -0.471848100423813, -0.452877968549728, 0.110895335674286, -0.026727888733149, 0.410681545734406, -0.163185402750969, -0.245395690202713, -0.161752432584763, -0.377798348665237, 0.120392002165318, -0.165821656584740, 0.030285136774182, -0.106772735714912, -0.672089874744415, -0.023896802216768, 0.087420679628849, 0.117068104445934, -0.448445588350296, 0.127241566777229, -0.247167542576790, 0.339783787727356, 0.439969003200531, -0.489608943462372, 0.230052620172501, -0.318479239940643, 0.339878439903259, -0.170017823576927, -0.455731362104416, 0.200623556971550, -0.090477906167507, -0.196117728948593, -0.496501415967941, -0.045058522373438, 0.030412733554840, -0.019366439431906, -0.295719146728516, 0.099917285144329, 0.161607801914215, -0.051184050738811, 0.162906587123871, 0.244606003165245, 0.001218136632815, -0.051041118800640, 0.379370838403702, 0.014637514948845, 0.690357267856598, 0.131851360201836, -0.420218288898468, 0.278443127870560, 0.168935835361481, -0.051081653684378, -0.359109073877335, -0.232332721352577, 0.662567794322968, 0.101183935999870, 0.160829171538353, -0.295848786830902, -0.081385537981987, 0.216747522354126, -0.196973800659180, 0.159830585122108, 0.255301356315613, -0.181479692459106, -0.431098520755768, -0.302584022283554, 0.053546275943518, 0.026447886601090, 0.195788219571114, 0.166623517870903, 0.054492715746164, -0.180969685316086, 0.381414920091629, 0.624348998069763, 0.203769952058792, 0.221595868468285, 0.938932180404663, -0.529807627201080, 0.098755985498428, -0.051794368773699, 0.187093675136566, 0.192321226000786, 0.151368379592896, 0.460731983184814, 0.088334545493126, 0.460139423608780, -0.161447897553444, -0.145064577460289, 0.570477664470673, -0.124696262180805, -0.009988907724619, 0.017978265881538, 0.027614001184702, 0.371834009885788, 0.150117635726929, 0.172135561704636, 0.259245663881302, 0.515446364879608, 0.443453758955002, 0.372555553913116, 0.160304650664330, 0.173624664545059, 0.069466561079025, 0.170416802167892, 0.365259170532227, 0.397507280111313, 0.263526260852814, -0.385810971260071, 1.048508882522583, 0.163054823875427, -0.442554146051407, 0.178085282444954, -0.118663072586060, -0.256247341632843, 0.296213239431381, -0.233305081725121, 0.270359635353088, -0.412325471639633, 0.421083807945251, -0.265387654304504, 0.223479494452477, 0.263675481081009, -0.055658362805843, 0.021555708721280, 0.573571860790253, 0.388694226741791, 0.659591555595398, 0.038410827517509, 0.671266317367554, -0.034634165465832, -0.186430320143700, 0.058081410825253, -0.741095185279846, 0.293613940477371, -0.344905346632004, 0.097684435546398, -0.041615463793278, -0.382241129875183, -0.584038257598877, -0.279070883989334, 0.330587297677994, -0.320553869009018, 0.050650902092457, -0.527207016944885, -0.072833277285099, 0.723152875900269, 0.429320245981216, -0.070876210927963, -0.019395865499973, 0.302680939435959, -0.223172217607498, 0.223559811711311, -0.140441939234734, -0.422249943017960, 0.150282323360443, 0.306050091981888, -0.217091083526611, 0.033056817948818, -0.716250419616699, -0.961491107940674, 0.161739304661751, 0.944957435131073, -0.526854276657104, -0.076592274010181, -0.181030139327049, 0.805091738700867, -1.320852160453796, -0.798428297042847, -0.243120849132538, -0.309680581092834, 0.313800990581512, -0.294929981231689, -0.125368386507034, 0.175946012139320, -0.615686237812042, 0.423172205686569, 0.064359739422798, -0.746106743812561, 0.501044452190399, -0.439609497785568, -0.412275612354279, -1.011879444122314, -0.189932435750961, -0.738817870616913, -0.531449437141418, 0.527014791965485, 0.042058233171701, -0.620379626750946, 0.483528554439545, -0.303013324737549, 0.163509398698807, -0.319446593523026, 0.021399658173323, 0.267444401979446, -0.246871545910835, -0.384562045335770, -0.234551802277565, -0.662592828273773, 0.215841561555862, 0.120296537876129, -0.167743593454361, 0.135617479681969, -0.113467037677765, -0.031982153654099, -0.506198167800903, 0.206827402114868, -0.270858526229858, 0.493693351745605, 0.185223549604416, -0.032627359032631, -0.184208303689957, -0.213112518191338, 0.066711232066154, -0.258331626653671, -0.283092290163040, 0.202151119709015, 0.080339223146439, -0.099030084908009, 0.199026092886925, 0.247335448861122, 0.174158006906509, -0.168139442801476, -0.200073331594467, -0.427522331476212, 0.195332333445549, -0.257075816392899, 0.343499302864075, -0.279212415218353, -0.246010318398476, -0.030671976506710, 0.092235006392002, 0.235363364219666, -0.176846385002136, 0.247518807649612, -0.202971905469894, -0.024736717343330, -0.277964890003204, -0.223885118961334, -0.137618184089661, 0.202036052942276, -0.161624744534492, -0.020052758976817, 0.197522863745689, 0.018117649480700, 0.242454081773758, -0.264382213354111, 0.264225810766220, 0.182734668254852, 0.170638486742973, 0.195329234004021, 0.166863173246384, 0.259487301111221, 0.052558079361916, 0.227190911769867, 0.210831284523010, 0.156484097242355, 0.081036143004894, 0.057178892195225, -0.099418900907040, 0.126322314143181, 0.042933985590935, 0.558439254760742, 0.330205053091049, 1.060772776603699, -0.222036063671112, -0.469037026166916, -0.005380004178733, 0.614536941051483, 0.262691527605057, 0.165967479348183, 0.219304621219635, -0.167149737477303, 0.440246433019638, -0.011505808681250, 0.367119997739792, -0.142016053199768, 0.260947108268738, 0.550455331802368, 0.006798895075917, 0.600514471530914, -0.073362268507481, -0.547655999660492, -0.085111230611801, 0.180842325091362, -0.321624875068665, -0.311989128589630, 0.142629995942116, 0.407626777887344, 0.645170629024506, -0.098627977073193, -0.122469507157803, 0.000340006052284, 0.200790181756020, 0.611271321773529, -0.218463137745857, 0.680637598037720, 0.452951848506927, -0.215371951460838, 0.131587043404579, -0.453986644744873, 0.350837528705597, 0.513643324375153, -0.015844266861677, 0.048155363649130, 0.177599430084229, -0.046682205051184, 0.799058854579926, -0.087766952812672, -0.312224179506302, 0.505791068077087, -0.498193919658661, 0.189073339104652, 0.019676327705383, 0.414919376373291, -0.171865433454514, 0.052294503897429, -0.226370081305504, 0.654317021369934, 0.047324575483799, 0.167475625872612, 0.352521300315857, 0.441025733947754, 0.195320889353752, 0.006295003928244, -0.063246652483940, -1.020287036895752, 0.162719979882240, -0.006014722399414, -0.062397658824921, -0.607509970664978, 0.023194754496217, -0.109776102006435, -0.213207334280014, -0.161686524748802, -0.579326272010803, -0.693307757377625, -0.155714750289917, -0.156925097107887, -0.031253367662430, -0.489413589239120, 0.314333885908127, 0.432351946830750, -0.372371971607208, 0.735742390155792, 0.247048735618591, 0.520201385021210, -0.486603200435638, -0.572174370288849, 0.121710263192654, 0.612306714057922, -0.245084673166275, -1.560452938079834, 0.861085355281830, 0.644757211208344, -0.336849391460419, 0.673055887222290, -0.758101642131805, -0.218261405825615, -0.312025755643845, -0.317813277244568, 0.093879453837872, 0.503873944282532, 0.785890638828278, 0.033617928624153, 0.162295460700989, 0.438297986984253, -0.140436127781868, -0.175364807248116, -0.006299526430666, -0.321206331253052, -0.265825152397156, -0.208514854311943, 0.604738414287567, -0.758647322654724, -0.460205525159836, -0.143347561359406, 0.516838073730469, 0.416846126317978, -0.297398090362549, 0.472177803516388, 0.917557656764984, -0.255719095468521, 0.776263654232025, -1.117627620697021, -0.321934908628464, -0.255725443363190, -0.485872834920883, 1.045414209365845, 0.246642410755157, 0.325906157493591, 0.083486177027225, -0.302719891071320, 0.114116102457047, 0.253114789724350, -0.321318000555038, 0.077428817749023, -0.086359851062298, 0.033135678619146, -0.012841560877860, 0.119203001260757, -0.096132151782513, 0.038341961801052, -0.408592790365219, 0.238639667630196, 0.365310430526733, 0.160244077444077, 0.424439668655396, 0.316946089267731, -0.009701997041702, 0.058851599693298, 0.030077569186687, -0.136955663561821, -0.287293344736099, 0.004762663971633, 0.046994548290968, 0.235210895538330, 0.174877196550369, -0.340820729732513, 0.178730294108391, 0.616388261318207, 0.031933479011059, 0.076174996793270, -0.176146790385246, -0.333610922098160, -0.294207096099854, -0.027914993464947, -0.156723096966743, -0.177779763936996, 0.386126816272736, 0.245623975992203, -0.056566707789898, -0.096169583499432, 0.101935707032681, -0.112982153892517, -0.017692854627967, 0.239738702774048, -0.176620498299599, 0.073835410177708, 0.154849022626877, -0.078294545412064, -0.313595473766327, -0.080479249358177, 0.094858452677727, -0.086877152323723, -0.067040778696537, 0.339650362730026, 0.168335109949112, 0.581116914749146, -0.165600016713142, 0.031804453581572, -0.044034440070391, 0.287679284811020, 0.139676436781883, 0.240061610937119, -0.269387185573578, -0.033771548420191, 1.067336440086365, 0.392373770475388, 0.516131103038788, 0.336048454046249, -0.553339242935181, 1.071607947349548, -0.415178269147873, -0.393307954072952, 0.279748648405075, -0.016022618860006, 0.680496096611023, 0.195495456457138, 0.170137822628021, 0.110979013144970, 0.339196324348450, 0.286140501499176, 0.268326044082642, -0.317273974418640, -0.348241239786148, 0.458603769540787, 0.331926017999649, 0.198852106928825, -0.028369911015034, 0.203365787863731, 0.158205777406693, -0.117773920297623, -0.120667479932308, -0.232959479093552, -0.358964055776596, 0.335128337144852, 0.146278396248817, -0.358347862958908, -0.011971315369010, -0.038973655551672, 0.197207927703857, -0.580528676509857, 0.132442846894264, 0.266262263059616, 0.373237192630768, -0.014807782135904, 0.341403484344482, 0.260755270719528, -0.520602583885193, -0.033157996833324, 0.514105618000031, -0.095661908388138, 0.388054609298706, 0.270346909761429, -0.171485647559166, 0.264287412166595, 0.043851003050804, 0.103153355419636, -0.065711304545403, -0.014632838778198, -0.072470143437386, 0.416390925645828, -0.020491905510426, 0.022057654336095, 0.093799009919167, -0.081948354840279, 0.385527133941650, 0.757061183452606, 0.521443307399750, 0.884019255638123, -0.625577569007874, -0.161429181694984, -0.347930878400803, 0.164126604795456, 0.085751451551914, -0.733744382858276, 0.780314743518829, -0.490075886249542, -0.102269805967808, 0.425870746374130, -0.483263880014420, 0.347908079624176, -0.948368966579437, 0.061176449060440, -0.335325896739960, -0.467373400926590, -0.331235736608505, 0.641454696655273, 0.011217431165278, -0.035850591957569, 0.025861969217658, 0.301089465618134, -0.230064660310745, 0.193930923938751, 0.201819419860840, 0.088499635457993, -0.356421858072281, -0.312648773193359, -0.003846907988191, -0.216684713959694, 0.101185217499733, -0.436148434877396, -0.558381974697113, 0.491489499807358, 0.749653577804565, -0.389790534973145, -0.111563734710217, -0.266675084829330, -0.316301792860031, -0.484801024198532, -0.535153985023499, 0.275469452142715, 0.234382152557373, -0.423142164945602, 1.084607124328613, -0.390204429626465, -0.071398407220840, -0.471472680568695, -0.474352687597275, 0.893075644969940, -0.260863125324249, 0.709017753601074, 0.178001403808594, -0.557441413402557, 0.168014511466026, 0.221037238836288, -0.073897808790207, 0.302707970142365, -0.051424555480480, 0.205765664577484, -0.056159216910601, 0.056960515677929, -0.174353718757629, -0.387116521596909, -0.342747569084167, -0.201719060540199, 0.006120629608631, -0.256888896226883, 0.036188948899508, 0.380081027746201, 0.093756943941116, 0.033908773213625, 0.016471680253744, 0.391569375991821, 0.289976269006729, -0.615307986736298, -0.123639985918999, -0.071193009614944, -0.194498941302299, -0.085219293832779, -0.142624095082283, 0.112914174795151, -0.138928294181824, -0.292638421058655, -0.539155900478363, -0.070172041654587, 0.118615269660950, -0.387383252382278, -0.195470288395882, 0.117252126336098, 0.432685494422913, 0.217034280300140, -0.053072161972523, -0.410370737314224, 0.159689664840698, 0.090990975499153, -0.422041684389114, 0.142786696553230, -0.149741679430008, -0.359020471572876, -0.004111427348107, 0.166875138878822, 0.250263005495071, 0.153930485248566, -0.094494290649891, 0.142613008618355, 0.082184225320816, 0.049557697027922, -0.128597676753998, -0.461110770702362, 0.091581791639328, -0.140403717756271, -0.033488944172859, -0.202634572982788, -0.104624219238758, -0.192527845501900, 0.135503083467484, 0.009336913935840, 0.281153053045273, 0.044981900602579, 0.182826638221741, -0.297668844461441, -0.027095410972834, -0.263381004333496, 0.681659817695618, 0.166351035237312, 0.297752469778061, -0.547432780265808, 0.123986966907978, -0.144381284713745, 0.277452528476715, -0.380606055259705, 1.088915944099426, 0.187712326645851, 0.927563786506653, 0.091830559074879, -0.109003327786922, -0.252882391214371, -0.536813735961914, -0.180864408612251, -0.807745754718781, 0.104566536843777, 0.454948872327805, -0.136794626712799, 0.072572983801365, 0.451746731996536, -0.485134214162827, 1.386247992515564, -0.459685474634171, -0.155043229460716, 0.378337860107422, 0.025942331179976, 0.419931411743164, -0.255296230316162, -0.137931495904922, -0.080815546214581, 0.069664470851421, 0.469728678464890, 0.981904327869415, 0.305483996868134, 0.721480131149292, -0.167020305991173, 1.977109670639038, -0.328511834144592, 0.425211519002914, 0.110756829380989, -0.460005730390549, -0.076299101114273, 0.183985456824303, 0.086153306066990, -0.226770117878914, -0.115366294980049, -0.330346852540970, 0.132158607244492, 0.975083947181702, 0.305395781993866, -0.219012334942818, -1.035404682159424, -0.032731592655182, -0.560319721698761, 0.556553602218628, 0.125831350684166, 0.627686440944672, -0.032384015619755, 0.523626267910004, 0.500253260135651, 0.009982753545046, -0.295937091112137, -0.761014044284821, 0.055813696235418, -0.511997342109680, -0.635633289813995, -0.093036055564880, -0.912439703941345, 0.309950590133667, 0.080823823809624, -0.674548089504242, 0.121651872992516, 0.529829263687134, -0.685395956039429, -0.271813243627548, 0.901198267936707, -0.047378558665514, -0.683793365955353, 0.367419570684433, -0.362161904573441, -0.365942209959030, -0.577518820762634, 0.083762928843498, 0.198218539357185, 0.815132081508636, -0.844646632671356, -0.682870507240295, 0.037801459431648, -0.531413316726685, 0.300713747739792, 1.088249802589417, -0.327967494726181, -0.456465065479279, 0.001716923085041, -0.786508023738861, 0.217102810740471, -0.156439051032066, 0.577717840671539, 0.343196630477905, -0.361151218414307, -0.762195527553558, -1.106718897819519, 0.357895761728287, -0.363108843564987, 0.413542628288269, 0.199994564056396, -0.451296925544739, 0.445507228374481, -0.312164783477783, -0.011066974140704, -0.272559434175491, 0.323452264070511, 0.110671408474445, 0.019647650420666, 0.173789724707603, -0.129951238632202, -0.103951185941696, 1.301914095878601, -0.189723163843155, -0.153099745512009, 1.316841006278992, -0.310919225215912, 0.252217680215836, 0.034716356545687, 0.674741387367249, 0.865060389041901, 0.152731403708458, -0.119876459240913, -0.033731240779161, 0.602507233619690, -0.169205605983734, 0.475691229104996, -0.480364114046097, -0.627945423126221, -0.323340892791748, 0.135821759700775, 0.101688049733639, -1.130158305168152, 0.048722397536039, 0.428475022315979, -0.126570016145706, 0.321436285972595, -0.309490680694580, -0.466029971837997, 0.086945898830891, 0.508911430835724, 0.547487735748291, 0.446349561214447, 0.231950998306274, 0.527068257331848, -0.633925676345825, -0.160499691963196, -0.451353222131729, -0.243754372000694, 0.312396824359894, 0.306779801845551, 0.028690477833152, 0.013269945979118, 0.360116124153137, 0.134225189685822, -0.012785409577191, 0.024635847657919, -0.525878310203552, -0.160328596830368, -0.401764303445816, 0.176984712481499, -0.614258289337158, -0.545773983001709, -0.118240557610989, 0.274299383163452, -0.024918539449573, -0.849107742309570, 0.304455369710922, -0.258781075477600, 0.485820680856705, -0.279509842395782, -0.406241029500961, 0.361685842275620, 0.837372303009033, -0.495188206434250, 0.160283550620079, -0.819429397583008, -0.365713447332382, -0.043033920228481, 0.114610157907009, -0.190703794360161, 0.044851556420326, 0.128439158201218, -0.069786153733730, -0.074455715715885, 0.334480673074722, 0.027954293414950, -0.359461396932602, 0.221113815903664, -0.378535896539688, -0.244278922677040, -0.240508168935776, 0.038871143013239, 0.278666526079178, 0.021787073463202, -0.235551491379738, 0.149410888552666, 0.239806771278381, 0.576792955398560, 0.217737451195717, 0.153306871652603, 0.552203118801117, -0.338053107261658, 0.148937910795212, -0.048957977443933, -0.050008971244097, -0.139197811484337, -0.099425524473190, -0.350114256143570, -0.395519882440567, 0.364425897598267, -0.007693820632994, -0.282684713602066, 0.719684243202209, 0.437225311994553, 0.265653461217880, 0.334248065948486, 0.049774680286646, 0.010063873603940, -0.321870416402817, -0.003738420084119, 0.049579158425331, 0.045002423226833, -0.195617184042931, -0.418654203414917, 0.310977399349213, -0.075387939810753, 0.443384855985641, -0.240584507584572, 0.176521420478821, 0.353558480739594, -0.087553314864635, 0.225797817111015, 0.490398138761520, 0.192294284701347, 0.327857971191406, 0.182362020015717, 0.707783699035645, 0.094343721866608, 0.218716576695442, -0.526632547378540, -0.197798252105713, 0.327051848173141, 0.448244869709015, 0.247239828109741, 0.015265084803104, 0.537443220615387, 0.415018677711487, 0.112813360989094, -0.059145960956812, 0.612706542015076, 0.271920025348663, -0.094520911574364, 0.342879712581635, -0.307049334049225, 0.504306375980377, -0.190725997090340, 0.207034215331078, -0.434797704219818, 0.323342263698578, -0.008981472812593, -0.107645802199841, 0.496008157730103, 0.241029366850853, -0.103583559393883, 0.053853899240494, 0.291743159294128, -0.115128941833973, -0.124890789389610, 0.355067402124405, -0.292462289333344, 0.153129339218140, 0.618573904037476, 0.325902491807938, -0.084059670567513, 0.658759295940399, -0.372577756643295, -0.024254286661744, -0.193361043930054, -0.031262125819921, 0.162150681018829, 0.094977356493473, -0.038208939135075, 0.015588676556945, -0.489105522632599, 0.175313025712967, -0.482219547033310, 0.246234238147736, 0.556229293346405, -0.146833062171936, 0.025138976052403, -0.416121184825897, -0.588153898715973, -0.048155214637518, -0.340837121009827, -0.226579636335373, -0.203153371810913, -0.056079983711243, 0.395917177200317, -0.135002493858337, -0.329486161470413, -0.064077302813530, 0.962029874324799, -0.313375592231750, -0.462984859943390, -0.187966495752335, 0.034399893134832, -0.465900331735611, -0.160628199577332, -0.393878877162933, -0.126398548483849, -0.982801914215088, 0.291190892457962, 0.043595287948847, -0.064480379223824, 0.074272528290749, -0.077449560165405, 0.143178448081017, 0.022092593833804, 0.139802485704422, 0.203079968690872, -0.100234933197498, -0.255687743425369, -0.209910497069359, -0.170699179172516, -0.016476040706038, -0.093101598322392, -0.000300289422739, 0.111607283353806, -0.082893893122673, -0.007616165094078, 0.155803963541985, -0.004127411637455, 0.379760563373566, 0.053094621747732, -0.239002346992493, 0.189879909157753, 0.097359560430050, 0.028841502964497, -0.087187297642231, -0.380957514047623, -0.166420400142670, -0.206008970737457, -0.095627099275589, -0.257282555103302, -0.055709976702929, 0.382145881652832, -0.099623516201973, 0.295215398073196, 0.310513079166412, 0.210408061742783, 0.361255288124084, 0.271020084619522, 0.279051303863525, 0.058730971068144, -0.005668920930475, 0.154258817434311, 0.199271500110626, 0.654484093189240, 0.043060529977083, -0.001523633836769, 0.290545582771301, 0.039658110588789, -0.051803361624479, 0.038915149867535, 0.020214036107063, -0.256219267845154, 0.092362992465496, 0.166073739528656, 0.376641511917114, -0.080273814499378, 0.232602417469025, -0.223611399531364, 0.125475361943245, -0.012975140474737, 0.024119075387716, 0.167386993765831, 0.076821975409985, 0.579391837120056, -1.643175721168518, -0.512227416038513, -0.144370883703232, -0.168437689542770, 0.619654119014740, 0.398722141981125, -0.131424099206924, -0.455983608961105, 0.200725346803665, 1.322699427604675, -0.197065874934196, 0.320406705141068, -0.073729999363422, -0.462937295436859, 0.378228455781937, -0.714149773120880, 0.538500964641571, 0.009536713361740, -0.167528480291367, 0.280388087034225, 0.676054239273071, 0.199094697833061, -0.113817900419235, 0.766811788082123, -0.504833281040192, -0.796013295650482, 0.495682597160339, -0.294731408357620, -0.418813198804855, -0.337282359600067, -0.319007366895676, 0.098596483469009, -0.668949127197266, -0.112462684512138, 0.250800639390945, 0.196818783879280, -0.567107200622559, 1.070950746536255, 0.143248394131660, 0.163458451628685, 0.763032734394073, 0.266640841960907, -0.284488946199417, 0.616208493709564, -0.571159839630127, 0.285580813884735, -0.261701703071594, 0.809893310070038, -0.826773822307587, -0.019670195877552, 0.943500399589539, 1.181432247161865, -0.592304825782776, 0.485190600156784, 0.209170743823051, -0.554712057113647, -0.522676885128021, 0.683307826519012, 0.372410207986832, -0.252346545457840, 0.467345505952835, 0.802430987358093, 1.097817063331604, 0.210545003414154, -0.094130702316761, 0.361978977918625, -0.867214918136597, 0.295953929424286, 0.135269060730934, 0.173220381140709, 1.087501764297485, -0.509913742542267, 0.300095349550247, -0.248872399330139, -0.235937848687172, -0.055691599845886, -0.250242024660110, -0.366646975278854, -0.546352744102478, -0.554557263851166, -0.706110239028931, 0.447534531354904, 1.232943058013916, -0.472957700490952, -1.604217767715454, -1.143386363983154, -0.141253098845482, 0.087846472859383, 0.290946155786514, -0.784353494644165, 0.185529679059982, -0.532800614833832, -0.073749147355556, 0.478178620338440, 0.593742668628693, -0.631177544593811, 0.424230456352234, -0.187010109424591, -0.657465159893036, 0.729193985462189, -0.301174134016037, -1.113648533821106, 0.020692145451903, -0.090956829488277, -0.715894877910614, -0.882753372192383, -0.609749794006348, -0.832188308238983, 0.128721788525581, -0.489332854747772, -0.524480104446411, 0.217425346374512, 0.483281105756760, 0.078902557492256, -0.875704586505890, -1.007420539855957, -1.149498581886292, 0.677463948726654, 0.066457137465477, 0.692275702953339, -0.305683135986328, -1.003494739532471, -0.235746160149574, 0.425625801086426, 0.661397516727448, -0.132606893777847, -0.420917183160782, -0.331366777420044, 0.725520372390747, -0.460631400346756, 0.060613665729761, 0.213729619979858, -0.023119818419218, 0.101318985223770, 0.373721569776535, 0.072511032223701, -0.352329015731812, -0.271611511707306, 0.620632469654083, -0.274528682231903, -0.595395684242249, 0.191084101796150, 0.006890296470374, -0.621298491954803, 0.732517898082733, 0.293213278055191, 0.092026092112064, 0.180907636880875, 0.401257008314133, 0.839208304882050, -0.261599600315094, 0.330009073019028, -0.031290583312511, -0.541208088397980, -0.177831187844276, -0.927649140357971, 0.092689998447895, 0.488171577453613, 0.360702812671661, -0.018238192424178, -0.810641705989838, -0.098995596170425, -0.293007731437683, 0.425057947635651, -0.832231163978577, -0.302649557590485, 0.578075110912323, 0.064041242003441, -0.072350159287453, 0.461086660623550, -0.417386084794998, -0.029086006805301, 0.032241001725197, 0.215753808617592, 0.442073464393616, -0.079499416053295, 0.882453024387360, 0.438669860363007, -0.072826534509659, 0.126473218202591, 1.052945256233215, -0.102816611528397, 0.150794968008995, -0.844902038574219, -0.454555392265320, -0.195093736052513, 0.395815432071686, -0.735656917095184, 0.208144828677177, 0.295272856950760, -0.203021749854088, 0.197342753410339, -0.199808940291405, 0.421274900436401, 0.495958447456360, -0.002133899368346, 0.173226386308670, 0.237166598439217, 0.030492657795548, 0.167530179023743, 0.416158944368362, 0.104156441986561, 0.393243342638016, -0.075171269476414, -0.510348498821259, 0.165943890810013, 0.107253931462765, 0.893864572048187, -0.083832770586014, -0.016008879989386, -0.196843460202217, -0.162283584475517, 0.730954051017761, 0.134294390678406, 0.527432918548584, -0.197649940848351, 0.637123286724091, 0.042947016656399, -0.310253828763962, -0.090185441076756, 0.872604250907898, 0.961791694164276, 0.360086053609848, -0.140813678503036, 0.632156729698181, -0.091864511370659, -0.473783105611801, 0.021949885413051, 0.031894590705633, 0.236237421631813, 0.366846591234207, 0.126191735267639, 0.191648766398430, -0.051689233630896, -0.190195620059967, 0.098944365978241, -0.084986105561256, 0.529709756374359, 0.022129209712148, 0.132363840937614, 0.046592060476542, -0.035166699439287, -0.061616353690624, -0.007324137724936, -0.157943233847618, 0.050916343927383, 0.761009514331818, 0.130785614252090, 0.004612484481186, -0.052955053746700, 0.322131574153900, -0.248921260237694, 0.680746555328369, -0.065672867000103, -0.016447110101581, 0.535816311836243, 0.087505295872688, -0.616453528404236, 0.255651235580444, -0.269440531730652, -0.103925697505474, 0.426479458808899, -0.261123895645142, -0.376895278692245, 0.189194411039352, 0.381927937269211, 0.332389324903488, -0.064654894173145, -1.012095808982849, 0.145200386643410, -0.027772979810834, 0.226118624210358, -0.198926955461502, -0.206933379173279, 0.162880584597588, 0.192451998591423, -0.742099821567535, 0.328973412513733, -0.258865624666214, -0.392483949661255, 0.504410982131958, 0.220789298415184, 0.284732311964035, -0.315596401691437, -0.001281471108086, 0.419975578784943, -0.298742055892944, 0.057777624577284, -0.039662223309278, -0.125810638070107, 0.248419806361198, -0.459044754505157, -0.107068933546543, -0.307872951030731, 0.604516625404358, 0.182854101061821, -0.424861609935760, -0.942465364933014, -0.211739376187325, -0.136171996593475, 0.241409063339233, -0.130530804395676, -0.557729125022888, 0.169723123311996, -0.481949776411057, -0.862724125385284, -0.931635618209839, -0.021942937746644, -0.021407155320048, 0.244669899344444, 0.616008937358856, 0.582005381584167, -0.748878180980682, -0.258887499570847, 0.151544079184532, -0.061753392219543, -0.429482430219650, 0.408763617277145, -0.147690027952194, 0.282616347074509, 0.156879007816315, 0.502501606941223, 0.648579776287079, -0.086377151310444, -0.033151984214783, -0.208890423178673, 0.025525439530611, -0.246185138821602, -0.369939088821411, -0.223862797021866, 0.069337084889412, 0.069167800247669, -0.050889812409878, 0.259230494499207, 0.009836606681347, -0.227090716362000, -0.328733712434769, -0.158029779791832, -0.116894073784351, 0.099550656974316, 0.034376166760921, -0.166373431682587, -0.113146007061005, -0.144547760486603, -0.254597485065460, -0.561069607734680, -0.478753805160522, 0.214083999395370, 0.152783423662186, 0.029933253303170, 0.268060535192490, 0.178554967045784, 0.094299599528313, 0.171280458569527, -0.250997573137283, 0.149483144283295, 0.282410979270935, 0.329006046056747, -0.127903848886490, -0.089384004473686, 0.081822492182255, -0.142587050795555, -0.131543159484863, 0.018431156873703, -0.079800769686699, 0.115853592753410, 0.316280245780945, 0.366540640592575, 0.279054850339890, -0.223435848951340, -0.366047859191895, 0.029063196852803, 0.116833508014679, 0.245396554470062, -0.076859109103680, 0.189983054995537, -0.079991579055786, 0.105959512293339, -0.424621373414993, -0.221155822277069, -0.373047620058060, 0.125599011778831, -0.003077029017732, 0.780445814132690, 0.334302932024002, 0.890393793582916, -0.066190034151077, -0.020595831796527, 0.239032551646233, 0.044377315789461, -0.224949598312378, 0.438126116991043, -0.435748934745789, -0.184915468096733, -0.171882435679436, 0.055114556103945, -0.289513647556305, 0.407975852489471, -0.365880638360977, -0.251763403415680, 0.290128082036972, -0.163070484995842, 0.152965366840363, -0.054954741150141, -0.158617600798607, 0.102012947201729, -0.093376986682415, -0.006103586405516, -0.025204328820109, 0.002533359453082, 0.418346226215363, -0.063766010105610, 0.064205937087536, -0.325565695762634, 0.159154325723648, -0.136552065610886, 0.265687316656113, -0.382617592811584, 0.188712850213051, 0.139689907431602, -0.435767233371735, 0.307402342557907, 0.632597684860229, -0.118627555668354, 0.190738588571548, 0.458600491285324, 0.366572827100754, 0.097545728087425, 0.115698806941509, 0.020419182255864, 0.174205288290977, 0.422924697399139, -0.107803016901016, 0.054626915603876, 0.649772107601166, 0.583164930343628, -0.124858766794205, -0.259122818708420, -0.101699188351631, 0.516622185707092, 0.281731456518173, 0.418254107236862, 0.292583763599396, -0.159410774707794, -0.291801780462265, 0.232929795980453, -0.061586581170559, 0.257561564445496, 0.593311786651611, -0.506810843944550, -0.201259836554527, -0.035260748118162, 0.196876257658005, 0.211546093225479, -0.118258662521839, -0.328365862369537, -0.161280721426010, -0.318249553442001, 0.382091790437698, 0.525678932666779, -0.817723929882050, -0.258228063583374, 0.131985813379288, 0.000974680704530, -0.088631458580494, -0.135999292135239, -1.119185209274292, 0.652413785457611, -0.065171502530575, -0.471976906061172, -0.074089020490646, 0.524300932884216, 0.004932526964694, -0.529168725013733, -0.350136965513229, 0.077647127211094, -0.160278201103210, 0.329326093196869, -0.055915672332048, 0.066973015666008, -0.087431043386459, -0.415028631687164, -0.344451189041138, -0.205177530646324, -0.151974499225616, -0.009008862078190, 0.305164873600006, -1.135924100875854, -0.110069155693054, -0.128579884767532, -0.191033005714417, -0.050050809979439, 0.378946721553802, -0.266483247280121, -0.039282631129026, -0.100902713835239, 0.645925760269165, -0.469162404537201, 0.227203905582428, 0.145737409591675, -0.882704555988312, 0.594034552574158, -0.200588464736938, -0.366832017898560, 0.044180877506733, -0.812152564525604, -0.656458199024200, 0.617305219173431, -0.895506441593170, 0.458946466445923, -0.086711607873440, 0.093208596110344, 0.258440047502518, 0.014775108546019, -0.274863868951797, -0.037900961935520, 0.046608239412308, -0.040498983114958, -0.049947451800108, -0.348555445671082, 0.028548896312714, -0.118120700120926, 0.179464578628540, -0.301830530166626, 0.189964920282364, -0.242084205150604, 0.087784878909588, -0.016653513535857, -0.069379054009914, 0.208473980426788, 0.315813869237900, 0.015763362869620, -0.208751097321510, 0.199976518750191, 0.158084496855736, -0.027073465287685, 0.026983272284269, -0.125182941555977, 0.002714480273426, 0.026595380157232, -0.003043214790523, -0.180244803428650, 0.288194805383682, -0.077694341540337, 0.076366357505322, 0.030108161270618, 0.029074115678668, 0.243082761764526, 0.056638997048140, -0.094746887683868, -0.171445026993752, -0.157369121909142, 0.016995342448354, 0.186796873807907, 0.048223584890366, -0.059201519936323, -0.119935058057308, -0.249457329511642, -0.085582464933395, 0.260339230298996, 0.227096423506737, 0.061005990952253, -0.156131222844124, 0.107993118464947, 0.035437669605017, -0.208180978894234, 0.151256740093231, 0.040803253650665, -0.258817732334137, 0.118289716541767, 0.177527517080307, 0.115760125219822, 0.168794989585876, -0.562968015670776, -0.688320696353912, -0.349724233150482, 0.788920342922211, 0.077551670372486, 0.374408960342407, 0.122393198311329, 0.459401935338974, 0.762300193309784, -0.040993597358465, 0.643974065780640, -0.110546693205833, -0.709558069705963, -0.552517771720886, 0.601861417293549, 0.465950012207031, -0.081689201295376, -0.321728199720383, 0.520071506500244, 0.484845131635666, 0.721285104751587, 0.095153570175171, 0.107201032340527, 0.606078565120697, 0.432149767875671, -0.192610889673233, -0.597605586051941, 0.548006534576416, -0.273584634065628, 0.861225306987762, 0.470528751611710, 0.327296823263168, 0.540478289127350, 0.782942354679108, -0.101202361285686, 0.128890916705132, -0.219549193978310, 0.745533049106598, -0.010963570326567, 0.173566043376923, 0.182337328791618, 0.348528861999512, 0.548973083496094, 0.136988177895546, 0.030752355232835, -0.131082504987717, -0.096577011048794, 0.609347879886627, -0.436160117387772, -0.136102482676506, -0.055961348116398, 0.911889612674713, 0.252732634544373, 0.256501913070679, 0.611050128936768, 0.863008260726929, 0.857543587684631, -0.066004000604153, 0.288041293621063, 0.608631789684296, 0.479944467544556, 0.178768411278725, 0.544398069381714, -0.396178007125854, 0.044376127421856, -0.857615172863007, 0.075542248785496, -0.000465132703539, 0.450732111930847, -0.620500922203064, 0.015344914980233, 0.040651749819517, -0.183088600635529, 0.351053029298782, 0.304643839597702, 0.147784426808357, 0.548875987529755, -0.578915178775787, -0.191539004445076, -0.487724900245667, 0.373833626508713, -0.024034168571234, 0.733605742454529, -0.679847180843353, -1.017341017723083, -0.879299223423004, -1.496887683868408, -1.162280678749084, -0.395991981029510, -0.338176965713501, 0.462125420570374, -1.053842544555664, -0.448644161224365, -0.403925150632858, 1.202084064483643, 0.171588420867920, 0.252164930105209, -0.672834217548370, 0.779309988021851, -0.247345149517059, -1.021758794784546, -0.346430450677872, 0.151628002524376, 0.368612289428711, -0.421604603528976, 0.223320022225380, 0.364513576030731, 0.033347617834806, 0.175708070397377, -0.662070691585541, -0.594085454940796, -0.203974321484566, -0.636573612689972, -0.797199249267578, 0.250921964645386, 0.420569002628326, -0.651403009891510, -0.850405156612396, -0.277092516422272, 0.357059717178345, -0.451109409332275, -1.281782865524292, 0.621244788169861, 0.939638376235962, 0.106233954429626, -0.313722401857376, 0.780350208282471, -0.434289246797562, -0.012870218604803, -0.104593262076378, -0.146376177668571, -0.278521746397018, 0.316280245780945, -0.237521901726723, 0.248505398631096, -0.076736420392990, 0.306902796030045, -0.272962749004364, -0.838733911514282, -0.259633570909500, 0.338793635368347, 0.147122412919998, -0.554048597812653, 0.275098025798798, 0.011042187921703, 0.185378253459930, -0.072191663086414, 0.159986421465874, 0.305059283971786, -0.215523898601532, 0.272127628326416, 0.610558331012726, -0.260200977325439, 0.037262301892042, 0.135486543178558, -0.165657073259354, 0.142033934593201, -0.491469115018845, -0.299109905958176, 0.253221094608307, -0.081549577414989, 0.108944036066532, 0.054828975349665, -0.350357055664062, 0.303113251924515, 0.311154216527939, -0.333778351545334, 0.165570288896561, 0.253621488809586, 0.224241584539413, 0.069292165338993, -0.441270649433136, 0.096755318343639, 0.048211410641670, -0.134718358516693, -0.083226934075356, 0.166343539953232, -0.127931579947472, -0.595382809638977, -0.444934368133545, -0.232051432132721, 0.334254741668701, -0.513989865779877, 0.171230822801590, -0.138781264424324, 0.130605816841125, 0.387439131736755, -0.555864095687866, -0.060378234833479, 0.668919146060944, 0.189822226762772, -0.113974250853062, -0.083537705242634, 0.264739364385605, 0.233159899711609, 0.274174869060516, 0.594656169414520, 0.173865914344788, 0.120563440024853, 0.186708152294159, 0.375192314386368, 0.941898167133331, 0.354367345571518, 0.212039947509766, 0.620406568050385, 0.130387246608734, 0.522953152656555, -0.511170387268066, 0.049782767891884, 0.408441722393036, -0.355715602636337, 0.114436984062195, -0.130362510681152, -0.007247951347381, 0.232125490903854, 0.518198966979980, 0.801708102226257, 0.686186730861664, -0.071910209953785, 0.319992780685425, 0.068117745220661, 0.373644113540649, 0.254536539316177, -0.079896785318851, 0.398664057254791, -0.623806118965149, 0.283855676651001, 0.428359061479568, 0.113127708435059, 0.577714622020721, -0.020093424245715, 0.728650271892548, 0.488914906978607, 0.085358053445816, -0.205189213156700, -0.054780766367912, 0.076019629836082, 0.065623767673969, 0.128407046198845, 0.269615024328232, -0.021567553281784, -0.089590355753899, -0.133413016796112, 0.285099565982819, -0.241555079817772, 0.210329949855804, 0.494691967964172, -0.047302022576332, 0.151049956679344, 0.352180302143097, 0.003657440887764, 0.053796779364347, 0.009923798963428, 0.058190662413836, -0.514401674270630, 0.437205404043198, 0.028564615175128, -0.001553173642606, 0.569159924983978, -0.932341754436493, 1.020255446434021, 0.578133404254913, -0.236961826682091, -0.078151300549507, -0.788675665855408, 0.073095165193081, -0.042181488126516, 0.303021192550659, 0.211970403790474, -0.436287939548492, 0.108205333352089, -0.126958966255188, 0.112422592937946, -0.920659184455872, 0.571589469909668, -0.804259300231934, 0.097013957798481, 0.348340243101120, -0.366622358560562, -0.158040583133698, 0.191070050001144, -0.169934704899788, 0.577385902404785, -0.722476959228516, 0.023293484002352, -0.820049762725830, 1.074817657470703, -0.388367027044296, -0.924071192741394, -0.049687314778566, -0.418244302272797, -1.169532775878906, 0.136301472783089, 0.195180594921112, 0.461576759815216, -0.071747541427612, 0.448006540536880, 0.342096447944641, -0.108023993670940, 0.082959920167923, -0.087880641222000, -0.182113811373711, -0.595093071460724, -0.187767803668976, -0.100454568862915, 0.281794816255569, 0.212911427021027, -0.636392831802368, -0.292309433221817, 0.406531631946564, -0.491163641214371, 0.260653287172318, 0.648088753223419, -0.278154522180557, 0.123332500457764, 0.310996085405350, 0.284226715564728, 0.052234165370464, 0.818076729774475, 0.516472518444061, 0.880233347415924, 0.318391799926758, 0.100608550012112, 0.326731383800507, -0.106264591217041, 0.010172938928008, 0.704462885856628, -0.220728099346161, -0.070416428148746, 0.137901067733765, -0.167957708239555, 