1.058117866516113, 0.990137994289398, 0.706002056598663, 1.204455137252808, 0.862586557865143, 1.458388090133667, 1.352753043174744, 1.062754988670349, 1.091450452804565, 0.722175359725952, 0.473970711231232, 0.933957755565643, 1.285357594490051, 0.328166484832764, 1.009033441543579, 1.157057642936707, 0.630218446254730, 0.579141914844513, 1.439103364944458, 0.795353829860687, 1.213989734649658, -0.297950685024261, 0.627628684043884, 0.669007182121277, 0.898674845695496, 0.240932330489159, 0.286104351282120, 1.539885759353638, 1.396019220352173, 0.936114728450775, 1.337269306182861, 0.125701278448105, 0.761044919490814, 0.428084194660187, 0.724771142005920, 0.916688561439514, 0.332664221525192, 0.857752323150635, 0.783675849437714, 1.061081051826477, 0.953569173812866, 1.001193761825562, 1.135184764862061, 1.224674701690674, 1.080536246299744, 1.068085193634033, 0.485915660858154, 1.075447082519531, 0.532061457633972, 0.680542469024658, 0.898250579833984, 0.975639700889587, 1.461301445960999, 0.597486257553101, 1.305165886878967, 0.988868355751038, 0.784631609916687, 0.995493829250336, 0.375285297632217, 0.536613881587982, 1.420061945915222, 0.519582271575928, 0.497680991888046, 0.474351525306702, -0.303792625665665, -0.119808644056320, -0.011795414611697, -0.038215246051550, -0.060311224311590, -0.311839103698730, -0.080269493162632, 0.061175838112831, -0.133548095822334, -0.133499950170517, -0.152661368250847, -0.170500278472900, 0.021007325500250, -0.016864081844687, -0.284066796302795, -0.115786761045456, -0.112848542630672, 0.089937448501587, -0.091675050556660, 0.049331955611706, -0.449550181627274, 0.022567460313439, -0.185757011175156, -0.256716847419739, 0.076700598001480, 0.212498083710670, 0.030530011281371, -0.302613496780396, -0.069654002785683, -0.114512808620930, -0.306418448686600, -0.026380762457848, -0.266678571701050, -0.338220447301865, -0.050362084060907, -0.129600822925568, -0.050414491444826, -0.414733499288559, -0.122798793017864, -0.310633808374405, -0.184061631560326, -0.106459379196167, -0.063294246792793, -0.375390917062759, -0.095723554491997, -0.198818951845169, -0.095369957387447, -0.331680268049240, -0.296376883983612, 0.040030393749475, -0.332969397306442, -0.283079952001572, 0.060913603752851, -0.053174521774054, -0.319171518087387, -0.023992801085114, -0.093403838574886, 0.048240281641483, -0.265920788049698, -0.084893889725208, -0.073519535362720, 0.157538130879402, -0.161238431930542, -0.161697104573250, -0.038014117628336, -0.093393735587597, -0.131055474281311, -0.063085518777370, -0.071807906031609, 0.044324699789286, 0.299105495214462, 0.060096174478531, -0.020418640226126, -0.188549205660820, -0.075508542358875, 0.005558653268963, 0.089889653027058, 0.130031138658524, 0.118876688182354, -0.123026601970196, -0.151445418596268, -0.066690683364868, -0.146287173032761, 0.107788436114788, 0.122027330100536, -0.149793624877930, 0.034880537539721, -0.039455119520426, 0.072861813008785, -0.118990793824196, 0.095538891851902, 0.047523070126772, 0.168112486600876, 0.022137463092804, 0.143412575125694, 0.159532710909843, -0.044789321720600, -0.018374437466264, -0.034546703100204, 0.174279376864433, 0.051629379391670, 0.176187902688980, 0.057820230722427, 0.053523149341345, 0.074734061956406, 0.122658662497997, -0.124208584427834, 0.054307885468006, 0.186599418520927, -0.200124397873878, -0.000860686704982, -0.050736531615257, -0.040425855666399, -0.021176548674703, -0.093406274914742, 0.281829923391342, 0.011163201183081, -0.173697501420975, 0.116027615964413, -0.028954857960343, -0.180450797080994, -0.156218156218529, 0.004576163366437, 0.136565342545509, 0.160177960991859, -0.045292451977730, 0.032822992652655, -0.046324305236340