//Numpy array shape [64, 4]
//Min -0.437355846167
//Max 0.670069098473
//Number of zeros 0

#ifndef W12_H_
#define W12_H_

#ifndef __SYNTHESIS__
model_default_t w12[256];
#else
model_default_t w12[256] = {0.059833757579327, 0.076816998422146, 0.195924222469330, -0.265343755483627, 0.023156039416790, -0.019697228446603, 0.018274934962392, -0.002704372163862, -0.005445546470582, -0.068860016763210, -0.113940007984638, 0.006614907644689, -0.059527795761824, 0.378505587577820, -0.028547525405884, -0.374717324972153, 0.243134796619415, 0.068661674857140, -0.264629453420639, -0.080565914511681, 0.049298278987408, 0.074304178357124, 0.079456746578217, -0.106606259942055, -0.068582944571972, -0.003055110573769, -0.162786841392517, 0.148239612579346, -0.095874302089214, -0.155884653329849, 0.063424013555050, 0.106330923736095, -0.160102263092995, -0.149895891547203, -0.098367691040039, 0.042330328375101, -0.001089226338081, -0.185400500893593, 0.082150280475616, 0.142382219433784, 0.160110399127007, 0.121213927865028, -0.052044622600079, 0.163344487547874, -0.049872752279043, 0.013735417276621, 0.042887587100267, 0.016753219068050, 0.006587200798094, -0.033922791481018, -0.038539696484804, -0.032148640602827, 0.181002810597420, 0.059528373181820, 0.119017980992794, 0.034627359360456, -0.314707338809967, 0.155855238437653, 0.123556047677994, -0.052125077694654, 0.107596151530743, -0.100429385900497, 0.023429052904248, -0.089265003800392, 0.012062449939549, 0.036046970635653, 0.021595027297735, -0.006018863059580, -0.014498655684292, -0.084325842559338, 0.113762095570564, -0.003160814289004, -0.001635596854612, -0.090772949159145, -0.147752091288567, 0.122873313724995, -0.116846226155758, -0.088024772703648, 0.035108540207148, 0.140508458018303, 0.010448817163706, 0.003591421758756, -0.030457288026810, -0.017435427755117, 0.057216130197048, 0.192268192768097, 0.062163237482309, -0.080650500953197, -0.056933809071779, 0.004460557363927, -0.047883443534374, -0.072596728801727, 0.178466945886612, -0.049192331731319, -0.182291582226753, 0.097784794867039, 0.035692647099495, 0.242868721485138, 0.125555202364922, -0.051499072462320, -0.039004411548376, -0.005813153926283, 0.024027310311794, 0.000930019188672, 0.082037970423698, 0.057115990668535, -0.098574012517929, 0.048626776784658, 0.021518656983972, 0.124680988490582, 0.023915544152260, -0.106573566794395, -0.132017508149147, 0.374777555465698, 0.140472710132599, 0.099683314561844, 0.032534871250391, 0.181141763925552, -0.018742667511106, -0.139478430151939, -0.143347918987274, 0.011051235720515, -0.028203325346112, -0.040919665247202, 0.213210359215736, 0.142514795064926, -0.108693122863770, -0.233931928873062, -0.200081467628479, 0.185211360454559, -0.032760757952929, 0.670069098472595, -0.039517167955637, -0.006930718198419, 0.021914010867476, -0.006691161543131, 0.044687371701002, 0.147176682949066, 0.114558130502701, -0.096333280205727, 0.018726149573922, 0.013318805955350, -0.005567747633904, 0.019222630187869, -0.136174812912941, -0.234605103731155, -0.267093330621719, -0.001978136133403, -0.041813842952251, -0.218124225735664, -0.150464236736298, 0.104687996208668, -0.017079258337617, 0.044952668249607, -0.067084923386574, -0.013302508741617, -0.103816986083984, 0.176764115691185, 0.169239401817322, 0.220899760723114, 0.051464848220348, 0.007888749241829, -0.029317229986191, -0.040066231042147, 0.081202968955040, -0.016389925032854, -0.037569988518953, 0.001865457859822, 0.042969670146704, 0.087598957121372, 0.047799509018660, -0.079621046781540, 0.094524726271629, 0.307853966951370, 0.250584363937378, -0.129239872097969, -0.110292151570320, -0.044050473719835, 0.095433078706264, 0.060815099626780, -0.202231347560883, -0.209725365042686, 0.081496499478817, -0.161038547754288, -0.094512827694416, -0.006319687701762, -0.148988619446754, -0.109294436872005, 0.081854879856110, 0.078724227845669, -0.035513397306204, -0.008838957175612, 0.077661938965321, 0.003971884027123, -0.105942435562611, -0.081392765045166, 0.003563462989405, -0.033073656260967, -0.096265427768230, 0.030380304902792, 0.126314714550972, -0.043594345450401, 0.032551802694798, -0.030862348154187, 0.063823655247688, 0.184121608734131, 0.145120576024055, -0.094739176332951, 0.206776410341263, -0.186961099505424, 0.088357284665108, 0.042322549968958, -0.034907285124063, 0.201707467436790, 0.125599175691605, 0.011215065605938, 0.048840075731277, 0.174055501818657, -0.244234815239906, -0.012974670156837, -0.357181102037430, 0.087859764695168, -0.183423936367035, -0.160912781953812, 0.063103280961514, -0.014999142847955, -0.005116573069245, 0.001303280470893, 0.173442840576172, 0.299966514110565, 0.075639799237251, -0.248472318053246, -0.021427126601338, 0.117731273174286, 0.201200321316719, 0.034135494381189, -0.017019540071487, -0.032047562301159, -0.034715179353952, -0.021810038015246, -0.109971672296524, 0.067017927765846, -0.047573398798704, -0.026948453858495, 0.384325951337814, 0.418207466602325, -0.437355846166611, -0.104552812874317, -0.296633154153824, 0.140174865722656, 0.139189824461937, -0.096901111304760, -0.051647581160069, -0.034682013094425, 0.044342346489429, 0.021749217063189};
#endif

#endif
