//Numpy array shape [4, 70]
//Min -2.006552934647
//Max 2.497519731522
//Number of zeros 0

#ifndef W13_H_
#define W13_H_

#ifndef __SYNTHESIS__
model_default_t w13[280];
#else
model_default_t w13[280] = {1.236374616622925, 0.409227728843689, 0.338148981332779, -0.755767047405243, -0.200070023536682, -0.043766286224127, -0.531709849834442, -0.977344036102295, -0.047101795673370, 0.007562452461571, 0.089637629687786, 0.399963110685349, -0.082889057695866, -0.018494693562388, -0.225006967782974, -0.032751545310020, -0.297199159860611, 0.211011633276939, 0.078794889152050, -0.062537319958210, 0.277750730514526, 0.033359967172146, -0.958400905132294, -0.564427375793457, -0.014809980988503, -0.256106019020081, 0.653536200523376, -0.294220030307770, -0.546894192695618, -0.534873068332672, -0.983944773674011, -0.334291636943817, -0.181344956159592, -1.035558700561523, -0.953781604766846, -0.116753369569778, -1.804468631744385, 0.705415070056915, 0.789825081825256, -0.797206521034241, -0.746685445308685, 0.615157246589661, 0.119833342730999, -0.054174613207579, -0.287443637847900, -0.064943060278893, 0.142984747886658, -0.480896800756454, 0.149877220392227, 0.017438501119614, -0.322086840867996, -0.175699859857559, -0.249437198042870, -0.001173604745418, 0.059035047888756, 0.429823547601700, 0.031300611793995, -0.177820160984993, 0.326256841421127, -0.187851980328560, -0.646818399429321, 0.290060073137283, -0.385751485824585, 0.000722174416296, 0.047889150679111, -0.326036065816879, -0.121556870639324, 0.439392298460007, 0.077907539904118, 0.991039037704468, -0.760338604450226, -0.365487098693848, -0.319998890161514, -0.087442964315414, -0.303792327642441, -0.262519031763077, -1.311666727066040, -1.176695227622986, -0.493622094392776, -0.420943468809128, -0.488572746515274, -0.577572107315063, 1.088045358657837, 0.677847623825073, -0.566103577613831, -0.342851072549820, -0.217508569359779, 0.154896825551987, 0.030405053868890, -0.089176058769226, -0.599553406238556, 0.019031284376979, -0.628191351890564, -0.060362752526999, 0.035990215837955, 0.013503466732800, -0.524336040019989, -0.248818069696426, -0.322572499513626, -0.071213372051716, 0.329846501350403, 0.046357467770576, -0.286006212234497, -0.678929686546326, -0.632411479949951, -0.570320487022400, 0.736309707164764, -0.485758811235428, 0.714923202991486, 0.344494074583054, -0.395995110273361, 2.497519731521606, -1.389595746994019, -0.526557803153992, 0.217111662030220, 0.571152210235596, -0.509549021720886, -0.233015373349190, -0.074904069304466, -0.282590657472610, 0.659116506576538, -0.220287337899208, -0.212391421198845, -0.271435260772705, -0.096595726907253, -0.396481871604919, -0.196902349591255, -2.006552934646606, -0.655990660190582, 0.606005549430847, -0.612429678440094, -0.202803954482079, 0.219344004988670, -0.189064711332321, -0.517802774906158, -0.893360137939453, 0.169856831431389, 0.139843046665192, 0.133218809962273, -0.821121454238892, 0.385518461465836, -0.653688073158264, -0.347238183021545, -0.180529266595840, -0.679777026176453, -0.280063241720200, -0.441906243562698, -0.818016171455383, -0.554670453071594, -0.465607464313507, -0.233728244900703, -0.236878663301468, 0.650666058063507, 0.582346379756927, -0.237555667757988, -0.164460763335228, -0.004744361620396, -0.080920398235321, -0.170062810182571, 0.067646652460098, -0.434117048978806, -0.002499739639461, -0.261979758739471, -0.005513308569789, 0.012753332033753, -0.069949023425579, -0.538258850574493, 0.021874172613025, -0.164552718400955, -0.371506839990616, 0.106171682476997, -0.295558661222458, -0.197253108024597, -0.537132143974304, -0.205875262618065, -0.132070288062096, 0.141155585646629, -0.086623646318913, 0.967003822326660, 0.627644419670105, 0.123884230852127, 0.857354342937469, 0.348015516996384, -0.298390328884125, -0.258438169956207, 0.171382218599319, -0.933175563812256, 0.096534527838230, -0.117726318538189, -0.242692932486534, -0.006413264200091, -0.431619584560394, -0.158425301313400, -0.433145523071289, 0.010842842049897, 0.930858373641968, -0.031989853829145, 0.357918053865433, 0.621039986610413, -0.951616525650024, 0.204391986131668, 0.110427759587765, -0.035925325006247, 0.173952013254166, 0.658633530139923, 0.899675369262695, -0.479215592145920, 0.617688715457916, -0.245782464742661, -0.159002780914307, 0.598788261413574, 0.361815631389618, 0.057319074869156, -0.093027755618095, -0.005065203644335, 0.065105155110359, -0.572016417980194, -0.226821780204773, -0.113439232110977, -0.158134385943413, -0.350000917911530, -0.376763820648193, 0.761065542697906, -0.200169160962105, -0.252306312322617, -0.026078497990966, 0.715416252613068, 0.011653349734843, -0.332581192255020, 0.589857459068298, 0.041125692427158, 0.326813727617264, 1.706994891166687, 1.185829162597656, -0.030251223593950, 0.807870626449585, 0.840776503086090, -0.502730906009674, -0.082417316734791, -0.315197587013245, -0.738075435161591, 0.436848968267441, -0.016284490004182, 0.012070044875145, 0.070257924497128, 1.482904791831970, -1.430703401565552, 0.288015127182007, 0.255978047847748, -0.735701441764832, -0.110022284090519, -0.605032801628113, -0.600482881069183, 0.997547268867493, 0.571878910064697, 0.424172341823578, -0.618189513683319, 1.037215232849121, -0.222387909889221, -0.166598871350288, 0.994720220565796, 0.068631738424301, 0.059023555368185, 0.299269169569016, -0.101690500974655, -0.767709374427795, 0.063947737216949, -0.188934475183487, 0.388989388942719, 0.130082726478577, 0.453019887208939, -0.011224046349525, -0.332792371511459, -0.112535029649734, -0.394120752811432, -0.078051403164864, 0.186355069279671, 0.668842554092407, -0.017508646473289, 0.139173910021782};
#endif

#endif
