//Numpy array shape [4, 70]
//Min -1.000000000000
//Max 1.000000000000
//Number of zeros 0

#ifndef W27_H_
#define W27_H_

#ifndef __SYNTHESIS__
nerual_dense_weight_t w27[280];
#else
nerual_dense_weight_t w27[280] = {-1.00000000000000, 0.11117553710938, -0.10189819335938, -0.28765869140625, -0.58499145507812, -0.31015014648438, -0.41162109375000, -0.41293334960938, -0.70053100585938, -0.17724609375000, -0.13989257812500, -0.54745483398438, 0.73904418945312, -0.49508666992188, 0.27929687500000, -0.61679077148438, -0.20458984375000, 0.15634155273438, -0.11102294921875, -0.94894409179688, -0.44692993164062, -0.57827758789062, 0.23287963867188, -0.28628540039062, 0.56604003906250, 0.15878295898438, -0.06216430664062, -0.96405029296875, 0.45718383789062, -0.99734497070312, 0.42468261718750, -0.11999511718750, -0.69528198242188, -0.20217895507812, 0.16516113281250, -0.74444580078125, -0.60250854492188, -0.22863769531250, -0.02108764648438, -0.04556274414062, -0.33825683593750, 0.20303344726562, -0.09353637695312, -0.55157470703125, -0.10192871093750, -0.34603881835938, -0.54336547851562, -0.08648681640625, -0.85620117187500, -0.22930908203125, 0.99942016601562, 0.83428955078125, -0.31845092773438, -0.35089111328125, 0.56011962890625, 0.59689331054688, 0.14151000976562, -0.83938598632812, -0.03604125976562, -0.20697021484375, -0.57592773437500, -0.12072753906250, 0.32623291015625, -0.18933105468750, -0.54803466796875, -0.33679199218750, 0.75247192382812, 0.12805175781250, -0.65689086914062, -0.75100708007812, 0.10903930664062, 0.22943115234375, -0.01644897460938, -0.72540283203125, -0.25726318359375, -0.40756225585938, -0.46105957031250, -0.67163085937500, 0.46640014648438, 0.21884155273438, -0.00177001953125, -0.61569213867188, -0.59625244140625, -0.26861572265625, -0.35327148437500, -0.30465698242188, 0.23815917968750, -0.43594360351562, -0.12893676757812, 0.07971191406250, 0.56790161132812, -0.06207275390625, -0.36318969726562, -0.32025146484375, 0.89965820312500, -0.09408569335938, -0.61285400390625, -0.20471191406250, 0.48162841796875, -0.44335937500000, -0.40093994140625, -0.26660156250000, 0.55014038085938, -0.01647949218750, -0.45480346679688, -0.83673095703125, -0.63101196289062, 0.06985473632812, 0.19436645507812, -0.66384887695312, 0.19403076171875, -0.63299560546875, -0.03387451171875, -0.56491088867188, 0.73559570312500, 0.10693359375000, 0.17883300781250, -0.71261596679688, 0.29150390625000, -0.57104492187500, 0.37496948242188, -0.04000854492188, -0.19882202148438, 0.53002929687500, -0.26406860351562, -0.09375000000000, 0.43933105468750, -0.09045410156250, -0.32015991210938, 0.04891967773438, 0.29705810546875, -0.27432250976562, 0.96939086914062, -0.75106811523438, 0.17001342773438, -0.81338500976562, 0.43353271484375, -0.13085937500000, 0.78973388671875, -0.83172607421875, -0.73175048828125, 0.20263671875000, 0.58068847656250, -0.47744750976562, 0.99996948242188, -0.46673583984375, 0.77478027343750, -0.36651611328125, -0.69171142578125, 0.49526977539062, -0.35043334960938, -0.73434448242188, -0.44302368164062, -0.51690673828125, 0.19506835937500, 0.61557006835938, 0.25048828125000, -0.22952270507812, 0.99996948242188, 0.13476562500000, 0.33856201171875, -0.16870117187500, 0.72534179687500, -0.56729125976562, -0.46096801757812, -0.48388671875000, -0.20532226562500, 0.99996948242188, 0.43978881835938, 0.21917724609375, -0.25225830078125, -0.45944213867188, -0.63851928710938, 0.55648803710938, 0.36718750000000, -0.60903930664062, -0.22137451171875, -0.99996948242188, 0.35494995117188, 0.30340576171875, -0.45318603515625, -0.79577636718750, 0.58676147460938, 0.48764038085938, -0.47543334960938, -0.42123413085938, -0.74935913085938, -0.04022216796875, -0.27166748046875, -0.89117431640625, 0.77413940429688, 0.42098999023438, -0.29455566406250, -0.32434082031250, -0.07669067382812, -0.01345825195312, -0.17303466796875, -0.21197509765625, -0.02981567382812, -0.46939086914062, -0.40399169921875, -0.68026733398438, 0.81439208984375, 0.40866088867188, -0.21917724609375, -0.54986572265625, 0.13415527343750, -0.49615478515625, -0.28982543945312, -0.51760864257812, 0.46597290039062, -0.48941040039062, -0.10006713867188, -0.67260742187500, -0.19622802734375, -0.08438110351562, 0.03558349609375, -0.17773437500000, 0.00213623046875, -0.32550048828125, 0.10693359375000, -0.04428100585938, -0.05200195312500, -0.73214721679688, -0.16174316406250, 0.01437377929688, 0.04830932617188, -0.45446777343750, 0.53106689453125, 0.02218627929688, -0.05575561523438, -1.00000000000000, -0.15689086914062, 0.46173095703125, 0.42489624023438, -0.53417968750000, -0.15979003906250, -0.52536010742188, -0.49014282226562, -0.38290405273438, 0.16442871093750, 0.28448486328125, 0.74114990234375, -0.26641845703125, -0.56405639648438, -0.26693725585938, 0.17358398437500, -0.24768066406250, -0.11401367187500, -0.34201049804688, 0.72647094726562, 0.03219604492188, -0.34201049804688, 0.36480712890625, 0.32751464843750, -0.58621215820312, -0.91256713867188, 0.51513671875000, 0.99996948242188, -1.00000000000000, -0.22723388671875, 0.00204467773438, 0.99996948242188, -0.29055786132812, -0.80401611328125, -0.02655029296875, 0.44058227539062, -0.44183349609375, -0.82974243164062, -0.30267333984375, 0.45407104492188, 0.44619750976562, -0.65188598632812, -0.12557983398438, 0.17349243164062, -0.06677246093750, -0.82757568359375, 0.52532958984375, -0.54571533203125, -0.96853637695312};
#endif

#endif
