//Numpy array shape [128, 64]
//Min -0.904449462891
//Max 0.744293212891
//Number of zeros 1

#ifndef W6_H_
#define W6_H_

#ifndef __SYNTHESIS__
weight6_t w6[8192];
#else
weight6_t w6[8192] = {0.08978271484375, 0.31649780273438, 0.11749267578125, 0.04064941406250, -0.04815673828125, -0.02972412109375, -0.06771850585938, -0.17047119140625, -0.03375244140625, 0.10897827148438, -0.04251098632812, 0.01382446289062, -0.11355590820312, 0.00344848632812, -0.15814208984375, 0.09078979492188, -0.02078247070312, -0.14224243164062, -0.09432983398438, 0.07928466796875, -0.03469848632812, 0.04913330078125, 0.08233642578125, 0.06738281250000, 0.07891845703125, -0.07510375976562, -0.08703613281250, -0.04483032226562, 0.00152587890625, 0.07296752929688, -0.15890502929688, 0.00567626953125, 0.00888061523438, -0.08291625976562, -0.11105346679688, -0.03701782226562, 0.01846313476562, -0.00097656250000, 0.11224365234375, 0.02478027343750, 0.09988403320312, 0.11013793945312, 0.08160400390625, 0.00665283203125, -0.04815673828125, -0.23989868164062, -0.01647949218750, 0.04418945312500, -0.02746582031250, -0.09933471679688, 0.08007812500000, 0.05328369140625, -0.01632690429688, 0.07922363281250, -0.07778930664062, -0.16021728515625, -0.07202148437500, -0.13650512695312, 0.02481079101562, 0.01971435546875, -0.09823608398438, 0.10260009765625, -0.05838012695312, -0.00915527343750, -0.16586303710938, -0.04397583007812, 0.07028198242188, 0.06811523437500, 0.06365966796875, 0.16122436523438, 0.03051757812500, 0.05084228515625, 0.10269165039062, 0.00158691406250, -0.18441772460938, -0.08688354492188, 0.01879882812500, -0.07601928710938, -0.08319091796875, -0.09609985351562, -0.10797119140625, 0.01156616210938, 0.02859497070312, 0.05795288085938, 0.07675170898438, 0.07293701171875, 0.02828979492188, -0.04196166992188, 0.22369384765625, 0.02487182617188, -0.00387573242188, -0.13442993164062, 0.02093505859375, 0.01937866210938, -0.10317993164062, -0.11883544921875, 0.10369873046875, -0.14785766601562, -0.02261352539062, -0.05938720703125, -0.08337402343750, 0.01953125000000, 0.06704711914062, -0.00253295898438, -0.12237548828125, 0.10342407226562, -0.12503051757812, 0.06399536132812, 0.14437866210938, 0.01852416992188, -0.07894897460938, 0.04528808593750, 0.10412597656250, 0.06994628906250, -0.02459716796875, 0.05157470703125, -0.10415649414062, -0.01818847656250, -0.01800537109375, -0.22177124023438, -0.06213378906250, -0.09338378906250, -0.02917480468750, 0.01025390625000, -0.03808593750000, 0.06091308593750, -0.01251220703125, -0.04922485351562, 0.01025390625000, 0.27310180664062, 0.07369995117188, -0.09750366210938, -0.02893066406250, 0.18994140625000, 0.02407836914062, -0.03366088867188, 0.05911254882812, 0.10391235351562, -0.05859375000000, 0.24334716796875, -0.18014526367188, 0.10134887695312, 0.02932739257812, 0.13989257812500, -0.01019287109375, 0.04318237304688, -0.10754394531250, 0.14300537109375, 0.07473754882812, 0.17004394531250, -0.04650878906250, 0.06069946289062, 0.00854492187500, 0.05422973632812, -0.10842895507812, -0.23751831054688, 0.05078125000000, 0.06396484375000, -0.18176269531250, -0.16851806640625, -0.05480957031250, -0.22378540039062, -0.26837158203125, -0.07009887695312, -0.07534790039062, -0.15292358398438, -0.05410766601562, -0.11785888671875, -0.08026123046875, -0.05526733398438, 0.04293823242188, 0.04364013671875, -0.16149902343750, -0.05572509765625, 0.12698364257812, 0.08798217773438, 0.28787231445312, -0.14776611328125, -0.00628662109375, 0.01312255859375, -0.10409545898438, -0.14849853515625, -0.02612304687500, -0.14007568359375, 0.01492309570312, 0.15292358398438, 0.01770019531250, -0.02020263671875, 0.07003784179688, -0.08941650390625, -0.17791748046875, 0.00509643554688, 0.01440429687500, -0.09194946289062, 0.08187866210938, -0.04388427734375, -0.04086303710938, -0.20251464843750, 0.09921264648438, 0.13421630859375, -0.03408813476562, -0.12741088867188, -0.06478881835938, -0.08822631835938, 0.20962524414062, -0.02981567382812, -0.07504272460938, -0.08163452148438, -0.09020996093750, 0.02780151367188, 0.08419799804688, -0.14846801757812, 0.09957885742188, 0.13412475585938, -0.04998779296875, 0.06933593750000, 0.05453491210938, 0.09963989257812, -0.17364501953125, -0.21771240234375, 0.14355468750000, -0.02767944335938, 0.09197998046875, -0.04150390625000, 0.02731323242188, 0.06860351562500, 0.01470947265625, -0.03793334960938, -0.02761840820312, -0.07107543945312, 0.12811279296875, 0.16732788085938, -0.10183715820312, 0.04733276367188, -0.08847045898438, 0.05651855468750, -0.20559692382812, -0.07147216796875, -0.24884033203125, 0.06353759765625, -0.00155639648438, 0.10870361328125, 0.00933837890625, -0.06628417968750, -0.21069335937500, -0.09185791015625, 0.19653320312500, 0.01898193359375, 0.11038208007812, 0.12124633789062, 0.05844116210938, 0.16113281250000, 0.02951049804688, -0.07397460937500, 0.06890869140625, 0.05639648437500, 0.23580932617188, 0.00497436523438, -0.01046752929688, 0.08642578125000, -0.15863037109375, -0.23806762695312, 0.11962890625000, -0.13705444335938, 0.04830932617188, 0.11389160156250, -0.10833740234375, -0.02832031250000, -0.14190673828125, 0.20190429687500, 0.17767333984375, -0.01095581054688, -0.09530639648438, 0.20346069335938, 0.23501586914062, -0.18911743164062, -0.05026245117188, 0.02044677734375, -0.04809570312500, 0.20483398437500, -0.27362060546875, -0.21832275390625, -0.10671997070312, -0.11889648437500, -0.09561157226562, 0.10116577148438, -0.19052124023438, 0.01773071289062, -0.15728759765625, 0.05572509765625, 0.09872436523438, -0.01739501953125, -0.17749023437500, 0.03384399414062, 0.09811401367188, -0.25720214843750, -0.16433715820312, -0.03390502929688, -0.33990478515625, -0.04141235351562, -0.15621948242188, 0.15853881835938, 0.28805541992188, 0.36242675781250, 0.29537963867188, -0.24310302734375, 0.21841430664062, 0.21899414062500, -0.27740478515625, -0.08953857421875, -0.27130126953125, -0.25698852539062, 0.07086181640625, 0.07528686523438, -0.05764770507812, -0.06674194335938, 0.05331420898438, -0.12918090820312, -0.21911621093750, 0.10049438476562, 0.15911865234375, -0.18688964843750, -0.06369018554688, 0.24200439453125, -0.03271484375000, 0.04748535156250, 0.11532592773438, 0.17431640625000, 0.01461791992188, -0.18218994140625, -0.07073974609375, -0.22476196289062, -0.07910156250000, -0.12310791015625, 0.10351562500000, -0.16522216796875, 0.06582641601562, 0.04959106445312, 0.14291381835938, -0.23870849609375, -0.08749389648438, 0.13153076171875, -0.21527099609375, 0.32049560546875, 0.22741699218750, -0.11453247070312, -0.48785400390625, -0.13986206054688, 0.03457641601562, 0.00671386718750, 0.26248168945312, 0.12344360351562, 0.20281982421875, 0.05416870117188, -0.01217651367188, 0.12872314453125, -0.07629394531250, 0.03393554687500, 0.05474853515625, 0.08813476562500, -0.39611816406250, -0.02111816406250, -0.19964599609375, 0.13449096679688, 0.03439331054688, -0.17230224609375, -0.09115600585938, 0.15957641601562, 0.07638549804688, -0.19061279296875, -0.08300781250000, -0.18783569335938, -0.32379150390625, 0.27636718750000, -0.11376953125000, -0.53982543945312, 0.25402832031250, 0.51034545898438, 0.16293334960938, 0.07742309570312, -0.06909179687500, 0.22442626953125, 0.04269409179688, 0.12930297851562, -0.10202026367188, 0.07327270507812, 0.14813232421875, 0.08520507812500, -0.00222778320312, 0.03533935546875, -0.06976318359375, 0.03308105468750, -0.18655395507812, 0.05340576171875, 0.01669311523438, 0.10617065429688, -0.10314941406250, 0.11987304687500, 0.12957763671875, -0.07415771484375, 0.04730224609375, -0.02398681640625, 0.01947021484375, 0.01440429687500, -0.04937744140625, 0.19558715820312, -0.05575561523438, 0.20938110351562, 0.32669067382812, -0.02264404296875, -0.05438232421875, -0.19326782226562, 0.04232788085938, -0.09771728515625, 0.09063720703125, -0.14041137695312, 0.08496093750000, 0.09561157226562, 0.09661865234375, 0.04132080078125, -0.15066528320312, -0.01037597656250, -0.03399658203125, -0.10250854492188, 0.08819580078125, 0.21859741210938, 0.02093505859375, 0.11642456054688, -0.16079711914062, -0.04089355468750, 0.19281005859375, -0.06280517578125, 0.18624877929688, -0.08612060546875, 0.01501464843750, 0.13772583007812, 0.04898071289062, -0.05767822265625, -0.17938232421875, 0.08004760742188, 0.12103271484375, 0.11840820312500, 0.19006347656250, -0.01977539062500, 0.10040283203125, 0.09210205078125, 0.00286865234375, 0.07211303710938, 0.06710815429688, -0.11846923828125, 0.08602905273438, -0.12103271484375, 0.03784179687500, -0.06991577148438, 0.07220458984375, -0.00524902343750, -0.10330200195312, 0.08016967773438, -0.21289062500000, -0.13665771484375, 0.19525146484375, 0.22439575195312, -0.15155029296875, -0.06680297851562, 0.06063842773438, 0.09707641601562, 0.17004394531250, -0.06127929687500, 0.00344848632812, 0.01773071289062, -0.25494384765625, -0.00729370117188, 0.04971313476562, -0.06231689453125, -0.11181640625000, 0.02996826171875, 0.16976928710938, 0.26742553710938, 0.10028076171875, 0.04864501953125, 0.10723876953125, 0.02789306640625, -0.04290771484375, -0.04159545898438, -0.12677001953125, 0.10617065429688, 0.08560180664062, 0.13388061523438, -0.04437255859375, -0.06909179687500, 0.05505371093750, 0.28100585937500, 0.02819824218750, 0.03106689453125, -0.30657958984375, -0.03427124023438, -0.08724975585938, -0.01260375976562, 0.07595825195312, 0.12576293945312, 0.07739257812500, 0.01177978515625, -0.02938842773438, 0.00555419921875, 0.25854492187500, -0.13098144531250, 0.22064208984375, 0.01052856445312, 0.07571411132812, 0.13015747070312, 0.02999877929688, 0.16320800781250, -0.10943603515625, -0.10229492187500, 0.03955078125000, -0.05487060546875, -0.03405761718750, -0.05899047851562, -0.03753662109375, -0.01428222656250, -0.03839111328125, 0.02606201171875, 0.04614257812500, 0.03720092773438, -0.04373168945312, 0.11502075195312, -0.05035400390625, 0.03778076171875, 0.25866699218750, 0.07711791992188, -0.03662109375000, -0.03326416015625, -0.11761474609375, 0.09033203125000, 0.07971191406250, 0.02072143554688, 0.00482177734375, -0.04583740234375, -0.06762695312500, -0.03903198242188, 0.02484130859375, 0.17489624023438, -0.10812377929688, -0.09814453125000, 0.08282470703125, -0.24533081054688, -0.01461791992188, 0.00045776367188, -0.07629394531250, 0.16763305664062, 0.00717163085938, 0.05242919921875, -0.01397705078125, -0.09658813476562, -0.04928588867188, 0.04190063476562, -0.03005981445312, -0.06155395507812, 0.09753417968750, 0.10012817382812, -0.13244628906250, -0.14996337890625, 0.13189697265625, -0.07235717773438, -0.04849243164062, -0.04922485351562, -0.13082885742188, 0.11444091796875, 0.09509277343750, 0.04400634765625, -0.09786987304688, -0.02731323242188, 0.00057983398438, 0.07720947265625, -0.02563476562500, 0.00729370117188, 0.14819335937500, 0.00119018554688, -0.06756591796875, -0.00836181640625, -0.05181884765625, 0.04144287109375, -0.01980590820312, -0.10623168945312, -0.08032226562500, -0.07617187500000, -0.12768554687500, -0.04025268554688, -0.09036254882812, 0.06814575195312, 0.04528808593750, -0.02319335937500, -0.01412963867188, -0.00329589843750, 0.17745971679688, -0.07623291015625, 0.06668090820312, -0.07354736328125, 0.05899047851562, -0.03112792968750, 0.02688598632812, 0.03338623046875, 0.14431762695312, 0.10037231445312, 0.05029296875000, 0.04553222656250, 0.03628540039062, -0.09454345703125, 0.01052856445312, 0.11694335937500, 0.03967285156250, -0.13726806640625, -0.07138061523438, -0.06512451171875, -0.00741577148438, 0.03262329101562, 0.00091552734375, 0.14666748046875, 0.11044311523438, 0.08721923828125, 0.08956909179688, 0.05126953125000, -0.06710815429688, 0.01019287109375, -0.07400512695312, -0.08981323242188, -0.00811767578125, -0.07836914062500, -0.04785156250000, 0.05615234375000, 0.01510620117188, -0.12478637695312, 0.12875366210938, 0.16223144531250, 0.03698730468750, 0.20907592773438, -0.02697753906250, -0.21502685546875, 0.11984252929688, 0.11627197265625, 0.12924194335938, 0.09500122070312, 0.03353881835938, 0.14840698242188, 0.08584594726562, 0.04019165039062, 0.07598876953125, 0.06637573242188, 0.03509521484375, -0.07455444335938, -0.02182006835938, 0.04626464843750, -0.07968139648438, -0.02563476562500, -0.07946777343750, -0.04238891601562, -0.07592773437500, 0.06546020507812, 0.01550292968750, -0.03140258789062, 0.03762817382812, -0.18032836914062, -0.10446166992188, -0.06372070312500, 0.09692382812500, -0.05096435546875, -0.09301757812500, 0.06051635742188, -0.07199096679688, 0.10302734375000, -0.13580322265625, 0.02655029296875, -0.11425781250000, 0.06204223632812, -0.13623046875000, -0.12493896484375, -0.13296508789062, -0.07571411132812, -0.06765747070312, -0.11102294921875, 0.07058715820312, 0.07397460937500, 0.04287719726562, -0.02426147460938, -0.00289916992188, 0.01455688476562, 0.07760620117188, -0.00555419921875, 0.14532470703125, 0.09585571289062, 0.15142822265625, 0.11312866210938, 0.00405883789062, 0.07843017578125, 0.01266479492188, -0.03363037109375, -0.08728027343750, -0.05490112304688, -0.03985595703125, -0.08810424804688, 0.03585815429688, -0.11529541015625, 0.09698486328125, 0.01449584960938, -0.04080200195312, -0.09622192382812, 0.06246948242188, -0.03002929687500, 0.04165649414062, 0.00613403320312, 0.10998535156250, -0.01818847656250, -0.04077148437500, -0.03710937500000, -0.08233642578125, 0.05337524414062, 0.04174804687500, -0.07641601562500, -0.01889038085938, -0.00317382812500, -0.06726074218750, 0.10943603515625, -0.21383666992188, -0.15121459960938, 0.10482788085938, -0.11016845703125, -0.23858642578125, -0.01342773437500, -0.11938476562500, -0.01037597656250, 0.02352905273438, -0.03024291992188, 0.00439453125000, 0.08657836914062, 0.12344360351562, 0.07870483398438, 0.09268188476562, -0.08908081054688, 0.10650634765625, 0.04748535156250, 0.12063598632812, 0.14202880859375, 0.11279296875000, -0.04226684570312, -0.05670166015625, 0.02749633789062, -0.04986572265625, 0.14709472656250, 0.06170654296875, 0.13125610351562, -0.15338134765625, 0.04220581054688, 0.06243896484375, 0.04949951171875, -0.01870727539062, 0.17001342773438, 0.07156372070312, -0.00119018554688, -0.01968383789062, -0.04589843750000, -0.00732421875000, 0.01739501953125, -0.05065917968750, 0.14453125000000, 0.03680419921875, -0.07662963867188, 0.09182739257812, 0.03497314453125, 0.02261352539062, 0.04937744140625, -0.18395996093750, 0.14791870117188, -0.15872192382812, -0.11935424804688, 0.06488037109375, 0.08248901367188, -0.18069458007812, -0.03540039062500, -0.01870727539062, 0.04211425781250, 0.02975463867188, -0.04000854492188, 0.10113525390625, 0.04626464843750, 0.04421997070312, 0.00994873046875, 0.12152099609375, -0.09844970703125, 0.03204345703125, 0.09973144531250, 0.00280761718750, 0.07882690429688, -0.06652832031250, -0.03945922851562, 0.11227416992188, -0.13265991210938, -0.05355834960938, 0.10009765625000, -0.06951904296875, -0.05847167968750, 0.17062377929688, -0.08734130859375, 0.03399658203125, -0.02267456054688, -0.10299682617188, 0.03497314453125, -0.25299072265625, -0.07775878906250, 0.02304077148438, 0.02770996093750, -0.14779663085938, -0.05374145507812, -0.07641601562500, 0.11871337890625, 0.15182495117188, -0.07196044921875, -0.03256225585938, -0.10742187500000, 0.21731567382812, -0.11401367187500, -0.06329345703125, -0.08834838867188, 0.09988403320312, -0.02124023437500, 0.08917236328125, -0.05715942382812, 0.04489135742188, 0.16134643554688, 0.16470336914062, 0.02209472656250, -0.06091308593750, -0.03802490234375, -0.13571166992188, -0.03625488281250, -0.12899780273438, 0.12210083007812, -0.02871704101562, 0.10253906250000, -0.07516479492188, -0.03234863281250, -0.07550048828125, -0.19723510742188, -0.02178955078125, -0.09970092773438, -0.04290771484375, 0.04772949218750, 0.04336547851562, -0.01309204101562, -0.10000610351562, -0.02169799804688, 0.08233642578125, -0.00689697265625, 0.04183959960938, 0.00991821289062, -0.14169311523438, 0.25836181640625, -0.02160644531250, -0.08963012695312, -0.07348632812500, -0.02005004882812, 0.06079101562500, -0.07006835937500, 0.04055786132812, 0.17407226562500, -0.03268432617188, -0.02191162109375, -0.09838867187500, 0.04632568359375, 0.06045532226562, 0.18109130859375, -0.00967407226562, 0.13134765625000, -0.27722167968750, -0.22415161132812, -0.18838500976562, 0.15750122070312, -0.22619628906250, -0.03451538085938, -0.18124389648438, 0.11358642578125, 0.15487670898438, -0.13607788085938, -0.11395263671875, -0.04074096679688, -0.19494628906250, 0.27218627929688, -0.07128906250000, -0.21539306640625, 0.04467773437500, 0.19451904296875, 0.02841186523438, -0.00009155273438, 0.20812988281250, -0.12686157226562, -0.25122070312500, 0.18209838867188, -0.23287963867188, 0.04443359375000, -0.03402709960938, 0.10244750976562, 0.09494018554688, 0.02450561523438, 0.02630615234375, 0.04711914062500, 0.01312255859375, 0.00195312500000, 0.20104980468750, -0.09918212890625, 0.12506103515625, -0.02630615234375, 0.12530517578125, -0.02679443359375, 0.02920532226562, 0.01132202148438, 0.02069091796875, 0.10095214843750, -0.02368164062500, 0.07666015625000, -0.01760864257812, -0.01052856445312, 0.00601196289062, 0.02725219726562, -0.01461791992188, -0.08261108398438, 0.01290893554688, -0.14419555664062, 0.06820678710938, 0.06329345703125, 0.12051391601562, 0.01889038085938, 0.08660888671875, -0.02243041992188, 0.20916748046875, 0.10824584960938, 0.05300903320312, 0.07351684570312, 0.08889770507812, 0.02145385742188, 0.06643676757812, -0.01556396484375, 0.04241943359375, 0.12008666992188, 0.19079589843750, -0.15597534179688, -0.08428955078125, 0.02969360351562, 0.00363159179688, -0.05209350585938, 0.13513183593750, 0.00933837890625, -0.08322143554688, -0.02215576171875, 0.01089477539062, 0.01568603515625, 0.03460693359375, 0.04373168945312, 0.09585571289062, -0.22680664062500, -0.02505493164062, -0.02716064453125, 0.00262451171875, -0.02426147460938, 0.10375976562500, 0.02493286132812, -0.18206787109375, 0.03436279296875, -0.03884887695312, 0.17929077148438, 0.00836181640625, 0.01828002929688, 0.08374023437500, -0.03884887695312, 0.06387329101562, 0.04193115234375, -0.16241455078125, 0.14337158203125, 0.08169555664062, 0.00341796875000, 0.02920532226562, 0.04550170898438, 0.18075561523438, 0.03164672851562, -0.26705932617188, 0.06274414062500, 0.01980590820312, -0.13418579101562, -0.01119995117188, 0.07720947265625, 0.11764526367188, 0.10473632812500, 0.08056640625000, 0.07742309570312, -0.12390136718750, 0.04357910156250, -0.18139648437500, 0.03277587890625, -0.07168579101562, 0.22119140625000, -0.04141235351562, 0.16772460937500, -0.08587646484375, -0.10189819335938, -0.10278320312500, 0.07250976562500, 0.04449462890625, -0.05712890625000, -0.03112792968750, 0.02407836914062, -0.07412719726562, 0.07998657226562, 0.01660156250000, -0.11935424804688, -0.27127075195312, 0.05032348632812, 0.19732666015625, 0.17950439453125, 0.14611816406250, -0.01156616210938, 0.05328369140625, -0.01470947265625, 0.03225708007812, -0.16445922851562, -0.13656616210938, 0.08459472656250, 0.17431640625000, 0.02029418945312, 0.20986938476562, -0.14230346679688, 0.07305908203125, -0.16238403320312, 0.06896972656250, 0.03259277343750, -0.01388549804688, 0.11810302734375, -0.06912231445312, -0.12738037109375, 0.03100585937500, 0.20681762695312, -0.03234863281250, 0.05523681640625, -0.10067749023438, -0.18609619140625, -0.14346313476562, 0.04388427734375, 0.02255249023438, 0.04714965820312, 0.24911499023438, 0.01232910156250, -0.11788940429688, -0.17941284179688, -0.07598876953125, -0.26278686523438, 0.21405029296875, 0.16995239257812, 0.00128173828125, 0.01254272460938, -0.09085083007812, -0.18664550781250, -0.05569458007812, 0.00286865234375, -0.22662353515625, -0.06661987304688, 0.12011718750000, 0.17727661132812, -0.06738281250000, -0.08660888671875, 0.05578613281250, -0.11141967773438, -0.28182983398438, -0.11273193359375, 0.11663818359375, 0.18606567382812, 0.10961914062500, -0.04476928710938, -0.01702880859375, 0.10717773437500, -0.14956665039062, 0.14321899414062, -0.00363159179688, 0.09268188476562, 0.01669311523438, -0.17138671875000, 0.03137207031250, 0.20303344726562, 0.09774780273438, -0.00524902343750, 0.02377319335938, -0.20794677734375, -0.19616699218750, -0.17596435546875, 0.04699707031250, -0.15786743164062, -0.00622558593750, 0.04843139648438, 0.15756225585938, 0.08630371093750, 0.18991088867188, 0.06765747070312, -0.18811035156250, 0.12854003906250, -0.10293579101562, 0.00946044921875, 0.13006591796875, 0.00418090820312, -0.12185668945312, -0.03564453125000, -0.07888793945312, 0.08377075195312, -0.10659790039062, -0.00427246093750, -0.12512207031250, 0.01324462890625, 0.04455566406250, 0.02239990234375, 0.12536621093750, -0.09835815429688, 0.04183959960938, -0.20712280273438, -0.00051879882812, 0.24664306640625, 0.19500732421875, -0.10601806640625, 0.07748413085938, 0.00949096679688, -0.19494628906250, 0.00701904296875, -0.09982299804688, -0.03320312500000, 0.03884887695312, 0.13616943359375, -0.08520507812500, -0.12835693359375, -0.00750732421875, 0.01654052734375, 0.02999877929688, 0.01449584960938, 0.18820190429688, 0.00268554687500, -0.09960937500000, -0.14245605468750, 0.07785034179688, -0.01489257812500, -0.15014648437500, -0.13604736328125, 0.00372314453125, -0.19433593750000, 0.03125000000000, 0.07821655273438, -0.13424682617188, 0.00213623046875, 0.36148071289062, 0.05676269531250, 0.36367797851562, -0.10266113281250, 0.12609863281250, 0.00424194335938, -0.03527832031250, -0.25195312500000, -0.11166381835938, 0.04956054687500, 0.16918945312500, -0.04183959960938, -0.00585937500000, -0.12124633789062, -0.29016113281250, 0.03076171875000, 0.17257690429688, -0.04592895507812, 0.02386474609375, 0.07647705078125, -0.16503906250000, -0.18008422851562, 0.18121337890625, 0.08633422851562, -0.17147827148438, 0.13272094726562, -0.16152954101562, -0.08309936523438, 0.23239135742188, -0.17736816406250, -0.14236450195312, 0.29995727539062, -0.23135375976562, -0.25784301757812, -0.12060546875000, -0.20364379882812, 0.16195678710938, -0.04214477539062, -0.21792602539062, -0.19171142578125, 0.17364501953125, -0.22485351562500, 0.02380371093750, 0.09448242187500, -0.21896362304688, -0.06091308593750, -0.12902832031250, 0.17639160156250, 0.37359619140625, 0.36624145507812, -0.00378417968750, -0.25701904296875, 0.25637817382812, 0.19528198242188, -0.31250000000000, 0.07211303710938, -0.11495971679688, -0.26510620117188, 0.00512695312500, 0.15399169921875, 0.10946655273438, 0.16036987304688, 0.01904296875000, -0.07931518554688, -0.35812377929688, 0.05007934570312, 0.28875732421875, -0.24380493164062, 0.14343261718750, 0.16836547851562, -0.14266967773438, 0.03173828125000, 0.10668945312500, 0.33090209960938, -0.06250000000000, -0.23281860351562, -0.23034667968750, -0.21771240234375, 0.00140380859375, -0.01486206054688, 0.16052246093750, 0.02673339843750, -0.16107177734375, -0.00256347656250, 0.26913452148438, -0.31707763671875, 0.05331420898438, -0.00549316406250, -0.04321289062500, 0.38681030273438, 0.00939941406250, -0.15530395507812, -0.36132812500000, -0.08590698242188, -0.06866455078125, 0.03378295898438, 0.31939697265625, 0.32598876953125, 0.28335571289062, -0.15609741210938, -0.19128417968750, 0.06564331054688, -0.26129150390625, -0.07369995117188, 0.10482788085938, 0.03030395507812, -0.33163452148438, 0.21566772460938, -0.47769165039062, 0.30587768554688, -0.10903930664062, -0.18734741210938, 0.03210449218750, 0.02243041992188, 0.23614501953125, -0.08361816406250, -0.11441040039062, -0.18634033203125, -0.11190795898438, 0.21923828125000, -0.10995483398438, -0.33807373046875, 0.17922973632812, 0.24414062500000, 0.19284057617188, 0.12133789062500, -0.01989746093750, 0.11685180664062, -0.29019165039062, 0.11227416992188, 0.02462768554688, -0.20977783203125, -0.00994873046875, -0.09344482421875, 0.02005004882812, 0.20803833007812, 0.25497436523438, 0.17987060546875, -0.14971923828125, 0.03988647460938, 0.16461181640625, -0.08914184570312, 0.11013793945312, -0.11413574218750, -0.02279663085938, -0.26055908203125, 0.14785766601562, 0.15444946289062, -0.04721069335938, 0.18423461914062, 0.00122070312500, 0.10293579101562, -0.01330566406250, -0.00103759765625, -0.00573730468750, 0.02410888671875, 0.00006103515625, -0.15084838867188, -0.03518676757812, -0.23742675781250, 0.16928100585938, -0.14035034179688, 0.00497436523438, 0.06835937500000, -0.06277465820312, -0.04507446289062, 0.02807617187500, -0.00863647460938, 0.07034301757812, -0.12356567382812, 0.15667724609375, -0.03927612304688, -0.10205078125000, 0.00216674804688, 0.07467651367188, 0.11990356445312, 0.07412719726562, 0.03350830078125, -0.19232177734375, 0.04559326171875, 0.07681274414062, -0.11129760742188, 0.12167358398438, -0.05825805664062, -0.10745239257812, -0.15286254882812, 0.12557983398438, 0.02749633789062, -0.09197998046875, -0.04565429687500, 0.13308715820312, 0.06604003906250, -0.07312011718750, -0.01440429687500, 0.00006103515625, 0.01177978515625, -0.03884887695312, -0.01861572265625, -0.00582885742188, -0.03811645507812, -0.06161499023438, -0.01513671875000, -0.09170532226562, -0.01541137695312, 0.19692993164062, -0.16854858398438, 0.08813476562500, -0.01812744140625, 0.01174926757812, 0.07873535156250, 0.05337524414062, -0.00872802734375, 0.16900634765625, 0.00643920898438, 0.04577636718750, 0.09106445312500, -0.13418579101562, 0.15954589843750, -0.16638183593750, -0.15545654296875, 0.04354858398438, 0.11016845703125, -0.09417724609375, 0.20944213867188, 0.12243652343750, -0.09640502929688, -0.07296752929688, 0.03225708007812, -0.13967895507812, 0.00790405273438, -0.03063964843750, -0.02743530273438, -0.13241577148438, 0.19436645507812, 0.03802490234375, 0.02243041992188, -0.03158569335938, 0.10287475585938, 0.01138305664062, -0.23074340820312, -0.06442260742188, 0.01705932617188, -0.06295776367188, -0.02886962890625, -0.06518554687500, 0.11596679687500, -0.04626464843750, -0.09637451171875, 0.09753417968750, -0.15554809570312, 0.02435302734375, 0.08441162109375, 0.11697387695312, -0.06805419921875, 0.12536621093750, -0.26794433593750, -0.09136962890625, -0.00216674804688, 0.03027343750000, -0.00894165039062, -0.00018310546875, -0.01504516601562, 0.06701660156250, 0.08425903320312, -0.06866455078125, -0.07467651367188, -0.03259277343750, -0.13162231445312, 0.03179931640625, 0.08435058593750, -0.02578735351562, -0.01391601562500, -0.05459594726562, 0.00399780273438, 0.07019042968750, 0.03671264648438, 0.08816528320312, -0.03585815429688, -0.00146484375000, 0.15747070312500, -0.23236083984375, 0.19616699218750, 0.04269409179688, -0.06332397460938, 0.13681030273438, -0.02981567382812, -0.03652954101562, -0.01071166992188, -0.13388061523438, 0.10400390625000, 0.02838134765625, 0.08050537109375, -0.14190673828125, 0.03515625000000, 0.18197631835938, 0.06323242187500, -0.13705444335938, 0.04324340820312, 0.10134887695312, 0.15264892578125, -0.08554077148438, 0.06488037109375, 0.08126831054688, -0.06069946289062, 0.00579833984375, -0.01541137695312, 0.08248901367188, -0.14779663085938, 0.17440795898438, -0.15798950195312, 0.13583374023438, -0.03637695312500, 0.03268432617188, -0.00204467773438, -0.00790405273438, 0.06735229492188, -0.08471679687500, 0.02780151367188, 0.01892089843750, 0.07290649414062, -0.05273437500000, -0.07675170898438, -0.11865234375000, -0.07299804687500, -0.04528808593750, 0.05426025390625, 0.02453613281250, -0.08975219726562, -0.04220581054688, 0.17971801757812, 0.02481079101562, -0.01831054687500, -0.04281616210938, 0.05154418945312, 0.18731689453125, -0.01113891601562, -0.13687133789062, 0.12661743164062, -0.04864501953125, 0.08233642578125, 0.02114868164062, 0.01968383789062, -0.00518798828125, 0.10949707031250, -0.02935791015625, 0.05340576171875, -0.04486083984375, 0.05349731445312, -0.01083374023438, -0.20672607421875, 0.07467651367188, 0.18673706054688, 0.09921264648438, -0.07171630859375, 0.03604125976562, -0.09268188476562, -0.04263305664062, -0.10174560546875, -0.15686035156250, 0.19610595703125, -0.06405639648438, -0.00158691406250, -0.05194091796875, 0.07049560546875, -0.20989990234375, 0.01522827148438, 0.08645629882812, -0.01718139648438, -0.09667968750000, -0.02511596679688, 0.04037475585938, -0.01257324218750, 0.15640258789062, 0.11215209960938, -0.00146484375000, -0.12411499023438, 0.15362548828125, -0.05303955078125, 0.09371948242188, 0.03485107421875, 0.04895019531250, -0.12347412109375, -0.09469604492188, -0.01873779296875, -0.11657714843750, -0.00091552734375, 0.10681152343750, 0.06021118164062, -0.12979125976562, 0.08483886718750, -0.04296875000000, -0.12112426757812, -0.01400756835938, -0.18234252929688, -0.00973510742188, 0.08715820312500, -0.02520751953125, -0.01428222656250, 0.07556152343750, 0.08758544921875, 0.00427246093750, 0.01086425781250, 0.05267333984375, 0.04348754882812, -0.01153564453125, 0.10433959960938, -0.04199218750000, 0.16864013671875, 0.01107788085938, -0.06460571289062, 0.01132202148438, 0.07736206054688, -0.20809936523438, -0.02297973632812, -0.04708862304688, 0.05026245117188, 0.09692382812500, 0.07675170898438, -0.10504150390625, 0.06179809570312, 0.08023071289062, 0.03460693359375, -0.20809936523438, 0.01559448242188, 0.03530883789062, -0.14810180664062, 0.02313232421875, 0.04333496093750, 0.11489868164062, 0.04443359375000, 0.03302001953125, -0.10781860351562, 0.04061889648438, 0.14730834960938, 0.10385131835938, -0.09225463867188, -0.06814575195312, -0.01818847656250, -0.01940917968750, 0.05764770507812, -0.11843872070312, -0.20565795898438, -0.01300048828125, -0.04626464843750, 0.01049804687500, 0.01800537109375, -0.09289550781250, 0.17019653320312, 0.15194702148438, -0.02886962890625, -0.00073242187500, 0.24160766601562, -0.09616088867188, -0.00219726562500, -0.06018066406250, -0.05386352539062, -0.00827026367188, 0.10025024414062, 0.07769775390625, -0.00906372070312, -0.00051879882812, 0.07455444335938, -0.02127075195312, -0.01666259765625, 0.02026367187500, -0.05792236328125, -0.06472778320312, -0.06588745117188, -0.08825683593750, 0.03079223632812, 0.00692749023438, 0.04537963867188, -0.00375366210938, 0.14840698242188, -0.08789062500000, -0.05477905273438, -0.01867675781250, -0.19720458984375, 0.10910034179688, -0.15985107421875, -0.06716918945312, 0.04666137695312, -0.03747558593750, 0.04418945312500, -0.10366821289062, 0.06246948242188, -0.01373291015625, 0.17901611328125, 0.01464843750000, 0.05731201171875, 0.08334350585938, 0.13769531250000, -0.02850341796875, 0.04287719726562, 0.06280517578125, 0.01278686523438, 0.01425170898438, -0.07257080078125, -0.01208496093750, 0.02291870117188, -0.01647949218750, -0.09689331054688, 0.05639648437500, -0.05508422851562, -0.03051757812500, 0.08673095703125, -0.16644287109375, -0.11541748046875, 0.03921508789062, 0.03561401367188, -0.05679321289062, -0.17300415039062, 0.13330078125000, -0.04644775390625, 0.04434204101562, -0.00250244140625, 0.14514160156250, -0.13302612304688, -0.03137207031250, -0.07937622070312, 0.04995727539062, 0.00415039062500, 0.03771972656250, -0.06790161132812, -0.11511230468750, -0.06781005859375, -0.10717773437500, 0.00057983398438, 0.01614379882812, 0.06805419921875, -0.02352905273438, 0.00448608398438, -0.04028320312500, -0.12359619140625, 0.11239624023438, -0.03567504882812, 0.12973022460938, 0.02236938476562, -0.10443115234375, 0.02429199218750, -0.05957031250000, 0.04202270507812, 0.04663085937500, 0.02862548828125, 0.01425170898438, 0.03640747070312, -0.18698120117188, -0.13174438476562, -0.08712768554688, -0.03399658203125, -0.09371948242188, 0.12728881835938, -0.05166625976562, -0.02014160156250, -0.04382324218750, 0.08303833007812, -0.06427001953125, -0.02520751953125, 0.02124023437500, -0.09848022460938, 0.04019165039062, 0.00866699218750, 0.23739624023438, -0.14654541015625, 0.05789184570312, 0.06698608398438, 0.06732177734375, -0.00033569335938, -0.05255126953125, 0.00625610351562, 0.10592651367188, -0.02673339843750, 0.04476928710938, -0.00183105468750, -0.13122558593750, 0.08142089843750, 0.05352783203125, -0.16510009765625, 0.04547119140625, 0.06665039062500, -0.02059936523438, -0.03762817382812, -0.14221191406250, 0.02575683593750, 0.04312133789062, -0.01138305664062, 0.07806396484375, 0.00457763671875, 0.05731201171875, 0.12478637695312, -0.03594970703125, 0.12411499023438, 0.06665039062500, -0.12908935546875, -0.00961303710938, 0.03967285156250, -0.12988281250000, -0.13928222656250, -0.00588989257812, 0.05532836914062, -0.05822753906250, -0.08572387695312, 0.02069091796875, 0.10330200195312, 0.05245971679688, -0.00375366210938, -0.02859497070312, -0.17028808593750, 0.00601196289062, -0.06542968750000, 0.16564941406250, 0.14160156250000, 0.09805297851562, -0.04837036132812, 0.11340332031250, -0.04687500000000, 0.05349731445312, -0.15466308593750, -0.03860473632812, -0.05923461914062, -0.16735839843750, -0.04992675781250, -0.03738403320312, 0.02349853515625, 0.08303833007812, 0.05578613281250, 0.14138793945312, -0.08374023437500, -0.04425048828125, 0.01956176757812, 0.05770874023438, 0.04287719726562, 0.01913452148438, -0.15939331054688, -0.02349853515625, 0.08810424804688, -0.03005981445312, -0.05761718750000, 0.13116455078125, -0.02523803710938, -0.05126953125000, 0.03631591796875, -0.01135253906250, -0.03738403320312, 0.06250000000000, 0.16061401367188, -0.01766967773438, -0.00750732421875, -0.02880859375000, 0.10699462890625, 0.07473754882812, 0.07388305664062, -0.09426879882812, 0.16448974609375, -0.15304565429688, 0.13516235351562, -0.17678833007812, -0.01376342773438, 0.08514404296875, -0.01470947265625, 0.04168701171875, 0.02011108398438, -0.13088989257812, 0.11264038085938, -0.18106079101562, 0.04638671875000, -0.01007080078125, -0.04193115234375, -0.01791381835938, -0.05563354492188, -0.05557250976562, 0.10443115234375, 0.11309814453125, -0.06628417968750, 0.01315307617188, 0.10052490234375, -0.04421997070312, 0.15380859375000, 0.04257202148438, 0.15902709960938, 0.02780151367188, 0.10775756835938, 0.09216308593750, 0.07290649414062, 0.04403686523438, -0.05758666992188, -0.03375244140625, -0.11145019531250, 0.11056518554688, 0.00918579101562, -0.07464599609375, 0.05212402343750, -0.10003662109375, 0.06286621093750, -0.06027221679688, 0.07482910156250, -0.04202270507812, -0.01803588867188, 0.20150756835938, -0.00863647460938, 0.12329101562500, 0.02429199218750, 0.00445556640625, 0.24978637695312, 0.15438842773438, -0.15847778320312, -0.04571533203125, 0.11495971679688, 0.09619140625000, -0.08541870117188, -0.04077148437500, -0.23712158203125, 0.02294921875000, 0.10864257812500, 0.04440307617188, 0.04226684570312, -0.07357788085938, 0.08990478515625, 0.16207885742188, 0.07464599609375, -0.12384033203125, 0.06542968750000, 0.17138671875000, -0.05496215820312, -0.08230590820312, -0.11251831054688, 0.03369140625000, -0.05673217773438, 0.00576782226562, 0.17321777343750, -0.00949096679688, 0.00967407226562, -0.05389404296875, -0.05590820312500, -0.02700805664062, -0.06964111328125, -0.06918334960938, -0.06973266601562, 0.01721191406250, -0.20321655273438, -0.06204223632812, -0.05734252929688, 0.03894042968750, 0.14193725585938, 0.21527099609375, -0.00476074218750, -0.00790405273438, 0.00759887695312, 0.00750732421875, 0.21783447265625, 0.00146484375000, 0.07266235351562, 0.09664916992188, -0.04379272460938, 0.00302124023438, -0.00744628906250, -0.04336547851562, -0.03143310546875, -0.11749267578125, -0.07543945312500, 0.05215454101562, 0.00518798828125, 0.10324096679688, 0.00897216796875, -0.04275512695312, 0.11962890625000, -0.15750122070312, 0.01727294921875, -0.01504516601562, 0.01809692382812, 0.19503784179688, 0.12051391601562, -0.00082397460938, 0.16998291015625, -0.19210815429688, -0.23205566406250, 0.03265380859375, -0.07849121093750, 0.12707519531250, -0.12594604492188, 0.14813232421875, -0.05191040039062, -0.17861938476562, 0.11306762695312, 0.19982910156250, 0.23458862304688, 0.00479125976562, 0.01000976562500, 0.17929077148438, -0.14959716796875, 0.01107788085938, -0.11123657226562, -0.18560791015625, -0.07620239257812, -0.34027099609375, -0.58068847656250, 0.14572143554688, -0.02713012695312, -0.16207885742188, 0.16018676757812, -0.03436279296875, -0.09222412109375, 0.00888061523438, 0.18127441406250, 0.07498168945312, 0.03274536132812, -0.17678833007812, 0.07153320312500, 0.02517700195312, -0.30163574218750, -0.06045532226562, -0.10647583007812, -0.39126586914062, 0.10000610351562, -0.42913818359375, 0.33410644531250, 0.26522827148438, 0.24917602539062, -0.01492309570312, -0.11294555664062, 0.34152221679688, 0.29190063476562, -0.28271484375000, 0.17147827148438, -0.18188476562500, -0.35836791992188, -0.00988769531250, 0.09130859375000, 0.26016235351562, 0.30792236328125, 0.01733398437500, -0.19250488281250, -0.27020263671875, 0.23223876953125, 0.34051513671875, -0.05102539062500, -0.00225830078125, 0.09860229492188, -0.10906982421875, 0.17440795898438, 0.23022460937500, 0.04220581054688, -0.03759765625000, -0.10137939453125, -0.09558105468750, -0.05917358398438, -0.20196533203125, -0.16131591796875, -0.05883789062500, -0.03012084960938, 0.19454956054688, -0.20306396484375, 0.21957397460938, -0.21157836914062, 0.11666870117188, 0.02920532226562, -0.15377807617188, 0.42968750000000, 0.29238891601562, -0.27716064453125, -0.83496093750000, -0.17190551757812, -0.00576782226562, 0.10409545898438, 0.07125854492188, 0.24938964843750, 0.37136840820312, 0.18908691406250, -0.01086425781250, 0.26654052734375, -0.27786254882812, 0.03350830078125, -0.15524291992188, 0.08804321289062, -0.49365234375000, 0.00442504882812, -0.20901489257812, 0.00280761718750, 0.16348266601562, -0.17340087890625, -0.11224365234375, -0.00640869140625, 0.22872924804688, -0.14160156250000, -0.33569335937500, -0.62460327148438, -0.13256835937500, 0.42352294921875, -0.04650878906250, -0.90444946289062, 0.15121459960938, 0.74429321289062, 0.30877685546875, -0.08859252929688, 0.11724853515625, 0.08987426757812, -0.20178222656250, 0.33386230468750, -0.12625122070312, 0.13571166992188, -0.16268920898438, 0.06838989257812, -0.08041381835938, 0.08731079101562, 0.01925659179688, 0.04052734375000, 0.03558349609375, 0.14462280273438, -0.01763916015625, 0.05346679687500, -0.06518554687500, 0.02859497070312, 0.02993774414062, 0.09613037109375, -0.01956176757812, -0.08978271484375, -0.10934448242188, -0.14123535156250, -0.07678222656250, 0.06185913085938, 0.06646728515625, 0.09683227539062, -0.02835083007812, -0.10256958007812, 0.09405517578125, -0.07302856445312, 0.03933715820312, -0.07998657226562, 0.03784179687500, -0.04953002929688, 0.00491333007812, -0.03030395507812, 0.01135253906250, -0.10888671875000, -0.05587768554688, 0.06036376953125, 0.06646728515625, -0.01016235351562, 0.02194213867188, 0.09103393554688, -0.03033447265625, 0.04483032226562, 0.05780029296875, -0.15496826171875, -0.14266967773438, 0.10290527343750, 0.06893920898438, -0.08279418945312, -0.10971069335938, -0.03494262695312, -0.03826904296875, 0.04293823242188, -0.10684204101562, -0.11090087890625, -0.02682495117188, -0.04953002929688, 0.10083007812500, 0.05410766601562, 0.05502319335938, 0.03659057617188, -0.13265991210938, -0.03784179687500, -0.07962036132812, -0.19329833984375, 0.09365844726562, -0.02902221679688, 0.22348022460938, 0.02798461914062, 0.05926513671875, 0.13488769531250, 0.11437988281250, -0.02612304687500, 0.01593017578125, 0.13006591796875, -0.15753173828125, 0.04446411132812, 0.16006469726562, 0.00283813476562, -0.16204833984375, 0.00396728515625, -0.03707885742188, 0.06951904296875, 0.05215454101562, -0.06658935546875, -0.12710571289062, 0.08279418945312, -0.08407592773438, -0.03945922851562, -0.07943725585938, 0.09515380859375, -0.11517333984375, -0.00393676757812, -0.06408691406250, -0.03851318359375, 0.11291503906250, 0.05566406250000, -0.00244140625000, 0.03463745117188, -0.14056396484375, -0.00775146484375, -0.18438720703125, -0.10580444335938, -0.00820922851562, 0.00952148437500, 0.01708984375000, -0.11184692382812, 0.03268432617188, 0.05429077148438, 0.09082031250000, -0.03979492187500, 0.04125976562500, 0.20202636718750, -0.05676269531250, 0.04171752929688, 0.03533935546875, 0.04425048828125, -0.02435302734375, 0.06042480468750, 0.01913452148438, 0.05468750000000, 0.05276489257812, -0.00338745117188, -0.02880859375000, -0.08563232421875, 0.35656738281250, -0.07318115234375, -0.02816772460938, -0.12521362304688, -0.09283447265625, -0.06460571289062, -0.09381103515625, -0.08209228515625, -0.13784790039062, 0.17657470703125, 0.04016113281250, -0.07168579101562, 0.08718872070312, 0.03887939453125, -0.01480102539062, -0.03213500976562, -0.08432006835938, 0.02447509765625, 0.01782226562500, 0.02374267578125, 0.00714111328125, 0.21325683593750, -0.02725219726562, 0.14291381835938, 0.10009765625000, -0.01712036132812, -0.04089355468750, 0.03158569335938, 0.11056518554688, -0.03112792968750, 0.03192138671875, -0.03271484375000, -0.10522460937500, -0.15197753906250, 0.04794311523438, 0.03265380859375, 0.26834106445312, -0.16397094726562, 0.06509399414062, -0.05010986328125, -0.13659667968750, 0.03997802734375, -0.00012207031250, 0.03869628906250, -0.06454467773438, -0.06378173828125, -0.01226806640625, -0.02096557617188, -0.15264892578125, -0.01318359375000, -0.06420898437500, 0.18157958984375, -0.12060546875000, 0.11938476562500, 0.13043212890625, 0.00039672851562, -0.03427124023438, -0.10131835937500, -0.04501342773438, -0.00430297851562, -0.01104736328125, -0.09985351562500, -0.00061035156250, -0.07305908203125, -0.09719848632812, -0.07348632812500, -0.03851318359375, -0.10833740234375, 0.03997802734375, -0.02581787109375, -0.05877685546875, -0.06790161132812, -0.05484008789062, -0.04269409179688, 0.09768676757812, 0.06805419921875, 0.09698486328125, 0.09759521484375, 0.06869506835938, 0.09741210937500, -0.00854492187500, 0.05688476562500, 0.03405761718750, 0.08706665039062, 0.01654052734375, -0.03854370117188, -0.05245971679688, -0.04168701171875, -0.14343261718750, -0.06277465820312, 0.09295654296875, -0.05154418945312, -0.16329956054688, 0.06622314453125, 0.01226806640625, 0.06814575195312, 0.09744262695312, 0.00756835937500, 0.04266357421875, 0.02435302734375, 0.07901000976562, -0.08224487304688, -0.02197265625000, -0.05450439453125, 0.09127807617188, 0.05484008789062, 0.01446533203125, -0.15872192382812, 0.00186157226562, 0.02307128906250, 0.15447998046875, 0.06216430664062, -0.02273559570312, 0.09814453125000, -0.10751342773438, 0.01306152343750, 0.03799438476562, -0.02383422851562, 0.02096557617188, 0.04315185546875, 0.01144409179688, -0.05654907226562, 0.11621093750000, 0.05725097656250, 0.04705810546875, -0.15237426757812, 0.04760742187500, -0.18890380859375, 0.14251708984375, -0.02520751953125, 0.10855102539062, 0.08453369140625, -0.07662963867188, 0.06045532226562, -0.27914428710938, -0.07351684570312, -0.23757934570312, -0.10720825195312, 0.14724731445312, -0.07003784179688, 0.22158813476562, 0.27984619140625, 0.23983764648438, 0.08160400390625, -0.14675903320312, 0.21908569335938, -0.02819824218750, 0.15917968750000, 0.06054687500000, -0.05795288085938, -0.04730224609375, 0.05599975585938, -0.18527221679688, 0.07595825195312, -0.03552246093750, 0.10440063476562, -0.15438842773438, -0.10260009765625, 0.00665283203125, -0.15231323242188, 0.02172851562500, -0.05322265625000, 0.00738525390625, 0.17602539062500, -0.04776000976562, 0.00338745117188, -0.11328125000000, 0.15991210937500, 0.16040039062500, -0.04244995117188, -0.05130004882812, 0.13095092773438, 0.28634643554688, 0.02227783203125, -0.10873413085938, -0.21932983398438, 0.17077636718750, -0.03863525390625, -0.00900268554688, -0.16641235351562, -0.28793334960938, 0.18075561523438, 0.03109741210938, -0.05639648437500, -0.15719604492188, 0.11529541015625, -0.06405639648438, -0.25878906250000, -0.22894287109375, 0.05892944335938, 0.05282592773438, 0.13122558593750, 0.16299438476562, -0.32714843750000, 0.15518188476562, 0.23532104492188, 0.04846191406250, -0.02966308593750, -0.07559204101562, -0.14212036132812, -0.10299682617188, 0.06808471679688, 0.12051391601562, 0.13220214843750, -0.09542846679688, -0.04125976562500, -0.13946533203125, -0.02108764648438, 0.09109497070312, 0.01443481445312, 0.02322387695312, 0.01406860351562, -0.14526367187500, 0.14019775390625, -0.02447509765625, 0.02368164062500, -0.00802612304688, -0.04940795898438, 0.14712524414062, 0.18411254882812, 0.00335693359375, -0.01721191406250, -0.03817749023438, -0.27319335937500, 0.06323242187500, 0.03884887695312, -0.01022338867188, -0.30935668945312, -0.10424804687500, -0.10791015625000, -0.18533325195312, 0.00405883789062, 0.00546264648438, 0.03485107421875, -0.03872680664062, 0.12265014648438, 0.05676269531250, -0.03207397460938, -0.07681274414062, 0.08129882812500, -0.03573608398438, 0.01483154296875, 0.15054321289062, 0.07998657226562, -0.05487060546875, -0.01708984375000, 0.05187988281250, -0.02017211914062, 0.01983642578125, -0.14962768554688, -0.02532958984375, 0.06445312500000, 0.02127075195312, 0.09408569335938, 0.01791381835938, -0.04721069335938, -0.08474731445312, 0.01412963867188, -0.03759765625000, 0.04449462890625, -0.19750976562500, 0.02536010742188, -0.02029418945312, 0.09756469726562, 0.13195800781250, 0.14404296875000, -0.13330078125000, -0.06546020507812, 0.00604248046875, 0.07293701171875, 0.14398193359375, -0.04434204101562, -0.13748168945312, -0.09292602539062, 0.15753173828125, 0.10961914062500, 0.03494262695312, 0.16238403320312, -0.00137329101562, 0.15475463867188, 0.02731323242188, 0.10580444335938, 0.00469970703125, 0.03665161132812, -0.03643798828125, 0.17089843750000, -0.19012451171875, -0.06817626953125, 0.06201171875000, -0.02740478515625, 0.13504028320312, -0.06661987304688, 0.16421508789062, -0.04251098632812, -0.07839965820312, 0.03836059570312, 0.08697509765625, -0.10226440429688, 0.11608886718750, -0.05398559570312, -0.05499267578125, 0.07421875000000, 0.07882690429688, 0.06604003906250, 0.06338500976562, -0.10589599609375, -0.08630371093750, 0.10491943359375, 0.02938842773438, -0.15823364257812, 0.10208129882812, 0.07672119140625, -0.05096435546875, -0.07885742187500, -0.08331298828125, 0.13479614257812, -0.07421875000000, -0.03524780273438, -0.00253295898438, -0.06939697265625, 0.03540039062500, -0.08798217773438, 0.03961181640625, 0.04748535156250, -0.03668212890625, 0.01211547851562, -0.04858398437500, -0.11834716796875, -0.05502319335938, -0.07025146484375, -0.00064086914062, 0.03329467773438, -0.03356933593750, -0.00970458984375, 0.18643188476562, -0.06207275390625, 0.10568237304688, 0.05734252929688, -0.05868530273438, -0.02426147460938, -0.05169677734375, -0.17990112304688, 0.08694458007812, 0.04846191406250, 0.01718139648438, -0.20480346679688, 0.01919555664062, -0.04357910156250, 0.03439331054688, 0.10092163085938, -0.08905029296875, 0.04663085937500, 0.18981933593750, -0.08267211914062, 0.06106567382812, 0.01950073242188, -0.02349853515625, 0.01025390625000, 0.12030029296875, 0.12698364257812, 0.04907226562500, 0.14007568359375, -0.14132690429688, -0.07461547851562, 0.10629272460938, 0.08520507812500, 0.16796875000000, -0.03024291992188, -0.09533691406250, -0.06579589843750, -0.14776611328125, -0.09164428710938, 0.24804687500000, -0.01382446289062, -0.01776123046875, -0.00671386718750, 0.09005737304688, -0.05322265625000, 0.08938598632812, 0.12515258789062, 0.06454467773438, -0.12817382812500, 0.07116699218750, -0.26037597656250, -0.09484863281250, -0.01071166992188, 0.08862304687500, 0.10873413085938, -0.06515502929688, 0.02041625976562, -0.04513549804688, -0.08224487304688, 0.05349731445312, -0.01739501953125, 0.30795288085938, 0.03039550781250, 0.13403320312500, 0.02050781250000, -0.05117797851562, -0.00900268554688, 0.09466552734375, 0.21697998046875, 0.12814331054688, -0.10641479492188, 0.00604248046875, -0.13681030273438, -0.21087646484375, -0.10641479492188, -0.19021606445312, 0.10357666015625, -0.26510620117188, -0.17944335937500, 0.07006835937500, -0.12304687500000, 0.08493041992188, 0.03924560546875, -0.12338256835938, 0.22671508789062, 0.01235961914062, 0.10232543945312, 0.08587646484375, 0.15322875976562, 0.03906250000000, 0.21099853515625, 0.03399658203125, -0.10522460937500, -0.03323364257812, 0.16830444335938, -0.19036865234375, 0.10769653320312, 0.02282714843750, 0.13143920898438, 0.05526733398438, 0.11437988281250, 0.12948608398438, -0.03378295898438, 0.09683227539062, 0.00134277343750, -0.19515991210938, 0.07644653320312, -0.26083374023438, -0.20129394531250, 0.27880859375000, -0.01596069335938, 0.12863159179688, -0.16833496093750, -0.11877441406250, -0.04797363281250, -0.06259155273438, 0.09478759765625, 0.13458251953125, -0.08029174804688, 0.21948242187500, 0.03878784179688, 0.10778808593750, 0.02349853515625, -0.18475341796875, 0.01599121093750, -0.03713989257812, -0.20336914062500, 0.02194213867188, -0.08520507812500, 0.19586181640625, 0.10736083984375, 0.05358886718750, -0.02178955078125, -0.04504394531250, -0.21258544921875, -0.01644897460938, -0.18255615234375, 0.01083374023438, 0.00402832031250, -0.15875244140625, 0.13815307617188, 0.07830810546875, -0.03292846679688, -0.20971679687500, 0.06765747070312, -0.03884887695312, 0.07269287109375, 0.06677246093750, 0.17520141601562, 0.19290161132812, -0.02432250976562, 0.28137207031250, 0.16149902343750, -0.18579101562500, -0.04089355468750, -0.03903198242188, -0.03155517578125, -0.16790771484375, 0.13555908203125, -0.06454467773438, 0.19247436523438, -0.02597045898438, 0.05300903320312, -0.09899902343750, 0.05596923828125, 0.04681396484375, -0.03372192382812, -0.00817871093750, -0.04421997070312, -0.15963745117188, 0.05770874023438, 0.10913085937500, -0.03430175781250, 0.02786254882812, 0.06927490234375, 0.10336303710938, -0.07537841796875, -0.17538452148438, -0.06530761718750, -0.05462646484375, 0.31863403320312, 0.12252807617188, 0.01907348632812, -0.10580444335938, -0.00665283203125, -0.10766601562500, -0.02249145507812, -0.34353637695312, 0.00872802734375, -0.24377441406250, 0.03567504882812, 0.05441284179688, -0.11334228515625, -0.03509521484375, -0.10171508789062, 0.02343750000000, 0.04190063476562, -0.10311889648438, -0.14318847656250, -0.08221435546875, 0.07461547851562, -0.04589843750000, 0.11215209960938, -0.06954956054688, -0.01461791992188, 0.18130493164062, 0.15869140625000, -0.07931518554688, -0.12908935546875, 0.10971069335938, 0.05432128906250, -0.11984252929688, 0.08987426757812, -0.08514404296875, 0.01705932617188, 0.07882690429688, -0.09555053710938, -0.13787841796875, -0.19335937500000, 0.10031127929688, -0.01678466796875, -0.02859497070312, 0.02066040039062, 0.06536865234375, -0.14282226562500, -0.03384399414062, -0.11685180664062, 0.06433105468750, 0.13696289062500, -0.01254272460938, -0.22955322265625, 0.01589965820312, 0.09667968750000, -0.09823608398438, -0.07235717773438, -0.13467407226562, 0.13412475585938, 0.16012573242188, -0.16384887695312, 0.01724243164062, 0.02337646484375, -0.19345092773438, -0.15237426757812, -0.30947875976562, -0.03540039062500, -0.03521728515625, -0.13500976562500, 0.10662841796875, -0.14486694335938, -0.04730224609375, -0.01513671875000, 0.21621704101562, -0.02963256835938, -0.04046630859375, -0.09164428710938, -0.11666870117188, 0.06188964843750, -0.01541137695312, 0.18280029296875, 0.25177001953125, -0.14718627929688, 0.03265380859375, 0.09716796875000, -0.02737426757812, -0.15090942382812, 0.17562866210938, 0.09924316406250, -0.25442504882812, 0.04702758789062, 0.07916259765625, -0.11987304687500, 0.02124023437500, 0.20077514648438, -0.07977294921875, -0.15899658203125, -0.01531982421875, -0.00469970703125, 0.17166137695312, 0.17462158203125, 0.14343261718750, -0.18884277343750, 0.07864379882812, -0.05664062500000, -0.10629272460938, -0.01467895507812, 0.03253173828125, 0.04092407226562, -0.15451049804688, -0.24365234375000, -0.18377685546875, 0.00173950195312, 0.02496337890625, 0.02600097656250, 0.09671020507812, -0.20190429687500, -0.16476440429688, 0.04760742187500, 0.00540161132812, 0.20474243164062, -0.16830444335938, 0.07403564453125, -0.26361083984375, 0.04187011718750, 0.10363769531250, 0.24066162109375, 0.17257690429688, 0.19186401367188, 0.22424316406250, 0.06588745117188, -0.02813720703125, -0.06375122070312, 0.11898803710938, 0.22521972656250, 0.01522827148438, -0.03399658203125, -0.17282104492188, 0.07592773437500, -0.14175415039062, -0.02911376953125, 0.04556274414062, -0.02877807617188, 0.23648071289062, -0.05508422851562, 0.09118652343750, -0.15850830078125, 0.03790283203125, -0.06054687500000, -0.06643676757812, 0.03634643554688, 0.08789062500000, 0.03430175781250, 0.21093750000000, -0.04095458984375, -0.02520751953125, 0.01803588867188, 0.06851196289062, -0.00518798828125, -0.04901123046875, -0.06649780273438, 0.09356689453125, -0.10308837890625, 0.05041503906250, -0.06991577148438, 0.10498046875000, 0.04824829101562, 0.10095214843750, -0.04656982421875, 0.03326416015625, 0.05603027343750, -0.06845092773438, -0.02847290039062, 0.03167724609375, 0.13711547851562, -0.10299682617188, -0.05523681640625, 0.04907226562500, -0.08135986328125, -0.02850341796875, -0.10733032226562, -0.06216430664062, 0.05227661132812, -0.08038330078125, 0.04809570312500, -0.05944824218750, -0.09976196289062, -0.16195678710938, -0.02352905273438, 0.00488281250000, 0.13833618164062, 0.09072875976562, -0.01205444335938, -0.13824462890625, 0.00503540039062, -0.06170654296875, 0.08447265625000, -0.05987548828125, -0.21328735351562, 0.03121948242188, 0.09689331054688, 0.07647705078125, -0.04241943359375, -0.09091186523438, 0.07839965820312, -0.11679077148438, -0.15121459960938, 0.10867309570312, -0.09445190429688, -0.00683593750000, -0.04467773437500, 0.02822875976562, -0.01748657226562, 0.30258178710938, 0.09677124023438, 0.11425781250000, -0.04296875000000, 0.00000000000000, -0.10470581054688, 0.02581787109375, -0.02542114257812, -0.07736206054688, 0.09686279296875, 0.07864379882812, 0.34332275390625, 0.08905029296875, 0.07708740234375, 0.04888916015625, 0.02993774414062, -0.12402343750000, -0.04995727539062, -0.06109619140625, -0.04669189453125, 0.04443359375000, -0.05191040039062, 0.09823608398438, -0.01873779296875, 0.08990478515625, 0.03662109375000, 0.00070190429688, -0.09002685546875, -0.09115600585938, -0.06222534179688, 0.09820556640625, 0.04089355468750, 0.02978515625000, -0.17526245117188, -0.16046142578125, 0.15646362304688, -0.11547851562500, -0.08306884765625, -0.07199096679688, 0.09945678710938, 0.02175903320312, -0.12509155273438, -0.06939697265625, 0.08187866210938, -0.10205078125000, -0.00653076171875, 0.11480712890625, 0.04556274414062, 0.09643554687500, -0.00430297851562, 0.04736328125000, -0.07714843750000, -0.01885986328125, 0.07827758789062, 0.04989624023438, -0.08670043945312, -0.08764648437500, 0.00665283203125, -0.02230834960938, 0.16012573242188, 0.06338500976562, -0.01397705078125, 0.03479003906250, 0.05850219726562, 0.06234741210938, -0.09432983398438, -0.01000976562500, 0.03027343750000, -0.04043579101562, 0.08178710937500, 0.04382324218750, -0.09442138671875, 0.13372802734375, 0.07543945312500, 0.00048828125000, 0.16046142578125, -0.08071899414062, 0.06063842773438, 0.00216674804688, 0.13735961914062, 0.06942749023438, 0.02450561523438, -0.04605102539062, -0.03717041015625, -0.09924316406250, -0.02551269531250, 0.08679199218750, -0.00299072265625, -0.07803344726562, 0.04888916015625, -0.12719726562500, -0.01779174804688, 0.00991821289062, 0.03149414062500, 0.19421386718750, 0.00738525390625, 0.02233886718750, 0.01065063476562, 0.09063720703125, 0.13058471679688, -0.12817382812500, 0.07208251953125, -0.03244018554688, -0.01541137695312, -0.07928466796875, 0.02691650390625, 0.07748413085938, 0.09963989257812, 0.10443115234375, -0.06600952148438, 0.12664794921875, -0.12927246093750, 0.15014648437500, -0.09762573242188, 0.15994262695312, 0.01239013671875, 0.05297851562500, 0.03137207031250, 0.17706298828125, -0.16558837890625, -0.02059936523438, 0.03775024414062, 0.05963134765625, -0.17462158203125, 0.06591796875000, -0.09054565429688, -0.02206420898438, 0.00689697265625, 0.01559448242188, -0.13046264648438, 0.07809448242188, 0.16436767578125, -0.00543212890625, -0.03952026367188, 0.01370239257812, 0.04177856445312, 0.05203247070312, -0.05209350585938, 0.07077026367188, 0.13342285156250, 0.07196044921875, 0.09695434570312, 0.07348632812500, -0.01870727539062, -0.03643798828125, 0.06408691406250, 0.01034545898438, -0.03799438476562, -0.12145996093750, -0.05618286132812, -0.00875854492188, -0.08502197265625, 0.08905029296875, 0.15447998046875, -0.07879638671875, -0.09100341796875, -0.01004028320312, -0.01669311523438, 0.00354003906250, 0.08956909179688, -0.10321044921875, 0.09020996093750, -0.12353515625000, -0.11950683593750, -0.02471923828125, 0.06701660156250, -0.00210571289062, -0.07504272460938, -0.07339477539062, -0.07156372070312, 0.04669189453125, 0.05145263671875, -0.00726318359375, 0.06649780273438, -0.01995849609375, -0.04141235351562, 0.13183593750000, 0.21408081054688, -0.01174926757812, 0.03643798828125, -0.11450195312500, 0.02944946289062, -0.17477416992188, -0.04907226562500, -0.02984619140625, 0.02917480468750, -0.12811279296875, -0.00701904296875, -0.07662963867188, 0.10076904296875, -0.04385375976562, 0.04559326171875, 0.03100585937500, -0.08111572265625, 0.04342651367188, 0.14422607421875, 0.04980468750000, 0.07696533203125, 0.02230834960938, 0.08212280273438, 0.05993652343750, -0.01461791992188, 0.08337402343750, -0.07629394531250, 0.06613159179688, -0.00665283203125, -0.00073242187500, -0.11267089843750, 0.07687377929688, -0.05239868164062, -0.03732299804688, 0.08880615234375, -0.08316040039062, -0.05657958984375, 0.08169555664062, 0.04119873046875, -0.07290649414062, 0.10729980468750, -0.02667236328125, 0.07403564453125, 0.19204711914062, 0.03210449218750, -0.09259033203125, -0.01431274414062, -0.07452392578125, -0.10180664062500, -0.09246826171875, -0.08871459960938, -0.12777709960938, 0.04367065429688, -0.01232910156250, -0.04232788085938, -0.05529785156250, -0.27334594726562, -0.06716918945312, -0.16534423828125, -0.10830688476562, -0.01431274414062, 0.00149536132812, 0.04339599609375, 0.12539672851562, -0.00271606445312, -0.09719848632812, -0.04370117187500, 0.04473876953125, -0.00988769531250, -0.06048583984375, 0.03656005859375, -0.03570556640625, -0.08300781250000, 0.04074096679688, 0.05020141601562, -0.04629516601562, -0.08663940429688, 0.07800292968750, 0.03567504882812, 0.08724975585938, -0.08889770507812, -0.01574707031250, -0.00692749023438, -0.23971557617188, 0.06616210937500, 0.19204711914062, -0.12527465820312, -0.14422607421875, 0.03823852539062, -0.04739379882812, 0.15447998046875, 0.01156616210938, -0.10772705078125, 0.21713256835938, 0.08047485351562, 0.01635742187500, -0.01217651367188, -0.00607299804688, -0.09512329101562, 0.04122924804688, 0.04049682617188, -0.01690673828125, -0.01388549804688, -0.08123779296875, 0.05914306640625, 0.02749633789062, 0.07620239257812, -0.10699462890625, 0.04473876953125, -0.07876586914062, -0.00848388671875, -0.02291870117188, 0.02258300781250, 0.03573608398438, 0.05841064453125, -0.00942993164062, -0.00442504882812, 0.20587158203125, 0.03497314453125, 0.01547241210938, 0.04559326171875, 0.03704833984375, 0.03045654296875, -0.16107177734375, -0.08474731445312, 0.01165771484375, 0.13861083984375, -0.05038452148438, -0.03631591796875, 0.07489013671875, 0.02130126953125, 0.05700683593750, -0.24072265625000, -0.00274658203125, 0.01889038085938, -0.21044921875000, -0.02789306640625, -0.17172241210938, 0.03421020507812, 0.11749267578125, 0.05169677734375, -0.10418701171875, -0.04107666015625, -0.09860229492188, -0.07513427734375, 0.06500244140625, -0.04254150390625, 0.06790161132812, -0.01705932617188, 0.12905883789062, -0.19451904296875, -0.07940673828125, 0.00439453125000, 0.01486206054688, 0.11407470703125, -0.15277099609375, 0.02377319335938, -0.20556640625000, -0.08001708984375, -0.12567138671875, 0.15444946289062, 0.08135986328125, -0.00512695312500, -0.01522827148438, -0.01974487304688, -0.01565551757812, -0.06738281250000, 0.00646972656250, -0.08364868164062, -0.01211547851562, 0.03149414062500, -0.13848876953125, 0.16531372070312, -0.01492309570312, -0.01376342773438, 0.12054443359375, 0.07928466796875, -0.30526733398438, -0.06732177734375, 0.02258300781250, -0.01324462890625, 0.16076660156250, 0.01638793945312, 0.21130371093750, -0.02828979492188, -0.00698852539062, 0.02877807617188, 0.04660034179688, -0.11907958984375, -0.04074096679688, -0.22787475585938, 0.12554931640625, -0.06326293945312, 0.03701782226562, -0.07369995117188, 0.06002807617188, 0.01782226562500, -0.02297973632812, -0.07138061523438, -0.02688598632812, -0.07315063476562, -0.04418945312500, 0.01779174804688, -0.09375000000000, -0.02114868164062, 0.08447265625000, -0.00601196289062, 0.15454101562500, -0.03845214843750, -0.08688354492188, 0.02215576171875, -0.04421997070312, -0.05554199218750, -0.06167602539062, 0.04425048828125, 0.11758422851562, -0.20751953125000, -0.02233886718750, -0.12863159179688, -0.02203369140625, -0.04595947265625, 0.24475097656250, -0.02273559570312, -0.10232543945312, 0.18231201171875, -0.09356689453125, 0.15142822265625, 0.12374877929688, 0.07510375976562, -0.10974121093750, 0.21041870117188, 0.02395629882812, 0.13568115234375, 0.00604248046875, -0.03720092773438, 0.01791381835938, -0.08145141601562, 0.12060546875000, -0.01022338867188, 0.04983520507812, -0.05511474609375, -0.13729858398438, 0.08126831054688, 0.06652832031250, 0.07424926757812, -0.14089965820312, -0.08169555664062, -0.09210205078125, 0.05160522460938, 0.06274414062500, -0.07208251953125, -0.04724121093750, 0.07565307617188, -0.09808349609375, 0.18743896484375, -0.04656982421875, 0.07382202148438, -0.04974365234375, -0.05386352539062, 0.05459594726562, -0.05987548828125, 0.06344604492188, -0.20477294921875, -0.21429443359375, 0.00338745117188, -0.10919189453125, 0.04977416992188, 0.16247558593750, 0.01358032226562, -0.00711059570312, 0.13031005859375, 0.05532836914062, -0.14849853515625, 0.05386352539062, 0.01818847656250, -0.10369873046875, -0.03247070312500, -0.06552124023438, -0.06472778320312, -0.03695678710938, 0.04660034179688, -0.07254028320312, 0.10983276367188, -0.11129760742188, -0.08004760742188, -0.06213378906250, -0.00900268554688, -0.08843994140625, 0.21719360351562, 0.04946899414062, -0.03497314453125, -0.16976928710938, -0.09790039062500, 0.12490844726562, 0.01797485351562, -0.10549926757812, 0.14221191406250, 0.00592041015625, 0.10986328125000, 0.05587768554688, -0.06408691406250, -0.11669921875000, 0.05780029296875, 0.07070922851562, -0.04367065429688, -0.08276367187500, -0.02285766601562, -0.21853637695312, 0.01321411132812, 0.12081909179688, 0.02963256835938, 0.00329589843750, -0.00708007812500, 0.02944946289062, -0.15188598632812, 0.06875610351562, 0.12106323242188, 0.13385009765625, -0.16934204101562, 0.06909179687500, 0.01156616210938, 0.06127929687500, 0.06204223632812, 0.15393066406250, -0.06326293945312, 0.01419067382812, -0.17935180664062, -0.06942749023438, -0.21371459960938, 0.03576660156250, -0.04467773437500, -0.15917968750000, -0.08453369140625, -0.01263427734375, -0.06307983398438, 0.03546142578125, -0.02682495117188, -0.18920898437500, 0.06094360351562, -0.00830078125000, 0.01504516601562, 0.10931396484375, -0.00714111328125, -0.06283569335938, -0.15863037109375, 0.16580200195312, -0.16052246093750, 0.15841674804688, 0.13662719726562, 0.06982421875000, 0.02615356445312, 0.08789062500000, 0.12240600585938, -0.11938476562500, 0.03771972656250, 0.13024902343750, 0.22622680664062, -0.12811279296875, -0.00149536132812, -0.06643676757812, 0.04968261718750, -0.10238647460938, 0.18142700195312, 0.04766845703125, -0.04598999023438, 0.07632446289062, 0.08654785156250, 0.16247558593750, 0.06790161132812, -0.20013427734375, -0.01379394531250, -0.00576782226562, -0.08450317382812, 0.12515258789062, -0.04150390625000, 0.25680541992188, 0.26226806640625, 0.08264160156250, -0.03036499023438, 0.15332031250000, 0.06884765625000, -0.23742675781250, -0.07986450195312, -0.22326660156250, 0.06414794921875, -0.03918457031250, 0.01696777343750, 0.09576416015625, 0.06768798828125, 0.03060913085938, -0.12197875976562, -0.03457641601562, -0.05871582031250, 0.18746948242188, -0.20489501953125, -0.00506591796875, 0.00698852539062, -0.01025390625000, 0.05792236328125, -0.05163574218750, 0.20724487304688, 0.00189208984375, 0.09265136718750, -0.03408813476562, -0.08236694335938, -0.13714599609375, -0.03167724609375, -0.03402709960938, 0.05307006835938, -0.07354736328125, -0.05477905273438, 0.22113037109375, -0.02175903320312, 0.06112670898438, -0.06900024414062, 0.16366577148438, -0.01290893554688, 0.03558349609375, -0.11062622070312, 0.06204223632812, 0.12893676757812, 0.03295898437500, -0.08523559570312, -0.01516723632812, -0.05941772460938, -0.05770874023438, 0.15170288085938, 0.16101074218750, 0.01556396484375, -0.19512939453125, 0.06799316406250, 0.01303100585938, -0.06332397460938, -0.06845092773438, -0.00988769531250, -0.12808227539062, 0.01031494140625, -0.09823608398438, 0.09896850585938, -0.12316894531250, -0.14804077148438, 0.04418945312500, -0.24383544921875, 0.08889770507812, 0.10845947265625, 0.02493286132812, 0.14593505859375, 0.00842285156250, -0.07196044921875, 0.03820800781250, 0.03845214843750, -0.02380371093750, -0.15521240234375, -0.01373291015625, 0.05801391601562, -0.00708007812500, -0.00646972656250, -0.00097656250000, -0.12039184570312, 0.10562133789062, -0.04428100585938, 0.05133056640625, -0.02505493164062, 0.11474609375000, 0.02456665039062, 0.18145751953125, 0.13955688476562, 0.02084350585938, 0.12860107421875, 0.06869506835938, -0.11752319335938, -0.09359741210938, 0.06005859375000, -0.13641357421875, -0.04666137695312, 0.01812744140625, -0.07403564453125, -0.14730834960938, 0.10934448242188, 0.01596069335938, -0.07708740234375, 0.05734252929688, 0.01910400390625, -0.07763671875000, -0.12399291992188, -0.09542846679688, -0.18545532226562, -0.01885986328125, -0.03259277343750, -0.08636474609375, 0.00173950195312, 0.01571655273438, 0.02835083007812, -0.16067504882812, -0.09143066406250, 0.01788330078125, 0.09671020507812, -0.02810668945312, 0.08441162109375, 0.04742431640625, 0.03060913085938, 0.15719604492188, -0.03146362304688, 0.06945800781250, -0.17755126953125, 0.14471435546875, 0.04608154296875, -0.06805419921875, 0.09124755859375, 0.08523559570312, 0.00274658203125, -0.04354858398438, -0.04574584960938, -0.13381958007812, 0.05548095703125, -0.13885498046875, -0.00473022460938, 0.04916381835938, 0.01187133789062, -0.02639770507812, -0.09014892578125, -0.06146240234375, 0.02273559570312, 0.04754638671875, 0.09564208984375, 0.04183959960938, -0.13632202148438, -0.09127807617188, 0.06597900390625, 0.04428100585938, 0.00613403320312, -0.01126098632812, 0.00646972656250, -0.02438354492188, -0.16787719726562, -0.09600830078125, -0.00073242187500, -0.03677368164062, 0.00341796875000, 0.05474853515625, 0.08688354492188, -0.25500488281250, -0.06845092773438, 0.00534057617188, 0.03900146484375, -0.17935180664062, 0.02029418945312, 0.10763549804688, 0.06875610351562, -0.17968750000000, 0.00424194335938, 0.01406860351562, 0.02951049804688, -0.15197753906250, -0.19070434570312, 0.12005615234375, 0.04440307617188, 0.07293701171875, -0.06427001953125, 0.06961059570312, 0.24041748046875, -0.32052612304688, 0.01232910156250, -0.04605102539062, -0.06259155273438, 0.02932739257812, -0.01580810546875, 0.05593872070312, 0.17193603515625, 0.08224487304688, 0.00561523437500, -0.00350952148438, -0.04815673828125, -0.15765380859375, -0.11904907226562, 0.02090454101562, 0.11587524414062, 0.10595703125000, -0.21728515625000, 0.06838989257812, 0.08999633789062, 0.00039672851562, -0.09756469726562, -0.22241210937500, 0.04702758789062, -0.07632446289062, -0.00753784179688, -0.15936279296875, -0.10870361328125, -0.04306030273438, -0.07678222656250, 0.15307617187500, 0.01257324218750, -0.21023559570312, 0.08309936523438, 0.07662963867188, -0.05056762695312, 0.09283447265625, 0.10522460937500, 0.05728149414062, -0.01638793945312, -0.04113769531250, -0.10107421875000, 0.03112792968750, 0.13485717773438, 0.13522338867188, 0.01504516601562, 0.01467895507812, -0.06958007812500, 0.10739135742188, -0.12506103515625, 0.11318969726562, 0.10665893554688, 0.07324218750000, 0.06567382812500, 0.00561523437500, 0.13101196289062, -0.08056640625000, -0.00109863281250, -0.05456542968750, -0.00173950195312, 0.00628662109375, 0.05700683593750, 0.01580810546875, 0.05377197265625, -0.01147460937500, 0.04425048828125, 0.01522827148438, -0.03591918945312, 0.05313110351562, -0.05892944335938, -0.05102539062500, 0.15396118164062, -0.01632690429688, 0.10577392578125, 0.05343627929688, -0.01712036132812, -0.16244506835938, -0.08502197265625, 0.04879760742188, -0.04788208007812, -0.02807617187500, 0.07449340820312, -0.00131225585938, 0.03427124023438, 0.08432006835938, -0.19290161132812, 0.00274658203125, -0.05749511718750, 0.10906982421875, -0.03726196289062, -0.03424072265625, 0.03439331054688, 0.04174804687500, 0.18606567382812, 0.10049438476562, 0.08914184570312, 0.11752319335938, 0.00396728515625, -0.11349487304688, 0.16363525390625, 0.05844116210938, 0.08837890625000, -0.08013916015625, 0.15454101562500, -0.16571044921875, 0.07870483398438, 0.09161376953125, -0.16003417968750, -0.03460693359375, 0.20126342773438, 0.18029785156250, -0.21270751953125, 0.13449096679688, -0.00866699218750, -0.14859008789062, -0.04949951171875, -0.01934814453125, -0.07342529296875, -0.05874633789062, 0.08584594726562, 0.08370971679688, 0.10662841796875, 0.04486083984375, -0.02880859375000, -0.06323242187500, -0.02484130859375, 0.22384643554688, -0.15286254882812, 0.23696899414062, -0.16903686523438, -0.09414672851562, -0.01995849609375, 0.14236450195312, 0.11947631835938, -0.11758422851562, 0.06130981445312, 0.07269287109375, -0.03051757812500, -0.01718139648438, -0.00033569335938, -0.06011962890625, 0.23751831054688, 0.16506958007812, -0.03161621093750, 0.00393676757812, -0.03961181640625, -0.14196777343750, -0.13803100585938, -0.00015258789062, 0.06246948242188, -0.09103393554688, -0.04772949218750, 0.12078857421875, 0.03897094726562, 0.01113891601562, -0.03793334960938, 0.13729858398438, -0.03610229492188, 0.08358764648438, -0.22149658203125, 0.21932983398438, 0.12185668945312, -0.05047607421875, 0.05548095703125, -0.20529174804688, 0.07086181640625, -0.14959716796875, 0.05380249023438, 0.18988037109375, 0.12139892578125, 0.24008178710938, -0.12518310546875, -0.10220336914062, -0.05615234375000, 0.04556274414062, -0.11129760742188, -0.05908203125000, -0.11560058593750, 0.09924316406250, 0.07543945312500, -0.13095092773438, -0.04278564453125, -0.03085327148438, 0.19345092773438, 0.16592407226562, -0.03424072265625, -0.09591674804688, 0.06036376953125, -0.17767333984375, 0.08541870117188, 0.17745971679688, 0.10842895507812, -0.14562988281250, -0.03213500976562, 0.08532714843750, 0.05068969726562, 0.00271606445312, 0.20700073242188, 0.09545898437500, -0.18707275390625, 0.07455444335938, -0.11724853515625, -0.02966308593750, -0.05920410156250, 0.01483154296875, -0.06900024414062, 0.00540161132812, -0.00738525390625, -0.04455566406250, 0.14898681640625, 0.06103515625000, 0.07360839843750, 0.01077270507812, -0.06213378906250, 0.06411743164062, 0.05557250976562, -0.10626220703125, 0.02761840820312, 0.08267211914062, -0.11361694335938, -0.00262451171875, 0.03805541992188, 0.10464477539062, -0.04022216796875, 0.04495239257812, 0.01101684570312, 0.19903564453125, -0.02978515625000, -0.01553344726562, -0.00070190429688, -0.15948486328125, 0.04510498046875, -0.13638305664062, -0.04660034179688, -0.23074340820312, 0.08425903320312, 0.18017578125000, -0.03601074218750, 0.13278198242188, -0.00015258789062, 0.09756469726562, -0.00631713867188, 0.06158447265625, -0.17642211914062, 0.16165161132812, 0.04391479492188, -0.04769897460938, 0.00637817382812, -0.09262084960938, 0.02685546875000, -0.12020874023438, -0.16418457031250, -0.05831909179688, 0.18801879882812, -0.02499389648438, 0.07830810546875, 0.07546997070312, 0.08325195312500, 0.08352661132812, -0.11267089843750, -0.06179809570312, -0.01980590820312, -0.11410522460938, -0.15676879882812, 0.18170166015625, -0.10861206054688, 0.06103515625000, 0.00674438476562, 0.02072143554688, 0.00991821289062, 0.00939941406250, -0.06768798828125, -0.04391479492188, -0.11166381835938, 0.00106811523438, -0.09326171875000, -0.05236816406250, -0.03332519531250, -0.11325073242188, -0.01296997070312, 0.08502197265625, 0.10888671875000, 0.16400146484375, -0.11022949218750, 0.03225708007812, 0.18063354492188, -0.08972167968750, 0.01855468750000, -0.09109497070312, -0.11596679687500, -0.07299804687500, 0.08346557617188, 0.02456665039062, -0.09835815429688, 0.09066772460938, -0.23028564453125, 0.20303344726562, 0.00531005859375, -0.02627563476562, -0.04867553710938, 0.04824829101562, 0.06777954101562, -0.11398315429688, 0.02871704101562, -0.11712646484375, -0.04946899414062, -0.05169677734375, -0.06784057617188, -0.06655883789062, 0.09341430664062, 0.14016723632812, 0.17630004882812, -0.07809448242188, 0.02642822265625, -0.13864135742188, 0.01553344726562, 0.06118774414062, -0.03567504882812, -0.06396484375000, 0.08706665039062, -0.17263793945312, 0.15435791015625, 0.10430908203125, -0.08575439453125, 0.19885253906250, 0.10968017578125, 0.03366088867188, -0.10104370117188, -0.01235961914062, 0.12506103515625, -0.26733398437500, -0.02362060546875, 0.09332275390625, 0.17684936523438, -0.08654785156250, -0.13375854492188, 0.05249023437500, 0.08520507812500, 0.11560058593750, 0.07485961914062, 0.05578613281250, 0.03060913085938, 0.02484130859375, -0.06796264648438, 0.06072998046875, 0.13668823242188, 0.01828002929688, 0.10372924804688, 0.05859375000000, -0.06750488281250, 0.03726196289062, -0.01879882812500, -0.14236450195312, -0.05224609375000, 0.01123046875000, -0.00119018554688, 0.05398559570312, -0.07086181640625, 0.02566528320312, -0.18151855468750, 0.07031250000000, -0.11209106445312, 0.01367187500000, 0.00112915039062, 0.14077758789062, -0.09582519531250, -0.02081298828125, -0.13504028320312, -0.10687255859375, 0.13574218750000, 0.16513061523438, -0.02078247070312, 0.05218505859375, 0.06405639648438, 0.11981201171875, 0.14834594726562, -0.05691528320312, -0.12448120117188, 0.07980346679688, 0.18432617187500, 0.08859252929688, 0.14212036132812, -0.10873413085938, -0.11087036132812, -0.13366699218750, 0.04953002929688, 0.02526855468750, -0.00070190429688, 0.08108520507812, -0.05249023437500, -0.09060668945312, 0.22521972656250, -0.04699707031250, 0.08770751953125, -0.00378417968750, 0.10717773437500, -0.05899047851562, -0.13690185546875, -0.07034301757812, 0.12249755859375, -0.07244873046875, 0.04641723632812, 0.02221679687500, 0.06707763671875, -0.11425781250000, 0.07366943359375, 0.17663574218750, 0.08786010742188, 0.04589843750000, -0.02615356445312, -0.12948608398438, 0.05749511718750, 0.03424072265625, -0.05932617187500, -0.01568603515625, -0.03253173828125, 0.12011718750000, 0.00415039062500, 0.02157592773438, -0.06326293945312, 0.05017089843750, 0.08456420898438, -0.05758666992188, -0.12884521484375, -0.02410888671875, 0.24029541015625, -0.10946655273438, 0.15609741210938, 0.00823974609375, 0.04946899414062, 0.09103393554688, 0.02587890625000, -0.15493774414062, 0.09664916992188, 0.07803344726562, 0.14739990234375, -0.02236938476562, 0.17587280273438, -0.07540893554688, -0.10681152343750, 0.04882812500000, 0.00875854492188, 0.01754760742188, 0.07861328125000, -0.12509155273438, 0.06188964843750, -0.06045532226562, -0.03857421875000, -0.04577636718750, -0.14721679687500, -0.01934814453125, -0.01321411132812, -0.09317016601562, -0.05435180664062, 0.07092285156250, 0.13803100585938, -0.01611328125000, 0.15884399414062, -0.03424072265625, -0.10690307617188, 0.10433959960938, 0.07702636718750, 0.17678833007812, -0.07437133789062, 0.02737426757812, -0.01190185546875, -0.03131103515625, -0.03594970703125, -0.01770019531250, -0.07733154296875, -0.11743164062500, -0.05218505859375, -0.02407836914062, -0.01614379882812, 0.06832885742188, -0.00714111328125, 0.11383056640625, 0.02050781250000, 0.05456542968750, 0.07336425781250, -0.07028198242188, -0.09759521484375, 0.02380371093750, 0.11553955078125, -0.03259277343750, -0.02462768554688, -0.01596069335938, -0.08251953125000, -0.00082397460938, -0.05621337890625, -0.04711914062500, 0.06326293945312, -0.14920043945312, 0.02471923828125, 0.06433105468750, -0.12167358398438, -0.04058837890625, 0.13388061523438, 0.03585815429688, -0.07409667968750, -0.04336547851562, 0.10015869140625, -0.00744628906250, 0.02767944335938, -0.06457519531250, -0.06640625000000, -0.08105468750000, -0.02609252929688, 0.04864501953125, 0.03329467773438, -0.14337158203125, 0.02795410156250, 0.01312255859375, -0.01684570312500, -0.00500488281250, 0.03594970703125, -0.01208496093750, -0.05718994140625, 0.02813720703125, 0.02984619140625, 0.00863647460938, -0.04232788085938, -0.09030151367188, 0.03457641601562, -0.00601196289062, -0.08520507812500, 0.02593994140625, -0.09304809570312, -0.13128662109375, -0.01473999023438, -0.04776000976562, -0.03353881835938, -0.00439453125000, 0.04714965820312, 0.13183593750000, 0.05709838867188, 0.02270507812500, -0.02279663085938, 0.11837768554688, 0.02093505859375, 0.01953125000000, -0.05368041992188, -0.00201416015625, -0.09411621093750, -0.02893066406250, -0.07827758789062, -0.10452270507812, 0.01010131835938, 0.02044677734375, 0.01376342773438, -0.01165771484375, 0.12344360351562, -0.03500366210938, -0.01138305664062, -0.07150268554688, 0.16369628906250, 0.01263427734375, 0.01721191406250, -0.06372070312500, -0.03482055664062, -0.09503173828125, 0.11019897460938, -0.17303466796875, 0.05294799804688, -0.09085083007812, -0.02709960937500, 0.00512695312500, 0.00659179687500, -0.00756835937500, -0.06967163085938, 0.05288696289062, 0.03247070312500, -0.06381225585938, -0.10412597656250, -0.10858154296875, -0.10949707031250, 0.07235717773438, -0.00613403320312, 0.00769042968750, 0.12875366210938, -0.16159057617188, 0.02929687500000, 0.03506469726562, 0.02026367187500, 0.03622436523438, 0.13046264648438, 0.01742553710938, -0.07470703125000, -0.28134155273438, 0.09829711914062, 0.09732055664062, -0.01937866210938, -0.10128784179688, 0.06341552734375, -0.14840698242188, 0.09848022460938, 0.10769653320312, 0.00927734375000, -0.02349853515625, 0.10052490234375, 0.09735107421875, 0.10720825195312, 0.03427124023438, 0.10778808593750, 0.19433593750000, -0.00875854492188, 0.12231445312500, 0.10098266601562, -0.04724121093750, 0.14437866210938, 0.00836181640625, 0.05181884765625, 0.05029296875000, 0.02044677734375, 0.08984375000000, -0.01022338867188, 0.05224609375000, -0.03915405273438, 0.03280639648438, -0.14770507812500, -0.05065917968750, 0.09890747070312, 0.08059692382812, -0.01718139648438, 0.18194580078125, 0.05520629882812, 0.03179931640625, -0.11279296875000, 0.02545166015625, -0.07553100585938, -0.08276367187500, 0.18237304687500, -0.00442504882812, 0.03323364257812, 0.04861450195312, 0.09542846679688, 0.11282348632812, 0.15859985351562, -0.13494873046875, -0.05911254882812, 0.01004028320312, 0.03131103515625, -0.05981445312500, -0.09631347656250, 0.01361083984375, -0.01406860351562, -0.18850708007812, -0.02188110351562, 0.07717895507812, 0.03561401367188, 0.10848999023438, 0.01159667968750, -0.04003906250000, 0.13784790039062, 0.02737426757812, 0.11596679687500, -0.09310913085938, -0.03439331054688, -0.05065917968750, -0.08267211914062, -0.11785888671875, -0.06597900390625, 0.11077880859375, 0.03439331054688, 0.19628906250000, -0.03308105468750, -0.01477050781250, 0.06610107421875, -0.02526855468750, 0.04495239257812, 0.17202758789062, -0.12695312500000, -0.04425048828125, 0.21578979492188, -0.09231567382812, 0.07019042968750, 0.22616577148438, 0.04568481445312, -0.03503417968750, -0.12017822265625, -0.09359741210938, 0.12857055664062, -0.00732421875000, -0.05743408203125, 0.04547119140625, -0.03329467773438, 0.13711547851562, -0.03009033203125, -0.05581665039062, 0.21682739257812, 0.04101562500000, 0.20187377929688, 0.07434082031250, 0.01586914062500, 0.07989501953125, 0.12805175781250, 0.02355957031250, -0.07125854492188, -0.15286254882812, -0.00024414062500, 0.01138305664062, -0.03665161132812, -0.06564331054688, 0.02133178710938, 0.09118652343750, -0.06158447265625, -0.02288818359375, 0.17669677734375, -0.02743530273438, 0.19869995117188, 0.14352416992188, 0.02465820312500, 0.05310058593750, -0.15917968750000, 0.18041992187500, -0.05853271484375, 0.06707763671875, -0.04141235351562, 0.15802001953125, 0.07058715820312, -0.13446044921875, -0.00814819335938, 0.16021728515625, 0.10452270507812, -0.04159545898438, -0.00939941406250, 0.06188964843750, 0.03811645507812, 0.02291870117188, 0.08731079101562, 0.10089111328125, -0.00521850585938, -0.05270385742188, -0.02755737304688, -0.09332275390625, -0.09588623046875, 0.10339355468750, -0.02368164062500, -0.08181762695312, -0.09539794921875, -0.01943969726562, 0.08059692382812, -0.14215087890625, -0.00518798828125, -0.03213500976562, -0.10760498046875, 0.04501342773438, 0.07467651367188, -0.07449340820312, 0.08035278320312, 0.05767822265625, -0.06622314453125, -0.04760742187500, 0.03720092773438, -0.11401367187500, 0.05429077148438, -0.11233520507812, -0.00390625000000, -0.10079956054688, 0.09997558593750, 0.13650512695312, 0.11401367187500, -0.04772949218750, 0.13180541992188, 0.08819580078125, -0.01525878906250, -0.12005615234375, -0.17196655273438, -0.02243041992188, -0.03204345703125, -0.07925415039062, 0.05862426757812, -0.09713745117188, 0.06936645507812, -0.04345703125000, 0.09231567382812, 0.02307128906250, -0.07495117187500, -0.14849853515625, 0.08038330078125, 0.09603881835938, 0.06961059570312, -0.07269287109375, 0.03088378906250, 0.10513305664062, 0.07299804687500, 0.04611206054688, -0.12469482421875, -0.04843139648438, -0.09011840820312, 0.16317749023438, -0.04107666015625, 0.01977539062500, -0.17370605468750, -0.04226684570312, -0.02221679687500, -0.10205078125000, -0.09817504882812, 0.19268798828125, 0.00683593750000, 0.11645507812500, -0.03576660156250, 0.07504272460938, 0.07000732421875, -0.06106567382812, -0.16571044921875, -0.10253906250000, -0.11618041992188, -0.08419799804688, 0.02880859375000, 0.08575439453125, 0.06167602539062, -0.07778930664062, 0.10140991210938, -0.13363647460938, 0.04296875000000, 0.01809692382812, -0.01580810546875, -0.11825561523438, -0.03347778320312, 0.00411987304688, 0.13906860351562, -0.09811401367188, 0.10653686523438, 0.02569580078125, -0.04473876953125, 0.05264282226562, 0.10482788085938, -0.13104248046875, 0.09573364257812, -0.06933593750000, 0.09146118164062, -0.05419921875000, -0.02645874023438, 0.02172851562500, 0.04080200195312, 0.11730957031250, -0.03713989257812, 0.08651733398438, 0.11715698242188, 0.21749877929688, 0.01907348632812, 0.03121948242188, -0.06741333007812, -0.05596923828125, 0.01007080078125, 0.01684570312500, -0.01782226562500, -0.02359008789062, -0.01391601562500, -0.07006835937500, -0.02108764648438, 0.05090332031250, -0.07376098632812, 0.02233886718750, -0.01504516601562, 0.03387451171875, 0.00991821289062, -0.14794921875000, -0.05651855468750, 0.11798095703125, 0.00225830078125, -0.00131225585938, -0.11151123046875, 0.01516723632812, 0.16848754882812, -0.15432739257812, 0.05078125000000, -0.09344482421875, -0.04702758789062, 0.13305664062500, 0.10983276367188, 0.07919311523438, 0.00790405273438, -0.17034912109375, 0.00564575195312, 0.03091430664062, -0.02185058593750, 0.00759887695312, 0.09063720703125, -0.05355834960938, 0.09094238281250, -0.02914428710938, 0.08303833007812, -0.00408935546875, 0.01010131835938, -0.04287719726562, 0.05258178710938, 0.00311279296875, -0.05001831054688, 0.08053588867188, 0.01715087890625, -0.12857055664062, 0.07528686523438, -0.00778198242188, -0.01043701171875, -0.02432250976562, -0.12078857421875, -0.01403808593750, -0.03042602539062, -0.12088012695312, -0.04232788085938, 0.03860473632812, 0.03149414062500, 0.02044677734375, -0.14236450195312, 0.04006958007812, 0.05413818359375, -0.08840942382812, 0.06567382812500, 0.00357055664062, -0.01681518554688, -0.05792236328125, -0.04626464843750, -0.11312866210938, 0.11166381835938, -0.02529907226562, 0.08651733398438, 0.00576782226562, 0.01181030273438, -0.08901977539062, 0.01614379882812, 0.08123779296875, 0.11022949218750, 0.00808715820312, -0.06967163085938, 0.09231567382812, -0.00659179687500, 0.16616821289062, -0.03314208984375, -0.00073242187500, 0.03457641601562, 0.18344116210938, -0.01754760742188, -0.04827880859375, -0.02185058593750, 0.05596923828125, 0.10467529296875, -0.09573364257812, -0.12460327148438, -0.01031494140625, 0.09863281250000, -0.00994873046875, -0.04525756835938, -0.06402587890625, -0.03082275390625, 0.00213623046875, 0.14254760742188, -0.04397583007812, 0.12481689453125, -0.03482055664062, -0.02392578125000, 0.10156250000000, -0.10229492187500, 0.01721191406250, -0.01956176757812, 0.02752685546875, 0.06918334960938, 0.06488037109375, -0.08670043945312, 0.03442382812500, -0.00753784179688, 0.01791381835938, -0.05773925781250, 0.01327514648438, -0.03228759765625, 0.08712768554688, -0.09164428710938, 0.05630493164062, 0.03546142578125, -0.05792236328125, 0.00460815429688, -0.07711791992188, 0.01907348632812, 0.13699340820312, 0.05078125000000, 0.01699829101562, -0.00082397460938, 0.15979003906250, 0.14733886718750, 0.02117919921875, -0.08599853515625, -0.06240844726562, 0.00152587890625, -0.09854125976562, -0.03436279296875, -0.06851196289062, -0.03295898437500, 0.06985473632812, 0.05798339843750, 0.04757690429688, -0.12573242187500, 0.03021240234375, 0.04321289062500, -0.01379394531250, 0.03836059570312, -0.12167358398438, 0.00588989257812, 0.08120727539062, -0.03381347656250, -0.05139160156250, -0.12338256835938, -0.05160522460938, 0.06616210937500, -0.01455688476562, -0.04748535156250, 0.03427124023438, -0.04232788085938, 0.07968139648438, 0.13882446289062, 0.05361938476562, 0.14242553710938, 0.07852172851562, 0.00085449218750, -0.06750488281250, 0.04321289062500, -0.06619262695312, 0.06326293945312, 0.02444458007812, -0.14654541015625, -0.09222412109375, 0.03121948242188, -0.09149169921875, -0.01928710937500, -0.08941650390625, 0.06372070312500, 0.02972412109375, -0.12664794921875, 0.06182861328125, 0.05838012695312, 0.09167480468750, -0.03298950195312, -0.12643432617188, -0.14892578125000, 0.02545166015625, -0.13732910156250, -0.08874511718750, 0.02069091796875, 0.12078857421875, -0.06564331054688, 0.04177856445312, 0.08975219726562, -0.04669189453125, 0.01361083984375, -0.06158447265625, 0.06149291992188, -0.03414916992188, -0.11376953125000, -0.02947998046875, -0.06683349609375, -0.04953002929688, -0.08026123046875, 0.05636596679688, 0.00231933593750, -0.10589599609375, -0.10372924804688, 0.09811401367188, -0.02142333984375, -0.03784179687500, -0.06091308593750, -0.05532836914062, -0.07971191406250, 0.00054931640625, -0.14459228515625, 0.06753540039062, 0.10305786132812, 0.02746582031250, -0.07672119140625, -0.04837036132812, -0.09494018554688, 0.00299072265625, 0.04180908203125, 0.09622192382812, -0.06176757812500, -0.08139038085938, 0.19812011718750, -0.10675048828125, -0.12026977539062, 0.07992553710938, 0.03399658203125, 0.04803466796875, -0.06317138671875, 0.05029296875000, 0.05239868164062, -0.03933715820312, 0.00613403320312, 0.03497314453125, -0.07461547851562, -0.12875366210938, -0.00588989257812, 0.01849365234375, 0.00183105468750, 0.01489257812500, -0.01293945312500, -0.08419799804688, -0.10427856445312, -0.00482177734375, -0.11743164062500, 0.01489257812500, -0.03076171875000, 0.12966918945312, 0.09365844726562, 0.01861572265625, 0.02807617187500, -0.07171630859375, -0.03582763671875, -0.06411743164062, -0.00158691406250, -0.01040649414062, -0.05944824218750, -0.13150024414062, 0.03625488281250, 0.08911132812500, -0.10839843750000, -0.00607299804688, 0.15866088867188, -0.05874633789062, -0.04196166992188, 0.07653808593750, 0.03732299804688, 0.16583251953125, -0.05889892578125, -0.14987182617188, -0.03250122070312, 0.00524902343750, 0.14874267578125, -0.08358764648438, 0.02816772460938, -0.05725097656250, 0.00537109375000, -0.06524658203125, 0.00827026367188, -0.16546630859375, -0.09918212890625, -0.06295776367188, -0.04541015625000, 0.04315185546875, -0.16323852539062, 0.03213500976562, 0.06591796875000, -0.06549072265625, -0.05523681640625, -0.00860595703125, 0.11230468750000, 0.05233764648438, -0.09939575195312, -0.00729370117188, 0.08459472656250, 0.03997802734375, -0.10516357421875, 0.04483032226562, 0.18145751953125, -0.08108520507812, -0.04376220703125, -0.09649658203125, -0.18389892578125, 0.00192260742188, 0.02670288085938, -0.12622070312500, -0.10693359375000, 0.13461303710938, 0.16265869140625, -0.07388305664062, -0.03598022460938, 0.15173339843750, 0.04501342773438, -0.07278442382812, 0.02816772460938, 0.10705566406250, -0.07281494140625, 0.13034057617188, 0.16241455078125, -0.06304931640625, 0.12277221679688, 0.07369995117188, -0.04879760742188, -0.02618408203125, -0.01016235351562, 0.00180053710938, 0.02023315429688, -0.12582397460938, -0.02426147460938, 0.05316162109375, 0.08712768554688, -0.02169799804688, 0.15747070312500, -0.16992187500000, 0.13510131835938, -0.00289916992188, -0.11251831054688, 0.04122924804688, -0.30511474609375, 0.12246704101562, 0.12017822265625, -0.04168701171875, 0.09655761718750, 0.01229858398438, -0.00335693359375, -0.07937622070312, 0.01095581054688, 0.01754760742188, 0.04971313476562, 0.05136108398438, -0.11727905273438, 0.08493041992188, 0.01794433593750, -0.02691650390625, 0.09210205078125, -0.08898925781250, 0.08285522460938, 0.00640869140625, 0.08758544921875, 0.05621337890625, -0.09249877929688, -0.01525878906250, -0.05786132812500, 0.07339477539062, 0.01690673828125, 0.08517456054688, 0.03567504882812, -0.09323120117188, -0.09475708007812, -0.05865478515625, 0.16207885742188, 0.05197143554688, -0.26742553710938, 0.17074584960938, -0.02020263671875, -0.11816406250000, -0.00271606445312, 0.11657714843750, 0.18994140625000, -0.02612304687500, 0.00314331054688, 0.05508422851562, 0.09637451171875, -0.18356323242188, -0.30776977539062, -0.11932373046875, 0.08044433593750, -0.17501831054688, 0.08227539062500, 0.00616455078125, 0.04190063476562, 0.09359741210938, 0.05535888671875, -0.00061035156250, 0.09237670898438, 0.14230346679688, -0.02084350585938, 0.12481689453125, 0.01153564453125, 0.09417724609375, -0.01647949218750, 0.17010498046875, -0.08450317382812, -0.15676879882812, -0.07870483398438, 0.04830932617188, -0.04675292968750, 0.03384399414062, -0.20086669921875, -0.11233520507812, -0.04364013671875, -0.12911987304688, -0.02755737304688, 0.00460815429688, 0.04983520507812, 0.19442749023438, 0.17303466796875, 0.03091430664062, 0.14184570312500, 0.04214477539062, -0.00238037109375, 0.01779174804688, -0.03976440429688, -0.03332519531250, 0.17520141601562, -0.03173828125000, -0.04547119140625, -0.05822753906250, -0.00881958007812, -0.00750732421875, -0.00915527343750, -0.06903076171875, 0.14807128906250, 0.02056884765625, -0.11282348632812, 0.05963134765625, 0.09710693359375, -0.08306884765625, 0.19830322265625, 0.07302856445312, 0.10040283203125, -0.02062988281250, 0.06176757812500, 0.06036376953125, -0.03579711914062, 0.02224731445312, 0.16522216796875, 0.03631591796875, -0.07476806640625, 0.04904174804688, -0.06109619140625, 0.06018066406250, -0.13583374023438, 0.07666015625000, -0.08795166015625, -0.00668334960938, -0.10940551757812, -0.15881347656250, -0.02563476562500, -0.01171875000000, -0.03994750976562, -0.06704711914062, -0.15280151367188, -0.03573608398438, -0.08935546875000, 0.01116943359375, 0.05181884765625, 0.02780151367188, 0.11212158203125, 0.09744262695312, 0.03601074218750, 0.12078857421875, 0.05957031250000, -0.10107421875000, -0.13296508789062, 0.10552978515625, 0.07135009765625, -0.04498291015625, -0.01162719726562, -0.04568481445312, 0.05004882812500, -0.01263427734375, 0.05673217773438, 0.09143066406250, -0.02932739257812, -0.11959838867188, -0.03555297851562, 0.07391357421875, -0.00955200195312, -0.08297729492188, 0.08392333984375, -0.06481933593750, -0.04559326171875, 0.05108642578125, -0.08224487304688, 0.04043579101562, 0.01626586914062, 0.11557006835938, 0.18917846679688, 0.21658325195312, 0.13323974609375, 0.07061767578125, 0.03369140625000, 0.00378417968750, 0.27935791015625, 0.11007690429688, -0.08126831054688, 0.02462768554688, -0.07232666015625, -0.06503295898438, -0.15109252929688, -0.16726684570312, 0.11953735351562, -0.06878662109375, -0.01251220703125, -0.17990112304688, -0.03042602539062, 0.10498046875000, 0.21856689453125, -0.06256103515625, -0.09411621093750, -0.05493164062500, 0.16806030273438, 0.06561279296875, 0.00765991210938, 0.10916137695312, -0.04684448242188, 0.03588867187500, -0.06179809570312, 0.09304809570312, -0.14782714843750, -0.12854003906250, 0.14825439453125, 0.11956787109375, 0.09851074218750, -0.10464477539062, -0.06753540039062, -0.08486938476562, 0.04714965820312, -0.12380981445312, -0.10867309570312, -0.02987670898438, -0.11343383789062, -0.07174682617188, -0.18280029296875, 0.01126098632812, -0.12136840820312, -0.10119628906250, 0.04290771484375, -0.12472534179688, 0.03964233398438, 0.10070800781250, 0.00720214843750, -0.09558105468750, 0.02691650390625, -0.13592529296875, 0.09484863281250, -0.01089477539062, -0.01007080078125, -0.03466796875000, -0.08035278320312, -0.05062866210938, -0.02828979492188, -0.01947021484375, -0.08325195312500, -0.00875854492188, -0.16400146484375, -0.06326293945312, 0.01968383789062, -0.13351440429688, -0.03915405273438, -0.02975463867188, 0.17645263671875, -0.06048583984375, -0.05459594726562, -0.13885498046875, -0.03979492187500, -0.06893920898438, -0.05496215820312, -0.13250732421875, -0.00555419921875, 0.04528808593750, -0.07705688476562, 0.02398681640625, -0.04928588867188, -0.26318359375000, -0.04101562500000, -0.05712890625000, 0.09945678710938, 0.08172607421875, -0.03735351562500, -0.15261840820312, 0.08593750000000, 0.12020874023438, 0.15588378906250, 0.11300659179688, -0.17404174804688, 0.00076293945312, 0.07727050781250, 0.06628417968750, 0.09051513671875, 0.06674194335938, -0.00262451171875, -0.07592773437500, -0.17645263671875, -0.02618408203125, -0.07965087890625, -0.02145385742188, 0.13150024414062, 0.00805664062500, -0.00503540039062, -0.05380249023438, 0.19863891601562, 0.03405761718750, 0.08300781250000, 0.06799316406250, -0.05297851562500, -0.20162963867188, -0.11041259765625, -0.09359741210938, 0.06884765625000, -0.02615356445312, 0.00662231445312, 0.00875854492188, -0.08953857421875, -0.00213623046875, 0.06301879882812, -0.07977294921875, -0.09500122070312, 0.00155639648438, -0.08776855468750, 0.06164550781250, -0.04281616210938, 0.06671142578125, 0.01895141601562, -0.11758422851562, -0.06744384765625, -0.08987426757812, 0.09820556640625, 0.05178833007812, 0.06738281250000, -0.12368774414062, 0.02230834960938, 0.05929565429688, 0.02902221679688, 0.03207397460938, -0.04803466796875, 0.01907348632812, -0.02551269531250, -0.01937866210938, 0.06704711914062, -0.08547973632812, -0.13952636718750, -0.00741577148438, 0.05657958984375, -0.04171752929688, -0.07022094726562, -0.10351562500000, -0.04669189453125, 0.01666259765625, -0.07028198242188, -0.00347900390625, -0.03894042968750, 0.05908203125000, -0.04138183593750, -0.02523803710938, -0.10314941406250, 0.12277221679688, 0.01678466796875, 0.06787109375000, -0.07766723632812, 0.02819824218750, -0.04724121093750, -0.12182617187500, 0.09683227539062, -0.15609741210938, -0.06964111328125, -0.00009155273438, -0.22052001953125, -0.01928710937500, -0.21603393554688, -0.10302734375000, -0.02578735351562, -0.04095458984375, 0.05465698242188, -0.15377807617188, 0.01824951171875, -0.02474975585938, 0.08636474609375, -0.07382202148438, 0.06240844726562, 0.01150512695312, -0.07107543945312, -0.06079101562500, 0.05752563476562, 0.08377075195312, 0.13336181640625, 0.11495971679688, -0.04702758789062, -0.02612304687500, -0.09289550781250, 0.08575439453125, 0.00482177734375, -0.17456054687500, 0.07144165039062, 0.05944824218750, -0.03982543945312, -0.01031494140625, -0.03948974609375, -0.01419067382812, -0.00119018554688, 0.11395263671875, 0.06851196289062, -0.00143432617188, -0.00323486328125, 0.15203857421875, 0.08746337890625, -0.00210571289062, -0.05456542968750, 0.00875854492188, -0.02474975585938, 0.00393676757812, -0.00579833984375, 0.02853393554688, 0.09039306640625, -0.05996704101562, 0.11410522460938, -0.13088989257812, -0.12030029296875, -0.02539062500000, -0.02328491210938, -0.02374267578125, 0.05786132812500, -0.05084228515625, 0.16159057617188, 0.04510498046875, 0.02703857421875, -0.01666259765625, 0.09469604492188, 0.13842773437500, 0.15274047851562, 0.09567260742188, -0.04733276367188, 0.12695312500000, -0.09335327148438, -0.01586914062500, 0.05596923828125, -0.19415283203125, 0.06106567382812, 0.09963989257812, 0.03192138671875, 0.03674316406250, 0.00372314453125, 0.02426147460938, 0.18438720703125, 0.02267456054688, -0.17431640625000, 0.01098632812500, -0.00711059570312, 0.16735839843750, 0.02581787109375, -0.18023681640625, 0.22186279296875, 0.00045776367188, -0.01190185546875, 0.04003906250000, 0.07366943359375, -0.07339477539062, -0.13385009765625, -0.06884765625000, 0.06414794921875, -0.28634643554688, 0.06765747070312, 0.04916381835938, 0.16918945312500, 0.16604614257812, -0.05984497070312, 0.22595214843750, -0.01745605468750, 0.01538085937500, 0.04626464843750, 0.03469848632812, 0.11193847656250, -0.10263061523438, -0.24801635742188, 0.18762207031250, 0.04714965820312, -0.16735839843750, 0.22872924804688, 0.00177001953125, -0.04956054687500, 0.08114624023438, -0.12451171875000, 0.04888916015625, -0.28704833984375, 0.03924560546875, -0.01928710937500, 0.09033203125000, -0.14523315429688, -0.06530761718750, 0.00357055664062, -0.21768188476562, 0.12234497070312, -0.18646240234375, 0.05810546875000, 0.10617065429688, 0.09204101562500, 0.15490722656250, -0.00997924804688, 0.07089233398438, 0.28704833984375, -0.19635009765625, 0.07162475585938, -0.29315185546875, -0.25540161132812, 0.16287231445312, 0.06427001953125, 0.06735229492188, 0.06982421875000, 0.12847900390625, -0.01391601562500, -0.09078979492188, 0.14093017578125, 0.40386962890625, -0.04171752929688, 0.24102783203125, 0.18200683593750, -0.06521606445312, -0.10708618164062, 0.16259765625000, 0.15719604492188, 0.03158569335938, -0.36999511718750, -0.06256103515625, -0.29833984375000, -0.13491821289062, -0.08956909179688, 0.07562255859375, -0.05609130859375, 0.14089965820312, -0.00454711914062, 0.15124511718750, -0.17852783203125, -0.03417968750000, 0.07489013671875, -0.04870605468750, 0.18121337890625, -0.07150268554688, -0.26171875000000, -0.37463378906250, -0.09588623046875, 0.03500366210938, 0.06640625000000, 0.35388183593750, 0.17440795898438, 0.23699951171875, -0.01077270507812, -0.11770629882812, 0.04364013671875, -0.21176147460938, 0.13537597656250, -0.13574218750000, 0.03393554687500, -0.27374267578125, 0.15734863281250, 0.13870239257812, 0.04907226562500, 0.26202392578125, -0.03201293945312, -0.12960815429688, -0.00866699218750, -0.08908081054688, -0.10754394531250, -0.03121948242188, -0.22799682617188, -0.14059448242188, 0.11276245117188, 0.00549316406250, -0.46505737304688, 0.12979125976562, 0.17932128906250, 0.01507568359375, -0.06335449218750, -0.04345703125000, -0.07083129882812, -0.14675903320312, 0.09664916992188, -0.05709838867188, -0.11694335937500, -0.08523559570312, -0.03109741210938, -0.05856323242188, 0.15322875976562, -0.05068969726562, 0.19650268554688, -0.01336669921875, -0.13830566406250, 0.14447021484375, -0.15408325195312, 0.07803344726562, -0.12759399414062, 0.10317993164062, 0.08230590820312, 0.12463378906250, -0.01803588867188, 0.06295776367188, 0.02828979492188, 